2.395362257957458496e-01,-1.340303719043731689e-01,4.640695452690124512e-01,1.677334755659103394e-01,9.106761962175369263e-02,5.440830066800117493e-02,-9.362931549549102783e-02,1.728686839342117310e-01,-3.740213438868522644e-02,1.473678052425384521e-01,-1.333953291177749634e-01,4.673517867922782898e-02,2.146075218915939331e-01,2.289743721485137939e-01,-1.285088807344436646e-01,5.159367322921752930e-01,1.540702134370803833e-01,-1.171341389417648315e-01,4.827066957950592041e-01,6.537822633981704712e-02
3.917704150080680847e-02,-9.016618877649307251e-02,2.927129901945590973e-02,2.233182340860366821e-01,4.963652789592742920e-02,-1.833875775337219238e-01,-1.914786398410797119e-01,-2.879916727542877197e-01,-1.185578703880310059e-01,3.064022958278656006e-02,-2.919189631938934326e-01,-1.071696951985359192e-01,9.010364115238189697e-02,-2.296092808246612549e-01,-1.093813553452491760e-01,4.844093322753906250e-02,-3.757480084896087646e-01,-2.660664319992065430e-01,-2.507915794849395752e-01,-6.844838708639144897e-02
1.016478091478347778e-01,1.222897320985794067e-02,-2.455146610736846924e-01,-5.317164659500122070e-01,8.988988399505615234e-02,9.902816265821456909e-02,-9.322965634055435658e-04,-8.180480599403381348e-01,2.869516797363758087e-02,-9.431778639554977417e-02,2.795000970363616943e-01,-1.011169314384460449e+00,1.566220670938491821e-01,9.871357679367065430e-02,1.185826286673545837e-01,2.881631068885326385e-02,-9.120345711708068848e-01,3.250789642333984375e-02,-9.728420376777648926e-01,9.448820352554321289e-02
1.951105296611785889e-01,3.477255115285515785e-03,1.786370202898979187e-02,-9.918454289436340332e-02,2.373864799737930298e-01,3.309157490730285645e-01,-4.254315793514251709e-02,2.412609942257404327e-02,-5.815079808235168457e-02,-1.226070672273635864e-01,2.208450436592102051e-01,3.784089908003807068e-02,4.105474054813385010e-01,1.428292691707611084e-01,3.003145940601825714e-02,-1.534782648086547852e-01,2.953084185719490051e-02,1.884992271661758423e-01,3.393313586711883545e-01,2.052122503519058228e-01
1.852333396673202515e-01,4.654459282755851746e-02,1.286111921072006226e-01,-6.957279983907938004e-03,-2.429189980030059814e-01,-2.529753148555755615e-01,-4.902696982026100159e-02,4.167495667934417725e-01,-6.263603270053863525e-02,2.832886278629302979e-01,-8.552964031696319580e-02,3.156389594078063965e-01,2.778739035129547119e-01,3.345604753121733665e-03,-3.261897712945938110e-02,6.183075904846191406e-01,3.526139259338378906e-01,-6.930530071258544922e-02,4.547171294689178467e-01,-5.341832991689443588e-03
8.371239155530929565e-02,-3.115164339542388916e-01,4.941196646541357040e-03,-2.417597621679306030e-01,-2.686063051223754883e-01,-6.395528912544250488e-01,-1.503792684525251389e-02,-1.114285662770271301e-01,-1.358816921710968018e-01,-4.908944070339202881e-01,-5.014454722404479980e-01,4.582457989454269409e-02,-2.658529877662658691e-01,-6.927280873060226440e-02,-6.795205175876617432e-02,-2.890885472297668457e-01,7.640941767022013664e-04,-2.835599482059478760e-01,-6.586672663688659668e-01,-1.801947206258773804e-01
1.441713720560073853e-01,1.036132723093032837e-01,-3.806407451629638672e-01,2.038776427507400513e-01,1.747798919677734375e-01,2.174510061740875244e-02,6.084305047988891602e-02,-1.059414863586425781e+00,1.503531634807586670e-01,-1.051347926259040833e-01,-2.382704988121986389e-02,-2.485378980636596680e-01,-1.595246195793151855e-01,-9.177916496992111206e-02,3.497619554400444031e-02,1.809241473674774170e-01,-1.498161792755126953e+00,-1.167913451790809631e-01,-5.501204133033752441e-01,1.023457422852516174e-01
2.063625305891036987e-01,1.334346085786819458e-01,-2.046962082386016846e-02,2.564531564712524414e-01,1.883731037378311157e-01,1.567683219909667969e-01,2.248811721801757812e-01,-1.320326328277587891e+00,2.119465470314025879e-01,-1.962894350290298462e-01,5.005976185202598572e-02,-3.025603592395782471e-01,-1.154013052582740784e-01,-4.544476047158241272e-03,1.099902391433715820e-01,1.904933899641036987e-01,-1.950582385063171387e+00,-1.583615317940711975e-02,-6.985039114952087402e-01,1.257363557815551758e-01
9.678106009960174561e-02,1.028106659650802612e-01,-1.045240387320518494e-01,-1.148180142045021057e-01,1.388344019651412964e-01,1.089890226721763611e-01,1.337720006704330444e-01,-8.968789577484130859e-01,1.148917078971862793e-01,-5.251666307449340820e-01,1.489973962306976318e-01,-4.120500385761260986e-01,-4.463675022125244141e-01,1.291352212429046631e-01,1.693442463874816895e-01,5.209451541304588318e-02,-1.270346283912658691e+00,6.247946526855230331e-03,-9.370067119598388672e-01,1.081896498799324036e-01
1.602714955806732178e-01,-1.692921072244644165e-01,3.504821360111236572e-01,2.575487792491912842e-01,-3.709179759025573730e-01,-1.337073594331741333e-01,2.398527972400188446e-02,-4.278462529182434082e-01,5.407909676432609558e-02,2.759511470794677734e-01,3.194749122485518456e-03,1.773615628480911255e-01,5.225031971931457520e-01,5.693626031279563904e-02,-5.734242200851440430e-01,4.657609015703201294e-02,2.057799324393272400e-02,-3.542521223425865173e-02,6.899149715900421143e-02,4.840303584933280945e-02
2.406788915395736694e-01,-1.026519238948822021e-01,1.660603433847427368e-01,4.232533872127532959e-01,2.394466102123260498e-01,6.167688407003879547e-03,1.745578087866306305e-02,-9.034776687622070312e-01,-5.856613069772720337e-02,-7.558652162551879883e-01,-2.234578281641006470e-01,-2.262484580278396606e-01,2.800450921058654785e-01,-8.804453909397125244e-02,9.055086411535739899e-03,1.404289454221725464e-01,-1.376368999481201172e+00,-1.816066801548004150e-01,-6.004263162612915039e-01,-3.336633369326591492e-02
1.494228094816207886e-01,2.743752896785736084e-01,-1.968027502298355103e-01,-2.952190339565277100e-01,2.096718102693557739e-01,2.228816971182823181e-02,1.971374303102493286e-01,-2.024370431900024414e+00,2.619016468524932861e-01,-2.582484483718872070e-01,1.911541968584060669e-01,-2.348662167787551880e-01,-2.300111949443817139e-01,1.063299328088760376e-01,1.971483826637268066e-01,2.358691245317459106e-01,-2.612362623214721680e+00,-9.651422500610351562e-02,-2.996077239513397217e-01,1.174425706267356873e-01
1.844518184661865234e-01,4.057160764932632446e-02,2.573898136615753174e-01,2.360229641199111938e-01,8.368002623319625854e-02,4.134625941514968872e-02,7.226055860519409180e-02,-6.413710117340087891e-01,1.101556867361068726e-01,1.702952384948730469e-01,-2.834528917446732521e-03,-3.503149747848510742e-01,9.799248725175857544e-02,-1.795100718736648560e-01,-3.363233059644699097e-02,9.508302807807922363e-02,-1.176798224449157715e+00,-1.240694597363471985e-01,-2.682306170463562012e-01,2.151897177100181580e-02
2.131518572568893433e-01,2.431493103504180908e-01,-3.713474273681640625e-01,-2.834574878215789795e-01,2.410677969455718994e-01,2.876824438571929932e-01,3.096951544284820557e-01,-2.989650964736938477e+00,2.728182971477508545e-01,-3.613665401935577393e-01,2.191965132951736450e-01,-3.089849948883056641e-01,-3.978756070137023926e-01,1.933100968599319458e-01,2.236156612634658813e-01,2.046676427125930786e-01,-3.764583349227905273e+00,1.942816674709320068e-01,-3.977518081665039062e-01,2.034366875886917114e-01
-3.942392766475677490e-01,-4.779083728790283203e-01,4.248936474323272705e-01,-1.712895333766937256e-01,1.091215107589960098e-02,3.056721389293670654e-01,-6.713403016328811646e-02,4.201112091541290283e-01,-2.037314772605895996e-01,3.740337789058685303e-01,2.165463268756866455e-01,2.543191313743591309e-01,1.577542126178741455e-01,-7.098684553056955338e-03,-9.572032839059829712e-02,6.268581151962280273e-01,7.958450913429260254e-01,-2.257626354694366455e-01,5.751587152481079102e-01,-2.766259312629699707e-01
1.305162161588668823e-01,9.310917556285858154e-02,4.871174320578575134e-02,2.589771896600723267e-02,9.393662214279174805e-02,4.044958204030990601e-02,1.592609286308288574e-01,7.869665324687957764e-02,-5.167416483163833618e-02,2.480487227439880371e-01,-1.612302064895629883e-01,2.971561253070831299e-01,1.101576015353202820e-01,-2.120327502489089966e-01,3.023809492588043213e-01,7.621575593948364258e-01,4.894339740276336670e-01,-4.783807694911956787e-02,1.195848658680915833e-01,-6.390960514545440674e-02
2.009611390531063080e-02,1.146705448627471924e-01,-4.222344160079956055e-01,8.463736623525619507e-02,4.302336648106575012e-02,-5.792182683944702148e-02,-1.847920566797256470e-01,-3.286598026752471924e-01,-9.586168080568313599e-02,-1.263310909271240234e-01,2.975504286587238312e-02,-2.544123232364654541e-01,8.609616011381149292e-02,-1.511125266551971436e-01,-3.860820084810256958e-02,-5.299175381660461426e-01,-4.906442165374755859e-01,-1.321358084678649902e-01,-4.799498021602630615e-01,-3.389182686805725098e-02
-9.039699286222457886e-02,-6.068025529384613037e-02,-1.102603822946548462e-01,-2.439119964838027954e-01,-4.501902312040328979e-02,1.383589357137680054e-01,-2.835581079125404358e-02,2.412362992763519287e-01,-1.131712570786476135e-01,6.493255496025085449e-02,2.646627426147460938e-01,2.090795636177062988e-01,2.877917289733886719e-01,-4.688310995697975159e-02,2.264352329075336456e-02,-1.097215805202722549e-02,3.055670261383056641e-01,9.774311631917953491e-02,2.975818812847137451e-01,-3.620747243985533714e-03
2.960188686847686768e-01,1.992397457361221313e-01,-1.543384641408920288e-01,-3.367556929588317871e-01,2.970783412456512451e-01,2.197356671094894409e-01,7.431489974260330200e-02,-2.608430147171020508e+00,2.401437610387802124e-01,-3.242112696170806885e-01,1.959236562252044678e-01,-2.982877790927886963e-01,-2.379515320062637329e-01,2.474264353513717651e-01,1.951200366020202637e-01,2.055189013481140137e-02,-3.180400133132934570e+00,-2.993441522121429443e-01,-3.967095613479614258e-01,1.827332526445388794e-01
1.700213849544525146e-01,2.125679254531860352e-01,-2.528309524059295654e-01,-1.013041809201240540e-01,1.912183463573455811e-01,1.502740681171417236e-01,2.619653642177581787e-01,-2.286085844039916992e+00,2.861368656158447266e-01,-3.029970228672027588e-01,1.669989973306655884e-01,-2.891543507575988770e-01,-3.104794919490814209e-01,1.646624356508255005e-01,2.148710489273071289e-01,1.562969535589218140e-01,-3.273661375045776367e+00,9.981739521026611328e-02,-5.150147676467895508e-01,1.741108298301696777e-01
