1.371452093124389648e+00,-3.223325684666633606e-02,-6.387382149696350098e-01,8.736475706100463867e-01,-3.314234614372253418e-01,1.489151418209075928e-01,8.070685714483261108e-02,-3.080506920814514160e-01,-1.595417857170104980e+00,3.894746303558349609e+00,9.414817094802856445e-01,3.776320457458496094e+00,1.055270060896873474e-01,1.029920876026153564e-01,-5.641768574714660645e-01,5.411624908447265625e-01,-2.901852503418922424e-02,-8.010637760162353516e-01,-1.866220593452453613e+00,2.122765302658081055e+00,1.553004235029220581e-02,-1.158066391944885254e+00,-3.216642439365386963e-01,3.249091625213623047e+00,-3.015950322151184082e-01,-1.910789966583251953e+00,-1.114679127931594849e-02,8.328147232532501221e-03,3.627227783203125000e+00,-9.317952394485473633e-01,1.639919042587280273e+00,2.502715349197387695e+00,3.430080041289329529e-02,-1.969144225120544434e+00,2.240944355726242065e-01,-8.916114270687103271e-02,4.384265244007110596e-01,-1.405648350715637207e+00,-1.177526414394378662e-01,-3.002393841743469238e-01
