-6.224678829312324524e-02,2.338813841342926025e-01,-2.819463424384593964e-02,-3.214392066001892090e-01,1.734386980533599854e-01,-1.149307191371917725e-01,-6.054869890213012695e-01,-5.601381659507751465e-01,6.092698499560356140e-02,-2.344517558813095093e-01,2.350115589797496796e-02,3.133426010608673096e-01,-1.756410151720046997e-01,1.139233112335205078e-01,6.073252558708190918e-01,5.567985177040100098e-01
2.670267224311828613e-01,-1.446904242038726807e-01,-2.438303083181381226e-02,1.718282401561737061e-01,1.804782450199127197e-01,7.186456024646759033e-02,8.113966882228851318e-02,-6.023409962654113770e-02,-2.685983479022979736e-01,1.063810959458351135e-01,1.696925843134522438e-03,-2.039229869842529297e-01,8.207349777221679688e-01,-1.924843713641166687e-02,-1.455882042646408081e-01,7.191537320613861084e-02
6.485584191977977753e-03,1.451835185289382935e-01,-2.069284580647945404e-02,-1.536642611026763916e-01,1.515243947505950928e-01,-5.212857127189636230e-01,-1.169568747282028198e-01,-1.477191448211669922e-01,-9.445053525269031525e-03,-1.424344033002853394e-01,1.896962337195873260e-02,1.564388126134872437e-01,-1.110149994492530823e-01,-9.128034710884094238e-01,1.193543374538421631e-01,1.501267403364181519e-01
6.079947948455810547e-01,-3.379175066947937012e-01,2.160743921995162964e-01,1.578596532344818115e-01,-1.187497600913047791e-01,-2.873343825340270996e-01,2.630418241024017334e-01,2.747871279716491699e-01,-6.068647503852844238e-01,3.405825793743133545e-01,-2.157950252294540405e-01,-1.566486358642578125e-01,5.858451128005981445e-02,-1.191767230629920959e-01,-2.597542405128479004e-01,-2.760682404041290283e-01
-6.105596423149108887e-01,1.249103173613548279e-01,-1.390603482723236084e-01,1.100244447588920593e-01,-5.142455920577049255e-02,2.010999321937561035e-01,4.888134002685546875e-01,3.666999936103820801e-01,6.088687181472778320e-01,-1.296695172786712646e-01,1.388377994298934937e-01,-1.459587961435317993e-01,5.133846774697303772e-02,-2.020439505577087402e-01,-4.908117949962615967e-01,-3.679550886154174805e-01
