1.356988102197647095e-01,-1.684264540672302246e-01,-7.571993768215179443e-02,3.994517028331756592e-02,-2.660117745399475098e-01,-2.040328085422515869e-01,-5.747589468955993652e-02,4.302727580070495605e-01,-2.994736731052398682e-01,-9.048639982938766479e-02,3.004717528820037842e-01,3.067176938056945801e-01,1.444876641035079956e-01,3.512587398290634155e-02,2.339573809877038002e-03,-5.092035979032516479e-02,9.428872913122177124e-02,5.659349262714385986e-02,2.238162094727158546e-03,-1.664339601993560791e-01,5.753667354583740234e-01,-1.065825521945953369e-01,1.187852770090103149e-01,-8.986320495605468750e-01,-9.667046070098876953e-01,-9.127274900674819946e-02,-9.623680114746093750e-01,-9.566439688205718994e-02,2.469978034496307373e-01,3.668970167636871338e-01,5.072483420372009277e-01,7.040709257125854492e-02,-1.109267622232437134e-01,-8.052177727222442627e-03,-6.607944369316101074e-01,7.475203275680541992e-02,3.779275119304656982e-01,-2.671427249908447266e+00,3.199626877903938293e-02,-6.051023602485656738e-01
1.254867911338806152e-01,4.007945656776428223e-01,-6.158112362027168274e-02,7.507552858442068100e-03,-1.733850389719009399e-01,1.931670755147933960e-01,6.038456410169601440e-02,5.560566857457160950e-02,2.096798568964004517e-01,-7.302518934011459351e-03,1.186005845665931702e-01,2.928328812122344971e-01,-7.628562301397323608e-02,-5.323316454887390137e-01,-8.614880964159965515e-03,2.200979888439178467e-01,-2.622506618499755859e-01,-1.702036559581756592e-01,2.811132371425628662e-02,-1.652410328388214111e-01,3.544221222400665283e-01,1.683791875839233398e-01,-4.994560778141021729e-01,-1.453835815191268921e-01,6.366859674453735352e-01,1.996094919741153717e-02,8.594286441802978516e-01,-2.053297609090805054e-01,2.503286600112915039e-01,3.743075951933860779e-02,-3.124790191650390625e-01,-6.162087917327880859e-01,-2.147753536701202393e-01,7.383950799703598022e-02,-1.727095097303390503e-01,1.721459999680519104e-02,3.723947098478674889e-03,7.239301502704620361e-02,9.039383381605148315e-02,-4.438492655754089355e-01
1.439471095800399780e-01,-4.183521494269371033e-02,-7.350526005029678345e-02,-5.771496146917343140e-02,9.325438737869262695e-02,3.365202546119689941e-01,2.763206511735916138e-02,-1.732098758220672607e-01,-1.672379523515701294e-01,2.955536730587482452e-02,5.695387721061706543e-02,-1.365398019552230835e-01,1.954098939895629883e-01,2.335276454687118530e-02,-1.030337414704263210e-03,-1.725144237279891968e-01,1.363102942705154419e-01,1.015387475490570068e-02,1.821877993643283844e-02,8.057730644941329956e-02,7.061313092708587646e-02,-1.146792396903038025e-01,2.510848827660083771e-02,9.112949669361114502e-02,1.194032281637191772e-01,2.323018386960029602e-02,-1.997354924678802490e-01,-1.813757866621017456e-01,-5.233533978462219238e-01,1.470937728881835938e-01,2.701129019260406494e-01,3.525791168212890625e-01,7.275735959410667419e-03,2.593880705535411835e-02,3.082058429718017578e-01,2.498346380889415741e-02,1.562761329114437103e-02,-1.885750293731689453e-01,-2.858875691890716553e-01,1.333350664936006069e-03
-3.722582012414932251e-02,4.683256149291992188e-01,-9.246277809143066406e-02,1.453581005334854126e-01,-4.865512847900390625e-01,-5.503322482109069824e-01,2.670406736433506012e-02,7.780445218086242676e-01,3.647807538509368896e-01,-4.712415114045143127e-02,4.176760017871856689e-01,3.107653185725212097e-02,-4.264415204524993896e-01,-4.619995951652526855e-01,1.505198981612920761e-02,-3.596244156360626221e-01,-1.997905373573303223e-01,-3.471234440803527832e-01,1.013075411319732666e-01,-8.401441574096679688e-02,5.351087078452110291e-02,2.686210870742797852e-01,-2.936293929815292358e-02,3.654730319976806641e-01,8.918987512588500977e-01,-2.521688938140869141e-01,4.687639474868774414e-01,-4.304477572441101074e-02,-4.754867553710937500e-01,-4.585880935192108154e-01,-4.557649791240692139e-01,-3.435828983783721924e-01,-5.426128394901752472e-03,5.398372560739517212e-02,2.360058389604091644e-02,7.207284122705459595e-02,2.893903255462646484e-01,-2.965421378612518311e-01,-2.413382232189178467e-01,1.107382029294967651e-01
4.084383249282836914e-01,1.747578680515289307e-01,3.714667558670043945e-01,2.417339682579040527e-01,-6.617081910371780396e-02,-1.627110987901687622e-01,-8.405888825654983521e-02,-2.816767804324626923e-02,1.090194210410118103e-01,4.553580190986394882e-03,6.562400460243225098e-01,-1.683138683438301086e-02,-9.688813239336013794e-03,1.816524416208267212e-01,-5.619795247912406921e-02,-2.678025364875793457e-01,4.391107708215713501e-02,-1.293509006500244141e-01,-3.136428445577621460e-02,1.157568991184234619e-01,-1.098912283778190613e-01,2.864239215850830078e-01,3.173822462558746338e-01,1.491521596908569336e-01,5.282563567161560059e-01,5.622050166130065918e-02,3.077997863292694092e-01,2.924671471118927002e-01,-7.188723236322402954e-02,1.673198863863945007e-02,-3.315802216529846191e-01,-4.183406829833984375e-01,1.423708200454711914e-01,-7.490737736225128174e-02,5.217818617820739746e-01,-6.311308592557907104e-02,2.408709824085235596e-01,4.396409988403320312e-01,1.109066307544708252e-01,-2.332525998353958130e-01
-7.173725962638854980e-02,-7.458001375198364258e-02,-2.442980408668518066e-01,3.467595279216766357e-01,-9.825377911329269409e-02,-2.070738226175308228e-01,-1.797978207468986511e-02,1.126736924052238464e-01,-2.343484461307525635e-01,-2.452297694981098175e-02,9.369976818561553955e-02,-1.933933198451995850e-01,1.247390210628509521e-01,4.195256531238555908e-01,-3.215254098176956177e-02,-1.729851365089416504e-01,-1.524541676044464111e-01,1.798006445169448853e-01,-4.340604692697525024e-02,-5.892766639590263367e-02,1.763732731342315674e-01,2.705453038215637207e-01,-7.740718126296997070e-02,2.731266319751739502e-01,-1.476244926452636719e-01,1.562764048576354980e-01,-1.274570673704147339e-01,-1.361683905124664307e-01,1.893670111894607544e-01,-2.157144397497177124e-01,2.696677446365356445e-01,2.737721800804138184e-01,1.905170828104019165e-02,1.565250940620899200e-02,6.958147883415222168e-02,-7.345110177993774414e-03,1.142972409725189209e-01,2.982073426246643066e-01,1.220816299319267273e-01,2.998756468296051025e-01
1.134656220674514771e-01,2.679760754108428955e-01,-8.198381960391998291e-02,3.102126531302928925e-03,9.579382091760635376e-02,1.009260118007659912e-01,2.458909759297966957e-03,-6.202327609062194824e-01,1.940224170684814453e-01,-7.514760643243789673e-02,1.201307773590087891e-01,-4.856606572866439819e-02,-9.316091425716876984e-03,4.525703787803649902e-01,-1.245353184640407562e-02,1.473683267831802368e-01,8.299391716718673706e-03,2.032453864812850952e-01,1.663909293711185455e-02,-2.391828298568725586e-01,3.326332569122314453e-01,3.625822365283966064e-01,9.705472737550735474e-02,-4.023059904575347900e-01,-1.307704299688339233e-01,7.330691069364547729e-02,4.889841005206108093e-02,-1.499321218580007553e-02,-8.983526378870010376e-02,1.294752210378646851e-01,-2.002054154872894287e-01,-4.336601123213768005e-03,2.010195106267929077e-01,-2.318803220987319946e-02,-1.493669450283050537e-01,-3.541729529388248920e-04,-1.870961487293243408e-01,4.595746994018554688e-01,3.852376043796539307e-01,1.108436658978462219e-02
4.008893370628356934e-01,2.822667658329010010e-01,4.860802292823791504e-01,4.040257036685943604e-01,3.722702264785766602e-01,3.586975634098052979e-01,-1.583940863609313965e+00,-1.804025173187255859e-01,-3.971214890480041504e-01,-1.382239222526550293e+00,5.100383162498474121e-01,9.165100753307342529e-02,2.535136640071868896e-01,4.119799733161926270e-01,-1.419793486595153809e+00,-1.347284466028213501e-01,3.895454406738281250e-01,3.632042706012725830e-01,-1.192918300628662109e+00,-2.379949688911437988e-01,1.429116278886795044e-01,-1.988468319177627563e-01,4.370399415493011475e-01,-1.694865152239799500e-02,-9.524421095848083496e-01,-1.043899655342102051e-01,-1.130304574966430664e+00,2.446721941232681274e-01,4.919081926345825195e-02,2.486239373683929443e-01,2.474117726087570190e-01,5.060433745384216309e-01,1.979720592498779297e-01,-1.596878170967102051e+00,-8.949173688888549805e-01,-1.369248270988464355e+00,6.660087406635284424e-02,-9.181559085845947266e-01,8.672821521759033203e-02,-3.640452027320861816e-01
-4.929354786872863770e-02,-3.687621057033538818e-01,7.844165712594985962e-02,1.888404786586761475e-02,-1.377239078283309937e-01,-5.429521799087524414e-01,3.544820100069046021e-02,-1.031964868307113647e-01,6.441221833229064941e-01,-2.069208770990371704e-02,-3.019238114356994629e-01,-3.437938690185546875e-01,-3.255147933959960938e-01,-3.765446841716766357e-01,-1.262601371854543686e-02,6.160858273506164551e-01,-3.121287226676940918e-01,-2.715814709663391113e-01,-3.092934936285018921e-02,2.037151008844375610e-01,-2.193505913019180298e-01,-1.020925305783748627e-02,4.325987398624420166e-02,-5.786575004458427429e-02,-6.062890291213989258e-01,-8.767846971750259399e-02,-5.216250419616699219e-01,-1.159582585096359253e-01,1.252773255109786987e-01,-1.263542473316192627e-01,-2.854968905448913574e-01,-2.284506857395172119e-01,3.980177640914916992e-01,-4.403975605964660645e-02,5.462304353713989258e-01,2.873156219720840454e-03,-9.168824553489685059e-02,5.491705536842346191e-01,3.103370219469070435e-02,5.822208523750305176e-01
3.352316096425056458e-02,9.110838919878005981e-02,1.861636638641357422e-01,5.065902471542358398e-01,6.637196242809295654e-02,-9.271690994501113892e-02,-1.326081808656454086e-02,3.788015618920326233e-02,8.931915462017059326e-02,-2.369004674255847931e-02,1.282694190740585327e-01,3.108609914779663086e-01,1.395297795534133911e-01,-4.032434821128845215e-01,2.072325162589550018e-02,-8.811332285404205322e-02,6.304278969764709473e-02,-3.849216699600219727e-01,-7.498040795326232910e-03,5.483021587133407593e-02,-1.271608918905258179e-01,-2.804395556449890137e-01,3.648158013820648193e-01,2.040075510740280151e-01,-4.772022068500518799e-01,-6.751759350299835205e-02,-3.802977129817008972e-02,2.003611922264099121e-01,-3.730980455875396729e-01,9.031231701374053955e-02,2.864564582705497742e-02,-1.425417810678482056e-01,4.130174219608306885e-02,-8.484480902552604675e-03,-4.699450358748435974e-02,9.106642566621303558e-03,3.535840809345245361e-01,-5.654003620147705078e-01,-3.282629325985908508e-02,2.721115052700042725e-01
-1.179962009191513062e-01,3.015197813510894775e-01,1.194446012377738953e-01,2.275395393371582031e-01,4.056222438812255859e-01,4.259966015815734863e-01,-1.423654705286026001e-02,-1.105861924588680267e-02,-5.152579545974731445e-01,-7.618036121129989624e-03,-8.095400780439376831e-02,-3.007512539625167847e-02,3.207899928092956543e-01,1.090429052710533142e-01,6.005320698022842407e-03,-5.606749653816223145e-02,-2.036247849464416504e-01,2.160996496677398682e-01,-1.517394185066223145e-02,1.536143869161605835e-01,1.422669459134340286e-02,3.350224718451499939e-02,6.795661896467208862e-02,-6.809651851654052734e-02,-2.414436936378479004e-01,-7.263492047786712646e-02,-2.970257401466369629e-01,-8.697819709777832031e-02,2.986233681440353394e-02,9.203048795461654663e-02,2.001640200614929199e-01,5.095248222351074219e-01,1.654460839927196503e-02,2.760534174740314484e-02,4.417967051267623901e-02,1.061366219073534012e-02,-2.719556689262390137e-01,5.542177557945251465e-01,-2.477012723684310913e-01,-1.494000852108001709e-01
-6.583330035209655762e-02,1.758112311363220215e-01,9.214069694280624390e-02,2.186730355024337769e-01,-1.108094602823257446e-01,1.844495721161365509e-02,-8.592511527240276337e-03,-1.013673320412635803e-01,4.145079851150512695e-02,4.442732781171798706e-02,-3.617142438888549805e-01,-7.009842991828918457e-02,-1.539460569620132446e-01,3.314181566238403320e-01,1.990134455263614655e-02,-3.266578018665313721e-01,-3.126842379570007324e-01,1.590649336576461792e-01,-9.954537265002727509e-03,4.917288720607757568e-01,1.228264272212982178e-01,-1.112207099795341492e-01,2.258030474185943604e-01,-6.910487264394760132e-02,2.987995743751525879e-01,2.237419784069061279e-01,6.906991475261747837e-04,1.808039098978042603e-02,-4.782020300626754761e-02,1.586239039897918701e-01,-3.261782601475715637e-02,5.835459753870964050e-02,-1.232814788818359375e-01,-1.381752453744411469e-02,-7.397166639566421509e-02,-5.595157854259014130e-03,4.035130515694618225e-02,-6.473171710968017578e-01,-3.231412768363952637e-01,-9.082131087779998779e-02
1.769293546676635742e-01,2.445732057094573975e-02,-2.673303484916687012e-01,1.300189495086669922e-01,-3.559271693229675293e-01,-3.237423896789550781e-01,3.078868798911571503e-02,2.442669421434402466e-01,2.912515103816986084e-01,1.302037294954061508e-02,1.398736387491226196e-01,1.637550443410873413e-01,-3.161817193031311035e-01,-1.984526515007019043e-01,-1.549370866268873215e-02,-6.321126222610473633e-02,-4.031368792057037354e-01,-2.834261953830718994e-01,7.272550836205482483e-03,5.744311213493347168e-01,2.559319254942238331e-04,-1.956861317157745361e-01,1.237804219126701355e-01,1.972587965428829193e-02,6.483364701271057129e-01,4.347360432147979736e-01,1.399230509996414185e-01,-4.415529221296310425e-02,-1.165723279118537903e-01,-3.735097050666809082e-01,-2.135773301124572754e-01,-6.241459846496582031e-01,-1.550401933491230011e-02,2.008946985006332397e-02,-3.338837623596191406e-01,-1.744956098264083266e-04,-2.202625572681427002e-01,9.055246710777282715e-01,-4.174325987696647644e-02,1.335057765245437622e-01
3.546898439526557922e-02,9.746504575014114380e-02,1.076579689979553223e-01,-2.120355144143104553e-02,-4.351367056369781494e-01,-1.959176510572433472e-01,-2.574989013373851776e-02,3.370031118392944336e-01,3.709539175033569336e-01,-1.093198079615831375e-02,2.794273756444454193e-02,-2.420348972082138062e-01,-1.703759282827377319e-01,-3.554829061031341553e-01,3.455833531916141510e-03,1.184136644005775452e-01,-4.143561720848083496e-01,-2.875626683235168457e-01,-1.488929428160190582e-02,6.038159132003784180e-01,-2.918984293937683105e-01,6.793693453073501587e-02,-1.600893884897232056e-01,-5.708111822605133057e-02,1.031145453453063965e-01,-5.583631247282028198e-02,-2.825391590595245361e-01,-1.518059968948364258e-01,-3.613112866878509521e-01,-5.209864377975463867e-01,-2.101947069168090820e-01,-1.060701534152030945e-01,4.341585189104080200e-02,4.476969689130783081e-02,1.062357068061828613e+00,-3.736308217048645020e-02,-2.930393218994140625e-01,5.441461801528930664e-01,1.905376017093658447e-01,4.419882893562316895e-01
-3.671527281403541565e-02,-5.248487740755081177e-02,3.180480375885963440e-02,-1.589726358652114868e-01,-1.152811720967292786e-01,-3.343694210052490234e-01,6.227995827794075012e-02,-4.662166833877563477e-01,-2.831965088844299316e-01,6.467081606388092041e-02,2.954677343368530273e-01,5.648468732833862305e-01,-2.265715785324573517e-02,-2.319032847881317139e-01,3.477669507265090942e-02,2.655577100813388824e-02,3.383837938308715820e-01,-4.613122344017028809e-01,-2.244968339800834656e-02,-2.621135413646697998e-01,1.348526477813720703e-01,-1.259657181799411774e-02,-8.469177037477493286e-02,-1.183378398418426514e-01,-4.674882888793945312e-01,-7.145006656646728516e-01,-4.654558897018432617e-01,-2.694784998893737793e-01,8.238166570663452148e-02,-1.268926411867141724e-01,-1.851328015327453613e-01,-2.058383375406265259e-01,-3.681845664978027344e-01,1.903548650443553925e-02,1.563745290040969849e-01,-9.990145452320575714e-03,-7.782889902591705322e-02,-2.443272471427917480e-01,-1.771432310342788696e-01,-4.055964052677154541e-01
1.594640910625457764e-01,1.946537941694259644e-01,1.451350152492523193e-01,-4.947997927665710449e-01,-1.124185882508754730e-02,2.884264290332794189e-02,-5.542792007327079773e-02,-9.396960586309432983e-02,-2.942824065685272217e-01,-3.740329667925834656e-02,1.372704934328794479e-02,2.074733525514602661e-01,-3.641559556126594543e-02,-3.507074117660522461e-01,-2.194763626903295517e-03,-2.270448654890060425e-01,1.660062372684478760e-01,4.313180595636367798e-02,2.827083133161067963e-02,8.384447544813156128e-02,-3.021895885467529297e-02,-5.619218945503234863e-02,-4.613497257232666016e-01,3.813127279281616211e-01,2.589730024337768555e-01,4.907479882240295410e-01,-2.094387710094451904e-01,-6.960263103246688843e-02,1.052346155047416687e-01,2.507970333099365234e-01,1.394673436880111694e-01,6.877920776605606079e-02,-1.546762138605117798e-01,-7.715322077274322510e-03,-1.035610139369964600e-01,4.147452116012573242e-02,1.388168931007385254e-01,5.038053393363952637e-01,2.726377844810485840e-01,1.756091266870498657e-01
1.478262841701507568e-01,-9.338929504156112671e-02,7.896751165390014648e-02,-2.970253303647041321e-02,-1.403758227825164795e-01,-4.998651891946792603e-02,-1.163894869387149811e-02,5.640659332275390625e-01,-5.000114068388938904e-02,-1.488040387630462646e-02,-6.839416921138763428e-02,-2.259601056575775146e-01,-1.858154684305191040e-01,-2.481919154524803162e-02,-4.635630548000335693e-02,-2.109380960464477539e-01,-3.246641755104064941e-01,-2.394494265317916870e-01,-8.974695578217506409e-03,2.347208559513092041e-02,1.910869032144546509e-01,4.858968257904052734e-01,-1.420128196477890015e-01,-3.489974439144134521e-01,2.472662329673767090e-01,1.232898011803627014e-01,5.332445502281188965e-01,-2.671758532524108887e-01,3.391485512256622314e-01,5.255030468106269836e-02,-2.343217432498931885e-01,-3.433606624603271484e-01,-4.776017665863037109e-01,-2.752774022519588470e-02,-1.622772775590419769e-02,-4.382903501391410828e-02,-7.774852216243743896e-03,2.334918081760406494e-01,4.499258697032928467e-01,3.717526495456695557e-01
1.453457623720169067e-01,3.637017309665679932e-01,1.544399410486221313e-01,-4.090398084372282028e-03,-4.616461694240570068e-02,-1.095925867557525635e-01,2.999346144497394562e-02,2.645359337329864502e-01,-9.088335931301116943e-02,-1.518668085336685181e-01,5.837099552154541016e-01,-3.710006773471832275e-01,6.828496605157852173e-02,1.338630467653274536e-01,-2.988270483911037445e-02,8.403127640485763550e-02,1.875151321291923523e-02,2.001208439469337463e-02,-1.774382777512073517e-02,3.351120650768280029e-01,-1.207526251673698425e-01,3.855603635311126709e-01,7.796008884906768799e-02,-1.923757344484329224e-01,-7.545542120933532715e-01,6.079282760620117188e-01,-9.631181955337524414e-01,2.582307346165180206e-02,-2.012661695480346680e-01,-1.227638274431228638e-01,1.038597822189331055e-01,-1.981807202100753784e-01,4.312149062752723694e-02,-3.282412514090538025e-02,-2.067938745021820068e-01,-5.159985646605491638e-02,2.463667541742324829e-01,-4.533212482929229736e-01,7.518987357616424561e-02,3.217742443084716797e-01
-1.784253567457199097e-01,-4.510154128074645996e-01,1.155980825424194336e-01,-4.394763708114624023e-01,7.845764048397541046e-03,-8.413736522197723389e-02,-3.133643791079521179e-02,-4.501133263111114502e-01,6.158898770809173584e-02,-1.192236598581075668e-02,-7.642019987106323242e-01,2.429481223225593567e-02,3.478433191776275635e-02,3.990133404731750488e-01,-2.910575829446315765e-02,-1.718564331531524658e-02,-1.705037355422973633e-01,3.388046026229858398e-01,-3.240836039185523987e-02,4.731751680374145508e-01,-3.814070718362927437e-03,2.950702607631683350e-01,-5.407055616378784180e-01,8.701451122760772705e-02,2.231617271900177002e-01,-2.943060696125030518e-01,-2.033733017742633820e-02,4.892968013882637024e-02,-2.934898138046264648e-01,8.236570656299591064e-02,1.058277562260627747e-01,3.088729381561279297e-01,-2.155310660600662231e-01,3.807924687862396240e-02,4.148959219455718994e-01,4.743642732501029968e-02,2.013380676507949829e-01,-4.953916668891906738e-01,2.418483048677444458e-02,6.562858819961547852e-02
3.250225484371185303e-01,-2.519163191318511963e-01,1.184922978281974792e-01,-2.166119068861007690e-01,-2.593786716461181641e-01,-3.579879105091094971e-01,3.494476526975631714e-02,6.802487373352050781e-02,7.062869668006896973e-01,1.331615447998046875e-02,3.683819770812988281e-01,-7.875689119100570679e-02,-2.549023330211639404e-01,-4.081100821495056152e-01,6.267096847295761108e-02,-2.155414223670959473e-02,-3.013709485530853271e-01,-4.979647696018218994e-01,-2.096924232318997383e-03,1.033299341797828674e-01,1.134601607918739319e-02,-7.091401517391204834e-02,8.447663486003875732e-02,6.653057932853698730e-01,9.718470573425292969e-01,-7.526993751525878906e-01,8.077467083930969238e-01,-1.266757249832153320e-01,-2.853446304798126221e-01,-2.070985138416290283e-01,-1.595604270696640015e-01,-1.031883582472801208e-01,-1.361200362443923950e-01,4.837314481846988201e-04,-7.852807044982910156e-01,1.758882403373718262e-02,2.700387835502624512e-01,1.223312392830848694e-01,1.577660441398620605e-01,1.196181252598762512e-01
-4.448433518409729004e-01,-1.812269985675811768e-01,-4.349536448717117310e-02,3.684210181236267090e-01,-3.386937379837036133e-01,2.518655359745025635e-02,1.440833695232868195e-02,-1.939796209335327148e-01,4.795679077506065369e-02,2.883891388773918152e-02,2.157230079174041748e-01,3.060634136199951172e-01,-1.681370288133621216e-01,-3.563870191574096680e-01,3.720787912607192993e-02,-5.927191972732543945e-01,5.983027815818786621e-02,-1.309095174074172974e-01,2.848064154386520386e-02,1.060214266180992126e-01,5.221281647682189941e-01,-3.728453218936920166e-01,3.025033175945281982e-01,3.178974241018295288e-02,3.942959606647491455e-01,4.284296333789825439e-01,3.848059475421905518e-01,-3.695070743560791016e-01,7.456957548856735229e-02,4.149632900953292847e-02,1.537587307393550873e-02,-3.907436430454254150e-01,-1.512574553489685059e-01,4.160923510789871216e-02,2.023682445287704468e-01,2.440311945974826813e-02,3.872498497366905212e-02,2.687249183654785156e-01,-2.072328329086303711e-01,-3.272319678217172623e-03
-1.379728764295578003e-01,4.310504198074340820e-01,-9.159288555383682251e-02,-1.102983877062797546e-01,2.117552757263183594e-01,4.602809846401214600e-01,-4.839804023504257202e-02,2.370885014533996582e-02,-3.620543479919433594e-01,1.967747695744037628e-03,5.272880196571350098e-01,2.111655026674270630e-01,2.800043821334838867e-01,3.709796443581581116e-02,-2.753759734332561493e-02,5.690869688987731934e-01,1.600024998188018799e-01,5.452302694320678711e-01,-1.040657330304384232e-02,9.752938896417617798e-02,-1.108111962676048279e-01,1.647792458534240723e-01,-1.059988662600517273e-01,-1.408208459615707397e-01,-1.579852223396301270e+00,-4.768899083137512207e-01,-1.244577646255493164e+00,8.622767776250839233e-02,5.064759869128465652e-03,1.746703535318374634e-01,4.932038486003875732e-01,1.844521760940551758e-01,-1.660405397415161133e-01,-1.510774623602628708e-02,4.675275683403015137e-01,-6.838417798280715942e-02,2.493554353713989258e-01,4.204402863979339600e-01,2.051649391651153564e-01,-3.601710796356201172e-01
3.678741306066513062e-02,1.028661057353019714e-01,-1.617481261491775513e-01,-7.709053903818130493e-02,-2.757937908172607422e-01,-5.768619775772094727e-01,-4.700340703129768372e-02,-8.126743882894515991e-02,1.163997203111648560e-01,9.538053721189498901e-02,1.348247379064559937e-01,-6.642395257949829102e-01,-2.926637530326843262e-01,-1.048565506935119629e-01,8.431632071733474731e-02,2.442283034324645996e-01,-5.051922202110290527e-01,-1.263075917959213257e-01,3.649979596957564354e-03,1.090997755527496338e-01,3.163696229457855225e-01,1.094271615147590637e-01,2.319423407316207886e-01,-5.704502016305923462e-02,6.396610140800476074e-01,1.259890049695968628e-01,3.451917767524719238e-01,-1.230856031179428101e-02,-3.695217892527580261e-02,-1.824706643819808960e-01,-5.580504611134529114e-02,-2.739216387271881104e-01,-2.605434656143188477e-01,-9.172574616968631744e-03,-1.600876003503799438e-01,4.620155959855765104e-04,3.754806220531463623e-01,2.440040744841098785e-02,1.583670526742935181e-01,5.132266879081726074e-02
-2.908576130867004395e-01,1.509123295545578003e-01,-3.858563676476478577e-02,9.078563004732131958e-02,1.311648190021514893e-01,-2.373170256614685059e-01,-2.245238982141017914e-02,4.175473451614379883e-01,5.026656389236450195e-01,-2.963143214583396912e-02,6.632138788700103760e-02,-4.069892168045043945e-01,-2.323320508003234863e-01,-2.135109603404998779e-01,8.900593966245651245e-03,-6.301119178533554077e-02,-2.739303410053253174e-01,-2.445518821477890015e-01,2.812207443639636040e-03,2.691829204559326172e-01,-7.019977569580078125e-01,1.224383115768432617e-01,3.100246936082839966e-02,3.407166004180908203e-01,2.352106869220733643e-01,-1.456801034510135651e-02,6.540668010711669922e-01,-8.583280444145202637e-02,6.022666394710540771e-02,-1.431044936180114746e-01,-1.737515926361083984e-01,1.288799196481704712e-02,-2.194631695747375488e-01,2.485895901918411255e-02,-1.410898417234420776e-01,5.059382319450378418e-02,-2.928190827369689941e-01,-3.689530491828918457e-01,-3.632166981697082520e-01,2.819603681564331055e-01
-1.817243248224258423e-01,1.859263777732849121e-01,-6.166967004537582397e-02,2.796573638916015625e-01,-2.291162908077239990e-01,-5.968952085822820663e-03,-4.506889730691909790e-03,9.615501388907432556e-03,1.597772538661956787e-01,2.842743694782257080e-02,-7.382201403379440308e-02,-1.313492655754089355e-01,6.610018014907836914e-02,3.199953138828277588e-01,-7.377468794584274292e-02,-1.619491279125213623e-01,-3.123500570654869080e-02,1.462977612391114235e-03,-1.024817116558551788e-02,3.588144108653068542e-02,9.103734046220779419e-02,5.401193499565124512e-01,-2.367058768868446350e-03,-1.419985890388488770e-01,1.278451681137084961e-01,-5.878556370735168457e-01,-5.708729028701782227e-01,1.971627473831176758e-01,3.631056547164916992e-01,-4.174038022756576538e-02,1.868460774421691895e-01,-2.441607266664505005e-01,-1.083964705467224121e-01,-5.886481702327728271e-02,-8.606095910072326660e-01,-4.334898293018341064e-02,2.512780427932739258e-01,-8.184806443750858307e-03,3.310435116291046143e-01,-7.424163073301315308e-02
-1.115906238555908203e-01,2.014909088611602783e-01,2.047828026115894318e-02,1.708485931158065796e-02,-6.949310898780822754e-01,-1.851226389408111572e-01,-1.822484284639358521e-02,1.295277327299118042e-01,-1.484602093696594238e-01,-2.729397453367710114e-02,1.791235618293285370e-02,6.689342260360717773e-01,-1.555181145668029785e-01,-3.121110498905181885e-01,-3.656980022788047791e-02,1.460312604904174805e-01,-2.081845998764038086e-01,-2.326673716306686401e-01,1.196032203733921051e-02,-2.512175440788269043e-01,-1.422485411167144775e-01,2.152868360280990601e-01,1.296548694372177124e-01,4.277796670794487000e-02,7.338671386241912842e-02,-3.756348788738250732e-02,4.238122403621673584e-01,1.503179371356964111e-01,-2.036821246147155762e-01,1.733493357896804810e-01,-6.912327557802200317e-02,-1.519183814525604248e-01,1.440170854330062866e-01,-3.231307491660118103e-02,-2.640517055988311768e-01,-1.713001169264316559e-03,-3.818435221910476685e-02,9.340431690216064453e-01,-3.192549645900726318e-01,5.136621594429016113e-01
-3.393739089369773865e-02,-3.660877048969268799e-02,-1.867478638887405396e-01,4.782883226871490479e-01,5.000764131546020508e-02,2.603917755186557770e-02,4.673668369650840759e-02,-1.424952000379562378e-01,1.031666994094848633e-02,4.366401582956314087e-02,1.562987864017486572e-01,1.653030663728713989e-01,-4.014414921402931213e-02,-3.691891208291053772e-02,6.907331198453903198e-02,5.565184354782104492e-01,-1.218369230628013611e-02,2.427250444889068604e-01,-1.631206460297107697e-02,-5.385950207710266113e-01,-5.090034380555152893e-02,6.045890226960182190e-02,3.670060038566589355e-01,8.922261744737625122e-02,6.083901524543762207e-01,-4.042251706123352051e-01,-2.950290441513061523e-01,-2.896481156349182129e-01,1.212773658335208893e-02,-1.579221487045288086e-01,-3.449491858482360840e-01,3.056403696537017822e-01,-4.322480261325836182e-01,4.455368593335151672e-02,-1.067399755120277405e-01,-7.342581171542406082e-03,-1.346319168806076050e-01,-1.033378671854734421e-02,-3.048674166202545166e-01,-1.244847550988197327e-01
-1.286081969738006592e-02,-1.776188611984252930e-02,2.444876581430435181e-01,5.480291694402694702e-02,-3.496275544166564941e-01,-1.722982376813888550e-01,-4.938674159348011017e-03,4.118820652365684509e-02,2.321073114871978760e-01,-8.217671886086463928e-03,-2.685474976897239685e-02,-2.107183039188385010e-01,-1.543137133121490479e-01,2.847502194344997406e-02,4.621061682701110840e-02,2.254606485366821289e-01,-8.401547372341156006e-02,-1.508128494024276733e-01,5.976029112935066223e-02,-3.911329805850982666e-01,3.157633841037750244e-01,-3.598073720932006836e-01,-9.191135317087173462e-02,5.265966430306434631e-02,4.454313814640045166e-01,-3.053441047668457031e-01,1.106523394584655762e+00,-1.905521303415298462e-01,1.511229425668716431e-01,-4.920826852321624756e-01,1.237375587224960327e-01,-1.518146693706512451e-01,-2.005321234464645386e-01,5.363571643829345703e-02,2.525486648082733154e-01,5.307168513536453247e-02,-3.533708751201629639e-01,-6.012983322143554688e-01,-4.269273579120635986e-01,-4.118616282939910889e-01
2.122992649674415588e-02,4.856963641941547394e-03,6.298501044511795044e-03,-2.623971700668334961e-01,1.366441100835800171e-01,-8.042215555906295776e-02,2.720054797828197479e-02,-2.110490947961807251e-01,-1.761161088943481445e-01,4.120763856917619705e-03,-2.670909762382507324e-01,2.236648648977279663e-01,-2.764079160988330841e-02,-3.434722125530242920e-02,2.205771394073963165e-02,5.478358864784240723e-01,2.444668710231781006e-01,1.034692376852035522e-01,-2.625503949820995331e-02,3.300935328006744385e-01,7.201318442821502686e-02,-2.350020110607147217e-01,-2.998465597629547119e-01,-4.690159112215042114e-02,-3.772636651992797852e-01,4.265620708465576172e-01,-1.188067346811294556e-01,-5.568821728229522705e-02,-3.150168359279632568e-01,-1.089306101202964783e-01,-7.736863195896148682e-02,3.016361594200134277e-01,-2.698109149932861328e-01,-2.499383315443992615e-02,7.071993350982666016e-01,-4.740314185619354248e-02,-2.001753151416778564e-01,4.634118378162384033e-01,-2.361834794282913208e-01,6.322367191314697266e-01
4.576070606708526611e-01,-1.295567303895950317e-01,2.052816599607467651e-01,5.990793108940124512e-01,-2.613518536090850830e-01,6.302778422832489014e-02,-7.686299737542867661e-03,-1.173354610800743103e-01,-1.365650892257690430e-01,-3.456561639904975891e-02,8.358731865882873535e-02,-2.563632130622863770e-01,6.936443597078323364e-02,9.117801487445831299e-02,-4.213856160640716553e-02,2.146780639886856079e-01,2.595638632774353027e-01,1.239405199885368347e-01,-1.878766156733036041e-02,3.190208077430725098e-01,-1.455344706773757935e-01,-1.050299033522605896e-01,5.002696812152862549e-02,2.542644441127777100e-01,8.741079270839691162e-02,3.124086260795593262e-01,8.682042956352233887e-01,-2.875879406929016113e-02,-1.981942504644393921e-01,-2.532643377780914307e-01,7.316246628761291504e-02,-1.908055543899536133e-01,3.314945474267005920e-02,9.095779806375503540e-02,-2.043929100036621094e-01,-3.270484879612922668e-02,-2.856460511684417725e-01,4.172091782093048096e-01,-6.571348905563354492e-01,-4.192511141300201416e-01
-3.826712369918823242e-01,-1.172700300812721252e-01,7.445535622537136078e-03,-2.829367518424987793e-01,2.072377316653728485e-02,-3.365385904908180237e-02,-6.797391921281814575e-03,8.322557806968688965e-02,-1.808912605047225952e-01,5.048390105366706848e-02,-1.016232609748840332e+00,3.981155902147293091e-02,1.123077571392059326e-01,-2.587960064411163330e-01,3.821341553702950478e-03,-6.295165419578552246e-02,3.655251562595367432e-01,-2.962425053119659424e-01,1.231093611568212509e-02,-3.257550001144409180e-01,2.184874266386032104e-01,1.341625899076461792e-01,-3.670374453067779541e-01,4.556987434625625610e-03,-9.647486209869384766e-01,1.586685925722122192e-01,-1.014195799827575684e+00,3.846368938684463501e-02,-4.130436480045318604e-01,1.401646584272384644e-01,-4.722663015127182007e-02,-6.913680583238601685e-02,1.124611124396324158e-01,9.047190845012664795e-02,-6.542286276817321777e-02,-5.009491741657257080e-02,-2.950097024440765381e-01,-1.710582673549652100e-01,-2.621235251426696777e-01,-4.782089293003082275e-01
1.340811699628829956e-01,2.518066167831420898e-01,5.645784549415111542e-03,1.081215590238571167e-01,-3.651937842369079590e-02,-2.612141072750091553e-01,-2.115444652736186981e-02,-1.354216784238815308e-01,1.640120893716812134e-01,-5.040446296334266663e-02,4.004757404327392578e-01,1.252468079328536987e-01,-3.267083317041397095e-02,-2.447853982448577881e-01,-3.714707912877202034e-03,4.706417322158813477e-01,3.015022538602352142e-02,-3.588883876800537109e-01,-3.223519772291183472e-02,1.081186532974243164e-01,-1.706002354621887207e-01,-1.911466568708419800e-01,-1.317503768950700760e-02,-4.484299123287200928e-01,1.939489692449569702e-01,-1.763459593057632446e-01,5.898687839508056641e-01,-1.361301448196172714e-02,7.639884352684020996e-01,1.733575165271759033e-01,1.639051735401153564e-01,1.164684891700744629e-01,2.071776986122131348e-01,-8.085058070719242096e-03,3.767040967941284180e-01,-1.316097844392061234e-02,-3.064766526222229004e-01,9.960821866989135742e-01,-1.487152576446533203e-01,1.060397773981094360e-01
-2.616677284240722656e-01,-3.126772120594978333e-03,1.134203597903251648e-01,1.033150479197502136e-01,3.251454830169677734e-01,-2.039899230003356934e-01,2.406586408615112305e-01,-3.369834423065185547e-01,1.103614941239356995e-01,1.400729119777679443e-01,1.049398109316825867e-01,4.944466352462768555e-01,7.105407118797302246e-02,2.157865166664123535e-01,-5.412247404456138611e-02,1.023286134004592896e-01,2.301972061395645142e-01,-1.007191911339759827e-01,8.598780632019042969e-02,-1.775881350040435791e-01,-3.702304661273956299e-01,2.144828438758850098e-01,1.800536364316940308e-02,3.818005919456481934e-01,-1.481628119945526123e-01,1.704069375991821289e+00,-1.194098517298698425e-01,-7.715449482202529907e-02,4.665607213973999023e-01,9.566193073987960815e-02,-1.631478965282440186e-01,3.135555684566497803e-01,-1.695688366889953613e-01,1.405239403247833252e-01,-1.513316631317138672e-01,3.841775283217430115e-02,1.693349033594131470e-01,-1.374168694019317627e-02,3.409992456436157227e-01,-1.536214947700500488e-01
5.383063107728958130e-02,7.194621115922927856e-02,6.539363414049148560e-02,-2.304035574197769165e-01,3.774313488975167274e-03,4.462020993232727051e-01,-2.170804329216480255e-02,-5.314080119132995605e-01,-1.969008445739746094e-01,-1.976760476827621460e-01,1.850668042898178101e-01,-1.165538191795349121e+00,3.603520616888999939e-02,3.517202734947204590e-01,-1.095243692398071289e-01,5.031399428844451904e-02,-9.977672994136810303e-02,2.450402081012725830e-01,3.362633660435676575e-02,2.555341422557830811e-01,-5.276202037930488586e-02,-4.192770421504974365e-01,-3.207927346229553223e-01,2.506365180015563965e-01,-9.910180568695068359e-01,5.185739994049072266e-01,-1.029896140098571777e+00,9.575565159320831299e-02,-7.185152918100357056e-02,1.780632138252258301e-01,-7.287950813770294189e-02,4.397504031658172607e-01,3.301599621772766113e-02,-1.087528467178344727e-01,-9.989075362682342529e-02,-7.475818973034620285e-03,2.847961336374282837e-02,9.531369805335998535e-01,2.170116305351257324e-01,1.928358376026153564e-01
-1.297198385000228882e-01,2.288245782256126404e-02,1.151231303811073303e-01,-2.466951459646224976e-01,-1.197631731629371643e-01,5.035457760095596313e-02,4.067957028746604919e-02,5.668988451361656189e-02,-3.221931457519531250e-01,-9.599534422159194946e-02,-6.068130135536193848e-01,-2.773268520832061768e-02,8.851838111877441406e-02,1.922272443771362305e-01,-1.378193311393260956e-02,3.584983646869659424e-01,8.297489024698734283e-03,-5.046104639768600464e-02,6.222123280167579651e-03,-1.376008689403533936e-01,3.225387036800384521e-01,-3.868599832057952881e-01,-1.175382733345031738e-01,6.748468428850173950e-02,1.477439999580383301e+00,-3.465689420700073242e-01,1.091559410095214844e+00,-2.959430217742919922e-01,-2.856890857219696045e-01,6.230630725622177124e-02,-6.267698854207992554e-02,-4.787829890847206116e-02,1.668614000082015991e-01,-3.425999730825424194e-02,4.104385972023010254e-01,-1.424959767609834671e-02,6.963712722063064575e-02,1.361394207924604416e-02,1.299775391817092896e-01,-4.009940102696418762e-02
8.568505942821502686e-02,1.046968996524810791e-01,1.942732185125350952e-02,-4.547323286533355713e-02,1.871151626110076904e-01,1.112388223409652710e-01,8.175861090421676636e-03,1.456520110368728638e-01,-1.177645772695541382e-01,4.753839690238237381e-03,-4.637753590941429138e-02,-3.441075980663299561e-01,3.367266952991485596e-01,2.464649081230163574e-01,-5.510665010660886765e-03,-1.742324791848659515e-02,7.294497638940811157e-02,2.044456303119659424e-01,2.408850006759166718e-03,-1.205562502145767212e-01,-3.661584481596946716e-02,2.231064438819885254e-01,-5.125023052096366882e-02,-9.638852626085281372e-02,-5.606915429234504700e-02,-4.907691851258277893e-02,1.654226519167423248e-02,-1.053546741604804993e-01,-3.026420474052429199e-01,-1.334394365549087524e-01,1.475419849157333374e-01,-1.631041467189788818e-01,-5.223267152905464172e-02,-2.178648021072149277e-03,-2.089652717113494873e-01,-1.767633017152547836e-03,-8.038355410099029541e-02,-2.622086405754089355e-01,-1.411339044570922852e-01,3.339343070983886719e-01
-3.210249245166778564e-01,-2.259388267993927002e-01,1.493110693991184235e-02,2.436267882585525513e-01,-1.450693607330322266e-01,1.161372363567352295e-01,1.387362837791442871e+00,6.232526302337646484e-01,4.217940568923950195e-01,1.400124907493591309e+00,-1.289326995611190796e-01,-3.940436244010925293e-01,-3.291131556034088135e-02,-1.984453648328781128e-01,1.472135901451110840e+00,2.586556375026702881e-01,-7.812934368848800659e-02,-1.049121320247650146e-01,1.217603325843811035e+00,1.446519374847412109e+00,4.747328758239746094e-01,-3.811540603637695312e-01,-8.173882216215133667e-02,-3.509292900562286377e-01,-2.118603885173797607e-01,-2.780331075191497803e-01,-7.124492526054382324e-01,-1.730566769838333130e-01,-2.322080880403518677e-01,-2.376491427421569824e-01,1.158038377761840820e-01,5.653597414493560791e-02,-7.679287344217300415e-03,1.450531363487243652e+00,1.421534180641174316e+00,1.178431034088134766e+00,-3.458044826984405518e-01,5.248382687568664551e-01,-4.798322916030883789e-01,1.100241303443908691e+00
-1.050309464335441589e-01,-4.279115051031112671e-02,6.481287628412246704e-02,9.321403503417968750e-02,-2.807380259037017822e-01,-1.835348308086395264e-01,-2.538982033729553223e-02,4.098724126815795898e-01,3.878853619098663330e-01,2.665099501609802246e-02,8.758760243654251099e-02,-1.102545619010925293e+00,1.692235097289085388e-02,2.407823055982589722e-01,6.195283494889736176e-03,-1.787725538015365601e-01,1.484477370977401733e-01,2.175456732511520386e-01,-1.352412044070661068e-03,3.123899102210998535e-01,2.085039205849170685e-02,-5.116999149322509766e-01,2.144646793603897095e-01,1.812948733568191528e-01,-9.443702548742294312e-02,-1.269244551658630371e-01,6.172646954655647278e-02,6.603786349296569824e-02,-1.165358573198318481e-01,-4.451150000095367432e-01,-4.642924964427947998e-01,-4.369453340768814087e-02,-1.174357160925865173e-01,2.280882559716701508e-03,2.715635895729064941e-01,2.148186415433883667e-02,2.012081593275070190e-01,4.107598066329956055e-01,-3.491091430187225342e-01,2.332554906606674194e-01
-8.636706322431564331e-02,-4.665972664952278137e-02,4.022213816642761230e-02,-2.031845152378082275e-01,3.008600473403930664e-01,2.030511051416397095e-01,-1.818475872278213501e-02,-1.865451633930206299e-01,-1.262364238500595093e-01,-2.123723924160003662e-02,3.140623122453689575e-02,3.796613216400146484e-02,8.229925483465194702e-02,5.239852666854858398e-01,-2.407615818083286285e-02,-1.825696080923080444e-01,7.792203128337860107e-02,2.916558980941772461e-01,-8.487805724143981934e-03,-1.106090322136878967e-01,2.396524399518966675e-01,5.131931900978088379e-01,-2.399172037839889526e-01,-7.754334807395935059e-02,-1.089610576629638672e+00,-5.319181084632873535e-02,-1.989299297332763672e+00,-1.893154829740524292e-01,-2.033539116382598877e-01,4.236599802970886230e-01,4.069991707801818848e-01,2.896078303456306458e-02,-3.631807863712310791e-01,3.940970450639724731e-02,3.384568989276885986e-01,1.084604393690824509e-02,-4.231396317481994629e-01,2.398856580257415771e-01,-2.852846980094909668e-01,8.251738548278808594e-02
-9.438244998455047607e-02,-1.425285041332244873e-01,3.021606802940368652e-02,-6.012041494250297546e-02,1.966975629329681396e-03,-8.720896393060684204e-02,-6.266179680824279785e-02,4.305495917797088623e-01,-2.700306177139282227e-01,-1.311362069100141525e-02,-1.133257970213890076e-01,-2.284833490848541260e-01,9.075919166207313538e-03,1.476094871759414673e-01,-9.802568703889846802e-02,4.624190330505371094e-01,-1.660137772560119629e-01,7.626889646053314209e-02,-4.054104909300804138e-02,1.509561389684677124e-01,1.256332695484161377e-01,6.651942729949951172e-01,2.631580233573913574e-01,3.781587257981300354e-02,9.799216389656066895e-01,5.222708582878112793e-01,6.286681890487670898e-01,1.876195371150970459e-01,-8.624459058046340942e-02,-5.815745145082473755e-02,-4.478347599506378174e-01,-1.784285455942153931e-01,-1.596580445766448975e-01,-8.260224945843219757e-03,-2.176821380853652954e-01,-9.536687284708023071e-02,-5.143348500132560730e-02,-4.055210947990417480e-01,-1.211139559745788574e-01,1.419117748737335205e-01
