2.371709607541561127e-02,2.709855884313583374e-02,2.479403093457221985e-02,5.502713471651077271e-02,-6.030724942684173584e-02,9.993987679481506348e-01,5.753498524427413940e-02,1.309507433325052261e-02,-4.521930590271949768e-02,-6.186484917998313904e-02,-5.124840512871742249e-02,6.254527717828750610e-02,1.546033024787902832e-01,9.174129962921142578e-01,-3.304033875465393066e-01,-2.790344059467315674e-01
-4.244204610586166382e-02,3.224251568317413330e-01,5.484990477561950684e-01,-4.726300537586212158e-01,-7.679107785224914551e-01,1.934200227260589600e-01,-1.040372326970100403e-01,-1.122429296374320984e-01,2.006529644131660461e-02,-5.610738396644592285e-01,-3.243473172187805176e-01,1.147514343261718750e+00,1.875723302364349365e-01,2.216044366359710693e-01,1.765592843294143677e-01,8.253274112939834595e-02
-4.447316005825996399e-02,-1.895046383142471313e-01,-2.035914808511734009e-01,8.477841317653656006e-02,2.838233709335327148e-01,-4.920738190412521362e-02,-1.061568140983581543e+00,1.520773321390151978e-01,2.948820404708385468e-02,2.009434401988983154e-01,1.256629079580307007e-01,-2.277147620916366577e-01,-5.849624425172805786e-02,1.515274763107299805e+00,2.066206485033035278e-01,-1.736215353012084961e-01
1.088030412793159485e-01,2.033902555704116821e-01,3.325377404689788818e-01,4.511401057243347168e-01,6.435652971267700195e-01,5.497287511825561523e-01,-5.997244268655776978e-02,2.961480803787708282e-02,8.447577804327011108e-02,1.765723377466201782e-01,3.187454938888549805e-01,4.834764301776885986e-01,6.652863025665283203e-01,4.874690771102905273e-01,-1.283103525638580322e-01,-3.695426881313323975e-02
-2.835425734519958496e-02,-2.593039870262145996e-01,-3.202304542064666748e-01,6.100824102759361267e-02,1.978557258844375610e-01,2.245010137557983398e-01,-2.926990389823913574e-01,-1.097254514694213867e+00,-4.458194598555564880e-03,2.913650870323181152e-01,2.173189073801040649e-01,-9.463736414909362793e-02,-1.586351096630096436e-01,3.043761253356933594e-01,1.149364590644836426e+00,5.559428334236145020e-01
