-8.852820098400115967e-02,1.653670519590377808e-01,-7.100596427917480469e-01,9.899125993251800537e-02,-1.177871972322463989e-01,8.570004999637603760e-02,-4.697662219405174255e-02,5.155593156814575195e-01,7.645988464355468750e-02,-7.005711644887924194e-02,-5.196257829666137695e-01,4.625418409705162048e-02,-5.892626643180847168e-01,1.325480788946151733e-01,-1.257328689098358154e-01,-2.658579731360077858e-03,-5.061550065875053406e-02,2.174584418535232544e-01,-3.903287053108215332e-01,5.697886273264884949e-02,-3.073556162416934967e-02,-1.451598554849624634e-01,7.735105603933334351e-02,2.066066861152648926e-01,2.358730882406234741e-01,5.506602525711059570e-01,-9.007926285266876221e-02,-5.982233285903930664e-01,-1.786651909351348877e-01,-3.148057460784912109e-01,5.057002976536750793e-02,-1.090811491012573242e-01,6.109956186264753342e-03,-3.417453467845916748e-01,1.005422472953796387e-01,2.444875687360763550e-01,4.825894907116889954e-02,-1.166254952549934387e-01,-1.793985217809677124e-01,-4.331603944301605225e-01
1.475201100111007690e-01,3.313452899456024170e-01,-1.903960108757019043e-01,2.889147102832794189e-01,6.029561161994934082e-01,2.414781451225280762e-01,-1.040446460247039795e-01,-1.747000813484191895e-01,3.425261238589882851e-03,-1.386285126209259033e-01,-2.920218110084533691e-01,-3.538099229335784912e-01,2.110761553049087524e-01,-3.189741671085357666e-01,-1.505909860134124756e-01,-3.813199102878570557e-01,4.485421776771545410e-01,-1.888161152601242065e-02,7.332658022642135620e-02,3.372133672237396240e-01,-2.413827925920486450e-01,-1.203854531049728394e-01,-4.870526492595672607e-02,4.477847814559936523e-01,-1.549840569496154785e-01,-1.658716350793838501e-01,1.565718352794647217e-01,2.726995050907135010e-01,-2.136423736810684204e-01,8.458963036537170410e-02,2.171028852462768555e-01,-2.468737214803695679e-01,-1.725996434688568115e-01,-2.870503626763820648e-02,4.039553552865982056e-02,4.683298468589782715e-01,3.005306422710418701e-01,-3.600451350212097168e-02,-4.619023799896240234e-01,1.070486530661582947e-01
3.586041033267974854e-01,3.483513593673706055e-01,2.582798898220062256e-02,-5.988591909408569336e-01,3.660402595996856689e-01,3.144620656967163086e-01,2.707978188991546631e-01,-1.445966064929962158e-01,-2.330629527568817139e-01,-1.130382791161537170e-01,-1.801545172929763794e-01,2.978796325623989105e-02,-3.653066158294677734e-01,-9.070420265197753906e-02,2.139074653387069702e-01,9.547964483499526978e-02,-9.390947222709655762e-02,-2.514660060405731201e-01,7.477493584156036377e-02,5.721448361873626709e-02,-2.060829699039459229e-01,-3.191911876201629639e-01,-4.962337762117385864e-02,-4.637700021266937256e-01,2.094136178493499756e-01,-4.751235619187355042e-02,-8.346705883741378784e-02,-3.895801603794097900e-01,-2.656880617141723633e-01,1.428597122430801392e-01,-2.411488890647888184e-01,-1.663139760494232178e-01,-4.130737483501434326e-01,-2.511576116085052490e-01,-2.897476851940155029e-01,-4.169261828064918518e-02,2.556113898754119873e-01,-9.630981832742691040e-03,3.391754627227783203e-01,1.406694203615188599e-01
4.150536954402923584e-01,-1.202821359038352966e-01,1.196575239300727844e-01,1.048558875918388367e-01,2.356516867876052856e-01,1.740218997001647949e-01,-1.320552676916122437e-01,1.213207989931106567e-01,-2.291259467601776123e-01,-4.129434823989868164e-01,1.925422064960002899e-02,8.425500988960266113e-02,2.167154103517532349e-01,-2.455348894000053406e-02,-5.314268469810485840e-01,-1.086813211441040039e-01,2.745204567909240723e-01,-2.700197882950305939e-02,1.288534849882125854e-01,1.307431012392044067e-01,-3.550202399492263794e-02,-3.346133530139923096e-01,-1.269979625940322876e-01,1.400397997349500656e-02,-4.048804342746734619e-01,1.591289341449737549e-01,-9.180743992328643799e-02,-2.066871076822280884e-01,-4.604938998818397522e-02,1.152278948575258255e-02,4.947830438613891602e-01,-1.576049476861953735e-01,8.122282475233078003e-02,-5.601944029331207275e-02,-2.054557800292968750e-01,-1.616811901330947876e-01,-1.792066842317581177e-01,-4.822110235691070557e-01,1.672719120979309082e-01,1.039639934897422791e-01
2.118190228939056396e-01,5.471928790211677551e-02,-8.855567872524261475e-02,-4.492499232292175293e-01,5.954019725322723389e-02,1.367493253201246262e-02,-1.923089846968650818e-02,-1.003232449293136597e-01,-1.671558469533920288e-01,6.467324495315551758e-02,1.858890056610107422e-02,8.986437693238258362e-03,-8.784995973110198975e-02,2.565460801124572754e-01,8.500826358795166016e-02,4.804933369159698486e-01,-3.513878956437110901e-02,-3.948422521352767944e-02,-2.681199610233306885e-01,1.737331598997116089e-02,1.495367139577865601e-01,-1.484735757112503052e-01,2.529416978359222412e-01,4.960269927978515625e-01,-2.408378422260284424e-01,-1.648573875427246094e-01,-1.358385980129241943e-01,-6.839723140001296997e-02,-6.045086309313774109e-02,-2.816841602325439453e-01,2.420662194490432739e-01,3.330226987600326538e-02,-1.209767311811447144e-01,1.612297073006629944e-02,-4.431846439838409424e-01,-2.532210648059844971e-01,2.139453589916229248e-01,2.380901575088500977e-01,8.687210083007812500e-02,-2.319144606590270996e-01
-3.686943054199218750e-01,-3.461875021457672119e-01,2.773247659206390381e-01,1.148548647761344910e-01,-1.158823147416114807e-01,2.845422923564910889e-01,3.837341070175170898e-01,-1.927521266043186188e-02,6.109345555305480957e-01,-2.783656418323516846e-01,4.270060062408447266e-01,-1.341562420129776001e-01,-2.249369472265243530e-01,-3.115065693855285645e-01,-1.018976047635078430e-01,1.241122931241989136e-01,-9.527049958705902100e-02,1.159041002392768860e-01,-4.474406689405441284e-02,1.433317661285400391e-01,8.458160609006881714e-02,-1.710847169160842896e-01,-1.816768199205398560e-02,5.920150503516197205e-02,-3.733806014060974121e-01,-7.030418515205383301e-02,-9.420742280781269073e-03,4.093627929687500000e-01,1.427814662456512451e-01,-1.051330193877220154e-01,1.520797312259674072e-01,-9.069649130105972290e-02,-2.094884067773818970e-01,3.669879734516143799e-01,-5.427104234695434570e-01,3.663004040718078613e-01,-1.251955479383468628e-01,1.402474939823150635e-01,-5.277575552463531494e-02,-6.171131134033203125e-02
5.032010078430175781e-01,-5.436544418334960938e-01,3.191070258617401123e-02,-1.382038742303848267e-01,-5.964127779006958008e-01,-4.723083674907684326e-01,8.970484137535095215e-02,-3.994278013706207275e-01,2.643419504165649414e-01,-6.520950049161911011e-02,9.464602172374725342e-02,-3.586091846227645874e-02,2.733749747276306152e-01,1.115731224417686462e-01,-1.686755269765853882e-01,-9.006896987557411194e-03,7.308977842330932617e-02,-2.832504510879516602e-01,9.849967807531356812e-02,-2.467982769012451172e-01,-1.314062476158142090e-01,5.774392485618591309e-01,2.202093154191970825e-01,-3.071927428245544434e-01,7.311990857124328613e-02,2.003491818904876709e-01,5.722753703594207764e-02,1.620540469884872437e-01,-1.587745994329452515e-01,-2.975222468376159668e-01,1.410872042179107666e-01,-5.244064610451459885e-03,-2.308588474988937378e-01,1.984434127807617188e-01,2.641407847404479980e-01,1.452498044818639755e-02,7.032965123653411865e-02,-6.548567675054073334e-03,-3.733973205089569092e-01,-4.932362437248229980e-01
1.970452815294265747e-01,1.170019283890724182e-01,-1.558691859245300293e-01,8.528639376163482666e-02,-1.799169629812240601e-01,-3.930929005146026611e-01,-3.210820555686950684e-01,-1.836425811052322388e-01,4.757778942584991455e-01,1.827282756567001343e-01,-1.101795360445976257e-01,-2.253943979740142822e-01,9.664580225944519043e-02,-4.549950063228607178e-01,2.625857293605804443e-01,-4.298449158668518066e-01,4.021437466144561768e-01,3.759158253669738770e-01,2.917004525661468506e-01,-3.025075197219848633e-01,-1.529763266444206238e-02,-5.192178487777709961e-01,1.274035125970840454e-01,-3.612386062741279602e-02,1.155124604701995850e-01,3.285513073205947876e-02,1.360373646020889282e-01,5.647593736648559570e-02,3.309512138366699219e-01,1.407336145639419556e-01,-3.384258449077606201e-01,2.373675070703029633e-02,2.777184247970581055e-01,-2.262135148048400879e-01,-3.543662279844284058e-02,-1.199896931648254395e-01,-1.859367042779922485e-01,4.153444766998291016e-01,2.361333370208740234e-01,6.373949646949768066e-01
1.853758543729782104e-01,-1.201891340315341949e-02,-1.286698039621114731e-02,-3.741616606712341309e-01,4.478335976600646973e-01,5.178325343877077103e-03,2.856577336788177490e-01,9.805223904550075531e-03,5.792904496192932129e-01,8.487593382596969604e-03,-1.312282532453536987e-01,3.227492421865463257e-02,7.376173138618469238e-02,-1.185203790664672852e-01,-3.347574174404144287e-01,-2.422720938920974731e-01,-4.855111539363861084e-01,-3.020482510328292847e-02,-7.694168947637081146e-03,-2.630164623260498047e-01,1.473311334848403931e-01,3.897063136100769043e-01,-3.369265496730804443e-01,-1.789132356643676758e-01,-2.560755312442779541e-01,-7.210520505905151367e-01,2.717776596546173096e-01,-2.799994647502899170e-01,-1.842918246984481812e-01,2.292025238275527954e-01,4.415568336844444275e-02,-2.658792398869991302e-02,1.506185233592987061e-01,1.075247153639793396e-01,3.455469608306884766e-01,-1.987773180007934570e-01,-3.096071481704711914e-01,6.664707325398921967e-03,3.706038892269134521e-01,2.655627131462097168e-01
1.952323503792285919e-02,-2.876429073512554169e-02,-2.305280230939388275e-02,-3.238646686077117920e-01,2.731996402144432068e-02,-2.081201672554016113e-01,-3.790165483951568604e-01,-2.907946705818176270e-01,3.688657581806182861e-01,1.979439854621887207e-01,-6.333531439304351807e-02,-1.775985062122344971e-01,1.062024533748626709e-01,7.337522506713867188e-02,-1.856254339218139648e-01,2.180999815464019775e-01,-1.520210653543472290e-01,2.118212170898914337e-02,-1.060842797160148621e-01,-1.903253942728042603e-01,5.020650476217269897e-02,1.658528298139572144e-02,-2.419774979352951050e-02,5.689489841461181641e-02,3.209129869937896729e-01,-9.299191832542419434e-02,1.144515350461006165e-01,-1.313867568969726562e-01,-1.602071570232510567e-03,4.230580031871795654e-01,3.847478032112121582e-01,3.230816721916198730e-01,1.435313224792480469e-01,-3.893058598041534424e-01,-8.290979266166687012e-02,-1.821391284465789795e-01,3.608358800411224365e-01,-4.806852042675018311e-01,-1.870320439338684082e-01,-3.437717854976654053e-01
-1.079094260931015015e-01,7.737823575735092163e-02,-1.361879706382751465e-01,-1.631821095943450928e-01,-3.714090883731842041e-01,7.515516877174377441e-02,6.249144207686185837e-03,3.325564563274383545e-01,1.000323444604873657e-01,-1.077455431222915649e-01,-1.784732490777969360e-01,-1.311023980379104614e-01,1.858245432376861572e-01,4.788117408752441406e-01,2.795991599559783936e-01,-1.958997845649719238e-01,2.243644930422306061e-02,-3.295515477657318115e-01,1.957434229552745819e-03,1.494879275560379028e-01,2.034375816583633423e-01,-1.209625154733657837e-01,1.340499073266983032e-01,4.366364777088165283e-01,-2.989997714757919312e-02,-4.719705507159233093e-02,1.486719101667404175e-01,-3.448307514190673828e-01,-1.097680851817131042e-01,-1.150797083973884583e-01,-4.290153980255126953e-01,-3.006446361541748047e-01,-4.129520654678344727e-01,1.429848670959472656e-01,8.868578076362609863e-02,-4.135089218616485596e-01,-6.184022128582000732e-02,-1.235720515251159668e-01,3.788586556911468506e-01,8.517930656671524048e-02
6.385953426361083984e-01,-2.782541811466217041e-01,1.601178050041198730e-01,-1.131283268332481384e-01,2.053392380475997925e-01,3.727158904075622559e-01,-2.179476171731948853e-01,-1.645251736044883728e-02,-1.159378588199615479e-01,1.427433639764785767e-01,-2.420747876167297363e-01,-2.047019153833389282e-01,5.027804151177406311e-02,-6.346113234758377075e-02,1.063390523195266724e-01,-1.508109644055366516e-02,3.066194355487823486e-01,-1.000763382762670517e-02,-3.922115266323089600e-01,-4.465635716915130615e-01,-3.492352366447448730e-01,4.631095565855503082e-03,-4.547200351953506470e-02,-4.235506653785705566e-01,8.438581973314285278e-02,-7.691245526075363159e-02,5.160568356513977051e-01,-2.663856148719787598e-01,-7.690979540348052979e-02,9.719995781779289246e-03,2.529100477695465088e-01,8.271694183349609375e-03,-3.379381597042083740e-01,-2.545809745788574219e-01,-1.696057319641113281e-01,-4.390525221824645996e-01,-4.215545952320098877e-01,1.703966259956359863e-01,-1.406024992465972900e-01,-2.491565654054284096e-03
-2.618641853332519531e-01,4.599969089031219482e-01,-2.386204302310943604e-01,-2.093063592910766602e-01,4.225208163261413574e-01,-2.949555814266204834e-01,-2.135065346956253052e-01,-1.830941811203956604e-02,5.760132148861885071e-02,-4.657995887100696564e-03,4.940288886427879333e-02,-1.371246278285980225e-01,1.556124091148376465e-01,2.785891294479370117e-01,-3.139587044715881348e-01,-1.116160005331039429e-01,-1.941343843936920166e-01,-4.607312679290771484e-01,-1.255230158567428589e-01,-4.195535480976104736e-01,-1.383085083216428757e-02,-3.288924992084503174e-01,-2.037940025329589844e-01,2.040307968854904175e-01,2.539550364017486572e-01,-1.856710463762283325e-01,-1.012515425682067871e-01,-8.133037015795707703e-03,4.822650551795959473e-02,1.880691945552825928e-01,2.449705153703689575e-01,-3.609288483858108521e-02,2.066050469875335693e-02,1.238138154149055481e-01,-2.769077420234680176e-01,-2.779992520809173584e-01,-8.541739732027053833e-02,1.221057176589965820e-01,-8.238060027360916138e-02,1.835857629776000977e-01
-3.444871902465820312e-01,1.866197586059570312e-01,3.697358965873718262e-01,5.191545486450195312e-01,5.271958187222480774e-02,1.120800375938415527e-01,5.054140090942382812e-02,3.212675154209136963e-01,-1.145951226353645325e-01,1.045021601021289825e-02,-1.274626851081848145e-01,1.918591707944869995e-01,4.387889206409454346e-01,2.802718877792358398e-01,1.918119490146636963e-01,1.456528156995773315e-02,1.854162812232971191e-01,-2.570314109325408936e-01,3.253212571144104004e-01,-4.277862608432769775e-02,1.453686803579330444e-01,-2.094554901123046875e-01,9.745008498430252075e-02,-5.088571310043334961e-01,2.417295798659324646e-02,-1.864950060844421387e-01,-3.845825046300888062e-02,-2.963058948516845703e-01,1.511599421501159668e-01,-3.437152206897735596e-01,-1.343075633049011230e-01,8.385492116212844849e-02,7.726792246103286743e-02,1.636368483304977417e-01,1.793787181377410889e-01,6.773905456066131592e-02,3.125832378864288330e-01,-3.565479516983032227e-01,-1.712622046470642090e-01,-3.967463504523038864e-03
1.055756676942110062e-02,3.191498816013336182e-01,1.697354763746261597e-01,4.205933585762977600e-02,-1.921954154968261719e-01,2.475334554910659790e-01,-1.364203095436096191e-01,3.808616995811462402e-01,-2.394899576902389526e-01,-1.818110048770904541e-01,1.124388054013252258e-01,-2.359330356121063232e-01,-7.455434650182723999e-02,-9.029076993465423584e-02,2.951354086399078369e-01,1.135089099407196045e-01,1.207401305437088013e-01,9.118905663490295410e-02,-1.347334533929824829e-01,-2.163733989000320435e-01,-6.468045711517333984e-02,-9.502504765987396240e-02,1.656874567270278931e-01,2.267982214689254761e-01,-3.310827538371086121e-02,-1.865364760160446167e-01,1.468479335308074951e-01,-7.261160761117935181e-02,2.097460329532623291e-01,-2.240610569715499878e-01,-1.668411642313003540e-01,-2.375469356775283813e-01,-2.149500399827957153e-01,2.086033225059509277e-01,1.944641768932342529e-01,-4.113094508647918701e-02,-2.844086885452270508e-01,1.576928645372390747e-01,-1.532407402992248535e-01,2.465841919183731079e-01
-4.000959396362304688e-01,8.215104788541793823e-02,3.291049227118492126e-02,2.143694311380386353e-01,3.891493380069732666e-01,3.971754610538482666e-01,3.472083210945129395e-01,-3.232272267341613770e-01,1.010980829596519470e-01,1.150754094123840332e-01,4.093097448348999023e-01,-1.452613323926925659e-01,5.168831720948219299e-02,-5.143272504210472107e-02,2.593594193458557129e-01,3.013257086277008057e-01,-1.325440555810928345e-01,6.602812558412551880e-02,2.490314841270446777e-01,9.703852236270904541e-02,-3.466056287288665771e-01,4.075757861137390137e-01,2.002280950546264648e-01,5.548017472028732300e-02,-2.410075664520263672e-01,1.492496877908706665e-01,3.946542143821716309e-01,-1.636359840631484985e-01,-3.363932371139526367e-01,2.306637465953826904e-01,3.154142200946807861e-01,-3.350824415683746338e-01,2.964701652526855469e-01,-7.418522983789443970e-02,1.079817954450845718e-02,7.972339540719985962e-02,-3.507524430751800537e-01,1.406160145998001099e-01,1.205959916114807129e-01,-3.478981852531433105e-01
2.185481600463390350e-02,3.666187226772308350e-01,2.969710715115070343e-02,-1.873079836368560791e-01,1.919625401496887207e-01,-2.897932380437850952e-02,6.307972669601440430e-01,9.606783092021942139e-02,5.186436325311660767e-02,6.774772703647613525e-02,2.626672983169555664e-01,-7.290612161159515381e-02,2.666816487908363342e-02,9.096178226172924042e-03,1.510939467698335648e-02,-1.161680594086647034e-01,7.379876822233200073e-02,4.631361961364746094e-01,-3.183496370911598206e-02,-4.196625202894210815e-02,-2.027922123670578003e-01,1.266779290745034814e-04,-1.037500333040952682e-02,2.117424011230468750e-01,1.125403400510549545e-02,2.190499603748321533e-01,-1.004490554332733154e-01,1.381575763225555420e-01,3.474203124642372131e-02,-2.775144064798951149e-03,1.341678798198699951e-01,1.946434676647186279e-01,3.674969673156738281e-01,-8.397605270147323608e-02,-3.637766838073730469e-01,4.672921448945999146e-02,2.216861397027969360e-01,2.993292510509490967e-01,-1.513589080423116684e-02,-1.143448278307914734e-01
-2.320906817913055420e-01,-2.229290008544921875e-01,-1.730117946863174438e-01,-1.393570937216281891e-02,-3.877716064453125000e-01,-2.763241827487945557e-01,-7.728254795074462891e-02,-4.090099930763244629e-01,1.225737109780311584e-01,-1.128939166665077209e-01,1.713813096284866333e-01,-3.923001587390899658e-01,-2.528625912964344025e-02,1.103610694408416748e-01,1.190800368785858154e-01,2.591468691825866699e-01,-2.891431190073490143e-02,-3.353703618049621582e-01,2.437589466571807861e-01,4.988199565559625626e-03,-4.084538817405700684e-01,1.488595902919769287e-01,6.642670929431915283e-02,-1.523724347352981567e-01,-1.016362383961677551e-01,1.066122110933065414e-02,2.073225975036621094e-01,-3.041314184665679932e-01,1.238414719700813293e-01,4.466672837734222412e-01,-4.152436554431915283e-01,-1.612880080938339233e-01,4.475058242678642273e-02,-9.630069881677627563e-02,-1.589210033416748047e-01,2.497084587812423706e-01,1.202701106667518616e-01,-7.569795846939086914e-02,5.561941117048263550e-02,1.588167101144790649e-01
1.104275509715080261e-01,1.986890733242034912e-01,2.831411361694335938e-01,1.215615794062614441e-01,-1.543843597173690796e-01,5.198976024985313416e-02,1.501260995864868164e-01,5.267669558525085449e-01,1.117109507322311401e-01,-3.175840154290199280e-02,7.261729240417480469e-02,3.308092355728149414e-01,7.418551947921514511e-03,1.796906888484954834e-01,-3.455901145935058594e-01,1.033995449542999268e-01,-2.162401825189590454e-01,-3.751433491706848145e-01,-2.076131701469421387e-01,-1.673082262277603149e-01,-1.481825858354568481e-01,2.414807677268981934e-01,-2.460161447525024414e-01,-1.183345988392829895e-01,2.113447338342666626e-01,-4.102086648344993591e-02,-1.537300050258636475e-01,-1.635628789663314819e-01,-1.557758301496505737e-01,-3.789938092231750488e-01,-9.623130410909652710e-02,-2.451766431331634521e-01,3.563916981220245361e-01,2.936848811805248260e-02,-1.214271485805511475e-01,-2.592684924602508545e-01,7.963158190250396729e-02,-2.640386223793029785e-01,2.095062285661697388e-01,-2.582831382751464844e-01
-3.657688796520233154e-01,8.863796480000019073e-03,1.584455966949462891e-01,4.964467510581016541e-02,-3.016050755977630615e-01,1.762243062257766724e-01,7.561200112104415894e-02,2.237002551555633545e-01,1.876273751258850098e-01,-2.820193469524383545e-01,1.083845049142837524e-01,1.719223856925964355e-01,3.228542804718017578e-01,4.352505877614021301e-02,2.659154832363128662e-01,-3.245435953140258789e-01,-9.743961505591869354e-03,1.482031401246786118e-02,-1.879103668034076691e-02,-3.207972645759582520e-01,1.677918732166290283e-01,3.514151275157928467e-01,4.104116931557655334e-02,-4.529839381575584412e-02,1.921652704477310181e-01,3.924866020679473877e-01,5.595687404274940491e-02,4.409524202346801758e-01,1.375987976789474487e-01,4.118003249168395996e-01,-1.346670091152191162e-01,6.425272822380065918e-01,7.756976783275604248e-02,2.857838869094848633e-01,-2.090674042701721191e-01,5.452271699905395508e-01,-2.730294466018676758e-01,1.243900433182716370e-01,2.849263846874237061e-01,2.091736644506454468e-01
2.932875230908393860e-02,-2.516841702163219452e-02,-1.217640936374664307e-01,-1.294723004102706909e-01,2.295076698064804077e-01,2.335690408945083618e-01,2.510152459144592285e-01,8.178467303514480591e-02,-1.611396074295043945e-01,6.940611451864242554e-02,3.090508580207824707e-01,-1.972241848707199097e-01,-1.498112827539443970e-01,1.820142120122909546e-01,1.946102529764175415e-01,5.958191677927970886e-02,-9.366087615489959717e-02,-1.752761006355285645e-01,1.085253655910491943e-01,2.871338129043579102e-01,1.655487269163131714e-01,-5.249210596084594727e-01,1.491328924894332886e-01,2.343526631593704224e-01,-3.466004431247711182e-01,-3.146196901798248291e-01,-2.334846742451190948e-02,-2.374035865068435669e-01,2.368793934583663940e-01,-8.521859347820281982e-02,-3.079108297824859619e-01,1.050881147384643555e-01,5.260527133941650391e-03,-1.124777346849441528e-01,5.430299639701843262e-01,-1.561028882861137390e-03,-5.650182440876960754e-02,-2.104126811027526855e-01,5.340605378150939941e-01,1.708809137344360352e-01
3.705942332744598389e-01,3.080795109272003174e-01,-3.893328905105590820e-01,-2.624568343162536621e-01,-3.888720571994781494e-01,3.154212832450866699e-01,1.661380082368850708e-01,-5.892641469836235046e-02,1.785354167222976685e-01,2.176683545112609863e-01,6.065130699425935745e-03,-1.886081509292125702e-02,4.384158849716186523e-01,2.094886004924774170e-01,-5.922278761863708496e-01,-1.695056110620498657e-01,-2.713676989078521729e-01,2.155414372682571411e-01,-2.427165023982524872e-02,6.390248239040374756e-02,6.939175724983215332e-02,-1.744961142539978027e-01,1.721387356519699097e-01,1.200151294469833374e-01,3.939032554626464844e-03,4.589254856109619141e-01,-7.116732746362686157e-02,1.836169511079788208e-01,-9.228419512510299683e-02,9.466859698295593262e-02,-8.657708764076232910e-02,-1.607610434293746948e-01,-1.746180355548858643e-01,-7.581651955842971802e-02,-8.966249227523803711e-02,9.466997347772121429e-03,-4.134280383586883545e-01,-2.879380285739898682e-01,-2.014919817447662354e-01,3.010549843311309814e-01
2.529941312968730927e-02,-8.283091336488723755e-02,3.048625960946083069e-02,-2.708587050437927246e-01,1.701305061578750610e-01,2.730191648006439209e-01,1.897970288991928101e-01,-3.089711070060729980e-01,2.891548871994018555e-01,1.365481168031692505e-01,3.037134706974029541e-01,8.053474128246307373e-02,-1.932473666965961456e-02,-1.341482996940612793e-01,1.837180107831954956e-01,-1.587748229503631592e-01,2.341920286417007446e-01,6.375351548194885254e-02,-1.365393847227096558e-01,-6.561851501464843750e-02,-1.268059015274047852e-01,2.769617438316345215e-01,-4.303966164588928223e-01,-4.028578698635101318e-01,-9.384861588478088379e-02,-2.026973068714141846e-01,-2.868805229663848877e-01,-7.946294546127319336e-02,-1.796330064535140991e-01,-2.351597547531127930e-01,9.672289341688156128e-02,1.727382838726043701e-01,-2.143376916646957397e-01,-3.480623066425323486e-01,3.120897412300109863e-01,2.349443882703781128e-01,4.038282036781311035e-01,-4.308195710182189941e-01,-4.248726367950439453e-02,-4.860170930624008179e-02
-1.501450315117835999e-02,-3.723182678222656250e-01,-1.045504119247198105e-02,-3.044273890554904938e-02,-9.978982806205749512e-02,1.529043540358543396e-02,-1.717335134744644165e-01,-8.805706351995468140e-02,-2.886764332652091980e-02,-1.807530038058757782e-02,1.213403642177581787e-01,-2.033548988401889801e-02,1.951260305941104889e-02,2.772512845695018768e-02,-1.988753825426101685e-01,-3.222925662994384766e-01,-3.660775348544120789e-02,-2.680601477622985840e-01,4.195713996887207031e-02,1.088078990578651428e-01,-1.742703020572662354e-01,-1.393546164035797119e-01,3.293417692184448242e-01,-1.529778391122817993e-01,-3.545237705111503601e-03,-5.811767578125000000e-01,4.179438948631286621e-02,5.026832818984985352e-01,5.124874711036682129e-01,-1.021639853715896606e-01,5.209584236145019531e-01,3.685568273067474365e-02,1.827995181083679199e-01,1.860022991895675659e-01,5.001873150467872620e-02,-1.266288906335830688e-01,5.076932311058044434e-01,5.570590868592262268e-02,-1.136231273412704468e-01,4.174387827515602112e-02
1.282422393560409546e-01,-9.950459748506546021e-02,9.628772735595703125e-02,6.188619732856750488e-01,2.815086841583251953e-01,-1.698440462350845337e-01,-7.206005044281482697e-03,-1.638849973678588867e-01,-2.159946560859680176e-01,2.492630481719970703e-01,3.461395204067230225e-01,-1.644157320261001587e-01,-2.200935631990432739e-01,2.055349051952362061e-01,-3.286891877651214600e-01,2.531072497367858887e-01,3.432237505912780762e-01,-1.080613136291503906e-01,-1.170192062854766846e-01,3.390118777751922607e-01,-7.558061182498931885e-02,-2.952817082405090332e-01,2.825114727020263672e-01,-1.320926100015640259e-01,1.442710906267166138e-01,2.143144011497497559e-01,-3.201191723346710205e-01,6.758066266775131226e-02,2.738546729087829590e-01,3.098187446594238281e-01,-3.413815498352050781e-01,-1.776232011616230011e-02,3.734354674816131592e-01,7.636864483356475830e-02,-2.669601738452911377e-01,-1.723933964967727661e-01,-3.005637526512145996e-01,-5.128496885299682617e-01,-9.745837002992630005e-02,4.881358891725540161e-02
5.526558309793472290e-02,-4.365807175636291504e-01,3.797303140163421631e-01,4.748319089412689209e-01,-6.347751617431640625e-02,-3.769613802433013916e-02,1.347501575946807861e-01,-2.118652909994125366e-01,4.258632957935333252e-01,7.886944711208343506e-02,2.318735569715499878e-01,-3.591431677341461182e-01,-1.113624721765518188e-01,3.134706914424896240e-01,-5.786676406860351562e-01,-4.230652749538421631e-02,-8.183027058839797974e-02,6.638988107442855835e-02,-9.653908014297485352e-02,1.631269752979278564e-01,9.767460078001022339e-02,-2.397341132164001465e-01,2.343208789825439453e-01,2.653197646141052246e-01,5.728065967559814453e-01,1.549681834876537323e-02,-3.228068649768829346e-01,3.613811433315277100e-01,1.296334564685821533e-01,-5.897685885429382324e-02,-2.623712718486785889e-01,-3.274846076965332031e-02,-5.589942932128906250e-01,-2.421273887157440186e-01,-3.387737274169921875e-01,-1.523367017507553101e-01,-2.916144132614135742e-01,1.967461556196212769e-01,2.390617430210113525e-01,-4.941099137067794800e-02
-1.155541688203811646e-01,4.785925745964050293e-01,9.204178303480148315e-02,-5.737481638789176941e-03,-1.209739968180656433e-02,1.898859739303588867e-01,3.178953826427459717e-01,2.068681716918945312e-01,1.306197643280029297e-01,-2.490453422069549561e-01,3.177919238805770874e-02,1.336373239755630493e-01,-2.083463221788406372e-01,1.343718171119689941e-01,-3.827854245901107788e-02,-1.533896625041961670e-01,8.237983286380767822e-02,4.858341440558433533e-02,2.185992896556854248e-01,1.764216460287570953e-02,4.807895049452781677e-02,-3.974332660436630249e-02,1.820049434900283813e-01,-4.031333327293395996e-01,-1.869881749153137207e-01,-8.630820363759994507e-02,-3.343640565872192383e-01,2.644741833209991455e-01,9.610654413700103760e-02,5.063405036926269531e-01,-2.002010643482208252e-01,3.062141239643096924e-01,2.244392186403274536e-01,-1.271805614233016968e-01,3.654761612415313721e-02,-3.222422003746032715e-01,-3.631005883216857910e-01,-1.403910387307405472e-02,2.316648662090301514e-01,2.618393003940582275e-01
4.015872180461883545e-01,-1.842028647661209106e-01,2.289818041026592255e-02,-2.569467723369598389e-01,-4.193852841854095459e-02,6.020524352788925171e-02,-1.505856364965438843e-01,1.495855152606964111e-01,-4.953521490097045898e-02,-9.120857715606689453e-02,-5.170879885554313660e-02,1.076622828841209412e-01,3.767658397555351257e-02,-2.525974810123443604e-01,-4.260654747486114502e-01,2.493875622749328613e-01,-1.972584873437881470e-01,1.924028843641281128e-01,-2.095816284418106079e-01,-3.965028524398803711e-01,2.662735581398010254e-01,-6.963648647069931030e-02,3.694592416286468506e-01,-4.450881853699684143e-02,4.665102809667587280e-02,4.528090357780456543e-01,2.634316682815551758e-01,-2.339955866336822510e-01,2.933798432350158691e-01,1.135403513908386230e-01,-1.035490036010742188e-01,-1.420159079134464264e-02,8.617569506168365479e-02,-2.129781544208526611e-01,1.447633653879165649e-02,-2.318689674139022827e-01,4.161827266216278076e-01,-3.556291759014129639e-01,2.538667917251586914e-01,6.204801425337791443e-02
-5.773080512881278992e-02,-7.142113149166107178e-02,1.582756191492080688e-01,-8.818606287240982056e-02,-5.349321961402893066e-01,7.657387759536504745e-03,2.711709402501583099e-02,3.204278051853179932e-01,1.503219306468963623e-01,3.902338817715644836e-02,-4.488890767097473145e-01,5.477438569068908691e-01,-9.640649706125259399e-02,7.758923619985580444e-02,1.143139451742172241e-01,5.444183945655822754e-02,4.813149869441986084e-01,4.628053400665521622e-03,-1.111258566379547119e-01,3.071512281894683838e-01,-3.611038327217102051e-01,-2.483653724193572998e-01,-1.317021995782852173e-01,-1.013303324580192566e-01,-9.003031998872756958e-02,2.191847562789916992e-01,1.370831280946731567e-01,6.366506218910217285e-02,-2.679937779903411865e-01,6.744159758090972900e-02,-4.532282352447509766e-01,5.480274185538291931e-02,9.077011048793792725e-02,-1.741057634353637695e-01,4.634794313460588455e-03,1.526266783475875854e-01,3.279402256011962891e-01,2.684563994407653809e-01,-6.755656749010086060e-02,-5.188649296760559082e-01
-2.856405377388000488e-01,-1.036295741796493530e-01,2.774310763925313950e-03,-1.060239225625991821e-01,2.276984006166458130e-01,-2.052795737981796265e-01,1.380119472742080688e-02,2.314272224903106689e-01,-1.227577775716781616e-01,-1.436828523874282837e-01,-1.485145688056945801e-01,-1.140528991818428040e-01,3.677555918693542480e-01,-2.061468660831451416e-01,1.208541095256805420e-01,-4.132516384124755859e-01,1.812635213136672974e-01,1.572043746709823608e-01,2.212035953998565674e-01,1.577962338924407959e-01,1.575046777725219727e-01,-2.112625092267990112e-01,-1.688068956136703491e-01,4.579463228583335876e-02,3.340237140655517578e-01,-1.261273398995399475e-02,-3.626943007111549377e-02,1.917765885591506958e-01,7.381853461265563965e-02,5.181660056114196777e-01,6.030002981424331665e-02,-3.096711635589599609e-01,-3.025391139090061188e-03,8.014512062072753906e-02,-1.019030511379241943e-01,-4.497202485799789429e-02,-9.009992331266403198e-02,4.013643786311149597e-02,3.770786523818969727e-01,2.982752025127410889e-01
-4.739454016089439392e-02,8.004393428564071655e-02,-3.611482381820678711e-01,1.029267832636833191e-01,2.091296464204788208e-01,-2.544453926384449005e-02,8.855093270540237427e-02,2.481363862752914429e-01,-2.317415177822113037e-02,-2.812617085874080658e-02,1.527167707681655884e-01,-3.850161731243133545e-01,3.421608358621597290e-02,-2.027113735675811768e-01,-1.298619955778121948e-01,9.727225452661514282e-02,-2.755362987518310547e-01,2.402771115303039551e-01,7.726923376321792603e-02,-6.799352169036865234e-02,1.160880476236343384e-01,3.160293027758598328e-02,-2.462207376956939697e-01,-8.568778634071350098e-03,-1.510627865791320801e-01,3.105186298489570618e-02,-2.003056183457374573e-02,-2.277468889951705933e-01,2.165204733610153198e-01,-3.308071568608283997e-02,-1.720733754336833954e-02,-2.869017124176025391e-01,4.607619941234588623e-01,3.261402994394302368e-02,-1.717902123928070068e-01,2.105294018983840942e-01,-1.931837648153305054e-01,-2.629214823246002197e-01,1.365193426609039307e-01,2.093420475721359253e-01
-2.262513786554336548e-01,-8.442888408899307251e-02,-2.551980018615722656e-01,4.953829646110534668e-01,-7.175342440605163574e-01,2.840928435325622559e-01,2.587695419788360596e-01,4.967369884252548218e-02,2.671203911304473877e-01,2.872475087642669678e-01,-4.474290311336517334e-01,9.843553602695465088e-02,-4.813792705535888672e-01,-2.820427715778350830e-02,-1.245739385485649109e-01,-1.749744862318038940e-01,7.077579200267791748e-02,-1.042877044528722763e-02,-1.430721133947372437e-01,-4.078127741813659668e-01,5.344716310501098633e-01,-5.589067935943603516e-01,-1.938829421997070312e-01,-2.343748658895492554e-01,2.655611932277679443e-01,2.210883796215057373e-01,1.486159563064575195e-01,1.628273874521255493e-01,3.869968354701995850e-01,9.640183299779891968e-02,1.280554234981536865e-01,-1.343574672937393188e-01,1.888827681541442871e-01,3.814602792263031006e-01,-5.980447679758071899e-02,-3.932838439941406250e-01,9.747984260320663452e-02,-2.297135889530181885e-01,-2.537048459053039551e-01,1.193502172827720642e-01
-3.653663694858551025e-01,-2.787027955055236816e-01,2.185459062457084656e-02,-7.991349697113037109e-02,-3.979571759700775146e-01,-7.506751269102096558e-02,-5.035211890935897827e-02,2.379960268735885620e-01,4.605515003204345703e-01,-2.050237730145454407e-02,-1.600381880998611450e-01,-3.897723555564880371e-01,-1.444679778069257736e-02,-3.789135813713073730e-01,1.915230304002761841e-01,-1.111692711710929871e-01,-4.299675822257995605e-01,1.001657620072364807e-01,-3.973586857318878174e-01,-5.076202005147933960e-02,9.713133424520492554e-02,-2.067066915333271027e-02,-4.334584996104240417e-02,4.103650450706481934e-01,-4.740613102912902832e-01,4.774595797061920166e-01,1.058116853237152100e-01,-2.350506931543350220e-01,-1.288803219795227051e-01,-5.334814637899398804e-02,-4.996534436941146851e-02,-6.036069616675376892e-02,-4.425535500049591064e-01,-8.298843353986740112e-02,1.016254946589469910e-01,-2.841054499149322510e-01,-3.270453214645385742e-02,-1.895545721054077148e-01,2.343194931745529175e-01,1.201956942677497864e-01
1.182462424039840698e-01,1.970763504505157471e-01,-1.010789424180984497e-01,1.277587711811065674e-01,-9.632723778486251831e-02,-6.717029809951782227e-01,8.298689499497413635e-03,-5.619985982775688171e-02,3.336355388164520264e-01,2.894925884902477264e-02,7.347524166107177734e-02,-2.097561508417129517e-01,-2.855498492717742920e-01,-3.246330618858337402e-01,-3.092163987457752228e-02,5.742370709776878357e-02,1.136762872338294983e-01,-1.809689253568649292e-01,1.598091870546340942e-01,2.868631184101104736e-01,-1.885472051799297333e-02,-2.584006488323211670e-01,1.420625746250152588e-01,-2.664449512958526611e-01,-2.839369475841522217e-01,-1.634315550327301025e-01,-3.162220818921923637e-03,-2.221757769584655762e-01,-2.772505581378936768e-01,6.145906448364257812e-02,3.319497779011726379e-02,-1.602174639701843262e-01,-1.525372713804244995e-01,3.424906730651855469e-01,3.006367981433868408e-01,8.191637694835662842e-02,-1.649528294801712036e-01,-8.402591198682785034e-02,4.909377694129943848e-01,5.166133493185043335e-02
1.681011766195297241e-01,-2.129988521337509155e-01,-2.757883369922637939e-01,2.901774942874908447e-01,7.389736920595169067e-02,1.803614795207977295e-01,-1.590174436569213867e-01,-4.307744204998016357e-01,-9.958572685718536377e-02,-5.178253054618835449e-01,9.504371136426925659e-02,-2.380381971597671509e-01,1.413390636444091797e-01,1.923679262399673462e-01,-2.292150706052780151e-01,-2.695223093032836914e-01,-4.186591878533363342e-02,-5.891822576522827148e-01,7.423043251037597656e-02,2.255065441131591797e-01,-3.749216720461845398e-02,2.194205820560455322e-01,5.111305788159370422e-02,3.464443087577819824e-01,1.228259652853012085e-01,-3.984466567635536194e-02,2.031774371862411499e-01,3.741222023963928223e-01,1.263008415699005127e-01,-2.763062715530395508e-02,-2.487057149410247803e-01,4.601121842861175537e-01,-2.921648137271404266e-02,3.591904044151306152e-02,5.289795622229576111e-02,3.711695671081542969e-01,-2.482509911060333252e-01,2.677435278892517090e-01,2.753174304962158203e-02,1.309021264314651489e-01
-2.293378561735153198e-01,-1.541428118944168091e-01,-2.024420499801635742e-01,1.833534836769104004e-01,2.822312526404857635e-02,-2.005646750330924988e-02,4.234981238842010498e-01,-1.678235530853271484e-01,-2.095891237258911133e-01,-4.213036596775054932e-02,6.218507513403892517e-02,-4.000357389450073242e-01,5.401602387428283691e-01,5.701686814427375793e-02,-1.897097751498222351e-02,3.467638418078422546e-02,2.400766313076019287e-01,-3.081860952079296112e-02,-5.149272084236145020e-02,2.177352607250213623e-01,7.478542625904083252e-02,-4.316056612879037857e-03,6.200893782079219818e-03,1.129780262708663940e-01,2.943542897701263428e-01,3.541831970214843750e-01,9.530309587717056274e-02,9.350838081445544958e-05,-3.809549212455749512e-01,-2.019822783768177032e-02,-1.963699758052825928e-01,2.662635780870914459e-02,-8.854655176401138306e-02,-7.578842341899871826e-02,-9.913618117570877075e-02,2.158076763153076172e-01,-6.439429521560668945e-01,7.163610775023698807e-03,-9.534949436783790588e-03,2.857479453086853027e-01
-2.951407432556152344e-01,-5.840654373168945312e-01,-4.134496748447418213e-01,-4.246445000171661377e-02,1.480544656515121460e-01,1.265670359134674072e-01,1.953860223293304443e-01,-7.964143157005310059e-02,-3.382689552381634712e-03,-2.478564679622650146e-01,-2.989315241575241089e-02,2.209876775741577148e-01,-1.769711263477802277e-02,-1.059047803282737732e-01,6.125167012214660645e-03,-1.591775268316268921e-01,-2.115058302879333496e-01,2.101043015718460083e-01,-4.132575988769531250e-01,-1.533457934856414795e-01,2.135798484086990356e-01,-4.838444292545318604e-02,2.002264559268951416e-01,1.955094337463378906e-01,-4.451902210712432861e-02,5.362107977271080017e-02,1.172306668013334274e-02,1.814104467630386353e-01,-3.765006661415100098e-01,-9.758175164461135864e-02,-1.700173318386077881e-01,-1.015964075922966003e-01,1.244741603732109070e-01,-5.961473286151885986e-02,-8.806040883064270020e-02,1.104535087943077087e-01,-2.355750352144241333e-01,-3.662190735340118408e-01,-3.355153501033782959e-01,1.553934812545776367e-01
-6.331344693899154663e-02,2.671538665890693665e-02,-1.900841444730758667e-01,7.920087873935699463e-02,3.006481826305389404e-01,-2.318301498889923096e-01,2.973589003086090088e-01,5.641171708703041077e-02,-1.641205251216888428e-01,-2.239107042551040649e-01,5.919666290283203125e-01,-1.641324721276760101e-02,-2.165154963731765747e-01,-4.302065372467041016e-01,1.055809780955314636e-01,-7.593884319067001343e-02,-1.813411898910999298e-02,1.223284676671028137e-01,1.641241461038589478e-01,3.179871141910552979e-01,7.590370252728462219e-03,-3.002939224243164062e-01,7.275838404893875122e-02,-2.837433218955993652e-01,8.194757997989654541e-02,2.800537832081317902e-02,5.655328556895256042e-02,6.247847676277160645e-01,3.218020796775817871e-01,2.649976909160614014e-01,-5.200744271278381348e-01,-4.931626021862030029e-01,1.659505069255828857e-01,-1.565549671649932861e-01,1.594842039048671722e-02,1.252967864274978638e-01,-2.494388259947299957e-02,-1.186204850673675537e-01,-4.166777804493904114e-02,-1.563756465911865234e-01
5.381592512130737305e-01,-4.041418433189392090e-01,-1.270865947008132935e-01,-1.655514836311340332e-01,-2.004953026771545410e-01,-1.947866678237915039e-01,7.480421662330627441e-02,-5.115543603897094727e-01,2.678990364074707031e-01,1.688400208950042725e-01,8.423560857772827148e-02,3.750511705875396729e-01,6.991249322891235352e-02,-8.499731868505477905e-02,-5.202695727348327637e-02,4.047683626413345337e-02,-3.168449997901916504e-01,2.962846457958221436e-01,-3.162244260311126709e-01,1.240320689976215363e-02,2.626370787620544434e-01,2.506693005561828613e-01,-1.794078052043914795e-01,-1.759071797132492065e-01,6.267191469669342041e-02,2.165317237377166748e-01,5.783564224839210510e-02,-6.127387881278991699e-01,-4.796728789806365967e-01,-1.743364334106445312e-01,7.122539728879928589e-02,-8.608411997556686401e-03,-1.057115495204925537e-01,-2.061866968870162964e-01,-3.046903014183044434e-01,-3.177843987941741943e-01,-1.310094147920608521e-01,-8.819300681352615356e-02,1.725068390369415283e-01,-2.758786976337432861e-01
-1.319150477647781372e-01,-2.063107341527938843e-01,3.701602816581726074e-01,-3.006485849618911743e-02,-4.131674766540527344e-01,9.561704099178314209e-02,-4.207662642002105713e-01,-2.183488160371780396e-01,1.558649390935897827e-01,1.167530491948127747e-01,1.210352927446365356e-01,3.907138705253601074e-01,3.947301805019378662e-01,2.103658169507980347e-01,-1.580253243446350098e-01,-1.805604398250579834e-01,-2.251690328121185303e-01,-6.901471875607967377e-03,-1.916683465242385864e-01,-1.070720609277486801e-02,-3.366079032421112061e-01,2.273934930562973022e-01,-1.219600886106491089e-01,3.193656802177429199e-01,-3.388192877173423767e-02,1.929233819246292114e-01,-3.797176778316497803e-01,1.139545515179634094e-01,4.000113606452941895e-01,1.561780832707881927e-02,-5.294363573193550110e-02,2.012849897146224976e-01,2.742062211036682129e-01,-2.825526893138885498e-01,-1.409251987934112549e-01,-1.223700791597366333e-01,1.136801857501268387e-02,3.001654148101806641e-01,-4.274453520774841309e-01,-5.291315540671348572e-02
