-1.220437958836555481e-01,-3.931205272674560547e-01,-3.996016979217529297e-01,1.874849498271942139e-01,-1.966107636690139771e-01,1.154763936996459961e+00,-9.936147183179855347e-02,-8.926280736923217773e-01,-5.739623308181762695e-01,5.543769001960754395e-01,-5.624602437019348145e-01,2.954842150211334229e-01,-6.836159825325012207e-01,3.059895336627960205e-01,-5.038574337959289551e-01,4.827351272106170654e-01,-8.979537338018417358e-02,9.742012023925781250e-01,-6.409181952476501465e-01,-5.722935795783996582e-01,-1.366266131401062012e+00,7.529032230377197266e-01,2.055986404418945312e+00,9.456009864807128906e-01,1.349010109901428223e+00,-1.381027549505233765e-01,-6.948794126510620117e-01,-4.753603637218475342e-01,-4.776781201362609863e-01,6.360764503479003906e-01,-4.170681238174438477e-01,7.295157760381698608e-02,-3.926926553249359131e-01,9.219277501106262207e-01,3.072620034217834473e-01,-5.524247884750366211e-01,8.485271930694580078e-01,-5.405436754226684570e-01,1.432062983512878418e-01,2.183931350708007812e+00
