5.394350364804267883e-02,-2.815095186233520508e-01,2.221827507019042969e-01,-3.776457607746124268e-01,-1.503344923257827759e-01,9.025501459836959839e-02,-3.275298699736595154e-02,3.117182552814483643e-01,-8.807537145912647247e-03,-1.187276989221572876e-01,-2.023575305938720703e-01,-4.979369342327117920e-01,-1.838011443614959717e-01,-1.246442124247550964e-01,-1.990622729063034058e-01,-3.070113062858581543e-01,-1.700789630413055420e-01,-3.896635770797729492e-02,-4.160281419754028320e-01,-2.022326439619064331e-01,-4.550599157810211182e-01,-1.161612197756767273e-02,-5.268823355436325073e-02,-2.354390174150466919e-01,-6.077696755528450012e-02,-2.115889638662338257e-01,5.157720297574996948e-02,-2.328429371118545532e-01,-1.402568370103836060e-01,-2.389341145753860474e-01,3.653731644153594971e-01,-1.492130160331726074e-01,-1.000797152519226074e-01,-4.919950067996978760e-01,-5.061646550893783569e-02,-2.070354819297790527e-01,-1.323665678501129150e-02,-4.932561144232749939e-02,-9.429726004600524902e-02,-5.353624224662780762e-01
1.304825842380523682e-01,3.666134178638458252e-01,-2.112610936164855957e-01,3.190745040774345398e-02,-3.690615296363830566e-01,-1.858539342880249023e+00,2.723795771598815918e-01,-1.520310491323471069e-01,7.826583385467529297e-01,3.637987673282623291e-01,-2.719589173793792725e-01,5.652573332190513611e-02,-4.221435785293579102e-01,-3.535434901714324951e-01,3.034765124320983887e-01,-1.858327835798263550e-01,-2.405789494514465332e-01,-4.574424326419830322e-01,1.309147328138351440e-01,-5.080825686454772949e-01,-2.219271361827850342e-01,-3.108781337738037109e+00,1.671341061592102051e-01,-4.415043294429779053e-01,3.098254203796386719e-01,-6.453610658645629883e-01,-1.208645462989807129e+00,1.596254706382751465e-01,6.006501987576484680e-02,-2.636000216007232666e-01,4.089983552694320679e-02,2.555575966835021973e-01,-2.631762504577636719e+00,2.129123508930206299e-01,-1.823454856872558594e+00,3.227455914020538330e-01,-5.394257307052612305e-01,-2.367377877235412598e-01,-2.205850601196289062e+00,-3.662720024585723877e-01
-3.096790313720703125e-01,1.121991053223609924e-01,-2.596383392810821533e-01,-1.078507542610168457e+00,1.098336875438690186e-01,-2.144628286361694336e+00,2.690901756286621094e-01,-2.410077862441539764e-02,8.571861386299133301e-01,4.902409389615058899e-02,-1.892112493515014648e-01,1.329570114612579346e-01,6.470362097024917603e-02,-4.937722980976104736e-01,-4.451495110988616943e-01,-8.175697922706604004e-02,1.065578870475292206e-02,-1.060331583023071289e+00,7.762321829795837402e-02,1.610508710145950317e-01,-5.803734660148620605e-01,-2.254372358322143555e+00,-3.632529079914093018e-01,-3.565016686916351318e-01,-1.228393316268920898e+00,2.976142242550849915e-02,-3.261462748050689697e-01,-7.570824623107910156e-01,2.449435740709304810e-01,-2.593776881694793701e-01,-1.431477785110473633e+00,1.437691152095794678e-01,-1.924101471900939941e+00,-2.587345540523529053e-01,-2.016893386840820312e+00,6.753224134445190430e-01,-1.826318800449371338e-01,-3.836468234658241272e-02,-1.968933582305908203e+00,-7.237530499696731567e-02
3.423637449741363525e-01,2.307836413383483887e-01,1.085604727268218994e-01,2.036206126213073730e-01,6.757717728614807129e-01,-1.110674858093261719e+00,1.066518723964691162e-01,-2.778759300708770752e-01,6.445748805999755859e-01,4.947078600525856018e-02,-5.131215453147888184e-01,-1.252053976058959961e-01,-8.043369054794311523e-01,-7.433719038963317871e-01,-2.889498174190521240e-01,-8.555439114570617676e-02,2.776676714420318604e-01,-2.167238473892211914e+00,-7.853267192840576172e-01,2.134168297052383423e-01,-4.908431768417358398e-01,-1.804431796073913574e+00,4.692617058753967285e-01,-8.676259517669677734e-01,-2.888394832611083984e+00,-7.222213745117187500e-01,-1.259303331375122070e+00,-1.267950773239135742e+00,-1.773269660770893097e-02,-2.051013410091400146e-01,-1.187808625400066376e-02,-4.253731966018676758e-01,-2.767014265060424805e+00,3.047375567257404327e-02,-2.108763933181762695e+00,9.257884323596954346e-02,2.465208247303962708e-02,-2.959610819816589355e-01,-1.607847809791564941e+00,-1.401932954788208008e+00
1.984922215342521667e-02,5.566179007291793823e-02,5.802438035607337952e-02,-1.766921430826187134e-01,6.043405085802078247e-02,-3.663932159543037415e-02,-2.438384592533111572e-01,2.033277601003646851e-02,8.744640648365020752e-02,4.128415137529373169e-02,-1.866465657949447632e-01,-1.021983698010444641e-01,-3.283551931381225586e-01,-1.900359801948070526e-02,5.927921459078788757e-02,2.019882947206497192e-02,-1.628385186195373535e-01,-2.126228958368301392e-01,-3.584683239459991455e-01,-4.781604558229446411e-02,-1.257525384426116943e-01,-8.059782534837722778e-02,-7.006335258483886719e-02,-2.006380409002304077e-01,-7.955911010503768921e-02,8.815626800060272217e-02,-2.371987551450729370e-01,-2.273762598633766174e-02,1.060714200139045715e-01,-1.931800991296768188e-01,6.808553636074066162e-02,-1.344866901636123657e-01,-1.641560494899749756e-01,-2.302453368902206421e-01,-8.689903467893600464e-02,-5.141662359237670898e-01,4.701924324035644531e-02,6.912068277597427368e-02,-8.691398799419403076e-02,4.448777064681053162e-02
2.977877557277679443e-01,3.435263633728027344e-01,-2.234266996383666992e-01,1.824670843780040741e-02,-4.729080572724342346e-02,-3.367977857589721680e+00,-6.671804934740066528e-02,-6.098714098334312439e-02,5.790680050849914551e-01,4.656413793563842773e-01,-3.237007558345794678e-01,5.976317077875137329e-02,-2.862245440483093262e-01,-5.003390312194824219e-01,2.220912724733352661e-01,-2.614916265010833740e-01,-4.467583820223808289e-02,-5.757270455360412598e-01,1.461953669786453247e-01,9.022150933742523193e-02,-1.480275541543960571e-01,-2.532635927200317383e+00,3.968346491456031799e-02,-2.078419178724288940e-01,-2.561407983303070068e-01,-2.878778874874114990e-01,-2.517929553985595703e+00,6.678073108196258545e-02,3.087147474288940430e-01,-1.411094218492507935e-01,4.168731570243835449e-01,-1.833426021039485931e-02,-3.961592674255371094e+00,-2.361955046653747559e-01,-3.008722305297851562e+00,5.956675410270690918e-01,-4.394368827342987061e-01,-9.815602004528045654e-02,-3.812001705169677734e+00,-3.808502852916717529e-01
-2.636281847953796387e-01,-2.386547625064849854e-02,-3.351042866706848145e-01,5.812862515449523926e-02,3.214557766914367676e-01,-2.998863697052001953e+00,2.405421584844589233e-01,-3.029494881629943848e-01,3.948920071125030518e-01,-2.285411208868026733e-01,-1.160388588905334473e-01,-6.301670074462890625e-01,-4.513618648052215576e-01,-3.105863034725189209e-01,4.755244031548500061e-02,1.158888265490531921e-01,-1.694255173206329346e-01,-1.238340854644775391e+00,-1.992665529251098633e-01,5.285273194313049316e-01,-2.087463587522506714e-01,-2.076482534408569336e+00,3.391663134098052979e-01,-2.749422788619995117e-01,3.810835480690002441e-01,-2.169614553451538086e+00,-1.889697074890136719e+00,2.789317369461059570e-01,-8.502853512763977051e-01,-3.422930538654327393e-01,3.036129772663116455e-01,1.378299389034509659e-02,-2.624475002288818359e+00,3.377930223941802979e-01,-2.136797904968261719e+00,5.879334211349487305e-01,8.478013426065444946e-02,-6.059340834617614746e-01,-2.617326974868774414e+00,-1.445865631103515625e-01
-8.990902304649353027e-01,6.252760291099548340e-01,-7.120718806982040405e-02,-2.750683426856994629e-01,-6.687698960304260254e-01,-1.964135318994522095e-01,-5.910841822624206543e-01,6.382905840873718262e-01,7.830546796321868896e-02,3.707281053066253662e-01,6.057561188936233521e-02,-1.081881746649742126e-01,-5.566061660647392273e-02,1.585486829280853271e-01,-7.502401620149612427e-02,1.537760347127914429e-01,5.201282724738121033e-02,-5.415228754281997681e-02,-4.286186695098876953e-01,1.974442601203918457e-01,-1.059712886810302734e+00,-6.232028603553771973e-01,-7.050786167383193970e-02,-5.224198698997497559e-01,-1.218406319618225098e+00,-2.200099825859069824e-01,-7.712655663490295410e-01,-9.805783033370971680e-01,-2.771334946155548096e-01,-6.232662200927734375e-01,-3.548252210021018982e-02,-4.316664636135101318e-01,-1.195933461189270020e+00,-7.302120327949523926e-01,-8.958852887153625488e-01,-3.668013513088226318e-01,-2.758581340312957764e-01,-2.283076047897338867e-01,-3.520570397377014160e-01,-5.179866552352905273e-01
6.218507513403892517e-02,7.638198137283325195e-02,-1.549573838710784912e-01,-1.450944095849990845e-01,-2.340984642505645752e-01,-1.128957629203796387e+00,-1.430864930152893066e-01,2.446717172861099243e-01,-2.148878723382949829e-01,1.591806858777999878e-01,-6.206520795822143555e-01,4.498070478439331055e-02,-3.948016762733459473e-01,-5.293627977371215820e-01,5.029360651969909668e-01,8.312955498695373535e-02,-7.344837486743927002e-02,-7.172584533691406250e-01,-7.240324467420578003e-02,2.100963592529296875e-01,-4.187955856323242188e-01,-2.358976602554321289e+00,6.048086881637573242e-01,-4.171812236309051514e-01,-1.691691130399703979e-01,-9.052790999412536621e-01,-7.771912217140197754e-01,1.418506056070327759e-01,-4.473937451839447021e-01,-2.588135600090026855e-01,4.376908540725708008e-01,-6.426318287849426270e-01,-2.086930036544799805e+00,2.438607960939407349e-01,-2.353188276290893555e+00,-1.992674350738525391e+00,-5.829061865806579590e-01,-1.099412202835083008e+00,-8.592394590377807617e-01,-3.949908912181854248e-02
-1.217115446925163269e-01,1.598278284072875977e-01,-2.527341805398464203e-02,-3.118835091590881348e-01,2.664219141006469727e-01,-3.089280128479003906e+00,2.233570218086242676e-01,2.598880529403686523e-01,-3.931601941585540771e-01,1.767451167106628418e-01,-7.446216344833374023e-01,1.037912592291831970e-01,-2.693641185760498047e-01,-2.805624604225158691e-01,5.008555054664611816e-01,-4.837499931454658508e-02,-1.143778413534164429e-01,-9.244916439056396484e-01,-6.701680421829223633e-01,4.486431479454040527e-01,-5.504726171493530273e-01,-3.559804201126098633e+00,6.850138306617736816e-01,-4.346728920936584473e-01,-5.312983989715576172e-01,-7.277933955192565918e-01,-1.339553713798522949e+00,4.516734927892684937e-02,1.863932013511657715e-01,-1.259157210588455200e-01,6.730134487152099609e-01,-7.802423834800720215e-01,-2.900356531143188477e+00,-2.082651108503341675e-01,-2.122481107711791992e+00,6.167641840875148773e-03,-2.907567024230957031e-01,-9.072415232658386230e-01,-3.250115871429443359e+00,-3.826539516448974609e-01
2.193838208913803101e-01,2.365726977586746216e-01,-3.783524036407470703e-01,2.890088558197021484e-01,3.095854222774505615e-01,-3.614040851593017578e+00,1.460749804973602295e-01,1.888042986392974854e-01,6.950895190238952637e-01,2.161132544279098511e-01,-3.435878157615661621e-01,2.261658012866973877e-01,-3.797598481178283691e-01,-2.778653800487518311e-01,6.795728206634521484e-02,-2.428551316261291504e-01,5.520429834723472595e-02,-5.265144109725952148e-01,6.517898291349411011e-02,2.672731876373291016e-01,-1.519872248172760010e-01,-4.494880676269531250e+00,1.531516164541244507e-01,-3.530023992061614990e-01,2.880821824073791504e-01,-4.754312336444854736e-01,-1.529219269752502441e+00,7.786238193511962891e-02,2.298529744148254395e-01,-1.390769779682159424e-01,1.844909489154815674e-01,1.459177434444427490e-01,-2.950797557830810547e+00,2.850534766912460327e-02,-3.608105421066284180e+00,3.589007854461669922e-01,-3.286770582199096680e-01,-7.688973546028137207e-01,-3.650192737579345703e+00,-3.543562591075897217e-01
-1.967383027076721191e-01,5.380401015281677246e-01,-3.174031376838684082e-01,-1.480600982904434204e-01,3.618518412113189697e-01,-2.042198657989501953e+00,3.469151854515075684e-01,1.009051129221916199e-02,8.911649882793426514e-02,-9.281574934720993042e-02,-8.402951359748840332e-01,-5.959892272949218750e-01,-4.792728126049041748e-01,-2.482398748397827148e-01,-1.023957848548889160e+00,-3.498549461364746094e-01,-2.611391782760620117e+00,-2.156254947185516357e-01,-3.694155812263488770e-01,1.495471447706222534e-01,-5.852299332618713379e-01,-2.277561664581298828e+00,4.975775480270385742e-01,1.672863960266113281e-02,2.127322554588317871e-01,-4.881875514984130859e-01,-1.940509319305419922e+00,-3.233500123023986816e-01,-2.275296747684478760e-01,-3.839698731899261475e-01,-4.899274408817291260e-01,8.149709701538085938e-01,-1.958743929862976074e+00,1.667115688323974609e-01,-1.710511684417724609e+00,3.051268160343170166e-01,-2.581464946269989014e-01,-2.496177554130554199e-01,-1.265583157539367676e+00,-2.578477859497070312e-01
-1.717553138732910156e-01,2.708033323287963867e-01,-1.983752995729446411e-01,-3.733008354902267456e-02,-1.166538223624229431e-01,-2.720394611358642578e+00,2.633129060268402100e-01,3.790344893932342529e-01,1.318788677453994751e-01,3.480225801467895508e-01,-1.041547894477844238e+00,2.229452580213546753e-01,-4.038222730159759521e-01,-2.516475506126880646e-02,1.002693921327590942e-01,-2.050720453262329102e-01,4.485056176781654358e-02,-3.274455368518829346e-01,2.132345885038375854e-01,2.789286151528358459e-02,-4.272539913654327393e-01,-1.319601297378540039e+00,-1.452633738517761230e-01,-7.177614569664001465e-01,2.352745644748210907e-02,-3.349608480930328369e-01,-1.944661617279052734e+00,2.774084806442260742e-01,1.339018195867538452e-01,-5.118373036384582520e-02,2.461797893047332764e-01,9.042819589376449585e-02,-3.063197612762451172e+00,8.845428377389907837e-02,-2.808231592178344727e+00,9.538108110427856445e-02,-4.410802125930786133e-01,-1.993032544851303101e-01,-1.689566254615783691e+00,-7.606174945831298828e-01
2.100317031145095825e-01,2.523736655712127686e-01,-5.446716547012329102e-01,-7.405170798301696777e-02,1.446544975042343140e-01,-3.115104913711547852e+00,3.490758240222930908e-01,1.146948114037513733e-01,1.001981854438781738e+00,4.581972658634185791e-01,-6.201141476631164551e-01,1.878889203071594238e-01,-4.782827198505401611e-01,-6.285574436187744141e-01,2.203855663537979126e-01,-7.992297410964965820e-02,2.261669486761093140e-01,-7.211193442344665527e-01,1.399648040533065796e-01,2.851755321025848389e-01,-2.723274528980255127e-01,-2.834895372390747070e+00,2.784115076065063477e-01,-5.759482979774475098e-01,3.126754462718963623e-01,-4.500150978565216064e-01,-2.542665958404541016e+00,2.100633978843688965e-01,3.379265666007995605e-01,-4.037296772003173828e-01,1.843088716268539429e-01,2.262797206640243530e-01,-3.573528289794921875e+00,8.752169460058212280e-02,-4.976307868957519531e+00,4.197428524494171143e-01,-4.185101091861724854e-01,-4.336645603179931641e-01,-4.869513988494873047e+00,-3.984346389770507812e-01
9.616855531930923462e-02,-1.906703710556030273e-01,-2.928691208362579346e-01,-1.887800693511962891e-01,1.557033061981201172e-01,-2.400013357400894165e-01,3.422116041183471680e-01,8.705223351716995239e-02,-3.559518977999687195e-02,-1.474485397338867188e-01,-1.979711949825286865e-01,-1.630068421363830566e-01,-1.685246080160140991e-01,-1.068197116255760193e-01,-5.832489579916000366e-02,-3.307933509349822998e-01,1.042109653353691101e-01,-2.045291066169738770e-01,-2.708495259284973145e-01,6.426110118627548218e-02,-9.939122945070266724e-02,-2.694250345230102539e-01,1.414659470319747925e-01,1.194297447800636292e-01,-1.015487983822822571e-01,-1.273724734783172607e-01,-3.025471270084381104e-01,-2.634429633617401123e-01,-2.164231091737747192e-01,-2.288093417882919312e-01,-7.244708482176065445e-03,6.897618621587753296e-02,-2.471216917037963867e-01,5.911495909094810486e-02,-4.130184352397918701e-01,-5.586298927664756775e-02,-3.765294849872589111e-01,5.800985917448997498e-02,-4.036173224449157715e-01,-2.201747745275497437e-01
3.790760040283203125e-01,3.264909982681274414e-01,-3.251495361328125000e-01,-1.147714331746101379e-01,1.602886617183685303e-01,-3.879700422286987305e+00,2.268885523080825806e-01,3.132907748222351074e-01,8.457950949668884277e-01,4.856039583683013916e-01,-4.334667623043060303e-01,3.223667442798614502e-01,-6.076956987380981445e-01,-2.360378801822662354e-01,2.688701450824737549e-01,-2.542457282543182373e-01,2.261968851089477539e-01,-3.539735674858093262e-01,3.301219940185546875e-01,3.149007260799407959e-01,-3.554148375988006592e-01,-4.364431381225585938e+00,3.321387171745300293e-01,-4.566783308982849121e-01,1.197522729635238647e-01,-3.755876123905181885e-01,-1.645046234130859375e+00,2.711302042007446289e-01,1.519548594951629639e-01,-2.305346876382827759e-01,2.148124724626541138e-01,2.161124348640441895e-01,-3.995323181152343750e+00,2.530230283737182617e-01,-4.067668914794921875e+00,-2.508535683155059814e-01,-4.107052087783813477e-01,-1.457568109035491943e-01,-3.975447416305541992e+00,-2.878628373146057129e-01
8.668722957372665405e-02,-2.881852090358734131e-01,-3.941334784030914307e-01,-4.721035063266754150e-02,9.225475788116455078e-02,-1.243816494941711426e+00,8.391170948743820190e-02,8.415234088897705078e-02,7.745481133460998535e-01,2.540782094001770020e-01,-1.939948350191116333e-01,-2.779608406126499176e-02,-1.486035734415054321e-01,-1.703894883394241333e-01,-4.319048225879669189e-01,-1.354499608278274536e-01,9.436640888452529907e-02,-1.286336779594421387e-01,1.567262411117553711e-01,1.722939908504486084e-01,-1.187259033322334290e-01,-1.309518218040466309e+00,2.209920585155487061e-01,-1.531036198139190674e-01,1.727783381938934326e-01,-2.443073838949203491e-01,-1.408607363700866699e+00,-1.398379951715469360e-01,1.731662154197692871e-01,-2.481771409511566162e-01,-4.406117200851440430e-01,1.207966059446334839e-01,-2.068632125854492188e+00,-2.538535296916961670e-01,-2.036059379577636719e+00,2.203650623559951782e-01,-1.220348924398422241e-01,-4.065392613410949707e-01,-1.874692320823669434e+00,-1.225576996803283691e+00
3.153039515018463135e-02,1.513477712869644165e-01,-2.201176136732101440e-01,-3.964417055249214172e-02,8.726260066032409668e-02,-3.809078454971313477e+00,2.755888700485229492e-01,4.473151173442602158e-03,-5.670282840728759766e-01,1.604939848184585571e-01,-3.130868375301361084e-01,5.541391298174858093e-02,-2.965849637985229492e-01,-2.207945883274078369e-01,1.644572466611862183e-01,-4.661960154771804810e-02,-1.924494355916976929e-01,-4.055190980434417725e-01,1.609208583831787109e-01,1.984588429331779480e-02,-1.935277581214904785e-01,-2.235411167144775391e+00,-3.549942001700401306e-02,-2.752765119075775146e-01,2.028351277112960815e-01,-3.444161415100097656e-01,-1.607422947883605957e+00,3.091817796230316162e-01,1.471576839685440063e-01,-2.187636196613311768e-01,2.751464545726776123e-01,2.983265221118927002e-01,-2.338805198669433594e+00,2.490317523479461670e-01,-3.203021049499511719e+00,2.054499983787536621e-01,-3.141193985939025879e-01,-1.797025352716445923e-01,-3.518405437469482422e+00,-2.724389135837554932e-01
8.304671943187713623e-02,1.926218159496784210e-02,6.339932326227426529e-03,-2.696587517857551575e-02,6.400436162948608398e-02,-1.756097912788391113e+00,1.660650223493576050e-01,1.199037209153175354e-01,4.598807990550994873e-01,3.888737261295318604e-01,-2.638023197650909424e-01,-7.367306947708129883e-02,-3.303675055503845215e-01,-3.765737414360046387e-01,8.014059066772460938e-02,-1.363121122121810913e-01,-2.508763074874877930e-01,-4.353208541870117188e-01,-4.580873937811702490e-04,-8.597106486558914185e-02,-2.235538512468338013e-01,-1.872825503349304199e+00,-1.526717901229858398e+00,-2.272542938590049744e-02,1.321594864130020142e-01,-5.821317434310913086e-01,-2.515529632568359375e+00,1.332871764898300171e-01,5.847388878464698792e-02,-8.704996109008789062e-02,4.529443979263305664e-01,2.328128516674041748e-01,-1.282869577407836914e+00,-6.316099315881729126e-02,-2.079318046569824219e+00,3.988620042800903320e-01,-3.563838303089141846e-01,-9.307891875505447388e-02,-1.987519979476928711e+00,-5.854476690292358398e-01
1.252381503582000732e-01,3.190929889678955078e-01,-3.325044810771942139e-01,-6.266810745000839233e-02,-1.107214093208312988e-01,-2.665703296661376953e+00,1.307117193937301636e-01,3.131446838378906250e-01,6.729506254196166992e-01,9.382983297109603882e-02,-3.254516720771789551e-01,2.461455017328262329e-01,-2.328331619501113892e-01,-1.417965441942214966e-01,1.882917732000350952e-01,-9.422697126865386963e-02,1.274959444999694824e-01,-2.606879770755767822e-01,1.766304671764373779e-01,-2.319383621215820312e-01,-2.639381587505340576e-01,-2.050650596618652344e+00,-2.436416037380695343e-02,-2.887907922267913818e-01,3.531612455844879150e-01,-3.935304880142211914e-01,-2.548647880554199219e+00,1.305465400218963623e-01,2.221046537160873413e-01,-2.158056050539016724e-01,3.579795062541961670e-01,7.268347591161727905e-02,-3.842790126800537109e+00,-9.955960325896739960e-03,-2.715655565261840820e+00,-1.807839572429656982e-01,-2.704265117645263672e-01,-3.118620812892913818e-01,-3.151366710662841797e+00,-2.602064311504364014e-01
1.976070106029510498e-01,3.441648185253143311e-01,-3.035352528095245361e-01,1.423301454633474350e-02,2.384319305419921875e-01,-3.086532592773437500e+00,1.758177280426025391e-01,2.771604657173156738e-01,6.659166812896728516e-01,3.298325240612030029e-01,-5.529900789260864258e-01,1.204142123460769653e-01,-4.497754573822021484e-01,-7.657214999198913574e-01,2.191703021526336670e-01,-3.907738626003265381e-01,2.772558629512786865e-01,-6.632065176963806152e-01,2.064908593893051147e-01,3.080651164054870605e-01,-3.352791666984558105e-01,-2.780946493148803711e+00,2.479102611541748047e-01,-4.975310564041137695e-01,1.179989278316497803e-01,-8.400129079818725586e-01,-2.595914602279663086e+00,2.554178833961486816e-01,1.014557108283042908e-01,-1.268490999937057495e-01,1.944415420293807983e-01,2.323892414569854736e-01,-2.761417388916015625e+00,1.535937339067459106e-01,-4.042332649230957031e+00,1.575948446989059448e-01,-4.317879378795623779e-01,-3.823975026607513428e-01,-2.591915369033813477e+00,-6.571081876754760742e-01
-2.700532674789428711e-01,1.018738150596618652e-01,-6.617034077644348145e-01,-6.819751858711242676e-01,-2.828938364982604980e-01,-1.802510619163513184e-01,2.543620392680168152e-02,-2.786823809146881104e-01,-2.757115475833415985e-02,-3.367566466331481934e-01,-4.166940152645111084e-01,-1.961319595575332642e-01,-4.590906575322151184e-02,-4.609647393226623535e-02,-3.509509265422821045e-01,-7.352422177791595459e-02,-2.082428783178329468e-01,5.359428524971008301e-01,-1.623604446649551392e-01,1.309073567390441895e-01,-6.995000839233398438e-01,-1.615615747869014740e-02,1.058403179049491882e-01,-2.817653417587280273e-01,-1.640813797712326050e-01,-5.323014408349990845e-02,-2.062582671642303467e-01,-5.053887963294982910e-01,-2.546388804912567139e-01,-4.693820476531982422e-01,9.449211508035659790e-02,4.388115704059600830e-01,-5.165387392044067383e-01,-4.408714175224304199e-01,-9.830278158187866211e-02,2.553026378154754639e-01,-9.503987431526184082e-02,-4.311854541301727295e-01,-3.950084373354911804e-02,-6.220333743840456009e-03
-3.202981054782867432e-01,-2.360415756702423096e-01,-3.916814625263214111e-01,-6.011825054883956909e-02,-2.688214182853698730e-01,-7.553152274340391159e-03,-3.870628476142883301e-01,-7.249426841735839844e-02,-1.325718909502029419e-01,-1.324665844440460205e-01,-1.361771486699581146e-02,-2.521723210811614990e-01,-3.704441785812377930e-01,9.873098880052566528e-02,-7.107774168252944946e-02,-2.268411368131637573e-01,-3.293761610984802246e-02,-1.317007541656494141e-01,-1.823091953992843628e-01,-8.198209851980209351e-02,-4.654311537742614746e-01,-3.164215385913848877e-01,-5.101164579391479492e-01,-2.747286856174468994e-01,-1.870723068714141846e-01,5.707063153386116028e-02,-3.183183073997497559e-01,-1.552477627992630005e-01,-6.542508602142333984e-01,-1.679077297449111938e-01,-1.918131560087203979e-01,-1.315756142139434814e-01,-3.109213709831237793e-01,-4.819366633892059326e-01,3.390111029148101807e-01,-2.436103522777557373e-01,-1.846337020397186279e-01,6.709238886833190918e-02,3.679194720461964607e-03,-1.520415395498275757e-01
2.593637406826019287e-01,2.968027591705322266e-01,-4.160939753055572510e-01,1.667571365833282471e-01,2.753969132900238037e-01,-3.669546365737915039e+00,2.314562350511550903e-01,2.245148271322250366e-01,9.379460811614990234e-01,3.826976418495178223e-01,-4.552445113658905029e-01,2.676662802696228027e-01,-5.410719513893127441e-01,-3.711479008197784424e-01,3.076909780502319336e-01,-3.950287699699401855e-01,2.554984390735626221e-01,-4.605581462383270264e-01,2.248437106609344482e-01,3.060807585716247559e-01,-2.892194390296936035e-01,-4.872065067291259766e+00,3.667490780353546143e-01,-4.503132104873657227e-01,3.262702524662017822e-01,-5.039771199226379395e-01,-2.514258861541748047e+00,2.849084436893463135e-01,2.346553206443786621e-01,-2.132104635238647461e-01,2.470383346080780029e-01,2.474830448627471924e-01,-4.047326087951660156e+00,2.569215893745422363e-01,-3.350372314453125000e+00,5.742641687393188477e-01,-4.878915250301361084e-01,-4.343725740909576416e-01,-4.702528953552246094e+00,-4.177729785442352295e-01
1.825692355632781982e-01,1.945885419845581055e-01,-1.787462234497070312e-01,2.940986305475234985e-02,5.679274722933769226e-02,-1.900171399116516113e+00,9.048650413751602173e-02,-6.829151511192321777e-01,5.195481777191162109e-01,3.269703686237335205e-01,-1.629891693592071533e-01,6.767028570175170898e-02,-1.973050534725189209e-01,-2.241369336843490601e-01,5.565383657813072205e-02,-7.145947962999343872e-02,-1.612783372402191162e-01,-3.387289345264434814e-01,7.791143655776977539e-02,2.705197334289550781e-01,-4.330340027809143066e-01,-2.118868827819824219e+00,2.651645801961421967e-02,-4.171753227710723877e-01,2.405867911875247955e-02,-2.908246219158172607e-01,-7.412073612213134766e-01,1.446388810873031616e-01,2.617767155170440674e-01,-1.114512830972671509e-01,2.489846497774124146e-01,3.882193565368652344e-02,-2.590009212493896484e+00,1.009197682142257690e-01,-2.647784709930419922e+00,3.187890350818634033e-01,-5.517076849937438965e-01,2.277932595461606979e-03,-2.251517534255981445e+00,-1.334348618984222412e-01
8.287142962217330933e-02,1.942560523748397827e-01,-1.252761632204055786e-01,-1.948874890804290771e-01,-2.336670644581317902e-03,-3.815387248992919922e+00,4.754687249660491943e-01,3.944438397884368896e-01,8.751973509788513184e-01,2.276514619588851929e-01,-1.921825259923934937e-01,1.418820172548294067e-01,-2.627468705177307129e-01,-4.947293400764465332e-01,-1.021729826927185059e+00,-1.069651097059249878e-01,9.906537830829620361e-02,-7.885667085647583008e-01,9.952920675277709961e-02,2.375296205282211304e-01,-2.782088518142700195e-01,-3.451924085617065430e+00,1.285342276096343994e-01,-2.277439981698989868e-01,-8.260419368743896484e-01,-1.346023231744766235e-01,-1.687416076660156250e+00,1.628816574811935425e-01,1.914874166250228882e-01,-3.149449825286865234e-01,2.898913919925689697e-01,1.847175210714340210e-01,-3.283743381500244141e+00,-9.327074885368347168e-02,-1.518863797187805176e+00,1.523118913173675537e-01,-1.638597548007965088e-01,-1.890230476856231689e-01,-2.162101745605468750e+00,-6.416484117507934570e-01
2.017215937376022339e-01,-4.738302901387214661e-03,-1.586332470178604126e-01,-4.568628072738647461e-01,-5.600259639322757721e-03,-1.678402185440063477e+00,-1.279150247573852539e-01,-1.472805440425872803e-01,7.016122937202453613e-01,3.128729462623596191e-01,-5.887488275766372681e-02,1.498568952083587646e-01,-4.311409592628479004e-01,-5.990700721740722656e-01,3.168754577636718750e-01,-1.132041960954666138e-01,1.578830778598785400e-01,-2.846765220165252686e-01,2.925590872764587402e-01,-2.480110228061676025e-01,-2.540202736854553223e-01,-2.257254123687744141e+00,-1.382595021277666092e-02,-1.700787991285324097e-01,-4.030668437480926514e-01,-1.316639035940170288e-01,-1.625695228576660156e+00,1.753990501165390015e-01,3.328919410705566406e-01,-1.257662028074264526e-01,-4.164215642958879471e-03,-4.239442571997642517e-02,-1.628287792205810547e+00,1.818086206912994385e-01,-2.880515575408935547e+00,1.367227733135223389e-01,-3.398319184780120850e-01,-1.185478806495666504e+00,-1.924020886421203613e+00,-4.444825649261474609e-01
3.885338604450225830e-01,2.473445087671279907e-01,-3.248630166053771973e-01,1.573513299226760864e-01,1.494174152612686157e-01,-4.370599269866943359e+00,1.414307057857513428e-01,6.599518656730651855e-02,4.631886184215545654e-01,4.949506819248199463e-01,-3.904676139354705811e-01,2.084533125162124634e-01,-3.547298908233642578e-01,-2.891689836978912354e-01,2.465396076440811157e-01,-1.864123344421386719e-01,1.008226647973060608e-01,-4.012332260608673096e-01,2.279388755559921265e-01,5.449028313159942627e-02,-1.235807538032531738e-01,-4.540192127227783203e+00,1.828377991914749146e-01,-2.947844862937927246e-01,-4.749182984232902527e-02,-4.156973958015441895e-01,-1.680046319961547852e+00,2.558596730232238770e-01,1.282978206872940063e-01,-2.614068090915679932e-01,2.229944467544555664e-01,2.377504259347915649e-01,-3.453300476074218750e+00,5.699243396520614624e-03,-2.668349504470825195e+00,3.132155835628509521e-01,-4.819944500923156738e-01,-2.470940202474594116e-01,-4.078305244445800781e+00,-4.122128486633300781e-01
2.837928235530853271e-01,-2.217855155467987061e-01,-4.549112170934677124e-02,-2.120183259248733521e-01,-4.029588997364044189e-01,-3.551176786422729492e-01,7.486914843320846558e-02,-4.185012578964233398e-01,-4.347364604473114014e-01,-8.665661513805389404e-02,1.021165549755096436e-01,-5.600906014442443848e-01,9.776699542999267578e-02,-3.986836671829223633e-01,2.874509096145629883e-01,-1.766836084425449371e-02,4.256775602698326111e-02,9.755525738000869751e-02,-2.865455448627471924e-01,2.030514329671859741e-01,-6.563748121261596680e-01,-1.807394176721572876e-01,9.013231843709945679e-02,-2.284938097000122070e-01,1.189911141991615295e-01,-1.471604220569133759e-03,2.369752712547779083e-02,-4.228761494159698486e-01,1.123520284891128540e-01,-3.640751242637634277e-01,1.173266097903251648e-01,-2.328047715127468109e-02,-1.371256411075592041e-01,-4.381104111671447754e-01,-4.273856803774833679e-02,-1.325731258839368820e-02,-3.168852031230926514e-01,-3.634891510009765625e-01,-2.437094599008560181e-02,-8.093990385532379150e-02
-1.029393821954727173e-01,1.119724288582801819e-01,-8.458868861198425293e-01,-1.831486076116561890e-01,1.360158324241638184e-01,-9.546636343002319336e-01,-7.013570517301559448e-02,3.189061582088470459e-01,8.312725424766540527e-01,-5.778713822364807129e-01,-1.142857447266578674e-01,7.603667676448822021e-02,-1.702113449573516846e-01,-3.837475180625915527e-02,2.107221782207489014e-01,-2.645740509033203125e-01,6.531950831413269043e-01,-8.497361540794372559e-01,-1.668232381343841553e-01,-3.983907401561737061e-01,-1.116743981838226318e-01,-1.992689371109008789e+00,3.951545059680938721e-01,-1.334036141633987427e-01,-6.661922931671142578e-01,-9.046233296394348145e-01,-8.135637640953063965e-01,-3.676959872245788574e-01,-4.427244663238525391e-01,-1.923343241214752197e-01,7.027412950992584229e-02,3.137409090995788574e-01,-1.461725950241088867e+00,-4.654875397682189941e-01,-1.474101662635803223e+00,-3.237614631652832031e-01,-4.905512928962707520e-01,-9.174718260765075684e-01,-2.108499526977539062e+00,-3.653208017349243164e-01
-8.001253008842468262e-02,-1.608989536762237549e-01,-3.716771602630615234e-01,-6.105466187000274658e-02,6.840619444847106934e-02,-1.114067912101745605e+00,1.084814444184303284e-01,5.795142650604248047e-01,4.669941067695617676e-01,2.182270437479019165e-01,-6.396247148513793945e-01,-3.188268840312957764e-01,-2.412574440240859985e-01,-5.702487230300903320e-01,6.926590949296951294e-02,-1.179006576538085938e+00,-6.563852429389953613e-01,-1.839860230684280396e-01,-5.773795768618583679e-02,-3.997018933296203613e-01,-2.732393741607666016e-01,-1.994511246681213379e+00,-1.038821563124656677e-01,-3.871954679489135742e-01,-6.068845987319946289e-01,-4.029031693935394287e-01,-8.909466266632080078e-01,-9.102528095245361328e-01,-1.943974345922470093e-01,-3.905433118343353271e-01,1.591238528490066528e-01,8.025162220001220703e-01,-1.336328744888305664e+00,3.261717557907104492e-01,-1.287964701652526855e+00,1.158048510551452637e-01,-6.635422706604003906e-01,2.413576245307922363e-01,-4.437056481838226318e-01,-3.988868892192840576e-01
-4.039378762245178223e-01,1.628384143114089966e-01,-2.259454727172851562e-01,-4.087545573711395264e-01,2.304305694997310638e-02,-1.685196042060852051e+00,4.587183892726898193e-02,1.193430572748184204e-01,-1.454701066017150879e+00,2.868407964706420898e-01,-6.272695064544677734e-01,-9.231143631041049957e-03,-3.280794322490692139e-01,-1.465070486068725586e+00,6.689963340759277344e-01,5.149801447987556458e-02,-6.119033098220825195e-01,-2.249074578285217285e-01,-1.762434691190719604e-01,3.737265616655349731e-02,-7.888786196708679199e-01,-1.177357912063598633e+00,5.994820594787597656e-01,-1.358151912689208984e+00,2.050731033086776733e-01,-5.521268025040626526e-02,-2.177730798721313477e+00,-2.479885816574096680e-01,-6.831294856965541840e-03,-4.129824638366699219e-01,3.627783358097076416e-01,-7.350640743970870972e-02,-1.857680559158325195e+00,-6.022536009550094604e-02,-2.526797771453857422e+00,3.578309714794158936e-01,-1.375062465667724609e-01,-3.618031740188598633e-02,-2.532587051391601562e+00,-6.262389421463012695e-01
2.156048268079757690e-02,-1.678351610898971558e-01,-5.428784489631652832e-01,-2.893083989620208740e-01,1.479183882474899292e-01,-4.350500106811523438e+00,1.084991842508316040e-01,4.164719879627227783e-01,-8.066278100013732910e-01,4.865544438362121582e-01,-1.873177140951156616e-01,1.581035554409027100e-01,-4.949358105659484863e-01,-6.405622363090515137e-01,8.956830203533172607e-02,-9.691948071122169495e-03,-2.161110043525695801e-01,-3.707078993320465088e-01,-9.545698761940002441e-02,6.291531324386596680e-01,-2.726721167564392090e-01,-4.850594043731689453e+00,3.601503074169158936e-01,-6.149564981460571289e-01,5.192304253578186035e-01,-3.076832592487335205e-01,-2.229838848114013672e+00,3.010261952877044678e-01,4.800315201282501221e-01,-2.964533865451812744e-01,1.826669871807098389e-01,-5.852161347866058350e-02,-4.739227771759033203e+00,-3.173179030418395996e-01,-2.728937625885009766e+00,2.102633416652679443e-01,-1.685077995061874390e-01,-3.087178766727447510e-01,-3.551211595535278320e+00,-2.871524989604949951e-01
-4.553060606122016907e-02,4.221077561378479004e-01,-5.019698143005371094e-01,-2.033098340034484863e-01,2.873018682003021240e-01,-2.471375703811645508e+00,1.830336749553680420e-01,-9.193755984306335449e-01,9.313369989395141602e-01,6.136124730110168457e-01,-4.492399990558624268e-01,2.325017750263214111e-01,-4.080482125282287598e-01,-2.338008880615234375e-01,-2.299227416515350342e-01,-3.578003644943237305e-01,8.088703453540802002e-02,-3.776729404926300049e-01,1.982816904783248901e-01,4.162844419479370117e-01,-2.780054211616516113e-01,-2.162061691284179688e+00,2.739231884479522705e-01,-1.427493989467620850e-01,-4.298733472824096680e-01,-1.258562058210372925e-01,-1.842497944831848145e+00,-7.866676449775695801e-01,3.841780498623847961e-02,-4.772913157939910889e-01,2.991337478160858154e-01,-3.905559331178665161e-02,-3.088589429855346680e+00,1.939026117324829102e-01,-1.759277105331420898e+00,2.629048526287078857e-01,-4.712542295455932617e-01,-7.656352221965789795e-02,-3.358286142349243164e+00,-3.108726441860198975e-01
2.376911938190460205e-01,-1.440678834915161133e-01,-1.537194252014160156e-01,1.108706891536712646e-01,8.468838781118392944e-02,-1.951843738555908203e+00,3.179825544357299805e-01,2.344571948051452637e-01,9.206630587577819824e-01,2.017640918493270874e-01,-3.808518052101135254e-01,1.812117844820022583e-01,-4.064886569976806641e-01,-7.394701987504959106e-02,2.436109036207199097e-01,-1.406070441007614136e-01,-2.950561977922916412e-02,-3.393442928791046143e-01,1.365324854850769043e-01,-2.118895016610622406e-02,-3.106071054935455322e-01,-2.383402347564697266e+00,7.440152019262313843e-02,-2.908047437667846680e-01,-1.415870524942874908e-02,-6.302367448806762695e-01,-2.485422372817993164e+00,1.575470119714736938e-01,2.573092877864837646e-01,-4.260060489177703857e-01,3.884649276733398438e-01,1.603041738271713257e-01,-2.312755823135375977e+00,6.518223136663436890e-02,-2.761841058731079102e+00,2.709191441535949707e-01,-5.266309380531311035e-01,-1.973172277212142944e-01,-3.475649356842041016e+00,-4.701324105262756348e-01
3.779832422733306885e-01,-5.689344406127929688e-01,-5.472418665885925293e-01,-2.300170511007308960e-01,-1.374248117208480835e-01,-5.304560065269470215e-01,-2.834578417241573334e-02,-2.634255290031433105e-01,-4.408361390233039856e-02,-1.326468288898468018e-01,-3.790538012981414795e-01,-9.949217438697814941e-01,-6.457344889640808105e-01,-5.743675678968429565e-02,1.975731402635574341e-01,-2.715339064598083496e-01,-6.090821623802185059e-01,-5.238423943519592285e-01,-2.418694794178009033e-01,-2.174459211528301239e-02,1.022324040532112122e-01,-9.468558430671691895e-01,2.672190964221954346e-01,1.556021273136138916e-01,-2.197017818689346313e-01,-1.811724305152893066e-01,-7.108240723609924316e-01,-4.587877988815307617e-01,2.751251459121704102e-01,-2.874832451343536377e-01,1.320445388555526733e-01,1.455993624404072762e-03,-2.828772366046905518e-01,-1.008371785283088684e-01,-3.952408432960510254e-01,-1.614238768815994263e-01,-3.333922624588012695e-01,2.601114511489868164e-01,-3.814573585987091064e-01,-1.493259519338607788e-01
-1.589308232069015503e-01,-1.221124902367591858e-01,-1.736006736755371094e-01,3.231471404433250427e-02,3.793927133083343506e-01,-4.142938613891601562e+00,2.607532441616058350e-01,9.821730852127075195e-02,-8.882961422204971313e-02,5.015714168548583984e-01,-3.677714467048645020e-01,4.564920905977487564e-03,-4.137116670608520508e-01,-2.158596962690353394e-01,5.623898655176162720e-02,-2.006776332855224609e-01,3.478184044361114502e-01,-1.009111762046813965e+00,2.703140974044799805e-01,-1.032303869724273682e-01,-3.642325103282928467e-01,-2.431080102920532227e+00,4.285470247268676758e-01,-7.927455753087997437e-02,-9.994859248399734497e-02,-4.420185387134552002e-01,-1.802849531173706055e+00,1.570847779512405396e-01,-1.388035863637924194e-01,-2.685402035713195801e-01,5.274475812911987305e-01,3.417376577854156494e-01,-2.862385511398315430e+00,-6.978871673345565796e-02,-2.513246536254882812e+00,4.612217247486114502e-01,-4.318183064460754395e-01,-4.672837853431701660e-01,-3.595453262329101562e+00,-4.054110348224639893e-01
-2.677904665470123291e-01,1.970839798450469971e-01,3.613905981183052063e-02,-1.517068386077880859e+00,-1.239756420254707336e-01,-8.563038706779479980e-01,-2.773762643337249756e-01,2.720565497875213623e-01,-6.527781486511230469e-01,5.013340115547180176e-01,-2.025943398475646973e-01,1.091466248035430908e-01,1.834581047296524048e-01,-2.224584519863128662e-01,-4.668687880039215088e-01,-5.181450769305229187e-02,-1.316483497619628906e+00,-4.844142496585845947e-01,4.578996002674102783e-01,7.598366588354110718e-02,-2.548060566186904907e-02,-3.072123050689697266e+00,4.113113582134246826e-01,-3.565098643302917480e-01,-5.326288938522338867e-01,2.949968352913856506e-02,-7.873179912567138672e-01,6.715306639671325684e-02,3.902323544025421143e-01,-4.893259406089782715e-01,-1.034966230392456055e+00,-5.391451716423034668e-01,-2.507164716720581055e+00,-2.792957067489624023e+00,-1.270505309104919434e+00,-7.796539068222045898e-01,-3.055166304111480713e-01,-1.099105596542358398e+00,-8.480767011642456055e-01,-1.391523629426956177e-01
6.727689504623413086e-02,6.300807744264602661e-02,-1.805404871702194214e-01,-3.197246463969349861e-03,-7.923271507024765015e-03,-3.996087551116943359e+00,2.178048044443130493e-01,1.382101327180862427e-01,7.983880043029785156e-01,1.747952252626419067e-01,-2.138854265213012695e-01,-1.488310750573873520e-02,-1.825885027647018433e-01,-2.493658363819122314e-01,1.620042771100997925e-01,-1.144854724407196045e-01,2.513054013252258301e-01,-3.405016064643859863e-01,7.378035783767700195e-02,3.309454023838043213e-01,-2.230058014392852783e-01,-3.553150892257690430e+00,4.475361108779907227e-01,-4.194976389408111572e-01,3.117026686668395996e-01,-2.318624854087829590e-01,-2.630631923675537109e+00,-1.665865033864974976e-01,-7.542297989130020142e-02,-2.237332761287689209e-01,-1.852879375219345093e-01,-1.855248808860778809e-01,-3.271763324737548828e+00,5.044353753328323364e-02,-3.184083223342895508e+00,-5.058514326810836792e-02,-5.425894632935523987e-02,-2.619840800762176514e-01,-2.629448175430297852e+00,-2.726557552814483643e-01
1.433754414319992065e-01,2.247587740421295166e-01,-2.689934074878692627e-01,-3.568673972040414810e-03,1.401331275701522827e-01,-4.378826618194580078e+00,1.803675591945648193e-01,9.774208813905715942e-02,8.099192380905151367e-01,3.705468475818634033e-01,-3.116121590137481689e-01,7.094409316778182983e-02,-3.824173212051391602e-01,-3.432985246181488037e-01,1.674899607896804810e-01,-2.211077958345413208e-01,2.462343573570251465e-01,-3.456848561763763428e-01,1.980881094932556152e-01,3.201879858970642090e-01,-2.051326632499694824e-01,-3.357293367385864258e+00,2.554032206535339355e-01,-3.045838475227355957e-01,8.109392225742340088e-02,-3.227114081382751465e-01,-2.222764730453491211e+00,1.348679959774017334e-01,1.925113648176193237e-01,-2.095515131950378418e-01,9.429416060447692871e-02,3.005485832691192627e-01,-2.824268817901611328e+00,2.140246927738189697e-01,-4.131368160247802734e+00,3.672726750373840332e-01,-3.153302669525146484e-01,-2.699453830718994141e-01,-4.638337135314941406e+00,-3.723294734954833984e-01
