-2.177795320749282837e-01,-2.081919908523559570e-01,1.130020339041948318e-02,3.653819859027862549e-02,-1.801082640886306763e-01,2.626875638961791992e-01,-9.521801024675369263e-02,1.526905000209808350e-01,-2.393983751535415649e-01,-2.453173696994781494e-02,-2.524280846118927002e-01,-1.798112690448760986e-01,-1.664089858531951904e-01,9.686760604381561279e-02,-2.230858989059925079e-02,-2.604500055313110352e-01,-3.062070906162261963e-02,1.875035017728805542e-01,5.205974578857421875e-01,-1.457959860563278198e-01
1.932583451271057129e-01,9.573861956596374512e-02,-8.690360188484191895e-02,-1.478127576410770416e-02,9.111213684082031250e-02,7.835486903786659241e-03,-3.170582950115203857e-01,1.655688881874084473e-01,2.083117328584194183e-02,1.105750203132629395e-01,-2.721494436264038086e-01,-2.944439053535461426e-01,3.569142222404479980e-01,-5.447708815336227417e-02,-9.002044051885604858e-02,-3.600094914436340332e-01,-2.112141847610473633e-01,9.134353697299957275e-02,-2.122369110584259033e-01,-2.374117635190486908e-02
7.387738674879074097e-02,1.035380586981773376e-01,-4.013651907444000244e-01,-2.762966603040695190e-02,1.641487330198287964e-02,1.166228875517845154e-01,-4.475035369396209717e-01,-1.005753949284553528e-01,2.213965356349945068e-01,-2.885768711566925049e-01,-3.147263526916503906e-01,-2.592319846153259277e-01,-6.904647350311279297e-01,-1.282952576875686646e-01,-6.070589423179626465e-01,-1.160517632961273193e-01,-2.573449909687042236e-01,-2.963462769985198975e-01,-1.367813199758529663e-01,1.159893274307250977e-01
-4.908239468932151794e-03,5.689557790756225586e-01,-1.806235164403915405e-01,-1.363708078861236572e-01,-5.973529815673828125e-01,1.453647017478942871e-01,-4.756830334663391113e-01,-2.003188133239746094e-01,-2.493741363286972046e-01,-1.114073693752288818e-01,2.126079797744750977e-01,1.158386468887329102e-01,3.143101930618286133e-01,-2.669655978679656982e-01,3.488314524292945862e-02,-1.390501111745834351e-01,1.789187937974929810e-01,4.487280920147895813e-02,4.698683619499206543e-01,3.551716357469558716e-02
-4.571281075477600098e-01,-2.739558368921279907e-02,-3.499008119106292725e-01,1.500469744205474854e-01,1.334842294454574585e-01,-1.768917143344879150e-01,-6.852893624454736710e-03,4.122109115123748779e-01,2.661002874374389648e-01,-4.182268306612968445e-02,-2.977153658866882324e-02,9.315708279609680176e-02,2.429517805576324463e-01,8.137074112892150879e-02,4.683204293251037598e-01,4.377748072147369385e-02,-1.172121707350015640e-02,-3.866113722324371338e-01,1.378734260797500610e-01,-1.057768613100051880e-01
2.607411146163940430e-01,2.210707217454910278e-01,2.954074740409851074e-01,1.426482759416103363e-02,-3.741043806076049805e-01,1.319557428359985352e-01,-9.051457792520523071e-02,-1.145564019680023193e-02,1.816225349903106689e-01,-1.388718187808990479e-01,-1.142083108425140381e-01,-1.862098276615142822e-01,1.253267526626586914e-01,-1.909209191799163818e-01,5.335457995533943176e-02,-4.342148080468177795e-02,-1.986718773841857910e-01,4.387353956699371338e-01,3.095611333847045898e-01,7.298202812671661377e-02
-5.032268166542053223e-01,-9.928016662597656250e-01,-1.459593892097473145e+00,-3.722678124904632568e-01,6.285932660102844238e-02,2.201886028051376343e-01,-9.564984440803527832e-01,-5.208041071891784668e-01,1.587515324354171753e-01,-9.224038124084472656e-01,-5.770619511604309082e-01,-2.155379801988601685e-01,-2.280340343713760376e-01,-3.202755749225616455e-01,-5.023807287216186523e-01,-9.605995416641235352e-01,6.857408285140991211e-01,-2.363857328891754150e-01,4.299544394016265869e-01,5.733854323625564575e-02
-2.361534722149372101e-02,-8.309555649757385254e-01,-1.182140350341796875e+00,-4.850276559591293335e-02,6.152354925870895386e-02,-5.377711653709411621e-01,-9.267750978469848633e-01,-3.025530278682708740e-01,5.425736308097839355e-03,-3.052347302436828613e-01,-5.001953244209289551e-01,3.552069664001464844e-01,6.342940777540206909e-02,2.236852496862411499e-01,3.656846880912780762e-01,-8.992858529090881348e-01,-3.564395010471343994e-01,-2.903292775154113770e-01,-5.464352369308471680e-01,-3.945246338844299316e-02
-1.358391642570495605e-01,1.075295731425285339e-01,-4.618579745292663574e-01,2.021969556808471680e-01,-9.295267052948474884e-03,-1.117587089538574219e-01,-1.694326549768447876e-01,1.659812331199645996e-01,-9.002099186182022095e-02,-1.973092705011367798e-01,-1.940414756536483765e-01,-1.854119747877120972e-01,1.105023548007011414e-01,-4.357228428125381470e-02,-4.320714771747589111e-01,-2.473184466361999512e-01,1.784633994102478027e-01,4.513429105281829834e-01,-1.342262774705886841e-01,-2.164388746023178101e-01
3.164722323417663574e-01,-2.206739336252212524e-01,-2.401874363422393799e-01,-2.434573620557785034e-01,2.219593375921249390e-01,3.270041942596435547e-01,-3.208302259445190430e-01,-1.794303357601165771e-01,-1.584315113723278046e-02,-7.281017303466796875e-02,-1.121987700462341309e-01,-1.894376575946807861e-01,1.360217034816741943e-01,-2.213637679815292358e-01,-2.892838418483734131e-01,-1.686301380395889282e-01,-2.223332226276397705e-02,-2.577516436576843262e-01,-1.739351600408554077e-01,2.646791338920593262e-01
1.974589079618453979e-01,6.435979008674621582e-01,3.850121498107910156e-01,-3.076002001762390137e-01,-5.018505454063415527e-02,6.661149114370346069e-02,5.811197757720947266e-01,9.312056936323642731e-03,2.418303787708282471e-01,1.382353752851486206e-01,-2.770099639892578125e-01,-5.511788651347160339e-02,-1.454771459102630615e-01,1.868669539690017700e-01,2.602728903293609619e-01,2.325853705406188965e-01,-1.806328594684600830e-01,1.795050948858261108e-01,-2.252925038337707520e-01,7.975040934979915619e-03
-6.422968953847885132e-02,-1.166403740644454956e-01,-4.298328161239624023e-01,-2.201924845576286316e-02,2.064478546380996704e-01,1.702262312173843384e-01,-5.128996819257736206e-02,1.146209239959716797e-01,3.825990855693817139e-01,1.874789297580718994e-01,6.183366477489471436e-02,1.700333952903747559e-01,2.456731200218200684e-01,1.241980791091918945e-01,-9.272485971450805664e-02,-1.007257308810949326e-02,1.958847343921661377e-01,1.662286231294274330e-03,4.019469618797302246e-01,7.980335503816604614e-02
5.450792312622070312e-01,3.463021516799926758e-01,5.766265466809272766e-02,-2.610916793346405029e-01,1.720341667532920837e-02,8.533779531717300415e-02,2.062747180461883545e-01,8.975338190793991089e-02,1.862098872661590576e-01,-6.998115777969360352e-02,3.355088457465171814e-02,2.056647539138793945e-01,4.828111529350280762e-01,-3.454972431063652039e-02,3.303658962249755859e-01,-1.912169903516769409e-01,3.034888803958892822e-01,-1.307433843612670898e-01,-1.456184592097997665e-02,-8.027124404907226562e-02
-7.905441522598266602e-02,-2.292044758796691895e-01,-2.705094814300537109e-01,5.103192850947380066e-02,-8.350094780325889587e-03,1.196293681859970093e-01,-3.873779177665710449e-01,-1.581927090883255005e-01,-3.441686183214187622e-02,-3.321132659912109375e-01,-1.880996078252792358e-01,-1.604676246643066406e-01,-6.350238621234893799e-02,2.533073909580707550e-02,1.541999131441116333e-01,-2.366922944784164429e-01,-3.730130568146705627e-02,-3.849105834960937500e-01,2.294425815343856812e-01,-2.354626953601837158e-01
5.292208865284919739e-02,-1.014329433441162109e+00,-9.566737413406372070e-01,-2.657225728034973145e-01,-6.687926054000854492e-01,-1.077127233147621155e-01,-1.411945700645446777e+00,1.220736652612686157e-01,-1.155416369438171387e-01,-7.941371798515319824e-01,-8.552830815315246582e-01,-9.326929599046707153e-02,-1.076827049255371094e-01,2.322318851947784424e-01,2.948360443115234375e-01,-5.979710221290588379e-01,5.006346106529235840e-01,-2.702078819274902344e-01,-2.215286493301391602e-01,4.686906561255455017e-02
-2.953388541936874390e-02,-6.946185827255249023e-01,-2.615741193294525146e-01,-3.991067409515380859e-01,1.545662879943847656e-01,6.816880404949188232e-02,-3.249112665653228760e-01,1.436955630779266357e-01,8.297216892242431641e-02,-2.472168952226638794e-02,-3.869656026363372803e-01,-4.146602451801300049e-01,-2.077813744544982910e-01,-1.530610471963882446e-01,-3.869180083274841309e-01,-5.190367102622985840e-01,1.088126152753829956e-01,1.847748905420303345e-01,-1.396397780627012253e-02,-2.198095321655273438e-01
1.179413497447967529e-01,1.641101017594337463e-02,-2.101403325796127319e-01,4.096924066543579102e-01,-2.129059582948684692e-01,1.785006672143936157e-01,-1.243968680500984192e-02,3.574031963944435120e-02,2.843577787280082703e-02,-7.103185653686523438e-01,-1.488105654716491699e-01,-1.076911240816116333e-01,-2.055399566888809204e-01,-3.341379463672637939e-01,-3.104870021343231201e-01,9.750862419605255127e-02,-5.251221731305122375e-02,-5.774651467800140381e-02,-1.234257686883211136e-02,3.631301820278167725e-01
-1.810165047645568848e-01,1.214294061064720154e-01,-2.171519100666046143e-01,-2.324911355972290039e-01,1.330925971269607544e-01,1.084352582693099976e-01,9.236947298049926758e-01,-3.198630735278129578e-02,-6.574621200561523438e-01,2.474332302808761597e-01,3.832259178161621094e-01,6.901466101408004761e-02,1.214330866932868958e-01,-9.243375062942504883e-02,-1.955693066120147705e-01,3.123450279235839844e-01,-1.084554102271795273e-02,5.080406069755554199e-01,-1.690502017736434937e-01,-1.382761597633361816e-01
-1.309267878532409668e-01,3.417980372905731201e-01,4.804699867963790894e-02,-3.453684151172637939e-01,-2.786976099014282227e-01,-2.137939184904098511e-01,3.032119572162628174e-01,-3.079223334789276123e-01,-3.195875138044357300e-02,3.841459155082702637e-01,8.618348836898803711e-02,-1.161900013685226440e-01,-1.096402178518474102e-03,-5.609510838985443115e-02,1.893662214279174805e-01,1.871816366910934448e-01,-1.646181046962738037e-01,-3.677732944488525391e-01,-4.609337151050567627e-01,1.081740185618400574e-01
-2.505178451538085938e-01,-9.640103578567504883e-01,-1.326406836509704590e+00,-3.060039281845092773e-01,1.960149258375167847e-01,-5.676047876477241516e-02,-8.687731623649597168e-01,3.046158254146575928e-01,-1.570987701416015625e-01,-7.512298822402954102e-01,-5.906894803047180176e-01,2.479201704263687134e-01,-4.029360413551330566e-01,6.275589764118194580e-02,-6.695969104766845703e-01,-8.446600437164306641e-01,3.800458908081054688e-01,-2.209239900112152100e-01,2.065951824188232422e-01,-4.619243741035461426e-02
