-1.164250001311302185e-01,-4.628303647041320801e-01,-1.883243471384048462e-01,-1.559868007898330688e-01,-1.179704666137695312e-01,-1.417488902807235718e-01,-1.143030938692390919e-03,-1.621379703283309937e-01,1.107466071844100952e-01,-3.423621952533721924e-01,5.950200930237770081e-02,-2.491202801465988159e-01,-2.278954982757568359e-01,-1.029471307992935181e-01,-2.744750678539276123e-01,9.692523628473281860e-02,-3.945873975753784180e-01,-1.718164682388305664e-01,-2.515149712562561035e-01,-5.477731823921203613e-01
-2.681642472743988037e-01,-1.410138905048370361e-01,-3.113310225307941437e-02,-1.499568104743957520e+00,-9.554567933082580566e-01,4.707709886133670807e-03,-3.765579164028167725e-01,-2.143575906753540039e+00,-2.894829511642456055e-01,1.500900834798812866e-01,-6.585458517074584961e-01,-3.018523931503295898e+00,2.395591512322425842e-02,1.487682759761810303e-01,8.130473643541336060e-02,-1.905070185661315918e+00,-2.951985597610473633e+00,1.191492229700088501e-01,2.340024709701538086e-01,1.218538582324981689e-01
-3.119432181119918823e-02,-3.577324748039245605e-01,2.945509254932403564e-01,2.559852302074432373e-01,-9.597909450531005859e-02,3.225257992744445801e-01,-3.646129369735717773e-01,4.974648952484130859e-01,-2.326183617115020752e-01,2.363550662994384766e-02,1.742886602878570557e-01,1.434351666830480099e-03,1.266833841800689697e-01,4.202352762222290039e-01,2.085014134645462036e-01,-1.692538149654865265e-02,3.355109691619873047e-01,3.984631001949310303e-01,5.376698970794677734e-01,-1.224658563733100891e-01
-2.664248943328857422e-01,-4.796081408858299255e-02,1.864493824541568756e-02,-6.930613517761230469e-01,-4.217162430286407471e-01,3.569923713803291321e-02,-1.535128653049468994e-01,-7.087257504463195801e-01,-1.497996598482131958e-01,5.554461106657981873e-02,-7.329555749893188477e-01,-1.027900218963623047e+00,-1.135886088013648987e-01,3.588078916072845459e-02,6.738267093896865845e-02,-6.840296387672424316e-01,-9.586153030395507812e-01,2.181231230497360229e-02,2.544973790645599365e-01,8.579934388399124146e-02
-1.429047286510467529e-01,-9.422216564416885376e-02,-3.668553531169891357e-01,-1.044954419136047363e+00,-6.864570975303649902e-01,2.303465604782104492e-01,-2.526390850543975830e-01,-1.192313671112060547e+00,-1.811417341232299805e-01,1.131424456834793091e-01,-4.615259766578674316e-01,-2.118059635162353516e+00,6.306198239326477051e-02,9.606248885393142700e-02,5.420177057385444641e-02,-1.332571864128112793e+00,-1.479070425033569336e+00,6.818927079439163208e-02,1.314093619585037231e-01,5.585292726755142212e-02
-2.285390347242355347e-01,-4.203841835260391235e-02,-4.950280189514160156e-01,-1.328695654869079590e+00,-9.473297595977783203e-01,1.795072704553604126e-01,-3.629460930824279785e-01,-2.002783775329589844e+00,-2.747327983379364014e-01,1.372090131044387817e-01,-6.065173745155334473e-01,-2.783288478851318359e+00,-3.048948384821414948e-02,1.431185305118560791e-01,8.954190462827682495e-02,-1.699335575103759766e+00,-2.759665250778198242e+00,1.230776757001876831e-01,2.626717984676361084e-01,1.098176389932632446e-01
3.501513227820396423e-02,-9.864112734794616699e-02,-9.875742346048355103e-02,-2.543615102767944336e-01,-2.860485613346099854e-01,-5.382438749074935913e-02,-2.243322134017944336e-01,-1.175664663314819336e-01,1.386115550994873047e-01,-5.422825738787651062e-02,-2.072093784809112549e-01,-5.207309499382972717e-02,6.660042703151702881e-02,5.903507396578788757e-02,-1.820900142192840576e-01,-3.347348570823669434e-01,1.823747158050537109e-01,-7.264212518930435181e-02,1.041617989540100098e-01,-5.991795286536216736e-02
5.274180322885513306e-03,-1.798421442508697510e-01,4.564151540398597717e-02,1.345864087343215942e-01,-9.043847024440765381e-02,2.580355703830718994e-01,-2.295060455799102783e-01,2.517686486244201660e-01,-1.045543923974037170e-01,-8.774746092967689037e-04,6.743045896291732788e-02,-1.090587489306926727e-02,5.350004881620407104e-02,2.249294966459274292e-01,1.090577542781829834e-01,-3.753033280372619629e-02,2.006635069847106934e-01,2.420123964548110962e-01,3.233889937400817871e-01,-7.031124830245971680e-02
-2.805933952331542969e-01,6.066280230879783630e-02,-2.415227890014648438e-01,-1.372453093528747559e+00,-9.632923603057861328e-01,-3.453454673290252686e-01,-4.931215941905975342e-01,-2.029259443283081055e+00,-2.848295569419860840e-01,1.009443923830986023e-01,-7.269964218139648438e-01,-2.604090690612792969e+00,-1.764337420463562012e-01,1.790843904018402100e-01,7.799170166254043579e-02,-1.823202252388000488e+00,-2.515512466430664062e+00,7.416334748268127441e-02,3.839827477931976318e-01,1.294728219509124756e-01
-5.929654836654663086e-01,3.830288350582122803e-01,-3.972340002655982971e-02,-5.508819818496704102e-01,-2.370634675025939941e-01,2.007228285074234009e-01,-5.589569732546806335e-02,-7.270453572273254395e-01,-6.284230947494506836e-01,3.848232701420783997e-02,-3.137385845184326172e-01,-1.299790859222412109e+00,-3.521733283996582031e-01,-2.501208567991852760e-03,2.989427559077739716e-02,-5.872949361801147461e-01,-1.196524620056152344e+00,5.823604390025138855e-02,2.334664762020111084e-01,2.497914992272853851e-02
-1.208060607314109802e-01,-1.718559116125106812e-01,9.042514860630035400e-02,5.444434657692909241e-02,1.344608962535858154e-01,-1.907656937837600708e-01,3.514486923813819885e-02,2.050764709711074829e-01,-1.437096893787384033e-01,5.027500540018081665e-02,1.494698077440261841e-01,3.425858169794082642e-02,9.893090277910232544e-02,1.271627843379974365e-01,6.684257090091705322e-02,1.072809845209121704e-01,-8.648727089166641235e-03,-1.313477638177573681e-03,-9.741629473865032196e-03,-1.808800734579563141e-04
3.305309638381004333e-02,1.981757208704948425e-02,4.429298341274261475e-01,-2.456752508878707886e-01,-3.333984315395355225e-01,-4.345580041408538818e-01,2.265249490737915039e-01,-2.488271743059158325e-01,-1.650322228670120239e-01,-2.803563177585601807e-01,-2.733006775379180908e-01,-6.608564853668212891e-01,-5.186390876770019531e-01,-2.137192487716674805e-01,2.274413555860519409e-01,-2.705754637718200684e-01,-3.543710708618164062e-01,3.781052231788635254e-01,-6.731776893138885498e-02,6.824579834938049316e-02
-4.196214079856872559e-01,1.225484833121299744e-01,-7.930312305688858032e-02,-7.476838827133178711e-01,-3.828892111778259277e-01,2.496875971555709839e-01,-1.254386007785797119e-01,-8.925384283065795898e-01,-6.123746633529663086e-01,4.411813279148191214e-06,-3.974953591823577881e-01,-1.471451163291931152e+00,-3.202338516712188721e-01,7.205104082822799683e-02,1.152925491333007812e-01,-7.196770906448364258e-01,-1.469463467597961426e+00,7.712763547897338867e-02,5.196034908294677734e-01,9.958562254905700684e-02
-1.446987688541412354e-01,1.060253158211708069e-01,1.188827604055404663e-01,-3.433651924133300781e-01,-7.696797847747802734e-01,4.861202836036682129e-02,-3.463846743106842041e-01,-4.548174142837524414e-01,-3.909301459789276123e-01,5.592622607946395874e-02,-1.819704324007034302e-01,-8.265108466148376465e-01,-1.219548881053924561e-01,-1.250281780958175659e-01,-3.862936049699783325e-02,-3.846372365951538086e-01,-7.554656267166137695e-01,1.272953767329454422e-02,5.478037893772125244e-02,3.812569007277488708e-02
-4.486357327550649643e-03,2.476070523262023926e-01,1.508180499076843262e-01,-2.562719881534576416e-01,2.361233383417129517e-01,1.208005622029304504e-01,1.989985704421997070e-01,-3.108491003513336182e-01,-8.782738447189331055e-02,-3.136575967073440552e-02,-3.615927323698997498e-02,4.978696815669536591e-04,-1.083949506282806396e-01,3.472231701016426086e-02,-7.746041566133499146e-02,8.139330148696899414e-02,-3.664169311523437500e-01,-2.836915850639343262e-01,-4.657853245735168457e-01,-5.509657319635152817e-03
-2.835529148578643799e-01,1.416715979576110840e-01,-1.485544294118881226e-01,-6.203311681747436523e-01,-4.758564755320549011e-02,1.958073228597640991e-01,-7.416455149650573730e-01,-6.065818667411804199e-01,-1.849143505096435547e-01,1.985385548323392868e-03,-7.271220088005065918e-01,-7.490870356559753418e-01,-2.775619924068450928e-01,-3.919249400496482849e-02,-9.124028496444225311e-03,-9.808409214019775391e-01,-8.236044645309448242e-01,5.244815722107887268e-02,1.163449212908744812e-01,-5.303484201431274414e-02
3.087772289291024208e-03,8.435606211423873901e-02,2.045138925313949585e-01,3.014664910733699799e-02,-2.259911447763442993e-01,-4.245212972164154053e-01,-1.550325304269790649e-01,1.934782862663269043e-01,-5.278380215167999268e-02,-3.497685790061950684e-01,-1.632682830095291138e-01,-1.651308685541152954e-01,-6.420631408691406250e-01,9.203001111745834351e-02,-2.281424701213836670e-01,2.557085156440734863e-01,4.114768467843532562e-03,1.723930537700653076e-01,-4.537883102893829346e-01,-4.113210737705230713e-02
-1.863871216773986816e-01,-6.120285987854003906e-01,-2.246701568365097046e-01,2.049680948257446289e-01,1.101301312446594238e-01,2.889194488525390625e-01,3.619189262390136719e-01,-3.113746941089630127e-01,-3.657529354095458984e-01,1.393346115946769714e-02,-2.376289218664169312e-01,-3.653664290904998779e-01,-3.862991333007812500e-01,1.422785371541976929e-01,1.095525622367858887e-01,1.276050955057144165e-01,-2.221072167158126831e-01,-1.729701161384582520e-01,-2.740132510662078857e-01,-3.459610044956207275e-01
-5.226832628250122070e-01,-6.268895417451858521e-02,3.395678997039794922e-01,-1.026319503784179688e+00,-5.106900930404663086e-01,2.123918682336807251e-01,-2.021047621965408325e-01,-1.200574874877929688e+00,-6.793522238731384277e-01,9.648758918046951294e-02,-5.860818028450012207e-01,-1.980076909065246582e+00,-9.498730301856994629e-02,6.674202531576156616e-02,1.212921962141990662e-01,-9.818831682205200195e-01,-1.977831840515136719e+00,1.330858618021011353e-01,3.670335710048675537e-01,1.338841319084167480e-01
1.961354613304138184e-01,-1.994501501321792603e-01,3.818009495735168457e-01,1.519801653921604156e-02,7.877266407012939453e-02,-5.735053420066833496e-01,8.110751956701278687e-02,-1.155273765325546265e-01,-2.742630839347839355e-01,-4.309723675251007080e-01,-2.205570787191390991e-01,1.994484290480613708e-02,-2.178274393081665039e-01,1.791033893823623657e-02,1.647682785987854004e-01,3.370998054742813110e-02,-1.712036579847335815e-01,-3.411418497562408447e-01,-2.189983874559402466e-01,-9.269580245018005371e-02
