4.025646448135375977e-01,-1.394581913948059082e+00,2.643822133541107178e-01,-1.380894660949707031e+00,-1.305273175239562988e+00,1.753715276718139648e-01,-1.353264570236206055e+00,-4.738694801926612854e-02,1.344203650951385498e-01,-1.307170987129211426e+00,-4.945747554302215576e-01,-2.370447292923927307e-02,-5.580235738307237625e-03,1.381524205207824707e-01,-1.246322751045227051e+00,-8.500821888446807861e-02,-4.577916264533996582e-01,2.424239218235015869e-01,2.862967848777770996e-01,-3.605276346206665039e-01,3.103539645671844482e-01,-1.132369279861450195e+00,-2.266608715057373047e+00,-1.156132340431213379e+00,-4.711252152919769287e-01,-1.123640179634094238e+00,-5.598129630088806152e-01,-1.139294281601905823e-01,1.374964416027069092e-02,-1.355352345854043961e-02,-1.076031565666198730e+00,-2.218250781297683716e-01,3.190447986125946045e-01,-1.458516120910644531e+00,1.733844131231307983e-01,-1.508360862731933594e+00,-6.225781887769699097e-02,-2.595840394496917725e-01,-1.258161067962646484e-01,-1.678907513618469238e+00
1.753173917531967163e-01,4.081824421882629395e-01,-3.688212633132934570e-01,-3.738794848322868347e-02,-1.916646361351013184e-01,-4.234970510005950928e-01,2.347471863031387329e-01,1.816976368427276611e-01,7.439089566469192505e-02,-4.014099240303039551e-01,-3.844728171825408936e-01,-3.981144428253173828e-01,-3.143495321273803711e-01,-1.430287808179855347e-01,2.198147624731063843e-01,-4.105309769511222839e-02,7.282062619924545288e-02,-2.218738347291946411e-01,3.371697366237640381e-01,2.552843838930130005e-02,2.698504328727722168e-01,3.590853214263916016e-01,1.224104017019271851e-01,-3.597945347428321838e-02,-1.728013753890991211e-01,-8.880973607301712036e-02,-1.778234243392944336e-01,2.284053117036819458e-01,1.191212888807058334e-02,9.471548348665237427e-02,-1.448755264282226562e-01,2.401949465274810791e-01,1.497664451599121094e-01,3.875683248043060303e-01,1.541502624750137329e-01,-9.696019440889358521e-02,3.081530630588531494e-01,-5.680367723107337952e-02,5.537419393658638000e-02,4.670098125934600830e-01
-3.071122765541076660e-01,1.264359205961227417e-01,-3.740603923797607422e-01,3.053106665611267090e-01,4.124658703804016113e-01,2.365024685859680176e-01,3.066018223762512207e-01,-2.049105316400527954e-01,-3.264000713825225830e-01,-2.296005338430404663e-01,-3.375066220760345459e-01,5.773547291755676270e-02,1.383658796548843384e-01,1.068601757287979126e-01,1.400442868471145630e-01,1.810950189828872681e-01,-3.673653900623321533e-01,-1.798962354660034180e-01,-4.126930534839630127e-01,4.591815173625946045e-01,-4.253756254911422729e-02,2.417092584073543549e-02,3.186157345771789551e-01,-3.814323619008064270e-02,3.209709823131561279e-01,2.889904081821441650e-01,2.567784786224365234e-01,-2.643810808658599854e-01,-1.418958157300949097e-01,6.649634987115859985e-02,3.526807725429534912e-01,-2.370868027210235596e-01,-4.736811295151710510e-02,9.850437939167022705e-02,2.931262552738189697e-01,3.097067773342132568e-01,-1.379339843988418579e-01,3.046247065067291260e-01,4.305486381053924561e-01,1.968647688627243042e-01
2.036529481410980225e-01,7.686485648155212402e-01,-5.367113351821899414e-01,-3.718641027808189392e-02,-1.910652667284011841e-01,-3.476705849170684814e-01,5.537668615579605103e-02,3.188897371292114258e-01,9.382218122482299805e-02,4.378646016120910645e-01,-8.493121713399887085e-02,-1.072700545191764832e-01,-2.568405866622924805e-02,-5.403242111206054688e-01,-2.612901926040649414e-01,-9.447310119867324829e-02,-8.043206483125686646e-02,-1.409011483192443848e-01,7.069183886051177979e-02,2.178099602460861206e-01,-6.848511099815368652e-01,4.362142086029052734e-01,-3.711904585361480713e-01,-4.445278272032737732e-02,7.970194518566131592e-02,4.190018475055694580e-01,-5.269302055239677429e-02,-2.397241443395614624e-01,-1.761041432619094849e-01,1.968103833496570587e-02,-4.659779667854309082e-01,3.741506636142730713e-01,-1.798424124717712402e-02,-3.566119968891143799e-01,-2.406618595123291016e-01,-1.051943823695182800e-01,-1.866738125681877136e-02,2.217385768890380859e-01,9.267126023769378662e-02,-1.725512370467185974e-02
1.813769191503524780e-01,-1.473185569047927856e-01,3.166504800319671631e-01,-5.581465084105730057e-03,2.789520025253295898e-01,3.265213966369628906e-01,2.792012989521026611e-01,-1.608076542615890503e-01,-1.894332095980644226e-02,-2.109343856573104858e-01,-8.425024896860122681e-02,-3.691996932029724121e-01,2.254464197903871536e-04,-1.745610684156417847e-01,1.010858491063117981e-01,8.911746740341186523e-02,-4.560092091560363770e-01,-7.503923028707504272e-02,1.758138537406921387e-01,7.632944732904434204e-02,-3.412730693817138672e-01,9.181220084428787231e-02,2.827100455760955811e-01,-2.768483199179172516e-02,5.312080383300781250e-01,-2.689096331596374512e-01,-8.699328452348709106e-02,-1.061020642518997192e-01,3.483784794807434082e-01,4.742580950260162354e-01,2.194558084011077881e-01,-1.679327040910720825e-01,-1.026483997702598572e-01,9.778896719217300415e-02,2.321107536554336548e-01,1.920238882303237915e-01,-7.852075099945068359e-01,2.517747506499290466e-02,-4.059841036796569824e-01,2.937174141407012939e-01
-9.422003291547298431e-03,1.931751668453216553e-01,1.719962805509567261e-02,-1.334190219640731812e-01,6.890122592449188232e-02,1.770356744527816772e-01,-6.330613512545824051e-03,-1.267649978399276733e-01,4.830539599061012268e-02,9.367530047893524170e-02,-5.764521956443786621e-01,-1.380217522382736206e-01,6.009948253631591797e-02,-2.845618128776550293e-01,4.282711148262023926e-01,-1.353049576282501221e-01,2.301924675703048706e-01,1.420892626047134399e-01,-4.787926077842712402e-01,1.992759853601455688e-02,2.952695637941360474e-02,3.347496390342712402e-01,-4.467619061470031738e-01,2.236386388540267944e-01,-1.724491268396377563e-01,3.782114759087562561e-02,-1.426436603069305420e-01,-1.296498626470565796e-01,4.074367284774780273e-01,1.004824787378311157e-02,-7.944487035274505615e-02,-2.375684529542922974e-01,-2.039184421300888062e-01,6.001703441143035889e-02,-2.920035272836685181e-02,7.881345599889755249e-02,3.874621093273162842e-01,-3.320277035236358643e-01,2.702207267284393311e-01,2.102277241647243500e-02
-1.154891848564147949e-01,-1.271887123584747314e-01,1.375486608594655991e-02,-1.034976363182067871e+00,-5.572715997695922852e-01,-2.555351853370666504e-01,-3.212836682796478271e-01,1.054175421595573425e-01,-5.322617888450622559e-01,5.178366787731647491e-03,1.101533845067024231e-01,2.572141587734222412e-01,1.032985281199216843e-03,-2.140950709581375122e-01,-3.728525042533874512e-01,-1.963659077882766724e-01,3.340449929237365723e-01,-1.068053618073463440e-01,7.823117077350616455e-02,3.512485325336456299e-01,-3.273497819900512695e-01,-4.631689488887786865e-01,-9.056786894798278809e-01,-1.043588519096374512e+00,-3.558965325355529785e-01,-8.177754878997802734e-01,2.265569567680358887e-02,4.011637270450592041e-01,-1.403249055147171021e-01,-1.634604856371879578e-02,5.077118426561355591e-02,9.326463192701339722e-02,7.094720005989074707e-01,-1.978740394115447998e-01,3.019596682861447334e-03,-8.327760100364685059e-01,2.331859767436981201e-01,-2.185747623443603516e-01,-2.135186791419982910e-01,-4.688277542591094971e-01
-2.139245122671127319e-01,-4.104188680648803711e-01,7.837165147066116333e-02,1.554880589246749878e-01,-4.107307195663452148e-01,1.578969359397888184e-01,2.833804786205291748e-01,-3.872615098953247070e-01,1.404096037149429321e-01,-5.663775801658630371e-01,2.925919890403747559e-01,4.281228780746459961e-02,1.104251220822334290e-01,-1.178338825702667236e-01,3.029501810669898987e-02,3.026981353759765625e-01,1.517124772071838379e-01,1.843913272023200989e-02,3.875807672739028931e-02,1.482478380203247070e-01,9.922179579734802246e-01,-3.405529260635375977e-01,-4.056957960128784180e-01,-1.406167298555374146e-01,-2.040276080369949341e-01,-4.449182003736495972e-02,1.885316371917724609e-01,5.014407634735107422e-01,-2.978400290012359619e-01,-7.340399175882339478e-02,-1.654798388481140137e-01,3.524996340274810791e-01,-3.688139617443084717e-01,-3.890493810176849365e-01,-1.773694008588790894e-01,-7.411003112792968750e-02,-2.181290835142135620e-01,3.053203523159027100e-01,-8.134090341627597809e-03,-4.429868757724761963e-01
-1.114613749086856842e-02,-2.091379761695861816e-01,-2.817155420780181885e-01,3.489969968795776367e-01,9.949883818626403809e-02,-7.121925801038742065e-02,-1.823993623256683350e-01,-1.744925975799560547e-01,2.300038784742355347e-01,2.093927711248397827e-01,-2.168834060430526733e-01,5.173277109861373901e-02,6.972859799861907959e-02,5.771967172622680664e-01,3.575215935707092285e-01,-2.776930481195449829e-02,6.764676421880722046e-02,9.463581442832946777e-02,-3.654493764042854309e-02,5.380452796816825867e-02,-5.169102549552917480e-01,-9.308090806007385254e-02,5.362278968095779419e-02,-1.147084012627601624e-01,3.865081369876861572e-01,2.903495132923126221e-01,1.100581586360931396e-01,2.160807698965072632e-01,8.343712426722049713e-03,1.714591383934020996e-01,5.497108101844787598e-01,-3.521624207496643066e-01,-3.535224869847297668e-02,-2.178275026381015778e-02,-3.142923712730407715e-01,-4.130895435810089111e-01,-4.714187085628509521e-01,1.933225095272064209e-01,2.908664643764495850e-01,4.900014996528625488e-01
3.471562564373016357e-01,-8.042562007904052734e-02,1.737169921398162842e-01,-2.589914947748184204e-02,-1.266248077154159546e-01,-1.230222731828689575e-01,-3.774047493934631348e-01,8.843368291854858398e-02,-3.673401474952697754e-02,-4.392727911472320557e-01,-2.056336849927902222e-01,2.930727005004882812e-01,-2.356350421905517578e-01,-2.291482686996459961e-01,1.092423200607299805e-01,-1.672523319721221924e-01,-4.326429963111877441e-01,-1.990185081958770752e-01,1.935664936900138855e-02,-4.797271639108657837e-02,3.381768167018890381e-01,-3.106628656387329102e-01,-4.661430418491363525e-01,-2.221603244543075562e-01,1.099656745791435242e-01,-2.988968193531036377e-01,1.473111212253570557e-01,8.687004446983337402e-02,8.491320163011550903e-02,-2.031214237213134766e-01,2.004745006561279297e-01,6.101479530334472656e-01,2.270862311124801636e-01,-2.387734949588775635e-01,4.309413731098175049e-01,6.641370803117752075e-02,4.054301232099533081e-02,8.978996425867080688e-02,5.234333872795104980e-01,-2.307244092226028442e-01
-3.454167162999510765e-03,-2.844348251819610596e-01,2.245431095361709595e-01,-2.863349914550781250e-01,-4.215268418192863464e-02,-2.578143477439880371e-01,-2.071142196655273438e-01,-5.488921701908111572e-02,-2.599627673625946045e-01,4.515229463577270508e-01,2.884461581707000732e-01,3.662478327751159668e-01,-1.542428880929946899e-02,1.041206121444702148e+00,-7.031157612800598145e-01,1.579068750143051147e-01,-2.707331776618957520e-01,3.292817473411560059e-01,2.332241386175155640e-01,-4.054223373532295227e-02,5.351890325546264648e-01,-3.965953290462493896e-01,-1.250372171401977539e+00,-6.766040921211242676e-01,6.734462380409240723e-01,2.486550658941268921e-01,1.033827066421508789e+00,8.215217292308807373e-02,-1.084562689065933228e-01,1.815779060125350952e-01,1.397683620452880859e+00,-2.474101632833480835e-01,6.220261380076408386e-02,-2.899693846702575684e-01,-1.814277023077011108e-01,-4.135882854461669922e-01,-4.596266150474548340e-02,1.737967282533645630e-01,2.443798631429672241e-01,-6.040691137313842773e-01
8.831308037042617798e-02,1.585696488618850708e-01,1.155786290764808655e-01,1.939748078584671021e-01,2.409998178482055664e-01,-5.517706274986267090e-03,1.388959586620330811e-01,-1.784038394689559937e-01,1.849124282598495483e-01,-2.771466672420501709e-01,-1.383747458457946777e-01,-3.908020257949829102e-02,-1.007575467228889465e-01,3.657081723213195801e-01,-2.532089352607727051e-01,-3.178286850452423096e-01,-2.595119476318359375e-01,5.503010936081409454e-03,-1.861566212028264999e-03,-8.744974434375762939e-02,-5.238182544708251953e-01,-9.832422249019145966e-03,3.507898747920989990e-02,-4.015124440193176270e-01,2.331582456827163696e-01,2.065700739622116089e-01,1.434106677770614624e-01,1.341929584741592407e-01,-2.244595810770988464e-02,-2.445176243782043457e-01,-1.723362505435943604e-01,3.311757445335388184e-01,-1.012461557984352112e-01,1.728207617998123169e-01,-2.103867940604686737e-03,-4.143204540014266968e-02,-3.294017612934112549e-01,2.097797691822052002e-01,3.649816513061523438e-01,-3.184025883674621582e-01
1.873300373554229736e-01,4.780130982398986816e-01,-1.373612880706787109e-01,3.830966651439666748e-01,5.150642395019531250e-01,3.143832087516784668e-03,1.480561494827270508e-01,-2.843192592263221741e-02,3.024778366088867188e-01,3.446513414382934570e-02,2.715703547000885010e-01,7.462247461080551147e-02,3.150013089179992676e-01,5.467133522033691406e-01,1.520808041095733643e-01,2.699805796146392822e-01,-2.515061199665069580e-01,-2.428729087114334106e-01,1.688082963228225708e-01,-3.346152137964963913e-03,-6.480778455734252930e-01,2.633806169033050537e-01,2.180539667606353760e-01,4.909665882587432861e-01,-2.617035619914531708e-02,3.089147210121154785e-01,1.669138669967651367e-01,-2.296765595674514771e-01,-1.560887545347213745e-01,1.328373104333877563e-01,1.743793338537216187e-01,-1.928219199180603027e-02,1.095118373632431030e-01,2.939607799053192139e-01,1.782716065645217896e-01,4.897205829620361328e-01,3.582344353199005127e-01,-4.188980758190155029e-01,3.203467428684234619e-01,2.458544671535491943e-01
-1.016464307904243469e-01,7.669530808925628662e-02,-1.834535449743270874e-01,-3.300063908100128174e-01,-2.351223975419998169e-01,-1.248469725251197815e-01,-2.179310917854309082e-01,-4.935910180211067200e-02,-1.249940246343612671e-01,9.018962085247039795e-02,5.301999300718307495e-02,-1.736678779125213623e-01,1.451995521783828735e-01,1.934286653995513916e-01,8.565228432416915894e-02,1.599572300910949707e-01,-1.656647473573684692e-01,2.843532562255859375e-01,9.131167829036712646e-02,1.466462463140487671e-01,-4.852741360664367676e-01,6.430005282163619995e-02,-1.277771592140197754e-01,-1.737798005342483521e-01,8.469431847333908081e-02,2.687689661979675293e-01,6.311855912208557129e-01,4.369620382785797119e-01,3.354774415493011475e-01,-1.633481085300445557e-01,3.858972787857055664e-01,-2.017216533422470093e-01,-3.755214214324951172e-01,6.974821537733078003e-02,3.330644667148590088e-01,-2.002510279417037964e-01,-4.277696087956428528e-02,-2.168786972761154175e-01,-3.501571714878082275e-01,-2.812529914081096649e-02
1.772321313619613647e-01,-6.065155565738677979e-02,3.393419086933135986e-01,-2.030499875545501709e-01,1.758559346199035645e-01,-2.759586572647094727e-01,1.589655876159667969e-01,4.800199065357446671e-03,-1.234512850642204285e-01,6.957092285156250000e-01,8.445543237030506134e-03,4.267535731196403503e-02,-1.137254480272531509e-02,4.400311410427093506e-01,2.550288736820220947e-01,8.316144347190856934e-02,1.270765215158462524e-01,-3.229466378688812256e-01,-1.306554228067398071e-01,3.621033728122711182e-01,-5.918680429458618164e-01,2.104047685861587524e-01,-9.266557544469833374e-02,-1.436305493116378784e-01,2.378294914960861206e-01,3.583031296730041504e-01,6.359515786170959473e-01,-2.509840726852416992e-01,6.350493431091308594e-02,2.211138457059860229e-01,3.720706999301910400e-01,-2.235375195741653442e-01,-2.241728156805038452e-01,3.051485717296600342e-01,2.030191421508789062e-01,-1.457292735576629639e-01,-5.816615745425224304e-02,3.333615660667419434e-01,-3.481620848178863525e-01,3.204971551895141602e-01
2.308741956949234009e-01,1.249893568456172943e-02,2.384404242038726807e-01,-2.715608775615692139e-01,2.927935719490051270e-01,-1.645786464214324951e-01,-4.366214871406555176e-01,-6.368800997734069824e-02,-3.881072103977203369e-01,-4.127776920795440674e-01,-3.170831799507141113e-01,-1.086252182722091675e-02,-1.505214720964431763e-01,-1.347377002239227295e-01,-2.057681232690811157e-01,-4.315973222255706787e-01,6.307834386825561523e-02,-6.953879445791244507e-02,2.171561270952224731e-01,6.804450750350952148e-01,7.656019330024719238e-01,1.934533417224884033e-01,5.162002891302108765e-02,-6.675049066543579102e-01,1.039863452315330505e-01,-4.101051986217498779e-01,-4.864276051521301270e-01,5.873709917068481445e-01,-1.419628560543060303e-01,1.868914067745208740e-01,-1.910098791122436523e-01,-1.165630146861076355e-01,-6.717920303344726562e-03,-5.347692370414733887e-01,-1.287605911493301392e-01,-4.158366322517395020e-01,3.433419167995452881e-01,6.281706690788269043e-01,-2.484270781278610229e-01,-1.609467864036560059e-01
1.437511593103408813e-01,3.168653547763824463e-01,2.504589855670928955e-01,-1.716103032231330872e-02,-6.329388171434402466e-02,-1.387451887130737305e-01,-1.672143340110778809e-01,-1.056259274482727051e-01,3.614345192909240723e-02,-1.561387181282043457e-01,1.598461270332336426e-01,-3.013348579406738281e-01,-4.549980461597442627e-01,-1.202337503433227539e+00,3.424694240093231201e-01,2.679679393768310547e-01,2.404414415359497070e-01,-2.698727250099182129e-01,-1.363777518272399902e-01,2.107458114624023438e-01,2.365619540214538574e-01,-2.728917598724365234e-01,-8.217034488916397095e-02,-1.077987924218177795e-01,-5.547059774398803711e-01,-1.513338238000869751e-01,-2.773431241512298584e-01,-1.170017197728157043e-01,1.058941707015037537e-01,-1.829898357391357422e-01,-1.794552057981491089e-01,-8.983415551483631134e-03,3.103711605072021484e-01,-3.388161957263946533e-01,2.397991120815277100e-01,-1.583717465400695801e-01,-2.875500917434692383e-01,2.018249481916427612e-01,-7.471641991287469864e-03,-2.243162542581558228e-01
8.192305266857147217e-02,3.679254949092864990e-01,8.004007488489151001e-02,1.946803629398345947e-01,4.238167703151702881e-01,-2.249109894037246704e-01,3.522547483444213867e-01,2.799312472343444824e-01,2.285218685865402222e-01,2.507189810276031494e-01,2.557729482650756836e-01,-3.433649241924285889e-01,3.400731384754180908e-01,2.556127309799194336e-02,1.925970986485481262e-02,-1.261117011308670044e-01,-3.117630779743194580e-01,7.481667399406433105e-01,2.304469197988510132e-01,-6.021919846534729004e-01,-7.235071659088134766e-01,6.203819513320922852e-01,1.763926148414611816e-01,5.488905906677246094e-01,-2.846954949200153351e-02,8.175098896026611328e-02,5.185670256614685059e-01,-3.112002834677696228e-02,-2.796132490038871765e-02,2.657621204853057861e-01,-2.688538432121276855e-01,-5.421817768365144730e-03,-1.115009933710098267e-01,2.119769304990768433e-01,-8.989989012479782104e-02,4.045446515083312988e-01,6.702575832605361938e-03,-2.111253887414932251e-01,-2.198472768068313599e-01,1.187169924378395081e-01
4.821504652500152588e-02,-4.614848792552947998e-01,-3.021572530269622803e-02,-4.184066653251647949e-01,-7.560651302337646484e-01,1.160460785031318665e-01,-3.747957050800323486e-01,-1.561627388000488281e-01,-1.847584396600723267e-01,-7.289673686027526855e-01,-2.436770945787429810e-01,-1.015655174851417542e-01,1.781068295240402222e-01,-1.569049432873725891e-02,-4.828733205795288086e-01,3.900304734706878662e-01,-7.689316570758819580e-02,-3.832585215568542480e-01,3.598109781742095947e-01,3.007418010383844376e-03,2.254074215888977051e-01,-6.807312965393066406e-01,-2.212823778390884399e-01,-5.404670238494873047e-01,-7.592356204986572266e-01,-6.524005532264709473e-01,-7.348782420158386230e-01,3.909023702144622803e-01,1.402783542871475220e-01,-1.873858720064163208e-01,-2.004766166210174561e-01,-2.373544126749038696e-01,1.016756072640419006e-01,-8.077139258384704590e-01,5.061046779155731201e-02,-8.718568682670593262e-01,-9.531218558549880981e-02,-5.129761621356010437e-02,-2.299093008041381836e-01,-6.918768286705017090e-01
-2.936221659183502197e-01,-3.052330613136291504e-01,2.508890032768249512e-01,-2.191111445426940918e-01,-5.613596439361572266e-01,-1.615159809589385986e-01,-1.497112065553665161e-01,3.772417008876800537e-01,-2.181662023067474365e-01,-4.294718801975250244e-01,-3.864178061485290527e-01,-2.573766410350799561e-01,-4.947993457317352295e-01,-9.495398402214050293e-01,-7.025818228721618652e-01,-1.657721996307373047e-01,-1.623205691576004028e-01,-1.335662007331848145e-01,2.357548475265502930e-01,-8.595627546310424805e-02,1.534153521060943604e-01,-2.575502097606658936e-01,-6.487380862236022949e-01,-6.353471279144287109e-01,-5.487558841705322266e-01,-5.607341527938842773e-01,-4.206727743148803711e-01,2.012836933135986328e-01,-7.775563001632690430e-02,-3.751866817474365234e-01,-1.043493270874023438e+00,1.978217214345932007e-01,5.075494647026062012e-01,-1.571183092892169952e-02,-1.563009470701217651e-01,-5.260795354843139648e-01,-5.843459963798522949e-01,-3.510369658470153809e-01,-6.496507674455642700e-02,-6.160759329795837402e-01
2.298650890588760376e-01,-3.544369935989379883e-01,-9.949827194213867188e-02,-3.020621538162231445e-01,-9.687906131148338318e-03,1.793171465396881104e-01,-2.812335491180419922e-01,2.663356959819793701e-01,-1.953244805335998535e-01,-2.373135685920715332e-01,2.119794636964797974e-01,1.513311266899108887e-01,1.563297063112258911e-01,-5.213625431060791016e-01,-3.995181918144226074e-01,-1.501147300004959106e-01,-7.417688518762588501e-02,-3.845530450344085693e-01,-2.666004560887813568e-02,-2.005159556865692139e-01,3.133884370326995850e-01,-1.397554129362106323e-01,-4.284316599369049072e-01,-1.047709677368402481e-02,-8.930563181638717651e-02,2.913061976432800293e-01,-3.297595083713531494e-01,-7.197684049606323242e-02,3.092338442802429199e-01,-2.185776978731155396e-01,2.780799567699432373e-01,4.171187877655029297e-01,-4.250507429242134094e-02,-2.534623444080352783e-01,3.504001498222351074e-01,-2.445064783096313477e-01,-1.383035629987716675e-01,1.119654029607772827e-01,-4.154465198516845703e-01,-2.987825274467468262e-01
-1.340618729591369629e-01,-9.255617260932922363e-01,2.114782035350799561e-01,-5.248799324035644531e-01,-5.579372644424438477e-01,-2.990505993366241455e-01,-5.856347084045410156e-01,1.076361536979675293e-01,-5.001435875892639160e-01,-7.514090538024902344e-01,-6.418325304985046387e-01,1.182830631732940674e-01,-5.398802757263183594e-01,-3.611127734184265137e-01,-9.069693684577941895e-01,-3.471513837575912476e-02,8.280585706233978271e-02,1.973723173141479492e-01,3.783370554447174072e-02,-1.323086172342300415e-01,3.234724402427673340e-01,-6.445605754852294922e-01,-6.771166324615478516e-01,-8.071937561035156250e-01,-6.896283030509948730e-01,-7.561768293380737305e-01,-7.377479076385498047e-01,3.717698454856872559e-01,2.092549949884414673e-01,-2.545565664768218994e-01,-1.396722674369812012e+00,3.483888804912567139e-01,-8.635767549276351929e-02,-8.905107378959655762e-01,-5.351585149765014648e-01,-9.634391069412231445e-01,-3.781231120228767395e-02,5.244905352592468262e-01,-9.943637996912002563e-02,-7.533321380615234375e-01
-7.706692069768905640e-02,-8.973153829574584961e-01,-2.461162582039833069e-02,-5.640586018562316895e-01,-4.994538426399230957e-01,-8.839147537946701050e-02,-3.421316146850585938e-01,-4.158350825309753418e-02,-1.190084964036941528e-02,2.096304893493652344e-01,2.092833518981933594e-01,4.587016403675079346e-01,-1.503171473741531372e-01,4.266607165336608887e-01,-2.021674662828445435e-01,-4.343614876270294189e-01,1.048637204803526402e-03,-1.573301553726196289e-01,-1.531379073858261108e-01,2.145622521638870239e-01,-4.993818234652280807e-03,-7.370394468307495117e-01,-5.298454761505126953e-01,-8.493140935897827148e-01,-2.793250679969787598e-01,-2.453439682722091675e-01,-1.570599228143692017e-01,-1.002182811498641968e-01,1.863205730915069580e-01,-1.959888078272342682e-02,7.987023890018463135e-02,1.565445512533187866e-01,6.863810122013092041e-02,-6.420224905014038086e-01,1.682464033365249634e-01,-1.798513084650039673e-01,1.071384921669960022e-01,1.281757205724716187e-01,1.648171395063400269e-01,-2.322387993335723877e-01
-2.845645844936370850e-01,3.121069073677062988e-01,-1.918903738260269165e-01,3.906519114971160889e-01,-3.102928698062896729e-01,-1.433779858052730560e-02,3.702803254127502441e-01,5.666890740394592285e-02,2.175270169973373413e-01,3.152048289775848389e-01,-9.361089020967483521e-02,-1.337335854768753052e-01,-2.561548352241516113e-01,-4.367805086076259613e-03,-3.035532832145690918e-01,-1.508309841156005859e-01,-1.716995495371520519e-03,1.471756398677825928e-01,2.995836734771728516e-01,1.867112815380096436e-01,-6.206473112106323242e-01,-1.590086668729782104e-01,4.950479790568351746e-02,-1.887762397527694702e-01,4.521589279174804688e-01,3.105283677577972412e-01,1.501477658748626709e-01,-2.076497226953506470e-01,2.073979377746582031e-01,8.218544721603393555e-02,-4.458761960268020630e-02,4.914824962615966797e-01,-1.668495237827301025e-01,8.858738094568252563e-02,-4.617477059364318848e-01,-4.833091422915458679e-02,5.458986386656761169e-02,1.818985044956207275e-01,2.575912177562713623e-01,-2.963278889656066895e-01
-2.969255447387695312e-01,-2.238974124193191528e-01,-3.121235221624374390e-02,-4.828307405114173889e-02,-3.046715259552001953e-01,-8.054326288402080536e-03,-6.466290913522243500e-03,-7.309007644653320312e-02,-5.552518963813781738e-01,-1.688733696937561035e-02,-3.831153213977813721e-01,-6.636706739664077759e-02,-1.697657816112041473e-02,-2.114871591329574585e-01,-2.915634810924530029e-01,-1.915646046400070190e-01,-1.090773493051528931e-01,-2.220025658607482910e-01,-2.966674976050853729e-03,6.633505970239639282e-02,8.339291810989379883e-02,-1.926071047782897949e-01,-4.144237041473388672e-01,-5.123894214630126953e-01,-3.696186542510986328e-01,-5.235119462013244629e-01,-4.093864262104034424e-01,1.999117732048034668e-01,4.961076080799102783e-01,6.424243748188018799e-02,-2.020898908376693726e-01,3.208822309970855713e-01,1.969466358423233032e-01,9.396777302026748657e-02,-3.000138103961944580e-01,-6.483221054077148438e-02,-8.361357450485229492e-02,-1.827854961156845093e-01,4.528585076332092285e-02,-2.777794301509857178e-01
1.063483655452728271e-01,1.077044129371643066e+00,1.792303174734115601e-01,5.783921480178833008e-01,2.268033772706985474e-01,4.398072063922882080e-01,4.287516176700592041e-01,1.611428558826446533e-01,3.701852858066558838e-01,1.255688905715942383e+00,5.242346525192260742e-01,2.944455146789550781e-01,3.816890064626932144e-03,1.456535514444112778e-02,8.092527389526367188e-01,1.358495652675628662e-01,2.275205552577972412e-01,2.312221676111221313e-01,-1.697447448968887329e-01,5.609272122383117676e-01,7.944934964179992676e-01,2.874139249324798584e-01,5.334483385086059570e-01,8.487496376037597656e-01,1.426429152488708496e+00,4.367145299911499023e-01,1.027296558022499084e-01,-5.328405648469924927e-02,-2.828719019889831543e-01,1.351295132189989090e-02,1.217194437980651855e+00,2.228346765041351318e-01,3.349635750055313110e-02,8.645298480987548828e-01,-3.878450095653533936e-01,1.022727251052856445e+00,-3.530839979648590088e-01,2.348560243844985962e-01,7.924775779247283936e-02,6.067910194396972656e-01
-3.272114396095275879e-01,-3.615563511848449707e-01,-8.089083433151245117e-02,-3.308807611465454102e-01,-1.299335956573486328e-01,-2.241013944149017334e-01,-4.841022789478302002e-01,4.437293410301208496e-01,-1.787703782320022583e-01,-1.869658976793289185e-01,1.335548460483551025e-01,-2.528524994850158691e-01,1.255273371934890747e-01,-3.552594184875488281e-01,7.586411386728286743e-02,4.977690875530242920e-01,1.849543005228042603e-01,4.475778937339782715e-01,1.783184707164764404e-02,-3.130498826503753662e-01,4.867850542068481445e-01,-2.556087374687194824e-01,1.515566091984510422e-02,9.468796104192733765e-02,-2.927441298961639404e-01,1.152752805501222610e-02,-4.453139305114746094e-01,2.051940709352493286e-01,-2.025645822286605835e-01,-3.017397522926330566e-01,-1.193314939737319946e-01,-2.033430933952331543e-01,2.425635606050491333e-01,-3.044986426830291748e-01,-9.622760117053985596e-02,-3.447351157665252686e-01,-4.397321045398712158e-01,1.032154336571693420e-01,-1.335417181253433228e-01,-2.605137526988983154e-01
7.929223775863647461e-02,-4.655434787273406982e-01,9.166397154331207275e-02,-4.462568759918212891e-01,-1.418967992067337036e-01,3.014418110251426697e-02,-3.724695444107055664e-01,-3.107806444168090820e-01,-4.314126074314117432e-01,-7.807400226593017578e-01,-4.700812697410583496e-02,5.494924783706665039e-01,4.877221211791038513e-02,-3.679361939430236816e-01,-1.608069688081741333e-01,-2.029492408037185669e-01,-3.967263177037239075e-02,-4.516918063163757324e-01,4.048681855201721191e-01,-5.390904098749160767e-02,1.319250166416168213e-01,-4.847250580787658691e-01,-3.872886300086975098e-01,-3.340908586978912354e-01,4.778433591127395630e-02,-6.642354726791381836e-01,-1.455874890089035034e-01,1.730473786592483521e-01,4.479640349745750427e-02,-2.222201824188232422e-01,-1.298932135105133057e-01,1.708789467811584473e-01,-3.569542244076728821e-02,-6.645496487617492676e-01,-1.779254898428916931e-02,-4.928050339221954346e-01,-1.888981908559799194e-01,-7.538098096847534180e-02,-6.970975548028945923e-02,-7.569302618503570557e-02
-2.434313893318176270e-01,1.519423961639404297e+00,-1.955860406160354614e-01,1.001425623893737793e+00,1.329436063766479492e+00,1.721690595149993896e-01,8.389660716056823730e-01,-2.799066482111811638e-03,8.114304393529891968e-02,1.096355438232421875e+00,8.045783042907714844e-01,-1.225210428237915039e-01,3.789598047733306885e-01,6.723839044570922852e-01,1.601230621337890625e+00,3.687666356563568115e-01,-1.027650684118270874e-01,-7.184107601642608643e-02,-4.602337181568145752e-01,5.701115820556879044e-03,2.372985891997814178e-02,1.084964036941528320e+00,1.357147932052612305e+00,1.775062203407287598e+00,2.981725633144378662e-01,7.843656539916992188e-01,5.183256268501281738e-01,-5.534470677375793457e-01,-2.905111759901046753e-02,2.055473327636718750e-01,8.540012836456298828e-01,-7.919536530971527100e-02,-2.966306805610656738e-01,1.106399178504943848e+00,2.290584379807114601e-03,8.686478137969970703e-01,5.380325913429260254e-01,-4.310684800148010254e-01,3.115358948707580566e-01,1.377015948295593262e+00
-3.583995401859283447e-01,5.429701805114746094e-01,-1.252951920032501221e-01,8.088772892951965332e-01,6.795189976692199707e-01,1.800083816051483154e-01,6.253494620323181152e-01,1.908033341169357300e-01,1.115761473774909973e-01,5.413439273834228516e-01,5.583707094192504883e-01,-4.403971731662750244e-01,-7.989562116563320160e-03,6.481853127479553223e-01,4.080506265163421631e-01,1.417734175920486450e-01,-1.051382124423980713e-01,2.886950373649597168e-01,-2.453890591859817505e-01,-1.661539226770401001e-01,-3.665982186794281006e-01,7.680215835571289062e-01,4.535690546035766602e-01,6.895400881767272949e-01,-4.539610352367162704e-03,2.635818719863891602e-01,3.162264525890350342e-01,-3.192919492721557617e-01,-4.711478650569915771e-01,3.108659386634826660e-01,7.387194633483886719e-01,-2.366435229778289795e-01,-2.741893529891967773e-01,6.745278239250183105e-01,4.910344779491424561e-01,5.616190433502197266e-01,8.338780701160430908e-02,-2.510779201984405518e-01,2.901867926120758057e-01,6.114002466201782227e-01
3.738676756620407104e-02,9.984850883483886719e-02,-2.280279695987701416e-01,-2.147973179817199707e-01,-2.496285885572433472e-01,-8.027920871973037720e-02,1.582690179347991943e-01,1.715224534273147583e-01,1.260912567377090454e-01,1.102359592914581299e-01,-1.135642677545547485e-01,1.796854585409164429e-01,-4.579937458038330078e-01,-4.167676270008087158e-01,-1.635182946920394897e-01,-1.337151378393173218e-01,-1.445220261812210083e-01,-8.705860003829002380e-03,4.825933277606964111e-02,2.405967563390731812e-01,4.757936298847198486e-01,-5.314994454383850098e-01,-9.832195192575454712e-02,4.442665725946426392e-02,3.349162265658378601e-02,-2.402080595493316650e-01,7.925097644329071045e-02,4.075788334012031555e-02,2.062608301639556885e-01,4.283053427934646606e-02,1.392787545919418335e-01,2.598471045494079590e-01,-2.114509046077728271e-01,7.163213193416595459e-02,-4.839889109134674072e-01,-5.433864891529083252e-02,2.140184342861175537e-01,-3.024112284183502197e-01,6.720292568206787109e-02,-3.978798985481262207e-01
-3.158282935619354248e-01,-9.160106182098388672e-01,6.551531609147787094e-03,-1.192925572395324707e+00,-8.343939185142517090e-01,2.262052297592163086e-01,-9.224728345870971680e-01,3.225660920143127441e-01,-2.235538512468338013e-01,-7.265305519104003906e-01,-5.425792932510375977e-01,4.305714964866638184e-01,-2.553873658180236816e-01,-1.834277063608169556e-02,-1.491201281547546387e+00,1.066012680530548096e-01,-5.294926464557647705e-02,5.286150798201560974e-02,9.982580691576004028e-02,-4.982661902904510498e-01,2.565677464008331299e-01,-1.213342547416687012e+00,-1.361467242240905762e+00,-9.631954431533813477e-01,-5.157667398452758789e-01,-8.784178495407104492e-01,-3.981549739837646484e-01,-2.431719601154327393e-01,4.044927060604095459e-01,1.189165115356445312e-01,-1.260230064392089844e+00,1.750134304165840149e-02,-6.116583198308944702e-02,-1.319297194480895996e+00,-6.203601360321044922e-01,-9.770020842552185059e-01,-5.661986470222473145e-01,2.065219134092330933e-01,-1.477063149213790894e-01,-1.467282176017761230e+00
-1.723858118057250977e-01,4.871027767658233643e-01,-1.011260673403739929e-01,3.504815697669982910e-01,5.081829428672790527e-01,2.006606161594390869e-01,3.705224096775054932e-01,2.746758759021759033e-01,2.147644013166427612e-01,1.107525974512100220e-01,-6.720209121704101562e-02,2.639853656291961670e-01,8.441923558712005615e-02,3.876233696937561035e-01,-4.209765791893005371e-01,1.540672481060028076e-01,-3.476633429527282715e-01,1.272699087858200073e-01,4.226658120751380920e-02,-3.969178348779678345e-02,4.946683645248413086e-01,1.985809057950973511e-01,-1.230194047093391418e-01,-3.136084973812103271e-01,4.127599298954010010e-01,-4.039970412850379944e-02,-2.403509058058261871e-02,3.639015853404998779e-01,-2.271535247564315796e-01,1.247423514723777771e-01,-7.096932828426361084e-02,1.755769364535808563e-02,-3.510996699333190918e-01,1.151348426938056946e-01,2.209899127483367920e-01,7.604647427797317505e-02,4.265377521514892578e-01,-1.119074821472167969e-01,2.495145350694656372e-01,1.829736679792404175e-01
2.646596431732177734e-01,3.518536090850830078e-01,-4.124324321746826172e-01,3.009182512760162354e-01,2.601939737796783447e-01,3.025844879448413849e-02,3.343303501605987549e-01,2.225696593523025513e-01,-5.953701678663492203e-03,2.446546852588653564e-01,3.927161991596221924e-01,1.036641672253608704e-01,1.818859875202178955e-01,5.371495485305786133e-01,9.332664310932159424e-02,2.184313088655471802e-01,6.868668645620346069e-02,-3.826165571808815002e-02,-1.707975417375564575e-01,2.358394712209701538e-01,-3.373957574367523193e-01,-3.837925195693969727e-01,1.624503433704376221e-01,4.028986990451812744e-01,4.926888272166252136e-02,2.126989364624023438e-01,6.549181938171386719e-01,1.812869459390640259e-01,5.295710265636444092e-02,2.089741379022598267e-01,7.550239562988281250e-02,-2.422622591257095337e-01,-1.727097481489181519e-01,3.931017518043518066e-01,1.312613040208816528e-01,6.582686901092529297e-01,1.956536434590816498e-02,1.202547457069158554e-03,-7.364258170127868652e-02,1.481814086437225342e-01
-2.048316299915313721e-01,1.217428803443908691e+00,-2.998145669698715210e-02,8.729692697525024414e-01,9.944140315055847168e-01,4.554457962512969971e-01,7.295304536819458008e-01,-1.596866399049758911e-01,1.070771645754575729e-02,2.460967600345611572e-01,3.760726153850555420e-01,1.153797209262847900e-01,-1.071406155824661255e-01,2.392006814479827881e-01,6.398700475692749023e-01,2.316034585237503052e-01,1.976174414157867432e-01,-1.664008051156997681e-01,-1.387333571910858154e-01,-7.358907908201217651e-02,2.648698985576629639e-01,8.998407721519470215e-01,1.021485805511474609e+00,5.662967562675476074e-01,4.199619591236114502e-01,9.190930724143981934e-01,7.070755958557128906e-01,3.325120210647583008e-01,2.415189892053604126e-02,4.831682741641998291e-01,1.689499616622924805e-01,3.058744966983795166e-02,1.872809976339340210e-02,-2.279926538467407227e-01,1.055294275283813477e-01,4.787464439868927002e-01,2.502914071083068848e-01,-1.176856830716133118e-01,1.515976190567016602e-01,5.325304865837097168e-01
1.370618492364883423e-01,-1.941769272089004517e-01,4.744518548250198364e-02,3.228417634963989258e-01,2.151607908308506012e-02,-1.077887341380119324e-01,4.779762923717498779e-01,2.723566256463527679e-02,-5.575052499771118164e-01,-1.069657579064369202e-01,4.890398681163787842e-01,1.664177179336547852e-01,-4.955501854419708252e-01,-2.159025520086288452e-01,1.835040748119354248e-01,1.881417781114578247e-01,-2.502034902572631836e-01,-1.343442201614379883e-01,1.615277677774429321e-02,2.420395165681838989e-01,2.759386599063873291e-01,4.736243933439254761e-02,-2.579723596572875977e-01,2.066950052976608276e-01,1.501663625240325928e-01,1.832611709833145142e-01,6.146277189254760742e-01,-4.491001740097999573e-02,4.051670432090759277e-02,-1.621369719505310059e-01,-5.965520069003105164e-02,1.271949522197246552e-02,-5.455216169357299805e-01,5.187473818659782410e-02,-5.867417436093091965e-03,1.128800362348556519e-01,-1.228588819503784180e-01,1.134865805506706238e-01,2.388691008090972900e-01,2.478341162204742432e-01
9.097109735012054443e-02,1.054195165634155273e-01,6.834395974874496460e-02,-2.494015693664550781e-01,-8.605826646089553833e-02,2.201094478368759155e-01,3.791809678077697754e-01,1.475506573915481567e-01,-2.406685240566730499e-02,-3.750089928507804871e-02,-3.208370804786682129e-01,-4.197962582111358643e-02,-2.487700283527374268e-01,2.971976399421691895e-01,-8.274592459201812744e-02,-3.811325877904891968e-02,1.495288908481597900e-01,-1.947478763759136200e-02,7.222730666399002075e-02,3.145087063312530518e-01,-7.809469103813171387e-01,2.298548370599746704e-01,2.809288203716278076e-01,6.868592463433742523e-04,1.534968912601470947e-01,-5.061298981308937073e-02,1.901747845113277435e-02,-3.355844616889953613e-01,-3.175991773605346680e-01,2.894320189952850342e-01,-5.408440828323364258e-01,-4.758150577545166016e-01,1.460006088018417358e-01,-2.506871521472930908e-01,1.630424410104751587e-01,2.426305413246154785e-01,-3.163995146751403809e-01,6.081297993659973145e-01,-1.942951679229736328e-01,-3.484180942177772522e-02
-3.102679550647735596e-02,-4.814742803573608398e-01,2.733664512634277344e-01,1.409072428941726685e-01,2.102655470371246338e-01,-3.778125345706939697e-02,-3.858865201473236084e-01,2.940054237842559814e-01,-2.299717813730239868e-01,-3.055296242237091064e-01,-6.943531334400177002e-02,-4.718554764986038208e-02,3.395103663206100464e-02,-6.979527473449707031e-01,-3.035587668418884277e-01,-1.691046804189682007e-01,5.854909494519233704e-02,5.345502495765686035e-01,2.045856788754463196e-02,-1.974279284477233887e-01,2.008154392242431641e+00,6.544839125126600266e-04,4.759772866964340210e-02,2.722070813179016113e-01,-1.932822465896606445e-01,3.411895632743835449e-01,-1.169884055852890015e-01,2.137093842029571533e-01,-2.138678878545761108e-01,-1.293738931417465210e-01,5.812361463904380798e-02,-3.324802964925765991e-02,1.160077154636383057e-01,-5.338711664080619812e-02,-2.878857254981994629e-01,-1.458285748958587646e-02,1.797141432762145996e-01,-8.315593004226684570e-02,2.355507463216781616e-01,-2.993076145648956299e-01
-2.782905101776123047e-01,5.218533277511596680e-01,3.020118772983551025e-01,2.471361495554447174e-02,-3.398824110627174377e-02,-5.008837580680847168e-01,-2.479758113622665405e-03,-1.193279996514320374e-01,-1.173833664506673813e-02,-1.208480671048164368e-01,1.395777165889739990e-01,-1.141417697072029114e-01,-7.580855488777160645e-02,6.941844224929809570e-01,7.084407657384872437e-02,3.540269732475280762e-01,-4.538880288600921631e-02,-2.624944150447845459e-01,-3.090838156640529633e-02,-8.597769588232040405e-02,-9.697042107582092285e-01,-4.034209251403808594e-02,-4.848490003496408463e-03,-2.471294850111007690e-01,3.872699141502380371e-01,1.824242323637008667e-01,6.665705442428588867e-01,4.211018234491348267e-02,-4.241031706333160400e-01,-8.396499603986740112e-02,9.479727596044540405e-02,3.960049152374267578e-01,-3.626406490802764893e-01,3.572091460227966309e-01,-2.349311858415603638e-02,4.682026058435440063e-02,-2.908558547496795654e-01,-3.952275514602661133e-01,3.417627215385437012e-01,2.196157425642013550e-01
-1.085914596915245056e-01,5.757121741771697998e-02,-1.473103370517492294e-02,-1.568271312862634659e-03,-2.356435358524322510e-01,1.118912100791931152e-01,4.524423778057098389e-01,3.637525066733360291e-02,3.152637779712677002e-01,2.036779522895812988e-01,-9.601849131286144257e-03,1.187891960144042969e-01,-7.510023713111877441e-01,-3.064509332180023193e-01,-9.385705739259719849e-02,-1.346703767776489258e-01,-1.794708669185638428e-01,3.014987409114837646e-01,4.638048410415649414e-01,-5.068152770400047302e-02,4.792427718639373779e-01,2.870049178600311279e-01,-3.000310063362121582e-01,1.704466938972473145e-01,-6.391087174415588379e-01,1.594447791576385498e-01,2.122374922037124634e-01,4.378325641155242920e-01,2.193287163972854614e-01,-3.935813531279563904e-02,2.768419384956359863e-01,-2.641427218914031982e-01,-3.435989916324615479e-01,5.833641886711120605e-01,-1.631582528352737427e-01,-5.584296956658363342e-02,-8.509144186973571777e-02,-2.723239958286285400e-01,-2.606062293052673340e-01,-6.473933905363082886e-02
