3.515286743640899658e-01,4.708330333232879639e-01,5.310418605804443359e-01,6.136927604675292969e-01,5.961692929267883301e-01,5.770244002342224121e-01,5.685905218124389648e-01,4.573554098606109619e-01,2.621816694736480713e-01,1.050172746181488037e-01,3.494064882397651672e-02,-2.586138248443603516e-02,-9.717489778995513916e-02,-1.025210320949554443e-01,-2.946431376039981842e-02,-9.032607823610305786e-02,-9.521475434303283691e-02,-6.413768976926803589e-02,-1.039538085460662842e-01,-6.063954159617424011e-02,-2.963028848171234131e-02,5.500807985663414001e-02,1.062098890542984009e-01,1.162650510668754578e-01,1.508190631866455078e-01,1.301072239875793457e-01,1.992070525884628296e-01,1.494055837392807007e-01,8.821599185466766357e-02,1.170610487461090088e-01,-1.473818272352218628e-01,-3.125896155834197998e-01,-3.665274679660797119e-01,-2.936390936374664307e-01,-2.835215628147125244e-01,-3.759588301181793213e-01,-2.550883293151855469e-01,-1.730050593614578247e-01,-1.458636224269866943e-01,7.687206566333770752e-02,4.057452827692031860e-02,2.466929405927658081e-01,1.611707657575607300e-01,1.381594985723495483e-01,1.379727125167846680e-01,9.913561493158340454e-02,1.197152957320213318e-01,1.685210466384887695e-01,1.718942970037460327e-01,1.372562497854232788e-01,4.934365302324295044e-02,-2.727107889950275421e-02,-3.232626616954803467e-02,-5.459256470203399658e-02,-2.533137798309326172e-02,-6.138412281870841980e-03,4.081782326102256775e-02,2.087701670825481415e-02,2.881251275539398193e-02,-7.267344743013381958e-03
3.606127575039863586e-02,-2.977783605456352234e-02,-8.968783169984817505e-02,9.698056429624557495e-02,2.825317345559597015e-02,-8.501853793859481812e-02,1.254201978445053101e-01,6.399311870336532593e-02,-5.782224610447883606e-02,-3.139712288975715637e-02,-2.176672406494617462e-02,-1.303685903549194336e-01,1.599847078323364258e-01,-1.123906224966049194e-01,1.388518512248992920e-01,1.464436948299407959e-01,-2.545462362468242645e-02,-5.193241313099861145e-02,-2.433797121047973633e-01,-1.823377311229705811e-01,3.218126595020294189e-01,-5.043120682239532471e-02,-2.976818084716796875e-01,2.455333918333053589e-01,1.364150643348693848e-01,-6.504239439964294434e-01,1.149699315428733826e-01,3.611338138580322266e-01,-2.307827174663543701e-01,-3.358276784420013428e-01,-1.929827965795993805e-02,1.104530468583106995e-01,-1.598449796438217163e-02,-1.056922301650047302e-01,1.295884996652603149e-01,-1.214207932353019714e-01,-1.307467073202133179e-01,6.769648939371109009e-02,1.087150722742080688e-01,-1.124676987528800964e-01,3.729064762592315674e-01,-2.421027868986129761e-01,8.747253566980361938e-02,-5.516109243035316467e-02,-1.391341090202331543e-01,-3.031350485980510712e-02,1.304618865251541138e-01,1.453899294137954712e-01,4.680798947811126709e-01,-3.787577152252197266e-01,-2.232565581798553467e-01,5.169612169265747070e-01,-9.513254463672637939e-02,-2.920853197574615479e-01,3.967193663120269775e-01,7.347381114959716797e-01,-7.086312174797058105e-01,3.818975016474723816e-02,4.841035008430480957e-01,8.727493137121200562e-02
5.608436465263366699e-02,4.753590747714042664e-02,2.370653003454208374e-01,-1.654332876205444336e-02,1.007360816001892090e-01,3.566740751266479492e-01,-3.722373545169830322e-01,5.244783163070678711e-01,-2.172589302062988281e-01,9.089257568120956421e-02,2.424113154411315918e-01,-2.342624962329864502e-02,4.977663606405258179e-02,3.176954761147499084e-02,2.410224080085754395e-01,-1.194408442825078964e-02,-9.035737067461013794e-02,5.400916337966918945e-01,-5.341906547546386719e-01,2.191924601793289185e-01,8.245098590850830078e-02,-2.918661832809448242e-01,4.384402036666870117e-01,-3.677746653556823730e-01,2.244327813386917114e-01,1.055320501327514648e-01,-2.720757126808166504e-01,3.328686356544494629e-01,-1.669314503669738770e-01,1.121741607785224915e-01,2.281871065497398376e-02,-1.531538814306259155e-01,4.602449387311935425e-02,4.276277869939804077e-02,-1.527372449636459351e-01,2.150972485542297363e-01,2.106418646872043610e-02,1.631139777600765228e-02,1.335999965667724609e-01,5.303585156798362732e-02,-1.159193962812423706e-01,1.985007375478744507e-01,1.246618777513504028e-01,-1.842522025108337402e-01,1.134318932890892029e-01,2.105012387037277222e-01,-2.444842308759689331e-01,3.328128159046173096e-01,2.332820594310760498e-01,-6.340815126895904541e-02,1.653120517730712891e-01,-1.759448088705539703e-02,1.226367875933647156e-01,-1.827003620564937592e-02,-7.212303578853607178e-02,1.571345925331115723e-01,-4.535881802439689636e-02,7.125430554151535034e-02,7.789397239685058594e-02,-5.439592525362968445e-02
-1.546680033206939697e-01,-2.362632155418395996e-01,-2.279714047908782959e-01,-1.745602190494537354e-01,9.590148180723190308e-02,5.531101021915674210e-03,-1.943490356206893921e-01,-1.543409377336502075e-01,-9.289389103651046753e-02,5.781822279095649719e-02,3.489825427532196045e-01,5.119372010231018066e-01,4.069273769855499268e-01,-5.721227526664733887e-01,-1.818947792053222656e-01,-1.743059009313583374e-01,-1.983501948416233063e-02,1.767806261777877808e-01,2.099983096122741699e-01,2.761364914476871490e-02,-2.775672078132629395e-01,-1.616737693548202515e-01,-8.346708863973617554e-02,1.339297145605087280e-01,2.804678678512573242e-01,3.200942575931549072e-01,1.610951721668243408e-01,2.935192584991455078e-01,1.138359457254409790e-01,5.996594578027725220e-02,5.830847099423408508e-02,2.593061029911041260e-01,2.639672160148620605e-01,2.675213515758514404e-01,9.593645483255386353e-02,-1.027000546455383301e-01,1.509352773427963257e-01,3.022013306617736816e-01,2.321761548519134521e-01,1.293675601482391357e-01,-7.097541540861129761e-02,-3.601184785366058350e-01,-7.958071231842041016e-01,1.162329390645027161e-01,3.795306086540222168e-01,2.881009876728057861e-01,2.357185631990432739e-01,2.996463514864444733e-02,-1.947395056486129761e-01,-2.549048662185668945e-01,2.296634614467620850e-01,2.603867352008819580e-01,2.358687669038772583e-01,-1.177473459392786026e-02,-1.015541180968284607e-01,-3.067205250263214111e-01,-1.851703375577926636e-01,-1.870320141315460205e-01,-2.324796617031097412e-01,-3.056846931576728821e-02
1.459743082523345947e-01,8.952092379331588745e-02,8.024550229310989380e-02,1.552568525075912476e-01,-4.672070033848285675e-03,-3.799032792448997498e-02,-4.519769921898841858e-02,8.016888797283172607e-02,8.089768141508102417e-02,1.935737133026123047e-01,5.135239362716674805e-01,7.223276495933532715e-01,6.065196990966796875e-01,6.564618349075317383e-01,5.864838957786560059e-01,4.177311956882476807e-01,2.919783592224121094e-01,-6.802932173013687134e-02,-1.417619138956069946e-01,-4.390933811664581299e-01,-3.853047490119934082e-01,-3.316892087459564209e-01,-2.185725718736648560e-01,-1.955227106809616089e-01,-1.207052078098058701e-02,-9.922315925359725952e-02,8.721404708921909332e-03,5.091519560664892197e-04,-2.168928273022174835e-02,6.225253641605377197e-02,8.835106343030929565e-02,1.518649458885192871e-01,8.375079929828643799e-02,8.033163845539093018e-02,3.952587395906448364e-02,1.640819609165191650e-01,4.830077663064002991e-02,8.470046520233154297e-02,5.369243025779724121e-02,1.279154606163501740e-02,-2.461124509572982788e-01,8.101288974285125732e-02,-4.998965933918952942e-02,-2.450221478939056396e-01,-2.556912600994110107e-02,3.636259934864938259e-04,1.302030682563781738e-01,1.233922839164733887e-01,1.299271136522293091e-01,2.412373274564743042e-01,1.405560523271560669e-01,2.297126501798629761e-01,2.691223025321960449e-01,2.626028954982757568e-01,2.714101970195770264e-01,2.755802571773529053e-01,2.528560161590576172e-01,2.193283289670944214e-01,1.028628274798393250e-01,1.163483038544654846e-02
3.839458152651786804e-02,-1.083699539303779602e-01,5.819838643074035645e-01,-6.537856459617614746e-01,1.583137810230255127e-01,-2.334665060043334961e-01,-4.548178613185882568e-02,3.481028079986572266e-01,-1.994444243609905243e-02,-1.915467083454132080e-01,3.235769867897033691e-01,-2.393891066312789917e-01,1.903299987316131592e-01,-2.412355244159698486e-01,2.125224769115447998e-01,-2.078638523817062378e-01,2.307797968387603760e-01,-1.437574028968811035e-01,3.026769757270812988e-01,-8.296712487936019897e-02,2.184191346168518066e-01,-1.539336889982223511e-01,2.659082710742950439e-01,3.086232841014862061e-01,-1.260363012552261353e-01,1.855637729167938232e-01,4.492600858211517334e-01,-3.806182444095611572e-01,2.217581272125244141e-01,8.793223649263381958e-02,4.765989184379577637e-01,-5.917620658874511719e-01,4.469915926456451416e-01,1.798011213541030884e-01,-3.458844721317291260e-01,1.969705969095230103e-01,-3.261519670486450195e-01,1.411536633968353271e-01,1.840930134057998657e-01,1.311587393283843994e-01,-2.371815219521522522e-02,2.096697539091110229e-01,2.125783637166023254e-02,-3.976374119520187378e-02,7.957645505666732788e-02,-8.419792354106903076e-02,1.465387791395187378e-01,-2.730224430561065674e-01,9.231956675648689270e-03,-1.086327284574508667e-01,-1.308087352663278580e-02,1.284089386463165283e-01,-1.627114415168762207e-01,1.616842150688171387e-01,4.750180840492248535e-01,-2.885142564773559570e-01,3.198053538799285889e-01,4.329148828983306885e-01,-1.441625654697418213e-01,1.107167899608612061e-01
-3.662334755063056946e-03,8.934833109378814697e-03,-6.187599152326583862e-03,-3.124166047200560570e-03,-4.197674570605158806e-04,-1.060430984944105148e-02,-2.102052792906761169e-02,-2.140663750469684601e-02,-9.113861247897148132e-03,-1.591840013861656189e-02,-1.645661234855651855e+00,-2.350480109453201294e-02,-1.518243271857500076e-02,-2.614730596542358398e-01,-5.911448001861572266e-01,-2.214973792433738708e-02,7.294612005352973938e-03,1.122047659009695053e-02,1.895325025543570518e-03,-8.700091391801834106e-03,-2.746189758181571960e-02,-1.484351754188537598e-01,2.609634830150753260e-04,2.311128424480557442e-03,-7.784532010555267334e-02,7.745873881503939629e-04,-2.224649861454963684e-02,-2.343422546982765198e-02,-1.804428175091743469e-02,-1.146927475929260254e+00,-6.044229026883840561e-03,-4.784164018929004669e-03,9.023495949804782867e-03,4.719892516732215881e-03,1.073043793439865112e-02,2.675418555736541748e-02,3.739798441529273987e-02,8.658247068524360657e-03,-9.793083183467388153e-03,1.643162131309509277e+00,5.664933472871780396e-02,9.312483482062816620e-03,2.535996437072753906e-01,5.904315114021301270e-01,3.686260432004928589e-02,-3.963127674069255590e-04,-2.779188798740506172e-03,4.327589645981788635e-03,1.344642695039510727e-02,3.317439556121826172e-02,1.516398042440414429e-01,3.388140816241502762e-03,-1.156807295046746731e-03,8.808842301368713379e-02,-3.624577075242996216e-04,2.720399200916290283e-02,3.338744118809700012e-02,4.286131821572780609e-03,1.144354462623596191e+00,2.363509312272071838e-02
2.342136949300765991e-02,5.198494717478752136e-02,-1.568797826766967773e-01,2.961806021630764008e-02,2.848906815052032471e-01,-7.590174674987792969e-02,-4.436581209301948547e-02,-1.827353984117507935e-02,8.747586049139499664e-03,5.887569487094879150e-02,5.308271571993827820e-02,2.339144237339496613e-02,-6.683240830898284912e-02,-1.562002003192901611e-01,-1.296729445457458496e-01,-8.561766892671585083e-02,-6.262097973376512527e-03,1.441432535648345947e-01,5.072391033172607422e-02,1.652745455503463745e-01,1.087529398500919342e-02,9.073460847139358521e-02,-8.500637859106063843e-02,-7.169183343648910522e-02,-1.394778639078140259e-01,-4.473463073372840881e-02,2.747504226863384247e-02,1.749007403850555420e-01,4.094887673854827881e-01,-5.368887446820735931e-03,-7.322786003351211548e-02,1.561560928821563721e-01,3.772790431976318359e-01,-4.324295520782470703e-01,2.813348770141601562e-01,1.209864043630659580e-03,1.945505291223526001e-01,-1.140107400715351105e-02,5.867739394307136536e-02,8.239279687404632568e-02,-1.354618114419281483e-03,1.164263635873794556e-01,1.250439137220382690e-01,9.630360454320907593e-02,6.882873177528381348e-02,2.145750075578689575e-01,-1.625680178403854370e-01,2.443891763687133789e-01,-2.208992540836334229e-01,2.298131436109542847e-01,-1.615703999996185303e-01,3.273425698280334473e-01,8.555029332637786865e-02,9.475900232791900635e-02,4.570154249668121338e-01,-2.143056839704513550e-01,5.367836356163024902e-01,-5.208241939544677734e-01,2.430455982685089111e-01,6.443575769662857056e-02
-2.578034065663814545e-02,-2.326088845729827881e-01,1.085548102855682373e-01,1.885342001914978027e-01,-5.896299481391906738e-01,2.478937208652496338e-01,4.807867705821990967e-01,-1.694755107164382935e-01,-7.225545495748519897e-02,1.934309452772140503e-01,3.203857690095901489e-02,4.322962835431098938e-02,-2.980770766735076904e-01,-5.213931202888488770e-02,2.175600230693817139e-01,-3.114964365959167480e-01,8.727988600730895996e-02,1.782516688108444214e-01,-7.021478563547134399e-02,3.321639075875282288e-02,2.049091272056102753e-02,1.936174929141998291e-02,1.071577221155166626e-01,-1.823003962635993958e-02,5.930110067129135132e-02,4.571649804711341858e-02,4.970162361860275269e-02,-8.112501353025436401e-02,4.816621914505958557e-02,1.582212746143341064e-02,2.556120455265045166e-01,1.308996975421905518e-01,-2.586109340190887451e-01,2.139099091291427612e-01,7.157810926437377930e-01,-9.579828381538391113e-01,-2.478606067597866058e-02,3.475854396820068359e-01,-9.980589151382446289e-02,-3.585160896182060242e-02,-1.391139533370733261e-02,1.784541606903076172e-01,3.297410905361175537e-01,-3.819754719734191895e-01,1.632814854383468628e-01,2.246856242418289185e-01,-2.947057783603668213e-01,7.353330403566360474e-02,-3.777002217248082161e-03,-3.958782926201820374e-02,-1.460095983929932117e-03,-4.402296617627143860e-02,4.802161455154418945e-02,3.515775129199028015e-02,6.095704063773155212e-02,-4.980504885315895081e-02,1.781004369258880615e-01,6.575316935777664185e-02,-1.821731775999069214e-02,3.461220115423202515e-02
1.708465516567230225e-01,3.051482141017913818e-02,-1.696055531501770020e-01,3.670107126235961914e-01,2.315137907862663269e-02,1.125803142786026001e-01,-2.302363961935043335e-01,2.892798781394958496e-01,-8.897382766008377075e-02,6.375145167112350464e-02,1.699452996253967285e-01,5.836009979248046875e-01,-3.832566440105438232e-01,4.158416092395782471e-01,3.813168704509735107e-01,-2.674409747123718262e-01,4.345540404319763184e-01,-3.434413969516754150e-01,1.155887842178344727e-01,-2.285913974046707153e-01,-2.365532815456390381e-01,1.149469893425703049e-02,-4.133814480155706406e-03,-3.133959174156188965e-01,2.400907874107360840e-01,-3.071567714214324951e-01,2.550825774669647217e-01,-3.838245272636413574e-01,2.855969965457916260e-01,-1.061937510967254639e-01,2.236949652433395386e-02,1.607500612735748291e-01,2.635945752263069153e-02,-1.010055318474769592e-01,9.931638091802597046e-02,2.655739486217498779e-01,1.194935590028762817e-01,1.735785305500030518e-01,6.542683695442974567e-05,1.202423796057701111e-01,-3.463927805423736572e-01,3.242058753967285156e-01,1.931259483098983765e-01,-2.974237799644470215e-01,3.032078146934509277e-01,4.938769340515136719e-02,3.372611701488494873e-01,2.312279194593429565e-01,2.077414989471435547e-01,1.804409474134445190e-01,1.016971543431282043e-01,-4.987178742885589600e-02,2.313330536708235741e-03,-1.227598190307617188e-01,-6.916970759630203247e-02,-8.181943744421005249e-02,2.854305505752563477e-02,1.188907176256179810e-01,-1.148824766278266907e-01,6.001779809594154358e-02
-6.581341847777366638e-03,-1.311231497675180435e-02,-5.426919832825660706e-02,-1.636363565921783447e-01,-1.716042906045913696e-01,1.245137900114059448e-01,9.265179187059402466e-02,-7.431104034185409546e-02,-1.206526458263397217e-01,-1.175187826156616211e-01,-6.512168794870376587e-02,7.844615727663040161e-02,2.170610725879669189e-01,-1.577289104461669922e-01,-1.200655996799468994e-01,1.930499970912933350e-01,-1.145952567458152771e-01,-2.594962418079376221e-01,8.864498883485794067e-02,-1.541281938552856445e-01,-2.353651225566864014e-01,1.988251060247421265e-01,-1.347543895244598389e-01,-8.951408267021179199e-01,2.459031045436859131e-01,4.862057790160179138e-02,-5.435298196971416473e-03,-2.608533203601837158e-01,-1.355052739381790161e-01,4.097746685147285461e-02,4.580607265233993530e-02,6.954782456159591675e-02,1.621182858943939209e-01,2.549619972705841064e-01,-8.339175581932067871e-02,-1.912616491317749023e-01,1.002677828073501587e-01,2.004018127918243408e-01,1.383186578750610352e-01,1.266909241676330566e-01,3.575099259614944458e-02,-2.540636062622070312e-01,8.267238736152648926e-02,2.652661204338073730e-01,-1.256979405879974365e-01,-1.077138166874647141e-02,3.899214565753936768e-01,-1.033982355147600174e-02,5.708465725183486938e-02,4.260432124137878418e-01,-2.126479893922805786e-01,-9.271492809057235718e-02,9.289491176605224609e-01,-1.586516797542572021e-01,-1.955883055925369263e-01,-1.371624972671270370e-02,2.301986515522003174e-01,2.905415594577789307e-01,-5.155975744128227234e-02,2.966671623289585114e-02
2.055338174104690552e-01,1.220651566982269287e-01,3.104385435581207275e-01,9.081193804740905762e-02,3.497366607189178467e-01,-1.218484938144683838e-01,3.802330493927001953e-01,1.269962042570114136e-01,2.830204181373119354e-02,2.269594520330429077e-01,1.328977197408676147e-01,2.293280363082885742e-01,1.197209283709526062e-01,1.383314132690429688e-01,3.434633910655975342e-01,-1.036339849233627319e-01,5.613515973091125488e-01,-1.340971738100051880e-01,1.399491876363754272e-01,3.173060417175292969e-01,-4.203756153583526611e-01,5.835314393043518066e-01,-2.921490073204040527e-01,4.624651670455932617e-01,-1.823091655969619751e-01,4.290053844451904297e-01,-2.878410518169403076e-01,6.256181001663208008e-01,-4.061352014541625977e-01,2.484773397445678711e-01,2.871403470635414124e-02,-2.753928117454051971e-02,-5.320940911769866943e-02,4.656760767102241516e-02,5.067574977874755859e-02,2.796761691570281982e-02,2.116841971874237061e-01,1.187725067138671875e-01,2.643486112356185913e-02,2.811337113380432129e-01,-4.077104106545448303e-02,3.807728886604309082e-01,-3.297162055969238281e-02,-2.179617621004581451e-02,2.311735153198242188e-01,-5.611700192093849182e-02,1.793208867311477661e-01,2.730363011360168457e-01,-1.432477682828903198e-01,2.129339277744293213e-01,1.621352136135101318e-01,1.533048003911972046e-01,-6.884876172989606857e-03,1.439163684844970703e-01,-3.522029519081115723e-02,2.224795967340469360e-01,-2.756484597921371460e-02,2.038973271846771240e-01,1.811222583055496216e-01,6.763240089640021324e-04
1.526585519313812256e-01,1.780239790678024292e-01,3.829949200153350830e-01,4.439082145690917969e-01,2.611185237765312195e-02,-5.565182566642761230e-01,-1.940437853336334229e-01,1.388896107673645020e-01,4.280968308448791504e-01,3.831682503223419189e-01,3.737114667892456055e-01,3.335168361663818359e-01,2.064600735902786255e-01,-4.404296353459358215e-02,-6.823642551898956299e-02,-1.910133361816406250e-01,-1.565246433019638062e-01,-1.434235274791717529e-01,1.124228909611701965e-01,2.424998432397842407e-01,2.680694162845611572e-01,1.296385377645492554e-01,1.636802218854427338e-02,8.727677166461944580e-02,5.332098156213760376e-02,-1.208770424127578735e-01,-1.115751415491104126e-01,-2.695690393447875977e-01,-2.571926414966583252e-01,-8.951979875564575195e-02,8.795844763517379761e-02,-1.125880852341651917e-01,-1.709611266851425171e-01,-5.496876835823059082e-01,-6.185805201530456543e-01,2.982963323593139648e-01,3.905693292617797852e-01,2.018631845712661743e-01,-1.682052016258239746e-01,-3.200166821479797363e-01,-2.936239838600158691e-01,-3.339849710464477539e-01,-2.501411437988281250e-01,-7.646888494491577148e-02,1.217344030737876892e-01,1.664178222417831421e-01,2.428710013628005981e-01,1.112115681171417236e-01,9.532991051673889160e-02,-1.490909010171890259e-01,-2.876155972480773926e-01,-1.871333569288253784e-01,-2.320893481373786926e-02,-5.424127355217933655e-02,-5.028038844466209412e-02,6.864809989929199219e-02,3.074608743190765381e-01,3.289480507373809814e-01,3.483637869358062744e-01,2.396745532751083374e-01
1.343758683651685715e-02,4.755251575261354446e-03,-5.036985129117965698e-02,-3.121276153251528740e-03,-2.708632126450538635e-02,5.893558263778686523e-02,1.129159554839134216e-01,4.723893012851476669e-03,1.831921003758907318e-02,-3.976827487349510193e-02,5.102497339248657227e-02,3.984864056110382080e-02,8.105646818876266479e-02,1.372023671865463257e-01,2.997058629989624023e-01,3.900657296180725098e-01,4.588372409343719482e-01,5.133428573608398438e-01,4.874969124794006348e-01,4.259986877441406250e-01,4.238972365856170654e-01,3.811756968498229980e-01,2.878837883472442627e-01,1.806226670742034912e-01,1.120558679103851318e-01,2.741866745054721832e-02,-7.092198356986045837e-03,-2.147044427692890167e-02,-3.143680468201637268e-02,1.577040366828441620e-02,1.228530257940292358e-01,3.400014340877532959e-02,4.949170351028442383e-02,3.455258905887603760e-02,7.473097741603851318e-02,8.728223852813243866e-03,6.166125461459159851e-02,6.409553438425064087e-02,6.199862807989120483e-02,1.921592801809310913e-01,7.131586968898773193e-02,1.410448849201202393e-01,4.297006875276565552e-02,-1.498816069215536118e-02,-7.562383264303207397e-02,-2.498505562543869019e-01,-2.765419483184814453e-01,-2.877955436706542969e-01,-3.584398627281188965e-01,-2.764899134635925293e-01,-2.081180512905120850e-01,-1.462758928537368774e-01,-1.380279362201690674e-01,-1.626800149679183960e-01,-3.978297114372253418e-02,-6.411732640117406845e-03,9.320132434368133545e-02,1.825817227363586426e-01,1.697679609060287476e-01,5.510273948311805725e-02
7.855087518692016602e-02,2.192775905132293701e-02,1.418820023536682129e-01,3.515046089887619019e-02,1.261817365884780884e-01,-4.994908347725868225e-02,1.239168122410774231e-01,8.661818504333496094e-02,9.729327633976936340e-03,4.903518781065940857e-02,9.395194798707962036e-02,9.747730940580368042e-02,1.233982071280479431e-01,4.300728812813758850e-02,1.665401458740234375e-01,8.612100966274738312e-03,6.630863249301910400e-02,-3.624748066067695618e-02,-9.323342819698154926e-04,-1.065361648797988892e-01,9.331454336643218994e-02,-1.267223209142684937e-01,-8.696369826793670654e-02,-1.233835071325302124e-01,-9.009582549333572388e-02,-1.797692775726318359e-01,5.354651808738708496e-02,-7.170407567173242569e-03,-5.298602208495140076e-02,2.695287112146615982e-03,1.006974745541810989e-02,4.868819192051887512e-02,1.367257209494709969e-03,-1.934835910797119141e-01,-2.947698831558227539e-01,-3.361693620681762695e-01,-1.621540784835815430e-01,-1.482406258583068848e-01,4.475322365760803223e-02,-2.162891626358032227e-02,7.731083035469055176e-02,-8.974446915090084076e-03,1.876153610646724701e-02,-1.567070186138153076e-01,-1.123049333691596985e-01,-1.216003969311714172e-01,-1.809566915035247803e-01,-1.808804422616958618e-01,-1.839084364473819733e-02,-1.403047442436218262e-01,2.696658074855804443e-01,3.222899436950683594e-01,5.133100748062133789e-01,7.194839715957641602e-01,8.505933284759521484e-01,7.153053879737854004e-01,7.413629293441772461e-01,4.675474762916564941e-01,3.360980451107025146e-01,1.831560581922531128e-01
8.555311709642410278e-02,3.546160161495208740e-01,-2.123562395572662354e-01,5.850915908813476562e-01,-2.854204475879669189e-01,2.680478692054748535e-01,2.029926925897598267e-01,-1.810122132301330566e-01,6.338436603546142578e-01,-4.815351068973541260e-01,4.479855597019195557e-01,-1.087908744812011719e-01,2.406244575977325439e-01,1.110083684325218201e-01,1.123746559023857117e-01,3.231667578220367432e-01,4.819897189736366272e-02,2.546411156654357910e-01,7.494139671325683594e-02,1.091137900948524475e-01,2.392797172069549561e-01,5.245843902230262756e-02,2.004692852497100830e-01,2.817555963993072510e-01,2.060636430978775024e-01,5.703726410865783691e-02,3.800102770328521729e-01,-7.091788575053215027e-03,1.524692326784133911e-01,8.395412564277648926e-02,2.923118509352207184e-02,7.183991372585296631e-02,-4.146753251552581787e-02,5.250340327620506287e-04,-4.287214577198028564e-02,5.049916729331016541e-02,2.046211361885070801e-01,6.363238394260406494e-02,1.048712283372879028e-01,1.277361363172531128e-01,7.834301143884658813e-02,2.053501307964324951e-01,-3.401978313922882080e-02,8.670834451913833618e-02,8.720453828573226929e-02,-6.762310862541198730e-02,-6.289735436439514160e-02,3.515936434268951416e-02,-3.306336700916290283e-02,1.764854229986667633e-02,4.611454159021377563e-02,6.540340185165405273e-02,3.082922659814357758e-02,1.626688800752162933e-02,9.454406052827835083e-02,4.833505675196647644e-02,3.139453828334808350e-01,5.501550808548927307e-02,2.650436758995056152e-01,9.725275635719299316e-02
3.837923705577850342e-01,-6.228591799736022949e-01,1.791542172431945801e-01,1.207652464509010315e-01,-1.016257330775260925e-01,6.943131238222122192e-02,-1.211917400360107422e-01,2.545399665832519531e-01,-4.317361116409301758e-01,2.802600562572479248e-01,9.533043950796127319e-02,6.419923901557922363e-02,-5.935154855251312256e-03,3.202084898948669434e-01,-3.692635297775268555e-01,5.727656483650207520e-01,-7.004009485244750977e-01,2.191473990678787231e-01,8.541744947433471680e-02,-2.480227798223495483e-01,-1.004524179734289646e-03,1.079274043440818787e-01,-2.868106663227081299e-01,1.874665021896362305e-01,-2.495531439781188965e-01,1.368434131145477295e-01,-1.470623537898063660e-02,-1.938898414373397827e-01,6.600840389728546143e-02,8.980436623096466064e-02,3.980653285980224609e-01,2.684891819953918457e-01,-1.456507444381713867e-01,8.311753720045089722e-02,1.471550166606903076e-01,1.489927619695663452e-01,-3.931575641036033630e-02,3.136263489723205566e-01,3.399695456027984619e-02,-1.804811358451843262e-01,-1.071676835417747498e-01,2.356364764273166656e-02,-1.225114241242408752e-01,2.012652307748794556e-01,-1.954084485769271851e-01,3.449617922306060791e-01,3.379074931144714355e-01,-1.702010184526443481e-01,1.923150122165679932e-01,2.171277999877929688e-01,-1.415461897850036621e-01,1.624869853258132935e-01,-6.161850690841674805e-02,3.830029815435409546e-02,2.971137873828411102e-02,-9.857082366943359375e-02,2.293773889541625977e-01,6.486888974905014038e-02,-1.409553438425064087e-01,-4.811752587556838989e-02
-1.353241354227066040e-01,-2.901312112808227539e-01,1.314407214522361755e-02,-1.612180024385452271e-01,-1.169567406177520752e-01,-8.627360314130783081e-02,-2.064730674028396606e-01,-1.731224805116653442e-01,4.859361350536346436e-01,2.553194463253021240e-01,-7.419052720069885254e-02,-1.949552148580551147e-01,1.391037106513977051e-01,1.336553245782852173e-01,-4.530995618551969528e-03,-1.589394956827163696e-01,-2.251489758491516113e-01,-7.565315067768096924e-02,2.224973402917385101e-02,-5.413011834025382996e-02,-3.597483783960342407e-02,8.738191798329353333e-03,-4.221968352794647217e-02,-5.512360855937004089e-02,6.244608387351036072e-02,-1.719049811363220215e-01,-2.702228128910064697e-01,-1.558037400245666504e-01,-2.390982024371623993e-02,-1.041925176978111267e-01,5.101376175880432129e-01,-1.394700109958648682e-01,2.047442793846130371e-01,7.100075483322143555e-02,2.524985373020172119e-01,-2.966382540762424469e-02,6.412250399589538574e-01,-6.472705602645874023e-01,-3.163339197635650635e-01,6.689430028200149536e-02,3.169828057289123535e-01,-5.972674582153558731e-03,-1.231152266263961792e-01,6.562685966491699219e-02,2.006132304668426514e-01,2.833091616630554199e-01,1.930101960897445679e-01,1.133726164698600769e-02,9.634397923946380615e-02,-2.330359630286693573e-02,1.299281418323516846e-01,-1.142671853303909302e-01,3.266660273075103760e-01,-1.925325542688369751e-01,1.700047552585601807e-01,2.442706674337387085e-01,1.892941743135452271e-01,5.601958557963371277e-02,1.150125339627265930e-01,6.278309971094131470e-02
6.577182561159133911e-02,-1.481355726718902588e-01,-6.561031341552734375e-01,-7.021865993738174438e-02,-4.183439537882804871e-03,-2.398783415555953979e-01,-1.690709739923477173e-01,6.787356734275817871e-02,-1.137040257453918457e-01,-1.932035386562347412e-01,1.330461800098419189e-01,2.818617410957813263e-02,-5.439932942390441895e-01,-3.673761785030364990e-01,-1.497578918933868408e-01,-6.481233239173889160e-02,-3.312259912490844727e-01,-6.102370098233222961e-02,1.262933760881423950e-01,1.006760001182556152e-01,7.134913653135299683e-02,-4.807242006063461304e-02,-1.751176416873931885e-01,-1.132081076502799988e-01,-9.287210553884506226e-02,-2.064945697784423828e-01,-2.222259640693664551e-01,-6.031596064567565918e-01,-7.120901346206665039e-01,3.554780408740043640e-02,-3.328343108296394348e-02,7.038582563400268555e-01,2.282339930534362793e-01,-5.600099451839923859e-03,1.758866608142852783e-01,2.830384671688079834e-01,-7.682606577873229980e-02,5.057337880134582520e-02,3.001555502414703369e-01,-1.552360597997903824e-02,-1.164543479681015015e-01,5.149775743484497070e-01,4.482816159725189209e-01,2.977389097213745117e-01,6.535259634256362915e-02,3.584299981594085693e-01,2.174920141696929932e-01,-8.536222577095031738e-02,-1.544218510389328003e-01,-1.393908709287643433e-01,1.731311203911900520e-03,2.024292200803756714e-01,1.978879272937774658e-01,1.560431122779846191e-01,2.672443687915802002e-01,2.238920331001281738e-01,5.619078278541564941e-01,9.310206174850463867e-01,6.468583643436431885e-02,4.497682303190231323e-02
1.510730236768722534e-01,2.390987128019332886e-01,-8.549905032850801945e-05,4.280113056302070618e-02,1.723881512880325317e-01,-1.577143520116806030e-01,5.307114124298095703e-02,3.070897050201892853e-02,4.867056012153625488e-02,2.761904001235961914e-01,7.428000867366790771e-02,1.702166646718978882e-01,-1.998707465827465057e-02,-1.052463799715042114e-01,-1.673094928264617920e-01,-1.203060671687126160e-01,-1.465769261121749878e-01,-4.104704409837722778e-02,4.497721046209335327e-02,1.372155547142028809e-01,2.826487720012664795e-01,-3.726421296596527100e-02,2.473928481340408325e-01,-4.929140210151672363e-02,-1.078836806118488312e-02,-1.058700028806924820e-03,2.938917875289916992e-01,1.614924371242523193e-01,1.498014181852340698e-01,1.958360373973846436e-01,-2.814341783523559570e-01,3.842939734458923340e-01,6.537059694528579712e-02,-1.131621561944484711e-02,8.573956042528152466e-02,-5.066954717040061951e-02,1.202267259359359741e-01,1.830723136663436890e-01,-1.843581795692443848e-01,3.266012072563171387e-01,-4.316931217908859253e-02,2.949730455875396729e-01,4.245048388838768005e-02,2.529321014881134033e-01,7.970730215311050415e-02,3.074885308742523193e-01,2.017455399036407471e-01,-1.864666342735290527e-01,6.466221213340759277e-01,-8.067421317100524902e-01,7.327657341957092285e-01,-3.345516920089721680e-01,3.596238493919372559e-01,1.732831597328186035e-01,3.492619395256042480e-01,1.836576461791992188e-01,1.253724843263626099e-02,3.122374117374420166e-01,-7.584361732006072998e-02,1.254981011152267456e-01
