-1.176802292466163635e-01,-1.245857179164886475e-01,4.683210551738739014e-01,-3.984501659870147705e-01,8.287761211395263672e-01,4.631353318691253662e-01,2.734330296516418457e-01,4.291477501392364502e-01,-2.647873163223266602e-01,-4.917623940855264664e-03,-7.986702956259250641e-03,1.646679788827896118e-01,1.332962810993194580e-01,-1.931294649839401245e-01,2.429019510746002197e-01,-2.769968807697296143e-01,1.338569819927215576e-01,1.292965263128280640e-01,-2.045787125825881958e-01,5.096774697303771973e-01
2.597610652446746826e-01,3.865397870540618896e-01,1.016605257987976074e+00,5.367711931467056274e-02,1.233372092247009277e+00,1.063682556152343750e+00,9.757338091731071472e-03,5.269122123718261719e-01,1.370140165090560913e-01,1.195681020617485046e-01,-5.922571197152137756e-02,-1.748027354478836060e-01,2.314341962337493896e-01,7.646427955478429794e-03,6.062313914299011230e-01,-6.130877137184143066e-01,-2.184625118970870972e-01,-2.120636105537414551e-01,-6.555229192599654198e-04,1.134464979171752930e+00
-7.876374572515487671e-02,3.432724252343177795e-02,1.006127223372459412e-01,-1.978884637355804443e-01,-1.620847880840301514e-01,-2.699013948440551758e-01,-1.638277433812618256e-02,-1.811985224485397339e-01,1.965700276196002960e-02,-5.514504909515380859e-01,-2.090703248977661133e-01,1.443283408880233765e-01,7.332654297351837158e-02,-5.135862231254577637e-01,-7.187723368406295776e-02,1.816497445106506348e-01,1.100052967667579651e-01,5.288123339414596558e-02,-1.191938668489456177e-01,-2.861994206905364990e-01
-4.516383409500122070e-01,4.177792072296142578e-01,6.752122193574905396e-02,3.764159381389617920e-01,2.832048535346984863e-01,-4.154665395617485046e-02,-1.788950413465499878e-01,-1.895459741353988647e-02,1.757794469594955444e-01,6.877212971448898315e-02,-1.961675137281417847e-01,2.649016380310058594e-01,-8.933551609516143799e-02,-3.437308967113494873e-01,1.237371340394020081e-01,-4.335813596844673157e-02,-1.009744703769683838e-01,-1.098962351679801941e-01,1.215223446488380432e-01,-1.075872480869293213e-01
-1.508473455905914307e-01,4.626468718051910400e-01,-4.674007371068000793e-02,1.967489123344421387e-01,-2.064688354730606079e-01,-4.927660897374153137e-02,2.794881463050842285e-01,-2.451015412807464600e-01,4.527899995446205139e-02,3.029717206954956055e-01,1.401501744985580444e-01,-4.000924900174140930e-02,-3.764297813177108765e-02,-6.451066732406616211e-01,-1.179586648941040039e-01,2.397387474775314331e-01,-9.044246375560760498e-02,-6.597725301980972290e-02,3.204841911792755127e-02,8.040932565927505493e-02
-2.295889556407928467e-01,-8.527327328920364380e-02,-3.073302209377288818e-01,-8.301631547510623932e-03,-8.356104046106338501e-02,3.440173566341400146e-01,2.928882651031017303e-02,5.472308769822120667e-02,-6.306207925081253052e-02,-5.429850518703460693e-02,-1.554110944271087646e-01,4.665718078613281250e-01,-1.936810910701751709e-01,3.381902873516082764e-01,-1.504622399806976318e-01,-1.582433283329010010e-01,1.986391991376876831e-01,1.315953880548477173e-01,9.553216514177620411e-04,-9.861316531896591187e-02
1.502941921353340149e-02,-2.163595855236053467e-01,-4.950959682464599609e-01,2.326204031705856323e-01,8.878166973590850830e-02,1.715104132890701294e-01,-1.801394820213317871e-01,-2.063371539115905762e-01,4.214549064636230469e-01,-2.398040294647216797e-01,-1.536710411310195923e-01,4.212470352649688721e-01,1.038723587989807129e-01,1.525910794734954834e-01,1.479243785142898560e-01,-9.625932574272155762e-02,1.732902675867080688e-01,-5.753386765718460083e-02,6.601044442504644394e-03,-4.395089671015739441e-02
9.734099358320236206e-02,-3.853014707565307617e-01,-1.202815622091293335e-01,8.463025838136672974e-02,-7.509968280792236328e-01,-5.700923800468444824e-01,-1.055079922080039978e-01,-2.004220038652420044e-01,-2.704240083694458008e-01,2.758267223834991455e-01,-1.621748656034469604e-01,8.199483156204223633e-02,-1.213379725813865662e-01,1.536710113286972046e-01,-7.692359685897827148e-01,1.428208649158477783e-01,-1.153388917446136475e-01,-3.426989912986755371e-01,-1.373793333768844604e-01,-5.756093263626098633e-01
-1.967637687921524048e-01,-1.759153157472610474e-01,2.578806281089782715e-01,7.090746760368347168e-01,9.425217658281326294e-02,1.830011755228042603e-01,-4.195598959922790527e-01,2.019426673650741577e-01,4.086408317089080811e-01,-2.454793825745582581e-02,-6.428133845329284668e-01,-2.061084061861038208e-01,-3.263887763023376465e-01,-3.467470407485961914e-01,3.994738459587097168e-01,1.781055778264999390e-01,1.542930118739604950e-02,-3.164025396108627319e-02,2.621008455753326416e-01,6.595164537429809570e-02
2.238787710666656494e-02,1.237846314907073975e-01,-4.353312253952026367e-01,-4.403493702411651611e-01,-1.825255900621414185e-01,-2.466552257537841797e-01,5.949880555272102356e-02,-8.680485934019088745e-02,1.675561964511871338e-01,-1.255398392677307129e-01,9.630440175533294678e-02,-4.103779420256614685e-02,-1.712932288646697998e-01,1.212820783257484436e-01,-3.794320821762084961e-01,2.373032085597515106e-02,-5.974304303526878357e-02,3.894824385643005371e-01,3.868905007839202881e-01,-4.163085818290710449e-01
4.496076330542564392e-02,2.040965408086776733e-01,-1.882498115301132202e-01,2.932509779930114746e-02,-8.248972147703170776e-02,-5.532154813408851624e-02,-5.385655760765075684e-01,-1.290967166423797607e-01,1.260563284158706665e-01,-3.943226337432861328e-01,3.580541312694549561e-01,-2.057250738143920898e-01,4.942489266395568848e-01,-5.862754583358764648e-02,4.481032192707061768e-01,1.557026505470275879e-01,-1.937449164688587189e-02,-8.904635161161422729e-02,2.253490500152111053e-02,-5.093923583626747131e-02
-2.859895229339599609e-01,-1.378574073314666748e-01,-4.788684472441673279e-02,1.398978233337402344e-01,-1.861509680747985840e-01,1.489762123674154282e-02,2.405318766832351685e-01,-6.182076781988143921e-02,1.571474671363830566e-01,5.629256740212440491e-02,-2.174696475267410278e-01,2.638338208198547363e-01,-3.107685446739196777e-01,-3.830216825008392334e-01,-2.217351645231246948e-01,-1.602235585451126099e-01,-1.856801536632701755e-04,2.114960700273513794e-01,8.195796608924865723e-02,2.049017995595932007e-01
3.704660236835479736e-01,-3.202944099903106689e-01,7.763323932886123657e-02,2.124946564435958862e-01,-2.101449072360992432e-01,-1.782605051994323730e-01,-1.770870834589004517e-01,8.145359903573989868e-02,-5.000997707247734070e-02,-1.796361245214939117e-02,-2.087634652853012085e-01,1.511924415826797485e-01,2.104612290859222412e-01,1.993287205696105957e-01,3.411545157432556152e-01,-2.195667102932929993e-02,3.867233991622924805e-01,-7.638454437255859375e-02,-4.269246160984039307e-01,-1.042373664677143097e-02
-2.232133448123931885e-01,-2.279250621795654297e-01,-6.413529515266418457e-01,-9.530339390039443970e-02,-6.722091436386108398e-01,-3.390274047851562500e-01,-1.428034305572509766e-01,-4.131458401679992676e-01,-8.667858690023422241e-02,-2.270068675279617310e-01,4.711352661252021790e-02,2.120458185672760010e-01,-2.707965672016143799e-01,2.321372777223587036e-01,-2.651275396347045898e-01,1.753923296928405762e-01,-3.123390376567840576e-01,1.883749365806579590e-01,-2.587877810001373291e-01,-7.403559237718582153e-02
5.386404991149902344e-01,-4.382022321224212646e-01,9.220589697360992432e-02,6.000803038477897644e-02,6.065371260046958923e-02,-4.032627344131469727e-01,2.503681778907775879e-01,-4.982170835137367249e-02,1.720927953720092773e-01,4.045176506042480469e-01,-6.552572548389434814e-02,-1.770272552967071533e-01,1.299272179603576660e-01,-9.199260920286178589e-02,-1.859822571277618408e-01,-7.329052686691284180e-02,6.016277521848678589e-02,-1.026549376547336578e-02,1.140041947364807129e-01,2.293523699045181274e-01
-1.678963005542755127e-01,-2.062254846096038818e-01,1.557122915983200073e-01,6.780376192182302475e-03,3.160313367843627930e-01,-4.005310125648975372e-03,1.659262031316757202e-01,1.106743216514587402e-01,-1.332776844501495361e-01,-1.449665613472461700e-02,-1.430398039519786835e-02,-2.537051588296890259e-02,-5.913793668150901794e-02,-1.845526844263076782e-01,3.742459416389465332e-01,-3.150286078453063965e-01,-1.098792999982833862e-02,7.326892018318176270e-02,-2.807869911193847656e-01,-1.149953976273536682e-01
2.464908175170421600e-02,3.325431644916534424e-01,5.532444715499877930e-01,9.673194587230682373e-02,7.630974799394607544e-02,1.773605793714523315e-01,6.634946912527084351e-02,2.462018132209777832e-01,-1.922434717416763306e-01,1.327440440654754639e-01,-2.124284803867340088e-01,7.073482871055603027e-02,4.064956605434417725e-01,-1.892143338918685913e-01,-1.383415702730417252e-02,7.160121202468872070e-02,3.601406812667846680e-01,-4.014025628566741943e-01,-4.773870483040809631e-02,-9.973055869340896606e-02
-2.144586294889450073e-01,2.427358180284500122e-01,-1.796198040246963501e-01,5.521003603935241699e-01,2.445082962512969971e-01,1.619653105735778809e-01,-1.020699143409729004e-01,-1.157394275069236755e-01,-8.913964778184890747e-02,6.890119314193725586e-01,-2.396846264600753784e-01,1.365752965211868286e-01,-3.522123098373413086e-01,1.664338260889053345e-01,-7.092726230621337891e-02,2.812007665634155273e-01,-5.000084638595581055e-02,-1.471614688634872437e-01,4.636251181364059448e-02,-1.600612848997116089e-01
-1.390970647335052490e-01,-4.369813948869705200e-02,3.765975534915924072e-01,4.197607561945915222e-02,-1.518537700176239014e-01,2.690299451351165771e-01,4.750799015164375305e-02,1.613912284374237061e-01,-5.024348497390747070e-01,3.022826611995697021e-01,2.270267456769943237e-01,-1.486400216817855835e-01,2.504665851593017578e-01,-5.679152533411979675e-02,2.644538581371307373e-01,-2.654257416725158691e-01,5.435367114841938019e-03,-8.909745514392852783e-02,-5.309556722640991211e-01,3.361231684684753418e-01
5.033551901578903198e-02,-2.519048750400543213e-02,-6.945276260375976562e-01,4.353055357933044434e-01,-2.637124955654144287e-01,-4.717918932437896729e-01,5.286528542637825012e-02,8.899715542793273926e-02,-1.213007718324661255e-01,3.056088387966156006e-01,-2.527122497558593750e-01,-1.269683539867401123e-01,5.468172952532768250e-02,4.048788249492645264e-01,-6.116356849670410156e-01,5.732074379920959473e-02,-4.289278984069824219e-01,-1.647199541330337524e-01,-4.610272645950317383e-01,-1.304524578154087067e-02
