1.050768569111824036e-01,-3.775999546051025391e-01,-2.248540669679641724e-01,-1.916775107383728027e-01,-2.576361298561096191e-01,-1.479628533124923706e-01,-6.079936400055885315e-02,1.076489686965942383e-01,1.467267237603664398e-02,-2.353366911411285400e-01,7.190476171672344208e-03,5.222240462899208069e-02,-2.083644121885299683e-01,-2.706779837608337402e-01,-2.018325328826904297e-01,6.073991060256958008e-01,3.051075935363769531e-01,-8.991111069917678833e-02,1.534425169229507446e-01,4.590268731117248535e-01
2.718051075935363770e-01,3.761619627475738525e-01,9.676253050565719604e-02,-1.669736653566360474e-01,-1.466267406940460205e-01,-1.301975846290588379e-01,-2.296951040625572205e-02,6.327237486839294434e-01,2.791747748851776123e-01,-5.959656834602355957e-02,-2.059398442506790161e-01,-2.731609046459197998e-01,2.886042743921279907e-02,-2.918508052825927734e-01,-2.548126578330993652e-01,4.057057085447013378e-04,-3.814725577831268311e-02,-4.516834318637847900e-01,-4.541046619415283203e-01,1.039337888360023499e-01
2.460305690765380859e-01,7.766602188348770142e-02,2.356483489274978638e-01,4.565511345863342285e-01,1.313970386981964111e-01,-4.524704217910766602e-01,6.555481255054473877e-02,2.009247243404388428e-01,-4.785117208957672119e-01,-1.959158629179000854e-01,4.104440808296203613e-01,1.708459407091140747e-01,-1.419076025485992432e-01,-3.628649935126304626e-02,-4.057710245251655579e-02,1.688161939382553101e-01,-1.081893891096115112e-01,-9.496463090181350708e-02,4.578943848609924316e-01,1.597082167863845825e-01
-5.712757259607315063e-02,-1.848434954881668091e-01,9.185743331909179688e-02,-4.218772519379854202e-03,7.623888552188873291e-02,-2.407531738281250000e-01,9.348528832197189331e-02,2.162070274353027344e-01,8.274865336716175079e-03,-1.524867266416549683e-01,-1.104763522744178772e-01,3.635947108268737793e-01,-6.494622826576232910e-01,-5.900325253605842590e-03,-2.775738835334777832e-01,-4.746708646416664124e-02,-4.354288280010223389e-01,-1.657632440328598022e-01,-2.569298744201660156e-01,-2.922552824020385742e-01
1.640478819608688354e-01,3.191944062709808350e-01,2.024814039468765259e-01,9.498530067503452301e-03,9.927061200141906738e-02,2.454239726066589355e-01,-4.184817373752593994e-01,3.470533490180969238e-01,-1.052169203758239746e-01,3.398908078670501709e-01,8.799698948860168457e-02,1.110576912760734558e-01,-5.732045769691467285e-01,2.492650747299194336e-01,-5.596047639846801758e-01,3.713237047195434570e-01,6.301566362380981445e-01,-4.264060854911804199e-01,2.664982676506042480e-01,-2.373387962579727173e-01
5.947443470358848572e-02,-2.327331006526947021e-01,1.810403913259506226e-01,2.910789251327514648e-01,-1.404189765453338623e-01,-7.717785891145467758e-03,-9.064520150423049927e-02,-1.610054075717926025e-01,-7.570085674524307251e-02,1.327269822359085083e-01,1.686172634363174438e-01,-2.681917250156402588e-01,-1.766644120216369629e-01,3.900215625762939453e-01,9.899041056632995605e-02,-3.416293114423751831e-02,-6.369233131408691406e-02,-4.227228760719299316e-01,3.682602941989898682e-02,-4.676260799169540405e-02
-8.190717548131942749e-02,-4.518320038914680481e-02,5.220979452133178711e-02,2.732287943363189697e-01,1.785123348236083984e-02,-2.945872843265533447e-01,1.950182914733886719e-01,-3.278460353612899780e-02,1.331579834222793579e-01,1.115075424313545227e-01,1.441237181425094604e-01,-6.939855217933654785e-02,9.360033087432384491e-03,3.544777631759643555e-01,1.403668820858001709e-01,-3.109975159168243408e-01,3.024655580520629883e-02,-1.294282227754592896e-01,2.435718625783920288e-01,1.646207869052886963e-01
-4.156224727630615234e-01,1.012231111526489258e-01,2.466809451580047607e-01,3.147147968411445618e-02,1.294109523296356201e-01,6.693197414278984070e-03,2.284212112426757812e-01,-4.684452340006828308e-02,3.884456679224967957e-02,2.131446599960327148e-01,9.967498481273651123e-02,-1.340917348861694336e-01,2.854875102639198303e-02,8.288680762052536011e-02,3.524442911148071289e-01,-4.996937885880470276e-02,-7.572021335363388062e-02,9.728421270847320557e-02,5.636716634035110474e-02,2.139393091201782227e-01
5.412988662719726562e-01,4.969343170523643494e-02,-4.055327177047729492e-01,-1.498135477304458618e-01,-2.230065464973449707e-01,3.497840464115142822e-01,-4.836609363555908203e-01,1.266067177057266235e-01,1.740405410528182983e-01,3.600974753499031067e-02,-8.438002318143844604e-02,-1.456891298294067383e-01,-1.732686534523963928e-02,-1.303988248109817505e-01,3.223484456539154053e-01,2.288450598716735840e-01,-2.853293903172016144e-02,-2.389305382966995239e-01,4.168944433331489563e-02,1.286111623048782349e-01
-7.736232876777648926e-02,4.179475605487823486e-01,6.773620098829269409e-02,1.013188250362873077e-02,-4.158347249031066895e-01,2.196163237094879150e-01,-2.072950303554534912e-01,4.263785779476165771e-01,-1.984448581933975220e-01,2.028257101774215698e-01,3.238826990127563477e-01,-1.997420638799667358e-01,2.806289792060852051e-01,-1.994529217481613159e-01,3.323732018470764160e-01,6.041856110095977783e-02,-1.852195113897323608e-01,-1.226967871189117432e-01,4.855054989457130432e-02,-2.223493605852127075e-01
1.738235168159008026e-02,3.563002124428749084e-02,-1.603400856256484985e-01,-2.627933919429779053e-01,2.496381402015686035e-01,9.440392255783081055e-02,1.546674072742462158e-01,-7.074226438999176025e-02,-9.518223255872726440e-02,-1.240734532475471497e-01,1.000727154314517975e-02,-1.628964543342590332e-01,-3.912051618099212646e-01,3.123480379581451416e-01,9.048765897750854492e-02,-1.922281980514526367e-01,-3.566643968224525452e-02,1.240678597241640091e-02,5.080218911170959473e-01,7.143135368824005127e-02
2.710123658180236816e-01,3.325071334838867188e-01,-1.815088540315628052e-01,-2.795654237270355225e-01,-1.379149854183197021e-01,1.756391823291778564e-01,1.887297183275222778e-01,-2.785389721393585205e-01,-1.694644391536712646e-01,2.411877363920211792e-01,-1.027801483869552612e-01,-3.546988368034362793e-01,7.828548550605773926e-02,-4.896387830376625061e-02,-4.042847454547882080e-02,-4.218601882457733154e-01,-2.444366961717605591e-01,-2.020053565502166748e-01,-2.930268347263336182e-01,5.323702096939086914e-01
-1.033084392547607422e-01,4.169700145721435547e-01,5.486653186380863190e-03,4.169690981507301331e-02,1.343950070440769196e-02,1.734263002872467041e-01,4.451871514320373535e-01,1.427544653415679932e-01,3.186288755387067795e-03,-2.226125895977020264e-01,-1.393471211194992065e-01,-4.407089576125144958e-02,-2.076220214366912842e-01,7.599409669637680054e-02,-1.346275061368942261e-01,-8.048824220895767212e-02,1.186343431472778320e-01,-3.005818724632263184e-01,3.523696959018707275e-01,-2.930332422256469727e-01
1.728578507900238037e-01,5.503558088093996048e-03,7.227270305156707764e-02,3.098208010196685791e-01,-1.403339505195617676e-01,1.707534193992614746e-01,1.365778297185897827e-01,9.502396732568740845e-02,7.563059031963348389e-02,-1.079170778393745422e-02,-1.128461882472038269e-01,6.876412034034729004e-02,8.447353728115558624e-03,1.011603176593780518e-01,-4.421928524971008301e-01,1.867993772029876709e-01,-2.853953465819358826e-02,-2.469176501035690308e-01,4.731435328722000122e-03,-5.320262908935546875e-02
1.499778926372528076e-01,1.082341745495796204e-01,6.466271281242370605e-01,4.997188225388526917e-02,-8.425965905189514160e-03,-2.404735237360000610e-01,4.532241821289062500e-01,9.056486189365386963e-02,2.781570255756378174e-01,-9.704666584730148315e-02,-3.408769369125366211e-01,1.126770451664924622e-01,1.156603917479515076e-01,3.285600244998931885e-02,-1.286404430866241455e-01,-1.268157660961151123e-01,-8.121640980243682861e-02,1.149319559335708618e-01,5.024665594100952148e-02,1.735766083002090454e-01
3.648524358868598938e-02,-1.230288669466972351e-01,-1.177323907613754272e-01,-1.809538006782531738e-01,1.003131195902824402e-01,-6.401887536048889160e-02,9.945740550756454468e-02,1.020545363426208496e-01,-1.351434439420700073e-01,1.139592081308364868e-01,-3.196438848972320557e-01,6.737525016069412231e-02,-2.697926461696624756e-01,3.117924183607101440e-02,-1.655993610620498657e-01,-3.440237343311309814e-01,3.509726524353027344e-01,2.905970513820648193e-01,-6.089309602975845337e-02,-4.242048561573028564e-01
1.131428554654121399e-01,1.656308621168136597e-01,-1.286890357732772827e-01,-2.193851470947265625e-01,2.236955612897872925e-01,4.507385566830635071e-02,-1.598415821790695190e-01,-1.572458297014236450e-01,2.773116528987884521e-01,-8.521118760108947754e-01,2.635669708251953125e-01,-3.609567182138562202e-03,2.509043812751770020e-01,-6.720689125359058380e-03,-2.319348305463790894e-01,-4.647904261946678162e-02,2.807691693305969238e-03,-2.572289109230041504e-01,1.973236799240112305e-01,7.565809879451990128e-03
7.793205380439758301e-01,-2.308174222707748413e-01,1.756210923194885254e-01,-1.941136866807937622e-01,-3.928155452013015747e-02,3.238524496555328369e-01,-1.345723569393157959e-01,2.672239243984222412e-01,-4.008588194847106934e-01,4.312667250633239746e-02,6.510252356529235840e-01,-5.002625286579132080e-02,1.267305165529251099e-01,1.421685367822647095e-01,-9.035985171794891357e-02,-1.385071873664855957e-01,-6.458046287298202515e-02,-3.237744420766830444e-02,1.836950331926345825e-01,-3.821502029895782471e-01
-1.624352931976318359e-01,2.327051460742950439e-01,-4.788260161876678467e-02,-1.415823400020599365e-01,9.836905635893344879e-03,-2.960903942584991455e-01,1.796489208936691284e-02,-4.341448470950126648e-02,3.838697075843811035e-02,-1.874483525753021240e-01,6.585779041051864624e-02,-1.349527835845947266e-01,-5.766410827636718750e-01,-2.556602060794830322e-01,-6.423000097274780273e-01,7.077793776988983154e-02,5.197319388389587402e-02,-4.049998819828033447e-01,8.037287741899490356e-02,1.886719763278961182e-01
-2.315310239791870117e-01,1.414245367050170898e-01,-2.707492746412754059e-02,4.317639172077178955e-01,-1.117007657885551453e-01,-7.628549635410308838e-02,4.420044273138046265e-02,-4.034953415393829346e-01,-2.970860898494720459e-01,-1.680589020252227783e-01,-3.507274687290191650e-01,-1.744481027126312256e-01,-5.859415605664253235e-02,-2.294627130031585693e-01,-3.759001567959785461e-02,3.509922921657562256e-01,1.407246738672256470e-01,3.164334595203399658e-01,-2.388499826192855835e-01,-4.526640847325325012e-02
