-4.267735481262207031e-01,1.732571423053741455e-01,-3.387161716818809509e-02,-4.180259108543395996e-01,1.393500864505767822e-01,-5.026220083236694336e-01,-9.472624212503433228e-02,2.522600591182708740e-01,8.677280545234680176e-01,4.290946759283542633e-03,-2.607850432395935059e-01,-1.550358533859252930e-01,4.491725564002990723e-02,1.352352648973464966e-01,-2.553565204143524170e-01,4.757945239543914795e-02
-2.160851806402206421e-01,9.454850852489471436e-02,1.166350170969963074e-01,5.884683132171630859e-02,1.579501628875732422e-01,-2.799429893493652344e-01,3.273056447505950928e-01,7.108616083860397339e-02,-3.084770739078521729e-01,-5.841482877731323242e-01,-1.779754608869552612e-01,-2.714706063270568848e-01,1.423215568065643311e-01,4.315914958715438843e-02,-1.274090707302093506e-01,1.314112097024917603e-01
-1.207875907421112061e-01,-1.323038525879383087e-02,-2.452556602656841278e-02,-2.356936782598495483e-01,-1.488590687513351440e-01,1.232204288244247437e-01,4.718089476227760315e-02,-8.462648838758468628e-02,-1.443514972925186157e-01,-1.956593394279479980e-01,1.581806838512420654e-01,2.694724798202514648e-01,3.020814359188079834e-01,-3.999133706092834473e-01,9.748107939958572388e-02,-5.708320140838623047e-01
-2.695252299308776855e-01,-1.038402765989303589e-01,1.309105455875396729e-01,8.699983358383178711e-02,2.613665163516998291e-01,1.274546831846237183e-01,-4.757761657238006592e-01,2.166910767555236816e-01,-1.860457509756088257e-01,-2.067999988794326782e-01,1.749646812677383423e-01,4.277452826499938965e-02,-1.185564398765563965e-01,1.013316512107849121e-01,9.650360792875289917e-03,-1.778441220521926880e-01
1.380702704191207886e-01,-5.749615430831909180e-01,2.712195813655853271e-01,-3.415784537792205811e-01,-1.380179375410079956e-01,6.475922465324401855e-02,3.111428916454315186e-01,-1.129996683448553085e-02,4.406570196151733398e-01,7.263431698083877563e-02,7.159904390573501587e-02,1.172249987721443176e-01,-7.191819697618484497e-02,1.643442809581756592e-01,6.171199679374694824e-01,-1.239699348807334900e-01
