-9.448087657801806927e-04,3.582596778869628906e-01,4.610785841941833496e-01,-9.549854695796966553e-02,-6.644875556230545044e-02,-4.751627147197723389e-02,-2.898743152618408203e-01,-5.984172597527503967e-02,2.112248092889785767e-01,1.539318263530731201e-01,-1.380552351474761963e-01,1.207507178187370300e-01,-1.732393354177474976e-01,-1.393328160047531128e-01,3.866608440876007080e-01,-1.483000535517930984e-02,-8.982879668474197388e-02,-8.461366593837738037e-02,-1.492923498153686523e-01,-3.421579301357269287e-01
-2.247081845998764038e-01,4.099528491497039795e-02,2.083691358566284180e-01,1.470858603715896606e-01,-3.771165311336517334e-01,4.579445719718933105e-02,5.108273401856422424e-02,-2.704787254333496094e-01,-4.259764403104782104e-02,-4.389583691954612732e-02,-3.039869666099548340e-01,4.057938456535339355e-01,-2.568598985671997070e-01,-3.834792971611022949e-02,-3.533085286617279053e-01,3.753971755504608154e-01,-3.903774023056030273e-01,2.459811866283416748e-01,2.301300466060638428e-01,2.414794415235519409e-01
3.233014941215515137e-01,-1.420329362154006958e-01,1.639301478862762451e-01,-2.381892353296279907e-01,1.690405309200286865e-01,1.452778279781341553e-01,3.280647397041320801e-01,1.774655729532241821e-01,-5.743416771292686462e-02,1.548518538475036621e-01,-2.304269932210445404e-02,1.847592368721961975e-02,-1.500228196382522583e-01,1.786830425262451172e-01,-2.149365246295928955e-01,-4.631927907466888428e-01,-3.839566409587860107e-01,3.184286504983901978e-02,-9.947659820318222046e-02,-1.089443266391754150e-01
-1.454635113477706909e-01,-2.777526974678039551e-01,-6.875743716955184937e-02,3.243244886398315430e-01,1.337900608777999878e-01,-9.092748910188674927e-02,-8.712640032172203064e-03,-2.673597931861877441e-01,-1.894253655336797237e-03,-2.491300180554389954e-02,7.340447604656219482e-02,-2.493487894535064697e-01,-2.000893354415893555e-01,1.191799640655517578e-01,-2.974354475736618042e-02,9.390866011381149292e-02,1.992372423410415649e-01,3.315168917179107666e-01,5.303533077239990234e-01,1.943412572145462036e-01
-1.917163096368312836e-02,-2.199188321828842163e-01,-3.228233158588409424e-01,-4.364789128303527832e-01,1.456439048051834106e-01,7.698447257280349731e-02,-3.020628988742828369e-01,3.836869001388549805e-01,3.346643447875976562e-01,-5.241292119026184082e-01,-3.177755475044250488e-01,-5.861814618110656738e-01,-1.103575602173805237e-01,1.586737632751464844e-01,-3.345793783664703369e-01,-1.265765875577926636e-01,-6.953163146972656250e-01,-4.863607883453369141e-01,-1.321622580289840698e-01,-9.404730051755905151e-02
-1.281715780496597290e-01,-3.146038055419921875e-01,3.175387978553771973e-01,-5.365135148167610168e-02,3.858223184943199158e-02,2.245015949010848999e-01,3.176764249801635742e-01,1.121217235922813416e-01,2.720391154289245605e-01,1.891168951988220215e-01,-5.114178732037544250e-02,-1.746520549058914185e-01,2.096254229545593262e-01,7.282691448926925659e-02,-4.348000884056091309e-02,9.913198649883270264e-02,-2.811447158455848694e-02,3.205565810203552246e-01,2.583054602146148682e-01,-3.457147479057312012e-01
6.316609680652618408e-02,-1.418080776929855347e-01,-1.759876310825347900e-01,-4.935348778963088989e-02,5.054972171783447266e-01,-1.325563527643680573e-03,2.384102195501327515e-01,-3.823966681957244873e-01,2.625891864299774170e-01,1.483740508556365967e-01,5.146657228469848633e-01,2.785812020301818848e-01,-6.423021852970123291e-02,-2.348205000162124634e-01,1.692750304937362671e-01,2.673955857753753662e-01,2.704333141446113586e-02,-1.006891652941703796e-01,-2.577273249626159668e-01,-4.278810694813728333e-02
-2.607574453577399254e-03,6.311882287263870239e-02,-5.620279163122177124e-02,2.617965936660766602e-01,-3.319686278700828552e-02,-2.404251992702484131e-01,-1.017189174890518188e-01,-1.556870490312576294e-01,4.790710508823394775e-01,6.739172339439392090e-01,-1.469438076019287109e-01,2.445275038480758667e-01,2.943754792213439941e-01,-3.874695003032684326e-01,-2.840160131454467773e-01,1.873493194580078125e-01,1.627751290798187256e-01,-1.331158280372619629e-01,3.005914092063903809e-01,-3.691242774948477745e-03
-1.897453516721725464e-01,-1.905580759048461914e-01,4.393590241670608521e-02,2.697466686367988586e-02,1.610023230314254761e-01,-9.709823131561279297e-02,-6.161688268184661865e-02,7.481319457292556763e-02,-4.131999239325523376e-02,-3.641846030950546265e-02,9.331850707530975342e-02,3.935501873493194580e-01,-3.709360361099243164e-01,-2.836960554122924805e-01,4.302840530872344971e-01,1.172614563256502151e-02,-4.193203449249267578e-01,2.679722011089324951e-01,-3.291596174240112305e-01,1.991855353116989136e-01
-6.986163556575775146e-02,4.531395435333251953e-02,7.916324585676193237e-02,2.112163007259368896e-01,-3.483909964561462402e-01,-1.962488330900669098e-02,-5.367455482482910156e-01,-2.513680756092071533e-01,-2.797513008117675781e-01,1.687852144241333008e-01,1.659113764762878418e-01,-5.319840088486671448e-02,1.688466817140579224e-01,3.625055551528930664e-01,3.628397285938262939e-01,4.593558236956596375e-02,-3.142173588275909424e-01,-1.213615387678146362e-02,-2.618863880634307861e-01,5.147992968559265137e-01
4.802566021680831909e-02,1.946706473827362061e-01,1.575866490602493286e-01,3.278652429580688477e-01,2.202218621969223022e-01,-1.153554487973451614e-02,1.384080201387405396e-01,5.959090963006019592e-02,-3.136780112981796265e-02,-3.120804131031036377e-01,9.962623566389083862e-02,2.832444310188293457e-01,-5.154672637581825256e-02,-1.044260784983634949e-01,8.910711854696273804e-02,-2.058524042367935181e-01,2.773050367832183838e-01,9.110242128372192383e-02,-3.470725119113922119e-01,-1.417324692010879517e-01
-1.101717799901962280e-01,2.510487735271453857e-01,-1.450281292200088501e-01,-3.222796833142638206e-03,1.429890692234039307e-01,1.688003540039062500e-01,-1.355445683002471924e-01,1.463399380445480347e-01,-8.596200495958328247e-02,-5.780871957540512085e-02,9.646659344434738159e-02,-7.990115880966186523e-02,-9.345638006925582886e-02,5.009195804595947266e-01,-2.521931231021881104e-01,-3.094237744808197021e-01,1.878648549318313599e-01,3.378403484821319580e-01,1.675750166177749634e-01,6.991087645292282104e-02
-1.026113554835319519e-01,-3.151251673698425293e-01,1.351739466190338135e-01,6.872586160898208618e-02,-1.465402245521545410e-01,-3.594478070735931396e-01,2.161390632390975952e-01,1.495797336101531982e-01,5.049580931663513184e-01,1.011094301939010620e-01,-7.371427118778228760e-02,1.544291228055953979e-01,3.951810300350189209e-01,-9.474560618400573730e-03,3.591389581561088562e-02,3.433911874890327454e-02,7.207632809877395630e-02,9.699572622776031494e-02,4.202112555503845215e-02,3.303333222866058350e-01
-4.803983867168426514e-01,-4.942763969302177429e-02,-4.998619854450225830e-02,4.670610651373863220e-02,-2.513269186019897461e-01,-1.130531653761863708e-01,3.494158983230590820e-01,3.039048239588737488e-02,5.415874347090721130e-02,-5.271172896027565002e-02,-9.578137099742889404e-02,2.560120224952697754e-01,-4.256888851523399353e-02,3.147416114807128906e-01,2.651850506663322449e-02,-2.563270032405853271e-01,-1.463558617979288101e-02,-1.775388866662979126e-01,2.863378822803497314e-01,2.661057710647583008e-01
3.772892802953720093e-02,-1.091113779693841934e-02,-1.669033169746398926e-01,2.329053431749343872e-01,2.515096664428710938e-01,-4.118060171604156494e-01,2.561571002006530762e-01,7.180129643529653549e-03,-4.296294748783111572e-01,-1.879254579544067383e-01,-1.295381039381027222e-01,2.307395935058593750e-01,5.529993176460266113e-01,1.222458556294441223e-01,-1.928565055131912231e-01,-7.049524039030075073e-02,2.997380197048187256e-01,-2.026934921741485596e-01,-2.864679992198944092e-01,1.214574575424194336e-01
8.803905546665191650e-02,3.213775455951690674e-01,-2.550661861896514893e-01,3.289808630943298340e-01,3.319927752017974854e-01,3.869057446718215942e-02,-2.040227949619293213e-01,-2.563093602657318115e-01,-1.563906371593475342e-01,3.157167136669158936e-02,3.098378479480743408e-01,6.499959528446197510e-02,-3.075730055570602417e-03,-2.056959457695484161e-02,4.126172661781311035e-01,1.406251192092895508e-01,-5.848415940999984741e-02,1.116070449352264404e-01,-5.975106954574584961e-01,1.110615059733390808e-01
2.399504780769348145e-01,5.858265757560729980e-01,2.242051512002944946e-01,-3.202058970928192139e-01,3.539218902587890625e-01,7.427436113357543945e-02,-1.925539970397949219e-01,1.541972458362579346e-01,1.509490013122558594e-01,-7.622269541025161743e-02,3.508992791175842285e-01,1.434519141912460327e-01,1.656941324472427368e-01,2.178270220756530762e-01,-1.996410191059112549e-01,-2.771053230389952660e-03,8.503201603889465332e-02,4.213379323482513428e-02,-1.870607137680053711e-01,-5.559724569320678711e-01
-3.963653743267059326e-01,4.794527888298034668e-01,2.966606616973876953e-01,-2.346135079860687256e-01,-3.218991681933403015e-03,-9.252041578292846680e-02,8.427668362855911255e-02,-1.419402509927749634e-01,-1.559037864208221436e-01,-1.392192244529724121e-01,-1.035677865147590637e-01,-6.849083583801984787e-03,2.972481250762939453e-01,-1.914558261632919312e-01,-3.533261716365814209e-01,3.161924332380294800e-02,-4.411990940570831299e-02,-1.894488334655761719e-01,8.286531269550323486e-02,1.643552780151367188e-01
-1.376147866249084473e-01,1.454924494028091431e-01,1.974959522485733032e-01,-1.881944201886653900e-02,1.709713190793991089e-01,4.639155417680740356e-02,3.051946461200714111e-01,-4.717315733432769775e-02,-2.148067355155944824e-01,-2.893872857093811035e-01,3.343031704425811768e-01,-1.178120747208595276e-01,1.782786697149276733e-01,-2.086141854524612427e-01,-4.198196530342102051e-02,-5.481461808085441589e-02,-6.267400085926055908e-02,2.758421599864959717e-01,8.580920100212097168e-02,3.993642330169677734e-01
6.566171348094940186e-02,3.179771900177001953e-01,2.864951193332672119e-01,3.238849639892578125e-01,-2.657739222049713135e-01,3.699615970253944397e-02,3.963549435138702393e-01,-2.526755332946777344e-01,7.760962843894958496e-02,-4.778645634651184082e-01,2.710446119308471680e-01,-2.217179862782359123e-03,1.048739999532699585e-01,3.514140248298645020e-01,2.461153119802474976e-01,-1.091033592820167542e-01,6.669684052467346191e-01,-5.579850636422634125e-03,1.194711551070213318e-01,-7.681526988744735718e-02
