2.507186830043792725e-01,2.106918990612030029e-01,4.810898751020431519e-02,4.059222713112831116e-02,-2.314860820770263672e-01,3.945837020874023438e-01,3.135009109973907471e-01,2.083794958889484406e-02,3.012675940990447998e-01,1.524862945079803467e-01,3.846456110477447510e-01,4.184838533401489258e-01,-3.086751103401184082e-01,1.321486383676528931e-01,-2.086196392774581909e-01,-1.743681877851486206e-01,3.749137818813323975e-01,9.051185846328735352e-02,5.585765466094017029e-02,-2.327665537595748901e-01
-2.561399340629577637e-01,-1.300259530544281006e-01,5.003645420074462891e-01,1.299679875373840332e-01,-4.337101802229881287e-02,-3.442253768444061279e-01,-9.424195438623428345e-02,8.314032107591629028e-02,2.905062139034271240e-01,-2.087501287460327148e-01,-2.958823442459106445e-01,-2.562900185585021973e-01,1.824203431606292725e-01,-1.440498679876327515e-01,-1.009772345423698425e-01,2.744387648999691010e-02,-2.362543046474456787e-01,1.154487282037734985e-01,-2.530156672000885010e-01,2.632768154144287109e-01
1.461406648159027100e-01,-2.303416579961776733e-01,-6.135870516300201416e-02,4.339023232460021973e-01,1.217203494161367416e-02,6.680100411176681519e-02,-1.247806027531623840e-01,-3.269542455673217773e-01,-1.977862976491451263e-02,-1.149394921958446503e-02,6.717670559883117676e-01,-1.495375037193298340e-01,-3.213130533695220947e-01,3.508303463459014893e-01,1.666714549064636230e-01,-1.487840414047241211e-01,-2.213317900896072388e-01,2.928002476692199707e-01,1.163031235337257385e-01,2.561099529266357422e-01
1.408737599849700928e-01,-2.432747334241867065e-01,6.521998047828674316e-01,5.152011662721633911e-02,3.640991151332855225e-01,2.066279500722885132e-01,1.865458488464355469e-01,-1.901344954967498779e-01,2.304089963436126709e-01,-6.423287093639373779e-02,5.198296308517456055e-01,-3.128321468830108643e-01,-2.064023166894912720e-01,4.131266102194786072e-02,2.597470395267009735e-02,-4.603623449802398682e-01,-5.894147977232933044e-02,1.556294783949851990e-02,-3.986231088638305664e-01,-2.994881942868232727e-02
3.350330293178558350e-01,-7.554266601800918579e-02,1.058768779039382935e-01,-1.740251928567886353e-01,8.330310881137847900e-02,-1.533834040164947510e-01,1.730634272098541260e-01,-3.510867357254028320e-01,-3.561757132411003113e-02,-7.589111477136611938e-02,-2.526685893535614014e-01,-1.465442180633544922e-01,6.837525963783264160e-02,-4.373500868678092957e-02,-2.573271691799163818e-01,4.767324924468994141e-01,9.430845826864242554e-02,-3.734688798431307077e-04,2.424201965332031250e-01,5.297248959541320801e-01
-1.858696490526199341e-01,1.565882563591003418e-02,-2.827844321727752686e-01,1.573411822319030762e-01,5.192095041275024414e-01,5.661493912339210510e-02,-6.925007700920104980e-01,3.927495703101158142e-02,-1.954503357410430908e-01,2.055889815092086792e-01,-2.843632102012634277e-01,1.086531504988670349e-01,1.551164090633392334e-01,1.014563664793968201e-01,-1.320746839046478271e-01,-2.925129830837249756e-01,-1.178237944841384888e-01,-2.079790234565734863e-01,8.929967880249023438e-02,-3.668068945407867432e-01
-1.001437306404113770e-01,4.498863220214843750e-01,-1.916754990816116333e-01,-2.124950587749481201e-01,-4.357691854238510132e-03,2.809393107891082764e-01,-1.757136285305023193e-01,1.968131512403488159e-01,2.436537891626358032e-01,-9.009183943271636963e-02,1.219061762094497681e-01,-4.138485342264175415e-02,-1.306993663311004639e-01,3.643758296966552734e-01,3.628723323345184326e-02,-1.865059286355972290e-01,-5.787636637687683105e-01,1.368820853531360626e-02,-9.240724891424179077e-02,6.628837436437606812e-02
-2.439815253019332886e-01,2.823635041713714600e-01,8.578781783580780029e-02,2.411711513996124268e-01,2.922835946083068848e-01,1.085245311260223389e-01,3.100588172674179077e-02,5.056156218051910400e-02,2.326004356145858765e-01,-3.808790743350982666e-01,6.554632782936096191e-01,-3.674568831920623779e-01,1.009333506226539612e-01,-9.313592687249183655e-03,-4.106611311435699463e-01,6.413190159946680069e-03,-1.639942824840545654e-01,-7.494511455297470093e-02,-2.689316868782043457e-02,3.599213659763336182e-01
-1.115369573235511780e-01,1.168883591890335083e-01,2.233876883983612061e-01,-4.344461560249328613e-01,1.348624657839536667e-02,-3.389309346675872803e-01,1.311303973197937012e-01,-1.340780109167098999e-01,1.178563982248306274e-01,-5.027548074722290039e-01,-1.788779161870479584e-02,-2.101285159587860107e-01,2.150673419237136841e-01,1.072914227843284607e-01,2.725771963596343994e-01,2.195325642824172974e-01,3.929368555545806885e-01,1.046066451817750931e-02,-1.872331202030181885e-01,6.506372243165969849e-02
-4.220827482640743256e-03,-5.688808858394622803e-02,-9.652502834796905518e-02,3.143237233161926270e-01,-4.584141671657562256e-01,3.381494581699371338e-01,-8.863180875778198242e-02,-1.025327295064926147e-01,5.340232849121093750e-01,-2.686799764633178711e-01,5.432472005486488342e-02,-4.935031235218048096e-01,-8.265296369791030884e-02,4.461543858051300049e-01,2.338895574212074280e-02,-4.261800646781921387e-02,1.507373005151748657e-01,-1.618838869035243988e-02,-2.787286043167114258e-01,-2.458529770374298096e-01
1.247523054480552673e-01,-9.175550937652587891e-02,-5.150801315903663635e-02,1.920400536619126797e-03,-2.857515821233391762e-03,2.923057973384857178e-01,-4.971248097717761993e-03,9.809293597936630249e-02,-1.163566708564758301e-01,1.628623753786087036e-01,-9.923982620239257812e-02,-2.829249948263168335e-03,8.710064576007425785e-04,2.041902542114257812e-01,6.754537224769592285e-01,2.369611710309982300e-01,1.406297236680984497e-01,8.845846354961395264e-02,-1.562336236238479614e-01,7.402036339044570923e-02
3.391058444976806641e-01,-1.870865561068058014e-02,-1.742201447486877441e-01,-1.193031072616577148e-01,-3.635178133845329285e-02,-2.892403602600097656e-01,8.444876968860626221e-02,5.274548530578613281e-01,-4.007239341735839844e-01,-1.330354064702987671e-01,-1.687123775482177734e-01,-4.230030253529548645e-02,1.323439776897430420e-01,-3.026451468467712402e-01,-3.553484007716178894e-02,-2.055422030389308929e-02,5.945063382387161255e-02,3.497181832790374756e-02,-5.195068567991256714e-02,1.578737944364547729e-01
1.317045539617538452e-01,8.945906162261962891e-02,-5.490507557988166809e-02,5.210122466087341309e-02,-2.744329571723937988e-01,1.694451570510864258e-01,-2.208379805088043213e-01,3.112721443176269531e-01,-2.593157589435577393e-01,-6.260146200656890869e-02,2.285079956054687500e-01,-1.462015323340892792e-02,6.151540949940681458e-02,3.934729099273681641e-02,-1.901569403707981110e-02,-3.826316073536872864e-02,1.979622989892959595e-01,-3.824283480644226074e-01,1.024085134267807007e-01,-3.891027271747589111e-01
1.500388830900192261e-01,2.028449177742004395e-01,-7.689315825700759888e-02,-2.923105359077453613e-01,-5.569874495267868042e-02,-4.529420137405395508e-01,-3.703433871269226074e-01,-2.964808940887451172e-01,-2.260593175888061523e-01,-1.690078824758529663e-01,-1.582052558660507202e-01,1.358790248632431030e-01,9.879542887210845947e-02,-5.186918973922729492e-01,-1.115162000060081482e-01,2.219668328762054443e-01,3.114392794668674469e-02,-1.912277936935424805e-01,-1.835146695375442505e-01,9.373393654823303223e-02
-2.066604346036911011e-01,1.210797056555747986e-01,-4.705509915947914124e-02,-6.610435992479324341e-02,-6.813456118106842041e-02,-2.154689729213714600e-01,-4.448658227920532227e-01,3.800388872623443604e-01,1.869945377111434937e-01,-3.004162609577178955e-01,-1.677997410297393799e-01,-2.814024090766906738e-01,2.650904059410095215e-01,2.414408326148986816e-01,-2.282241284847259521e-01,-1.836935803294181824e-02,1.400754153728485107e-01,2.611022591590881348e-01,3.620708286762237549e-01,-1.508071273565292358e-01
1.445013731718063354e-01,5.589863061904907227e-01,-1.962325423955917358e-01,1.188585348427295685e-02,-1.917020380496978760e-01,2.532923594117164612e-02,-1.249699890613555908e-01,-2.799698710441589355e-01,-4.664837419986724854e-01,5.945155620574951172e-01,2.511187493801116943e-01,2.259987145662307739e-01,-3.711600899696350098e-01,-4.179103299975395203e-02,1.725794672966003418e-01,-1.673734039068222046e-01,1.355371177196502686e-01,-1.481516063213348389e-01,-3.463617861270904541e-01,-3.996175248175859451e-03
1.316918283700942993e-01,-1.006349101662635803e-01,2.055621147155761719e-01,2.728949300944805145e-02,9.215311706066131592e-02,2.732193842530250549e-02,-2.019922733306884766e-01,-3.620516657829284668e-01,1.132846027612686157e-01,-4.844966828823089600e-01,1.322617530822753906e-01,-1.165053695440292358e-01,-4.065776467323303223e-01,-1.019937824457883835e-02,1.767240464687347412e-01,4.057150706648826599e-02,4.817945957183837891e-01,-1.266507059335708618e-01,-4.123701900243759155e-02,-3.843863308429718018e-02
3.335677832365036011e-02,-3.591085597872734070e-02,-1.673652976751327515e-01,-1.637265086174011230e-02,-2.498639822006225586e-01,-1.983047425746917725e-01,8.485359698534011841e-02,3.369443714618682861e-01,3.606945574283599854e-01,-2.032464928925037384e-02,-2.756821364164352417e-02,2.131888270378112793e-01,-1.032186001539230347e-01,-6.565432250499725342e-02,5.463568568229675293e-01,2.276659607887268066e-01,-1.095504909753799438e-01,3.031511306762695312e-01,2.778325378894805908e-01,2.353852242231369019e-01
-4.523495733737945557e-01,1.821026653051376343e-01,-1.591218113899230957e-01,1.106760799884796143e-01,-1.561919786036014557e-02,-1.093584075570106506e-01,-1.839756667613983154e-01,-5.415558815002441406e-01,-1.182261854410171509e-01,-6.789585202932357788e-02,-2.085092961788177490e-01,2.226947396993637085e-01,-1.629071980714797974e-01,7.088940590620040894e-02,6.412360817193984985e-02,7.961065322160720825e-02,-1.705464422702789307e-01,4.588155448436737061e-01,-2.774305045604705811e-01,1.927090287208557129e-01
3.471509814262390137e-01,3.005702234804630280e-02,2.148863375186920166e-01,-3.172295391559600830e-01,1.099888980388641357e-01,9.750000387430191040e-02,-1.285212934017181396e-01,-1.729763746261596680e-01,-3.236189186573028564e-01,2.633203864097595215e-01,1.307213455438613892e-01,3.130852244794368744e-03,-3.619235157966613770e-01,-1.022493019700050354e-01,7.728044688701629639e-02,1.588121801614761353e-02,-1.912478059530258179e-01,-1.318859905004501343e-01,1.481088697910308838e-01,-1.076221838593482971e-02
