6.167436242103576660e-01,-6.995223760604858398e-01,-6.102981567382812500e-01,1.568780690431594849e-01,-5.585350394248962402e-01,5.761933326721191406e-01,4.492773413658142090e-01,6.184705495834350586e-01,2.308334261178970337e-01,9.196220040321350098e-01
8.970510363578796387e-01,-7.365080714225769043e-01,-5.353174805641174316e-01,5.662412047386169434e-01,-6.523949503898620605e-01,8.203815221786499023e-01,1.837849169969558716e-01,8.038389086723327637e-01,9.774861484766006470e-02,2.973033785820007324e-01
-4.713017642498016357e-01,-8.466191291809082031e-01,-1.079811215400695801e+00,3.046878874301910400e-01,3.591825952753424644e-04,9.652886986732482910e-01,8.166803419589996338e-02,-2.613256871700286865e-02,-1.550661772489547729e-01,4.590952992439270020e-01
7.823486328125000000e-01,-5.798665285110473633e-01,6.160957813262939453e-01,-1.043061167001724243e-01,3.005713820457458496e-01,-2.616582512855529785e-01,-3.934126496315002441e-01,2.883765101432800293e-01,1.817774027585983276e-01,-6.539072990417480469e-01
-1.813824474811553955e-01,2.498509138822555542e-01,-3.716463148593902588e-01,-5.607585906982421875e-01,-2.711784839630126953e-01,5.150407552719116211e-01,-1.873814165592193604e-01,-3.970880806446075439e-01,5.279783606529235840e-01,-5.654268264770507812e-01
