1.588566601276397705e-01,-9.271310567855834961e-01,2.766748145222663879e-02,1.986328512430191040e-01,3.300984203815460205e-01,-4.914348423480987549e-01,-6.748071312904357910e-01,4.888251125812530518e-01,4.534758925437927246e-01,7.767050713300704956e-02,-7.048142552375793457e-01,9.745220541954040527e-01,1.292108092457056046e-02,2.801789641380310059e-01,-1.921705454587936401e-01,-1.038394331932067871e+00,3.907659351825714111e-01,-7.670129537582397461e-01,1.122313022613525391e+00,2.432918995618820190e-01,9.209461510181427002e-02,-5.450751781463623047e-01,-7.629916667938232422e-01,-2.280161380767822266e-01,-9.377213716506958008e-01,-5.859990119934082031e-01,2.597104907035827637e-01,1.383285880088806152e+00,-9.212007522583007812e-01,5.843846797943115234e-01,3.077463060617446899e-02,4.807139933109283447e-01,2.708858549594879150e-01,1.078906297683715820e+00,-3.375054001808166504e-01,3.984028100967407227e-01,1.982791721820831299e-01,-3.476272225379943848e-01,9.302454441785812378e-02,-7.098969817161560059e-01
-8.491222262382507324e-01,3.159106373786926270e-01,6.077219247817993164e-01,-1.150687858462333679e-01,-1.282176673412322998e-01,7.895550131797790527e-02,-7.522290945053100586e-01,6.278841942548751831e-02,2.025731354951858521e-01,-5.632979273796081543e-01,-2.854816913604736328e-01,6.143190860748291016e-01,3.233555555343627930e-01,6.595056653022766113e-01,-1.214618161320686340e-01,-3.530901968479156494e-01,-7.562351226806640625e-01,-6.751658320426940918e-01,-1.390703916549682617e+00,2.941712737083435059e-01,-3.160486221313476562e-01,5.825284719467163086e-01,7.481722235679626465e-01,-5.588760375976562500e-01,-8.046111464500427246e-01,-1.932727843523025513e-01,-5.765733867883682251e-02,-4.380516409873962402e-01,1.840231269598007202e-01,7.665489315986633301e-01,3.775486648082733154e-01,-1.236606463789939880e-01,1.803598925471305847e-02,-2.244451940059661865e-01,6.362222433090209961e-01,1.327750235795974731e-01,-5.072647333145141602e-01,-7.281482219696044922e-01,-2.709361314773559570e-01,8.999121189117431641e-02
5.094133689999580383e-02,-1.229540556669235229e-01,7.756963372230529785e-01,-1.254323422908782959e-01,3.090382814407348633e-01,-7.399179935455322266e-01,-5.459603667259216309e-01,6.576283574104309082e-01,-4.740876853466033936e-01,8.889266103506088257e-02,2.026685699820518494e-02,7.885164022445678711e-02,4.947273433208465576e-01,1.351266950368881226e-01,-2.211029231548309326e-01,4.610050618648529053e-01,-4.798158109188079834e-01,-9.297347068786621094e-02,6.429486274719238281e-01,6.928035020828247070e-01,-9.415848180651664734e-03,-6.973753571510314941e-01,9.014865159988403320e-01,1.331543773412704468e-01,-4.678921103477478027e-01,-3.937366008758544922e-01,-4.439619183540344238e-01,4.416741430759429932e-01,-5.175396800041198730e-01,2.434743195772171021e-01,4.620884954929351807e-01,2.758173085749149323e-02,4.840556383132934570e-01,-1.002878427505493164e+00,6.760320067405700684e-01,-3.857607394456863403e-02,2.611075341701507568e-01,-2.911032438278198242e-01,1.904754787683486938e-01,-2.130222320556640625e-01
2.114990204572677612e-01,8.406025767326354980e-01,4.882456660270690918e-01,-3.429912626743316650e-01,-9.045451879501342773e-01,-7.561468333005905151e-02,1.434376537799835205e-01,4.969753921031951904e-01,5.044374465942382812e-01,-6.543087363243103027e-01,-9.388241171836853027e-01,5.144643131643533707e-03,-7.336966991424560547e-01,5.528408288955688477e-01,2.533953189849853516e-01,1.623404026031494141e-01,1.820750385522842407e-01,-3.313452899456024170e-01,3.109813928604125977e-01,3.232142627239227295e-01,2.896123528480529785e-01,6.744105368852615356e-02,1.892758756875991821e-01,7.837544083595275879e-01,8.060199618339538574e-01,5.418821573257446289e-01,-4.381398856639862061e-01,3.099974095821380615e-01,5.659313201904296875e-01,-1.782661974430084229e-01,4.948814213275909424e-01,3.517163097858428955e-01,-1.162810698151588440e-01,4.357478916645050049e-01,-4.858774244785308838e-01,-3.060548901557922363e-01,2.692382223904132843e-02,6.305086016654968262e-01,6.336888074874877930e-01,2.896758727729320526e-02
-3.032434284687042236e-01,9.678851366043090820e-01,1.229775547981262207e+00,-2.138645052909851074e-01,-4.888815283775329590e-01,-3.296777606010437012e-01,5.145632028579711914e-01,-6.297085881233215332e-01,-6.745450943708419800e-02,-5.718737840652465820e-01,2.691058814525604248e-01,2.700986266136169434e-01,-2.000617980957031250e-01,1.167110949754714966e-01,1.913218945264816284e-01,6.457797288894653320e-01,-6.696147471666336060e-02,7.236011624336242676e-01,-5.244504809379577637e-01,-6.669812202453613281e-01,-8.548943400382995605e-01,-6.069314479827880859e-01,6.684623956680297852e-01,5.910850763320922852e-01,1.624066710472106934e+00,2.701015770435333252e-02,2.774392962455749512e-01,-1.374609023332595825e-01,-1.742798537015914917e-01,4.485158920288085938e-01,4.025266692042350769e-02,-1.364977002143859863e+00,-4.908604025840759277e-01,4.501104056835174561e-01,6.792932748794555664e-01,1.371643096208572388e-01,-1.963377892971038818e-01,7.206691503524780273e-01,7.975789904594421387e-01,-1.036193296313285828e-01
7.096940279006958008e-02,4.026178121566772461e-01,8.803366422653198242e-01,-2.181947380304336548e-01,9.690093994140625000e-01,-3.402023911476135254e-01,-8.164032101631164551e-01,-7.677937150001525879e-01,-6.046750545501708984e-01,-4.956493973731994629e-01,7.490686774253845215e-01,-4.328921437263488770e-01,1.465538293123245239e-01,2.768286764621734619e-01,-3.191256225109100342e-01,-4.064560234546661377e-01,-4.266627430915832520e-01,5.123511329293251038e-02,9.074057340621948242e-01,5.186329483985900879e-01,4.115857481956481934e-01,-3.968562781810760498e-01,4.867265522480010986e-01,-8.032881021499633789e-01,1.993301659822463989e-01,6.371860504150390625e-01,7.193083763122558594e-01,-3.787416815757751465e-01,-3.088505268096923828e-01,-2.210823893547058105e-01,-3.239510059356689453e-01,-8.304793387651443481e-02,-9.787526726722717285e-01,-7.539648413658142090e-01,8.111146278679370880e-03,-9.125855565071105957e-02,1.399226784706115723e-01,-6.762033700942993164e-01,-2.322084903717041016e-01,-6.586149334907531738e-01
-6.014603972434997559e-01,-3.338363170623779297e-01,-7.685502767562866211e-01,2.537280321121215820e-01,7.616651803255081177e-02,1.102447628974914551e+00,-6.254932284355163574e-01,5.749008059501647949e-01,-7.171632051467895508e-01,-6.423133015632629395e-01,-5.378505680710077286e-03,-7.958649098873138428e-02,-1.486298590898513794e-01,6.389917731285095215e-01,1.412108987569808960e-01,-3.811513483524322510e-01,3.082283772528171539e-02,3.928699791431427002e-01,-2.334723025560379028e-01,4.025050699710845947e-01,1.083418577909469604e-01,4.401599764823913574e-01,-1.077369689941406250e+00,2.294216752052307129e-01,-1.683260202407836914e-01,-2.354762703180313110e-01,-5.966626405715942383e-01,-2.995783388614654541e-01,-5.228485465049743652e-01,-6.332592368125915527e-01,-4.481505453586578369e-01,1.085397481918334961e+00,1.999631524085998535e-01,5.622748136520385742e-01,-2.325021177530288696e-01,-6.866295337677001953e-01,-2.996062934398651123e-01,-2.154651880264282227e-01,1.368704289197921753e-01,-2.215536534786224365e-01
-3.455643355846405029e-01,1.058506444096565247e-01,2.794492840766906738e-01,1.878625601530075073e-01,-5.472000837326049805e-01,-3.714266717433929443e-01,-1.720750480890274048e-01,1.648836210370063782e-02,-1.075875535607337952e-01,4.741668328642845154e-02,-5.128700658679008484e-02,-3.890894353389739990e-01,4.149993658065795898e-01,5.616780519485473633e-01,-5.762664079666137695e-01,-6.304592490196228027e-01,-3.756877034902572632e-02,6.427852511405944824e-01,4.818745702505111694e-02,-3.994227349758148193e-01,-5.520269870758056641e-01,-3.385894894599914551e-01,1.871558576822280884e-01,2.690290212631225586e-01,1.417897582054138184e+00,-6.506811380386352539e-01,4.110349714756011963e-02,7.543111443519592285e-01,2.069559544324874878e-01,-8.556473255157470703e-02,-8.920831680297851562e-01,-4.104645922780036926e-02,1.400849372148513794e-01,4.027182161808013916e-01,-1.975834518671035767e-01,-2.668834626674652100e-01,-8.452032506465911865e-02,2.714043557643890381e-01,8.489890396595001221e-02,1.850581616163253784e-01
-1.289297342300415039e+00,3.352340757846832275e-01,-7.609558701515197754e-01,8.440776467323303223e-01,-4.792498946189880371e-01,7.796907424926757812e-02,9.441813081502914429e-02,-3.706934750080108643e-01,3.216374516487121582e-01,-2.927079200744628906e-01,6.648470759391784668e-01,-4.867909252643585205e-01,-3.145979642868041992e-01,6.655545830726623535e-01,5.600891113281250000e-01,-8.277634158730506897e-03,4.841387867927551270e-01,-6.482928991317749023e-01,1.468154042959213257e-01,6.312752515077590942e-02,3.278402686119079590e-01,2.246125042438507080e-01,3.414407968521118164e-01,2.071844339370727539e-01,4.165477454662322998e-01,3.547584414482116699e-01,7.058073282241821289e-01,-4.482997357845306396e-01,-3.442391157150268555e-01,1.368192583322525024e-01,-1.332130432128906250e-01,-9.150179624557495117e-01,3.054987788200378418e-01,-7.032194137573242188e-01,2.208398580551147461e-01,2.271646112203598022e-01,-2.342542111873626709e-01,2.472349852323532104e-01,9.771981835365295410e-01,-9.975499510765075684e-01
-1.193920597434043884e-01,-2.020449191331863403e-01,-3.091166615486145020e-01,-2.749736309051513672e-01,-1.943060569465160370e-02,-7.945212721824645996e-01,-2.976889312267303467e-01,-6.707140207290649414e-01,7.715257406234741211e-01,4.213804900646209717e-01,-7.098886966705322266e-01,-4.866325259208679199e-01,6.358422040939331055e-01,-3.465073406696319580e-01,-6.614227294921875000e-01,-1.664580851793289185e-01,1.278292536735534668e-01,-3.278272747993469238e-01,-5.045455098152160645e-01,-8.070194721221923828e-01,2.236791551113128662e-01,3.587329387664794922e-01,3.286927938461303711e-01,2.153022587299346924e-02,-6.189417243003845215e-01,1.048133075237274170e-01,-4.441842436790466309e-01,2.055952697992324829e-01,3.602884709835052490e-01,4.247071593999862671e-02,-1.068482249975204468e-01,2.914070785045623779e-01,8.391516655683517456e-02,-3.595960736274719238e-01,5.064964294433593750e-01,4.384966492652893066e-01,2.513340413570404053e-01,-1.079824686050415039e+00,-1.648197621107101440e-01,-5.851106047630310059e-01
-6.212385296821594238e-01,5.648454427719116211e-01,1.122544407844543457e+00,3.545641899108886719e-01,9.897461533546447754e-01,3.450921475887298584e-01,-2.906628847122192383e-01,-2.319625169038772583e-01,-1.220210194587707520e-01,2.044131308794021606e-01,5.450228452682495117e-01,4.266124367713928223e-01,2.773572802543640137e-01,5.489568710327148438e-01,1.065509468317031860e-01,6.592562198638916016e-01,-9.859850257635116577e-02,-5.434097647666931152e-01,-7.143402099609375000e-01,-1.938900947570800781e-01,-3.475401699542999268e-01,2.277478389441967010e-02,7.886907458305358887e-01,-2.236794084310531616e-01,-8.843179047107696533e-02,5.691052079200744629e-01,-6.933973431587219238e-01,-2.988998889923095703e-01,-1.715947389602661133e-01,-8.466582894325256348e-01,-5.241819024085998535e-01,2.520175576210021973e-01,-5.008501410484313965e-01,-6.270951032638549805e-02,3.938403725624084473e-01,-2.988519668579101562e-01,3.690017163753509521e-01,-6.205024719238281250e-01,-3.257174193859100342e-01,2.963191866874694824e-01
5.060359835624694824e-01,-6.465709209442138672e-01,-4.170286059379577637e-01,7.818713784217834473e-02,6.228430271148681641e-01,-5.179103612899780273e-01,-3.187283873558044434e-01,6.275956630706787109e-01,3.341048955917358398e-01,3.778938949108123779e-02,1.801602840423583984e-01,-3.881488442420959473e-01,4.712100625038146973e-01,-9.966127872467041016e-01,1.841894388198852539e-01,-4.194509685039520264e-01,4.107316434383392334e-01,1.468062281608581543e+00,-3.704929351806640625e-01,7.017456293106079102e-01,-4.590460099279880524e-03,9.534680843353271484e-01,3.552639782428741455e-01,-4.685252010822296143e-01,1.781207695603370667e-02,-5.772278308868408203e-01,-7.037006020545959473e-01,-6.635248064994812012e-01,3.649002015590667725e-01,2.369112707674503326e-02,-1.412634998559951782e-01,-3.538894057273864746e-01,-1.024277433753013611e-01,-1.252508014440536499e-01,-9.649212658405303955e-02,7.630179077386856079e-02,4.524843394756317139e-01,-2.184440642595291138e-01,-1.467028707265853882e-01,5.687068104743957520e-01
-1.530459970235824585e-01,1.983110047876834869e-02,-4.617421925067901611e-01,-9.163154289126396179e-03,-2.042561918497085571e-01,6.103086471557617188e-01,2.567524462938308716e-02,-3.204394578933715820e-01,7.273926734924316406e-01,8.156268000602722168e-01,-7.724694907665252686e-02,-3.080003559589385986e-01,7.121117711067199707e-01,2.413317412137985229e-01,5.871492624282836914e-01,-1.932798624038696289e-01,3.462552130222320557e-01,-1.157194823026657104e-01,-4.532886743545532227e-01,3.543338477611541748e-01,6.665609031915664673e-02,9.441719949245452881e-02,1.063279733061790466e-01,4.786915183067321777e-01,-2.906361818313598633e-01,3.576914072036743164e-01,-2.339619696140289307e-01,5.847988650202751160e-02,3.615237176418304443e-01,-2.384736239910125732e-01,-2.701372466981410980e-02,-1.536627411842346191e-01,-4.047407805919647217e-01,3.108127415180206299e-01,2.841232419013977051e-01,3.161360323429107666e-02,-4.803332313895225525e-02,-2.214686423540115356e-01,-2.187017947435379028e-01,-3.980598151683807373e-01
-6.475276350975036621e-01,-1.326729506254196167e-01,-1.121003150939941406e+00,5.457255840301513672e-01,-2.812490761280059814e-01,5.041471123695373535e-01,5.493297576904296875e-01,6.274910271167755127e-02,1.390165835618972778e-01,-4.861094653606414795e-01,-2.358605414628982544e-01,-6.588094234466552734e-01,-4.035467803478240967e-01,4.434068873524665833e-02,-2.718275189399719238e-01,4.274732246994972229e-02,-5.188428163528442383e-01,2.789952754974365234e-01,-3.168344497680664062e-01,4.167820215225219727e-01,-1.307699531316757202e-01,4.367324709892272949e-01,-2.531061768531799316e-01,-4.842434823513031006e-01,8.079402893781661987e-02,-1.970003098249435425e-01,2.905786037445068359e-01,7.023192048072814941e-01,9.012178182601928711e-01,4.386593028903007507e-02,1.801007390022277832e-01,3.732349276542663574e-01,-8.785051107406616211e-01,8.357377648353576660e-01,2.030903846025466919e-01,2.751327306032180786e-02,1.117931962013244629e+00,-2.892825603485107422e-01,1.273184776306152344e+00,-3.935563564300537109e-01
-6.274361610412597656e-01,-5.845309495925903320e-01,-3.092964887619018555e-01,-1.300964832305908203e+00,-4.016174674034118652e-01,6.963689923286437988e-01,-7.474426627159118652e-01,2.907987833023071289e-01,2.135576456785202026e-01,-6.163553595542907715e-01,-4.149741530418395996e-01,2.573888003826141357e-01,9.073488414287567139e-02,5.908938646316528320e-01,-2.505199313163757324e-01,-3.329700231552124023e-01,1.695058494806289673e-01,5.637055039405822754e-01,-9.180726110935211182e-02,4.383375048637390137e-01,-5.117363333702087402e-01,5.775450915098190308e-02,-1.000838279724121094e+00,-7.845886945724487305e-01,7.293024659156799316e-02,7.168995141983032227e-01,7.674723267555236816e-01,-3.375715911388397217e-01,-6.981045007705688477e-01,-9.765803813934326172e-01,-2.547345161437988281e-01,-1.391878128051757812e-01,2.098677158355712891e-01,3.044539391994476318e-01,5.759142041206359863e-01,-1.494062542915344238e-01,-6.534317135810852051e-02,1.121517047286033630e-01,-2.283621579408645630e-01,-5.381163954734802246e-01
5.926076173782348633e-01,1.689028441905975342e-01,3.796771913766860962e-02,-6.166356205940246582e-01,1.765473186969757080e-01,-7.095931172370910645e-01,-3.336485922336578369e-01,-5.445083379745483398e-01,7.371544837951660156e-01,9.669727087020874023e-01,-3.754388988018035889e-01,-3.765754997730255127e-01,1.443832367658615112e-01,-8.894000053405761719e-01,7.609816733747720718e-03,-1.854492723941802979e-01,5.918031930923461914e-01,-1.581640243530273438e-01,-6.741167306900024414e-01,-1.678532660007476807e-01,5.974869430065155029e-02,6.545817255973815918e-01,7.382645606994628906e-01,-2.713189423084259033e-01,1.141268372535705566e+00,5.733812451362609863e-01,6.568180918693542480e-01,3.384304940700531006e-01,7.650883197784423828e-01,2.054168134927749634e-01,-1.836840808391571045e-01,-6.468738317489624023e-01,8.135421872138977051e-01,7.665523290634155273e-01,-3.340192139148712158e-01,1.472889166325330734e-02,-6.525417566299438477e-01,6.792362779378890991e-02,4.438292384147644043e-01,4.930655658245086670e-01
4.142730832099914551e-01,-4.837199747562408447e-01,-9.353456497192382812e-01,-3.314250707626342773e-01,-5.605216622352600098e-01,-6.438316404819488525e-02,-7.748731970787048340e-02,2.341639548540115356e-01,9.329587221145629883e-01,5.023512244224548340e-01,3.477181196212768555e-01,-2.820423245429992676e-01,3.508394658565521240e-01,2.127458155155181885e-01,3.879530429840087891e-01,-1.879122853279113770e-01,-1.388423442840576172e-01,-1.549791246652603149e-01,-3.223200142383575439e-01,1.193844750523567200e-01,-5.745234489440917969e-01,-2.838977277278900146e-01,-3.409370779991149902e-01,-2.077042460441589355e-01,5.350741744041442871e-01,-8.196312785148620605e-01,-3.450057804584503174e-01,1.205850601196289062e+00,-9.278706908226013184e-01,2.176029682159423828e-01,5.423992276191711426e-01,4.848186075687408447e-01,-3.638806939125061035e-01,-9.713238105177879333e-03,6.639246344566345215e-01,4.517497718334197998e-01,-3.712069988250732422e-01,-3.693448305130004883e-01,2.817951738834381104e-01,-6.657801270484924316e-01
-1.606861352920532227e-01,6.879974603652954102e-01,-3.316275402903556824e-02,9.830126911401748657e-02,-3.513507172465324402e-02,7.211817800998687744e-02,-4.437330961227416992e-01,-1.136454045772552490e-01,1.287715435028076172e-01,1.771767884492874146e-01,2.320924103260040283e-01,-7.398685216903686523e-01,2.361389100551605225e-01,-2.383405566215515137e-01,1.138570457696914673e-01,-7.459070086479187012e-01,-2.689321637153625488e-01,3.240278363227844238e-01,7.964205145835876465e-01,-2.123249918222427368e-01,-2.837190330028533936e-01,1.456114053726196289e-01,-1.852396279573440552e-01,-5.754371881484985352e-01,2.599579393863677979e-01,-2.495618015527725220e-01,5.982595682144165039e-01,-1.340001374483108521e-01,-1.141434684395790100e-01,-3.062192499637603760e-01,1.389975309371948242e+00,6.052505373954772949e-01,4.546995759010314941e-01,1.279266476631164551e-01,1.262789964675903320e-01,-4.891738593578338623e-01,-5.526627898216247559e-01,2.739992737770080566e-01,1.232998222112655640e-01,1.101298779249191284e-01
-3.583394885063171387e-01,-3.421425819396972656e-01,2.892050892114639282e-02,-5.801352858543395996e-01,6.353273391723632812e-01,-2.858564257621765137e-01,-5.586446523666381836e-01,-3.012397512793540955e-02,8.042716234922409058e-02,-1.707741171121597290e-01,3.520427346229553223e-01,4.741726815700531006e-01,-5.777152180671691895e-01,5.193403363227844238e-01,8.042022585868835449e-01,-9.545922279357910156e-01,-5.686369538307189941e-01,1.130035668611526489e-01,5.963125228881835938e-01,2.242192775011062622e-01,4.547358751296997070e-01,-3.680118620395660400e-01,-3.441078066825866699e-01,-3.197245895862579346e-01,-8.098631501197814941e-01,-1.926593035459518433e-01,2.672346234321594238e-01,9.298126697540283203e-01,6.096904352307319641e-02,-5.236363410949707031e-02,-2.887944579124450684e-01,2.457697838544845581e-01,9.286362328566610813e-04,1.552268415689468384e-01,7.295195460319519043e-01,-4.885971248149871826e-01,-8.412735462188720703e-01,-6.963388919830322266e-01,6.271644234657287598e-01,-2.335738688707351685e-01
-8.110730051994323730e-01,7.461968064308166504e-01,-2.357757687568664551e-01,-1.508224457502365112e-01,8.650673627853393555e-01,-7.660714983940124512e-01,1.778988391160964966e-01,-3.176468908786773682e-01,1.642942130565643311e-01,1.882133889012038708e-03,3.349478244781494141e-01,-2.579415738582611084e-01,-5.409052222967147827e-02,6.812104582786560059e-01,-1.355872035026550293e+00,-1.593079864978790283e-01,-5.748825073242187500e-01,-8.345243334770202637e-01,-3.873941004276275635e-01,-6.707550883293151855e-01,1.179375767707824707e+00,-1.043740153312683105e+00,4.502846896648406982e-01,5.543432831764221191e-01,2.596401274204254150e-01,-2.106366008520126343e-01,-3.193985819816589355e-01,-1.071823537349700928e-01,-1.106833964586257935e-01,-5.129009485244750977e-01,-5.115082263946533203e-01,-1.198557987809181213e-01,9.299376606941223145e-02,9.477704018354415894e-02,5.670093894004821777e-01,1.849867254495620728e-01,4.653172791004180908e-01,2.555750012397766113e-01,-2.209973633289337158e-01,-6.149614453315734863e-01
