-6.519182771444320679e-02,-1.576402187347412109e-01,-1.622886210680007935e-01,-9.124216437339782715e-02,-6.715272553265094757e-03,-1.292948842048645020e+00,-5.649581551551818848e-02,-2.422059699892997742e-02,-7.237353920936584473e-01,-3.313293755054473877e-01,6.093264818191528320e-01,-2.576582431793212891e-01,6.542276740074157715e-01,1.685162186622619629e-01,-6.863869726657867432e-02,-3.241941034793853760e-01,-2.881526947021484375e-01,4.441290795803070068e-01,-1.156176719814538956e-02,-2.277183771133422852e+00,-5.664601176977157593e-02,2.052229270339012146e-02,-2.702679634094238281e-01,-5.660179257392883301e-01,-3.506457805633544922e-01,-1.161630988121032715e+00,-2.884188890457153320e+00,-1.179394423961639404e-01,2.469156980514526367e-01,3.554859757423400879e-01,-2.429120063781738281e+00,-1.439345926046371460e-01,-1.530664265155792236e-01,-5.410315096378326416e-02,-9.710649251937866211e-01,2.898684889078140259e-02,-1.593176960945129395e+00,-1.107808277010917664e-01,2.630838155746459961e-01,-1.080259159207344055e-01
1.096357405185699463e-01,5.944957211613655090e-02,-4.019022285938262939e-01,-4.862665235996246338e-01,-6.312297284603118896e-02,-5.531224012374877930e-01,1.761443912982940674e-01,-3.413907289505004883e-01,-1.841955304145812988e+00,-2.117280215024948120e-01,-3.060297966003417969e-01,-2.930483818054199219e-01,-7.826872467994689941e-01,-1.056361868977546692e-01,-2.699999213218688965e-01,-8.102713525295257568e-02,3.369704186916351318e-01,-8.338157087564468384e-02,3.654555380344390869e-01,-5.892177224159240723e-01,-3.509182333946228027e-01,-6.017502546310424805e-01,-2.292151190340518951e-02,-4.224909842014312744e-01,5.995241999626159668e-01,-1.086118459701538086e+00,-1.713190674781799316e+00,-1.966112405061721802e-01,-2.007431536912918091e-01,7.635091245174407959e-02,-4.929701387882232666e-01,7.420111298561096191e-01,2.554833292961120605e-01,-8.942591398954391479e-02,-1.481990069150924683e-01,6.104356050491333008e-01,1.493702381849288940e-01,-1.076046079397201538e-01,-4.319393634796142578e-02,-5.346585512161254883e-01
2.127818316221237183e-01,-3.412327766418457031e-01,-1.843436360359191895e-01,-1.715370081365108490e-02,2.952431142330169678e-01,-2.496730566024780273e+00,-3.157972991466522217e-01,-8.792859911918640137e-01,-1.470571041107177734e+00,1.482777893543243408e-01,-1.664487868547439575e-01,1.625514179468154907e-01,5.718799829483032227e-01,-2.506701946258544922e-01,-7.634225487709045410e-02,-3.753050863742828369e-01,-1.454660147428512573e-01,9.534367918968200684e-02,-3.544432520866394043e-01,-3.662395000457763672e+00,1.369406729936599731e-01,-4.824551343917846680e-01,-2.763391435146331787e-01,-2.816407203674316406e+00,-4.096474647521972656e-01,-2.982849121093750000e+00,-4.514349937438964844e+00,2.662981748580932617e-01,2.535955607891082764e-01,2.214063405990600586e-01,-3.482041358947753906e+00,-4.646340310573577881e-01,1.937327533960342407e-01,3.974777180701494217e-03,-2.171712636947631836e+00,1.128659173846244812e-01,-3.877656221389770508e+00,-3.985503017902374268e-01,1.401070803403854370e-01,2.043127268552780151e-01
2.679272890090942383e-01,-6.203970909118652344e-01,-2.224724441766738892e-01,-2.048502117395401001e-01,-2.635714709758758545e-01,-2.992410898208618164e+00,-8.905986696481704712e-02,-4.385986924171447754e-01,-3.656900227069854736e-01,-1.380347013473510742e-01,-3.304786980152130127e-01,-2.271850556135177612e-01,-8.298265933990478516e-02,-1.452555358409881592e-01,4.791961610317230225e-01,-6.656262278556823730e-01,1.204046308994293213e-01,1.428269315510988235e-02,2.022746950387954712e-01,-2.287530183792114258e+00,-8.383071422576904297e-01,-2.461839318275451660e-01,5.417967587709426880e-02,-2.310832738876342773e+00,-2.931177318096160889e-01,-2.458065748214721680e+00,-2.602999687194824219e+00,3.416592180728912354e-01,1.152824237942695618e-01,2.089236676692962646e-01,-3.408981323242187500e+00,-1.169333577156066895e+00,2.994455695152282715e-01,1.120428815484046936e-01,-2.682304620742797852e+00,-1.747137755155563354e-01,-2.448126316070556641e+00,7.492731790989637375e-03,3.177210688591003418e-02,2.622459828853607178e-01
-1.958820521831512451e-01,5.370364785194396973e-01,1.330630630254745483e-01,4.401772022247314453e-01,2.045514136552810669e-01,3.491501569747924805e+00,-1.584884971380233765e-01,1.280217468738555908e-01,5.797311067581176758e-01,1.129312291741371155e-01,-1.299210041761398315e-01,-1.521877795457839966e-01,-1.603661924600601196e-01,-3.334451466798782349e-02,-1.617951989173889160e-01,-1.115660183131694794e-02,1.309737712144851685e-01,-1.158347576856613159e-01,5.929528474807739258e-01,2.284030675888061523e+00,2.814966440200805664e-01,-4.835780858993530273e-01,3.733192384243011475e-01,2.309507131576538086e+00,4.322630167007446289e-02,1.985116243362426758e+00,1.354032754898071289e+00,-3.344130003824830055e-03,1.871861368417739868e-01,-1.564416140317916870e-01,3.519239425659179688e+00,6.139181852340698242e-01,-5.234750509262084961e-01,2.925702035427093506e-01,3.214934110641479492e+00,-1.849254965782165527e-01,1.322101473808288574e+00,2.271436452865600586e-01,1.650047749280929565e-01,-2.906617224216461182e-01
6.884203851222991943e-02,3.152581676840782166e-02,-1.509483456611633301e-01,-1.698269397020339966e-01,1.020705979317426682e-02,-4.619224548339843750e+00,-2.820208370685577393e-01,-1.745867580175399780e-01,-1.414150834083557129e+00,-2.720051705837249756e-01,9.581629186868667603e-02,-3.419832289218902588e-01,-1.511476486921310425e-01,2.163959890604019165e-01,1.079610958695411682e-01,-3.488988280296325684e-01,-2.056115120649337769e-01,-3.575168550014495850e-01,-3.373179137706756592e-01,-4.596536636352539062e+00,8.549161255359649658e-02,-6.497071385383605957e-01,-2.721590399742126465e-01,-4.057322502136230469e+00,4.637634009122848511e-02,-5.151132106781005859e+00,-5.291798591613769531e+00,1.767062246799468994e-01,-1.106707304716110229e-01,-4.640851169824600220e-02,-5.239313125610351562e+00,-9.172224402427673340e-01,4.660465419292449951e-01,-8.437509834766387939e-02,-4.881661415100097656e+00,-1.199441961944103241e-02,-3.619149684906005859e+00,-6.184360980987548828e-01,-3.683251515030860901e-02,1.530396044254302979e-01
-1.257552057504653931e-01,2.567487582564353943e-02,1.290739625692367554e-01,-1.815454363822937012e-01,-1.724969595670700073e-01,2.703172683715820312e+00,2.732064425945281982e-01,6.334484815597534180e-01,1.292970418930053711e+00,4.086473286151885986e-01,2.744449377059936523e-01,-1.202437654137611389e-01,6.866289377212524414e-01,2.090376913547515869e-01,-2.294292747974395752e-01,3.141618520021438599e-02,1.037278175354003906e-01,3.115870058536529541e-01,-5.268727988004684448e-02,3.264966249465942383e+00,-1.448789238929748535e-01,3.738220334053039551e-01,2.537388205528259277e-01,2.231935977935791016e+00,3.339438736438751221e-01,2.455486536026000977e+00,3.461500406265258789e+00,-5.416892766952514648e-01,-3.496022522449493408e-01,-9.631043672561645508e-02,3.189593791961669922e+00,1.351989984512329102e+00,-2.191477268934249878e-01,3.290603756904602051e-01,2.809119462966918945e+00,6.524419784545898438e-02,2.616340160369873047e+00,1.457714140415191650e-01,1.544115245342254639e-01,1.384620964527130127e-01
-5.550277233123779297e-01,2.316441833972930908e-01,5.652053356170654297e-01,-1.410893648862838745e-01,-2.155342847108840942e-01,2.275929450988769531e+00,2.099325507879257202e-01,3.426486551761627197e-01,1.121702432632446289e+00,1.125758215785026550e-01,6.090132519602775574e-02,2.723323702812194824e-01,4.385407082736492157e-03,-1.606879681348800659e-01,-9.475950896739959717e-02,8.277534693479537964e-02,-1.850468963384628296e-01,-3.289270102977752686e-01,9.917635321617126465e-01,3.221101999282836914e+00,-3.767464309930801392e-02,9.129216074943542480e-01,1.583609282970428467e-01,2.255677700042724609e+00,1.515671163797378540e-01,2.402409076690673828e+00,4.145164966583251953e+00,1.277203112840652466e-01,-1.198402326554059982e-02,-1.313603371381759644e-01,2.037783384323120117e+00,1.133827492594718933e-01,1.834437251091003418e-01,1.482923328876495361e-01,2.431725978851318359e+00,5.324551463127136230e-01,3.101417303085327148e+00,-1.736346185207366943e-01,-2.260901033878326416e-01,1.016678847372531891e-02
3.564376235008239746e-01,-4.478484094142913818e-01,4.669915735721588135e-01,-2.403138130903244019e-01,6.234810128808021545e-02,-1.938233971595764160e+00,-2.914181947708129883e-01,2.332377880811691284e-01,-9.383037090301513672e-01,1.276494413614273071e-01,6.767274737358093262e-01,1.912762671709060669e-01,-3.199646621942520142e-02,3.563009575009346008e-02,-1.787786930799484253e-01,-1.798872798681259155e-01,3.278783261775970459e-01,-4.597833752632141113e-01,-9.032525420188903809e-01,-1.930290699005126953e+00,8.883134275674819946e-02,3.538075834512710571e-02,-5.364604294300079346e-02,-1.937114953994750977e+00,-1.140237748622894287e-01,-1.300904035568237305e+00,-4.026728153228759766e+00,3.741714730858802795e-02,3.337537497282028198e-02,2.743257284164428711e-01,-3.314122676849365234e+00,-8.395537734031677246e-01,4.074857756495475769e-02,-2.072595506906509399e-01,-1.940013051033020020e+00,-2.981977909803390503e-02,-2.937301158905029297e+00,3.161152601242065430e-01,-1.448637247085571289e-01,3.941221535205841064e-01
8.102305978536605835e-02,2.221673540771007538e-02,-2.723257243633270264e-01,9.450200200080871582e-02,1.991024017333984375e-01,-8.718962073326110840e-01,-1.342073082923889160e-01,-1.143360510468482971e-02,-9.681173563003540039e-01,-4.469327032566070557e-01,1.389273256063461304e-01,1.019801571965217590e-01,4.105311632156372070e-01,3.981602787971496582e-01,-3.311524689197540283e-01,2.912390604615211487e-02,7.874232530593872070e-02,-3.712723553180694580e-01,-1.680884957313537598e-01,-1.273153424263000488e+00,2.305851727724075317e-01,-6.540591716766357422e-01,6.873443722724914551e-02,-7.135664820671081543e-01,-7.468470185995101929e-02,-5.527568459510803223e-01,-1.800124645233154297e+00,-2.191699594259262085e-01,1.347645074129104614e-01,8.936174958944320679e-02,-4.883747696876525879e-01,-1.363645315170288086e+00,3.933334648609161377e-01,-1.823549717664718628e-02,-8.412131071090698242e-01,-1.069303601980209351e-01,-1.095669507980346680e+00,-1.285953074693679810e-01,7.949043065309524536e-02,4.749969244003295898e-01
-3.937424421310424805e-01,7.048672437667846680e-02,-2.367594093084335327e-01,3.744769692420959473e-01,-2.641107141971588135e-01,1.227012991905212402e+00,1.328235864639282227e-01,5.242494866251945496e-02,7.953442931175231934e-01,5.488618612289428711e-01,6.465498805046081543e-01,-4.737567529082298279e-02,2.600331008434295654e-01,-1.971341669559478760e-01,-2.590602040290832520e-01,2.139866650104522705e-01,-6.779026985168457031e-02,-2.910698056221008301e-01,5.600309967994689941e-01,1.787305235862731934e+00,-1.944177150726318359e-01,-1.337800174951553345e-01,2.927273511886596680e-01,6.340153813362121582e-01,1.068989858031272888e-01,1.326995611190795898e+00,4.289754033088684082e-01,1.922094225883483887e-01,-3.351049125194549561e-01,1.229158267378807068e-01,1.450740814208984375e+00,1.106488347053527832e+00,-4.310648739337921143e-01,-8.559377491474151611e-02,1.371749043464660645e+00,-1.259412467479705811e-01,1.152936816215515137e+00,3.866258561611175537e-01,1.483965814113616943e-01,1.457110196352005005e-01
-3.404820859432220459e-01,1.636143326759338379e-01,-2.524785101413726807e-01,-5.307476967573165894e-02,4.152795672416687012e-01,2.833397626876831055e+00,-1.070145954145118594e-04,4.842088818550109863e-01,2.227308511734008789e+00,-4.291095733642578125e-01,1.571297496557235718e-01,8.517627120018005371e-01,3.310071527957916260e-01,3.957038000226020813e-02,-3.154868483543395996e-01,3.114995546638965607e-02,4.820118248462677002e-01,6.675400584936141968e-02,-5.184318423271179199e-01,2.935441493988037109e+00,-2.158470302820205688e-01,2.820768058300018311e-01,-1.140938773751258850e-01,1.907681584358215332e+00,3.017244935035705566e-01,2.517683029174804688e+00,3.415082931518554688e+00,6.425744295120239258e-02,-5.199729800224304199e-01,-1.061666384339332581e-01,2.764338970184326172e+00,5.356230139732360840e-01,-1.686739474534988403e-01,-3.237379193305969238e-01,3.083907127380371094e+00,4.198216497898101807e-01,3.352450609207153320e+00,-2.906976826488971710e-02,1.387522518634796143e-01,-2.704916894435882568e-01
6.779240369796752930e-01,-1.239700168371200562e-01,1.170784085988998413e-01,1.571638733148574829e-01,-2.878909744322299957e-02,1.617747902870178223e+00,-9.472596645355224609e-02,6.382068395614624023e-01,-6.620074808597564697e-02,-2.462117224931716919e-01,7.866050004959106445e-01,4.274390041828155518e-01,-8.830961585044860840e-02,-5.559617280960083008e-01,-2.859890460968017578e-01,-3.592812716960906982e-01,2.813423573970794678e-01,6.722322106361389160e-02,3.363366723060607910e-01,1.842766046524047852e+00,3.826505243778228760e-01,1.802609562873840332e-01,1.727434992790222168e-01,1.225822329521179199e+00,-3.508572578430175781e-01,1.985779881477355957e+00,2.619704961776733398e+00,2.479335665702819824e-02,1.143859326839447021e-01,1.456167846918106079e-01,2.021455764770507812e+00,-3.789173364639282227e-01,-7.159262150526046753e-02,2.479266934096813202e-02,2.044750452041625977e+00,1.625525504350662231e-01,1.472906112670898438e+00,7.085688412189483643e-02,8.849078416824340820e-02,1.758937686681747437e-01
-2.438967525959014893e-01,-3.400097191333770752e-01,-2.987063676118850708e-02,-3.966091573238372803e-01,-2.089960500597953796e-02,-2.577648878097534180e+00,-2.791294157505035400e-01,-4.705794155597686768e-01,-9.070580601692199707e-01,-1.792943030595779419e-01,-5.339509248733520508e-01,-7.873285561800003052e-02,-5.427100658416748047e-01,1.095279157161712646e-01,1.080842912197113037e-01,-2.338465489447116852e-02,-4.006641209125518799e-01,-9.382554888725280762e-02,-1.826663687825202942e-02,-3.145808696746826172e+00,-3.966538906097412109e-01,-3.580704927444458008e-01,-1.482335627079010010e-01,-1.393449306488037109e+00,8.841335028409957886e-02,-2.841845750808715820e+00,-4.612820625305175781e+00,2.131653428077697754e-01,7.181340456008911133e-02,2.570858895778656006e-01,-1.954495310783386230e+00,2.228148281574249268e-01,4.389228224754333496e-01,-2.711462080478668213e-01,-2.643923282623291016e+00,-6.978453397750854492e-01,-2.955220222473144531e+00,-5.145953893661499023e-01,2.058858424425125122e-01,-2.808905541896820068e-01
3.251641094684600830e-01,2.454888075590133667e-01,-1.531340032815933228e-01,1.079711839556694031e-01,-8.101460337638854980e-02,-6.146289110183715820e-01,1.101684868335723877e-01,-1.063829898834228516e+00,-6.038873195648193359e-01,2.481095641851425171e-01,-1.089869961142539978e-01,-2.253912687301635742e-01,2.199938595294952393e-01,1.463812738656997681e-01,1.749421507120132446e-01,1.536711007356643677e-01,2.716679498553276062e-02,-3.648645877838134766e-01,-1.757856756448745728e-01,-1.141378998756408691e+00,-4.172433614730834961e-01,-3.611295670270919800e-02,-1.730554401874542236e-01,-1.153216123580932617e+00,5.141137838363647461e-01,-2.407971858978271484e+00,-1.804990410804748535e+00,4.045610874891281128e-02,2.346608787775039673e-01,1.706329882144927979e-01,-2.716014623641967773e+00,1.724321246147155762e-01,-2.931236922740936279e-01,7.633999735116958618e-02,-1.031743288040161133e+00,1.656666845083236694e-01,-1.551881551742553711e+00,-3.121182620525360107e-01,1.983527392148971558e-01,-2.023285776376724243e-01
-9.191792341880500317e-04,-1.459680944681167603e-01,-1.142799407243728638e-01,-1.195106580853462219e-01,-3.519757688045501709e-01,3.041896522045135498e-01,-1.033812388777732849e-01,9.978370070457458496e-01,1.925751566886901855e-01,4.955692887306213379e-01,-1.970540918409824371e-02,-3.273009136319160461e-02,-1.279065757989883423e-01,-2.919503748416900635e-01,-1.524662878364324570e-02,4.023816585540771484e-01,-4.353041052818298340e-01,-4.094404354691505432e-02,-5.885274615138769150e-03,-1.390526145696640015e-01,3.453399613499641418e-02,-1.132898479700088501e-01,-2.929022908210754395e-01,1.659129023551940918e+00,-2.361301034688949585e-01,1.926250696182250977e+00,3.113717317581176758e+00,4.267675057053565979e-02,1.848242729902267456e-01,-5.087411403656005859e-02,8.052771687507629395e-01,6.345675587654113770e-01,-2.057549953460693359e-01,4.781238734722137451e-01,9.490486979484558105e-01,5.130459368228912354e-02,1.173702239990234375e+00,5.527076870203018188e-02,-2.633702754974365234e-01,1.084579825401306152e-01
-3.423866629600524902e-02,3.275509178638458252e-02,-9.959636628627777100e-02,3.346797525882720947e-01,2.427008599042892456e-01,-7.009975314140319824e-01,-2.264978289604187012e-01,-8.684000372886657715e-01,-2.241860628128051758e+00,-2.271902374923229218e-02,-3.453277945518493652e-01,-3.430477157235145569e-02,-1.140761002898216248e-01,-2.410039603710174561e-01,2.141440510749816895e-01,4.442341923713684082e-01,2.790217101573944092e-01,-1.465290635824203491e-01,-5.070685744285583496e-01,-6.236768960952758789e-01,-2.689913846552371979e-02,-2.103928476572036743e-01,-1.846717447042465210e-01,-1.479544997215270996e+00,4.123759269714355469e-01,-1.720839738845825195e+00,-2.203775882720947266e+00,3.657473623752593994e-02,-2.079394161701202393e-01,1.266003698110580444e-01,-2.185203313827514648e+00,7.996993660926818848e-01,-1.557020004838705063e-02,2.672718167304992676e-01,-1.635627746582031250e+00,-3.498697578907012939e-01,-1.344296693801879883e+00,-2.976779639720916748e-01,-1.161126047372817993e-01,1.513619422912597656e-01
9.468162059783935547e-02,-9.374748170375823975e-02,7.937663234770298004e-03,-2.186039239168167114e-01,2.068852931261062622e-01,-3.705965280532836914e+00,-5.338326469063758850e-02,-1.381139308214187622e-01,-9.048049449920654297e-01,8.507424592971801758e-02,9.804989397525787354e-02,1.723311096429824829e-01,-6.518866121768951416e-02,2.301418185234069824e-01,3.594470620155334473e-01,-7.790103554725646973e-02,4.948070272803306580e-02,-5.653349161148071289e-01,-7.937157899141311646e-02,-2.704914808273315430e+00,-8.427141606807708740e-02,-2.754194438457489014e-01,-4.024667441844940186e-01,-2.710202932357788086e+00,-1.892570108175277710e-01,-3.062492132186889648e+00,-3.696622133255004883e+00,-5.385102704167366028e-02,1.615227386355400085e-02,3.971329331398010254e-01,-4.381995201110839844e+00,-6.770983338356018066e-01,-1.147085651755332947e-01,-8.084709197282791138e-02,-3.556946516036987305e+00,-1.467069983482360840e-01,-2.973037242889404297e+00,-7.139220088720321655e-02,4.677595794200897217e-01,8.882774412631988525e-02
6.228654384613037109e-01,-2.888692021369934082e-01,-4.130792617797851562e-01,-2.064916677772998810e-02,3.071246743202209473e-01,-3.093994617462158203e+00,-2.152507305145263672e-01,-8.054105043411254883e-01,-1.236954808235168457e+00,2.624439541250467300e-03,-6.624725461006164551e-01,-9.163780510425567627e-02,-3.332250192761421204e-02,2.487329244613647461e-01,7.234703004360198975e-02,5.088705569505691528e-02,-2.320610880851745605e-01,-1.284761428833007812e-01,2.574124336242675781e-01,-3.270886182785034180e+00,4.360771551728248596e-02,-6.580327153205871582e-01,-3.896559774875640869e-01,-3.256446599960327148e+00,6.012368947267532349e-02,-3.167909145355224609e+00,-4.302575588226318359e+00,2.935425341129302979e-01,3.798021674156188965e-01,-1.330180615186691284e-01,-3.447406768798828125e+00,-6.479555964469909668e-01,7.526084035634994507e-02,-2.288551926612854004e-01,-3.003677368164062500e+00,8.845805376768112183e-02,-3.391869783401489258e+00,1.329433266073465347e-02,1.937107555568218231e-02,2.844147682189941406e-01
2.370444685220718384e-01,-2.569209598004817963e-02,-3.901138305664062500e-01,-2.091533094644546509e-01,-5.939328670501708984e-02,-1.681079745292663574e+00,9.133410453796386719e-02,-2.376895546913146973e-01,-3.997220695018768311e-01,-7.388238608837127686e-02,2.713389098644256592e-01,-1.266938894987106323e-01,-5.014859437942504883e-01,-4.250652343034744263e-02,-1.640903577208518982e-02,1.705337613821029663e-01,-2.321555465459823608e-01,-1.328865587711334229e-01,-8.604484796524047852e-02,-1.512576103210449219e+00,2.062701433897018433e-01,-5.590367317199707031e-02,-1.276812516152858734e-02,-1.813853979110717773e+00,4.367857873439788818e-01,-8.855486512184143066e-01,-1.147717118263244629e+00,4.660129845142364502e-01,2.892537042498588562e-02,9.933310002088546753e-02,-1.965695023536682129e+00,1.179040312767028809e+00,3.369931578636169434e-01,3.566735386848449707e-01,-1.837924838066101074e+00,-2.225144356489181519e-01,-2.159658193588256836e+00,-1.793639659881591797e-01,-1.551634520292282104e-01,-3.002028167247772217e-01
-3.460749611258506775e-02,-7.222200278192758560e-03,1.109095588326454163e-01,2.968482375144958496e-01,-2.215201109647750854e-01,1.492351531982421875e+00,1.744397580623626709e-01,2.869909107685089111e-01,4.172362983226776123e-01,-5.809777602553367615e-02,1.347638249397277832e+00,2.879007458686828613e-01,-1.318032294511795044e-01,-1.589862257242202759e-01,3.714602887630462646e-01,2.592791020870208740e-01,-1.411700993776321411e-01,-2.279356718063354492e-01,-1.355086714029312134e-01,1.514974832534790039e+00,2.807732298970222473e-02,4.101100265979766846e-01,2.668827176094055176e-01,1.317073583602905273e+00,3.580583631992340088e-02,7.317240834236145020e-01,2.833205699920654297e+00,-3.802007734775543213e-01,-9.682266041636466980e-03,3.388502597808837891e-01,1.189884662628173828e+00,3.403507173061370850e-01,-1.139952912926673889e-01,-1.674489304423332214e-02,1.139294981956481934e+00,2.900374531745910645e-01,1.644858717918395996e+00,6.716771423816680908e-02,-2.054371982812881470e-01,2.186741232872009277e-01
5.219636019319295883e-03,-7.106363028287887573e-02,7.284933328628540039e-02,-5.495589599013328552e-02,-1.028641462326049805e-01,1.028411269187927246e+00,-5.722917988896369934e-02,6.299499422311782837e-02,2.724187970161437988e-01,-9.271288663148880005e-02,-6.591349095106124878e-02,2.921445965766906738e-01,4.571343362331390381e-01,-3.980880677700042725e-01,2.125030308961868286e-01,5.843649059534072876e-02,4.331459850072860718e-02,-4.890130162239074707e-01,4.556288421154022217e-01,3.273971378803253174e-01,7.230918854475021362e-03,1.457768827676773071e-01,4.210025072097778320e-02,1.058635950088500977e+00,2.292333543300628662e-01,2.959124743938446045e-01,4.993471801280975342e-01,2.753569558262825012e-02,-1.180298626422882080e-01,-1.121366322040557861e-01,-5.301894545555114746e-01,-4.381165504455566406e-01,1.336256414651870728e-01,-3.271576464176177979e-01,6.476646065711975098e-01,2.091987878084182739e-01,4.561142623424530029e-01,5.324890371412038803e-03,-3.044245839118957520e-01,1.202452704310417175e-01
5.957333743572235107e-02,5.453055258840322495e-03,3.734222948551177979e-01,8.791671693325042725e-02,4.364164546132087708e-03,-1.304458856582641602e+00,1.309769600629806519e-01,2.986018359661102295e-01,1.591951400041580200e-01,1.403781473636627197e-01,-9.456471353769302368e-02,2.063162326812744141e-01,-2.861489355564117432e-01,1.770678907632827759e-01,1.347543895244598389e-01,-3.391636013984680176e-01,3.827931731939315796e-02,-4.886460602283477783e-01,-1.606656163930892944e-01,-1.342411994934082031e+00,-5.212218761444091797e-01,1.388164460659027100e-01,-4.328768849372863770e-01,-1.127619624137878418e+00,-5.770279765129089355e-01,-8.386811017990112305e-01,-1.551879525184631348e+00,3.158481419086456299e-02,-1.870626807212829590e-01,-5.810259580612182617e-01,-8.972266316413879395e-01,-1.029845476150512695e+00,-1.502139568328857422e-01,2.243438921868801117e-02,-7.561331987380981445e-01,-1.115933358669281006e-01,-7.892123460769653320e-01,8.456997573375701904e-02,6.807919591665267944e-02,6.941304206848144531e-01
1.777026653289794922e-01,5.770309269428253174e-02,3.296248316764831543e-01,-3.314946591854095459e-02,-1.598813682794570923e-01,2.183175086975097656e+00,-4.198769330978393555e-01,1.250532269477844238e+00,2.367488384246826172e+00,1.277049332857131958e-01,1.799246221780776978e-01,1.152002811431884766e-01,-3.452810347080230713e-01,-1.111584715545177460e-02,-2.011476755142211914e-01,3.290292918682098389e-01,1.551145613193511963e-01,2.964146733283996582e-01,1.783099919557571411e-01,2.961767196655273438e+00,-8.204529285430908203e-01,2.547370456159114838e-02,8.609980344772338867e-02,1.837661981582641602e+00,-7.915772497653961182e-03,2.543854713439941406e+00,3.184669494628906250e+00,-1.489338725805282593e-01,-1.846839040517807007e-01,-1.929263323545455933e-01,2.822405576705932617e+00,-6.944485306739807129e-01,-3.351172804832458496e-02,1.234077811241149902e-01,1.976417064666748047e+00,1.853504925966262817e-01,1.732213377952575684e+00,3.157709240913391113e-01,-2.836430668830871582e-01,4.769714474678039551e-01
3.250401020050048828e-01,9.647218137979507446e-02,1.842116862535476685e-01,-5.792839825153350830e-02,3.685729205608367920e-02,-7.120863199234008789e-01,-2.016399204730987549e-01,1.493902951478958130e-01,-6.130922436714172363e-01,-6.117751076817512512e-02,5.077865719795227051e-02,-1.432292759418487549e-01,-3.049292266368865967e-01,3.962535858154296875e-01,-3.937926515936851501e-02,-1.152768824249505997e-02,-1.228798925876617432e-01,-3.885952830314636230e-01,-1.023377701640129089e-01,-1.452443599700927734e+00,-1.428602337837219238e-01,-6.837072968482971191e-01,2.441998869180679321e-01,-7.648286223411560059e-01,-5.599138792604207993e-03,-8.148160576820373535e-01,-5.082842111587524414e-01,1.099570542573928833e-01,6.701362878084182739e-02,2.768582105636596680e-01,-1.662253856658935547e+00,-9.451002478599548340e-01,-1.834175288677215576e-01,1.375765949487686157e-01,-3.969704210758209229e-01,1.761390566825866699e-01,-1.343644738197326660e+00,-1.982508003711700439e-01,1.345331817865371704e-01,-1.795354783535003662e-01
3.414153456687927246e-01,-8.449125289916992188e-02,-1.112965494394302368e-01,4.743836447596549988e-02,-1.850611418485641479e-01,-1.038349986076354980e+00,-6.421045064926147461e-01,-5.921190381050109863e-01,3.598043620586395264e-01,-1.249646469950675964e-01,-6.431244015693664551e-01,-3.331939503550529480e-02,3.066916167736053467e-01,5.194651708006858826e-02,8.249998837709426880e-02,5.052658915519714355e-02,1.753385066986083984e-01,-1.257002800703048706e-01,4.602267406880855560e-03,-9.234345555305480957e-01,-5.106174852699041367e-03,1.961232721805572510e-01,1.160241365432739258e-01,-8.966328203678131104e-02,7.544289529323577881e-02,-1.283874988555908203e+00,-2.031596660614013672e+00,1.860799193382263184e-01,3.682185336947441101e-02,1.502528786659240723e-01,-5.077462196350097656e-01,6.944596767425537109e-01,-5.615098029375076294e-02,-6.219886541366577148e-01,2.102315127849578857e-01,2.557431161403656006e-01,-1.284538149833679199e+00,-2.293734401464462280e-01,3.141533732414245605e-01,6.453859210014343262e-01
6.568223983049392700e-02,-4.539871513843536377e-01,8.316111634485423565e-04,-2.790498360991477966e-02,3.543767333030700684e-01,-2.665909051895141602e+00,9.770571440458297729e-02,-8.710018396377563477e-01,-6.694008708000183105e-01,-3.976200222969055176e-01,1.850893497467041016e-01,-1.477198004722595215e-01,2.215098887681961060e-01,5.856669321656227112e-02,1.216126605868339539e-01,-1.947799921035766602e-01,-2.992427945137023926e-01,-8.957113325595855713e-02,-5.794788599014282227e-01,-2.819883346557617188e+00,-4.136016368865966797e-01,-6.543869972229003906e-01,2.782032787799835205e-01,-2.753688812255859375e+00,1.439681947231292725e-01,-2.951413154602050781e+00,-3.011123418807983398e+00,2.635554075241088867e-01,2.986375093460083008e-01,-8.352407813072204590e-02,-3.666181564331054688e+00,-4.917367100715637207e-01,2.413228899240493774e-01,4.746613651514053345e-02,-2.135465145111083984e+00,1.493317931890487671e-01,-3.669799804687500000e+00,-1.534282565116882324e-01,2.276143878698348999e-01,3.643535077571868896e-01
-2.890775501728057861e-01,-3.238117694854736328e-01,1.860544830560684204e-01,-1.601966619491577148e-01,-1.679652929306030273e-01,9.862431883811950684e-02,-1.654083579778671265e-01,-5.985128879547119141e-01,-1.607658714056015015e-01,2.039378136396408081e-01,-1.243598312139511108e-01,1.700698137283325195e-01,-2.260836958885192871e-01,-2.404564172029495239e-01,5.713670700788497925e-02,1.155435368418693542e-01,-3.026357293128967285e-01,3.082143887877464294e-02,-6.327768564224243164e-01,-1.255620121955871582e+00,6.291662454605102539e-01,-1.035408854484558105e+00,-3.853473439812660217e-02,-1.569292545318603516e+00,5.972262620925903320e-01,-1.882070779800415039e+00,-1.770203828811645508e+00,4.351285472512245178e-02,4.234663248062133789e-01,-3.827515840530395508e-01,-1.854095458984375000e+00,4.031672477722167969e-01,2.544092237949371338e-01,1.174190118908882141e-01,-5.432233214378356934e-01,-3.695737337693572044e-03,-7.329948544502258301e-01,1.138044521212577820e-03,2.790194451808929443e-01,2.237176746129989624e-01
-3.740024864673614502e-01,3.397076949477195740e-02,1.164855621755123138e-02,-1.997385472059249878e-01,1.037826836109161377e-01,1.565075367689132690e-01,4.399393126368522644e-02,-8.480182290077209473e-01,-3.999447226524353027e-01,3.319620192050933838e-01,-2.090992927551269531e-01,-2.968841977417469025e-02,-4.967537224292755127e-01,1.928272694349288940e-01,-1.733361333608627319e-01,-1.607674658298492432e-01,2.254756093025207520e-01,-4.402599632740020752e-01,1.570332497358322144e-01,7.558677196502685547e-01,6.136506795883178711e-02,-8.013199269771575928e-02,5.233654752373695374e-02,2.388128638267517090e-01,2.188590914011001587e-01,-2.550468444824218750e-01,-8.409671187400817871e-01,1.820026040077209473e-01,-8.241076022386550903e-02,-1.085833832621574402e-01,-5.498317480087280273e-01,1.626416683197021484e+00,1.280738413333892822e-01,-9.540059417486190796e-02,8.028838634490966797e-01,1.777411997318267822e-01,-3.841131031513214111e-01,3.381366729736328125e-01,-2.410186678171157837e-01,-7.185690850019454956e-02
1.620256006717681885e-01,1.130200996994972229e-01,2.985352277755737305e-01,1.892767101526260376e-01,5.218521356582641602e-01,8.515326380729675293e-01,1.043981388211250305e-01,8.672199249267578125e-01,4.535950124263763428e-01,-8.640217781066894531e-02,1.045674324035644531e+00,-9.006138890981674194e-02,-4.110780656337738037e-01,-1.215224713087081909e-01,1.861651837825775146e-01,-3.053423762321472168e-01,5.876465514302253723e-02,-1.410930305719375610e-01,3.042005598545074463e-01,3.023248910903930664e-01,-1.431635767221450806e-01,1.117027401924133301e-01,1.299151182174682617e-01,8.335409760475158691e-01,3.818423151969909668e-01,8.582386374473571777e-01,6.813554167747497559e-01,-3.242366909980773926e-01,4.503394663333892822e-02,9.990209713578224182e-03,1.015159368515014648e+00,-1.041675880551338196e-01,-1.724891364574432373e-01,3.279743343591690063e-02,1.071193069219589233e-01,1.169944629073143005e-01,2.065543651580810547e+00,-6.224415078759193420e-02,-1.169690564274787903e-01,-4.986232519149780273e-02
2.603993415832519531e-01,3.082312643527984619e-01,-1.745996028184890747e-01,-1.301478594541549683e-01,-1.385327130556106567e-01,-2.676999568939208984e+00,-4.499228298664093018e-01,-6.643065810203552246e-02,-4.586751759052276611e-01,7.970353960990905762e-02,2.957912385463714600e-01,-3.087189793586730957e-01,1.154867559671401978e-01,-1.743901818990707397e-01,2.020719796419143677e-01,-2.867435812950134277e-01,-2.808122932910919189e-01,-6.024036556482315063e-03,-2.999384403228759766e-01,-2.673991441726684570e+00,-9.078875184059143066e-02,2.199217677116394043e-01,1.586366295814514160e-01,-2.359648942947387695e+00,6.754634380340576172e-01,-2.473071575164794922e+00,-2.823842287063598633e+00,2.046402245759963989e-01,2.024154216051101685e-01,5.372700467705726624e-02,-3.149487972259521484e+00,-3.120711743831634521e-01,2.814762592315673828e-01,-3.425405323505401611e-01,-2.086458206176757812e+00,-1.217880006879568100e-02,-2.669682502746582031e+00,1.191490236669778824e-02,-2.906661853194236755e-02,1.946028023958206177e-01
2.112190723419189453e-01,-8.085074275732040405e-02,-2.984265089035034180e-01,1.214364729821681976e-02,1.578240394592285156e-01,-3.409032106399536133e+00,-6.194485351443290710e-02,-1.153884977102279663e-01,-1.202860593795776367e+00,-1.859008818864822388e-01,3.971959650516510010e-01,-4.052011966705322266e-01,-1.013552099466323853e-01,-2.161340266466140747e-01,-8.126196265220642090e-02,-4.624266326427459717e-01,-2.447723299264907837e-01,1.936430931091308594e-01,-3.346608579158782959e-01,-2.907110452651977539e+00,-6.219252571463584900e-02,-4.935508072376251221e-01,-2.573420107364654541e-01,-2.886454105377197266e+00,1.557165533304214478e-01,-2.654722452163696289e+00,-4.794389247894287109e+00,3.943243920803070068e-01,1.682875603437423706e-01,4.037206172943115234e-01,-3.404082536697387695e+00,-3.503543734550476074e-01,-9.695690125226974487e-02,-3.342638015747070312e-01,-2.797245502471923828e+00,-3.085491657257080078e-01,-2.996225357055664062e+00,-3.524229526519775391e-01,4.275087118148803711e-01,2.587445974349975586e-01
9.717333316802978516e-02,-5.293375849723815918e-01,-1.267485134303569794e-02,2.252373546361923218e-01,1.809688806533813477e-01,-1.052295923233032227e+00,-2.079188525676727295e-01,-4.068115651607513428e-01,-2.961276173591613770e-01,2.563653290271759033e-01,-1.146170124411582947e-02,-1.482815444469451904e-01,6.703352928161621094e-02,3.232944011688232422e-01,6.839518249034881592e-02,-1.374539732933044434e-01,-9.118316322565078735e-02,-3.494617715477943420e-02,-1.470909640192985535e-02,-1.884407997131347656e+00,-4.309691190719604492e-01,4.973502457141876221e-01,2.953009009361267090e-01,-5.474497675895690918e-01,9.058745950460433960e-02,-2.371612787246704102e+00,-9.536197185516357422e-01,2.377447336912155151e-01,1.927796564996242523e-02,-2.813382819294929504e-02,-1.805612206459045410e+00,1.096024140715599060e-01,2.102540582418441772e-01,-2.067125290632247925e-01,-1.433838844299316406e+00,-8.712328225374221802e-02,-1.322995066642761230e+00,-2.293553203344345093e-01,-6.487968564033508301e-02,-4.086550474166870117e-01
1.268192678689956665e-01,6.804452538490295410e-01,2.298850007355213165e-02,1.725488156080245972e-01,4.375931248068809509e-02,4.831530570983886719e+00,4.419862106442451477e-02,-8.292180299758911133e-02,1.034235119819641113e+00,2.155418694019317627e-01,9.645849466323852539e-02,5.106637477874755859e-01,2.751283049583435059e-01,-1.297722011804580688e-01,-2.153400182723999023e-01,3.651079535484313965e-02,4.240111112594604492e-01,1.920401006937026978e-01,2.398927062749862671e-01,3.537328481674194336e+00,7.585913538932800293e-01,-1.210365444421768188e-01,3.999360203742980957e-01,3.903398275375366211e+00,-2.793256640434265137e-01,3.835813045501708984e+00,4.038000583648681641e+00,5.999466031789779663e-02,-2.158452272415161133e-01,1.898267865180969238e-01,4.396710395812988281e+00,6.255307793617248535e-01,-1.831300370395183563e-02,1.257844269275665283e-01,4.707479953765869141e+00,6.298188865184783936e-02,3.137959003448486328e+00,1.942059248685836792e-01,-3.522445559501647949e-01,5.243880674242973328e-02
-1.672695577144622803e-01,-4.137128293514251709e-01,-2.342399209737777710e-01,-3.091264963150024414e-01,8.872471749782562256e-02,-1.551743745803833008e+00,-3.539733588695526123e-01,-8.282311558723449707e-01,-4.832156896591186523e-01,-3.135686218738555908e-01,-9.214926958084106445e-01,1.310079842805862427e-01,1.757300496101379395e-01,2.775545716285705566e-01,2.361834943294525146e-01,-8.763162791728973389e-02,-5.547522380948066711e-02,-1.986346691846847534e-01,-2.820339500904083252e-01,-2.180576562881469727e+00,-9.451491385698318481e-02,2.536217868328094482e-01,-3.391373157501220703e-02,-7.246156334877014160e-01,-5.911765620112419128e-02,-1.739805102348327637e+00,-1.330230593681335449e+00,1.850010156631469727e-01,-3.280677199363708496e-01,3.013267517089843750e-01,-2.566744804382324219e+00,1.027122512459754944e-01,1.668759882450103760e-01,8.951652050018310547e-02,-1.940910816192626953e+00,3.262565471231937408e-03,-1.995677351951599121e+00,2.817332446575164795e-01,4.964904487133026123e-01,-2.512757778167724609e-01
3.729824125766754150e-01,1.352754235267639160e-01,1.182303205132484436e-01,4.168025776743888855e-02,-8.451716601848602295e-02,1.358913540840148926e+00,1.885545700788497925e-01,4.874567091464996338e-01,3.763040304183959961e-01,6.056661009788513184e-01,-3.048163354396820068e-01,4.526877701282501221e-01,-1.136806607246398926e-01,2.415549308061599731e-01,4.584306851029396057e-02,-3.469424322247505188e-02,2.574210464954376221e-01,-7.091393321752548218e-02,3.791788518428802490e-01,1.380320906639099121e+00,5.433119535446166992e-01,-2.451188266277313232e-01,5.040233582258224487e-02,1.512155771255493164e+00,3.153690993785858154e-01,8.748639225959777832e-01,1.619971394538879395e+00,4.937153309583663940e-02,-6.122927367687225342e-02,-2.125206738710403442e-01,9.154294133186340332e-01,5.798186659812927246e-01,-5.126968026161193848e-01,-2.710035443305969238e-01,1.470686674118041992e+00,1.696668118238449097e-01,1.696751356124877930e+00,-1.263543497771024704e-02,2.122437059879302979e-01,-2.589679658412933350e-01
-4.639157354831695557e-01,7.249794900417327881e-02,3.293056190013885498e-01,4.843724071979522705e-01,-2.878482639789581299e-01,4.277168273925781250e+00,3.575596511363983154e-01,7.307823896408081055e-01,1.377115011215209961e+00,-3.807154670357704163e-02,3.519998490810394287e-01,-1.629448309540748596e-02,2.864737510681152344e-01,-5.851291418075561523e-01,-1.945810467004776001e-01,6.078407913446426392e-02,3.808587789535522461e-02,3.426809608936309814e-02,-4.442522823810577393e-01,3.531955480575561523e+00,-1.027065739035606384e-01,2.855241298675537109e-01,1.272563636302947998e-01,3.762175083160400391e+00,-7.548178732395172119e-02,3.992851972579956055e+00,3.520442485809326172e+00,-2.672321796417236328e-01,-2.068307101726531982e-01,3.192975819110870361e-01,4.909925460815429688e+00,6.253814697265625000e-01,4.033123329281806946e-02,3.853580355644226074e-01,3.980583906173706055e+00,5.274340510368347168e-01,3.183016061782836914e+00,-1.548175606876611710e-02,6.318194419145584106e-02,-2.956530451774597168e-01
-2.683297693729400635e-01,3.992028534412384033e-01,-1.095107123255729675e-01,-3.775620758533477783e-01,-2.500212490558624268e-01,7.223269343376159668e-01,-7.736435532569885254e-02,4.705404043197631836e-01,7.618038654327392578e-01,2.303685992956161499e-01,2.206378430128097534e-01,2.138700485229492188e-01,8.205314278602600098e-01,3.787826001644134521e-01,-1.225060224533081055e-01,6.231536343693733215e-02,7.988941669464111328e-02,-4.344623982906341553e-01,-2.518590390682220459e-01,1.183061003684997559e+00,-7.852742820978164673e-02,4.796559214591979980e-01,1.327256113290786743e-01,8.678687214851379395e-01,5.847411751747131348e-01,1.032624602317810059e+00,2.879980325698852539e+00,-1.406818777322769165e-01,-1.242991015315055847e-01,7.774903625249862671e-02,1.368507385253906250e+00,9.665102362632751465e-01,-1.217164471745491028e-01,5.236026644706726074e-01,2.280776202678680420e-01,-1.552237123250961304e-01,1.270294547080993652e+00,-1.056188941001892090e-01,2.524528466165065765e-02,2.179731428623199463e-01
3.482921794056892395e-02,-2.125422954559326172e-01,-5.668633580207824707e-01,2.078917622566223145e-01,3.586502745747566223e-02,6.388723254203796387e-01,3.519163727760314941e-01,-4.963904246687889099e-02,-2.059655189514160156e-01,4.994774237275123596e-02,3.848344683647155762e-01,-1.395085901021957397e-01,7.208988070487976074e-01,1.228050813078880310e-01,-1.806690245866775513e-01,6.903079338371753693e-03,2.180265821516513824e-02,-1.108963489532470703e-01,7.280530333518981934e-01,-4.861243069171905518e-02,-2.704107165336608887e-01,3.159788548946380615e-01,1.531627774238586426e-01,-1.313897818326950073e-01,2.291037291288375854e-01,8.399713039398193359e-02,-5.855869054794311523e-01,-2.672728002071380615e-01,1.338874697685241699e-01,-2.235292084515094757e-02,6.343008577823638916e-02,5.294533446431159973e-02,-3.691148757934570312e-01,4.816536605358123779e-02,8.358713388442993164e-01,6.475564837455749512e-01,7.801607847213745117e-01,-2.300163507461547852e-01,1.976616531610488892e-01,4.820978641510009766e-01
-5.813596770167350769e-02,-7.164847850799560547e-02,-3.700456619262695312e-01,-2.020557075738906860e-01,9.652324020862579346e-02,-3.235846757888793945e+00,-1.837977617979049683e-01,-3.344637155532836914e-01,-9.868702888488769531e-01,-1.837782859802246094e-01,1.272199749946594238e-01,5.712337493896484375e-01,-3.803573176264762878e-02,2.162385433912277222e-01,1.450711935758590698e-01,-1.812807023525238037e-01,-1.522760689258575439e-01,1.584952771663665771e-01,1.398323802277445793e-03,-2.421719312667846680e+00,2.972338795661926270e-01,3.124837875366210938e-01,2.394507639110088348e-02,-3.072591781616210938e+00,-1.288807541131973267e-01,-2.747937917709350586e+00,-4.637248039245605469e+00,-8.111860603094100952e-02,-3.119544386863708496e-01,-4.749773442745208740e-02,-3.082941293716430664e+00,-4.697642624378204346e-01,-4.417754709720611572e-02,-1.387002021074295044e-01,-3.434310197830200195e+00,-3.219849467277526855e-01,-3.689948797225952148e+00,-3.437905907630920410e-01,1.761903241276741028e-02,-1.145141422748565674e-01
