5.956016778945922852e-01,1.175558269023895264e-01,-4.731550812721252441e-01,8.959531038999557495e-02,1.122527420520782471e-01,1.068582311272621155e-01,1.324045807123184204e-01,3.624328970909118652e-01,6.565166115760803223e-01,6.393088698387145996e-01,-5.788621902465820312e-01,-1.645008802413940430e+00,-8.785328269004821777e-02,-7.629312574863433838e-02,-1.327022910118103027e-01,-1.370322108268737793e-01,-2.564040385186672211e-02,-2.595436275005340576e-01,-2.191979289054870605e-01,-6.573921442031860352e-01
1.375965327024459839e-01,-9.569657444953918457e-01,3.592447936534881592e-01,3.717447221279144287e-01,4.116105735301971436e-01,4.369556903839111328e-01,4.607027173042297363e-01,8.628574013710021973e-01,4.697642624378204346e-01,8.379212766885757446e-02,-4.071327447891235352e-01,2.307408154010772705e-01,2.189986966550350189e-02,-3.671689927577972412e-01,-4.162765741348266602e-01,-4.405193030834197998e-01,-4.880228340625762939e-01,-5.196419358253479004e-01,-9.251793622970581055e-01,-1.218200027942657471e-01
-1.570919901132583618e-01,9.814980030059814453e-01,9.145225286483764648e-01,6.241956949234008789e-01,5.052171945571899414e-01,4.117087721824645996e-01,3.494986295700073242e-01,2.383975982666015625e-01,2.348743528127670288e-01,2.944109588861465454e-02,1.636433303356170654e-01,-1.520331054925918579e-01,-9.135562181472778320e-01,-6.289328932762145996e-01,-5.302590727806091309e-01,-4.150273501873016357e-01,-3.356211185455322266e-01,-2.238907217979431152e-01,-2.296462655067443848e-01,-4.141862690448760986e-02
1.719825342297554016e-02,-4.670301824808120728e-02,2.847941517829895020e-01,4.830104112625122070e-01,6.221264600753784180e-01,7.664715647697448730e-01,9.026379585266113281e-01,-1.702079623937606812e-01,-2.530112266540527344e-01,-1.462336331605911255e-01,-1.518153399229049683e-01,-1.314333081245422363e-01,-3.237195611000061035e-01,-5.017385482788085938e-01,-6.261013746261596680e-01,-7.811450362205505371e-01,-9.507804512977600098e-01,-9.086893796920776367e-01,1.157562881708145142e-01,1.837088167667388916e-01
