-2.771151065826416016e-01,-3.959063589572906494e-01,1.995094306766986847e-02,-1.372964531183242798e-01,3.982507437467575073e-02,-2.146702259778976440e-01,1.938474625349044800e-01,-5.007220506668090820e-01,1.083932071924209595e-01,2.632056176662445068e-01,-5.970436334609985352e-01,8.225040882825851440e-02,-4.993932545185089111e-01,-8.161401748657226562e-01,3.092110343277454376e-02,-2.112148106098175049e-01,1.235411763191223145e-01,-2.708072066307067871e-01,-4.968413114547729492e-01,1.983156204223632812e-01
2.434971779584884644e-01,3.048658184707164764e-02,-2.712618112564086914e-01,-3.034843206405639648e-01,3.967897891998291016e-01,3.298478424549102783e-01,1.862518955022096634e-03,5.292330309748649597e-02,-6.077294945716857910e-01,-9.803448617458343506e-02,1.964089423418045044e-01,1.621862351894378662e-01,3.027888834476470947e-01,-1.304281502962112427e-01,1.730344593524932861e-01,-2.636587433516979218e-02,-1.804682239890098572e-02,-6.708853412419557571e-03,1.226692926138639450e-02,1.663045957684516907e-02
1.113974153995513916e-01,9.818320274353027344e-01,1.631823778152465820e-01,2.290128618478775024e-01,4.929857254028320312e-01,1.959904432296752930e-01,-5.926960334181785583e-02,4.339802563190460205e-01,1.949454075656831264e-03,-1.242023333907127380e-01,6.661741733551025391e-01,1.456293612718582153e-01,7.947337031364440918e-01,7.350289225578308105e-01,4.743226170539855957e-01,5.952519774436950684e-01,-3.794632852077484131e-01,1.058930084109306335e-01,1.650979369878768921e-01,5.116590857505798340e-02
-2.857600152492523193e-01,-1.891026832163333893e-02,-3.341807723045349121e-01,-3.219932615756988525e-01,2.424965649843215942e-01,1.763920299708843231e-02,-5.909180045127868652e-01,-1.633505970239639282e-01,-2.226007580757141113e-01,2.074937373399734497e-01,2.404237985610961914e-01,-3.542887270450592041e-01,1.806454956531524658e-01,5.027638748288154602e-02,-2.148160636425018311e-01,1.916643530130386353e-01,1.435924321413040161e-02,-2.134205251932144165e-01,9.229383617639541626e-02,-2.148282080888748169e-01
4.937757253646850586e-01,-1.287971287965774536e-01,1.091483980417251587e-01,2.658084034919738770e-02,-2.200095802545547485e-01,-1.239049360156059265e-01,1.365480422973632812e-01,9.367831796407699585e-02,7.632059603929519653e-02,5.211502313613891602e-03,-5.770394206047058105e-02,7.162603735923767090e-02,6.129556298255920410e-01,-1.888319663703441620e-02,-5.797999352216720581e-02,-1.660062223672866821e-01,-1.409252285957336426e-01,-2.989038527011871338e-01,2.635912597179412842e-01,1.648455411195755005e-01
-5.185524821281433105e-01,1.756407693028450012e-02,-1.044395044445991516e-01,-1.593145169317722321e-02,2.914509773254394531e-01,1.934376806020736694e-01,-2.915435433387756348e-01,-8.587274700403213501e-02,3.905098140239715576e-02,-1.673202514648437500e-01,-1.950209587812423706e-02,8.697375655174255371e-02,-5.282057523727416992e-01,2.250416390597820282e-02,-1.566298492252826691e-02,-2.731685899198055267e-02,6.537290662527084351e-02,-6.046463176608085632e-02,-2.253059893846511841e-01,-5.253395065665245056e-03
8.714870810508728027e-01,3.210803866386413574e-01,-1.634072214365005493e-01,1.585099399089813232e-01,2.550922036170959473e-01,3.764711618423461914e-01,2.114700675010681152e-01,7.341350317001342773e-01,-3.930634856224060059e-01,-4.908854514360427856e-02,2.829341888427734375e-01,-1.374387294054031372e-01,8.388556241989135742e-01,7.320414185523986816e-01,3.557399511337280273e-01,2.260186672210693359e-01,-2.967596352100372314e-01,-1.265474557876586914e-01,-1.842836737632751465e-01,2.377685606479644775e-01
-7.580444216728210449e-01,-3.376346528530120850e-01,5.029748678207397461e-01,2.823617756366729736e-01,-9.014588594436645508e-02,-6.291445344686508179e-02,2.703014314174652100e-01,-4.597147107124328613e-01,6.172180771827697754e-01,-2.628242671489715576e-01,-4.103102385997772217e-01,-8.884773403406143188e-02,-5.363017320632934570e-01,-1.069674082100391388e-02,-3.289786875247955322e-01,-3.933678865432739258e-01,-3.627538681030273438e-02,1.154518797993659973e-01,-1.741889677941799164e-02,6.504002213478088379e-02
5.560281127691268921e-02,1.038592100143432617e+00,2.472428604960441589e-02,5.270968750119209290e-02,3.569116592407226562e-01,-3.513079136610031128e-02,-2.900634109973907471e-01,4.687034189701080322e-01,-1.057834997773170471e-01,4.398851692676544189e-01,7.719425559043884277e-01,3.492677509784698486e-01,8.392965793609619141e-01,5.479470491409301758e-01,8.730551227927207947e-03,5.553181767463684082e-01,-3.291790485382080078e-01,-1.655212938785552979e-01,-2.157766819000244141e-01,7.260552793741226196e-02
4.216822683811187744e-01,8.897478878498077393e-02,-1.635124534368515015e-01,-1.537299305200576782e-01,-2.186585515737533569e-01,1.021452397108078003e-01,-8.393581956624984741e-02,5.520669743418693542e-02,-1.809056401252746582e-01,-5.209742859005928040e-02,1.144290119409561157e-01,-3.467511832714080811e-01,-1.249540522694587708e-01,2.820309996604919434e-01,-6.646015495061874390e-02,-1.531579047441482544e-01,-2.360832244157791138e-01,-2.856057882308959961e-01,-1.858992725610733032e-01,-1.268022805452346802e-01
1.955022513866424561e-01,-9.167012572288513184e-02,2.476470172405242920e-01,4.338747859001159668e-01,4.941508546471595764e-02,-1.398417502641677856e-01,1.309016793966293335e-01,1.760254651308059692e-01,3.805578500032424927e-02,4.134467244148254395e-01,-2.877246737480163574e-01,2.615434527397155762e-01,1.762694418430328369e-01,4.060616344213485718e-02,-3.827178180217742920e-01,6.075689941644668579e-02,-2.717691063880920410e-01,3.486600145697593689e-02,4.226579144597053528e-02,-2.549322843551635742e-01
1.329711079597473145e-01,-6.756448149681091309e-01,4.475316405296325684e-02,1.119965407997369766e-02,-1.870879530906677246e-01,-9.472387284040451050e-02,-1.735982894897460938e-01,-3.293806016445159912e-01,1.237334758043289185e-01,-2.299042493104934692e-01,-6.741217523813247681e-02,-2.686733901500701904e-01,-7.912949472665786743e-02,-2.684916555881500244e-01,-1.033477336168289185e-01,-3.608199954032897949e-01,3.042543530464172363e-01,-9.389793127775192261e-02,7.522529363632202148e-02,-1.815901547670364380e-01
-2.071122229099273682e-01,-6.096258163452148438e-01,-8.291975408792495728e-02,-3.221523761749267578e-01,-2.225856631994247437e-01,1.022778078913688660e-01,-2.355504035949707031e-01,-6.287084221839904785e-01,-4.992499649524688721e-01,-1.139458734542131424e-03,-6.005667448043823242e-01,-6.738388538360595703e-01,-7.714900970458984375e-01,-5.358692407608032227e-01,-4.161227941513061523e-01,-3.261061310768127441e-01,5.943436548113822937e-02,9.982993453741073608e-02,1.261016074568033218e-02,2.491588890552520752e-01
-5.813604593276977539e-01,-1.047579526901245117e+00,-1.837080568075180054e-01,1.195179224014282227e-01,2.164491564035415649e-01,-2.871613204479217529e-01,6.828796863555908203e-02,-1.168919801712036133e+00,-2.966361818835139275e-03,-1.698992401361465454e-01,-1.142086982727050781e+00,1.318367421627044678e-01,-1.978186726570129395e+00,-5.444872379302978516e-01,-1.897048056125640869e-01,-6.575382947921752930e-01,-7.595770806074142456e-02,1.579654365777969360e-01,-1.337452381849288940e-01,-3.243203461170196533e-01
1.062386631965637207e-01,-4.635155797004699707e-01,-2.099047973752021790e-02,-2.712215781211853027e-01,1.744383387267589569e-02,-2.884988188743591309e-01,-3.399594426155090332e-01,9.553923457860946655e-02,-8.768247812986373901e-02,3.439746499061584473e-01,-5.773416534066200256e-02,-4.541547298431396484e-01,-6.777855753898620605e-02,2.819919399917125702e-02,-1.414990872144699097e-01,1.074791997671127319e-01,3.600271046161651611e-01,1.368365157395601273e-02,1.337672770023345947e-01,-6.195535063743591309e-01
-3.459818959236145020e-01,-2.311167567968368530e-01,3.357334136962890625e-01,2.083422690629959106e-01,4.160060882568359375e-01,4.653355851769447327e-02,-3.709811866283416748e-01,-3.907669782638549805e-01,2.402344644069671631e-01,-4.883128777146339417e-02,-1.344579607248306274e-01,-5.215795710682868958e-02,-1.527019403874874115e-02,2.887802571058273315e-02,-3.281566873192787170e-02,2.586162984371185303e-01,8.098393678665161133e-02,1.248885225504636765e-02,1.769942194223403931e-01,1.874441355466842651e-01
2.811781466007232666e-01,3.250285685062408447e-01,1.535679250955581665e-01,1.811261624097824097e-01,4.474488496780395508e-01,1.489589661359786987e-01,6.166566163301467896e-02,1.191032826900482178e-01,4.486845061182975769e-02,-2.471641078591346741e-02,-7.172662019729614258e-02,2.367241531610488892e-01,-7.852166146039962769e-02,2.861177027225494385e-01,8.421047031879425049e-02,3.208347037434577942e-02,-3.352678418159484863e-01,1.369332522153854370e-01,-2.330110222101211548e-01,-3.126809895038604736e-01
1.337860431522130966e-02,-8.322615921497344971e-02,2.104729413986206055e-01,-1.632777005434036255e-01,-2.026311904191970825e-01,1.534396409988403320e-01,2.588842213153839111e-01,1.982601284980773926e-01,-1.113451644778251648e-01,1.006992459297180176e-01,-1.910542845726013184e-01,-1.650571376085281372e-01,8.358114957809448242e-02,-1.245594769716262817e-01,-1.757811009883880615e-01,-2.130901366472244263e-01,6.371831148862838745e-02,3.966572880744934082e-01,-6.888622045516967773e-02,-1.882946193218231201e-01
2.646240293979644775e-01,-2.724702358245849609e-01,-4.023578390479087830e-02,-1.584324091672897339e-01,-1.901811063289642334e-01,1.313630938529968262e-01,1.834237575531005859e-01,5.334078669548034668e-01,-2.582071423530578613e-01,6.435372680425643921e-02,-2.261893600225448608e-01,-1.234720051288604736e-01,1.902631968259811401e-01,-4.786652978509664536e-03,1.441937964409589767e-02,1.667829453945159912e-01,1.937016993761062622e-01,-2.361488193273544312e-01,-2.144622616469860077e-02,3.018434904515743256e-02
-3.479646146297454834e-01,9.634170681238174438e-03,-1.453348547220230103e-01,-4.895600490272045135e-03,1.965501904487609863e-02,2.678340077400207520e-01,1.122770607471466064e-01,2.185300141572952271e-01,2.301991879940032959e-01,-3.931119740009307861e-01,-2.971636652946472168e-01,-2.513265907764434814e-01,3.052128553390502930e-01,8.649715781211853027e-02,-7.454907149076461792e-02,5.876390933990478516e-01,1.438808441162109375e-01,1.470972448587417603e-01,4.095869138836860657e-02,-6.242772191762924194e-02
