2.992391027510166168e-02,2.038430981338024139e-02,1.335915774106979370e-01,7.291551679372787476e-02,4.624111950397491455e-02,-6.809657067060470581e-02,1.183796450495719910e-01,4.937928169965744019e-02,-2.164267152547836304e-01,-5.593409761786460876e-02,5.974283441901206970e-02,-9.641041606664657593e-02,7.776510715484619141e-02,1.287132799625396729e-01,1.168763786554336548e-01,-9.325772523880004883e-02,1.693281531333923340e-01,-1.309493482112884521e-01,9.414210170507431030e-02,3.170969337224960327e-02,6.112581491470336914e-02,4.720949381589889526e-02,5.503849592059850693e-03,2.715862169861793518e-02,6.969177722930908203e-02,5.985981225967407227e-02,-1.366192847490310669e-01,1.218721922487020493e-02,8.107745647430419922e-02,1.774052977561950684e-01,-1.603817753493785858e-02,-3.634057566523551941e-02,-9.008884429931640625e-02,-1.449629571288824081e-02,9.118020534515380859e-02,-5.188107490539550781e-02,-1.253566592931747437e-01,-4.890240728855133057e-02,-2.226072736084461212e-02,-5.771250650286674500e-02,-9.762840718030929565e-02,1.501928120851516724e-01,-1.074165105819702148e-01,-1.358174136839807034e-03,2.866477370262145996e-01,-6.805509328842163086e-02,-4.760335758328437805e-02,1.385906487703323364e-01,-2.335735112428665161e-01,-1.448370963335037231e-01,-5.768185853958129883e-02,-1.201669871807098389e-02,-8.523172885179519653e-02,-5.402967333793640137e-03,-1.645586788654327393e-01,-1.215192824602127075e-01,5.791499093174934387e-02,-1.950023323297500610e-02,-1.190857887268066406e-01,-2.214119397103786469e-02
5.444511771202087402e-02,4.965075477957725525e-02,6.261568516492843628e-02,-5.615369230508804321e-02,-1.136498004198074341e-01,-3.654878959059715271e-02,-2.065411806106567383e-01,-1.301167439669370651e-02,-6.302087754011154175e-02,-7.686825934797525406e-03,6.283886730670928955e-02,-1.425598710775375366e-01,1.913706958293914795e-02,1.501192152500152588e-02,-3.177668526768684387e-02,9.333740919828414917e-02,-1.265852451324462891e-01,6.275748461484909058e-02,4.647617787122726440e-02,4.057224094867706299e-02,-5.713817477226257324e-02,2.569563686847686768e-02,-5.416315793991088867e-02,-5.372774600982666016e-02,-2.176700346171855927e-02,2.242949008941650391e-01,-6.920366734266281128e-02,-8.947435021400451660e-02,-5.033438280224800110e-02,-9.289114922285079956e-02,6.306672003120183945e-03,6.086119636893272400e-02,1.283747982233762741e-02,-2.734164707362651825e-02,-9.639473259449005127e-02,-1.465508830733597279e-03,-6.003642827272415161e-02,5.714161321520805359e-02,4.139208048582077026e-02,1.007954105734825134e-01,-9.276416152715682983e-02,6.510971486568450928e-02,-4.571807757019996643e-02,-2.390683069825172424e-02,8.341442048549652100e-02,1.012914180755615234e-01,-1.614546030759811401e-01,1.268411576747894287e-01,-7.063003629446029663e-02,-4.860716685652732849e-02,1.956723071634769440e-02,3.729918226599693298e-02,1.247638370841741562e-02,-2.713950816541910172e-03,-6.436507683247327805e-03,-1.235099583864212036e-01,-1.016618758440017700e-01,1.753398627042770386e-01,-7.782080210745334625e-03,-1.104861591011285782e-02
-4.543076269328594208e-03,-1.150922179222106934e-01,5.316270142793655396e-02,-1.251957416534423828e-01,2.571106515824794769e-02,9.780143946409225464e-02,-3.210541233420372009e-02,-4.762611910700798035e-02,-1.039931103587150574e-01,3.710280358791351318e-02,9.328384697437286377e-02,1.694963872432708740e-01,1.391393840312957764e-01,2.647721767425537109e-02,5.648073554039001465e-02,2.173685282468795776e-01,1.222387105226516724e-01,3.416368737816810608e-02,-1.879926025867462158e-01,-1.456959825009107590e-02,7.630567252635955811e-02,-5.624535307288169861e-02,-3.607026860117912292e-02,1.235580537468194962e-02,-1.149358376860618591e-01,-1.288672816008329391e-02,-2.007284611463546753e-01,3.967362642288208008e-02,-6.198820471763610840e-02,-7.551947236061096191e-02,7.894510403275489807e-03,-1.804984062910079956e-01,2.007874548435211182e-01,3.438634052872657776e-02,1.791374944150447845e-02,-1.235970631241798401e-01,1.251380890607833862e-01,4.978973791003227234e-02,-9.492342919111251831e-02,-1.039981767535209656e-01,2.220983803272247314e-01,-9.256576746702194214e-02,-4.894787818193435669e-02,2.022998631000518799e-01,1.349475700408220291e-02,3.878284618258476257e-02,-1.603490486741065979e-02,-7.488849014043807983e-02,4.023667797446250916e-02,-7.518594712018966675e-02,-5.925265699625015259e-02,-3.988146409392356873e-02,-4.075526073575019836e-02,-8.037617662921547890e-04,-3.382791951298713684e-02,-6.719248741865158081e-02,1.318718027323484421e-02,4.932861402630805969e-02,-1.962015591561794281e-02,1.180681958794593811e-02
1.111043617129325867e-01,-2.063796482980251312e-02,2.201404981315135956e-02,2.155500203371047974e-01,-7.328096032142639160e-02,4.839800298213958740e-02,1.006550118327140808e-01,4.244146402925252914e-03,-3.886511549353599548e-02,7.550909370183944702e-02,-5.802800878882408142e-02,-7.519063353538513184e-02,1.358984410762786865e-01,4.632418230175971985e-02,7.544967532157897949e-02,-6.633856892585754395e-02,5.826647952198982239e-02,-4.918270930647850037e-02,-6.557323783636093140e-02,-4.469274729490280151e-02,-8.021227270364761353e-02,-3.205098211765289307e-02,9.012851119041442871e-02,-9.716786444187164307e-04,-1.113925036042928696e-02,-5.408697947859764099e-02,1.430686116218566895e-01,-2.474274672567844391e-02,-7.840853184461593628e-02,-2.157506346702575684e-02,9.476826339960098267e-02,2.356138639152050018e-02,-3.837716951966285706e-02,-1.228272821754217148e-02,-5.592288449406623840e-02,-6.046360731124877930e-02,2.277780026197433472e-01,-9.332396090030670166e-03,8.464358747005462646e-02,1.094330335035920143e-03,8.932064473628997803e-02,-5.753145739436149597e-02,4.999422654509544373e-02,-1.706042289733886719e-01,3.479788824915885925e-02,2.580553293228149414e-02,1.480512171983718872e-01,-4.138979688286781311e-02,4.279405251145362854e-02,-1.268181502819061279e-01,-9.819938987493515015e-02,-1.361968275159597397e-02,1.627939343452453613e-01,1.688631623983383179e-01,7.161621004343032837e-02,2.964844182133674622e-02,-1.650177873671054840e-02,-2.037758678197860718e-01,6.713768094778060913e-02,-1.344981044530868530e-01
-1.948486268520355225e-02,-1.136755868792533875e-01,-6.072537973523139954e-02,3.002777136862277985e-02,-4.083411023020744324e-02,1.181741356849670410e-01,-1.660657972097396851e-01,-5.008032917976379395e-02,-1.423613280057907104e-01,5.864745005965232849e-02,-1.410194486379623413e-01,-2.260461449623107910e-02,-4.366211593151092529e-02,1.720790192484855652e-02,-5.924176424741744995e-03,8.097198791801929474e-03,-1.049873977899551392e-01,6.002471968531608582e-02,1.016342043876647949e-01,-1.598153845407068729e-03,6.764758378267288208e-02,-1.103170290589332581e-01,-1.541580408811569214e-01,1.035987734794616699e-01,7.640706002712249756e-02,-4.517436400055885315e-02,-3.826231881976127625e-02,1.007021591067314148e-01,9.587108343839645386e-02,2.180609665811061859e-02,-1.175048723816871643e-01,1.039818581193685532e-02,-3.962604328989982605e-02,-1.182722020894289017e-02,-4.137675091624259949e-02,-6.811472028493881226e-02,-1.708593964576721191e-01,1.795663386583328247e-01,-2.109353244304656982e-02,-4.657471552491188049e-02,1.457554101943969727e-02,-2.053274959325790405e-01,-3.982263058423995972e-02,-1.120218560099601746e-01,-8.041229099035263062e-02,-4.444377496838569641e-02,6.028587371110916138e-02,-1.190562471747398376e-01,-2.032584883272647858e-02,-2.922642044723033905e-02,4.919727519154548645e-02,1.410781126469373703e-02,8.228076249361038208e-02,-1.178002683445811272e-03,1.697701960802078247e-01,-7.405620068311691284e-02,4.674666747450828552e-02,-4.313671216368675232e-02,-8.300327695906162262e-03,-2.047609351575374603e-02
-8.171193301677703857e-02,5.527872126549482346e-03,-8.720520883798599243e-02,8.513915538787841797e-02,-1.092559695243835449e-01,4.062795639038085938e-02,-1.080959918908774853e-03,1.057923771440982819e-02,-3.084718249738216400e-02,-6.347241252660751343e-02,-1.819420903921127319e-01,-6.384687125682830811e-02,-2.219188958406448364e-02,1.864526271820068359e-01,-1.733744591474533081e-01,2.392442077398300171e-01,8.659573644399642944e-02,3.290931880474090576e-02,-1.289793103933334351e-01,3.591639176011085510e-02,1.950358450412750244e-01,-1.316368281841278076e-01,7.866663485765457153e-02,5.185837298631668091e-02,-1.222093105316162109e-01,-7.470937073230743408e-02,7.353874295949935913e-02,-6.280825287103652954e-02,-7.591462880373001099e-02,6.287937611341476440e-02,3.076730109751224518e-02,-1.355344951152801514e-01,-8.573554456233978271e-02,8.765421807765960693e-03,1.878024637699127197e-01,8.672095835208892822e-02,-4.383145272731781006e-02,-4.398497194051742554e-02,-1.794454753398895264e-01,6.007074937224388123e-02,-2.493575364351272583e-01,1.586661487817764282e-01,-5.325967818498611450e-02,1.510135829448699951e-01,-4.646820481866598129e-03,-8.491562306880950928e-02,-5.473769828677177429e-02,7.407047785818576813e-03,-1.335537731647491455e-01,-8.139493875205516815e-03,-4.445779696106910706e-02,1.310527771711349487e-01,2.273876033723354340e-02,1.689710654318332672e-02,1.400594562292098999e-01,-2.606640756130218506e-01,-8.539365977048873901e-02,-9.859592467546463013e-02,-3.076869621872901917e-02,6.822029501199722290e-02
1.169560924172401428e-01,7.436979562044143677e-02,-1.683997362852096558e-02,-2.083631604909896851e-02,-9.491302073001861572e-02,6.435383111238479614e-02,-9.534719586372375488e-02,1.218410357832908630e-01,1.478879451751708984e-01,6.711256504058837891e-02,9.243863075971603394e-02,3.736978024244308472e-02,3.734571859240531921e-02,-8.247166126966476440e-02,-6.640883535146713257e-02,9.279046952724456787e-02,1.009182259440422058e-01,1.894253790378570557e-01,-5.588642507791519165e-02,-7.655158638954162598e-02,-6.376751512289047241e-02,5.489508621394634247e-03,-1.330078542232513428e-01,-6.566848605871200562e-02,3.404102986678481102e-03,1.276535838842391968e-01,1.082504913210868835e-01,1.934152096509933472e-01,5.468672513961791992e-02,4.738108813762664795e-02,-2.524476349353790283e-01,2.756129577755928040e-02,5.569826439023017883e-02,1.991071179509162903e-02,8.069967478513717651e-02,1.844053715467453003e-02,4.985145851969718933e-02,1.321714222431182861e-01,-1.082917675375938416e-01,-3.015455044806003571e-02,1.438323259353637695e-01,1.004061251878738403e-01,1.496857963502407074e-03,2.563763037323951721e-02,-8.888142555952072144e-02,-2.120116725564002991e-02,-8.687352389097213745e-02,2.084826305508613586e-02,6.060300394892692566e-02,-1.947039365768432617e-01,-1.952557638287544250e-02,1.824278235435485840e-01,-6.708455737680196762e-03,4.197410866618156433e-02,-2.146581262350082397e-01,-8.813634514808654785e-02,-4.926894605159759521e-02,1.917362064123153687e-01,4.162191972136497498e-02,-1.402512043714523315e-01
4.107319936156272888e-02,-5.323314666748046875e-02,-7.277520745992660522e-02,-6.912010163068771362e-02,-2.412633746862411499e-01,8.739078044891357422e-02,9.809876233339309692e-02,-3.707007272168993950e-03,1.607348024845123291e-02,2.288999855518341064e-01,-1.173271331936120987e-02,-5.463866144418716431e-02,-1.048348098993301392e-01,-5.600451026111841202e-03,-5.613292381167411804e-02,-5.912032723426818848e-02,2.184172719717025757e-02,4.478285461664199829e-02,-1.180875822901725769e-01,7.268268615007400513e-02,-1.031210571527481079e-01,-4.891287907958030701e-02,9.963551908731460571e-02,-6.980524212121963501e-02,-7.677267491817474365e-02,-1.529247015714645386e-01,-1.040244624018669128e-01,-9.642075747251510620e-02,-7.934070378541946411e-02,-7.538269739598035812e-03,3.077379427850246429e-02,7.486070692539215088e-02,8.537324517965316772e-02,1.216492876410484314e-01,1.679146140813827515e-01,8.026614040136337280e-02,-1.455657035112380981e-01,6.326051801443099976e-02,-5.171596538275480270e-03,-2.921502664685249329e-02,3.669074177742004395e-02,6.802704930305480957e-02,1.106281112879514694e-02,-3.590873628854751587e-02,-6.175048276782035828e-02,1.149901300668716431e-01,1.716438680887222290e-03,2.153711318969726562e-01,1.566843241453170776e-01,2.708745934069156647e-02,-7.363435626029968262e-02,-1.372911185026168823e-01,-1.123761460185050964e-01,-6.406750530004501343e-02,-2.092121690511703491e-01,-1.148946466855704784e-03,3.326313942670822144e-02,-7.968724519014358521e-02,-1.174258217215538025e-01,1.778277456760406494e-01
2.126479893922805786e-01,9.169431775808334351e-02,-4.686960577964782715e-02,-5.274714156985282898e-02,5.645922571420669556e-02,-1.177395209670066833e-01,1.502737253904342651e-01,4.074198380112648010e-02,-1.232213992625474930e-02,-2.727760933339595795e-02,-4.688463732600212097e-02,-2.834047377109527588e-02,-6.637091189622879028e-02,-1.066702976822853088e-01,1.315903961658477783e-01,9.832156822085380554e-03,1.315072327852249146e-01,5.596770718693733215e-02,5.596417933702468872e-02,-1.179425343871116638e-01,-1.589584648609161377e-01,-4.646172747015953064e-02,-7.184814661741256714e-02,1.675372384488582611e-02,1.046745013445615768e-02,-1.441267132759094238e-01,-9.809859842061996460e-02,5.023873969912528992e-02,6.556001305580139160e-02,-3.799739852547645569e-02,-2.212424017488956451e-02,8.069872111082077026e-02,4.333902522921562195e-02,-1.672792132012546062e-03,-9.868415445089340210e-02,1.291401404887437820e-02,6.563592702150344849e-02,1.719531565904617310e-01,-7.500516623258590698e-02,1.944679468870162964e-01,1.020736023783683777e-01,-5.499138310551643372e-02,1.947946399450302124e-01,2.651587687432765961e-02,-1.329648941755294800e-01,-7.611479610204696655e-02,7.001119107007980347e-02,-5.880245566368103027e-02,2.446796149015426636e-01,4.050874710083007812e-02,2.279421836137771606e-01,1.551852375268936157e-02,-2.435827255249023438e-01,-1.347986608743667603e-01,-8.283286541700363159e-02,4.879673570394515991e-02,3.519085794687271118e-02,3.255736529827117920e-01,9.266144782304763794e-02,-6.608062982559204102e-02
2.683832682669162750e-02,1.823323033750057220e-02,-1.103836894035339355e-01,1.029766947031021118e-01,3.008684329688549042e-02,-3.200488863512873650e-03,-9.527732431888580322e-02,-7.924641482532024384e-03,-1.530446857213973999e-01,1.462630778551101685e-01,1.447508018463850021e-02,6.483558565378189087e-03,1.845529489219188690e-02,1.251841634511947632e-01,-1.237917039543390274e-02,6.883253157138824463e-02,-1.575102657079696655e-01,2.382341772317886353e-02,1.392918825149536133e-01,2.230039387941360474e-01,7.926682010293006897e-03,-6.432817131280899048e-02,-8.499954640865325928e-02,-3.519454225897789001e-02,-1.048127189278602600e-01,8.958229422569274902e-02,-2.155876159667968750e-01,-1.193527728319168091e-01,-1.144540458917617798e-01,1.644338853657245636e-02,9.273829869925975800e-03,-2.845842577517032623e-02,3.663108125329017639e-02,-5.627925321459770203e-02,3.784209117293357849e-02,2.537688985466957092e-02,-4.896917566657066345e-02,-3.971224650740623474e-02,1.133404001593589783e-01,1.517738550901412964e-01,9.657111763954162598e-02,6.378101557493209839e-02,-4.147376865148544312e-02,-2.194245532155036926e-02,-4.819488897919654846e-02,-9.295082092285156250e-02,8.950282633304595947e-02,-7.114209979772567749e-02,-2.812734059989452362e-02,-1.662718057632446289e-01,4.551300033926963806e-02,1.814887076616287231e-01,7.629238814115524292e-02,-1.722358018159866333e-01,-2.146083116531372070e-02,2.677248558029532433e-03,-4.066513385623693466e-03,-1.152354031801223755e-01,-1.961347758769989014e-01,1.558636724948883057e-01
3.471674025058746338e-02,-5.866475775837898254e-02,-2.955352328717708588e-02,-3.813413903117179871e-02,3.522993251681327820e-02,6.279525905847549438e-02,-1.255155652761459351e-01,1.583753675222396851e-01,9.153332561254501343e-02,-1.618583798408508301e-01,1.784638613462448120e-01,-5.201407149434089661e-02,7.327080518007278442e-02,-4.093315824866294861e-02,-9.260307997465133667e-02,1.646451503038406372e-01,6.831368058919906616e-02,-2.189037650823593140e-01,-2.051393538713455200e-01,-3.341605141758918762e-02,-1.338947415351867676e-01,4.374863952398300171e-02,6.897404789924621582e-03,-1.157549992203712463e-01,1.820050738751888275e-02,-8.520646393299102783e-02,-5.150697752833366394e-02,-6.262042373418807983e-02,-1.509580016136169434e-01,-1.424262672662734985e-01,-5.208405852317810059e-02,-2.127785794436931610e-02,-1.189744621515274048e-01,6.608135998249053955e-02,7.132852915674448013e-03,3.124893084168434143e-02,6.977217271924018860e-04,2.879500687122344971e-01,-1.146927699446678162e-01,2.382487431168556213e-02,-1.620751917362213135e-01,-1.566399037837982178e-01,-4.017558321356773376e-02,-1.268772333860397339e-01,-2.350335754454135895e-02,7.951720058917999268e-02,-1.646837741136550903e-01,-1.074015274643898010e-01,-1.866646669805049896e-02,-1.426067799329757690e-01,1.701969057321548462e-01,2.765595354139804840e-02,-1.994349211454391479e-01,1.292760521173477173e-01,-1.207601428031921387e-01,-5.779595300555229187e-02,-6.969963014125823975e-02,4.246598482131958008e-02,-1.402803361415863037e-01,-1.909000277519226074e-01
-2.287741750478744507e-01,-7.431023567914962769e-02,-2.182130888104438782e-02,-2.869258821010589600e-02,-1.137841120362281799e-01,-6.377509236335754395e-02,2.076066732406616211e-01,8.679547160863876343e-02,5.152918025851249695e-02,-9.759815782308578491e-02,-7.808520924299955368e-03,1.208269223570823669e-01,7.690214365720748901e-02,1.921028941869735718e-01,4.322126880288124084e-02,-3.660129010677337646e-02,2.238227799534797668e-02,-3.637256100773811340e-02,9.549393504858016968e-02,1.227274686098098755e-01,-9.381793439388275146e-03,-3.684100520331412554e-04,-3.181559965014457703e-02,3.012234270572662354e-01,-9.050124138593673706e-02,7.982122153043746948e-02,-1.210503578186035156e-01,9.958000853657722473e-03,-6.356175243854522705e-02,-2.440625801682472229e-02,-5.225277971476316452e-03,1.484406739473342896e-01,3.788048028945922852e-02,4.420942068099975586e-02,-1.938623003661632538e-02,-1.136455163359642029e-01,1.576423496007919312e-01,4.417566582560539246e-02,1.739178895950317383e-01,-3.821102902293205261e-02,-2.713190019130706787e-02,1.554680764675140381e-01,-1.709745079278945923e-01,1.817869991064071655e-01,-1.911075264215469360e-01,-2.666787244379520416e-02,-1.196868419647216797e-01,1.131738051772117615e-01,-1.963805407285690308e-01,7.744986098259687424e-03,-3.824438154697418213e-02,-5.500357225537300110e-02,2.130418568849563599e-01,8.148487657308578491e-03,6.480382382869720459e-02,-6.939750164747238159e-02,1.592275649309158325e-01,8.631271868944168091e-02,1.006847843527793884e-01,-1.795049756765365601e-01
-4.470641538500785828e-02,5.613065790385007858e-03,7.348088081926107407e-03,-9.035357087850570679e-02,8.215145207941532135e-03,-5.916991829872131348e-02,2.498633600771427155e-02,-5.081671103835105896e-02,2.055594027042388916e-01,1.847436130046844482e-01,4.975102841854095459e-02,3.608075901865959167e-02,-5.522093176841735840e-02,-1.019186899065971375e-01,-2.544068358838558197e-02,-1.345891207456588745e-01,3.224674984812736511e-02,5.272177606821060181e-02,-3.573616966605186462e-02,1.443223208189010620e-01,-3.358907997608184814e-02,1.675564609467983246e-02,-3.345469757914543152e-02,5.454837158322334290e-02,-5.819285660982131958e-02,-5.310560390353202820e-02,-5.919419601559638977e-02,1.697914153337478638e-01,-1.296219527721405029e-01,-1.548057645559310913e-01,-9.618323296308517456e-02,7.572399824857711792e-02,1.355073302984237671e-01,8.249211311340332031e-02,1.143445298075675964e-01,-8.979920297861099243e-02,-3.007295727729797363e-02,8.122921735048294067e-02,-1.008371114730834961e-01,-9.576778113842010498e-02,1.353277117013931274e-01,-9.227078408002853394e-03,8.086641132831573486e-02,-1.505813300609588623e-01,8.429433219134807587e-03,-2.105801366269588470e-02,5.309904739260673523e-02,1.716691404581069946e-01,2.271892316639423370e-02,-1.582341492176055908e-01,-1.260905116796493530e-01,1.916043087840080261e-02,8.860348910093307495e-02,-2.675115503370761871e-02,2.076644003391265869e-01,1.011337786912918091e-01,9.227900207042694092e-02,-3.966885432600975037e-02,4.998241737484931946e-02,-8.030959218740463257e-02
1.687836050987243652e-01,-6.185549497604370117e-02,-5.737717822194099426e-02,-6.785465031862258911e-02,2.114061117172241211e-01,1.565250456333160400e-01,-5.240013077855110168e-02,-5.278499051928520203e-02,-1.489360779523849487e-01,-5.587179586291313171e-02,-1.597142219543457031e-01,5.662566050887107849e-02,5.486714653670787811e-03,-1.200988218188285828e-01,7.780402433127164841e-03,1.945468336343765259e-01,1.127400398254394531e-01,8.798889070749282837e-02,-4.654586687684059143e-02,-4.056611284613609314e-02,1.110709831118583679e-01,6.149709224700927734e-02,-1.457821577787399292e-01,3.344358410686254501e-04,-2.279156632721424103e-02,7.102484256029129028e-02,-8.581007272005081177e-02,2.254647016525268555e-02,-7.199271023273468018e-02,1.105597838759422302e-01,4.751448705792427063e-02,8.375364542007446289e-02,1.121463440358638763e-02,1.318913977593183517e-02,-6.771825999021530151e-02,-7.111179083585739136e-02,-1.182431355118751526e-01,-8.370701223611831665e-02,-6.973417848348617554e-02,3.576156869530677795e-02,1.398058980703353882e-02,-2.097100391983985901e-02,1.471734344959259033e-01,-8.167241513729095459e-02,-4.446024075150489807e-02,2.264135144650936127e-02,9.375070780515670776e-02,-7.556040585041046143e-02,-9.915178269147872925e-02,-5.978498980402946472e-02,3.702887520194053650e-02,-3.222328796982765198e-02,2.608219087123870850e-01,-1.568978279829025269e-01,-3.894762694835662842e-02,1.721414923667907715e-01,4.654869437217712402e-02,-3.960346430540084839e-02,3.740790113806724548e-02,2.338341437280178070e-03
-9.611944109201431274e-02,5.851368978619575500e-02,6.559049338102340698e-02,1.464438587427139282e-01,-2.957326825708150864e-03,1.800187677145004272e-02,-5.541909858584403992e-02,1.550690531730651855e-01,2.015510806813836098e-03,-8.142300881445407867e-03,-7.358123362064361572e-02,-2.060242444276809692e-01,2.491631172597408295e-02,-7.722032815217971802e-02,-1.465678215026855469e-01,1.176948353531770408e-04,-4.643986746668815613e-02,-1.056389808654785156e-01,-2.192047797143459320e-02,6.640477478504180908e-02,9.889994561672210693e-02,1.299961358308792114e-01,-1.306432038545608521e-01,5.905610322952270508e-02,1.179831381887197495e-02,5.824876949191093445e-02,-2.472234331071376801e-02,5.441464111208915710e-02,5.897667631506919861e-02,2.844139933586120605e-01,6.685641594231128693e-03,9.040427953004837036e-02,7.934024184942245483e-02,8.739273250102996826e-02,-2.444441616535186768e-02,2.638890407979488373e-02,8.431541174650192261e-02,6.936005502939224243e-02,-1.315683126449584961e-02,-4.273653775453567505e-02,-6.422358751296997070e-02,2.561242692172527313e-02,8.121325820684432983e-02,1.728903129696846008e-02,-1.832222789525985718e-01,3.030023351311683655e-02,-6.693707406520843506e-02,-3.157536732032895088e-03,-6.961603462696075439e-02,1.308279037475585938e-01,-1.101871356368064880e-01,-1.022324562072753906e-01,-1.282836049795150757e-01,6.360321491956710815e-02,-8.245038241147994995e-02,-8.638759702444076538e-02,1.128915548324584961e-01,-1.752140372991561890e-02,-1.344039142131805420e-01,1.672077029943466187e-01
-8.821374177932739258e-02,-8.653735369443893433e-02,-5.985534191131591797e-02,3.377080336213111877e-02,-1.182854101061820984e-01,8.543442934751510620e-02,1.975542493164539337e-02,5.545708537101745605e-02,9.981303662061691284e-02,4.268516600131988525e-02,1.160074118524789810e-02,3.190413117408752441e-02,9.504810720682144165e-02,6.913496553897857666e-02,5.485684797167778015e-02,-1.889810152351856232e-02,5.189188942313194275e-02,2.176838219165802002e-01,1.617361158132553101e-01,-2.139741089195013046e-03,1.202634442597627640e-02,8.766172081232070923e-02,1.159330978989601135e-01,3.431507945060729980e-02,-1.602759957313537598e-01,7.714591920375823975e-02,1.099933385848999023e-01,6.327489763498306274e-02,-1.785452812910079956e-01,5.575338751077651978e-02,-1.998766820179298520e-04,1.649221330881118774e-01,-3.329632803797721863e-02,-2.247494459152221680e-02,-2.084397274302318692e-04,-7.061070203781127930e-02,3.996491059660911560e-02,-1.621255576610565186e-01,2.246086150407791138e-01,-4.775976017117500305e-02,-2.168996445834636688e-02,-2.018610239028930664e-01,9.864894300699234009e-02,2.151751816272735596e-01,7.545861299149692059e-04,8.148322813212871552e-03,-8.474874496459960938e-02,9.370794892311096191e-02,-9.678944014012813568e-03,-4.253706336021423340e-02,-1.104582920670509338e-01,-5.256186798214912415e-02,3.133882582187652588e-02,6.355861574411392212e-02,-1.192649602890014648e-01,1.257476508617401123e-01,-1.304047256708145142e-01,-9.984449483454227448e-03,1.012769937515258789e-01,6.827121227979660034e-02
-1.584112942218780518e-01,-1.350988298654556274e-01,-5.277061089873313904e-02,-2.625058591365814209e-02,1.364463847130537033e-02,1.601093411445617676e-01,4.537127912044525146e-02,3.100829198956489563e-02,-8.762358874082565308e-02,-4.118453711271286011e-02,-8.037006109952926636e-02,-1.716769039630889893e-01,-7.090783119201660156e-02,4.849208518862724304e-02,-9.558018296957015991e-02,7.997374236583709717e-02,4.784699063748121262e-03,-1.262592226266860962e-01,2.971792127937078476e-04,-2.876655757427215576e-02,1.195719614624977112e-01,-1.042784675955772400e-01,-9.996297210454940796e-02,-1.502145361155271530e-02,1.627613753080368042e-01,-1.305906325578689575e-01,5.397517606616020203e-02,-1.407987158745527267e-02,-1.304264664649963379e-01,-1.963927596807479858e-02,-1.905039250850677490e-01,-1.212197691202163696e-01,-5.689926072955131531e-02,-2.933195792138576508e-02,9.019207954406738281e-02,-2.395831793546676636e-02,9.418735653162002563e-02,1.221649274230003357e-01,6.173636391758918762e-02,2.628296054899692535e-02,2.173145562410354614e-01,1.066423673182725906e-02,1.670601777732372284e-02,1.293943971395492554e-01,5.844848975539207458e-02,-1.230631843209266663e-01,-8.503023535013198853e-02,1.202208623290061951e-01,-3.668088838458061218e-02,-7.992728054523468018e-02,2.737754257395863533e-03,4.040885716676712036e-02,1.891689449548721313e-01,-1.032023578882217407e-01,1.003117673099040985e-02,-1.048671156167984009e-01,2.587422728538513184e-02,-1.992224007844924927e-01,-7.458620518445968628e-02,-6.052955612540245056e-02
-3.041623532772064209e-02,1.723277121782302856e-01,9.760697185993194580e-02,1.759238243103027344e-01,-1.636170409619808197e-02,-9.912138432264328003e-02,1.025188062340021133e-02,-3.408076986670494080e-02,1.401153057813644409e-01,2.349819689989089966e-01,-1.774275302886962891e-01,3.070094063878059387e-02,-1.252085417509078979e-01,-1.865200884640216827e-02,-1.633632183074951172e-02,2.414519339799880981e-01,9.232205152511596680e-02,3.255791962146759033e-02,-3.059101477265357971e-02,1.377825438976287842e-01,7.566300034523010254e-02,-4.464225471019744873e-02,-1.849118918180465698e-01,1.576507538557052612e-01,1.301787942647933960e-01,1.224664002656936646e-01,2.916959812864661217e-03,-7.201644033193588257e-02,7.691132370382547379e-03,-8.598525077104568481e-02,-2.855886486941017210e-05,4.064258933067321777e-02,-3.466550633311271667e-02,-1.554538011550903320e-01,1.088764443993568420e-01,4.543267935514450073e-02,7.439859956502914429e-02,-3.454713523387908936e-02,2.681878767907619476e-02,-4.799275472760200500e-02,-8.114556223154067993e-02,2.173720113933086395e-02,-2.112971991300582886e-01,8.149500936269760132e-02,4.078571870923042297e-02,1.454294621944427490e-01,1.238256692886352539e-01,1.763329654932022095e-01,-1.209820285439491272e-01,6.278411950916051865e-03,-5.358898639678955078e-02,1.027544066309928894e-01,7.278596609830856323e-02,3.161715343594551086e-02,5.614084750413894653e-02,-1.624190658330917358e-01,-1.720640659332275391e-01,7.124545425176620483e-02,-4.526148736476898193e-02,-4.894612357020378113e-02
-1.550437808036804199e-01,1.037165895104408264e-01,6.526705622673034668e-02,3.109844401478767395e-02,9.451559931039810181e-02,4.221722483634948730e-02,-9.758908301591873169e-02,1.160548552870750427e-01,3.009775578975677490e-01,2.407319098711013794e-02,7.870619185268878937e-03,1.249506697058677673e-01,-6.071425601840019226e-02,-7.205839455127716064e-02,7.734384387731552124e-02,2.823801012709736824e-03,-1.347492784261703491e-01,-7.837541401386260986e-02,-5.519977957010269165e-02,-3.731258213520050049e-02,-2.961686253547668457e-02,2.647628262639045715e-02,3.570319339632987976e-02,1.454647332429885864e-01,8.566414564847946167e-02,-4.074994847178459167e-02,-8.198291994631290436e-03,1.190214902162551880e-01,4.608476161956787109e-02,-1.222754716873168945e-01,3.949014097452163696e-02,-5.242075398564338684e-02,-8.993562310934066772e-03,-4.661101847887039185e-02,1.622125655412673950e-01,1.396598201245069504e-02,-1.672102957963943481e-01,1.124169230461120605e-01,-1.311473846435546875e-01,-4.259800538420677185e-02,1.751133054494857788e-01,-8.903320878744125366e-02,-6.283123046159744263e-02,1.896783709526062012e-02,1.525580883026123047e-01,8.958865702152252197e-02,1.407689601182937622e-01,2.380329743027687073e-02,1.138572692871093750e-01,-3.212380781769752502e-02,9.753214567899703979e-02,2.725861407816410065e-02,1.877000927925109863e-02,-1.624729633331298828e-01,-1.401759833097457886e-01,7.188771665096282959e-02,7.336425036191940308e-02,1.395520418882369995e-01,-7.598208636045455933e-02,-1.011639460921287537e-01
-2.123574465513229370e-01,-6.607232242822647095e-02,-7.136192917823791504e-02,3.502250462770462036e-02,-3.174321353435516357e-01,-3.906972333788871765e-02,-9.291431307792663574e-02,-2.067482769489288330e-01,8.504578471183776855e-02,-1.071263924241065979e-01,3.377512795850634575e-03,-7.903163880109786987e-02,-8.125244826078414917e-02,8.593790116719901562e-04,3.344668075442314148e-02,9.780590236186981201e-02,-2.222150564193725586e-03,1.508255451917648315e-01,-3.034777007997035980e-02,-4.738082364201545715e-02,-1.444495022296905518e-01,4.977100715041160583e-02,2.581062028184533119e-03,-2.148181572556495667e-02,7.889396697282791138e-02,-1.116628199815750122e-01,-1.366110891103744507e-01,1.855240911245346069e-01,4.951209947466850281e-02,1.229352727532386780e-01,-1.549765914678573608e-01,4.693052545189857483e-02,1.333873122930526733e-01,-2.474680542945861816e-02,-6.020963937044143677e-02,-4.881119821220636368e-04,8.134049922227859497e-02,-1.750051826238632202e-01,8.226605504751205444e-02,-1.256112288683652878e-02,-1.022268459200859070e-01,1.092025786638259888e-01,-1.510107964277267456e-01,-1.955010183155536652e-02,1.163932401686906815e-02,-1.258719712495803833e-01,-1.644906587898731232e-02,-1.043696328997612000e-02,-4.673803225159645081e-02,1.880471408367156982e-02,1.257780343294143677e-01,-5.117549560964107513e-03,-4.026345536112785339e-02,-8.670686930418014526e-02,-5.391858145594596863e-02,1.470316201448440552e-02,6.654814630746841431e-02,-8.301566354930400848e-03,1.426949650049209595e-01,1.247851401567459106e-01
-9.236869215965270996e-02,2.212002640590071678e-03,-6.508981436491012573e-02,-1.310029774904251099e-01,1.279352903366088867e-01,-8.967980742454528809e-02,8.602230809628963470e-03,3.446950390934944153e-02,-6.223626807332038879e-02,9.403004497289657593e-02,-1.015421152114868164e-01,-2.486442215740680695e-02,-2.724803797900676727e-02,-1.669248007237911224e-02,1.347280479967594147e-02,1.143317818641662598e-01,6.700625177472829819e-03,-6.985690444707870483e-02,5.970007181167602539e-02,-9.859594702720642090e-02,-7.972853630781173706e-02,3.769453987479209900e-02,1.964632980525493622e-02,4.266103729605674744e-02,-1.107597351074218750e-01,-1.149667873978614807e-01,-7.759538292884826660e-02,6.288755685091018677e-03,-5.639064311981201172e-02,4.018236324191093445e-02,-1.362860947847366333e-01,1.232957169413566589e-01,1.916302740573883057e-01,1.434746086597442627e-01,-4.232034087181091309e-02,1.326983422040939331e-01,1.376054435968399048e-02,5.365857481956481934e-02,-3.406354784965515137e-01,-1.197701618075370789e-01,-1.573864668607711792e-01,-6.371474266052246094e-02,-5.852312967181205750e-02,6.125241145491600037e-02,-1.859291270375251770e-02,1.427446957677602768e-02,9.829923510551452637e-02,3.391731902956962585e-02,1.536986976861953735e-01,-3.617004025727510452e-03,1.520160771906375885e-02,-1.803183406591415405e-01,8.612783998250961304e-02,-1.863813214004039764e-02,-7.170327939093112946e-03,3.489073365926742554e-02,-1.768994517624378204e-02,-3.537661582231521606e-02,-1.283810585737228394e-01,-1.110465079545974731e-01
-8.859098702669143677e-02,-7.503633201122283936e-02,1.351480036973953247e-01,-1.458611041307449341e-01,8.181119710206985474e-02,1.128883883357048035e-01,6.463491171598434448e-02,1.613109707832336426e-01,-6.674941629171371460e-02,-6.150594912469387054e-03,-1.609470844268798828e-01,1.785431206226348877e-01,-1.085174828767776489e-02,1.185833364725112915e-01,1.681851148605346680e-01,1.697979718446731567e-01,-8.226533234119415283e-02,-2.550006844103336334e-02,-4.192907945252954960e-04,1.868643462657928467e-01,7.706447690725326538e-02,-6.624727696180343628e-02,1.264759898185729980e-01,-1.939232647418975830e-01,-8.198276162147521973e-02,6.832270324230194092e-02,6.335097551345825195e-02,1.165457889437675476e-01,-1.766541786491870880e-02,-7.521861791610717773e-02,2.334960699081420898e-01,3.894147230312228203e-03,1.017119288444519043e-01,5.474295839667320251e-02,-1.080695614218711853e-01,-5.076083820313215256e-03,-2.807362191379070282e-02,-1.516271661967039108e-02,-4.038605466485023499e-02,7.998685538768768311e-02,7.294070674106478691e-04,1.123842224478721619e-01,1.534476131200790405e-01,1.691087484359741211e-01,-5.164996907114982605e-02,3.004844859242439270e-02,-1.320395618677139282e-01,-1.757069677114486694e-01,-8.743584156036376953e-02,-9.620937518775463104e-03,-3.376042544841766357e-01,1.609882526099681854e-02,4.239245876669883728e-02,-3.277061134576797485e-02,3.650509193539619446e-02,-9.431677311658859253e-02,-1.824054569005966187e-01,-7.155042141675949097e-02,-5.203436687588691711e-02,-5.458607152104377747e-02
-7.214948534965515137e-02,-8.072625845670700073e-02,-1.123682036995887756e-01,-8.755289763212203979e-02,1.073588132858276367e-01,-7.525340467691421509e-02,-1.232320889830589294e-01,-5.613979697227478027e-02,-9.601648896932601929e-02,6.983798742294311523e-02,1.701652854681015015e-01,2.437375253066420555e-03,-8.455218747258186340e-03,-6.590978056192398071e-02,2.510397136211395264e-02,2.929062023758888245e-02,-1.568385213613510132e-01,1.109686270356178284e-01,8.474642038345336914e-02,7.474178820848464966e-02,5.830645188689231873e-02,1.044366285204887390e-01,6.178573518991470337e-02,-1.812592744827270508e-01,-2.427169829607009888e-01,7.644915580749511719e-02,7.013478130102157593e-02,-2.052140235900878906e-01,4.295929335057735443e-03,3.132897242903709412e-02,-4.572335164994001389e-03,-5.632878094911575317e-02,1.943215578794479370e-01,5.230886861681938171e-02,-3.161256015300750732e-02,-3.887182846665382385e-02,-8.542034775018692017e-02,5.603867396712303162e-02,9.900479763746261597e-02,1.011776551604270935e-01,6.633546203374862671e-02,-1.401489228010177612e-01,-3.432492166757583618e-02,-1.286067664623260498e-01,-1.652645915746688843e-01,-7.422783225774765015e-02,-2.084745615720748901e-01,8.856686204671859741e-02,5.956635624170303345e-02,-1.399233788251876831e-01,1.064828559756278992e-01,-4.780698940157890320e-02,-2.635630071163177490e-01,1.618778854608535767e-01,2.425101213157176971e-02,-4.491165652871131897e-02,-3.882931172847747803e-02,-2.070475071668624878e-01,-1.901642791926860809e-02,9.000385552644729614e-02
-9.412479400634765625e-02,-2.381214648485183716e-01,6.010912731289863586e-02,8.445520699024200439e-02,2.621569335460662842e-01,-1.726850569248199463e-01,1.197310909628868103e-01,-5.527511984109878540e-02,9.980645775794982910e-02,-4.135946743190288544e-03,-8.881338685750961304e-02,-9.540727734565734863e-02,5.150175187736749649e-03,-2.467227429151535034e-01,1.332587897777557373e-01,6.349997129291296005e-03,-1.884116046130657196e-02,2.524840831756591797e-02,1.093526706099510193e-01,5.430839583277702332e-02,1.326590962707996368e-02,-3.743877634406089783e-02,-1.130370888859033585e-02,-1.512118726968765259e-01,-1.317290514707565308e-01,1.327415406703948975e-01,4.272161051630973816e-02,2.335337735712528229e-02,-3.314219042658805847e-02,-1.050407513976097107e-01,9.644061326980590820e-02,3.176932409405708313e-02,8.987098117358982563e-04,5.129481106996536255e-02,1.048023533076047897e-02,1.219293028116226196e-01,5.114417150616645813e-02,-6.183967925608158112e-03,-1.108273416757583618e-01,4.709826782345771790e-03,-2.086345255374908447e-01,4.189242422580718994e-02,7.027303427457809448e-02,-7.690723985433578491e-02,-1.251000016927719116e-01,-7.907948642969131470e-02,2.633173204958438873e-02,2.755122818052768707e-02,-8.259543776512145996e-02,-4.108256399631500244e-01,4.101559147238731384e-02,6.017698906362056732e-03,1.254638731479644775e-01,-1.087475195527076721e-01,-3.251833841204643250e-02,-5.158026888966560364e-02,8.817389607429504395e-02,1.539764404296875000e-01,-1.680551022291183472e-01,8.084948360919952393e-02
-2.542968094348907471e-02,-1.129841580986976624e-01,-2.074420005083084106e-01,-3.028268180787563324e-02,3.310956805944442749e-02,-4.134598001837730408e-02,-3.679929673671722412e-02,-4.421287402510643005e-02,-6.412450969219207764e-02,-9.478008747100830078e-02,-1.357296705245971680e-01,-9.347673505544662476e-02,-1.796745806932449341e-01,1.939111948013305664e-01,1.391679793596267700e-02,-1.217966005206108093e-01,5.041254684329032898e-02,-2.712371945381164551e-02,-8.137623220682144165e-02,-2.181054800748825073e-01,1.280210465192794800e-01,2.314390800893306732e-02,8.752200752496719360e-02,2.401986345648765564e-02,1.268963813781738281e-01,-1.251397430896759033e-01,7.485955953598022461e-02,1.556201726198196411e-01,-4.233748838305473328e-02,5.864886194467544556e-02,-1.763437525369226933e-03,7.415669411420822144e-02,-2.515011932700872421e-03,-1.453120261430740356e-01,-1.580091416835784912e-01,3.089388087391853333e-02,-8.616176433861255646e-03,-2.834248915314674377e-02,-1.362426131963729858e-01,4.910748451948165894e-02,-2.886702492833137512e-02,-1.050899643450975418e-02,9.544654935598373413e-02,7.123011350631713867e-02,-9.121897071599960327e-02,3.201458603143692017e-02,-9.276448190212249756e-02,1.077712178230285645e-01,-5.914687737822532654e-02,-4.357130825519561768e-02,-9.976948052644729614e-02,6.817888468503952026e-02,-1.939519867300987244e-02,2.401646040380001068e-02,9.050865471363067627e-02,-7.688578218221664429e-02,-2.875985577702522278e-02,8.157729357481002808e-02,-9.064173698425292969e-02,1.262514591217041016e-01
3.542653471231460571e-02,4.111625719815492630e-03,-8.542688190937042236e-02,-7.197144627571105957e-02,-2.841033041477203369e-02,-7.561760395765304565e-02,-6.104749441146850586e-02,6.534920632839202881e-02,3.679891303181648254e-02,1.105638369917869568e-01,8.623752743005752563e-02,-1.011438667774200439e-02,-4.151010140776634216e-02,-2.924769930541515350e-02,-2.349404804408550262e-02,-1.614106744527816772e-01,-2.612969279289245605e-01,5.375101789832115173e-02,-1.673604249954223633e-01,-2.020487338304519653e-01,-3.465435653924942017e-02,-4.637774825096130371e-02,-3.244209801778197289e-03,6.428476423025131226e-02,-2.496406063437461853e-02,-4.216569662094116211e-02,2.350175345782190561e-04,-3.624423593282699585e-02,-6.510839611291885376e-02,1.598944328725337982e-02,6.381712853908538818e-02,-5.053462460637092590e-02,-5.814621970057487488e-02,-8.525276184082031250e-02,-3.541951254010200500e-02,-1.569689065217971802e-01,1.529903411865234375e-01,1.110701784491539001e-01,-2.103899978101253510e-02,-6.485361605882644653e-03,1.160293221473693848e-01,-4.533558711409568787e-02,2.676896750926971436e-02,2.155938930809497833e-02,1.171085704118013382e-02,1.346215307712554932e-01,6.391219794750213623e-02,1.786935180425643921e-01,1.727226525545120239e-01,1.320993900299072266e-02,-8.409031480550765991e-02,-2.609271183609962463e-02,5.833696201443672180e-02,-8.251349627971649170e-02,1.034028902649879456e-01,-1.055252552032470703e-01,1.022173911333084106e-01,1.165220141410827637e-01,1.002581641077995300e-01,-2.987427450716495514e-02
8.773567527532577515e-02,-2.217661440372467041e-01,-1.481033414602279663e-01,6.603693217039108276e-02,-8.741888403892517090e-02,-5.222523119300603867e-03,3.746974468231201172e-02,-1.183594390749931335e-01,-6.519200652837753296e-02,2.677644602954387665e-02,1.414969265460968018e-01,6.421955674886703491e-02,3.739049658179283142e-02,1.163371205329895020e-01,2.064986526966094971e-02,-8.821716159582138062e-02,-8.747477084398269653e-02,-6.179073452949523926e-02,-1.340104788541793823e-01,-1.079175621271133423e-01,-2.267616055905818939e-02,-2.257565259933471680e-01,-6.186597049236297607e-03,-1.196856722235679626e-01,-1.733897179365158081e-01,-1.241704225540161133e-01,-1.353894770145416260e-01,-2.765074372291564941e-01,5.018540099263191223e-02,2.355453558266162872e-02,-9.788876026868820190e-02,4.252779763191938400e-04,-1.273687649518251419e-02,6.562991440296173096e-02,9.446530789136886597e-02,1.608138084411621094e-01,1.149204969406127930e-01,-6.926571577787399292e-02,-1.660914421081542969e-01,3.278489038348197937e-02,5.457766726613044739e-02,-1.234463378787040710e-01,-1.043955795466899872e-02,-1.684899181127548218e-01,8.035472780466079712e-02,-8.877074718475341797e-02,1.075883284211158752e-01,-1.207259893417358398e-01,-1.158822327852249146e-01,-3.262957558035850525e-02,9.619499556720256805e-03,1.620227396488189697e-01,6.935214996337890625e-02,-8.707042038440704346e-02,1.822621673345565796e-01,2.918662726879119873e-01,-2.957936823368072510e-01,-4.907840397208929062e-03,2.904352359473705292e-02,1.117976475507020950e-02
-3.874741494655609131e-01,-2.823860943317413330e-02,-1.157706254161894321e-03,-9.880980104207992554e-02,-1.234038993716239929e-01,-5.279647186398506165e-02,-1.899969018995761871e-02,-1.713858172297477722e-02,-3.380219265818595886e-02,9.717450290918350220e-02,2.028638124465942383e-01,-7.292898744344711304e-02,-2.455175668001174927e-01,1.757599264383316040e-01,1.136305108666419983e-01,-3.601183369755744934e-02,-1.178208738565444946e-01,3.286283463239669800e-03,-2.115499228239059448e-02,6.718765944242477417e-02,-1.198606118559837341e-01,7.262299209833145142e-02,-3.788175806403160095e-02,6.870901584625244141e-02,6.632921751588582993e-03,1.219308897852897644e-01,1.248558908700942993e-01,-3.770076483488082886e-02,2.657144330441951752e-02,-2.230902900919318199e-03,7.406404614448547363e-02,3.019602969288825989e-02,4.349637776613235474e-02,2.914673648774623871e-02,1.302359253168106079e-01,1.160785928368568420e-01,-1.887816749513149261e-02,-4.017160460352897644e-02,2.995405159890651703e-02,-1.270586103200912476e-01,8.106338232755661011e-02,-8.069272153079509735e-03,6.884489208459854126e-02,-1.200177818536758423e-01,9.931174665689468384e-02,2.916182018816471100e-02,3.785330057144165039e-02,1.699947402812540531e-03,-2.269382402300834656e-02,-4.743706062436103821e-02,2.454736642539501190e-02,-1.711511462926864624e-01,6.523918360471725464e-02,-1.334836483001708984e-01,4.971032962203025818e-02,-9.255643934011459351e-02,1.064041778445243835e-01,-2.593743242323398590e-02,5.515416339039802551e-02,6.394704431295394897e-02
5.766437202692031860e-02,-1.709830947220325470e-02,6.440122425556182861e-02,4.695197939872741699e-02,-2.598883584141731262e-02,-2.250142954289913177e-02,8.385941386222839355e-03,5.921444296836853027e-02,4.235589131712913513e-02,-2.369884215295314789e-02,1.300761103630065918e-02,-2.786957658827304840e-02,-1.068569794297218323e-01,-9.487991780042648315e-02,-2.451857738196849823e-02,4.197713360190391541e-02,6.526760011911392212e-02,-4.163340851664543152e-02,-4.542045760899782181e-03,1.630838960409164429e-01,1.885939091444015503e-01,-8.992294967174530029e-02,2.176330238580703735e-02,1.433045417070388794e-01,2.307020314037799835e-02,-7.014377415180206299e-02,1.069085001945495605e-01,4.823691025376319885e-02,5.872274562716484070e-02,-6.143922731280326843e-02,3.056627511978149414e-02,-5.824664235115051270e-02,-1.730742603540420532e-01,4.649935755878686905e-03,-8.786422759294509888e-02,4.100644215941429138e-02,1.340699940919876099e-01,-1.203561201691627502e-02,2.859197929501533508e-02,-2.304343692958354950e-02,1.517333835363388062e-01,7.109869271516799927e-02,-3.997042775154113770e-03,-1.290059369057416916e-02,-6.639429181814193726e-02,1.106342077255249023e-01,1.351644992828369141e-01,1.742303371429443359e-01,-1.279222965240478516e-01,-1.783780753612518311e-01,1.390127837657928467e-01,-5.073195695877075195e-02,6.567835062742233276e-02,2.213993854820728302e-02,-3.437026590108871460e-02,6.016252562403678894e-02,-4.356717690825462341e-02,6.673875730484724045e-03,-3.899991884827613831e-02,-6.119334325194358826e-02
-2.238176316022872925e-01,2.038121968507766724e-02,-1.214621439576148987e-01,-1.248256564140319824e-01,6.000691279768943787e-02,1.015308126807212830e-01,2.204543724656105042e-02,-9.733082354068756104e-02,4.963707551360130310e-02,7.212124019861221313e-02,-8.796939998865127563e-02,1.012718006968498230e-01,-8.245438337326049805e-02,-4.991364106535911560e-02,9.529209695756435394e-03,2.140285968780517578e-01,-1.200362816452980042e-01,-3.050248324871063232e-02,-1.463944762945175171e-01,-1.832177042961120605e-01,1.444569826126098633e-01,-6.984945386648178101e-02,-2.341839717701077461e-03,-1.403622031211853027e-01,-9.240046888589859009e-02,-3.091157972812652588e-02,-6.805180758237838745e-02,-7.634527981281280518e-02,-7.282759994268417358e-02,1.632365733385086060e-01,-2.602479159832000732e-01,-1.431517601013183594e-01,-3.040359355509281158e-02,-1.042807847261428833e-01,-1.077226176857948303e-02,1.598746329545974731e-01,-3.028317168354988098e-02,9.152922779321670532e-03,2.586770616471767426e-02,1.099172458052635193e-01,2.870098687708377838e-02,-1.694620698690414429e-01,-8.142938464879989624e-02,-4.305168986320495605e-02,-7.168284058570861816e-02,4.097630083560943604e-02,2.728660777211189270e-02,-1.669969558715820312e-01,1.255890280008316040e-01,-5.452952906489372253e-02,-4.699435830116271973e-02,2.158889621496200562e-01,-6.883338093757629395e-02,-1.417085975408554077e-01,8.160766214132308960e-02,1.394401490688323975e-02,9.303743951022624969e-03,-1.412525624036788940e-01,-3.318421170115470886e-02,-3.698987141251564026e-02
