1.459396034479141235e-01,-1.100070476531982422e-01,-7.533331960439682007e-02,1.107593178749084473e-01,6.590037792921066284e-02,5.236560478806495667e-02,-7.016941308975219727e-01,-3.226566314697265625e-01,9.921826422214508057e-02,8.239036053419113159e-02,3.379525616765022278e-02,6.050226092338562012e-02,-9.380315989255905151e-02,-3.102167248725891113e-01,-1.484990864992141724e-01,2.520985901355743408e-01,2.992960214614868164e-01,3.748141601681709290e-02,-1.262099444866180420e-01,-1.356970667839050293e-01,-5.492440611124038696e-02,-2.228923738002777100e-01,-6.437166128307580948e-03,9.139292687177658081e-02,-8.503437042236328125e-02,-1.787102073431015015e-01,-1.808070093393325806e-01,-1.380846835672855377e-02,5.959418043494224548e-02,1.282815937884151936e-03,1.082452088594436646e-01,1.660291701555252075e-01,3.076972626149654388e-02,-1.651448160409927368e-01,-6.902886182069778442e-02,-2.265077531337738037e-01,1.871322840452194214e-01,6.113377213478088379e-01,3.855120241641998291e-01,4.419424757361412048e-02,-1.075583398342132568e-01,7.316358387470245361e-02,1.837160438299179077e-01,3.803012967109680176e-01,3.994752168655395508e-01,3.160442039370536804e-02,-2.645086348056793213e-01,-4.738093614578247070e-01,-2.482417039573192596e-02,9.614763408899307251e-02,2.198320478200912476e-01,2.286438345909118652e-01,1.016324236989021301e-01,-1.563892364501953125e-01,9.236757643520832062e-03,1.000946536660194397e-01,2.712653577327728271e-01,2.279765009880065918e-01,1.753528863191604614e-01,-4.691622778773307800e-02
5.210088565945625305e-02,-4.499356821179389954e-02,-8.689489960670471191e-02,-6.797330081462860107e-02,-6.774169206619262695e-02,-1.527306437492370605e-01,-1.363644599914550781e-01,-7.672522962093353271e-02,3.681732714176177979e-02,-4.339757189154624939e-02,9.050928056240081787e-02,1.263623237609863281e-01,1.118004769086837769e-01,5.301200971007347107e-02,1.961556077003479004e-01,2.133058607578277588e-01,1.509555578231811523e-01,-2.984137460589408875e-02,-7.645349949598312378e-02,-2.265848070383071899e-01,-2.469874918460845947e-01,-2.483851462602615356e-01,-2.183662503957748413e-01,-1.844443231821060181e-01,-1.497986260801553726e-02,6.128284707665443420e-02,1.690277010202407837e-01,2.625234425067901611e-01,1.793998181819915771e-01,1.041943654417991638e-01,6.060915440320968628e-02,1.611599177122116089e-01,-1.534374803304672241e-01,4.847004264593124390e-02,5.481873452663421631e-02,1.378750801086425781e-02,-6.684823893010616302e-03,4.860774800181388855e-02,5.717023834586143494e-02,4.517411068081855774e-02,-5.011978000402450562e-02,-8.678243495523929596e-03,5.800889804959297180e-02,2.368047274649143219e-02,-6.017431244254112244e-02,4.638534784317016602e-02,1.083108633756637573e-01,5.575212463736534119e-02,5.448146164417266846e-02,7.304805517196655273e-02,4.621839523315429688e-02,-1.534460112452507019e-02,1.074088551104068756e-02,4.105759412050247192e-02,-1.310221944004297256e-02,-7.839054614305496216e-02,1.409809291362762451e-02,-9.407158941030502319e-03,2.572702988982200623e-02,-1.313991285860538483e-02
1.302242744714021683e-02,2.055688574910163879e-02,9.939674288034439087e-02,3.415975347161293030e-02,1.611886620521545410e-01,1.813679635524749756e-01,4.839795082807540894e-02,3.316614404320716858e-02,2.693131798878312111e-03,-4.614442121237516403e-03,5.721976980566978455e-02,7.605680078268051147e-02,5.523180216550827026e-02,4.545440152287483215e-02,1.771447062492370605e-02,2.173044718801975250e-02,-1.633296161890029907e-02,-1.288076979108154774e-03,-3.892727568745613098e-02,7.951135747134685516e-03,7.076924294233322144e-02,7.415628433227539062e-02,3.418801352381706238e-02,4.486085101962089539e-02,7.409923523664474487e-02,4.697885364294052124e-02,4.692294448614120483e-02,5.810768157243728638e-02,7.866481691598892212e-02,2.942858636379241943e-02,1.062182523310184479e-02,5.040478333830833435e-02,1.778024882078170776e-01,7.269703596830368042e-02,3.398030297830700874e-03,-1.422817073762416840e-02,1.026360839605331421e-01,9.171912819147109985e-02,-3.134934604167938232e-02,8.390868455171585083e-02,-5.479706078767776489e-02,-4.500025138258934021e-02,-2.645725943148136139e-02,-1.752251386642456055e-02,3.079144470393657684e-02,8.334280923008918762e-03,3.804162517189979553e-02,7.452996820211410522e-02,6.226693838834762573e-02,2.601489238440990448e-02,-3.819892555475234985e-02,6.915239244699478149e-02,6.234471499919891357e-02,3.438055887818336487e-02,8.667372167110443115e-03,6.097337231040000916e-02,4.200025647878646851e-02,8.354857563972473145e-03,1.269652508199214935e-02,4.846650362014770508e-02
1.185825392603874207e-01,9.643305838108062744e-02,1.520089060068130493e-01,-5.151143670082092285e-01,-1.676144301891326904e-01,4.128995351493358612e-03,6.374055892229080200e-02,1.001509055495262146e-01,-2.455739825963973999e-01,6.078359112143516541e-02,-5.709064006805419922e-02,-1.004442572593688965e-01,-4.745243862271308899e-02,-6.551857292652130127e-02,-3.906907886266708374e-02,-6.913109682500362396e-03,-5.793280899524688721e-02,1.461335830390453339e-02,1.521975249052047729e-01,4.523350298404693604e-02,-2.477122396230697632e-01,-3.136138617992401123e-01,-1.779002547264099121e-01,1.159558519721031189e-01,-1.941052824258804321e-01,-1.756814122200012207e-01,-4.637461155652999878e-02,-1.623704880475997925e-01,6.090959906578063965e-02,-1.826079445891082287e-03,1.169135570526123047e-01,-1.284139156341552734e-01,-5.921830534934997559e-01,3.052210509777069092e-01,3.351879119873046875e-01,1.956281960010528564e-01,8.705092221498489380e-02,-1.051406115293502808e-01,2.490763366222381592e-01,6.080117076635360718e-02,-1.977186836302280426e-02,2.479602545499801636e-01,1.197983846068382263e-01,1.957452148199081421e-01,1.347516626119613647e-01,6.679913401603698730e-02,7.263525575399398804e-02,2.609464228153228760e-01,-8.148973435163497925e-02,-4.018337726593017578e-01,5.861690267920494080e-02,5.956284403800964355e-01,8.798580616712570190e-02,7.397543638944625854e-02,2.024057954549789429e-01,2.039078176021575928e-01,4.573803395032882690e-02,3.131433725357055664e-01,8.863549679517745972e-02,-4.399305209517478943e-02
1.000576615333557129e-01,-1.185298919677734375e+00,1.107263937592506409e-01,1.536164283752441406e-01,-3.053054446354508400e-03,4.741402342915534973e-02,-5.688414722681045532e-02,1.984967589378356934e-01,-1.465397421270608902e-02,7.316464930772781372e-02,2.654035389423370361e-02,-7.976515591144561768e-02,-2.715144678950309753e-02,-6.827310472726821899e-02,1.314364839345216751e-02,1.720493584871292114e-01,3.014434687793254852e-02,-3.386594057083129883e-01,-1.196833476424217224e-01,1.000225022435188293e-01,-2.454631589353084564e-02,5.142185837030410767e-03,7.134269922971725464e-02,2.923547476530075073e-02,-6.497144699096679688e-02,-5.327501893043518066e-02,1.939811557531356812e-02,3.755689784884452820e-02,-5.228979885578155518e-02,-4.509362205862998962e-02,1.084285974502563477e+00,6.077165007591247559e-01,-4.184589087963104248e-01,-9.135134518146514893e-02,-8.282017707824707031e-02,-1.180057749152183533e-01,-1.628408879041671753e-01,-7.837762124836444855e-03,5.278557166457176208e-02,5.224326252937316895e-02,3.880373388528823853e-02,1.207345202565193176e-01,9.749187529087066650e-02,4.403902217745780945e-02,-4.724935814738273621e-02,-3.950617834925651550e-02,2.831484377384185791e-01,1.034377589821815491e-01,-1.529451906681060791e-01,3.176139667630195618e-03,-5.252103134989738464e-02,-1.846974343061447144e-01,-9.006160497665405273e-02,-4.526739940047264099e-02,4.847162589430809021e-02,4.078445583581924438e-02,3.054202906787395477e-02,1.200056821107864380e-01,1.520463228225708008e-01,4.224367067217826843e-02
3.377788662910461426e-01,1.778881400823593140e-01,-3.053228557109832764e-01,-4.991862550377845764e-02,1.008175984025001526e-01,-3.117860853672027588e-01,-5.935667753219604492e-01,3.388996422290802002e-01,3.001134395599365234e-01,1.557272076606750488e-01,-7.756442576646804810e-02,-6.188580021262168884e-02,-2.835648600012063980e-03,-1.982302069664001465e-01,-9.734112769365310669e-02,3.795416355133056641e-01,1.906364113092422485e-01,-3.719683289527893066e-01,3.025428950786590576e-01,3.653436005115509033e-01,-1.097476109862327576e-01,-2.409830838441848755e-01,7.462307810783386230e-02,2.825884893536567688e-02,-1.293338239192962646e-01,-1.123984977602958679e-01,7.098806649446487427e-02,3.709372878074645996e-02,-5.400193110108375549e-02,5.090944468975067139e-03,-2.865173220634460449e-01,1.481055915355682373e-01,4.471501111984252930e-01,-1.509038656949996948e-01,-1.497365832328796387e-01,4.739765524864196777e-01,-3.392204269766807556e-02,-5.793932080268859863e-01,-1.006313040852546692e-01,1.451665759086608887e-01,1.283529251813888550e-01,2.589611103758215904e-03,9.725067019462585449e-02,1.788157075643539429e-01,-1.349864304065704346e-01,-3.584771156311035156e-01,2.321889102458953857e-01,7.623212039470672607e-02,-4.667347073554992676e-01,4.136087372899055481e-02,6.829363107681274414e-01,-1.283690929412841797e-01,-1.546263098716735840e-01,1.821483671665191650e-02,1.953666657209396362e-01,-7.764936424791812897e-03,-2.020314037799835205e-01,1.218517273664474487e-01,1.345211267471313477e-01,-8.038585633039474487e-02
3.031817674636840820e-01,-1.332601904869079590e-01,-3.410741090774536133e-01,-6.755759567022323608e-02,-2.798539996147155762e-01,-1.723783314228057861e-01,1.344919204711914062e-01,-8.399468846619129181e-03,-1.009024381637573242e+00,1.605492830276489258e-02,4.009693562984466553e-01,4.158242046833038330e-02,-1.849819570779800415e-01,-2.722388207912445068e-01,-8.047609031200408936e-02,5.556347593665122986e-02,-7.576890289783477783e-02,5.835886672139167786e-02,2.335227839648723602e-02,2.212898433208465576e-02,4.584211856126785278e-02,-9.253971278667449951e-02,-3.779142349958419800e-02,-3.968519344925880432e-02,1.051561906933784485e-01,-1.034640818834304810e-01,-1.529482901096343994e-01,-2.888212539255619049e-02,8.269795030355453491e-02,-1.160079911351203918e-01,-1.630574613809585571e-01,-8.888142555952072144e-02,2.617508769035339355e-01,2.528507411479949951e-01,1.543904840946197510e-01,1.221960783004760742e-01,-2.597799301147460938e-01,-4.031226933002471924e-01,8.672028183937072754e-01,4.597370326519012451e-01,1.435833871364593506e-01,-1.642384082078933716e-01,2.058887630701065063e-01,5.307944491505622864e-03,1.191040799021720886e-01,-9.023273363709449768e-03,5.332244560122489929e-02,-4.817150160670280457e-02,7.163682579994201660e-02,5.733195319771766663e-02,8.122055232524871826e-02,1.465768516063690186e-01,1.167378574609756470e-01,1.630733162164688110e-01,2.522820606827735901e-02,1.188440546393394470e-01,9.221306443214416504e-02,-1.173371970653533936e-01,-5.706705525517463684e-02,-1.068719327449798584e-01
2.083888053894042969e-01,1.812454760074615479e-01,3.035835325717926025e-01,3.565239608287811279e-01,2.525158226490020752e-01,1.745993196964263916e-01,1.542899608612060547e-01,1.968250423669815063e-01,2.645712792873382568e-01,9.740433841943740845e-02,7.520505785942077637e-02,1.247893869876861572e-01,2.302072755992412567e-02,2.084193937480449677e-02,-1.436824053525924683e-01,-1.912492513656616211e-01,-3.193050324916839600e-01,-4.376043677330017090e-01,-3.022640943527221680e-01,-2.580135464668273926e-01,-1.397122293710708618e-01,-1.641448214650154114e-02,7.440567016601562500e-02,1.162862405180931091e-01,1.284132990986108780e-02,1.049387603998184204e-01,8.712691068649291992e-02,8.575659245252609253e-02,-1.679123193025588989e-02,1.442498620599508286e-02,-8.172906935214996338e-02,-1.314791440963745117e-01,-2.297694385051727295e-01,-3.068341910839080811e-01,-6.476136296987533569e-02,-3.953602910041809082e-02,-2.771933376789093018e-01,-1.131888777017593384e-01,-1.471932083368301392e-01,1.088543515652418137e-02,1.329057943075895309e-02,-5.975389480590820312e-02,1.941661536693572998e-02,8.458693325519561768e-02,1.219161152839660645e-01,1.504644304513931274e-01,1.642956584692001343e-01,2.526642680168151855e-01,1.383836120367050171e-01,1.092822477221488953e-01,4.455924034118652344e-02,-9.428033232688903809e-02,-3.763066604733467102e-02,-4.014648869633674622e-02,-4.440188780426979065e-02,1.957960613071918488e-02,-3.664651140570640564e-02,-4.685405641794204712e-02,4.902616515755653381e-02,-2.997727878391742706e-02
-1.010469626635313034e-02,-2.190544083714485168e-02,3.458277089521288872e-03,6.685411557555198669e-03,-1.371514238417148590e-02,-9.800007566809654236e-03,-1.324917841702699661e-02,-2.397968471050262451e-01,7.767804898321628571e-03,7.522175554186105728e-03,-1.097694877535104752e-02,-5.243841409683227539e-01,-3.814864531159400940e-02,-2.228454351425170898e+00,1.000638701952993870e-03,1.756356912665069103e-03,-4.870648961514234543e-03,-2.712581539526581764e-03,6.597490981221199036e-03,-6.071933545172214508e-03,1.978102372959256172e-03,-1.421479601413011551e-02,5.088554695248603821e-03,-1.344376802444458008e-01,-4.285173490643501282e-03,2.796277869492769241e-03,2.871937677264213562e-02,1.583834923803806305e-02,-2.206765674054622650e-02,-1.011396169662475586e+00,2.356806211173534393e-02,1.379746361635625362e-03,-3.163542598485946655e-02,-6.316422019153833389e-03,-6.057107355445623398e-03,7.873534224927425385e-03,2.545090913772583008e-01,2.911667805165052414e-03,-2.068970724940299988e-02,5.409194156527519226e-03,5.113108158111572266e-01,2.531022019684314728e-02,2.219412326812744141e+00,1.842964999377727509e-02,-5.721466615796089172e-03,2.801434136927127838e-03,1.419050246477127075e-02,-1.065202243626117706e-02,-1.123641896992921829e-02,-1.232420466840267181e-02,-1.300217700190842152e-03,-1.277393754571676254e-02,1.496651023626327515e-01,-6.384552922099828720e-03,-5.567672662436962128e-03,-2.675512060523033142e-02,-8.618623949587345123e-03,8.135988377034664154e-03,9.967437386512756348e-01,9.501186199486255646e-03
-9.181762114167213440e-03,-2.357337810099124908e-02,-2.188787795603275299e-02,-1.654294691979885101e-02,-1.040252763777971268e-02,2.492970600724220276e-02,-7.283511222340166569e-04,-4.279557615518569946e-04,9.691806510090827942e-03,1.303252670913934708e-02,1.831138506531715393e-02,-3.877635300159454346e-02,-5.009706132113933563e-03,-2.678966522216796875e-02,1.026473287492990494e-02,2.122729085385799408e-03,-4.691789746284484863e-01,-8.451358973979949951e-02,-3.667762503027915955e-02,-1.693893522024154663e-01,-1.449665054678916931e-02,-1.151154842227697372e-02,-3.902670741081237793e-02,-9.504070281982421875e-01,2.474978752434253693e-02,-5.565739050507545471e-02,-1.997407674789428711e+00,9.045901708304882050e-03,-3.955796360969543457e-02,-4.023052752017974854e-02,-2.077456004917621613e-02,1.616739295423030853e-02,9.792317636311054230e-03,-2.885767631232738495e-02,-3.678967012092471123e-03,-2.601315267384052277e-02,-2.858624979853630066e-02,-1.406393479555845261e-02,-1.728827878832817078e-02,-1.306780613958835602e-02,-7.873598486185073853e-03,2.372526330873370171e-03,2.300360240042209625e-03,1.101607456803321838e-02,-1.238085702061653137e-02,4.412146806716918945e-01,1.149531230330467224e-01,-1.157882064580917358e-02,1.908324360847473145e-01,1.594423688948154449e-02,1.278694439679384232e-02,2.002250868827104568e-03,9.664801359176635742e-01,-9.470750577747821808e-03,-1.462932676076889038e-02,2.000756978988647461e+00,3.159753605723381042e-02,3.445646911859512329e-02,4.915610700845718384e-02,1.770828105509281158e-02
-6.692336173728108406e-04,2.721411585807800293e-01,1.403142958879470825e-01,1.124427169561386108e-01,-2.489617466926574707e-02,-1.532039493322372437e-01,-6.139165163040161133e-01,-1.652301661670207977e-02,3.189428150653839111e-02,-4.531941562891006470e-02,3.099520206451416016e-01,2.992992289364337921e-02,-1.794442981481552124e-01,-9.882736951112747192e-02,1.993849128484725952e-01,1.664193719625473022e-01,8.862561732530593872e-02,-2.930232584476470947e-01,-3.211447596549987793e-02,-2.470411658287048340e-01,2.100809849798679352e-02,5.904436111450195312e-02,9.331972151994705200e-02,3.901833295822143555e-02,-2.504356801509857178e-01,-6.636609137058258057e-02,1.283478550612926483e-02,1.954033821821212769e-01,3.600301146507263184e-01,-1.188069283962249756e-01,3.985440731048583984e-02,-6.955416500568389893e-02,-1.827213466167449951e-01,-2.586643695831298828e-01,-1.483872085809707642e-01,8.601405471563339233e-02,6.363983154296875000e-01,4.272710978984832764e-01,1.251659095287322998e-01,-1.388369221240282059e-02,-9.162896871566772461e-02,-2.049169838428497314e-01,8.064384013414382935e-02,7.190479338169097900e-02,-1.313277035951614380e-01,-1.594359278678894043e-01,-2.709976732730865479e-01,1.658221632242202759e-01,2.391830384731292725e-01,2.635716497898101807e-01,2.061938196420669556e-01,1.378184184432029724e-02,-3.819517791271209717e-01,1.692924648523330688e-02,1.532363593578338623e-01,1.285951584577560425e-02,1.730103641748428345e-01,5.745006352663040161e-02,-2.233717441558837891e-01,-1.293950229883193970e-01
2.147216796875000000e-01,2.532788813114166260e-01,2.644818723201751709e-01,2.821948230266571045e-01,1.787128895521163940e-01,1.506577879190444946e-01,-7.880859076976776123e-02,5.578773468732833862e-02,5.293050780892372131e-02,1.110903471708297729e-01,-1.866045594215393066e-02,2.377883158624172211e-02,-8.340603858232498169e-02,2.287127636373043060e-02,1.548076719045639038e-01,2.286746799945831299e-01,3.783859312534332275e-01,3.547372817993164062e-01,2.523857951164245605e-01,2.591114938259124756e-01,1.999939084053039551e-01,2.975291805341839790e-03,-7.332513481378555298e-02,-2.167906612157821655e-01,-2.097108215093612671e-01,-2.759777009487152100e-01,-2.156006544828414917e-01,-2.047927230596542358e-01,-1.728540807962417603e-01,-5.055703595280647278e-02,-1.661614477634429932e-01,-1.718699634075164795e-01,-1.895851790904998779e-01,-1.716799139976501465e-01,-7.868295162916183472e-02,-6.767267733812332153e-02,-3.312016604468226433e-03,-1.155902147293090820e-01,-3.049058280885219574e-02,1.122405454516410828e-01,7.840008474886417389e-03,1.010654121637344360e-01,9.191541373729705811e-02,4.379582125693559647e-03,-9.783152490854263306e-02,-2.346730977296829224e-01,-2.535821795463562012e-01,-2.090877741575241089e-01,-2.885863482952117920e-01,-1.334570627659559250e-02,3.744927793741226196e-02,3.187976405024528503e-02,1.299160420894622803e-01,1.779405772686004639e-01,1.627649068832397461e-01,1.095104664564132690e-01,2.586413621902465820e-01,1.209367066621780396e-01,1.420095562934875488e-01,1.455970704555511475e-01
-1.026759203523397446e-02,-8.400196582078933716e-02,-6.341852713376283646e-03,-2.992068417370319366e-02,-1.722642064094543457e+00,-1.116066426038742065e-02,-1.315020024776458740e-02,2.390331029891967773e-02,1.440520770847797394e-02,1.428216602653264999e-02,-3.947935402393341064e-01,-5.053223296999931335e-02,-1.555901113897562027e-02,-9.974856860935688019e-03,-6.651007570326328278e-03,-1.700216382741928101e-01,3.190388530492782593e-02,8.337269537150859833e-03,5.819638725370168686e-03,-8.326666951179504395e-01,-6.658678408712148666e-03,8.324272930622100830e-03,-1.260477025061845779e-02,9.722026996314525604e-03,-7.377809961326420307e-04,1.721745356917381287e-02,-6.506083067506551743e-03,-9.314744733273983002e-03,-1.037915050983428955e-02,2.423931472003459930e-02,9.791414439678192139e-02,-1.074422895908355713e-02,-3.286289423704147339e-02,1.705740809440612793e+00,2.496104128658771515e-02,6.970584858208894730e-03,-1.314738113433122635e-02,1.222480181604623795e-02,-1.740083284676074982e-02,4.082760214805603027e-01,1.057107299566268921e-01,4.014751315116882324e-02,2.120293676853179932e-02,8.089938201010227203e-03,1.798214614391326904e-01,-7.893923670053482056e-03,-4.726981278508901596e-03,-5.944610107690095901e-03,8.383065462112426758e-01,4.580666497349739075e-02,-6.217441521584987640e-03,-1.078025996685028076e-02,-3.446199465543031693e-03,2.158426493406295776e-02,5.879944656044244766e-03,-2.652774192392826080e-02,2.976930700242519379e-02,3.692351654171943665e-02,-1.398961525410413742e-03,-2.983341459184885025e-03
8.949933573603630066e-03,-5.184619221836328506e-03,-1.146142333745956421e-01,-1.926846569404006004e-03,-1.276463968679308891e-03,-1.665838435292243958e-02,-9.534030221402645111e-03,-4.642706811428070068e-01,2.547903219237923622e-03,-1.107005681842565536e-02,-1.341992756351828575e-04,-3.243376314640045166e-02,-2.106241226196289062e+00,1.534827519208192825e-03,-2.076451852917671204e-02,-1.352473627775907516e-03,-7.472850847989320755e-03,-2.326884716749191284e-01,-5.800831131637096405e-03,-2.173899114131927490e-02,-1.009881496429443359e+00,5.655410233885049820e-03,-2.740187337622046471e-03,-7.392704719677567482e-05,-1.537102460861206055e-02,-2.002893388271331787e-02,-2.065966650843620300e-02,-6.606030277907848358e-03,1.776774600148200989e-02,-4.973410628736019135e-03,-1.415982004255056381e-02,1.290130317211151123e-01,3.408603370189666748e-03,2.184705063700675964e-02,1.829928159713745117e-02,1.918908767402172089e-02,4.686300158500671387e-01,1.267566625028848648e-02,1.060343161225318909e-02,7.543698418885469437e-03,6.211853120476007462e-03,2.105842351913452148e+00,2.171687409281730652e-02,2.957818284630775452e-02,8.859096094965934753e-03,1.013116259127855301e-02,2.358683496713638306e-01,1.013152394443750381e-02,-9.637281298637390137e-03,1.004252314567565918e+00,2.255175635218620300e-02,1.110221445560455322e-02,1.265035569667816162e-02,1.157940831035375595e-02,3.409541212022304535e-03,5.685328040271997452e-03,-4.470818676054477692e-03,-8.473711088299751282e-03,1.076506450772285461e-02,2.134634554386138916e-02
1.476497650146484375e-01,-1.951057165861129761e-01,1.941057592630386353e-01,-1.285456866025924683e-01,-9.695131331682205200e-02,1.688453368842601776e-02,1.874705255031585693e-01,-3.865716457366943359e-01,2.401249408721923828e-01,-1.534702330827713013e-01,-1.228366643190383911e-01,4.975947737693786621e-02,1.323709264397621155e-02,-8.215615153312683105e-02,-1.743633113801479340e-02,5.803852528333663940e-02,-2.012651599943637848e-02,1.465248316526412964e-01,-1.799081116914749146e-01,7.602146826684474945e-03,-1.388452500104904175e-01,-1.947322674095630646e-02,-4.409064352512359619e-02,-3.879744186997413635e-02,-3.962450847029685974e-02,9.825489670038223267e-02,-3.316082805395126343e-02,4.593771323561668396e-02,-5.275101959705352783e-02,-1.928300596773624420e-02,-3.341943025588989258e-02,-2.451763749122619629e-01,-2.224030643701553345e-01,-1.415266841650009155e-01,-2.297502569854259491e-02,2.323422580957412720e-03,1.767746806144714355e-01,3.342233896255493164e-01,2.079261839389801025e-01,1.190654486417770386e-01,-2.462297677993774414e-03,-3.389651700854301453e-02,-1.014696210622787476e-01,3.409259021282196045e-02,-6.967009603977203369e-02,-1.833292543888092041e-01,-4.028619732707738876e-03,5.218395218253135681e-02,1.137232407927513123e-01,4.501793533563613892e-02,-3.789948672056198120e-02,-6.858033593744039536e-03,3.816933929920196533e-02,4.659533500671386719e-02,-2.173894457519054413e-02,-1.207691803574562073e-01,-6.002945452928543091e-02,-3.033661050722002983e-03,-5.815200880169868469e-02,-1.295243203639984131e-01
-8.668908476829528809e-02,1.699461936950683594e-01,-1.786100864410400391e-01,3.263954073190689087e-02,8.861941099166870117e-02,6.363327801227569580e-02,-6.987998634576797485e-02,9.604907780885696411e-02,2.456080764532089233e-01,-4.424268603324890137e-01,-5.707078054547309875e-02,9.488827735185623169e-02,3.156337141990661621e-02,-5.395345762372016907e-02,-9.362205117940902710e-02,3.577148914337158203e-02,4.522479772567749023e-01,-5.306900143623352051e-01,6.779436767101287842e-02,7.773872464895248413e-02,-8.801299333572387695e-02,4.604644142091274261e-03,9.109909087419509888e-02,-1.446112245321273804e-01,2.401870489120483398e-02,8.817908912897109985e-02,2.084184251725673676e-02,-5.693513900041580200e-03,-8.844057470560073853e-02,5.426662415266036987e-02,-2.672049403190612793e-02,-4.102295264601707458e-02,-1.425277739763259888e-01,-2.753550708293914795e-01,-1.035588532686233521e-01,-1.104399412870407104e-01,-8.097042143344879150e-02,-1.002688556909561157e-01,1.825478225946426392e-01,2.726505994796752930e-01,1.583910882472991943e-01,1.946110092103481293e-02,1.535958051681518555e-01,6.754741817712783813e-02,-1.787918508052825928e-01,-1.425967365503311157e-01,3.005161285400390625e-01,3.498751819133758545e-01,9.489028900861740112e-02,6.892496347427368164e-02,-9.820427745580673218e-03,-1.745039224624633789e-01,-2.900320477783679962e-02,2.669273875653743744e-02,-7.900461554527282715e-02,-1.254163235425949097e-01,2.462793141603469849e-02,-3.946982789784669876e-03,-6.039008870720863342e-02,-2.525642514228820801e-02
-1.265931725502014160e-01,1.447606086730957031e-01,1.808997616171836853e-02,3.055037558078765869e-01,5.653548613190650940e-02,-4.428405463695526123e-01,-5.565400123596191406e-01,-6.178658455610275269e-02,1.795580387115478516e-01,1.668353080749511719e-01,-8.916474878787994385e-02,4.741434752941131592e-02,-6.939565762877464294e-03,7.357039302587509155e-02,-1.018740907311439514e-01,-3.780156970024108887e-01,-2.091062664985656738e-01,3.028819151222705841e-02,1.684832870960235596e-01,3.581954538822174072e-01,-2.257015556097030640e-02,-3.656874001026153564e-01,-2.934108972549438477e-01,-2.044476866722106934e-01,1.963788270950317383e-01,7.558842003345489502e-02,1.302977055311203003e-01,5.922497715801000595e-03,-2.361690402030944824e-01,-4.510062560439109802e-02,3.496418595314025879e-01,1.456142365932464600e-01,2.305343374609947205e-02,-9.211652725934982300e-02,-2.717879712581634521e-01,1.645131260156631470e-01,5.300707221031188965e-01,4.718708693981170654e-01,1.254160106182098389e-01,-1.876596659421920776e-01,9.093137085437774658e-02,8.705443888902664185e-02,1.033225357532501221e-01,5.404951050877571106e-02,5.044442042708396912e-02,2.440313547849655151e-01,2.839437723159790039e-01,3.059403896331787109e-01,-4.846632853150367737e-02,-4.035025238990783691e-01,-4.067566096782684326e-01,3.086819350719451904e-01,3.075937926769256592e-01,3.100465536117553711e-01,9.241405874490737915e-02,-3.329830244183540344e-02,-4.984165355563163757e-02,-2.756687104701995850e-01,1.664467304944992065e-01,-3.708710148930549622e-02
8.997157216072082520e-02,8.421965176239609718e-04,-1.669021509587764740e-02,-5.246701464056968689e-02,-1.382690817117691040e-01,-1.044212281703948975e-01,4.403338953852653503e-02,1.140926629304885864e-01,-1.099474355578422546e-02,-8.337206393480300903e-02,1.746477782726287842e-01,-1.409677028656005859e+00,-1.288429200649261475e-01,8.782041072845458984e-02,3.112332150340080261e-02,4.978797584772109985e-02,9.320042282342910767e-02,9.836367517709732056e-02,1.229558978229761124e-02,1.310717500746250153e-02,-4.083346948027610779e-02,3.544934839010238647e-02,-2.912993729114532471e-02,2.726657688617706299e-02,8.848560601472854614e-02,8.077261596918106079e-02,-4.094646312296390533e-03,2.605464309453964233e-02,1.425429433584213257e-02,-7.299123704433441162e-02,-1.305021941661834717e-01,-2.579242922365665436e-02,9.342116862535476685e-02,9.619469195604324341e-02,5.417135357856750488e-02,-2.230513691902160645e-01,-2.179831862449645996e-01,-1.234436631202697754e-01,4.594173654913902283e-02,-1.641878634691238403e-01,1.337548613548278809e+00,8.223078846931457520e-01,-1.875315457582473755e-01,-2.271820008754730225e-01,-9.816633164882659912e-02,-1.708403378725051880e-01,-2.536206245422363281e-01,-1.307433694601058960e-01,-4.415383934974670410e-02,7.624790072441101074e-02,4.986140504479408264e-02,-2.398581244051456451e-02,-9.246935695409774780e-02,-7.589919120073318481e-02,-6.766489148139953613e-02,-8.362108469009399414e-02,-1.235607117414474487e-01,-4.046025499701499939e-02,-3.026519156992435455e-02,1.041217241436243057e-03
-3.546865284442901611e-02,-5.948882177472114563e-02,-2.821591682732105255e-02,3.453832119703292847e-02,-6.882318854331970215e-02,-3.381504490971565247e-02,4.403989017009735107e-02,8.358903229236602783e-03,2.747002057731151581e-02,2.242698147892951965e-02,-6.190148741006851196e-02,-1.193745061755180359e-01,-2.590792812407016754e-02,-1.829359866678714752e-02,-7.215224206447601318e-02,-7.066335678100585938e-01,-3.061387315392494202e-02,-1.228414550423622131e-01,-1.671010613441467285e+00,8.518308401107788086e-02,5.122162401676177979e-02,-3.985257446765899658e-01,-4.411639180034399033e-03,-8.058797568082809448e-02,-2.719404362142086029e-02,-3.600476309657096863e-02,4.120044037699699402e-02,-1.461010193452239037e-03,1.593494787812232971e-02,4.543157294392585754e-02,7.439905777573585510e-03,5.884630978107452393e-02,-9.448876976966857910e-02,8.893635123968124390e-02,2.745261415839195251e-02,-4.767747595906257629e-02,-1.778534642653539777e-04,-5.095501244068145752e-02,-6.011020764708518982e-02,3.848643600940704346e-02,1.053863316774368286e-01,1.928106695413589478e-02,2.443527104333043098e-03,1.421433500945568085e-02,6.713855266571044922e-01,3.036228194832801819e-02,2.502288110554218292e-02,1.652716636657714844e+00,-7.956317067146301270e-02,-5.294462665915489197e-02,3.958900868892669678e-01,2.426806651055812836e-02,7.703879475593566895e-02,4.373962059617042542e-02,1.759172976016998291e-02,-4.879754781723022461e-02,-1.814874075353145599e-02,-2.386357635259628296e-03,-9.184030443429946899e-02,8.462640456855297089e-03
-1.512955725193023682e-01,-1.440773755311965942e-01,-9.736985713243484497e-02,-3.169231712818145752e-01,7.733326405286788940e-02,1.482613384723663330e-01,1.616983860731124878e-01,-6.505989935249090195e-03,-1.325987875461578369e-01,7.941975258290767670e-03,-1.106466911733150482e-02,1.902949623763561249e-02,-1.389307063072919846e-02,2.593477964401245117e-01,1.077292934060096741e-01,-3.651107549667358398e-01,2.041903138160705566e-01,1.176314279437065125e-01,-1.539783924818038940e-01,5.096004530787467957e-02,-6.311929225921630859e-02,-1.071463450789451599e-01,3.007176220417022705e-01,-5.071001872420310974e-02,-8.636374026536941528e-02,9.144713729619979858e-02,1.284309625625610352e-01,1.607595831155776978e-01,2.540788054466247559e-01,-1.153245210647583008e+00,3.780660927295684814e-01,3.456733524799346924e-01,2.178464680910110474e-01,-4.348904788494110107e-01,-4.849175512790679932e-01,-4.539415836334228516e-01,4.941090941429138184e-02,2.465370595455169678e-01,4.301221668720245361e-02,-1.841955482959747314e-01,7.708568591624498367e-03,-8.163590729236602783e-02,-3.631509542465209961e-01,-7.827121764421463013e-02,2.612438499927520752e-01,-1.177716162055730820e-02,-3.886898458003997803e-01,-2.466602623462677002e-02,8.881953358650207520e-02,4.834999516606330872e-02,1.136829517781734467e-02,-9.112884849309921265e-02,-2.387369126081466675e-01,2.185433916747570038e-02,-1.383803635835647583e-01,-2.754518389701843262e-01,-3.493308126926422119e-01,-2.010619640350341797e-01,8.005656599998474121e-01,6.603378653526306152e-01
2.001421526074409485e-02,1.327728480100631714e-02,2.859406406059861183e-03,-2.518856227397918701e-01,-5.815198644995689392e-03,-1.333262212574481964e-02,-1.012160301208496094e+00,1.250735204666852951e-02,7.893295027315616608e-03,7.917877286672592163e-03,6.613314151763916016e-03,-1.683827838860452175e-03,5.011825822293758392e-03,-7.246043533086776733e-04,-5.641536321491003036e-03,-4.696157276630401611e-01,2.338857622817158699e-03,1.240355242043733597e-02,1.052862126380205154e-02,5.861714482307434082e-03,4.446114413440227509e-03,9.772110730409622192e-03,-8.259505033493041992e-03,-1.387033760547637939e-01,9.469448123127222061e-04,1.250211149454116821e-03,-2.923211269080638885e-02,-2.025994539260864258e+00,-4.587176255881786346e-03,-5.617976654320955276e-03,-1.548609603196382523e-02,1.812750007957220078e-03,2.591950595378875732e-01,2.242838777601718903e-02,5.002761259675025940e-03,1.029704689979553223e+00,7.744303438812494278e-03,-2.610808878671377897e-04,-8.868820965290069580e-03,-7.693340070545673370e-03,-1.078057009726762772e-02,-1.063825911842286587e-03,5.987986456602811813e-03,5.410804878920316696e-03,4.625415205955505371e-01,1.090846117585897446e-02,-3.802682738751173019e-03,9.502765606157481670e-04,3.766242647543549538e-03,-1.952093443833291531e-03,-6.798323243856430054e-03,2.066096849739551544e-02,1.408714056015014648e-01,-1.293630525469779968e-02,-3.121506655588746071e-03,-2.200789749622344971e-02,2.002356052398681641e+00,4.440122749656438828e-03,1.030724681913852692e-02,-5.162929184734821320e-03
3.463683426380157471e-01,1.204215809702873230e-01,3.459315598011016846e-01,-4.984922111034393311e-01,-3.168157935142517090e-01,-4.419469088315963745e-02,-6.272723525762557983e-02,1.618696898221969604e-01,6.917924433946609497e-02,2.182624936103820801e-01,2.060424536466598511e-01,-9.773929417133331299e-02,-1.790641993284225464e-01,-3.996621072292327881e-02,-1.123260557651519775e-01,-8.901039510965347290e-02,2.068316005170345306e-02,4.889508709311485291e-03,-2.119707018136978149e-01,-5.709088593721389771e-02,3.007338941097259521e-01,4.241322576999664307e-01,-6.957099586725234985e-02,-2.762813866138458252e-01,-1.030466929078102112e-01,-8.900251239538192749e-02,-3.059896528720855713e-01,-2.670705914497375488e-01,-1.972869336605072021e-01,1.705810278654098511e-01,-5.594627186655998230e-02,-2.300638556480407715e-01,-7.107226848602294922e-01,1.763255000114440918e-01,5.576553195714950562e-02,2.181502133607864380e-01,1.052090302109718323e-01,-1.845016926527023315e-01,2.141361832618713379e-01,-1.439612507820129395e-01,-3.063029050827026367e-01,2.112266272306442261e-01,1.963006705045700073e-01,1.920903474092483521e-01,5.774278938770294189e-02,-6.929553300142288208e-02,4.016734659671783447e-02,-1.849698126316070557e-01,2.635922729969024658e-01,2.404722422361373901e-01,1.582749485969543457e-01,-8.634730577468872070e-01,1.492582410573959351e-01,3.223749101161956787e-01,2.469658702611923218e-01,2.202336341142654419e-01,1.698441207408905029e-01,2.913321852684020996e-01,2.698223888874053955e-01,2.820820733904838562e-02
1.894319988787174225e-02,1.929374760948121548e-03,1.120635028928518295e-02,-4.803034011274576187e-03,-3.270303132012486458e-03,-1.021896209567785263e-02,8.752922527492046356e-03,-1.935446858406066895e-01,-8.130494505167007446e-03,-7.303413003683090210e-02,6.493546068668365479e-03,-1.424298062920570374e-02,2.576619572937488556e-02,3.370920661836862564e-03,-3.195363795384764671e-03,-7.161640375852584839e-02,-4.466794431209564209e-01,-8.335588499903678894e-03,2.673421986401081085e-02,-1.178245153278112411e-02,-2.400503307580947876e-02,-8.802483081817626953e-01,-5.963111296296119690e-03,-4.917052015662193298e-02,-1.816240906715393066e+00,1.496497076004743576e-02,-1.508553791791200638e-02,1.321970950812101364e-02,4.251115955412387848e-03,-6.907320581376552582e-03,-2.692390698939561844e-03,3.301572520285844803e-03,-1.318485243245959282e-03,-1.254231296479701996e-02,-2.969834208488464355e-02,-4.852757975459098816e-02,2.103673368692398071e-01,2.134139183908700943e-03,8.364873379468917847e-02,-4.145359992980957031e-02,8.783339522778987885e-03,-1.117178797721862793e-02,2.375777997076511383e-02,-1.409871317446231842e-02,8.749730139970779419e-02,4.465715289115905762e-01,4.917189851403236389e-02,-2.073583379387855530e-02,4.645729903131723404e-03,4.314954858273267746e-04,8.698696494102478027e-01,3.864182904362678528e-02,2.149274013936519623e-02,1.824059247970581055e+00,1.622685231268405914e-02,1.313501596450805664e-02,-7.580759469419717789e-03,3.688125172629952431e-03,-6.689782720059156418e-03,5.364752840250730515e-03
-8.434546738862991333e-02,1.869919337332248688e-02,7.665641605854034424e-02,7.375786080956459045e-03,-1.304464638233184814e-01,-2.264696210622787476e-01,5.935158953070640564e-02,1.850271672010421753e-01,6.670781224966049194e-02,-3.764935210347175598e-02,-3.290276825428009033e-01,-3.025871813297271729e-01,-1.731327772140502930e-01,-2.179347574710845947e-01,5.368261598050594330e-03,2.261417955160140991e-01,3.729934096336364746e-01,5.121638774871826172e-01,-6.400460004806518555e-01,-1.413682550191879272e-01,-9.324822574853897095e-02,-1.688059121370315552e-01,-6.226330995559692383e-02,-3.587033972144126892e-02,-7.459800690412521362e-02,-2.691017091274261475e-02,1.737457960844039917e-01,3.743467479944229126e-02,-2.271874621510505676e-02,-5.463723838329315186e-02,1.877936571836471558e-01,3.012368269264698029e-02,1.122174188494682312e-01,9.971695952117443085e-03,-7.942267507314682007e-02,1.940845698118209839e-01,4.893915727734565735e-02,-1.943474411964416504e-01,-1.035529300570487976e-01,-1.489455699920654297e-01,3.887245953083038330e-01,4.278499484062194824e-01,3.432534337043762207e-01,1.693771928548812866e-01,1.444378346204757690e-01,-1.737385056912899017e-02,-1.797621250152587891e-01,-1.284605383872985840e+00,6.504359245300292969e-01,3.161306679248809814e-01,2.286154776811599731e-01,2.735615372657775879e-01,8.550652861595153809e-02,-7.734397798776626587e-02,1.656010597944259644e-01,5.538238212466239929e-02,-1.355344057083129883e-01,-1.546159684658050537e-01,-4.583817720413208008e-02,-9.492919594049453735e-02
-3.116117715835571289e-01,-3.242682814598083496e-01,-2.749577760696411133e-01,1.852232031524181366e-03,3.362258151173591614e-02,3.140529617667198181e-02,-8.704449236392974854e-02,-2.356830686330795288e-01,-1.969984769821166992e-01,-3.186905980110168457e-01,-1.114101260900497437e-01,6.636362522840499878e-02,1.272610127925872803e-01,7.328056544065475464e-02,1.226895153522491455e-01,1.685812771320343018e-01,2.558255791664123535e-01,3.139183819293975830e-01,1.948339939117431641e-01,6.624396145343780518e-02,-8.894783258438110352e-02,-6.656968593597412109e-02,2.421030849218368530e-01,2.147870510816574097e-01,2.764211297035217285e-01,3.307736814022064209e-01,2.528083622455596924e-01,8.840312063694000244e-02,-1.788660697638988495e-02,-4.581994190812110901e-02,1.042485982179641724e-01,9.073959290981292725e-02,9.034305810928344727e-02,-1.182257458567619324e-01,-4.520894214510917664e-02,-7.075007259845733643e-02,1.933233579620718956e-03,6.642387807369232178e-02,2.401900887489318848e-01,3.695948794484138489e-02,1.199940666556358337e-01,-5.654582008719444275e-02,-5.993139371275901794e-02,-1.593521833419799805e-01,2.553349360823631287e-02,-3.066873252391815186e-01,-1.140677854418754578e-01,-2.118454426527023315e-01,-1.647691279649734497e-01,1.185094043612480164e-01,1.141097918152809143e-01,-1.774611175060272217e-01,-1.660223007202148438e-01,-1.688497662544250488e-01,-2.340693026781082153e-01,-1.199213564395904541e-01,-2.068385183811187744e-01,-1.241475045680999756e-01,8.081290870904922485e-02,5.126066133379936218e-02
2.815779149532318115e-01,2.277090251445770264e-01,-9.143072366714477539e-01,-6.181972622871398926e-01,-4.442583024501800537e-01,-3.945087194442749023e-01,-2.113805413246154785e-01,-1.573945954442024231e-02,4.003247320652008057e-01,1.260365843772888184e-01,7.255466282367706299e-02,4.910972714424133301e-01,3.788707256317138672e-01,3.771835565567016602e-01,1.702435612678527832e-01,-8.552840352058410645e-02,-6.341408491134643555e-01,-1.914123296737670898e-01,5.861520022153854370e-02,4.621873497962951660e-01,-9.704539924860000610e-02,-2.359238825738430023e-02,-1.121225357055664062e-01,-2.513636946678161621e-01,-2.466599084436893463e-02,-1.505244970321655273e-01,-3.365754485130310059e-01,3.542092144489288330e-01,1.714434623718261719e-01,2.539214193820953369e-01,-4.243780672550201416e-01,-1.687972426414489746e+00,3.913355991244316101e-03,7.015578746795654297e-01,-5.945063829421997070e-01,1.153652071952819824e-01,5.715085566043853760e-02,2.221083194017410278e-01,-3.716556131839752197e-01,-6.924076676368713379e-01,4.215822219848632812e-01,-1.986165940761566162e-01,-1.070205941796302795e-01,2.509001176804304123e-03,-2.536602914333343506e-01,-1.102750301361083984e+00,-1.562531441450119019e-01,-6.281674653291702271e-02,-1.619685590267181396e-01,-1.498866826295852661e-01,-2.107073813676834106e-01,-7.564586400985717773e-02,8.599697798490524292e-02,-1.379216648638248444e-02,4.124377667903900146e-01,3.643175661563873291e-01,-3.504104316234588623e-01,8.147549629211425781e-02,-5.121641159057617188e-01,-7.659488320350646973e-01
-2.646783888339996338e-01,-6.864795684814453125e-01,-5.421018600463867188e-01,-2.081859707832336426e-01,-1.705445796251296997e-01,-3.319334983825683594e-01,-4.087252616882324219e-01,-6.491559743881225586e-02,5.837123095989227295e-02,4.095950722694396973e-01,5.288178324699401855e-01,1.999616920948028564e-01,-3.485449776053428650e-02,-2.954956702888011932e-02,-2.253955304622650146e-01,-1.740701645612716675e-01,-5.011354014277458191e-02,3.338641673326492310e-02,-4.342167824506759644e-02,2.089049071073532104e-01,3.980957865715026855e-01,2.113762348890304565e-01,4.405586048960685730e-03,-8.413585275411605835e-02,-9.953959286212921143e-02,-1.406707912683486938e-01,4.259577766060829163e-02,1.674559116363525391e-01,2.534456551074981689e-01,4.575249180197715759e-02,3.408260345458984375e-01,6.373791098594665527e-01,-1.627358049154281616e-01,1.435689628124237061e-01,9.462726116180419922e-02,3.823979794979095459e-01,-6.333789229393005371e-02,-9.524973481893539429e-02,-7.387007027864456177e-02,-3.921917378902435303e-01,-4.067833721637725830e-02,1.459863781929016113e-01,1.922253817319869995e-01,-9.949180297553539276e-03,8.685874938964843750e-02,2.918123006820678711e-01,-1.205505132675170898e-01,1.726793348789215088e-01,1.750466041266918182e-02,-1.760824322700500488e-01,-1.779436171054840088e-01,4.927223548293113708e-02,4.681840538978576660e-02,3.886335343122482300e-02,1.739036440849304199e-01,2.760190702974796295e-02,-6.007512658834457397e-02,5.702485889196395874e-02,6.421777606010437012e-02,5.102909356355667114e-02
1.159421950578689575e-01,1.646676808595657349e-01,1.725701391696929932e-01,2.414200454950332642e-01,1.829077154397964478e-01,1.025904528796672821e-02,2.672080695629119873e-02,7.757641375064849854e-02,-2.206772379577159882e-02,-7.380289584398269653e-02,-1.490461230278015137e-01,-3.248732089996337891e-01,-4.406732022762298584e-01,-3.439935743808746338e-01,-2.948069870471954346e-01,-9.858195483684539795e-02,8.003149181604385376e-02,1.050800979137420654e-01,1.399869322776794434e-01,2.628917694091796875e-01,1.608290821313858032e-01,6.538098305463790894e-02,1.419515255838632584e-02,7.619968801736831665e-02,7.723346352577209473e-02,1.592474281787872314e-01,1.759159862995147705e-01,3.548663854598999023e-01,3.053469359874725342e-01,2.566456794738769531e-01,-5.883153527975082397e-02,-3.771387040615081787e-02,-2.046940326690673828e-01,-1.546560227870941162e-01,-5.075271427631378174e-02,-4.725559800863265991e-02,-1.849388629198074341e-01,-8.679690212011337280e-02,7.814947515726089478e-02,1.863738521933555603e-02,2.618073821067810059e-01,4.132318496704101562e-01,3.957344591617584229e-01,2.311520278453826904e-01,4.536288976669311523e-02,9.111087024211883545e-02,1.787478337064385414e-03,6.719888653606176376e-03,-1.320620775222778320e-01,-1.524396091699600220e-01,-1.844936236739158630e-02,-1.108979284763336182e-01,-1.528846025466918945e-01,-1.248222663998603821e-01,-1.209481582045555115e-01,-1.922789067029953003e-01,-1.563842445611953735e-01,-1.768396347761154175e-01,-1.873531192541122437e-01,-2.374541759490966797e-01
2.587252259254455566e-01,-7.499942183494567871e-01,-2.132090032100677490e-01,4.067038297653198242e-01,-1.227975189685821533e-01,-6.801850348711013794e-02,-8.429649472236633301e-02,4.612322151660919189e-02,2.657624781131744385e-01,1.361169386655092239e-03,-2.939118146896362305e-01,-3.509382605552673340e-01,-2.587389200925827026e-02,-1.020263880491256714e-01,-8.983546495437622070e-02,1.092972755432128906e-01,-3.069601655006408691e-01,-1.567224226891994476e-02,-1.357668489217758179e-01,-6.573428958654403687e-02,1.220627054572105408e-01,-3.286803662776947021e-01,-6.592085957527160645e-02,2.648523822426795959e-02,-2.081842422485351562e-01,-2.092055082321166992e-01,-1.339330971240997314e-01,-2.470647394657135010e-01,8.587227761745452881e-02,1.747009605169296265e-01,-8.283849954605102539e-01,5.037211775779724121e-01,5.614676475524902344e-01,-4.351441934704780579e-02,4.442473128437995911e-02,-6.918490678071975708e-02,6.716887652873992920e-02,-1.111848503351211548e-01,-3.761783540248870850e-01,-3.909851983189582825e-02,1.913000494241714478e-01,3.026509284973144531e-01,1.823175847530364990e-01,2.196630537509918213e-01,2.531025931239128113e-02,-3.374173641204833984e-01,2.277618348598480225e-01,2.995791137218475342e-01,1.323152780532836914e-01,9.651003777980804443e-02,-6.128703802824020386e-02,2.593291103839874268e-01,1.499687042087316513e-02,4.079875722527503967e-02,8.036155253648757935e-02,-7.655461132526397705e-02,5.419837683439254761e-02,4.292463958263397217e-01,7.515365630388259888e-02,-1.621248424053192139e-01
-5.195712670683860779e-02,-2.150659561157226562e-01,-4.480600729584693909e-02,1.185875907540321350e-01,-1.588504016399383545e-01,1.764135248959064484e-02,1.798926293849945068e-01,2.739325165748596191e-01,3.199763298034667969e-01,2.281778007745742798e-01,1.115505546331405640e-01,1.464669853448867798e-01,1.945496052503585815e-01,9.703026711940765381e-02,-4.761584848165512085e-02,-4.591312259435653687e-02,3.387962579727172852e-01,2.418998330831527710e-01,2.968015670776367188e-01,-3.281776309013366699e-01,-6.141604781150817871e-01,-2.142225056886672974e-01,2.352359741926193237e-01,4.974549710750579834e-01,2.377342134714126587e-01,9.136724472045898438e-02,3.114598430693149567e-02,-5.108061432838439941e-01,-4.262170791625976562e-01,-1.586142331361770630e-01,5.865377560257911682e-02,3.702504336833953857e-01,-3.256094455718994141e-01,1.161987483501434326e-01,1.983418017625808716e-01,-2.867349684238433838e-01,2.170282043516635895e-02,-2.189073711633682251e-01,-2.438907511532306671e-02,5.333196371793746948e-02,-1.035527214407920837e-01,-7.026869803667068481e-02,5.149994790554046631e-02,3.441810235381126404e-02,9.820023179054260254e-02,-2.905141375958919525e-02,-4.497244656085968018e-01,7.771556824445724487e-02,-1.459874492138624191e-02,5.511568188667297363e-01,3.866288363933563232e-01,-5.098566412925720215e-01,-9.388025104999542236e-02,-3.786929845809936523e-01,6.172993406653404236e-02,-7.411612570285797119e-02,2.158612459897994995e-01,3.678510487079620361e-01,3.065967559814453125e-01,-1.932005882263183594e-01
1.400706823915243149e-02,-2.072645537555217743e-02,-7.481497526168823242e-01,-4.126194119453430176e-02,-6.849256809800863266e-03,-8.043927140533924103e-03,-6.942568719387054443e-02,-9.806360304355621338e-02,-2.934001982212066650e-01,-4.712908528745174408e-03,2.692457102239131927e-02,-4.427888616919517517e-02,3.685551229864358902e-03,-5.354182049632072449e-02,-3.876683488488197327e-02,-6.909195333719253540e-02,-4.908120632171630859e-02,-9.083366021513938904e-03,-4.299946874380111694e-02,-1.908667944371700287e-02,-1.872427761554718018e-02,-3.175978735089302063e-02,8.874416351318359375e-03,-9.604616090655326843e-03,-3.223114460706710815e-02,-3.179137781262397766e-02,-1.344077195972204208e-02,-2.279310114681720734e-02,-1.555194020271301270e+00,2.923034131526947021e-02,-2.136401459574699402e-02,7.391788959503173828e-01,5.496822670102119446e-02,-3.714528679847717285e-02,-5.599960684776306152e-03,5.890137329697608948e-02,1.097561493515968323e-01,3.027255237102508545e-01,4.333454743027687073e-02,-2.905699238181114197e-02,4.218823462724685669e-02,1.053911447525024414e-02,6.849454343318939209e-02,3.381944820284843445e-02,5.664161965250968933e-02,3.383883461356163025e-02,-4.416794050484895706e-03,3.608936443924903870e-02,4.231856763362884521e-02,-1.051169005222618580e-03,3.136625513434410095e-02,-2.916340902447700500e-02,-2.438340103253722191e-03,4.895171523094177246e-02,2.826291881501674652e-02,3.978278115391731262e-02,-5.202259123325347900e-02,1.532050132751464844e+00,5.344147235155105591e-02,5.856452975422143936e-03
1.375814229249954224e-01,-1.618685275316238403e-01,1.009055748581886292e-01,-2.797509729862213135e-01,-2.094517461955547333e-02,-1.027988493442535400e-01,-2.541593974456191063e-03,-1.380295604467391968e-01,-1.098077818751335144e-01,5.269107967615127563e-02,-8.161260187625885010e-02,-7.976236753165721893e-03,3.771299123764038086e-02,1.090632285922765732e-02,-7.597147673368453979e-02,2.346939966082572937e-02,4.775722324848175049e-02,-9.190765023231506348e-02,2.766799330711364746e-01,-5.781651735305786133e-01,3.696840405464172363e-01,-2.372102141380310059e-01,-1.457455754280090332e-01,4.929901659488677979e-02,1.083147246390581131e-02,-1.824023947119712830e-02,3.482867032289505005e-02,-8.344040811061859131e-02,-1.263773590326309204e-01,8.632769435644149780e-02,1.859202384948730469e-01,2.047167271375656128e-01,1.221016645431518555e-01,3.945229575037956238e-02,8.049100637435913086e-02,2.532087080180644989e-02,9.556491672992706299e-02,3.140599234029650688e-03,-1.679820716381072998e-01,-1.769699901342391968e-01,-1.511748582124710083e-01,-2.190664876252412796e-03,1.080737113952636719e-01,4.754563327878713608e-03,-1.062996387481689453e-01,4.358825739473104477e-03,-3.510482981801033020e-02,4.614608827978372574e-03,2.940120995044708252e-01,3.804095983505249023e-01,1.298311501741409302e-01,3.503714501857757568e-02,-1.374484300613403320e-01,-2.268438786268234253e-01,-1.034583151340484619e-01,4.019970446825027466e-02,1.442220062017440796e-01,4.546442255377769470e-02,-2.412332408130168915e-02,3.608478233218193054e-02
-2.625511959195137024e-02,-4.247320890426635742e-01,-2.734643220901489258e-01,-9.654399007558822632e-03,-5.845161899924278259e-02,-1.860369443893432617e+00,-2.010278590023517609e-02,-2.907416410744190216e-02,1.848721690475940704e-02,3.988078236579895020e-02,-3.122860752046108246e-02,-8.172545582056045532e-02,-8.581163361668586731e-03,-1.011310331523418427e-02,4.097394272685050964e-02,2.963418082799762487e-04,-1.598728746175765991e-01,-1.533557660877704620e-03,1.637175492942333221e-02,3.001064620912075043e-02,-3.601234033703804016e-02,1.196969114243984222e-02,1.371990609914064407e-02,1.847961731255054474e-02,-2.964455448091030121e-02,-7.167589664459228516e-01,-1.546598412096500397e-02,-4.628136754035949707e-03,2.917337603867053986e-02,1.223602215759456158e-03,4.357022941112518311e-01,3.186246156692504883e-01,-4.107308574020862579e-03,-4.410792887210845947e-02,1.864990234375000000e+00,7.972561568021774292e-02,3.139245882630348206e-02,-6.361287552863359451e-03,-1.840257085859775543e-02,4.130398482084274292e-02,1.214892789721488953e-01,3.694374114274978638e-02,3.035493195056915283e-02,-1.734685897827148438e-02,-1.990615390241146088e-03,1.614637225866317749e-01,1.406005583703517914e-02,1.940409094095230103e-02,-2.028221637010574341e-02,6.746222078800201416e-02,-3.052169643342494965e-02,-7.473604753613471985e-03,-4.284894838929176331e-02,1.662871614098548889e-02,6.925569176673889160e-01,5.046018213033676147e-02,1.992970891296863556e-02,-2.319615148007869720e-02,6.062685977667570114e-03,-8.960706181824207306e-03
2.282276451587677002e-01,2.451701462268829346e-01,1.794607639312744141e-01,-4.318601638078689575e-02,-1.016207709908485413e-01,-2.530213892459869385e-01,-3.407201766967773438e-01,-2.992253899574279785e-01,-2.582341134548187256e-01,-7.103890925645828247e-02,-4.647093266248703003e-02,-3.198760375380516052e-02,5.391321331262588501e-02,6.568389385938644409e-02,1.358655747026205063e-03,-7.226967066526412964e-02,8.954348741099238396e-04,-1.135602500289678574e-02,3.805826231837272644e-02,8.550110459327697754e-02,1.910736858844757080e-01,1.802020967006683350e-01,1.813621819019317627e-01,1.481539011001586914e-01,1.169100180268287659e-01,4.784701019525527954e-02,1.485776435583829880e-02,5.656256154179573059e-02,1.243009790778160095e-02,-5.664338544011116028e-02,-3.546494618058204651e-02,-5.174763500690460205e-02,-1.053912471979856491e-02,1.118474453687667847e-01,1.628872454166412354e-01,1.711760908365249634e-01,7.215331494808197021e-02,1.190106384456157684e-02,-5.536785349249839783e-02,-2.556218765676021576e-02,1.055524647235870361e-01,-6.807956099510192871e-02,-1.769911497831344604e-02,7.400413602590560913e-02,1.022728905081748962e-01,8.573644608259201050e-02,-5.220746994018554688e-02,4.229126870632171631e-02,2.878262102603912354e-02,-2.779585774987936020e-03,9.169920533895492554e-02,-6.007723510265350342e-02,9.087700396776199341e-03,1.212808266282081604e-01,5.185566842555999756e-02,6.702322512865066528e-02,8.957112580537796021e-02,8.477100636810064316e-04,5.584355071187019348e-02,-4.340180382132530212e-02
2.060154080390930176e-01,-1.920514851808547974e-01,1.351175010204315186e-01,-1.619703024625778198e-01,-1.643159426748752594e-02,-1.281246691942214966e-01,-3.194721043109893799e-01,1.489111036062240601e-01,-1.207203418016433716e-01,6.577134877443313599e-02,1.163851767778396606e-01,3.802054747939109802e-02,-5.719302594661712646e-02,1.878312677145004272e-01,7.059108465909957886e-02,-4.265349507331848145e-01,1.368005424737930298e-01,-5.680953711271286011e-02,-6.209996715188026428e-02,1.367917060852050781e-01,-1.796803176403045654e-01,2.706692926585674286e-02,-1.651303097605705261e-02,3.085244819521903992e-02,-4.897535592317581177e-02,-1.184106767177581787e-01,-7.632189989089965820e-02,6.764894723892211914e-02,-4.409736022353172302e-03,4.203456919640302658e-03,-1.358046829700469971e-01,-1.564230173826217651e-01,-1.281948387622833252e-01,7.304380834102630615e-02,2.408802211284637451e-01,2.070760279893875122e-01,1.280508637428283691e-01,4.518437385559082031e-02,-2.664897143840789795e-01,-3.184982538223266602e-01,-7.781968265771865845e-02,-1.464424431324005127e-01,-9.369597770273685455e-03,1.000749319791793823e-01,1.809068471193313599e-01,1.535743474960327148e-01,-4.911740869283676147e-02,-3.189583867788314819e-02,-1.722026020288467407e-01,-1.650534570217132568e-01,4.781142249703407288e-02,-2.190259657800197601e-02,3.383667394518852234e-02,7.955185323953628540e-02,6.140754371881484985e-02,5.057757347822189331e-02,1.990032568573951721e-02,-1.093878298997879028e-01,-7.186505943536758423e-02,-8.374077826738357544e-02
1.436144672334194183e-02,-5.848387721925973892e-03,7.719608023762702942e-03,-5.920580122619867325e-03,-4.533309256657958031e-04,2.883416600525379181e-03,-4.138081893324851990e-02,5.578241776674985886e-03,-1.744309812784194946e-02,-9.052081108093261719e-01,-1.033895183354616165e-02,4.798035603016614914e-03,-2.990520000457763672e-02,2.770229615271091461e-02,-4.271386656910181046e-03,-4.726104140281677246e-01,-1.476749312132596970e-02,7.754265679977834225e-04,-6.901078158989548683e-04,-2.627854943275451660e-01,-1.286634360440075397e-03,-1.899991929531097412e-02,-4.512320272624492645e-03,-2.878860384225845337e-02,-3.134606033563613892e-02,-1.636197328567504883e+00,1.902920007705688477e-02,1.771155372262001038e-02,-2.475661970674991608e-02,-1.503756195306777954e-01,-1.490995846688747406e-02,-2.799134328961372375e-02,1.054031308740377426e-02,-1.562758162617683411e-02,-7.146712858229875565e-03,3.932153061032295227e-02,-3.099748864769935608e-02,-3.644387237727642059e-03,9.219917654991149902e-01,2.282373234629631042e-02,4.747675266116857529e-03,1.272131688892841339e-02,-6.542689166963100433e-03,-8.985605090856552124e-03,4.737452268600463867e-01,-3.064544871449470520e-03,3.024931065738201141e-03,3.344205208122730255e-03,2.714057564735412598e-01,1.079846080392599106e-02,-9.851275011897087097e-03,-1.287396159023046494e-02,3.063123486936092377e-02,1.955311372876167297e-02,1.646117925643920898e+00,1.399945840239524841e-02,-1.474529039114713669e-03,1.163640711456537247e-02,1.542628407478332520e-01,3.013391047716140747e-03
1.752149760723114014e-01,1.647215522825717926e-02,1.677787005901336670e-01,1.366025507450103760e-01,-9.559494256973266602e-02,-2.338959276676177979e-01,-1.472534984350204468e-01,4.782838523387908936e-01,2.466408461332321167e-01,-7.396460175514221191e-01,-3.680802509188652039e-02,4.261758923530578613e-01,6.861492246389389038e-02,7.604391872882843018e-02,1.432413458824157715e-01,-2.170545011758804321e-01,-2.616766691207885742e-01,1.230098158121109009e-01,-1.700775325298309326e-01,-7.384066283702850342e-02,1.125342771410942078e-01,-1.552129164338111877e-02,2.443845756351947784e-02,2.974503040313720703e-01,-5.605957936495542526e-03,2.972722947597503662e-01,-7.148304581642150879e-02,1.958153843879699707e-01,7.021071016788482666e-02,-2.675698995590209961e-01,-1.649511307477951050e-01,7.365868985652923584e-02,-4.270985126495361328e-01,-3.053658641874790192e-02,2.677860260009765625e-01,1.545436587184667587e-02,-4.313465952873229980e-01,-2.912454009056091309e-01,6.392967104911804199e-01,7.110167741775512695e-01,-6.623060107231140137e-01,-3.563137948513031006e-01,-8.289857208728790283e-02,-1.373734176158905029e-01,1.207561120390892029e-01,4.218870103359222412e-01,-2.683588489890098572e-02,-1.037172675132751465e-01,-1.379964798688888550e-01,-2.139059454202651978e-01,-2.906370162963867188e-01,-9.677935391664505005e-02,-4.615786373615264893e-01,-3.646476566791534424e-01,-2.953616380691528320e-01,-3.028090596199035645e-01,1.700269728899002075e-01,-5.886864289641380310e-02,4.272303879261016846e-01,7.941035181283950806e-02
-6.615804042667150497e-03,-2.372488146647810936e-03,1.472046691924333572e-02,-4.548457562923431396e-01,3.824297338724136353e-03,-8.011747151613235474e-03,1.550016831606626511e-02,-1.760045439004898071e-02,-3.907989710569381714e-03,-1.762114698067307472e-03,-9.994159340858459473e-01,-8.984295651316642761e-03,1.267717964947223663e-02,-4.232669994235038757e-02,-2.069638490676879883e+00,-1.383711770176887512e-02,-1.597044803202152252e-02,-2.191571518778800964e-02,6.983271799981594086e-03,-1.136882603168487549e-02,-2.131935507059097290e-01,-1.428086776286363602e-02,5.039149429649114609e-03,-1.074142828583717346e-01,1.420937757939100266e-02,-8.924067020416259766e-03,-1.442090142518281937e-04,7.575015537440776825e-03,-1.626572385430335999e-02,-6.435581482946872711e-03,1.090698689222335815e-02,5.589225329458713531e-03,4.702710509300231934e-01,1.586422510445117950e-02,3.123761562164872885e-04,-9.745251387357711792e-03,1.284048077650368214e-03,9.882176527753472328e-04,3.294297959655523300e-03,9.822587370872497559e-01,1.693206839263439178e-02,-2.110297232866287231e-02,-6.211882922798395157e-03,2.082844734191894531e+00,5.504312738776206970e-02,1.304626185446977615e-02,2.678671106696128845e-02,-1.651140488684177399e-02,-4.231777042150497437e-03,2.275101989507675171e-01,1.964594982564449310e-02,-9.416431188583374023e-03,1.176983788609504700e-01,7.853557355701923370e-03,1.038141362369060516e-02,-5.236905068159103394e-03,-4.588504089042544365e-05,1.324448548257350922e-02,6.705318111926317215e-03,-5.351034458726644516e-03
-3.451938275247812271e-03,-5.934345535933971405e-03,-1.118321530520915985e-02,5.731508135795593262e-04,-3.184043988585472107e-02,-1.140628103166818619e-02,-1.513494737446308136e-02,-3.364770486950874329e-02,-9.338394403457641602e-01,-3.443312598392367363e-03,-6.643685698509216309e-02,-5.796689912676811218e-02,-1.285102590918540955e-02,2.575881592929363251e-02,-1.675579883158206940e-02,1.368361990898847580e-03,-4.838487505912780762e-01,-2.378137856721878052e-01,7.635792251676321030e-03,-2.969390153884887695e-02,4.842826165258884430e-03,-3.888056427240371704e-02,-1.936950683593750000e+00,1.155942585319280624e-02,3.152662143111228943e-02,-1.074686646461486816e-02,-1.357080414891242981e-02,-4.856244195252656937e-03,-2.067786455154418945e-02,-1.302168611437082291e-02,2.582397137302905321e-04,1.525949966162443161e-02,-3.790374100208282471e-02,1.902234368026256561e-02,-1.381695643067359924e-02,-1.183521188795566559e-02,1.655191555619239807e-02,9.254835247993469238e-01,2.206810005009174347e-02,4.805010184645652771e-02,2.892357483506202698e-02,5.565166473388671875e-03,-2.825745567679405212e-02,-3.689028322696685791e-02,-2.112287282943725586e-02,4.711549878120422363e-01,2.232363969087600708e-01,-1.735638268291950226e-02,-4.608521703630685806e-03,-2.346330322325229645e-02,-1.119310501962900162e-02,1.935395240783691406e+00,8.672560565173625946e-03,-1.964894495904445648e-02,-7.453273283317685127e-04,2.419843524694442749e-02,-6.003922782838344574e-03,2.145629748702049255e-02,9.603188373148441315e-03,2.284677233546972275e-03
-1.894882507622241974e-02,-5.773279815912246704e-02,3.063460886478424072e-01,-7.452132552862167358e-02,6.650470942258834839e-02,1.817955523729324341e-01,-3.957848846912384033e-01,3.486164510250091553e-01,-8.788897842168807983e-02,-1.347043365240097046e-01,-1.806746423244476318e-01,1.161776185035705566e-01,-6.988315284252166748e-02,-1.703696399927139282e-01,-1.025044843554496765e-01,3.091979324817657471e-01,-2.223778367042541504e-01,2.603414952754974365e-01,1.311244722455739975e-02,-5.029140040278434753e-02,2.518874593079090118e-02,-9.127292037010192871e-02,1.519114375114440918e-01,-1.954004019498825073e-01,-3.471476957201957703e-02,-2.243354320526123047e-01,5.944313853979110718e-02,5.885583162307739258e-02,-1.273321360349655151e-01,2.392627764493227005e-03,-3.750517964363098145e-01,-1.780204623937606812e-01,-1.224461793899536133e-01,-1.756572425365447998e-01,-4.529571533203125000e-02,-2.840433456003665924e-02,-3.907588124275207520e-02,-4.455158859491348267e-02,5.250440537929534912e-02,4.253119975328445435e-02,1.895310916006565094e-02,1.080083400011062622e-01,1.614034324884414673e-01,-1.744082756340503693e-02,-1.409047394990921021e-01,-2.304083257913589478e-01,-2.527111172676086426e-01,-3.236317932605743408e-01,-1.199159398674964905e-01,1.784054487943649292e-01,2.104702889919281006e-01,2.346372157335281372e-01,1.575951427221298218e-01,9.824341535568237305e-02,6.506943702697753906e-02,-1.348262745887041092e-02,-1.478954702615737915e-01,-8.870601654052734375e-02,-1.027349084615707397e-01,2.062667533755302429e-02
