-2.260097563266754150e-01,3.502463698387145996e-01,1.959094554185867310e-01,-1.466313004493713379e-01,2.466363906860351562e-01,4.548464417457580566e-01,-7.806688547134399414e-02,2.549043595790863037e-01,9.820444583892822266e-01,1.245987176895141602e+00
4.307213723659515381e-01,1.300880759954452515e-01,5.112993121147155762e-01,-1.373838782310485840e-01,-4.741422832012176514e-01,2.627675533294677734e-01,2.186363190412521362e-01,-3.927116394042968750e-01,3.359472751617431641e-01,5.744515452533960342e-03
-1.158393695950508118e-01,-1.267698258161544800e-01,-2.160651236772537231e-01,-6.543294875882565975e-04,5.433723703026771545e-02,9.914010018110275269e-02,-7.166531085968017578e-01,2.075846344232559204e-01,5.797488093376159668e-01,1.311739683151245117e-01
-1.922747492790222168e-01,-1.185414195060729980e-01,-2.509348392486572266e-01,-1.975452452898025513e-01,7.179980278015136719e-01,-1.633226498961448669e-02,3.065963387489318848e-01,-5.493025779724121094e-01,-6.053913831710815430e-01,1.447073966264724731e-01
-4.476327300071716309e-01,1.012453958392143250e-01,6.119776368141174316e-01,-1.621098518371582031e-01,-7.770763710141181946e-03,4.101662039756774902e-01,-6.784195899963378906e-01,8.044595122337341309e-01,-2.259184271097183228e-01,-2.484573423862457275e-01
