1.826523803174495697e-02,1.033564880490303040e-01,6.740225106477737427e-02,1.530645936727523804e-01,4.605395719408988953e-02,8.674371242523193359e-02,1.406410485506057739e-01,-4.981306381523609161e-03,3.068396449089050293e-02,-1.558529883623123169e-01,3.778080642223358154e-02,-3.142249211668968201e-02,6.443219631910324097e-02,1.013293266296386719e-01,-1.458616345189511776e-03,1.482603698968887329e-01,9.344776868820190430e-01,-4.930869936943054199e-01,-2.209270372986793518e-02,9.149988740682601929e-02,1.663873493671417236e-01,-3.452053964138031006e-01,-5.844657868146896362e-02,-1.676817983388900757e-02,-1.123508065938949585e-01,-2.819710671901702881e-01,4.239767324179410934e-03,4.413287714123725891e-02,-1.335002183914184570e-01,1.766694337129592896e-01,7.891429960727691650e-02,4.679755270481109619e-01,7.893643528223037720e-02,1.454587578773498535e-01,9.551519751548767090e-01,-5.356460437178611755e-02,2.677891850471496582e-01,7.563477754592895508e-02,1.207993775606155396e-01,3.803159892559051514e-01,2.369867116212844849e-01,1.067845597863197327e-01,1.664780676364898682e-01,4.796991869807243347e-02,6.440448760986328125e-01,1.434746503829956055e+00,4.775272011756896973e-01,2.741878628730773926e-01,1.820319890975952148e-01,-4.998249188065528870e-02,4.690583646297454834e-01,1.865028291940689087e-01,1.830936074256896973e-01,3.483151793479919434e-01,5.926292538642883301e-01,1.670831143856048584e-01,1.927828788757324219e-01,2.746094763278961182e-01,-1.087137311697006226e-02,4.874044656753540039e-02
-7.772411685436964035e-03,7.384628988802433014e-03,1.004013895988464355e+00,1.973005831241607666e-01,-1.216150261461734772e-02,-2.937063202261924744e-02,-4.417401924729347229e-02,-5.374775733798742294e-03,-6.868392694741487503e-03,-1.462770998477935791e-02,-4.548544064164161682e-02,-1.076280046254396439e-02,3.344314638525247574e-03,7.117424393072724342e-04,-8.180710487067699432e-03,7.791448850184679031e-03,-3.301965817809104919e-02,-2.885425835847854614e-02,3.261706326156854630e-03,-1.483257394284009933e-02,-1.012989226728677750e-02,-6.447735242545604706e-03,-5.516077508218586445e-04,-1.041223388165235519e-02,-2.991408295929431915e-02,-1.826717145740985870e-02,-3.875284269452095032e-02,-1.671572588384151459e-02,-2.199728973209857941e-02,-7.122388924472033978e-04,-7.180415838956832886e-02,1.178849697113037109e+00,-1.189711242914199829e-01,1.490135211497545242e-02,2.563629485666751862e-02,2.438540942966938019e-02,1.251677237451076508e-02,-3.556238254532217979e-03,-4.530185461044311523e-02,8.057808503508567810e-03,-4.199939593672752380e-02,2.962294965982437134e-04,-5.199222639203071594e-02,-1.397814415395259857e-02,-2.903777547180652618e-02,1.109858881682157516e-02,-3.670518053695559502e-04,-4.722181707620620728e-02,3.992918133735656738e-02,1.691076904535293579e-02,-2.263726852834224701e-02,1.184454094618558884e-02,-2.076641842722892761e-02,4.950224980711936951e-02,-2.582779154181480408e-02,3.590170294046401978e-02,-1.991851255297660828e-02,-2.128882706165313721e-02,4.923224821686744690e-02,3.711466118693351746e-02
1.072009131312370300e-01,3.538953065872192383e-01,4.712692499160766602e-01,8.558163791894912720e-02,2.453697919845581055e-01,3.038218915462493896e-01,3.646303415298461914e-01,1.641347408294677734e-01,5.855806171894073486e-03,-1.139391958713531494e-02,2.200261503458023071e-01,1.505898833274841309e-01,6.636365503072738647e-02,3.325506150722503662e-01,1.896579265594482422e-01,-3.561464697122573853e-02,-1.033019647002220154e-01,-3.333658576011657715e-01,9.092377126216888428e-02,-1.103499718010425568e-02,2.898351550102233887e-01,-3.361264765262603760e-01,-1.129431948065757751e-01,-8.897570520639419556e-02,-1.672837287187576294e-01,-6.942968964576721191e-01,1.301342844963073730e-01,2.820980548858642578e-01,-3.687744140625000000e-01,1.675090193748474121e-01,-2.612776160240173340e-01,3.450674116611480713e-01,-1.221086382865905762e-01,7.193680386990308762e-03,4.915751516819000244e-01,-9.164956957101821899e-02,-1.808861494064331055e-01,-2.148929089307785034e-01,-5.123383551836013794e-02,-4.167532548308372498e-02,2.147195488214492798e-01,3.617358803749084473e-01,-3.371587023138999939e-02,4.611175134778022766e-02,-6.036284938454627991e-02,1.279339939355850220e-01,9.451376795768737793e-01,-7.171661406755447388e-02,2.000498473644256592e-01,1.035540923476219177e-02,7.838463187217712402e-01,3.503107726573944092e-01,3.295478522777557373e-01,5.140116810798645020e-01,1.096278786659240723e+00,3.148562610149383545e-01,1.141914427280426025e-01,3.401069641113281250e-01,-2.060657739639282227e-02,3.628731146454811096e-02
-4.729366395622491837e-03,-5.052787251770496368e-03,-3.479715669527649879e-03,3.687628777697682381e-03,-1.152970120310783386e-01,3.842698875814676285e-03,1.075888890773057938e-02,1.245790394023060799e-03,-4.924823064357042313e-03,-7.860109210014343262e-03,-1.348057016730308533e-02,-4.310541320592164993e-03,-1.298264320939779282e-02,6.174236536026000977e-03,-8.076268713921308517e-04,1.266807690262794495e-02,-1.110740285366773605e-02,4.048971168231219053e-04,1.552258897572755814e-02,-5.921361036598682404e-03,2.421280136331915855e-03,1.191646978259086609e-02,-2.345281690359115601e-01,-4.685244522988796234e-03,7.987779565155506134e-03,-3.405365394428372383e-03,1.075004227459430695e-02,-4.803119301795959473e-01,-9.501128196716308594e-01,-1.910254120826721191e+00,-5.512043368071317673e-03,-2.903878921642899513e-03,-3.493236377835273743e-03,1.272390484809875488e-01,-5.131450016051530838e-03,-1.797658018767833710e-02,2.606695517897605896e-03,-6.060793530195951462e-03,-2.209975011646747589e-02,-7.363086915574967861e-04,5.856307223439216614e-03,8.274853229522705078e-03,-5.031132139265537262e-03,2.228076383471488953e-02,-6.925153080374002457e-03,3.994233906269073486e-03,-6.085743661969900131e-03,4.984688945114612579e-03,-1.719837635755538940e-02,7.248650770634412766e-03,-9.790233336389064789e-03,2.221653610467910767e-01,2.187859732657670975e-03,6.635190220549702644e-05,1.117621082812547684e-03,1.242019329220056534e-02,5.025735497474670410e-01,9.495185613632202148e-01,1.914492487907409668e+00,3.778238780796527863e-03
2.810365334153175354e-02,-8.097746223211288452e-02,-1.156360004097223282e-02,-7.824726402759552002e-02,-9.847885370254516602e-02,-5.891958624124526978e-02,-2.566757425665855408e-02,-6.364399194717407227e-02,-3.279803693294525146e-02,-5.516171827912330627e-02,-5.657349154353141785e-02,6.396022159606218338e-03,-1.320373266935348511e-02,-4.730457812547683716e-02,-3.464398905634880066e-02,-1.929019205272197723e-02,-2.378077432513237000e-02,-4.881231859326362610e-02,-2.001364156603813171e-02,1.791380904614925385e-02,1.398185919970273972e-02,-4.131511971354484558e-02,-4.725806042551994324e-02,4.977754876017570496e-02,7.514038085937500000e-01,1.717998862266540527e+00,3.080587089061737061e-01,2.637957967817783356e-02,-4.605818167328834534e-02,2.766015008091926575e-02,9.708667546510696411e-02,2.429082430899143219e-02,9.238909929990768433e-02,9.412461519241333008e-02,5.560815706849098206e-02,6.981533020734786987e-02,2.031297422945499420e-02,-5.781976971775293350e-03,5.737105011940002441e-02,1.205420680344104767e-02,1.463341712951660156e-02,2.926457487046718597e-02,1.484330650418996811e-02,4.117585718631744385e-02,2.045534364879131317e-02,9.632144123315811157e-02,-1.408323738723993301e-02,2.020094916224479675e-02,-6.211170554161071777e-02,-5.837792530655860901e-02,8.514902740716934204e-02,3.192421421408653259e-02,-1.410031765699386597e-01,-8.710618615150451660e-01,-1.798041939735412598e+00,-3.309106230735778809e-01,-1.691057812422513962e-03,1.726658456027507782e-02,-3.897633578162640333e-04,-3.651529550552368164e-03
4.627726599574089050e-02,4.699393212795257568e-01,3.202763497829437256e-01,-2.157798260450363159e-01,-2.954233996570110321e-02,5.975980311632156372e-02,3.145160898566246033e-02,-6.502994149923324585e-02,-1.541248261928558350e-01,6.132537722587585449e-01,-1.889009177684783936e-01,-2.900155633687973022e-02,2.988004982471466064e-01,1.015907302498817444e-01,-6.691674888134002686e-02,-1.634033620357513428e-01,5.429787039756774902e-01,1.202957034111022949e+00,-1.268592476844787598e-01,-1.115567460656166077e-01,1.342637836933135986e-01,7.548959255218505859e-01,3.181301355361938477e-01,9.402029961347579956e-02,4.645191133022308350e-01,8.978289961814880371e-01,2.298635244369506836e-01,7.191855460405349731e-02,2.332975715398788452e-01,2.974302321672439575e-02,3.737306892871856689e-01,-5.397101640701293945e-01,1.266621798276901245e-01,1.265186816453933716e-01,-3.379219770431518555e-01,1.809383928775787354e-01,3.096223063766956329e-02,1.429842263460159302e-01,3.352935016155242920e-01,2.721252441406250000e-01,2.426544874906539917e-01,-3.912200778722763062e-02,6.486003100872039795e-02,2.607547938823699951e-01,-8.654014207422733307e-03,3.481916189193725586e-01,-7.464296221733093262e-01,9.399911016225814819e-02,1.957267522811889648e-01,-2.198392711579799652e-02,-4.815059602260589600e-01,-1.861898899078369141e-01,4.068462923169136047e-02,-2.763290703296661377e-01,-6.724754571914672852e-01,7.253341376781463623e-02,1.508034616708755493e-01,-2.924842834472656250e-01,6.902220845222473145e-02,3.236123546957969666e-02
1.216722931712865829e-02,-1.978459767997264862e-02,-5.012580007314682007e-02,-9.316234290599822998e-02,-7.576090842485427856e-02,-5.099915340542793274e-02,-6.053370609879493713e-02,-4.372520744800567627e-02,-3.591650724411010742e-02,-5.735538527369499207e-02,-3.503269329667091370e-02,-1.602716557681560516e-02,9.259874373674392700e-02,1.638466119766235352e-02,-3.969677537679672241e-02,2.150130691006779671e-03,1.066613104194402695e-02,-4.703687876462936401e-02,-3.849283978343009949e-02,3.750536218285560608e-02,1.075626462697982788e-01,1.759653329849243164e+00,8.892197012901306152e-01,7.426674664020538330e-02,-1.486804056912660599e-02,-5.276949331164360046e-02,-5.910808593034744263e-02,-3.483643010258674622e-02,-5.652542039752006531e-02,-1.412632968276739120e-02,1.156872604042291641e-02,4.165102913975715637e-02,7.111189514398574829e-02,7.708164304494857788e-02,1.272671222686767578e-01,4.314170032739639282e-02,-2.961017563939094543e-02,7.097040303051471710e-03,3.662109002470970154e-02,3.728950023651123047e-02,-8.604365587234497070e-02,-1.239180862903594971e-01,-7.415945827960968018e-02,4.577048122882843018e-02,-5.587643012404441833e-02,5.112899467349052429e-02,2.820025943219661713e-02,-1.649987138807773590e-02,-9.445986896753311157e-02,-2.909713387489318848e-01,-1.955389261245727539e+00,-9.218592047691345215e-01,-1.073400229215621948e-01,4.723599553108215332e-02,5.473696812987327576e-02,6.899730116128921509e-02,2.087965421378612518e-02,-1.281766803003847599e-03,-1.220512203872203827e-02,1.443962287157773972e-02
5.423210561275482178e-02,3.738954290747642517e-02,3.784803673624992371e-02,4.911158606410026550e-02,-5.797844845801591873e-03,-3.896463662385940552e-02,-1.736763305962085724e-02,4.926744732074439526e-04,2.223649434745311737e-02,-9.470453262329101562e-01,-3.582718595862388611e-02,-7.891686633229255676e-03,-3.869949840009212494e-03,1.634363643825054169e-02,2.429961599409580231e-02,-5.815644748508930206e-03,1.138939708471298218e-02,2.768117561936378479e-02,2.865038998425006866e-02,2.341024391353130341e-02,7.344909477978944778e-03,1.882907748222351074e-02,2.925142273306846619e-02,-1.324950456619262695e+00,-2.655374072492122650e-02,2.106528729200363159e-02,2.357993833720684052e-02,-1.388025376945734024e-02,2.624600660055875778e-03,-6.869508419185876846e-03,8.287373185157775879e-02,-2.737623080611228943e-02,3.710236772894859314e-02,3.722392022609710693e-02,5.606428533792495728e-02,1.776706613600254059e-02,4.207279533147811890e-02,9.632332250475883484e-03,-1.592292070388793945e+00,1.738741621375083923e-02,4.487900063395500183e-02,3.043734095990657806e-02,5.090397782623767853e-03,3.744170069694519043e-02,3.044967539608478546e-02,6.148120015859603882e-02,-3.737163171172142029e-02,3.042305074632167816e-02,1.124351844191551208e-02,5.454620718955993652e-02,7.751058321446180344e-03,-1.823490411043167114e-01,-1.575206041336059570e+00,8.202812820672988892e-02,7.037471514195203781e-04,1.024190802127122879e-02,3.707218170166015625e-02,3.530415147542953491e-02,6.125459820032119751e-02,-3.859362564980983734e-03
-6.235826294869184494e-03,8.999657817184925079e-03,-1.054720114916563034e-02,-4.690357018262147903e-04,-1.418641116470098495e-02,-1.610438339412212372e-02,1.400148775428533554e-02,-1.135070575401186943e-03,-9.484134912490844727e-01,1.095886342227458954e-03,-1.297695748507976532e-02,-6.384002044796943665e-03,-2.232692902907729149e-03,8.061235770583152771e-03,2.537031890824437141e-03,-4.428618848323822021e-01,-5.462522967718541622e-04,-5.538784898817539215e-03,-1.893149852752685547e+00,-1.274055056273937225e-02,-2.468860149383544922e-01,4.484153818339109421e-03,-1.104522496461868286e-01,-1.275576185435056686e-03,1.086565013974905014e-02,-5.197139107622206211e-04,1.670102356001734734e-04,8.498496608808636665e-04,7.984871976077556610e-03,3.349762875586748123e-03,1.432175049558281898e-03,-1.848258776590228081e-03,1.019409159198403358e-03,2.673039957880973816e-02,9.115055203437805176e-03,-1.285415794700384140e-02,-1.307795010507106781e-02,9.392892718315124512e-01,-3.896526177413761616e-04,-1.152151077985763550e-02,-4.757766611874103546e-03,-4.631360527127981186e-03,-1.433023065328598022e-02,-8.518623188138008118e-03,4.435470700263977051e-01,-2.632196526974439621e-03,1.600606180727481842e-02,1.921180129051208496e+00,1.575772278010845184e-02,2.426952868700027466e-01,8.488685823976993561e-03,1.274281293153762817e-01,-2.425538841634988785e-03,-1.489294320344924927e-02,-4.758562427014112473e-03,1.393796177580952644e-03,2.480981871485710144e-03,-9.792945347726345062e-03,9.390433551743626595e-04,7.961100898683071136e-03
8.055627346038818359e-03,4.891061224043369293e-03,-9.075301699340343475e-03,-4.345468059182167053e-02,-1.816057562828063965e-01,-1.052695885300636292e-02,6.938489153981208801e-03,1.647221669554710388e-02,7.464251480996608734e-03,2.172249183058738708e-02,7.593993563205003738e-03,-2.067602634429931641e+00,-9.944619610905647278e-03,-1.022376537322998047e+00,-4.560783505439758301e-03,3.884334350004792213e-03,3.549611894413828850e-03,3.679355373606085777e-03,2.064840123057365417e-02,3.192418813705444336e-02,1.790042407810688019e-02,1.025836262851953506e-02,1.080811582505702972e-02,-3.860794305801391602e-01,-3.100051879882812500e-01,1.393139455467462540e-02,-9.051129454746842384e-04,4.021804314106702805e-03,1.346723362803459167e-02,1.363066397607326508e-02,5.555769428610801697e-03,5.325394682586193085e-03,6.351626664400100708e-02,1.632995009422302246e-01,-1.687697879970073700e-02,-7.609083317220211029e-03,-8.025041781365871429e-03,-7.716136984527111053e-03,-4.193162545561790466e-02,9.147664532065391541e-03,2.064689159393310547e+00,1.845255121588706970e-02,1.019749999046325684e+00,-1.179204788058996201e-02,-1.799330674111843109e-02,-1.946200430393218994e-02,-2.538547851145267487e-02,-3.393327444791793823e-02,-1.715615577995777130e-02,-2.763232588768005371e-02,-5.283787380903959274e-03,-1.573503832332789898e-03,3.678483963012695312e-01,3.190315365791320801e-01,-2.055104076862335205e-02,-9.900156408548355103e-03,-9.613477624952793121e-03,-1.875584386289119720e-02,-3.547530155628919601e-03,-1.157435867935419083e-02
-6.759955082088708878e-03,-2.328231930732727051e-01,-8.258853107690811157e-03,-9.702758193016052246e-01,-1.467416435480117798e-01,-1.575656933709979057e-03,-2.672631992027163506e-03,-8.446262218058109283e-03,-5.970786511898040771e-02,-5.762542597949504852e-03,5.186504567973315716e-04,2.706073690205812454e-03,-4.504556357860565186e-01,-2.434694906696677208e-03,2.397444099187850952e-03,-2.781456103548407555e-03,-7.937693735584616661e-04,-1.186829176731407642e-04,3.571843495592474937e-03,-1.966292023658752441e+00,-1.918277703225612640e-03,-5.198727827519178391e-03,4.588453157339245081e-04,3.076898632571101189e-03,-1.403444912284612656e-03,-2.119147218763828278e-03,4.279846325516700745e-03,1.996188657358288765e-03,4.044035915285348892e-03,-2.829471603035926819e-03,2.273325175046920776e-01,1.311702304519712925e-03,9.618546366691589355e-01,1.416485607624053955e-01,-2.867161296308040619e-03,-5.753293167799711227e-03,-8.377010934054851532e-03,6.384105980396270752e-02,6.894236430525779724e-04,7.134817074984312057e-03,4.910693038254976273e-03,4.512161910533905029e-01,7.161145098507404327e-03,-4.144845006521791220e-04,-2.111714566126465797e-03,-2.749493869487196207e-04,-5.197088699787855148e-03,2.772458828985691071e-03,1.971734404563903809e+00,-6.465449114330112934e-04,-2.321359934285283089e-03,-2.032597549259662628e-03,-1.141324639320373535e-02,3.048915823455899954e-04,3.856966039165854454e-03,-5.703032948076725006e-04,-1.537769101560115814e-02,-1.678079017437994480e-03,-5.457554361782968044e-04,5.627487553283572197e-06
-1.029288396239280701e-02,-1.108694225549697876e-01,-4.315014928579330444e-02,4.501950740814208984e-02,6.324335932731628418e-03,1.147510297596454620e-02,8.458705991506576538e-02,1.741518080234527588e-02,2.974509634077548981e-02,4.216820746660232544e-02,-6.897150874137878418e-01,8.629271760582923889e-03,2.032106965780258179e-01,4.956176131963729858e-02,2.884451998397707939e-03,1.225753426551818848e-01,-5.208921432495117188e-01,1.251707226037979126e-01,-1.376801636070013046e-03,8.083385974168777466e-02,1.614300310611724854e-01,2.783521413803100586e-01,2.022403925657272339e-01,2.693452872335910797e-02,8.767555654048919678e-02,2.013075500726699829e-01,2.789248898625373840e-02,2.214996516704559326e-02,1.171180680394172668e-01,9.906978905200958252e-02,-3.072346746921539307e-01,-7.781814038753509521e-02,1.529291421175003052e-01,1.456577926874160767e-01,9.055064618587493896e-02,1.410344149917364120e-02,1.460229605436325073e-01,3.924638405442237854e-02,1.389769166707992554e-01,1.047420740127563477e+00,1.290606558322906494e-01,-2.816370874643325806e-02,1.335074305534362793e-01,7.851639389991760254e-02,3.005864024162292480e-01,-8.874633312225341797e-01,-1.252667456865310669e-01,1.956821233034133911e-01,1.546549946069717407e-01,-9.827802330255508423e-02,-1.850713938474655151e-01,-3.149989992380142212e-02,3.685758635401725769e-02,8.244183659553527832e-02,2.905601263046264648e-02,8.901075273752212524e-02,1.618917584419250488e-01,3.108817525207996368e-02,4.923854395747184753e-02,3.562485054135322571e-02
1.265789940953254700e-02,-9.902666211128234863e-01,-4.123957753181457520e-01,3.906509280204772949e-02,1.059874296188354492e-01,-3.916679695248603821e-02,1.150802597403526306e-01,5.289678275585174561e-02,7.458724826574325562e-02,1.438055071048438549e-03,5.262370780110359192e-02,8.981788903474807739e-02,9.643551707267761230e-02,3.951980918645858765e-02,1.317918896675109863e-01,1.093128174543380737e-01,5.652233958244323730e-01,1.202097982168197632e-01,9.651953727006912231e-02,9.332243353128433228e-02,6.275491416454315186e-02,6.221570447087287903e-02,7.768683135509490967e-02,-1.093853563070297241e-01,3.116487711668014526e-02,5.215075984597206116e-02,2.829621732234954834e-02,1.646063625812530518e-01,4.542531818151473999e-02,4.324438795447349548e-02,-2.361299276351928711e+00,1.580724492669105530e-02,-1.632856018841266632e-02,1.538192331790924072e-01,-2.731180489063262939e-01,6.214268505573272705e-02,-7.871659100055694580e-02,-1.769905537366867065e-01,-1.877946108579635620e-01,-5.007068440318107605e-02,-1.256269067525863647e-01,-1.395718753337860107e-01,-4.478600621223449707e-02,-1.456496268510818481e-01,9.388240426778793335e-02,6.865256428718566895e-01,-3.949269279837608337e-02,-6.133737787604331970e-02,-4.591364040970802307e-02,-9.355942159891128540e-02,1.760014519095420837e-02,-3.823653608560562134e-02,-1.255786418914794922e-01,-5.082215741276741028e-02,-7.201868295669555664e-02,1.232240442186594009e-02,-3.159627318382263184e-02,-6.357152014970779419e-02,-1.639153994619846344e-02,1.979594677686691284e-02
3.308286890387535095e-03,-2.218658179044723511e-01,-1.788972504436969757e-02,-1.063700467348098755e-01,-2.938583027571439743e-03,4.354000091552734375e-03,8.744128048419952393e-03,-1.925726056098937988e+00,2.841197885572910309e-03,5.751058924943208694e-03,-1.175015233457088470e-02,-4.066422698087990284e-04,9.146081283688545227e-03,-8.508181199431419373e-03,-8.006335236132144928e-03,2.668196102604269981e-04,9.440155699849128723e-04,-5.576649215072393417e-03,2.314221113920211792e-03,1.228782348334789276e-02,1.062487252056598663e-03,8.630665251985192299e-04,4.926880821585655212e-03,-3.724497277289628983e-03,1.047205552458763123e-02,1.217459514737129211e-02,-9.657703042030334473e-01,-4.679150283336639404e-01,-1.305160112679004669e-03,-6.669051479548215866e-03,2.242680937051773071e-01,-1.442601322196424007e-03,1.143765002489089966e-01,6.399088073521852493e-03,-1.644533313810825348e-02,3.679435467347502708e-03,1.938417911529541016e+00,-7.401830516755580902e-04,-3.226981312036514282e-02,1.794219762086868286e-02,-4.134809598326683044e-03,4.600663203746080399e-03,9.390303865075111389e-03,1.760824397206306458e-02,-7.447528652846813202e-03,3.020919975824654102e-04,6.285565905272960663e-03,-8.249179460108280182e-03,-2.465131692588329315e-02,2.114606834948062897e-02,2.355814911425113678e-03,5.822029896080493927e-03,-7.974428124725818634e-03,9.956732392311096191e-03,-3.336470108479261398e-04,9.612811803817749023e-01,4.679101705551147461e-01,-3.007193794474005699e-03,1.579675637185573578e-02,-8.460714481770992279e-03
-1.015880261547863483e-04,-1.953105628490447998e-02,-1.088031828403472900e-01,-5.557963997125625610e-02,-1.243446543812751770e-01,-5.686119571328163147e-02,-4.940922185778617859e-02,-1.236018612980842590e-01,-1.574851199984550476e-02,3.675594329833984375e-01,7.260836362838745117e-01,-1.132255718111991882e-01,3.265609145164489746e-01,-4.348939657211303711e-02,-1.468049734830856323e-01,1.349539458751678467e-01,1.318962275981903076e-01,5.405147671699523926e-01,-1.196910142898559570e-01,7.314806431531906128e-02,1.475969552993774414e-01,6.470054984092712402e-01,3.578485250473022461e-01,1.190982237458229065e-01,4.486569166183471680e-01,1.081190466880798340e+00,1.024742946028709412e-01,-6.051726639270782471e-02,3.170680701732635498e-01,1.040545254945755005e-01,5.669396743178367615e-02,-2.026695311069488525e-01,3.507808744907379150e-01,2.592009902000427246e-01,-4.254696425050497055e-03,1.456774175167083740e-01,4.184907972812652588e-01,2.925257384777069092e-01,4.379199743270874023e-01,-3.288736045360565186e-01,2.876482903957366943e-01,-1.651348173618316650e-01,2.892372012138366699e-01,2.534581422805786133e-01,6.249403357505798340e-01,-3.282214701175689697e-01,-6.523684263229370117e-01,4.145161807537078857e-01,2.608436644077301025e-01,-1.299240738153457642e-01,-5.952479839324951172e-01,-1.737213432788848877e-01,-4.926364123821258545e-02,-2.557354569435119629e-01,-7.924820184707641602e-01,-4.023210611194372177e-03,2.688545286655426025e-01,-1.246182993054389954e-01,9.141600131988525391e-02,5.353272706270217896e-02
-2.419984154403209686e-02,-3.614988923072814941e-02,-1.571801677346229553e-02,-4.199771583080291748e-02,-2.094460465013980865e-02,-1.706486754119396210e-02,1.327202562242746353e-02,3.028340823948383331e-02,-5.928604677319526672e-02,-1.497653312981128693e-02,1.257783151231706142e-03,4.170612245798110962e-02,3.828994333744049072e-01,2.093726396560668945e-02,-5.373180843889713287e-03,5.214523524045944214e-03,3.800139576196670532e-02,1.709495186805725098e+00,3.071278519928455353e-02,1.187362428754568100e-02,-7.284445222467184067e-03,4.750798456370830536e-03,-3.718003258109092712e-02,-1.193711161613464355e-02,1.888108439743518829e-03,-7.047687191516160965e-03,-2.697824686765670776e-02,-2.306358888745307922e-02,7.088625431060791016e-01,1.180838886648416519e-02,4.528660699725151062e-02,-2.838950371369719505e-03,5.587149411439895630e-02,2.242742292582988739e-02,6.006469484418630600e-03,-1.162911113351583481e-02,-1.852009072899818420e-02,7.009033113718032837e-02,1.781628653407096863e-02,-6.732197012752294540e-03,-8.202075213193893433e-02,-3.862060308456420898e-01,-1.003823801875114441e-02,-2.314127609133720398e-02,-1.885090023279190063e-02,-3.342951461672782898e-02,-1.718062400817871094e+00,-3.780758753418922424e-02,2.160962112247943878e-02,2.093716897070407867e-02,1.816286705434322357e-02,4.586629942059516907e-02,-6.171355489641427994e-03,1.226597465574741364e-02,-3.764607827179133892e-04,2.434427477419376373e-02,-1.105369301512837410e-03,-7.118622660636901855e-01,-2.107885666191577911e-02,2.149415947496891022e-02
-1.193188782781362534e-02,-2.349803037941455841e-02,-1.357686799019575119e-02,-4.803726449608802795e-02,-3.053847700357437134e-02,9.972532391548156738e-01,1.843217760324478149e-01,-2.821361459791660309e-02,-3.208472952246665955e-02,-3.488950803875923157e-02,3.115969244390726089e-03,-9.038684889674186707e-03,-3.583293035626411438e-02,-1.590617187321186066e-02,-6.491773761808872223e-03,-3.377113863825798035e-02,-8.065386861562728882e-02,9.284982224926352501e-04,-8.103732019662857056e-03,-1.733562909066677094e-02,8.872687467373907566e-04,4.221053421497344971e-02,1.048041228204965591e-02,2.381115593016147614e-02,-1.883568614721298218e-02,-3.499160520732402802e-03,-8.375168778002262115e-03,-7.671913132071495056e-03,-6.650025956332683563e-03,1.670646667480468750e-02,-5.633253604173660278e-02,-1.550493296235799789e-02,3.591034188866615295e-02,-2.319613285362720490e-02,1.237507820129394531e+00,-1.323179751634597778e-01,1.449396554380655289e-02,-5.021921545267105103e-02,-1.274988800287246704e-02,1.430027745664119720e-02,-4.460462834686040878e-03,1.326387003064155579e-02,-3.142035752534866333e-02,2.186938561499118805e-02,1.568121463060379028e-02,1.450992003083229065e-02,-2.326793223619461060e-02,-2.736333990469574928e-03,3.849140182137489319e-02,2.795573789626359940e-03,-9.739703685045242310e-02,-1.087214332073926926e-02,-4.290385171771049500e-02,-1.049509737640619278e-02,-1.001249440014362335e-02,2.832349762320518494e-02,-1.393122877925634384e-02,-2.685589529573917389e-02,-1.549682300537824631e-02,2.344795316457748413e-02
-1.234395243227481842e-02,1.429921947419643402e-02,7.311640307307243347e-03,9.165198542177677155e-03,-2.542641460895538330e-01,-2.253183163702487946e-02,-1.963176488876342773e+00,7.533183787018060684e-03,9.294787421822547913e-03,8.709098212420940399e-03,-1.463463343679904938e-02,5.918418522924184799e-03,-6.522441282868385315e-03,-1.742779463529586792e-02,-2.289434662088751793e-03,2.197076100856065750e-04,2.949112327769398689e-03,-3.238235600292682648e-03,-1.966322958469390869e-02,-2.455275133252143860e-02,-9.798328280448913574e-01,-6.898628082126379013e-03,-9.146253578364849091e-03,3.383683739230036736e-03,-4.385336637496948242e-01,9.233521297574043274e-03,-2.787736477330327034e-03,-1.028745695948600769e-01,1.195096410810947418e-02,-6.346822250634431839e-03,-3.438543155789375305e-02,4.305304028093814850e-04,-2.567717432975769043e-02,2.460403889417648315e-01,4.866346251219511032e-03,1.949897170066833496e+00,-1.978516206145286560e-02,-1.951859705150127411e-02,-7.893619127571582794e-03,-8.837567642331123352e-03,-1.865555532276630402e-03,-2.324974909424781799e-02,1.108238659799098969e-02,6.377266719937324524e-03,-2.024085819721221924e-02,-3.660374786704778671e-03,-7.870178669691085815e-03,6.355133373290300369e-03,-1.122043700888752937e-03,9.534585475921630859e-01,-5.709492601454257965e-03,-2.671908214688301086e-02,2.032906631939113140e-04,4.258657991886138916e-01,-5.628135055303573608e-03,1.330182189121842384e-03,9.784165769815444946e-02,-3.984837979078292847e-02,1.362525112926959991e-02,3.708260832354426384e-03
2.422214113175868988e-02,-3.374509140849113464e-02,-2.600804204121232033e-03,2.936932258307933807e-02,2.508946694433689117e-02,3.006539307534694672e-02,1.466702111065387726e-02,1.169006433337926865e-02,3.851992636919021606e-02,3.460839390754699707e-02,2.266922779381275177e-02,2.088673645630478859e-03,-2.115756273269653320e-01,-4.290573894977569580e-01,-1.896003484725952148e+00,-8.941521048545837402e-01,-8.167406544089317322e-03,3.054120391607284546e-02,-4.552689846605062485e-03,2.113035880029201508e-02,4.108887910842895508e-02,1.879379153251647949e-02,1.789772137999534607e-02,3.509896993637084961e-02,-1.644878275692462921e-02,5.557448416948318481e-02,6.119303870946168900e-03,3.745486214756965637e-02,3.644300997257232666e-02,3.719838708639144897e-02,2.696836553514003754e-02,-4.645627737045288086e-02,-1.329944189637899399e-02,-8.138661831617355347e-02,-3.420304507017135620e-02,-2.925702184438705444e-02,5.430353339761495590e-03,-7.898367196321487427e-02,-4.033191129565238953e-02,-3.949758782982826233e-02,1.363210845738649368e-02,2.728150784969329834e-01,4.595997333526611328e-01,1.929397940635681152e+00,8.982332944869995117e-01,1.267219707369804382e-02,-3.506352379918098450e-02,-4.892115015536546707e-03,-4.271215200424194336e-02,-2.045266143977642059e-02,-5.471748486161231995e-02,-1.114005874842405319e-02,-1.638070866465568542e-02,-1.180654391646385193e-02,-2.841355279088020325e-02,-3.235357999801635742e-02,-4.714641720056533813e-02,-6.368338316679000854e-02,-2.616948634386062622e-02,-1.348381023854017258e-02
-8.463160134851932526e-03,2.060679905116558075e-02,3.746379166841506958e-02,4.267145693302154541e-02,6.567659787833690643e-03,2.912636380642652512e-03,1.097703445702791214e-02,-4.218692891299724579e-03,-4.114837199449539185e-02,-1.433506011962890625e+00,-1.015817523002624512e-01,3.338795527815818787e-02,1.549356989562511444e-02,4.689597710967063904e-02,1.607588492333889008e-02,8.382464293390512466e-04,4.921948537230491638e-03,1.370835024863481522e-02,3.257582336664199829e-02,-2.038093050941824913e-03,-7.795093115419149399e-03,1.238030847162008286e-02,3.300666064023971558e-02,1.268396019935607910e+00,7.597678154706954956e-02,2.414469979703426361e-02,3.816546499729156494e-02,-2.120757289230823517e-02,-4.054128751158714294e-02,1.208612695336341858e-03,5.758826807141304016e-02,-4.117764532566070557e-02,-8.169526234269142151e-03,1.384245883673429489e-02,-7.522897422313690186e-02,-4.311223980039358139e-03,-8.637673221528530121e-03,-2.126460671424865723e-01,-2.209025859832763672e+00,8.211395144462585449e-02,-4.425088316202163696e-02,1.553512550890445709e-02,2.165832091122865677e-03,1.419424172490835190e-02,2.612396888434886932e-02,2.279289066791534424e-02,-2.551775984466075897e-02,4.423184692859649658e-02,-2.761812508106231689e-02,-2.180532179772853851e-02,2.140208147466182709e-02,1.388173401355743408e-01,4.022806584835052490e-01,-1.930058375000953674e-02,-2.364881336688995361e-03,3.214210271835327148e-02,-1.157185994088649750e-02,7.500395178794860840e-02,4.406186193227767944e-02,-3.429005667567253113e-02
