-3.092547953128814697e-01,9.933164715766906738e-02,4.378785490989685059e-01,4.237494468688964844e-01,-8.404444903135299683e-02,3.827347978949546814e-02,-1.242416650056838989e-01,3.244315087795257568e-01,-2.969450354576110840e-01,-2.461069673299789429e-01,-3.980112969875335693e-01,-1.585143655538558960e-01,-2.191189974546432495e-01,-2.666020393371582031e-01,4.221575260162353516e-01,1.436641514301300049e-01,-2.807294428348541260e-01,-3.971243277192115784e-02,1.302306354045867920e-02,7.064608484506607056e-02
-3.157188892364501953e-01,3.763315379619598389e-01,-1.904398351907730103e-01,2.806276082992553711e-01,2.859958112239837646e-01,1.359625905752182007e-01,-2.894182801246643066e-01,-1.489521265029907227e-01,9.430051781237125397e-03,3.644011318683624268e-01,8.577512204647064209e-02,-2.555709183216094971e-01,-2.720277607440948486e-01,-7.056146860122680664e-03,4.954636693000793457e-01,2.166373878717422485e-01,9.311882406473159790e-02,-3.014133078977465630e-03,-5.741147696971893311e-02,1.383160203695297241e-01
-8.487483859062194824e-02,3.554690629243850708e-02,-1.382900495082139969e-02,1.026406586170196533e-01,7.500486820936203003e-02,8.309658616781234741e-02,-1.267315894365310669e-01,3.797295093536376953e-01,3.860228657722473145e-01,-5.870925784111022949e-01,-4.415400624275207520e-01,1.011300608515739441e-01,-2.047853618860244751e-01,8.781433105468750000e-02,6.860946863889694214e-02,1.657386571168899536e-01,2.952843308448791504e-01,5.629241466522216797e-01,1.997811049222946167e-01,-2.490518242120742798e-02
1.768597066402435303e-01,-4.603717625141143799e-01,-7.566654682159423828e-02,2.241554260253906250e-01,-1.604113541543483734e-02,9.971439093351364136e-02,1.755004674196243286e-01,3.890967965126037598e-01,-4.344660043716430664e-01,1.551523357629776001e-01,-1.923215240240097046e-01,2.697248458862304688e-01,-2.386543005704879761e-01,3.084585666656494141e-01,-2.651014328002929688e-01,-3.439558902755379677e-03,3.488995432853698730e-01,-7.749693095684051514e-02,-1.451351195573806763e-01,9.819057583808898926e-02
-4.320262074470520020e-01,-3.128412067890167236e-01,1.982803493738174438e-01,4.140357300639152527e-02,2.714276909828186035e-01,-3.561519384384155273e-01,-1.128727272152900696e-01,3.699798285961151123e-01,-9.683316200971603394e-02,1.320576220750808716e-01,-2.244396358728408813e-01,-3.699350059032440186e-01,4.471132904291152954e-02,6.671383976936340332e-02,3.128618299961090088e-01,-6.548075675964355469e-01,1.342147588729858398e-01,-3.554401099681854248e-01,-1.824513673782348633e-01,-3.349088132381439209e-01
-1.396742369979619980e-02,3.700601458549499512e-01,-4.658036679029464722e-02,-3.653285279870033264e-02,-2.195254266262054443e-01,-1.722416579723358154e-01,-4.088602587580680847e-02,-4.238828271627426147e-02,-2.076612412929534912e-02,2.502505779266357422e-01,-4.154706895351409912e-01,2.412579208612442017e-02,1.374335587024688721e-01,-2.954400479793548584e-01,-9.912516176700592041e-02,-1.596386916935443878e-02,2.842984497547149658e-01,-1.211299225687980652e-01,-1.668127626180648804e-01,1.766682118177413940e-01
6.744420528411865234e-02,7.453408092260360718e-02,-1.365039031952619553e-02,9.983600676059722900e-02,-2.131137400865554810e-01,-1.367174237966537476e-01,3.560653328895568848e-01,-1.742216348648071289e-01,3.172768652439117432e-02,-3.446834385395050049e-01,-1.496933773159980774e-02,-1.068068668246269226e-01,7.805051864124834538e-04,-3.017864227294921875e-01,-2.774276025593280792e-02,-7.669517397880554199e-02,-1.196093931794166565e-01,3.481915965676307678e-02,4.056358635425567627e-01,-1.618464887142181396e-01
2.525458931922912598e-01,-1.159273087978363037e-01,4.679259061813354492e-01,-1.906731277704238892e-01,-9.949440509080886841e-02,3.445497453212738037e-01,9.489362686872482300e-02,1.006381064653396606e-01,3.576704487204551697e-02,-4.192315936088562012e-01,-3.789199888706207275e-01,-2.429388314485549927e-01,4.708663523197174072e-01,1.296747028827667236e-01,-2.691069841384887695e-01,1.528892666101455688e-01,4.059870243072509766e-01,1.680538207292556763e-01,-1.932122707366943359e-01,1.077788695693016052e-01
-3.320661485195159912e-01,2.394739091396331787e-01,-3.447681665420532227e-02,-2.701504826545715332e-01,1.572470515966415405e-01,-1.688083559274673462e-01,-3.703765571117401123e-01,-1.238314509391784668e-01,1.630254089832305908e-01,-4.938240721821784973e-02,3.585237264633178711e-01,-3.927780687808990479e-01,9.745361655950546265e-02,-4.557269215583801270e-01,-7.043056935071945190e-02,-3.802952170372009277e-01,-4.484918713569641113e-01,3.037356436252593994e-01,1.364589035511016846e-01,5.450004339218139648e-02
-5.411732792854309082e-01,-4.582349658012390137e-01,-1.848888397216796875e-01,3.621050417423248291e-01,-1.233136579394340515e-01,-5.124644041061401367e-01,-2.907787561416625977e-01,1.648063957691192627e-01,5.673640966415405273e-02,-3.371424227952957153e-02,3.551395982503890991e-02,-3.061349391937255859e-01,4.612430930137634277e-02,-4.737194478511810303e-01,-1.468206644058227539e-01,-2.020838260650634766e-01,2.111902534961700439e-01,-3.144838660955429077e-02,4.970912355929613113e-03,1.685555726289749146e-01
1.665211096405982971e-02,2.104917913675308228e-01,8.454868197441101074e-02,3.022435903549194336e-01,1.454166602343320847e-02,-1.029770150780677795e-01,-2.718776166439056396e-01,2.908977866172790527e-01,-2.118346095085144043e-01,3.691486716270446777e-01,-2.097641676664352417e-01,4.343245625495910645e-01,4.088967293500900269e-02,5.785822868347167969e-03,2.390985488891601562e-01,2.118492573499679565e-01,-1.605200320482254028e-01,-2.263489812612533569e-01,2.293312251567840576e-01,3.155952692031860352e-02
-5.673493146896362305e-01,-3.014097213745117188e-01,-5.639670416712760925e-03,-2.424436807632446289e-01,2.198979854583740234e-01,1.224332898855209351e-01,5.860473588109016418e-02,1.610147356986999512e-01,-3.355620503425598145e-01,-3.524830639362335205e-01,-2.899429947137832642e-02,1.199387535452842712e-01,-7.183984667062759399e-02,-2.255313992500305176e-01,1.811211258172988892e-01,9.120935946702957153e-02,2.145734429359436035e-02,-7.227153331041336060e-02,-4.068487882614135742e-01,3.513815402984619141e-01
2.342216819524765015e-01,-1.726458817720413208e-01,8.513832837343215942e-02,2.164315581321716309e-01,1.717496663331985474e-02,2.580945491790771484e-01,-2.244862616062164307e-01,-8.693313598632812500e-02,1.806364655494689941e-01,1.789316385984420776e-01,4.642025232315063477e-01,-2.704065144062042236e-01,-2.694413997232913971e-02,5.468504875898361206e-02,1.700602844357490540e-02,-3.135865032672882080e-01,-1.770952790975570679e-01,1.069568656384944916e-02,-5.539250373840332031e-02,-1.876784861087799072e-01
4.047495722770690918e-01,3.201599121093750000e-01,-3.603653013706207275e-01,-1.884546130895614624e-01,-1.261344552040100098e-01,-1.782994419336318970e-01,-2.734634280204772949e-01,3.065147697925567627e-01,-1.227708235383033752e-01,5.226597189903259277e-01,1.066394448280334473e-01,-2.280675768852233887e-01,-1.177822239696979523e-02,1.495009213685989380e-01,-1.192667633295059204e-01,-2.209378331899642944e-01,-5.689049139618873596e-02,-5.450078248977661133e-01,7.040332257747650146e-02,1.395335942506790161e-01
5.905701518058776855e-01,6.700915098190307617e-02,5.385659933090209961e-01,-1.095806807279586792e-02,-2.938338816165924072e-01,-3.890178203582763672e-01,-1.514482870697975159e-02,2.054308205842971802e-01,-3.906054794788360596e-01,-2.246985882520675659e-01,6.120345368981361389e-02,2.742365188896656036e-02,1.024381816387176514e-01,-1.739265620708465576e-01,-1.678699851036071777e-01,-2.651018500328063965e-01,-1.394164562225341797e-01,4.365062713623046875e-01,-7.302767597138881683e-03,1.084505915641784668e-01
-2.563882172107696533e-01,2.437938004732131958e-01,-5.845947265625000000e-01,9.314947575330734253e-02,-1.953559368848800659e-01,3.794312179088592529e-01,-1.666661798954010010e-01,1.763702034950256348e-01,-1.788580417633056641e-01,1.375660896301269531e-01,1.811651736497879028e-01,-4.394918680191040039e-01,-4.460504278540611267e-02,2.051601856946945190e-01,-2.881378233432769775e-01,8.614651113748550415e-02,-1.792391687631607056e-01,7.082944363355636597e-02,2.500636875629425049e-01,2.136201113462448120e-01
-3.471305072307586670e-01,2.771322727203369141e-01,-1.657011508941650391e-01,-4.366074800491333008e-01,5.729656815528869629e-01,1.752353161573410034e-01,-1.929610669612884521e-01,-2.440531700849533081e-01,1.790843009948730469e-01,-1.951307505369186401e-01,4.114888012409210205e-01,1.024830248206853867e-02,-7.916195690631866455e-02,-4.609258100390434265e-02,1.113327369093894958e-01,-2.772536873817443848e-01,2.704614102840423584e-01,-5.747560858726501465e-01,2.706047296524047852e-01,-2.597469687461853027e-01
4.228064045310020447e-02,2.271428108215332031e-01,-5.240632295608520508e-01,-8.116319030523300171e-02,-5.953626632690429688e-01,1.965250521898269653e-01,-2.494891583919525146e-01,4.143142104148864746e-01,3.612910509109497070e-01,3.913637995719909668e-02,1.866931617259979248e-01,4.858578741550445557e-01,1.076347380876541138e-01,-4.227375984191894531e-01,1.610845923423767090e-01,-7.051800191402435303e-02,5.072674155235290527e-02,-3.211497068405151367e-01,2.192143648862838745e-01,-2.833948433399200439e-01
2.953571975231170654e-01,-4.658151865005493164e-01,-3.352485001087188721e-01,1.859848946332931519e-01,-2.882561683654785156e-01,6.560046225786209106e-02,-3.129639029502868652e-01,3.312648274004459381e-03,-2.929606735706329346e-01,3.518042340874671936e-02,3.579629361629486084e-01,-4.007712602615356445e-01,-1.482041552662849426e-02,-5.191103219985961914e-01,6.990557909011840820e-02,-1.482080221176147461e-01,-1.079853773117065430e-01,-5.825121998786926270e-01,-1.887062638998031616e-01,-5.333028361201286316e-02
1.353005766868591309e-01,-2.721386551856994629e-01,2.167914509773254395e-01,-1.208128333091735840e-01,9.344378858804702759e-02,-2.112634629011154175e-01,2.529110014438629150e-01,6.153644248843193054e-02,-2.043510675430297852e-01,4.145907610654830933e-02,-3.016943633556365967e-01,8.959266543388366699e-02,3.876134157180786133e-01,-9.501051902770996094e-02,-9.974578395485877991e-03,2.009453177452087402e-01,-3.174257576465606689e-01,-2.161796540021896362e-01,-2.654089219868183136e-02,-3.797024190425872803e-01
