1.086040213704109192e-02,7.452202495187520981e-03,6.841077655553817749e-02,9.085342288017272949e-02,7.456512749195098877e-02,-1.037281472235918045e-02,-1.338127627968788147e-02,6.081113964319229126e-02,1.403815597295761108e-01,-1.809589937329292297e-02,3.966932371258735657e-02,3.658483028411865234e-01,-2.337684296071529388e-02,-4.287538677453994751e-02,1.133450716733932495e-01,-4.023169875144958496e-01,-7.561780512332916260e-02,1.623187400400638580e-02,-1.090678200125694275e-01,2.816766873002052307e-02,3.448203951120376587e-02,-1.006475567817687988e+00,2.046093791723251343e-01,1.573426127433776855e-01,9.518991410732269287e-02,1.431166082620620728e-01,-3.187963739037513733e-02,1.300192903727293015e-02,2.514535486698150635e-01,-5.066736340522766113e-01,2.375772781670093536e-02,5.828751623630523682e-02,2.165479958057403564e-01,6.008651852607727051e-02,-2.609147690236568451e-02,6.321687996387481689e-02,6.091312319040298462e-02,8.834666013717651367e-02,8.718430995941162109e-03,1.181236729025840759e-01,2.313613146543502808e-01,-2.406112998723983765e-01,-2.153994590044021606e-01,-1.193341314792633057e-01,-5.284596085548400879e-01,1.014263853430747986e-01,1.155592724680900574e-01,-7.789789140224456787e-02,7.559425383806228638e-02,-1.301157623529434204e-01,-1.685709595680236816e+00,2.555505335330963135e-01,1.780210435390472412e-02,6.648767739534378052e-02,-1.209458485245704651e-01,1.123356893658638000e-01,8.730696141719818115e-02,7.075978815555572510e-02,-7.599191069602966309e-01,6.966610252857208252e-02
1.337701529264450073e-01,-7.986803352832794189e-02,-1.384077034890651703e-02,-4.925298318266868591e-02,-7.669400423765182495e-02,-1.925107538700103760e-01,-2.212758213281631470e-01,3.072056174278259277e-01,2.363541275262832642e-01,-7.367049902677536011e-02,7.755080610513687134e-02,2.295359224081039429e-01,1.100990250706672668e-01,8.807463049888610840e-01,5.868531465530395508e-01,3.078496456146240234e-01,-3.440400362014770508e-01,-1.037580296397209167e-01,5.731769278645515442e-02,-4.167067259550094604e-02,-6.832747161388397217e-02,-1.048366874456405640e-01,-1.065327152609825134e-01,8.807579427957534790e-02,-2.322064936161041260e-01,4.461506605148315430e-01,-1.074414849281311035e-01,-6.522362679243087769e-02,-3.990117460489273071e-02,1.592040061950683594e-01,5.880503058433532715e-01,1.660354435443878174e-01,-3.129680752754211426e-01,2.916876375675201416e-01,4.669609069824218750e-01,2.608295977115631104e-01,2.597255408763885498e-01,2.272336333990097046e-01,2.275217622518539429e-01,-2.324517369270324707e-01,2.466156929731369019e-01,-3.018272221088409424e-01,-3.339190781116485596e-02,-3.189348578453063965e-01,4.579038619995117188e-01,8.440052866935729980e-01,2.347365915775299072e-01,2.680124044418334961e-01,3.869638144969940186e-01,3.595665693283081055e-01,1.810608804225921631e-01,4.405429959297180176e-02,-4.924833774566650391e-02,-3.354315459728240967e-02,-4.627288579940795898e-01,3.232547938823699951e-01,1.368419229984283447e-01,-3.798672556877136230e-02,1.606567949056625366e-02,-1.467590034008026123e-02
-8.480367250740528107e-03,9.686624631285667419e-03,-7.748835254460573196e-03,-2.203374356031417847e-02,-9.157617092132568359e-01,-1.814594745635986328e+00,-9.982471354305744171e-03,-2.659826725721359253e-02,-7.026182115077972412e-02,-5.362113472074270248e-03,-2.593677118420600891e-02,-2.282998897135257721e-02,1.396877109073102474e-03,-3.829081309959292412e-03,2.577034174464643002e-04,-4.006223287433385849e-03,-1.686446368694305420e-02,-2.265516668558120728e-02,-2.726025506854057312e-02,-4.569019973278045654e-01,-1.195180863142013550e-01,6.481145042926073074e-03,-3.766703605651855469e-02,-3.643704950809478760e-02,-2.157536521553993225e-02,-5.192941054701805115e-02,-1.959430985152721405e-03,-3.702078387141227722e-02,-4.162045195698738098e-02,-1.849056966602802277e-02,-5.006113648414611816e-02,-1.050818245857954025e-02,1.000846829265356064e-02,8.960558772087097168e-01,1.813473224639892578e+00,-5.871013272553682327e-03,4.551886394619941711e-02,7.433801144361495972e-02,9.807346388697624207e-03,3.215362876653671265e-02,2.798862010240554810e-02,5.746229551732540131e-03,-1.863322779536247253e-02,-8.263928815722465515e-03,7.291626650840044022e-03,1.475260499864816666e-02,2.222063206136226654e-02,4.520648345351219177e-02,4.342218041419982910e-01,1.137878969311714172e-01,-8.546037599444389343e-03,5.569506809115409851e-02,4.338331148028373718e-02,1.130422577261924744e-02,5.042646825313568115e-02,-4.506426397711038589e-03,3.606364503502845764e-02,5.000971257686614990e-02,3.423888981342315674e-02,1.042479276657104492e-02
1.032747924327850342e-01,-1.077020987868309021e-01,2.341301888227462769e-01,8.296792209148406982e-02,-1.373177915811538696e-01,-5.705665796995162964e-02,4.507765918970108032e-02,2.015204876661300659e-01,-6.632273644208908081e-02,-1.707569882273674011e-02,1.361654698848724365e-01,-1.769686341285705566e-01,-4.256395995616912842e-02,4.600809887051582336e-02,6.431425809860229492e-01,-3.040694631636142731e-03,2.809242606163024902e-01,9.858573228120803833e-02,-1.482121348381042480e-01,1.123839467763900757e-01,1.289624720811843872e-02,-1.179225090891122818e-02,1.892040856182575226e-02,8.589179515838623047e-01,1.119397133588790894e-01,4.052774235606193542e-02,-3.685395047068595886e-02,8.669102191925048828e-02,-1.039046421647071838e-01,-9.332192689180374146e-02,2.198734432458877563e-01,-2.644395828247070312e-01,-1.066115647554397583e-01,2.512511610984802246e-01,1.670436859130859375e-01,-4.163395240902900696e-02,-1.061819195747375488e-01,1.076495945453643799e-01,1.046107262372970581e-01,-1.361085474491119385e-01,1.680650115013122559e-01,2.845289707183837891e-01,7.010051608085632324e-02,-6.588733792304992676e-01,-1.048204675316810608e-01,-2.636008262634277344e-01,-8.267006278038024902e-02,1.714204847812652588e-01,-1.070260405540466309e-01,2.293937280774116516e-02,4.566659778356552124e-02,-9.203772246837615967e-02,-1.001116514205932617e+00,-6.507596373558044434e-02,3.677783068269491196e-03,7.265211641788482666e-02,-8.197048306465148926e-02,6.414227932691574097e-02,9.900334477424621582e-02,3.173666307702660561e-03
1.965960115194320679e-02,1.162816584110260010e-02,2.018654346466064453e-02,3.642531111836433411e-02,8.828843943774700165e-03,-4.048812761902809143e-02,2.528876438736915588e-02,-1.682183705270290375e-02,-1.488326769322156906e-02,-1.035487279295921326e-02,3.037199378013610840e-02,-9.841157793998718262e-01,-3.050741041079163551e-03,1.327643077820539474e-02,4.980104789137840271e-02,1.679456830024719238e-01,-1.418753266334533691e-01,7.153598964214324951e-02,-1.151663213968276978e-01,-5.782053619623184204e-02,-1.797233521938323975e-02,-5.978937726467847824e-03,-3.945168107748031616e-02,2.796949446201324463e-02,7.104091346263885498e-02,5.456129461526870728e-02,-3.156568109989166260e-02,1.777377724647521973e-02,7.991445064544677734e-01,4.399794712662696838e-02,-1.740784756839275360e-02,-4.502577707171440125e-02,-1.561849610880017281e-03,5.876494199037551880e-02,9.064659476280212402e-02,-3.780179470777511597e-02,-1.426885575056076050e-01,-7.568634301424026489e-02,6.421411782503128052e-02,-1.610038876533508301e-01,-1.630795240402221680e+00,-2.505688741803169250e-02,-1.338004767894744873e-01,-6.377798318862915039e-02,1.857906430959701538e-01,3.331433609127998352e-02,1.855237632989883423e-01,-1.157431527972221375e-01,-2.395549416542053223e-02,-7.064659893512725830e-02,-3.751970129087567329e-03,-5.764039978384971619e-02,-1.583186723291873932e-02,9.340204298496246338e-02,-7.699410617351531982e-02,-2.594646764919161797e-03,1.210432052612304688e-01,7.342204451560974121e-01,-2.489095479249954224e-01,-2.090942673385143280e-02
5.233450792729854584e-06,-1.155329402536153793e-02,1.276347087696194649e-03,5.559634882956743240e-03,9.079564362764358521e-03,-1.278911251574754715e-03,-3.331898944452404976e-03,2.185970777645707130e-03,1.182763371616601944e-02,2.376367105171084404e-03,-1.464183162897825241e-02,-5.213938653469085693e-03,-9.786383016034960747e-04,1.448189490474760532e-03,1.249302923679351807e-02,1.366583351045846939e-02,-3.208440961316227913e-03,-2.323526293039321899e-01,-4.461753368377685547e-02,2.266267547383904457e-03,1.213640253990888596e-02,-7.134837564080953598e-03,3.700717352330684662e-04,-1.983931846916675568e-02,-1.074830256402492523e-02,-3.583785891532897949e-01,-1.575769424438476562e+00,-7.722055912017822266e-01,-1.097691878676414490e-01,-9.687893092632293701e-03,1.245660241693258286e-02,-6.679987534880638123e-03,-1.177673973143100739e-02,-9.592558257281780243e-03,3.794990247115492821e-03,4.546204116195440292e-03,-1.175731420516967773e-02,-9.943435899913311005e-03,-8.098686113953590393e-03,1.943513192236423492e-02,5.629254039376974106e-03,5.571617657551541924e-05,-5.407782271504402161e-03,-2.035466209053993225e-02,-1.712236180901527405e-02,9.473876096308231354e-03,2.297797948122024536e-01,4.586641862988471985e-02,-1.510076131671667099e-02,-1.469816174358129501e-02,1.923767291009426117e-02,3.995487466454505920e-03,2.320012450218200684e-02,1.537326443940401077e-02,3.645834326744079590e-01,1.587502598762512207e+00,7.767748832702636719e-01,1.205056831240653992e-01,1.015147566795349121e-02,4.203412681818008423e-03
9.828316047787666321e-03,4.568524956703186035e-01,3.610300421714782715e-01,1.939153224229812622e-01,2.629261836409568787e-02,-1.845723390579223633e-02,-9.813026525080204010e-03,3.524184226989746094e-02,1.044081300497055054e-01,-9.671335108578205109e-03,-3.598073124885559082e-02,-2.914318442344665527e-01,-1.121689304709434509e-01,2.024424076080322266e-02,7.367508113384246826e-02,-2.112696617841720581e-01,-6.482818722724914551e-01,-3.250120282173156738e-01,-2.214611172676086426e-01,-1.077346876263618469e-01,3.913547396659851074e-01,8.932100236415863037e-02,-5.821651592850685120e-02,1.067818030714988708e-01,2.056437879800796509e-01,3.017703294754028320e-01,3.554813563823699951e-02,1.452698707580566406e-01,6.999415159225463867e-02,-2.208940126001834869e-02,-6.348950862884521484e-01,-4.227876663208007812e-01,-2.076100558042526245e-01,2.865209430456161499e-02,5.032966658473014832e-02,1.226412504911422729e-02,-8.425693213939666748e-02,-1.399277895689010620e-01,7.684377580881118774e-02,1.062236800789833069e-01,2.613109350204467773e-01,2.185059040784835815e-01,-5.346433073282241821e-02,-7.056211680173873901e-02,2.305143177509307861e-01,8.133655190467834473e-01,3.820436894893646240e-01,1.696303039789199829e-01,9.293773770332336426e-02,-4.904192984104156494e-01,-1.174227744340896606e-01,2.533046714961528778e-02,-1.458738893270492554e-01,-2.397328913211822510e-01,-3.453575372695922852e-01,-6.496578454971313477e-02,-1.637500077486038208e-01,-1.175275221467018127e-01,-8.869076520204544067e-02,-9.729005396366119385e-03
-7.323808385990560055e-04,-3.095020353794097900e-02,-3.233841657638549805e-01,-1.788410842418670654e-01,-5.013547837734222412e-03,-8.301187772303819656e-04,-1.760650076903402805e-03,4.961543600074946880e-04,-1.498942971229553223e-01,-1.487181663513183594e+00,-7.402202486991882324e-01,-2.586876275017857552e-03,7.887451909482479095e-03,9.077466093003749847e-03,2.252847701311111450e-02,8.428007364273071289e-03,-1.511396467685699463e-02,-8.650989271700382233e-03,3.353380132466554642e-03,1.975878886878490448e-02,2.805550955235958099e-02,1.658176816999912262e-02,9.799813851714134216e-03,-5.347154103219509125e-03,1.200405880808830261e-02,1.675765216350555420e-02,5.185747053474187851e-03,-1.610792987048625946e-02,-1.209322083741426468e-02,-3.968254197388887405e-03,4.635917767882347107e-02,3.234434723854064941e-01,1.886277943849563599e-01,7.545877713710069656e-03,2.057894831523299217e-03,4.453585948795080185e-03,6.531035993248224258e-03,1.647419333457946777e-01,1.502053380012512207e+00,7.397410869598388672e-01,9.111344814300537109e-03,2.200795104727149010e-03,-1.765235513448715210e-02,-3.315373137593269348e-02,-1.317069400101900101e-02,1.561130583286285400e-02,4.658473655581474304e-03,-1.776498975232243538e-03,-2.665877714753150940e-02,-3.885182365775108337e-02,-2.543691731989383698e-02,-2.898729406297206879e-03,6.473641376942396164e-03,-1.760714873671531677e-02,-1.774848811328411102e-02,-7.239664439111948013e-03,2.511950396001338959e-02,1.060743816196918488e-02,1.956287072971463203e-03,-2.582595916464924812e-04
-6.107721850275993347e-02,-4.748853296041488647e-02,2.456070622429251671e-03,5.651713907718658447e-02,-5.390646681189537048e-02,-7.634376734495162964e-02,2.487574331462383270e-02,-7.324676215648651123e-02,-1.796108782291412354e-01,-8.784162998199462891e-02,8.927568793296813965e-02,5.640144348144531250e-01,4.280160740017890930e-02,-1.650810986757278442e-01,4.823508486151695251e-02,6.380194425582885742e-01,6.339157372713088989e-02,-9.654529392719268799e-02,-1.280713528394699097e-01,8.513835258781909943e-03,-8.323415368795394897e-02,9.142739325761795044e-02,-3.708229660987854004e-01,1.703826151788234711e-02,7.477736473083496094e-02,1.527213901281356812e-01,-4.984095320105552673e-02,-8.969084359705448151e-03,1.135446205735206604e-01,-4.653320610523223877e-01,-4.904574528336524963e-02,-3.859196975827217102e-02,1.076011583209037781e-01,-1.189331244677305222e-02,1.089593991637229919e-01,2.768497355282306671e-02,-2.778277397155761719e-01,-2.266474962234497070e-01,1.630999743938446045e-01,2.209160625934600830e-01,5.629616379737854004e-01,-2.859651148319244385e-01,-3.684447705745697021e-01,1.586994901299476624e-02,6.949205994606018066e-01,2.389964461326599121e-02,-1.530756801366806030e-01,-1.372480392456054688e-01,-2.960081025958061218e-02,-3.386973962187767029e-02,1.674596071243286133e-01,-4.128906428813934326e-01,1.180620584636926651e-02,1.618063151836395264e-01,-5.942407250404357910e-02,-1.112403720617294312e-02,6.385662406682968140e-02,5.857283622026443481e-02,-6.558294892311096191e-01,3.731382638216018677e-02
-3.036233829334378242e-03,-4.720977544784545898e-01,-3.450748026371002197e-01,-4.375495016574859619e-02,-6.231973320245742798e-02,3.410243988037109375e-02,5.808969214558601379e-02,6.356726586818695068e-02,-1.703388057649135590e-02,1.728551276028156281e-02,7.475633174180984497e-02,-3.633172065019607544e-02,3.328115493059158325e-02,1.479436457157135010e-01,1.362991183996200562e-01,-1.743492633104324341e-01,-6.250122189521789551e-01,-1.805632710456848145e-01,-5.100454390048980713e-02,-6.078577414155006409e-02,-2.081473171710968018e-01,-5.029531568288803101e-02,7.920642197132110596e-02,1.105021238327026367e-01,-1.593240499496459961e-01,-3.324086666107177734e-01,-2.078132145106792450e-02,1.929156333208084106e-01,1.565484702587127686e-01,6.319259107112884521e-02,6.672483086585998535e-01,4.513797760009765625e-01,5.457205697894096375e-02,1.303251236677169800e-01,-5.309239774942398071e-02,-7.035955786705017090e-02,-7.863561064004898071e-02,-1.018257252871990204e-02,-3.141498193144798279e-02,-4.694882780313491821e-02,5.081866309046745300e-02,2.744635753333568573e-02,-2.203991413116455078e-01,-8.983598649501800537e-02,2.940721809864044189e-01,7.884675860404968262e-01,1.325406134128570557e-01,3.458427265286445618e-02,1.295327842235565186e-01,2.466205656528472900e-01,6.660721451044082642e-02,-5.815376713871955872e-02,-1.518161445856094360e-01,2.962428927421569824e-01,4.327109456062316895e-01,-3.700909763574600220e-02,-2.634677588939666748e-01,-1.950571984052658081e-01,-3.139746561646461487e-02,-8.705897256731987000e-03
1.828115619719028473e-02,-1.841116845607757568e-01,-1.658989675343036652e-02,1.539739519357681274e-01,1.197090595960617065e-01,4.067245870828628540e-03,2.395584620535373688e-02,1.955539882183074951e-01,8.673181384801864624e-02,3.440996631979942322e-02,2.811849117279052734e-01,-3.152681142091751099e-02,2.396111339330673218e-01,6.073006391525268555e-01,4.106748700141906738e-01,-3.681746125221252441e-02,1.633910462260246277e-02,4.946878924965858459e-02,1.160623226314783096e-02,-6.952475756406784058e-02,-2.220515310764312744e-01,-1.723204702138900757e-01,-1.930557787418365479e-01,-1.952338814735412598e-01,-1.983754523098468781e-02,6.482199430465698242e-01,5.357875674962997437e-02,-6.621865928173065186e-02,-6.677243113517761230e-02,-3.119789995253086090e-02,3.070390522480010986e-01,4.397726431488990784e-02,-2.037128508090972900e-01,-1.511955857276916504e-01,6.510877609252929688e-02,-6.088665500283241272e-02,-2.677074372768402100e-01,-1.213260963559150696e-01,-1.209269016981124878e-01,-3.276082873344421387e-01,-4.196586459875106812e-02,-3.110835254192352295e-01,-8.662844896316528320e-01,-4.520968794822692871e-01,-3.775538876652717590e-02,3.060500137507915497e-02,-9.722968563437461853e-03,-5.928119644522666931e-02,1.893399804830551147e-01,2.787018716335296631e-01,1.925721615552902222e-01,2.121741771697998047e-01,3.302752375602722168e-01,2.905345335602760315e-02,-7.769923210144042969e-01,-1.358649879693984985e-02,1.528287827968597412e-01,1.329597830772399902e-01,-8.364924229681491852e-03,-1.895322836935520172e-02
6.576875690370798111e-03,2.978811040520668030e-02,4.486817494034767151e-02,4.701491072773933411e-02,1.787506043910980225e-03,9.571350179612636566e-03,-1.159069500863552094e-02,2.600512839853763580e-02,2.908123191446065903e-03,2.158676087856292725e-02,4.463323950767517090e-02,-6.110769510269165039e-01,5.759957060217857361e-02,3.199359402060508728e-02,7.641036808490753174e-02,2.424514479935169220e-02,-3.325658151879906654e-03,7.719917339272797108e-04,4.617946967482566833e-02,2.954858355224132538e-02,3.017105907201766968e-02,-1.040450017899274826e-02,-3.349081799387931824e-02,7.035710662603378296e-02,3.552720695734024048e-02,9.449490904808044434e-02,3.329026978462934494e-03,4.174223169684410095e-02,-5.302722454071044922e-01,-3.884042203426361084e-01,-7.889290340244770050e-03,1.906548626720905304e-02,2.108711935579776764e-02,2.177769877016544342e-02,6.605320423841476440e-02,7.350301742553710938e-02,-1.954911649227142334e-02,2.534453012049198151e-02,5.169195681810379028e-02,-1.860392093658447266e-02,-1.232803463935852051e+00,2.719325385987758636e-02,-4.524996876716613770e-02,-4.324071481823921204e-02,-2.638475783169269562e-02,7.507612556219100952e-02,-1.328761107288300991e-03,5.018746852874755859e-02,3.453526273369789124e-02,-1.285464037209749222e-02,-3.937946259975433350e-02,-5.185146629810333252e-02,-1.861424767412245274e-03,-1.221221406012773514e-03,-3.332497924566268921e-02,4.563805460929870605e-02,-6.143636628985404968e-02,-1.206331610679626465e+00,-1.023301362991333008e+00,2.025039168074727058e-03
-9.928925894200801849e-03,-3.181799128651618958e-02,-1.800408773124217987e-02,6.675947457551956177e-02,-8.047074079513549805e-03,-5.349174886941909790e-02,-3.553538396954536438e-02,-3.496429696679115295e-02,-5.394713580608367920e-02,-5.252681672573089600e-02,7.367826998233795166e-02,-2.252939343452453613e-01,-2.111959457397460938e-01,-1.473433524370193481e-01,1.678606122732162476e-02,2.375694513320922852e-01,1.088587287813425064e-02,-3.596588596701622009e-02,-6.119175255298614502e-02,-1.797304488718509674e-02,-5.035528540611267090e-02,-3.094137609004974365e-01,2.228136807680130005e-01,6.352056562900543213e-02,7.332487404346466064e-02,1.287461817264556885e-01,-6.091982498764991760e-02,4.103575192857533693e-04,-4.002355337142944336e-01,8.877181410789489746e-01,-1.727536693215370178e-02,7.284816820174455643e-03,1.257736831903457642e-01,-4.841199610382318497e-03,1.093564182519912720e-02,1.176091209053993225e-01,-1.170162484049797058e-01,-9.859845787286758423e-02,4.654322937130928040e-02,1.608012430369853973e-02,-1.481726914644241333e-01,-3.549444079399108887e-01,-2.634857594966888428e-01,-2.946149930357933044e-02,3.316457569599151611e-01,7.448690384626388550e-02,2.677660994231700897e-02,2.671429142355918884e-02,-3.512400761246681213e-02,-5.676472932100296021e-02,-9.906744211912155151e-02,2.971369326114654541e-01,-7.005677907727658749e-04,1.066692247986793518e-01,-8.375595510005950928e-02,4.853208363056182861e-02,-6.674985587596893311e-02,-3.190822899341583252e-01,9.976155757904052734e-01,-6.234598904848098755e-02
1.359893102198839188e-02,-2.345182448625564575e-01,-1.024845018982887268e-01,7.244182378053665161e-02,4.200671985745429993e-02,-4.622485488653182983e-03,-1.174600701779127121e-02,8.519937098026275635e-02,-1.028223261237144470e-01,-2.435068227350711823e-02,-4.834808781743049622e-02,-5.429610982537269592e-02,-8.181140571832656860e-02,-4.098894298076629639e-01,-9.920587539672851562e-01,-1.883996576070785522e-01,-1.035339236259460449e-01,-3.932514810003340244e-04,8.793662488460540771e-02,1.785808205604553223e-01,8.779851719737052917e-03,-1.134824156761169434e-01,-2.800696492195129395e-01,-9.401949644088745117e-01,-2.326709628105163574e-01,1.289643347263336182e-01,2.177880890667438507e-02,-2.531392499804496765e-02,-4.113884270191192627e-02,-3.539858758449554443e-02,2.871976792812347412e-01,9.393619745969772339e-02,-1.301039755344390869e-01,-5.033141747117042542e-02,2.849171496927738190e-02,2.633790718391537666e-03,-4.934869706630706787e-02,1.425069272518157959e-01,7.339247316122055054e-02,2.915997058153152466e-02,1.201130747795104980e-01,2.030397802591323853e-01,5.666867494583129883e-01,1.052041411399841309e+00,3.275730907917022705e-01,1.586770564317703247e-01,3.722930699586868286e-02,-4.620941355824470520e-02,-1.968391388654708862e-01,-9.956472553312778473e-03,1.706683784723281860e-01,4.480637609958648682e-01,1.052201509475708008e+00,2.689606845378875732e-01,-2.129328250885009766e-01,5.448404233902692795e-03,1.633697003126144409e-02,4.431196302175521851e-02,8.639518171548843384e-02,2.441340126097202301e-02
-2.874088287353515625e-02,-6.880009174346923828e-02,-1.031679380685091019e-02,2.170287631452083588e-02,-2.588069997727870941e-02,-3.143893927335739136e-02,-3.897550515830516815e-03,-5.194568075239658356e-03,-4.924558848142623901e-02,-4.024977236986160278e-02,1.694402541033923626e-03,3.841267665848135948e-03,9.091545343399047852e-01,9.014058858156204224e-03,4.406576976180076599e-02,-2.085462212562561035e-01,-7.347150892019271851e-02,-4.827063065022230148e-03,2.513218671083450317e-02,-3.188187628984451294e-02,-5.754993110895156860e-02,7.364452816545963287e-03,4.398174956440925598e-02,6.571080069988965988e-03,-1.368439383804798126e-02,5.044246092438697815e-02,-3.206640854477882385e-02,4.559508990496397018e-03,-1.838172413408756256e-02,9.462181478738784790e-02,3.684601932764053345e-02,-3.836784884333610535e-02,7.769029121845960617e-03,-1.851493492722511292e-02,3.698021173477172852e-02,-2.266176044940948486e-02,-1.315779089927673340e-01,-3.729945793747901917e-02,-2.358647249639034271e-02,-6.679979152977466583e-03,2.088911533355712891e-01,8.749181032180786133e-01,-1.673439443111419678e-01,-1.585236042737960815e-01,-1.747501939535140991e-01,1.626857556402683258e-02,6.654962152242660522e-02,5.040976032614707947e-02,-3.746271505951881409e-02,4.148254171013832092e-03,1.016781181097030640e-01,9.799317270517349243e-02,-4.580085724592208862e-02,4.037073254585266113e-02,-8.970688283443450928e-02,-1.010609604418277740e-02,-2.595989592373371124e-02,7.311487104743719101e-03,9.528638422489166260e-02,-1.882628351449966431e-02
-1.459846040233969688e-03,8.160068537108600140e-04,4.109847825020551682e-03,1.542041194625198841e-03,-6.019350141286849976e-03,3.448282135650515556e-03,-1.847552776336669922e+00,-9.204122424125671387e-01,-2.210577130317687988e-01,-1.945112016983330250e-03,-2.767105121165513992e-03,-5.741736385971307755e-03,-1.128357835114002228e-03,-1.971069723367691040e-03,5.170227494090795517e-03,4.410736146382987499e-04,2.802646486088633537e-04,-1.857602037489414215e-02,-9.765762090682983398e-02,-1.326124765910208225e-03,-5.490960553288459778e-02,6.892368546687066555e-04,2.104168524965643883e-03,-7.841497659683227539e-03,-4.703340530395507812e-01,1.431820681318640709e-03,1.936729648150503635e-03,8.801090734777972102e-05,-1.550276996567845345e-03,-2.244504401460289955e-03,-3.234815783798694611e-03,1.082989620044827461e-03,-6.267338525503873825e-03,5.117320921272039413e-03,1.806095940992236137e-03,1.849584460258483887e+00,9.265017509460449219e-01,2.223271876573562622e-01,-2.625662833452224731e-03,1.373951788991689682e-03,6.136085838079452515e-03,-3.454615129157900810e-03,-3.581485943868756294e-04,-1.026843115687370300e-02,-1.267303887289017439e-04,1.021207892335951328e-03,1.886417157948017120e-02,9.972938150167465210e-02,-1.050420221872627735e-03,5.512287840247154236e-02,1.039426960051059723e-02,-1.273126574233174324e-03,9.284948930144309998e-03,4.645558595657348633e-01,8.793794550001621246e-04,-1.421198714524507523e-03,-1.478598453104496002e-03,-2.015532692894339561e-03,9.277101489715278149e-04,-7.287878543138504028e-04
5.834560375660657883e-03,3.065943904221057892e-02,-1.423347294330596924e-01,-1.004270792007446289e+00,-2.917481586337089539e-03,2.498636208474636078e-02,-1.128195971250534058e-02,-9.432705701328814030e-04,1.117059364914894104e-01,2.887535095214843750e-02,3.949687629938125610e-02,-1.120214723050594330e-02,-4.511582478880882263e-02,-3.269862234592437744e-01,-1.051791291683912277e-02,-1.689601689577102661e-03,-6.405190378427505493e-02,-1.505503710359334946e-02,-1.038025394082069397e-01,-7.072260230779647827e-02,-2.843811511993408203e-01,-7.175505161285400391e-01,5.126774683594703674e-02,1.082873493432998657e-01,8.382090926170349121e-02,1.028969585895538330e-01,1.614239439368247986e-02,-6.273611634969711304e-02,-2.828972786664962769e-02,-2.720083575695753098e-03,-6.093535199761390686e-02,1.957121938467025757e-01,1.033040165901184082e+00,2.473229309543967247e-03,-1.132370065897703171e-02,2.512173354625701904e-02,1.308017782866954803e-02,-1.191741749644279480e-01,-2.920045517385005951e-02,-3.431501984596252441e-02,3.282229229807853699e-02,8.283553272485733032e-02,3.790152370929718018e-01,3.111243993043899536e-02,2.551485551521182060e-03,8.371874690055847168e-02,2.704391628503799438e-02,1.467352062463760376e-01,1.341655403375625610e-01,3.323249816894531250e-01,7.323513031005859375e-01,-4.656365513801574707e-02,-1.574047952890396118e-01,-1.029175743460655212e-01,-1.563743650913238525e-01,-6.757003255188465118e-03,7.652623951435089111e-02,3.482016175985336304e-02,-1.420851517468690872e-02,6.202081218361854553e-03
1.729761948809027672e-03,5.983152240514755249e-02,1.263536661863327026e-01,9.287054836750030518e-02,2.758942358195781708e-02,2.400941029191017151e-02,5.438936129212379456e-02,7.478874921798706055e-02,1.011659950017929077e-01,8.299436420202255249e-02,8.431845903396606445e-02,-6.332797557115554810e-02,4.245917871594429016e-02,1.502225399017333984e-01,1.835859566926956177e-01,-4.975892007350921631e-01,-5.080785974860191345e-02,-4.440540373325347900e-01,-7.710689306259155273e-01,-8.418093621730804443e-02,1.025951057672500610e-01,1.297309398651123047e-01,-1.932340115308761597e-01,1.213172301650047302e-01,9.296409040689468384e-02,1.325429975986480713e-01,7.242576032876968384e-02,9.005655348300933838e-02,8.623666130006313324e-03,2.772831618785858154e-01,2.145345322787761688e-02,2.353225275874137878e-02,-2.023882605135440826e-02,7.403939962387084961e-02,6.113836914300918579e-02,-9.598619071766734123e-04,-2.736595831811428070e-02,-3.461132524535059929e-03,8.010452985763549805e-02,-3.325113654136657715e-02,-6.754447519779205322e-02,-1.305410563945770264e-01,-4.602923989295959473e-02,-1.736230552196502686e-01,-8.992294669151306152e-01,9.950190782546997070e-02,-1.768761992454528809e+00,-1.411061763763427734e+00,1.138447597622871399e-01,6.929901987314224243e-02,-1.775652542710304260e-02,-4.826771914958953857e-01,-6.510149687528610229e-02,1.152487099170684814e-02,-1.055700611323118210e-02,6.573491543531417847e-02,1.758620329201221466e-02,-9.680367261171340942e-02,7.060489803552627563e-02,-1.263039535842835903e-03
-2.632892504334449768e-02,-6.024296954274177551e-02,-2.883425541222095490e-02,-3.974773362278938293e-02,-4.082651808857917786e-02,-2.866839431226253510e-02,-2.449380420148372650e-02,-4.377932101488113403e-02,-8.148716390132904053e-02,-1.050030514597892761e-01,-1.306030200794339180e-03,1.177315860986709595e-01,-3.403059840202331543e-01,-8.393494784832000732e-02,4.782318323850631714e-02,-3.561979234218597412e-01,-7.777822017669677734e-02,-4.558159410953521729e-02,-3.553461283445358276e-02,-4.113547131419181824e-02,-4.064701870083808899e-02,3.470740020275115967e-01,8.217225670814514160e-01,7.700572162866592407e-02,1.534475665539503098e-02,1.205023657530546188e-02,-8.406011015176773071e-02,1.837241230532526970e-03,4.239036142826080322e-02,-2.067491859197616577e-01,-1.719921478070318699e-03,-6.092992145568132401e-03,1.857333071529865265e-02,8.964661508798599243e-03,3.375896438956260681e-02,2.206264808773994446e-02,-1.180639117956161499e-01,-3.671425953507423401e-02,1.064085662364959717e-01,5.664162710309028625e-02,9.297608584165573120e-02,-5.500731468200683594e-01,-1.713377386331558228e-01,-1.369104534387588501e-01,-4.011055231094360352e-01,2.793679386377334595e-02,3.520873934030532837e-02,1.048138551414012909e-02,-3.078550845384597778e-02,1.419434417039155960e-02,6.309086680412292480e-01,8.194581866264343262e-01,-1.082260683178901672e-01,5.381019413471221924e-02,-3.430751711130142212e-02,1.131921112537384033e-01,2.219759300351142883e-02,-5.435549095273017883e-02,-2.813159525394439697e-01,-9.942005388438701630e-03
8.374242112040519714e-03,9.928005747497081757e-03,-6.189574021846055984e-03,4.777679592370986938e-02,1.947573851794004440e-03,-3.402381762862205505e-02,-3.771754447370767593e-03,2.134378813207149506e-02,-8.012440055608749390e-02,-5.713647976517677307e-02,5.601455271244049072e-02,5.474403500556945801e-02,-2.930685877799987793e-01,-1.540993154048919678e-02,1.040540039539337158e-01,-7.753337025642395020e-01,-3.205768764019012451e-02,1.603192538022994995e-01,3.347867429256439209e-01,5.095273256301879883e-02,1.889469847083091736e-02,1.190741583704948425e-01,-6.360878944396972656e-01,3.087605722248554230e-02,2.298985607922077179e-02,1.507626473903656006e-01,-3.064472926780581474e-03,2.887336164712905884e-02,3.114421479403972626e-02,1.915472447872161865e-01,4.362013563513755798e-02,2.089611627161502838e-02,2.077876962721347809e-02,3.198348358273506165e-02,1.525777727365493774e-01,8.556041121482849121e-02,-1.342097967863082886e-01,-9.234140068292617798e-02,1.444419622421264648e-01,4.856335744261741638e-02,1.155278645455837250e-02,-5.516088008880615234e-01,-1.432479768991470337e-01,-1.647993177175521851e-01,-1.132233977317810059e+00,1.062752231955528259e-01,3.797267675399780273e-01,3.811234235763549805e-01,1.336782798171043396e-02,4.778092727065086365e-02,2.051365002989768982e-02,-9.493085145950317383e-01,5.118963122367858887e-02,5.876123905181884766e-02,-8.252149820327758789e-02,6.307187676429748535e-02,4.136282578110694885e-02,1.261279918253421783e-02,6.031001359224319458e-02,-2.130240388214588165e-02
