-4.618242681026458740e-01,7.439618110656738281e-01,-5.768811106681823730e-01,-7.260990142822265625e-01,-5.507291555404663086e-01,8.016895651817321777e-01,1.981202006340026855e+00,-9.155040383338928223e-01,8.615349531173706055e-01,-8.935184478759765625e-01,-3.892380297183990479e-01,-9.155274629592895508e-01,1.508003175258636475e-01,-5.677593350410461426e-01,2.613205909729003906e+00,6.727560758590698242e-01,8.303889632225036621e-01,1.273916363716125488e+00,-4.568309485912322998e-01,-9.737328290939331055e-01,3.815990984439849854e-01,-5.352386236190795898e-01,-4.565854072570800781e-01,-6.455837488174438477e-01,2.318717956542968750e+00,-5.841712355613708496e-01,-6.289414763450622559e-01,1.266941905021667480e+00,-1.380532503128051758e+00,3.400846123695373535e-01,-6.200700402259826660e-01,-7.568677067756652832e-01,1.375629305839538574e+00,5.992230772972106934e-01,-6.045660376548767090e-01,-4.564055502414703369e-01,-9.093436002731323242e-01,-5.826855301856994629e-01,6.274906992912292480e-01,-6.748493313789367676e-01
