-3.021962381899356842e-02,4.627691209316253662e-02,-2.123089134693145752e-01,-9.974890947341918945e-02,-2.011587768793106079e-01,-2.227449417114257812e-01,1.743056178092956543e-01,-2.062603384256362915e-01,6.123912930488586426e-01,-1.696537584066390991e-01,3.296000361442565918e-01,-9.712225943803787231e-02,3.736861795186996460e-02,1.257581412792205811e-01,-4.193072766065597534e-02,-4.640831798315048218e-02,-6.164472699165344238e-01,-6.421612948179244995e-02,-1.763712465763092041e-01,-6.565315276384353638e-02
-5.365225300192832947e-02,-7.169231772422790527e-01,5.057367682456970215e-02,-6.369099766016006470e-02,9.934337437152862549e-02,4.967333674430847168e-01,-4.326835870742797852e-01,1.980720116989687085e-04,2.962168864905834198e-02,-4.331089854240417480e-01,-1.367919445037841797e-01,3.859530389308929443e-01,-1.176235526800155640e-01,9.640048444271087646e-02,-5.454975739121437073e-02,4.717946052551269531e-01,4.576160386204719543e-02,-2.934397161006927490e-01,-1.860431730747222900e-01,-4.505427479743957520e-01
-1.958080381155014038e-01,-2.032466679811477661e-01,-2.892979383468627930e-01,-1.129103228449821472e-01,-3.390723466873168945e-02,1.632981747388839722e-01,2.499683946371078491e-01,1.009068712592124939e-01,1.296795904636383057e-01,4.153429865837097168e-01,2.029514163732528687e-01,-1.981692761182785034e-01,-8.594376593828201294e-02,-1.223939806222915649e-01,-7.824095338582992554e-02,-3.160104155540466309e-02,3.071186542510986328e-01,1.778949648141860962e-01,1.022290065884590149e-01,1.631279736757278442e-01
-2.434906512498855591e-01,-9.514215588569641113e-02,-9.610662609338760376e-02,2.470719516277313232e-01,1.393824666738510132e-01,-1.508457213640213013e-01,-2.760840952396392822e-01,-3.128789067268371582e-01,-9.178663603961467743e-03,-2.291402071714401245e-01,-2.878759503364562988e-01,-4.049219191074371338e-01,-4.441417753696441650e-02,-4.037061333656311035e-02,1.648605465888977051e-01,9.401104599237442017e-02,-5.460132285952568054e-02,-5.319901108741760254e-01,-1.964249014854431152e-01,4.420431256294250488e-01
-7.860885560512542725e-02,3.585544601082801819e-02,2.317709326744079590e-01,3.352419286966323853e-02,2.415738999843597412e-03,1.988204419612884521e-01,5.494958162307739258e-01,6.336478888988494873e-02,2.521479129791259766e-01,-1.807810515165328979e-01,-3.163755405694246292e-03,2.363663315773010254e-01,-2.134813815355300903e-01,-4.455966651439666748e-01,-1.614262461662292480e-01,2.108146846294403076e-01,-3.583733737468719482e-02,3.169123530387878418e-01,2.204832285642623901e-01,1.227206513285636902e-01
3.562514781951904297e-01,-1.066126674413681030e-01,4.652127623558044434e-02,1.963991858065128326e-02,3.301477804780006409e-02,-7.849945127964019775e-02,1.658141762018203735e-01,-1.097634658217430115e-01,-1.975090242922306061e-02,2.294955030083656311e-02,-1.582701951265335083e-01,2.256841808557510376e-01,2.520122937858104706e-02,-1.594375818967819214e-01,-1.209515556693077087e-01,-3.566230833530426025e-01,-2.921315468847751617e-02,-2.000232785940170288e-01,-8.602681756019592285e-02,7.485939562320709229e-02
1.245962381362915039e-01,8.274700492620468140e-02,-2.077709436416625977e-01,1.679441928863525391e-01,2.426479160785675049e-01,-3.357646465301513672e-01,4.510456025600433350e-01,1.499381810426712036e-01,-9.246931970119476318e-02,-1.709709763526916504e-01,2.630316019058227539e-01,-1.450744457542896271e-02,8.299192786216735840e-02,5.106565952301025391e-01,-1.023863032460212708e-01,5.481904745101928711e-02,1.738746613264083862e-01,6.017519235610961914e-01,2.759289145469665527e-01,1.133078187704086304e-01
1.248696893453598022e-01,-3.196118772029876709e-01,5.995022505521774292e-02,6.400131434202194214e-02,-2.855130434036254883e-01,4.134177267551422119e-01,-1.570627465844154358e-02,-2.609579861164093018e-01,5.846055150032043457e-01,1.413799524307250977e-01,4.715194106101989746e-01,1.033370867371559143e-01,-3.921499550342559814e-01,-1.420026421546936035e-01,1.035542190074920654e-01,2.451116740703582764e-01,-1.240068823099136353e-01,-1.895368397235870361e-01,5.547334998846054077e-02,-3.505121767520904541e-01
3.089353442192077637e-01,-1.399958282709121704e-01,1.820466071367263794e-01,-2.695672512054443359e-01,3.730746507644653320e-01,-1.220532432198524475e-01,1.589415222406387329e-01,-8.865229785442352295e-02,-1.360531449317932129e-01,-8.968997746706008911e-02,6.603809446096420288e-02,1.333243492990732193e-02,3.574830591678619385e-01,2.125109173357486725e-02,-1.450548619031906128e-01,1.723298430442810059e-02,4.525215923786163330e-01,1.659103929996490479e-01,-1.327044665813446045e-01,2.466102875769138336e-02
3.245474770665168762e-02,-1.625539064407348633e-01,7.407376170158386230e-02,8.900286257266998291e-02,2.654343545436859131e-01,-4.758173525333404541e-01,-4.177640080451965332e-01,9.683381021022796631e-02,-3.842404782772064209e-01,-1.658302396535873413e-01,3.967974334955215454e-02,2.083384692668914795e-01,1.833082139492034912e-01,1.308562904596328735e-01,-4.851501062512397766e-02,-1.896303892135620117e-01,-5.227805580943822861e-03,1.199344396591186523e-01,3.371836543083190918e-01,4.308154284954071045e-01
2.107876539230346680e-01,2.680485844612121582e-01,-3.752397298812866211e-01,-4.463049173355102539e-01,3.051716685295104980e-01,-1.056881546974182129e-01,-2.053617686033248901e-01,-2.799652516841888428e-01,1.982684060931205750e-02,-7.348188757896423340e-02,-2.395701780915260315e-02,2.456953227519989014e-01,1.186453178524971008e-02,-1.986391246318817139e-01,-8.243311941623687744e-02,-9.293469786643981934e-02,-1.323651969432830811e-01,-3.095199763774871826e-01,-1.089536249637603760e-01,-4.011676833033561707e-02
2.420768290758132935e-01,2.763848900794982910e-01,-1.012331694364547729e-01,-4.600323140621185303e-01,5.624606609344482422e-01,-3.618320226669311523e-01,-1.083133518695831299e-01,-1.100919246673583984e-01,-3.558512032032012939e-01,-2.633082568645477295e-01,4.103897511959075928e-01,4.055051878094673157e-02,-3.670083582401275635e-01,-1.004095077514648438e-01,7.877499610185623169e-02,1.034026294946670532e-01,1.844665259122848511e-01,5.572291463613510132e-02,-2.559032440185546875e-01,-6.006641779094934464e-03
1.818225681781768799e-01,-3.581262826919555664e-01,6.360351443290710449e-01,2.591996788978576660e-01,-2.997902929782867432e-01,2.312036603689193726e-01,2.355652004480361938e-01,-8.541340380907058716e-02,-1.077583152800798416e-02,-5.653702467679977417e-02,1.451258510351181030e-01,1.444718539714813232e-01,-1.509186774492263794e-01,9.580533951520919800e-02,-2.379755973815917969e-01,-4.174250736832618713e-02,-4.625325277447700500e-02,-2.026044204831123352e-02,-1.260970383882522583e-01,-2.596661150455474854e-01
-4.141247645020484924e-02,4.101611673831939697e-01,-6.111176684498786926e-02,4.664343595504760742e-02,2.512957155704498291e-01,1.556409299373626709e-01,-9.510753303766250610e-02,-4.911360330879688263e-03,-1.878424286842346191e-01,-1.302403956651687622e-01,-4.838984832167625427e-02,1.850623451173305511e-02,1.251285523176193237e-01,-2.953192293643951416e-01,-1.843642443418502808e-01,-1.541364341974258423e-01,-3.050557374954223633e-01,3.891699016094207764e-01,3.216535449028015137e-01,-7.404771447181701660e-02
2.787839174270629883e-01,4.585367143154144287e-01,-2.087603509426116943e-01,-7.318388819694519043e-01,-2.906081974506378174e-01,-2.660980522632598877e-01,1.504332423210144043e-01,-1.579509675502777100e-02,-3.353415429592132568e-01,-3.180256485939025879e-01,4.256209135055541992e-01,-4.478254541754722595e-02,-2.032187134027481079e-01,-6.577683240175247192e-02,1.651583760976791382e-01,5.668086931109428406e-02,-4.917399585247039795e-02,2.807119190692901611e-01,-1.356563866138458252e-01,-1.277430802583694458e-01
1.928675770759582520e-01,-5.815039873123168945e-01,2.754903137683868408e-01,-1.893817484378814697e-01,-3.481831252574920654e-01,4.063804447650909424e-01,3.661237284541130066e-02,2.411284595727920532e-01,1.559074372053146362e-01,8.111123740673065186e-02,3.214905560016632080e-01,3.936155140399932861e-01,-1.664691790938377380e-02,-3.464918956160545349e-02,6.044533848762512207e-02,4.432050585746765137e-01,1.523491144180297852e-01,-3.681788221001625061e-02,-2.657489776611328125e-01,-4.452634453773498535e-01
-6.206826865673065186e-02,1.191948428750038147e-01,-2.532325983047485352e-01,-4.043572545051574707e-01,1.618918180465698242e-01,-1.765336692333221436e-01,8.638348430395126343e-02,1.043940335512161255e-01,1.606660932302474976e-01,-4.047281444072723389e-01,3.521848022937774658e-01,1.528626587241888046e-02,2.896319031715393066e-01,4.483552873134613037e-01,-1.334858089685440063e-01,4.488549232482910156e-01,-4.330133497714996338e-01,3.211807012557983398e-01,2.735686302185058594e-01,2.793042957782745361e-01
8.972090482711791992e-02,7.398785352706909180e-01,-8.652359992265701294e-02,1.947765052318572998e-02,2.062576413154602051e-01,2.053084969520568848e-01,-6.291753798723220825e-02,-3.180266022682189941e-01,4.110557958483695984e-02,-1.908974349498748779e-02,-3.779531121253967285e-01,9.653972089290618896e-02,-7.728023827075958252e-02,8.305290341377258301e-02,-3.975439965724945068e-01,-5.412290096282958984e-01,-1.378377676010131836e-01,3.130879402160644531e-01,-3.768079280853271484e-01,1.479534059762954712e-01
-2.981686890125274658e-01,-4.258454218506813049e-02,-3.416109383106231689e-01,4.204534739255905151e-02,-6.038205698132514954e-02,-4.670093208551406860e-02,2.146473377943038940e-01,1.936166286468505859e-01,3.249277472496032715e-01,9.970329701900482178e-02,-3.080074787139892578e-01,1.896521449089050293e-01,3.184613585472106934e-01,-2.380773872137069702e-01,5.860592052340507507e-02,4.534878209233283997e-02,2.643381357192993164e-01,1.843306720256805420e-01,-1.336449235677719116e-01,-2.331491559743881226e-01
6.841792166233062744e-02,-4.070138633251190186e-01,-6.024571061134338379e-01,-5.887265875935554504e-02,3.233101069927215576e-01,-2.857367740944027901e-03,1.433846950531005859e-01,-2.673481404781341553e-02,-1.798222512006759644e-01,3.224382549524307251e-02,-2.202688008546829224e-01,-5.239045992493629456e-02,5.569825693964958191e-02,-4.488357603549957275e-01,6.035258993506431580e-02,3.300948739051818848e-01,5.314068794250488281e-01,1.537832617759704590e-01,-1.413251459598541260e-01,-1.129423156380653381e-01
