1.006922721862792969e-01,2.299329452216625214e-02,5.101148039102554321e-02,9.854500740766525269e-02,-1.153607517480850220e-01,1.727009564638137817e-02,1.092252135276794434e-01,4.104929044842720032e-02,1.851040869951248169e-02,4.575005173683166504e-02,4.929545335471630096e-03,-2.667234838008880615e-02,3.515660529956221581e-03,1.546792103908956051e-03,1.394705031998455524e-04,-1.577424816787242889e-02,9.795786812901496887e-03,-4.593009501695632935e-02,1.619835756719112396e-02,-6.135259754955768585e-03,-2.161519415676593781e-02,-6.107823178172111511e-02,1.081205904483795166e-02,-7.026591151952743530e-02,1.241818666458129883e-01,5.399541184306144714e-02,5.248866602778434753e-02,-7.134453207254409790e-02,-1.826778240501880646e-02,-5.117123480886220932e-03,-6.236534100025892258e-03,2.462287805974483490e-02,6.464438140392303467e-02,4.462101031094789505e-03,-6.842895597219467163e-02,-1.442468026652932167e-03,8.629830181598663330e-02,1.631921157240867615e-02,-2.361032925546169281e-02,6.473343819379806519e-02,2.800555527210235596e-02,7.613255828619003296e-02,-7.085070759057998657e-02,-3.495201095938682556e-02,-2.000608853995800018e-02,-6.940902676433324814e-03,6.161716207861900330e-02,-4.726368933916091919e-02,-5.002736579626798630e-03,-3.271624445915222168e-02,4.692140594124794006e-02,5.395938642323017120e-03,5.850816518068313599e-02,2.228510938584804535e-02,3.625790029764175415e-02,-2.714635990560054779e-02,2.983837760984897614e-02,8.121999353170394897e-02,-5.849514529109001160e-02,-3.506250679492950439e-02,-5.689896270632743835e-02,3.936413675546646118e-02,3.434021025896072388e-02,2.977177500724792480e-02,2.385506231803447008e-04,-4.478786140680313110e-02,1.410170225426554680e-04,-1.848092675209045410e-02,-6.104033067822456360e-02,-1.354735940694808960e-01,-9.127887897193431854e-03,-8.496212959289550781e-02,9.715135395526885986e-02,1.118989512324333191e-01,-1.961165480315685272e-02,7.398995012044906616e-02,-2.116659888997673988e-03,-8.040507882833480835e-02,2.192613855004310608e-02,-3.501879051327705383e-02,-1.300062704831361771e-02,-6.419206410646438599e-02,6.220573186874389648e-02,-5.404908675700426102e-03,1.657745055854320526e-02,-5.151773616671562195e-02,4.101158306002616882e-02,4.133044555783271790e-02,-1.154939644038677216e-02,-1.575971394777297974e-02,-1.223980681970715523e-03,5.585085134953260422e-03,-2.902472577989101410e-02,-2.379104308784008026e-02,4.508581012487411499e-02,-2.775270305573940277e-02,8.648004382848739624e-02,1.463578362017869949e-02,2.160505764186382294e-02,4.132753238081932068e-02
5.049662664532661438e-02,3.854037821292877197e-02,-2.546129003167152405e-02,4.274462163448333740e-02,7.978070527315139771e-02,6.768339313566684723e-03,-7.426360249519348145e-02,-2.001026645302772522e-02,1.188804879784584045e-01,6.756642251275479794e-04,1.609322056174278259e-02,5.438107997179031372e-02,-7.416816800832748413e-02,5.831059813499450684e-02,-4.759962484240531921e-02,-4.155893623828887939e-02,2.051663212478160858e-02,-8.122261613607406616e-02,2.063306979835033417e-02,-2.208537980914115906e-02,6.347011774778366089e-02,-4.346391931176185608e-02,4.064891859889030457e-02,5.219259858131408691e-02,1.807636208832263947e-02,5.716238170862197876e-02,6.174785643815994263e-02,-3.536024317145347595e-02,-4.617884010076522827e-02,1.260433066636323929e-02,-1.843391801230609417e-03,5.694710835814476013e-02,5.214772373437881470e-02,-4.447488114237785339e-02,2.713548578321933746e-02,1.250643189996480942e-02,-3.303830698132514954e-02,-2.277204208076000214e-02,9.714653715491294861e-03,-2.317316643893718719e-02,-6.904743146151304245e-03,-3.151552751660346985e-02,-6.202524900436401367e-02,2.413930185139179230e-02,-3.380298241972923279e-02,1.933681406080722809e-02,-4.232760518789291382e-02,9.314106777310371399e-03,-1.031707748770713806e-01,3.631918132305145264e-02,8.934244513511657715e-02,-1.160132661461830139e-01,-3.175649046897888184e-02,-3.439252451062202454e-02,4.501963406801223755e-02,-6.856808066368103027e-02,-2.387668006122112274e-02,7.902226643636822701e-04,9.723248891532421112e-03,-1.010681018233299255e-01,-9.950315952301025391e-02,5.567450076341629028e-02,2.867056801915168762e-02,6.660957634449005127e-02,3.391379490494728088e-02,3.338360413908958435e-02,7.005172222852706909e-02,3.061360120773315430e-02,6.966044008731842041e-02,-7.092554867267608643e-02,-6.089501455426216125e-02,3.263471275568008423e-02,-5.719444155693054199e-02,4.902502056211233139e-03,3.568724170327186584e-02,2.308151498436927795e-02,-1.051654946058988571e-02,-3.602514788508415222e-02,-1.094717415980994701e-03,4.130257293581962585e-02,1.159571632742881775e-01,2.793451957404613495e-02,7.475474476814270020e-02,-3.421052172780036926e-02,5.832478031516075134e-02,-2.966923825442790985e-02,4.473624750971794128e-02,-4.710282757878303528e-02,1.859143935143947601e-02,7.466820534318685532e-03,1.331985592842102051e-01,-1.377874612808227539e-02,-4.661396890878677368e-02,3.343774005770683289e-02,5.170437693595886230e-02,-2.982022240757942200e-02,4.953897371888160706e-02,1.468757241964340210e-01,-6.168400123715400696e-02,1.762836985290050507e-02
3.406901611015200615e-03,4.724041372537612915e-02,-2.892994694411754608e-02,1.239027641713619232e-02,4.703968390822410583e-02,-6.352186948060989380e-02,3.584358841180801392e-02,-5.546890571713447571e-02,-5.409301444888114929e-02,-6.087307259440422058e-02,-1.817011460661888123e-02,-1.312752533704042435e-02,5.531297251582145691e-02,3.161670267581939697e-02,3.838423639535903931e-02,-1.958942599594593048e-02,-2.051691524684429169e-02,-2.455317787826061249e-02,5.654792115092277527e-02,9.752626530826091766e-03,5.110511928796768188e-02,3.303616866469383240e-02,-1.916405372321605682e-02,-3.760373964905738831e-02,-1.165373921394348145e-01,-8.271021395921707153e-02,8.238199166953563690e-03,-5.665737017989158630e-02,5.467705801129341125e-02,-8.235093951225280762e-02,4.216191917657852173e-02,-9.957771748304367065e-03,6.607718765735626221e-02,9.716085344552993774e-02,1.511159585788846016e-03,-1.716106012463569641e-02,7.132576406002044678e-02,5.955962464213371277e-02,-2.568610012531280518e-02,-6.001656875014305115e-02,-7.664256542921066284e-02,-1.502659637480974197e-02,-6.691601872444152832e-02,-6.914089620113372803e-02,2.959343791007995605e-02,6.348099559545516968e-02,7.832685485482215881e-03,-5.486201029270887375e-03,-6.512197200208902359e-03,-2.937514893710613251e-02,1.365698315203189850e-02,-6.447069346904754639e-02,2.819885127246379852e-02,-7.861048914492130280e-03,-2.895015291869640350e-02,1.182400807738304138e-01,-3.728231415152549744e-02,3.193459287285804749e-02,-9.552507661283016205e-03,-8.522333577275276184e-03,9.976509958505630493e-03,7.084121555089950562e-02,1.596275530755519867e-02,5.765258148312568665e-02,-2.652524411678314209e-02,5.214148759841918945e-02,-2.933082915842533112e-02,-3.576898947358131409e-02,5.590322613716125488e-02,-1.287677208893001080e-03,-2.072961442172527313e-02,1.898532174527645111e-02,5.600759387016296387e-02,-7.523433119058609009e-02,8.153679221868515015e-02,1.512397546321153641e-02,1.549297571182250977e-02,1.817600987851619720e-02,1.902434043586254120e-02,-3.616502881050109863e-02,-1.966539770364761353e-02,-6.279099732637405396e-02,5.969597958028316498e-03,1.527784299105405807e-02,1.302140858024358749e-02,1.266708225011825562e-01,-8.777164667844772339e-02,4.337793588638305664e-02,-1.252665650099515915e-02,-2.512198686599731445e-02,1.144080143421888351e-02,-1.026037521660327911e-02,1.003970485180616379e-02,-7.567765656858682632e-03,-4.181213304400444031e-02,3.622399643063545227e-02,-1.301291026175022125e-02,-1.086331810802221298e-02,3.363347426056861877e-02,1.401459611952304840e-02
5.911930277943611145e-02,3.828025981783866882e-02,4.567359015345573425e-02,-1.057019017025595531e-05,-1.098225340247154236e-01,6.816645711660385132e-02,1.625418104231357574e-02,1.333080977201461792e-01,1.054923087358474731e-01,-8.949385955929756165e-03,2.894788980484008789e-02,-5.216292291879653931e-02,3.335964679718017578e-02,-6.430201977491378784e-02,3.962463513016700745e-02,-2.731539681553840637e-02,-1.900173811009153724e-04,-2.636781334877014160e-02,1.005012989044189453e-01,-6.734006851911544800e-02,7.230890542268753052e-02,-3.977857530117034912e-02,-2.212939225137233734e-02,1.147258058190345764e-01,-6.438242644071578979e-02,1.129728835076093674e-02,3.471432998776435852e-02,-5.433784052729606628e-02,-5.012407898902893066e-02,-2.864637970924377441e-02,9.020104259252548218e-02,3.112529590725898743e-02,7.517967373132705688e-02,-1.730115152895450592e-02,-9.678392112255096436e-02,3.353526070713996887e-02,2.476741187274456024e-02,-5.947054363787174225e-03,-8.757768571376800537e-02,6.866719108074903488e-03,1.890819706022739410e-02,4.351668432354927063e-02,3.518861532211303711e-02,1.321309339255094528e-02,4.024401307106018066e-02,-6.994010508060455322e-02,2.104096859693527222e-02,7.397758215665817261e-02,5.912171676754951477e-03,-1.946588791906833649e-02,-2.694314718246459961e-02,-3.953127190470695496e-02,-4.326595366001129150e-02,-8.935770951211452484e-03,1.452739257365465164e-02,2.241760306060314178e-02,1.575357629917562008e-03,-2.197204716503620148e-02,3.169446811079978943e-02,-3.359754011034965515e-02,4.773188382387161255e-02,5.686042364686727524e-03,-4.809850454330444336e-02,-6.177036091685295105e-02,4.308684915304183960e-02,-2.619682811200618744e-02,7.693618535995483398e-02,-3.508137166500091553e-02,-2.045234432443976402e-04,2.434530481696128845e-02,-1.728092320263385773e-02,-5.571909714490175247e-03,-4.099205136299133301e-02,-1.969242468476295471e-03,-6.952341645956039429e-02,-2.416288480162620544e-02,-2.680603973567485809e-02,3.731259703636169434e-02,1.442454289644956589e-02,9.354818612337112427e-04,3.460983559489250183e-02,-5.290200188755989075e-02,1.100246906280517578e-01,-8.269044570624828339e-03,-1.832843199372291565e-02,5.291283130645751953e-02,-2.625018171966075897e-02,2.292770706117153168e-02,8.111769706010818481e-02,1.312475837767124176e-02,4.728707298636436462e-02,4.492686688899993896e-02,9.567006491124629974e-03,-6.954540964215993881e-03,3.279223665595054626e-02,-3.956254944205284119e-02,5.546183791011571884e-03,3.124020760878920555e-03,-9.957817196846008301e-02,4.649661481380462646e-02
-2.221767092123627663e-03,1.852002367377281189e-02,-4.560148715972900391e-02,-8.574040979146957397e-02,-1.862779818475246429e-02,6.650283187627792358e-02,7.705477625131607056e-02,5.869945883750915527e-02,1.066943258047103882e-02,5.017619207501411438e-02,-8.350726962089538574e-02,-6.884408742189407349e-02,-1.251129992306232452e-02,4.886109009385108948e-02,-1.312084775418043137e-02,-6.610134243965148926e-02,2.030119067057967186e-03,-5.121901631355285645e-02,-3.119719028472900391e-02,-1.957334205508232117e-02,-6.772472988814115524e-03,-1.470748335123062134e-02,-7.569080684334039688e-03,1.564869731664657593e-01,-4.959704726934432983e-02,5.982358008623123169e-02,8.007819764316082001e-03,6.021218374371528625e-02,4.678362514823675156e-03,-9.080421179533004761e-02,4.743644502013921738e-03,5.212291702628135681e-02,4.890027269721031189e-02,-7.448060903698205948e-03,-4.966147616505622864e-02,4.683476313948631287e-02,-1.250789016485214233e-01,-4.872259497642517090e-02,4.450675845146179199e-02,-4.470997955650091171e-03,-1.262497305870056152e-01,4.517213627696037292e-02,4.963888972997665405e-02,1.893329992890357971e-02,-4.775825887918472290e-02,-1.576228998601436615e-03,-4.757786635309457779e-03,-3.192136064171791077e-02,-1.965812174603343010e-03,-3.424314782023429871e-02,-3.843296691775321960e-02,-3.868852183222770691e-02,-9.062092751264572144e-02,-2.119335718452930450e-02,-2.667615748941898346e-02,3.619731962680816650e-02,-5.011547356843948364e-02,6.557721644639968872e-02,4.272954910993576050e-02,7.621858268976211548e-03,-4.054350778460502625e-02,-4.661008343100547791e-02,-4.005981981754302979e-02,-8.723890781402587891e-02,-1.628871262073516846e-02,3.719060914590954781e-03,-5.670019984245300293e-02,4.145295172929763794e-02,-3.300370275974273682e-02,-6.509536504745483398e-02,-2.567849494516849518e-02,-4.261149466037750244e-02,8.464091271162033081e-02,5.019147321581840515e-02,-2.738928236067295074e-02,-1.394837070256471634e-02,-9.471674263477325439e-02,-4.652516171336174011e-02,-1.263547688722610474e-01,-5.912607070058584213e-03,7.479131221771240234e-03,-6.595750898122787476e-02,8.606103062629699707e-02,3.189406916499137878e-02,7.757025212049484253e-02,2.683115936815738678e-02,-6.237389054149389267e-03,9.174083918333053589e-02,-6.625996530055999756e-02,3.998053446412086487e-02,-1.378912758082151413e-02,-5.580845475196838379e-02,3.920856490731239319e-02,-3.870926797389984131e-03,1.413166057318449020e-02,3.736643865704536438e-02,7.858633995056152344e-02,5.515042692422866821e-02,1.158332973718643188e-01,-4.950770363211631775e-02
5.261976644396781921e-02,1.144455075263977051e-01,-6.344144791364669800e-02,1.906820945441722870e-02,-6.122949416749179363e-04,-4.620837047696113586e-02,-4.317278787493705750e-02,-2.257560379803180695e-03,7.984273135662078857e-03,7.900556921958923340e-02,7.413003593683242798e-02,-2.807437442243099213e-02,-6.598995067179203033e-03,-4.474076256155967712e-02,5.581850558519363403e-02,-3.440387174487113953e-02,-1.235408242791891098e-02,2.183546125888824463e-02,2.628465928137302399e-02,-1.812619902193546295e-02,-2.123305946588516235e-02,6.568365544080734253e-02,2.800060622394084930e-02,-6.285013165324926376e-03,4.736095666885375977e-02,3.321713209152221680e-02,8.593876659870147705e-02,3.805246204137802124e-02,-6.697411835193634033e-02,2.372737973928451538e-02,3.225017711520195007e-02,1.864391728304326534e-03,1.992188766598701477e-02,-8.831510692834854126e-02,1.893775910139083862e-02,-1.882947236299514771e-02,-2.399908937513828278e-02,-3.881488367915153503e-02,-3.330355882644653320e-02,-7.156413979828357697e-03,5.296744033694267273e-02,-3.462783992290496826e-02,-1.026920508593320847e-02,7.138227811083197594e-04,-1.386770326644182205e-02,3.826544806361198425e-02,5.744561180472373962e-02,-3.169867396354675293e-02,4.363601561635732651e-03,-1.201855093240737915e-01,-6.305941194295883179e-02,9.043925255537033081e-02,-1.577050797641277313e-02,5.995353683829307556e-03,-5.166054517030715942e-02,6.186706945300102234e-03,7.061850279569625854e-02,2.885352447628974915e-02,-8.166871964931488037e-02,4.868654161691665649e-02,-1.168666314333677292e-02,5.305564403533935547e-02,-4.480540379881858826e-02,3.543993085622787476e-02,-4.853281378746032715e-02,3.463721275329589844e-02,-1.246565487235784531e-02,8.496381342411041260e-02,-1.264530569314956665e-01,-1.562024815939366817e-03,2.072306536138057709e-02,-1.606092229485511780e-02,8.707498759031295776e-02,-3.029891662299633026e-02,-5.238396674394607544e-02,-1.863270811736583710e-02,6.252593826502561569e-03,6.625258177518844604e-02,-9.747528284788131714e-02,-1.331503596156835556e-02,2.230827882885932922e-02,-1.042684912681579590e-01,-6.969942897558212280e-02,-1.864178106188774109e-03,8.180696517229080200e-02,1.004818826913833618e-01,5.633622035384178162e-02,6.932392250746488571e-03,-5.924307927489280701e-02,-4.043604061007499695e-02,3.607684746384620667e-02,5.955230817198753357e-02,-6.368466466665267944e-02,7.765239477157592773e-02,4.209066554903984070e-02,-4.408691450953483582e-02,6.884863134473562241e-03,2.793323807418346405e-02,4.921263828873634338e-02,-4.784726351499557495e-02
-6.577250361442565918e-02,6.361827254295349121e-02,3.401048108935356140e-02,4.278577491641044617e-02,4.723301157355308533e-02,-4.189407080411911011e-02,-1.086508948355913162e-02,8.232497423887252808e-02,-4.534307867288589478e-02,-9.102127701044082642e-02,1.255297940224409103e-02,2.511473372578620911e-02,7.540398836135864258e-02,-8.423560857772827148e-02,-7.848905771970748901e-02,9.548332542181015015e-02,1.083561219274997711e-03,-8.428974449634552002e-02,1.800225116312503815e-02,-4.728870466351509094e-02,-7.548020035028457642e-02,3.199949115514755249e-02,4.502443596720695496e-02,-2.740277908742427826e-02,-2.512607909739017487e-02,1.201115082949399948e-02,-5.429562926292419434e-02,-3.161697834730148315e-02,2.557424269616603851e-02,-6.870191544294357300e-02,2.960369922220706940e-02,-7.651643455028533936e-02,2.883251011371612549e-02,1.971795968711376190e-02,-3.351584076881408691e-02,2.974270284175872803e-02,4.695319011807441711e-02,9.340811520814895630e-03,-2.565806917846202850e-02,-4.909850284457206726e-02,1.784311793744564056e-02,6.635268032550811768e-02,-3.581308946013450623e-02,5.513536557555198669e-02,8.698686212301254272e-02,1.871455693617463112e-03,8.142955601215362549e-02,6.689929217100143433e-02,-1.563436724245548248e-02,4.709106311202049255e-02,-3.820001706480979919e-02,5.673174187541007996e-02,-8.677920699119567871e-02,-1.112444791942834854e-02,-1.466826498508453369e-01,-2.320286259055137634e-02,4.042124748229980469e-02,2.355698496103286743e-02,-4.795337840914726257e-02,-4.804074391722679138e-02,9.139566868543624878e-02,-4.125238955020904541e-02,-1.912364386953413486e-03,-5.949904210865497589e-03,-2.247144281864166260e-02,2.049535326659679413e-02,1.167714148759841919e-01,-4.849305376410484314e-02,-2.276314608752727509e-02,6.595164537429809570e-02,8.102479390799999237e-03,3.514877706766128540e-02,3.807803615927696228e-02,-9.411492198705673218e-02,-3.048182092607021332e-02,2.407522872090339661e-02,-2.497905679047107697e-02,3.786516934633255005e-02,3.034777753055095673e-02,-6.613951176404953003e-02,4.175309836864471436e-02,-3.882786631584167480e-02,-4.863920621573925018e-03,-4.822629969567060471e-03,2.888033725321292877e-02,-3.431098163127899170e-02,5.168856307864189148e-02,-1.457692980766296387e-01,3.180171176791191101e-02,-6.522633880376815796e-02,4.934579506516456604e-02,-3.059005597606301308e-03,-6.933905929327011108e-02,4.035708960145711899e-03,2.459817752242088318e-02,8.254931122064590454e-02,-4.300932399928569794e-03,-3.099436126649379730e-02,4.785990342497825623e-02,3.965043649077415466e-02
-5.839608237147331238e-02,5.769529566168785095e-02,5.648133158683776855e-02,3.646327182650566101e-02,1.751067303121089935e-02,-3.330767154693603516e-02,-8.204170316457748413e-02,-9.696399420499801636e-02,-6.715234369039535522e-02,-3.768217563629150391e-02,-6.493974011391401291e-03,1.983906142413616180e-02,-4.769534803926944733e-03,-9.275265038013458252e-03,5.119425058364868164e-02,-2.586001716554164886e-02,-7.080607116222381592e-02,-1.139313634485006332e-02,1.441005337983369827e-02,-1.767083071172237396e-02,9.583744220435619354e-03,6.004652380943298340e-02,2.154594473540782928e-02,-4.182511195540428162e-02,1.116893664002418518e-01,3.308901190757751465e-02,-5.392468534409999847e-03,2.284498885273933411e-03,-5.767093226313591003e-02,-4.694030433893203735e-02,6.782170385122299194e-02,5.950498860329389572e-03,-2.633074298501014709e-02,1.463146694004535675e-02,-6.258986890316009521e-02,-1.345932483673095703e-02,1.181011181324720383e-02,9.012014418840408325e-02,9.183388948440551758e-02,-5.388589575886726379e-03,-5.307099316269159317e-03,2.179664000868797302e-02,-8.084025233983993530e-02,6.263895332813262939e-02,-4.743181541562080383e-02,-1.526526641100645065e-02,2.650242857635021210e-02,-7.827439159154891968e-02,7.908940315246582031e-02,6.727162748575210571e-02,-6.774429231882095337e-02,-6.023216061294078827e-03,3.724836569745093584e-04,6.243474036455154419e-02,1.988754980266094208e-02,2.821188606321811676e-02,-7.165715098381042480e-02,-5.784904584288597107e-02,1.278896536678075790e-02,3.754777088761329651e-02,-1.081655547022819519e-01,8.872610516846179962e-03,1.253371983766555786e-01,8.748264610767364502e-02,3.691098093986511230e-02,-3.912510350346565247e-03,4.187374562025070190e-02,2.989471517503261566e-02,-6.996849179267883301e-02,-3.942676261067390442e-02,-7.113265246152877808e-02,7.142425328493118286e-02,5.445519834756851196e-02,-6.309639662504196167e-02,-6.880282890051603317e-03,1.732528582215309143e-02,3.318854793906211853e-02,-2.168015204370021820e-02,-1.200809478759765625e-01,2.125215902924537659e-02,-3.617141768336296082e-02,-4.210216924548149109e-02,-2.523847855627536774e-02,4.737454280257225037e-02,7.102155685424804688e-02,4.242239519953727722e-02,-2.717876434326171875e-02,-2.232795022428035736e-02,-1.062900875695049763e-03,-5.097041279077529907e-02,7.259868830442428589e-02,2.979251556098461151e-02,-1.116055026650428772e-01,5.787507444620132446e-02,5.212227697484195232e-04,4.660746827721595764e-02,-2.824342250823974609e-02,3.524000942707061768e-02,-2.070665918290615082e-02,7.731967419385910034e-02
5.435560271143913269e-02,3.876840695738792419e-02,-5.680565163493156433e-02,3.836857154965400696e-02,-1.036499533802270889e-02,-6.957882642745971680e-02,1.059975773096084595e-01,-4.373615607619285583e-02,4.826266691088676453e-02,1.082983165979385376e-01,5.794263631105422974e-02,-4.425798356533050537e-02,-6.596866995096206665e-03,4.190184921026229858e-02,4.644090309739112854e-02,-8.971269242465496063e-03,6.432060152292251587e-02,-3.431599959731101990e-02,5.201176553964614868e-02,2.666444052010774612e-03,1.442193705588579178e-02,1.100936252623796463e-02,-1.986186765134334564e-02,1.788168959319591522e-02,4.961207509040832520e-02,-1.357880514115095139e-02,-6.324219703674316406e-02,1.328693609684705734e-02,1.194089185446500778e-02,1.813482120633125305e-02,1.454664301127195358e-02,8.653667569160461426e-02,3.949606046080589294e-02,5.373389646410942078e-02,-1.914212852716445923e-02,9.155174344778060913e-02,-4.535799100995063782e-02,8.383138105273246765e-03,2.827247045934200287e-02,-5.618262290954589844e-02,3.406187891960144043e-02,-5.091197043657302856e-02,4.075721651315689087e-02,-2.687393501400947571e-02,-9.364816546440124512e-02,2.799784950911998749e-02,-6.323332339525222778e-02,-4.404529463499784470e-03,-4.016909375786781311e-02,-1.243754010647535324e-02,1.777533441781997681e-02,-2.749132178723812103e-02,-2.869827859103679657e-02,1.283124089241027832e-03,-6.794147193431854248e-02,3.313532844185829163e-02,-1.043124031275510788e-02,-6.124994158744812012e-02,1.045607961714267731e-03,-6.027987599372863770e-02,5.312598496675491333e-02,4.444811865687370300e-02,-7.399936020374298096e-02,-9.845151565968990326e-03,1.677273027598857880e-02,-7.098274677991867065e-02,7.056390494108200073e-02,3.218863531947135925e-02,-9.270898997783660889e-02,3.648909926414489746e-02,6.250499933958053589e-02,-4.407452046871185303e-02,4.067761451005935669e-02,4.821150004863739014e-02,5.170298367738723755e-02,-4.170634597539901733e-02,-2.411823533475399017e-02,1.689810305833816528e-02,-5.278598144650459290e-02,-1.946423761546611786e-02,-2.596059255301952362e-02,-1.854011043906211853e-02,1.114040613174438477e-01,6.992479413747787476e-02,1.498820167034864426e-02,9.984847158193588257e-03,4.517716297414153814e-04,-6.329488009214401245e-02,-5.378474667668342590e-02,-5.774267390370368958e-02,-9.033206105232238770e-02,-1.514239609241485596e-02,4.953314363956451416e-02,2.349375002086162567e-02,3.500055521726608276e-02,-1.880773343145847321e-02,-5.747436359524726868e-02,-9.457895159721374512e-02,-1.055686846375465393e-01,3.053876757621765137e-02
-5.645252019166946411e-02,2.025553211569786072e-02,-1.726555079221725464e-02,-2.705849939957261086e-03,5.864617228507995605e-02,3.398333117365837097e-02,3.237804025411605835e-02,-3.249013423919677734e-02,2.878141403198242188e-02,-1.675903424620628357e-02,1.723727397620677948e-02,1.246697083115577698e-02,5.985402688384056091e-02,5.249027535319328308e-02,6.600874662399291992e-02,2.708882791921496391e-03,-1.491802860982716084e-03,2.243262901902198792e-02,3.834916278719902039e-02,-8.918791264295578003e-02,7.141059730201959610e-03,-1.298085087910294533e-03,-7.216830551624298096e-02,-4.069812595844268799e-02,-1.006895452737808228e-01,2.108756080269813538e-02,-4.533709213137626648e-02,7.457479368895292282e-03,2.491379901766777039e-02,4.219851270318031311e-02,8.893220126628875732e-02,-3.333144634962081909e-02,-2.257375977933406830e-02,6.361616309732198715e-03,-1.842441223561763763e-02,-2.486377581954002380e-02,4.224717244505882263e-02,4.770449548959732056e-02,-8.159212768077850342e-03,-1.985631696879863739e-02,-9.388861246407032013e-03,4.005276784300804138e-02,-3.579756990075111389e-02,2.585883252322673798e-02,-6.413578242063522339e-02,2.027488313615322113e-02,-4.752529039978981018e-02,1.456127967685461044e-02,5.454195663332939148e-02,-8.002799004316329956e-02,-4.014856740832328796e-02,-7.953799515962600708e-02,1.983412355184555054e-02,9.951184689998626709e-02,-9.662035852670669556e-03,-7.933146320283412933e-03,-3.941404446959495544e-02,-2.647513151168823242e-02,8.672799915075302124e-02,-6.687605381011962891e-02,-9.634462743997573853e-02,5.193791538476943970e-02,3.485385701060295105e-02,-6.876785308122634888e-03,-4.038786515593528748e-02,-1.530828326940536499e-01,2.439242228865623474e-02,-1.225323136895895004e-02,-1.003983020782470703e-01,6.804982572793960571e-02,3.770166262984275818e-02,-6.481333076953887939e-02,-3.241651877760887146e-02,-3.367550298571586609e-02,2.703921496868133545e-02,-3.102745162323117256e-03,-1.120028868317604065e-01,-1.877398788928985596e-02,-2.549356594681739807e-02,-1.121556013822555542e-02,2.319342456758022308e-02,-7.046594750136137009e-03,6.720642745494842529e-02,2.692067064344882965e-02,-5.244361981749534607e-02,7.844051718711853027e-02,1.276980619877576828e-02,-4.066654294729232788e-02,4.784771427512168884e-02,4.577611573040485382e-03,2.809801138937473297e-02,4.467550606932491064e-04,-1.825986616313457489e-02,-4.743488132953643799e-02,3.467823192477226257e-02,1.665648818016052246e-02,2.882390096783638000e-02,4.676748998463153839e-03,1.871286891400814056e-02,-3.261485323309898376e-02
2.175026200711727142e-02,-2.257010713219642639e-02,-9.786560386419296265e-02,-2.294525131583213806e-02,-2.484222175553441048e-03,1.168528851121664047e-02,-2.117884531617164612e-02,-3.412560001015663147e-02,-5.976346787065267563e-03,4.283227026462554932e-02,5.851582437753677368e-02,-1.090255975723266602e-01,-3.445418924093246460e-02,-5.580905079841613770e-02,-4.087473079562187195e-02,3.557491302490234375e-02,-1.899294368922710419e-02,-5.270839482545852661e-02,-6.688069552183151245e-02,6.759958714246749878e-02,-1.233490277081727982e-02,-2.351758629083633423e-02,-2.527066506445407867e-02,2.135520800948143005e-02,2.414701320230960846e-02,-1.767080090939998627e-02,-2.134181931614875793e-02,5.849756672978401184e-02,1.862613484263420105e-02,-2.497595362365245819e-02,-1.155599579215049744e-01,5.430446192622184753e-02,-2.180319651961326599e-02,1.522943284362554550e-02,-5.573903396725654602e-02,-7.359277456998825073e-02,-4.267432540655136108e-02,2.274928987026214600e-02,-1.017934083938598633e-01,-1.821359060704708099e-02,5.777078494429588318e-02,2.932743169367313385e-02,2.839198568835854530e-04,-4.219258949160575867e-02,-3.227971494197845459e-02,-3.851336985826492310e-02,-2.383380942046642303e-02,2.703629992902278900e-02,-5.977156106382608414e-03,1.234365510754287243e-03,1.530336774885654449e-02,-7.602620869874954224e-03,1.442131679505109787e-02,2.482995204627513885e-02,-6.186497863382101059e-03,2.192482911050319672e-02,5.697149038314819336e-02,-1.066153645515441895e-01,8.769103325903415680e-03,7.617147266864776611e-02,1.217276882380247116e-02,7.381789386272430420e-02,-5.149522051215171814e-02,-4.920017346739768982e-02,3.562044724822044373e-02,-4.897953569889068604e-02,-4.010548070073127747e-02,-1.242417283356189728e-02,2.727267704904079437e-02,1.003877446055412292e-02,5.525397881865501404e-02,-4.175757244229316711e-02,8.265227079391479492e-03,-4.941901192069053650e-02,1.315135415643453598e-02,6.222931295633316040e-02,1.054708193987607956e-02,-3.053396381437778473e-02,9.211790747940540314e-03,-3.748213872313499451e-02,3.567815944552421570e-02,1.138253230601549149e-02,6.981731392443180084e-03,1.250049937516450882e-02,-4.162711650133132935e-02,-4.678953904658555984e-03,3.161297738552093506e-02,-4.060726985335350037e-02,7.044140249490737915e-03,-4.006881639361381531e-02,8.178027719259262085e-02,-8.902835100889205933e-02,-6.956359744071960449e-02,4.929238185286521912e-02,-4.919916857033967972e-03,9.257597476243972778e-02,-6.545277684926986694e-02,-4.075166210532188416e-02,-7.455069106072187424e-03,-6.344488938339054585e-04
-2.607927285134792328e-02,8.067154139280319214e-02,6.868677586317062378e-02,1.556296832859516144e-02,9.382151067256927490e-03,6.074834964238107204e-04,-4.881504923105239868e-02,1.806078478693962097e-02,4.206335637718439102e-03,5.032158643007278442e-02,3.244652226567268372e-02,-5.388376116752624512e-02,7.534260302782058716e-02,-4.261995479464530945e-02,2.385828457772731781e-02,-7.257043570280075073e-02,6.109815835952758789e-02,4.120347648859024048e-02,8.870368823409080505e-03,3.628160571679472923e-03,2.975109219551086426e-02,-1.869665831327438354e-02,1.569537632167339325e-02,1.136728897690773010e-01,-9.637057781219482422e-02,-5.961082130670547485e-02,2.815217711031436920e-02,6.787045300006866455e-02,-1.787063665688037872e-02,4.780848696827888489e-02,-1.559229660779237747e-02,1.102293953299522400e-01,-7.990252226591110229e-03,5.228867009282112122e-02,-4.356505349278450012e-02,-1.076178508810698986e-03,-9.139262884855270386e-02,-3.233263641595840454e-02,-6.502422690391540527e-02,-7.776508480310440063e-02,1.501936186105012894e-02,-7.747656852006912231e-02,-3.214251250028610229e-02,-5.507680773735046387e-02,-1.961525529623031616e-02,1.715762168169021606e-02,-2.985578728839755058e-03,2.762786857783794403e-02,4.269289597868919373e-02,-6.094127520918846130e-02,2.904167771339416504e-02,-4.354757722467184067e-03,1.193178165704011917e-02,3.220865875482559204e-02,1.535868179053068161e-02,1.156700588762760162e-02,-5.034099146723747253e-02,-1.214581634849309921e-02,-2.091753529384732246e-03,-7.932092994451522827e-02,1.006364971399307251e-01,-3.520773351192474365e-02,-1.012975126504898071e-01,-3.830224275588989258e-03,-4.431381821632385254e-02,-1.055791974067687988e-02,-4.707679525017738342e-02,-3.901283442974090576e-02,-5.460968241095542908e-02,-1.078140339814126492e-03,-1.217620214447379112e-03,-2.699675038456916809e-02,-8.821295201778411865e-02,2.282831817865371704e-02,-7.029571384191513062e-02,1.360353827476501465e-01,-3.684295713901519775e-02,1.639009267091751099e-02,-1.320205628871917725e-02,-6.531748920679092407e-03,1.193840336054563522e-02,-3.937378153204917908e-02,4.661778733134269714e-02,2.286301739513874054e-02,2.324536442756652832e-03,-8.695226162672042847e-02,-2.513415180146694183e-02,-4.550592601299285889e-02,-1.631645672023296356e-02,1.769923418760299683e-02,7.462408393621444702e-02,1.204897742718458176e-02,-4.079756326973438263e-03,6.589795649051666260e-02,-8.284753561019897461e-02,7.502257823944091797e-03,2.464057505130767822e-02,-2.251985855400562286e-02,3.654074296355247498e-02,-5.141191557049751282e-02
-2.636232972145080566e-02,3.207894740626215935e-03,-5.882887169718742371e-02,-7.246499415487051010e-03,3.866408020257949829e-02,4.857984557747840881e-02,3.225694177672266960e-03,-4.168061539530754089e-02,3.250959143042564392e-02,2.528207004070281982e-02,4.742025956511497498e-02,5.582952499389648438e-02,2.570814266800880432e-02,-5.703618284314870834e-03,1.896758750081062317e-02,-1.033274363726377487e-02,1.578624942339956760e-03,-1.407726109027862549e-02,-2.233687043190002441e-02,-1.270918734371662140e-02,6.597631424665451050e-02,6.203834433108568192e-03,-7.469155639410018921e-02,-9.343991987407207489e-03,5.022183805704116821e-02,2.143908478319644928e-02,-1.333897840231657028e-02,8.637036080472171307e-04,5.869255214929580688e-02,7.687637116760015488e-03,6.835706532001495361e-02,8.498706738464534283e-04,1.525137294083833694e-02,-2.372919954359531403e-02,1.057972665876150131e-02,8.762889541685581207e-03,4.481596872210502625e-02,1.171431876718997955e-02,-6.919090636074542999e-03,-5.637586116790771484e-02,9.014899842441082001e-03,-7.115890830755233765e-02,-3.280584141612052917e-02,5.550991278141736984e-03,2.830983838066458702e-03,1.054591313004493713e-01,1.178111135959625244e-02,-4.464562516659498215e-03,-5.272186920046806335e-02,-5.842047557234764099e-02,-5.651521310210227966e-02,6.011136248707771301e-02,1.259452290832996368e-02,-5.612368136644363403e-02,3.745954483747482300e-02,-4.419425502419471741e-02,1.462068874388933182e-02,-6.952631752938032150e-03,2.316877245903015137e-02,6.161777302622795105e-02,4.933804646134376526e-02,1.635095663368701935e-02,-2.411363087594509125e-02,3.393362462520599365e-02,-2.686499431729316711e-02,1.893491111695766449e-02,-2.882493101060390472e-02,-5.373956635594367981e-02,7.997762411832809448e-02,6.011502072215080261e-02,8.551683276891708374e-02,8.089459501206874847e-03,8.894956856966018677e-02,-1.582934521138668060e-02,-2.248032204806804657e-02,5.429763719439506531e-02,-4.739492759108543396e-02,-2.409091591835021973e-02,6.508514634333550930e-04,-1.169816404581069946e-01,1.269792765378952026e-02,-3.352431580424308777e-02,3.372931852936744690e-02,2.615424804389476776e-02,-7.925730198621749878e-02,3.481490537524223328e-02,3.507740423083305359e-02,-1.879566907882690430e-02,1.848559267818927765e-02,3.774996846914291382e-02,3.685906901955604553e-02,-3.680141270160675049e-02,-4.599896818399429321e-02,-2.887069247663021088e-02,-5.023590289056301117e-03,1.200132910162210464e-02,-6.723862141370773315e-02,-4.191863816231489182e-03,4.616054706275463104e-03,1.019320636987686157e-01
-5.314175412058830261e-02,-2.850733697414398193e-02,1.201359182596206665e-02,-2.264897711575031281e-02,8.483923226594924927e-02,-4.650353267788887024e-02,1.413923036307096481e-02,-1.503610610961914062e-02,8.960994333028793335e-02,-3.458934649825096130e-02,-8.457889780402183533e-03,6.207288242876529694e-03,4.066935274749994278e-03,7.670368999242782593e-02,1.070466451346874237e-02,-2.479326911270618439e-02,-7.599405944347381592e-02,-5.221432074904441833e-04,7.182147353887557983e-02,1.278574205935001373e-02,-5.264784023165702820e-02,4.661392886191606522e-03,2.616231516003608704e-02,-2.277476899325847626e-02,4.061252251267433167e-02,2.141632884740829468e-02,-5.552991852164268494e-02,3.675943985581398010e-02,9.338494390249252319e-02,2.413438260555267334e-02,6.096642836928367615e-02,-2.856815233826637268e-02,-3.430416062474250793e-02,2.132327482104301453e-02,3.167336806654930115e-03,1.524702366441488266e-02,1.447615623474121094e-01,-5.510640889406204224e-02,8.327070623636245728e-03,-4.990722518414258957e-03,9.493878483772277832e-02,5.161312222480773926e-02,7.420385628938674927e-02,-4.023625515401363373e-03,4.091213271021842957e-02,-7.462630420923233032e-02,1.295646186918020248e-02,4.126767069101333618e-02,4.717013239860534668e-02,-1.963162608444690704e-02,3.568800166249275208e-02,1.499256025999784470e-02,-2.156662009656429291e-02,6.533303111791610718e-02,-3.292973339557647705e-02,-1.984963892027735710e-03,-2.535971812903881073e-02,-1.949234120547771454e-02,7.846363820135593414e-03,5.795916658826172352e-04,-2.465997077524662018e-02,-7.238125056028366089e-02,9.974820911884307861e-02,-6.717742234468460083e-02,1.659287721849977970e-03,-1.945257000625133514e-02,-4.976844042539596558e-02,3.272521123290061951e-02,7.956664264202117920e-02,3.802034631371498108e-02,-2.338689379394054413e-02,1.624201610684394836e-02,-1.873273588716983795e-02,2.859883382916450500e-02,-6.634027510881423950e-02,-6.366404145956039429e-02,-6.473636627197265625e-02,-4.957772046327590942e-02,3.947416320443153381e-02,-6.552518159151077271e-02,8.540582656860351562e-02,1.899207197129726410e-02,1.253318041563034058e-02,9.201488457620143890e-03,-1.018439531326293945e-01,2.439486049115657806e-02,-7.341515272855758667e-02,5.984852556139230728e-03,-3.084563650190830231e-02,-8.940772712230682373e-02,7.017292827367782593e-02,-4.767252132296562195e-02,-3.328644111752510071e-02,-1.980999670922756195e-02,-1.547340489923954010e-02,2.981634251773357391e-02,-3.156497329473495483e-02,-8.077149838209152222e-02,-6.100150570273399353e-02,7.014142721891403198e-02
-4.485952854156494141e-02,-3.180315718054771423e-02,6.778670847415924072e-02,-2.892745845019817352e-02,3.765682131052017212e-02,3.021243214607238770e-02,8.495611697435379028e-02,8.295943960547447205e-03,-4.425367340445518494e-02,8.897650986909866333e-02,-4.037989303469657898e-02,1.332576852291822433e-02,-7.175107486546039581e-03,-1.667717099189758301e-02,-2.058030804619193077e-03,-8.037846535444259644e-03,-1.095008403062820435e-01,3.413394466042518616e-02,6.306680291891098022e-02,-5.164834484457969666e-02,-9.076024405658245087e-03,-5.561983585357666016e-02,-2.018938027322292328e-02,-1.602501235902309418e-02,-4.634465090930461884e-03,9.642872028052806854e-03,-1.791362017393112183e-01,-1.750854216516017914e-02,1.137259230017662048e-01,-5.398883298039436340e-02,-8.935908786952495575e-03,1.006308346986770630e-01,6.305923312902450562e-02,7.728661596775054932e-02,6.197321042418479919e-02,-1.475642062723636627e-02,-1.318248687312006950e-03,-1.979639753699302673e-02,2.082688501104712486e-03,4.115429520606994629e-02,-1.867217384278774261e-02,4.051120206713676453e-02,1.103334575891494751e-01,-7.072522770613431931e-03,-3.253794042393565178e-03,-1.640867441892623901e-02,-4.903110489249229431e-02,-1.652898080646991730e-02,1.871403679251670837e-02,4.943636246025562286e-03,-5.374166369438171387e-02,6.012032181024551392e-02,-3.548081219196319580e-02,-1.822240650653839111e-02,-6.215342506766319275e-02,7.182967662811279297e-02,-2.166850492358207703e-02,7.767719030380249023e-02,2.533071301877498627e-02,-1.829302124679088593e-02,5.633114650845527649e-02,4.421257972717285156e-02,2.567589655518531799e-02,1.982294768095016479e-02,9.398961439728736877e-03,-1.268164813518524170e-02,9.775241464376449585e-02,-2.019898034632205963e-02,4.393995553255081177e-02,-2.887930534780025482e-02,5.126877687871456146e-03,5.765996128320693970e-02,2.281812392175197601e-02,5.260926112532615662e-02,2.354621142148971558e-02,7.335184514522552490e-02,-2.371650747954845428e-02,-4.293591529130935669e-02,1.340098958462476730e-02,1.078622564673423767e-01,-1.093530561774969101e-02,-4.393043369054794312e-02,-5.236761062406003475e-04,3.454192727804183960e-02,7.384502887725830078e-02,9.466692060232162476e-02,2.835858240723609924e-02,-5.007372703403234482e-03,2.031949162483215332e-02,2.837478183209896088e-02,3.498206660151481628e-02,7.172553334385156631e-03,-2.950718812644481659e-02,-5.476793274283409119e-02,9.812352247536182404e-03,1.162414327263832092e-01,6.545717269182205200e-02,3.751017898321151733e-02,7.559880614280700684e-03,7.436513900756835938e-02
-3.319329023361206055e-02,3.254464268684387207e-02,2.356258593499660492e-02,-9.433250874280929565e-03,-5.657217651605606079e-02,3.913523163646459579e-03,6.845519691705703735e-02,-3.950268030166625977e-02,-5.001704767346382141e-02,-2.782478928565979004e-02,-4.463694617152214050e-02,1.337363477796316147e-02,-2.744644694030284882e-02,-3.862095996737480164e-02,-1.158433035016059875e-02,4.884552210569381714e-02,1.111708432435989380e-01,7.516495883464813232e-03,-6.582742184400558472e-02,5.509848147630691528e-02,-1.260150410234928131e-02,-2.350177615880966187e-02,1.275404393672943115e-01,2.347332192584872246e-03,-2.320138178765773773e-02,-6.612017285078763962e-03,-5.024614930152893066e-02,-1.580958627164363861e-02,1.205931454896926880e-01,-2.950893901288509369e-02,9.023086726665496826e-02,-4.464976862072944641e-02,1.328471768647432327e-02,3.687125071883201599e-02,-5.674210935831069946e-02,2.923727966845035553e-02,1.913423091173171997e-02,5.908969789743423462e-02,1.839751191437244415e-02,-2.834133571013808250e-03,2.799886278808116913e-02,1.683481968939304352e-03,4.809686169028282166e-02,8.315447717905044556e-02,-6.963117513805627823e-03,-2.029299177229404449e-02,-7.019653171300888062e-02,7.892734557390213013e-02,1.890996471047401428e-02,5.584044009447097778e-02,-4.547503218054771423e-02,-6.847542524337768555e-02,3.770072385668754578e-02,1.833632588386535645e-03,5.168923735618591309e-02,-2.218700712546706200e-03,-2.748321369290351868e-02,-1.489949133247137070e-02,2.466201782226562500e-02,4.968239367008209229e-02,-5.525307729840278625e-02,-4.067391902208328247e-02,5.511057376861572266e-02,-1.690805511316284537e-04,-1.991885248571634293e-03,8.639646321535110474e-02,-4.894587770104408264e-02,4.030584357678890228e-03,-2.905795909464359283e-02,6.948989629745483398e-02,5.284711346030235291e-02,-5.251111928373575211e-03,-4.816375672817230225e-02,7.943666540086269379e-03,8.957188576459884644e-02,-2.792972698807716370e-02,-6.380729377269744873e-02,-1.783153600990772247e-02,-1.540720649063587189e-02,-2.560401894152164459e-02,-1.089947000145912170e-01,-5.720121785998344421e-02,-1.750815473496913910e-02,9.113302081823348999e-02,-3.226720145903527737e-04,-3.861166164278984070e-02,-6.030586361885070801e-02,8.994431048631668091e-02,6.784812361001968384e-02,6.770049780607223511e-02,-2.611769549548625946e-02,5.652529746294021606e-02,-3.058117628097534180e-02,-3.571677953004837036e-02,6.461615115404129028e-02,-9.538140892982482910e-02,-2.421202836558222771e-03,7.702326029539108276e-02,2.197727188467979431e-02,3.278886899352073669e-02
6.595442444086074829e-02,8.526622503995895386e-02,-6.201919540762901306e-02,5.694458959624171257e-04,-1.242568623274564743e-02,2.201648987829685211e-02,2.187269506976008415e-03,6.477794796228408813e-02,-1.626902632415294647e-02,5.894117429852485657e-02,-1.447918452322483063e-02,-1.772061921656131744e-02,-1.513291057199239731e-02,3.941318020224571228e-02,4.611273482441902161e-02,3.189637884497642517e-02,-9.943955577909946442e-03,-1.549817062914371490e-02,8.243582211434841156e-03,-7.260292023420333862e-02,5.775217339396476746e-02,-5.052112415432929993e-02,-7.324961014091968536e-03,5.377644300460815430e-02,-1.679881289601325989e-02,-5.900871753692626953e-02,-1.266584545373916626e-02,-4.225645586848258972e-02,9.031089954078197479e-03,-9.598328173160552979e-02,1.455346774309873581e-02,1.087331213057041168e-02,-5.539469048380851746e-02,-2.563961781561374664e-02,-7.687100023031234741e-02,4.641086980700492859e-02,-5.640628933906555176e-02,-3.928898274898529053e-02,-1.021156832575798035e-02,-3.781428933143615723e-02,-6.427499651908874512e-02,1.245310995727777481e-02,-3.771461173892021179e-02,-1.015648152679204941e-02,1.274745166301727295e-02,8.734013885259628296e-03,1.254739332944154739e-02,2.946561435237526894e-03,-9.657244198024272919e-03,-2.295795641839504242e-02,-4.055657237768173218e-02,-3.401989117264747620e-02,-2.085120230913162231e-02,-2.501956187188625336e-03,8.772502839565277100e-02,7.728689908981323242e-02,4.279003944247961044e-03,-4.134704172611236572e-02,-1.237442775163799524e-04,-8.369456976652145386e-02,-9.075156413018703461e-04,-2.611134841572493315e-04,3.882383927702903748e-02,2.461479976773262024e-02,-8.467917144298553467e-02,-5.985846742987632751e-02,2.959898672997951508e-02,4.886373411864042282e-03,-6.597897154279053211e-04,5.456822738051414490e-02,1.339750736951828003e-01,3.537799417972564697e-02,-2.522962726652622223e-02,-1.554231066256761551e-02,2.373912557959556580e-02,2.361009595915675163e-03,8.598569780588150024e-03,9.047303348779678345e-02,3.479004651308059692e-02,-1.392739452421665192e-02,4.991316702216863632e-03,2.981171384453773499e-02,3.323832526803016663e-02,6.328926980495452881e-02,5.919383093714714050e-02,-1.359870005398988724e-02,3.527428582310676575e-02,-3.151434659957885742e-02,3.415891155600547791e-02,9.483932703733444214e-02,-5.749002844095230103e-02,1.678165607154369354e-02,-5.007537081837654114e-02,5.076465755701065063e-02,3.603162989020347595e-02,-3.791378438472747803e-02,-7.465093582868576050e-02,2.956076292321085930e-03,-5.844552442431449890e-02,1.308493595570325851e-02
-3.396748006343841553e-02,1.026828438043594360e-01,-8.940942585468292236e-02,2.303144708275794983e-02,9.315382689237594604e-02,-6.681280676275491714e-03,3.523948043584823608e-02,1.918021403253078461e-02,4.526406154036521912e-02,-7.635157555341720581e-02,-3.307702392339706421e-02,7.612050324678421021e-02,1.274391263723373413e-01,3.330299258232116699e-02,-2.259806357324123383e-02,-3.639037534594535828e-02,-3.218963742256164551e-02,-4.962902888655662537e-02,1.104423217475414276e-02,-2.573904953896999359e-02,4.187313839793205261e-02,5.637110024690628052e-02,-1.423358637839555740e-02,-1.485714036971330643e-02,-4.501413181424140930e-02,8.751480840146541595e-03,3.090433590114116669e-02,-6.989280879497528076e-02,1.945572346448898315e-02,-1.189088150858879089e-01,1.134517043828964233e-02,-7.294952869415283203e-02,-1.200711727142333984e-02,-2.485015615820884705e-02,5.348283052444458008e-02,6.525160372257232666e-02,-7.630736380815505981e-02,3.388292714953422546e-02,5.935066728852689266e-04,5.232104286551475525e-02,3.691282868385314941e-02,4.158572107553482056e-02,-3.365651890635490417e-02,-5.570419505238533020e-02,2.819094434380531311e-02,5.799954012036323547e-02,-1.678395830094814301e-02,-1.914221793413162231e-02,-1.477873623371124268e-01,-4.071886837482452393e-02,4.206733778119087219e-02,2.617858350276947021e-02,-2.021044492721557617e-02,-5.703672301024198532e-03,-4.604201018810272217e-02,2.058533020317554474e-03,3.428574278950691223e-02,2.870660461485385895e-02,-4.976836219429969788e-02,-1.315191620960831642e-04,3.176074847579002380e-02,-1.315743476152420044e-02,3.630817309021949768e-02,-5.983795970678329468e-03,-5.768223479390144348e-02,4.133793711662292480e-02,-2.393985353410243988e-02,-2.363662235438823700e-03,3.314154222607612610e-02,4.994261264801025391e-02,-1.745720021426677704e-02,7.362171262502670288e-02,5.720972642302513123e-02,-8.744990453124046326e-03,-6.920138746500015259e-02,9.970452636480331421e-03,4.075791221112012863e-03,-4.299124702811241150e-02,-2.336234040558338165e-02,-4.840480163693428040e-02,-5.573353171348571777e-02,5.789827089756727219e-03,-6.347996741533279419e-02,1.044810377061367035e-02,-7.498286664485931396e-02,2.065572328865528107e-02,4.411874338984489441e-02,4.096741229295730591e-02,1.101725473999977112e-01,-6.490809470415115356e-02,3.817665949463844299e-02,1.744816079735755920e-02,-9.980825707316398621e-03,-2.001498080790042877e-02,5.593137070536613464e-02,3.922252729535102844e-02,8.953748270869255066e-03,-4.669551178812980652e-02,-5.159223824739456177e-02,3.289161995053291321e-02
-3.473566845059394836e-02,-4.944647103548049927e-02,-1.023232266306877136e-01,-3.808571398258209229e-02,-4.406939074397087097e-02,7.406934350728988647e-02,-2.685670042410492897e-04,-3.464617580175399780e-02,-7.669040001928806305e-03,8.459187112748622894e-03,-2.634589374065399170e-02,-1.487096399068832397e-02,-2.552440576255321503e-02,-3.373684734106063843e-02,2.966284565627574921e-02,-6.569217424839735031e-03,3.480179235339164734e-02,-5.472225695848464966e-02,5.601963028311729431e-02,6.258758157491683960e-02,2.053990727290511131e-03,-2.196262823417782784e-03,-6.429183483123779297e-02,-5.371086765080690384e-03,3.869765624403953552e-02,4.105720296502113342e-02,7.807175815105438232e-02,8.921987377107143402e-03,4.733994975686073303e-02,-1.104412302374839783e-01,-4.688694607466459274e-03,1.239380892366170883e-02,6.324184685945510864e-02,3.122816979885101318e-02,3.977284580469131470e-02,-6.079388409852981567e-02,-3.180701285600662231e-02,2.141392091289162636e-03,-4.775547608733177185e-02,-5.706401541829109192e-02,1.214529108256101608e-02,6.092065200209617615e-02,-1.410173811018466949e-02,-6.088177114725112915e-02,-1.961143873631954193e-02,8.966441452503204346e-02,1.224655658006668091e-02,-6.395717710256576538e-02,-1.226583868265151978e-02,-8.903048932552337646e-02,2.160185202956199646e-02,-2.474524639546871185e-02,-2.563740126788616180e-02,1.481039542704820633e-02,5.390057712793350220e-02,2.185321971774101257e-02,-1.448901463299989700e-02,2.506289817392826080e-02,4.502819478511810303e-02,2.576915733516216278e-02,-1.580305993556976318e-01,-2.368094585835933685e-02,4.816917702555656433e-02,1.016766577959060669e-01,-1.974379085004329681e-02,3.571809036657214165e-03,-3.407440707087516785e-02,-3.737419471144676208e-02,-4.718366544693708420e-03,-5.142655596137046814e-02,6.996943801641464233e-02,-1.125936117023229599e-02,-1.152597833424806595e-02,2.719532325863838196e-02,-2.149107120931148529e-02,2.328973263502120972e-02,1.317590475082397461e-02,-2.775241248309612274e-02,5.168140865862369537e-03,-8.313967846333980560e-03,-6.305456161499023438e-02,-5.945651605725288391e-02,-7.427953183650970459e-03,6.381330639123916626e-02,-3.934998065233230591e-02,-1.138611789792776108e-02,6.960428785532712936e-03,4.868161678314208984e-02,2.107434673234820366e-03,2.958946488797664642e-02,-4.422786086797714233e-02,-3.461243212223052979e-02,6.730685383081436157e-02,-1.653964966535568237e-01,4.752058163285255432e-02,1.697540096938610077e-02,-4.781834408640861511e-02,7.131242752075195312e-02,-1.096572428941726685e-01,-1.019164826720952988e-02
-1.559132244437932968e-02,-1.622725836932659149e-02,-2.210256084799766541e-02,4.043781012296676636e-02,3.175701946020126343e-02,-1.826607994735240936e-02,4.803441837430000305e-02,5.900206789374351501e-02,5.202383548021316528e-02,2.805218100547790527e-02,-8.074282086454331875e-04,2.490126760676503181e-03,-3.304482251405715942e-02,-5.002751946449279785e-02,-1.692543737590312958e-02,5.164707824587821960e-02,-2.477108687162399292e-02,-4.633669182658195496e-02,8.840075135231018066e-02,-6.388762500137090683e-03,1.355735468678176403e-03,3.921084105968475342e-02,-3.243116289377212524e-02,-2.860829047858715057e-02,-4.198599606752395630e-02,-2.751768007874488831e-02,-3.833581879734992981e-02,1.362663041800260544e-02,2.671625651419162750e-02,7.552004605531692505e-02,-6.399941444396972656e-02,-4.715908691287040710e-02,-5.664354190230369568e-02,-2.733359299600124359e-02,1.512395311146974564e-02,4.815526306629180908e-03,-3.471427038311958313e-02,-3.118697367608547211e-02,2.412701211869716644e-02,4.872000962495803833e-02,-1.842578686773777008e-02,4.016182944178581238e-02,2.816404774785041809e-02,3.298308327794075012e-02,7.998860441148281097e-03,-6.040483713150024414e-02,-3.111882507801055908e-02,1.036135479807853699e-02,6.112176179885864258e-02,7.218514382839202881e-02,-1.829321682453155518e-02,1.878307783044874668e-03,-4.515300691127777100e-02,-6.314318627119064331e-02,-4.401786252856254578e-02,3.369507193565368652e-02,3.322678059339523315e-02,-1.113666873425245285e-02,5.735404044389724731e-02,2.053851820528507233e-02,5.568365007638931274e-02,8.809327334165573120e-02,-8.646159432828426361e-03,3.937229979783296585e-03,-4.806837067008018494e-02,-9.463408961892127991e-03,1.655216328799724579e-02,1.085427626967430115e-01,1.102270483970642090e-01,-1.209040638059377670e-02,-7.506091892719268799e-02,7.084693014621734619e-02,2.463125251233577728e-02,-1.482886611483991146e-03,-4.943827539682388306e-02,1.872590929269790649e-02,4.007885232567787170e-02,2.638497017323970795e-02,-4.683060571551322937e-02,-6.194254383444786072e-02,1.300236489623785019e-02,5.179377272725105286e-02,-7.329129427671432495e-02,6.148796901106834412e-02,-9.744594246149063110e-02,-1.007721051573753357e-01,-1.177908331155776978e-01,9.260892868041992188e-02,2.659704163670539856e-02,6.465992331504821777e-02,7.543411105871200562e-03,1.606248691678047180e-02,8.475050330162048340e-03,4.671860858798027039e-02,4.069292172789573669e-02,1.047727093100547791e-02,2.395978942513465881e-02,-3.442741185426712036e-02,-1.731267012655735016e-02,-1.302800923585891724e-01
6.953196227550506592e-02,-5.117280408740043640e-02,-5.366863217204809189e-03,1.441854168660938740e-03,2.163956128060817719e-02,6.401209533214569092e-02,-2.487812191247940063e-02,6.885965168476104736e-02,3.290967643260955811e-02,5.093454942107200623e-02,-4.644459858536720276e-02,1.028262525796890259e-01,3.297074511647224426e-02,-5.540461745113134384e-03,-3.002218343317508698e-02,1.051896810531616211e-01,-1.704838126897811890e-02,3.333866596221923828e-03,2.863342408090829849e-03,5.708498880267143250e-02,2.546263299882411957e-02,5.852668359875679016e-02,-1.060384418815374374e-02,2.285710535943508148e-02,-3.673247620463371277e-02,2.253143861889839172e-02,-8.629382401704788208e-02,6.367972493171691895e-02,6.286364048719406128e-02,3.216058388352394104e-02,-5.666200071573257446e-02,5.439181998372077942e-02,7.780820876359939575e-02,-4.973020777106285095e-02,6.358299404382705688e-02,1.221983786672353745e-02,2.606103383004665375e-02,3.431038185954093933e-02,-4.937779158353805542e-02,5.097345635294914246e-02,5.649889633059501648e-02,-2.041563205420970917e-02,-7.095370441675186157e-02,-7.726975530385971069e-02,-3.445395454764366150e-02,9.186493232846260071e-03,-9.750452637672424316e-02,1.153007731772959232e-03,-7.899735122919082642e-02,2.613309025764465332e-02,-1.556484866887331009e-02,-5.604741163551807404e-03,-4.087758064270019531e-02,3.017212450504302979e-02,-2.693213522434234619e-02,1.980974711477756500e-02,-1.482860278338193893e-02,-3.022870793938636780e-02,-5.136941745877265930e-02,-3.808725252747535706e-02,4.339784011244773865e-02,4.042075201869010925e-02,6.231866031885147095e-02,-5.279358103871345520e-02,4.047584719955921173e-03,1.272374298423528671e-02,-4.577777534723281860e-02,2.381019061431288719e-03,-4.891077801585197449e-02,3.338023647665977478e-02,5.150866135954856873e-02,1.576964743435382843e-02,2.697437768802046776e-03,-3.809572011232376099e-02,2.385967411100864410e-02,2.295223996043205261e-02,1.056802738457918167e-02,-1.302760690450668335e-01,1.104928739368915558e-02,-2.131468616425991058e-02,6.319648772478103638e-02,9.454067796468734741e-02,2.888320200145244598e-02,3.339106217026710510e-02,-5.508065689355134964e-03,-1.606687903404235840e-02,-9.326488710939884186e-03,-2.152054756879806519e-02,5.661581829190254211e-02,-8.796589821577072144e-02,1.549256592988967896e-02,-5.206077476032078266e-04,5.803106352686882019e-02,2.653329446911811829e-02,3.716129437088966370e-02,1.934146694839000702e-02,1.250873785465955734e-02,3.673658147454261780e-02,-1.040260214358568192e-02,-4.451940581202507019e-02
8.115070872008800507e-03,3.837613388895988464e-02,-2.588460780680179596e-02,1.724770851433277130e-02,5.570612475275993347e-02,-3.035924397408962250e-03,-7.852991670370101929e-02,7.646699249744415283e-02,-1.553249079734086990e-02,3.189752995967864990e-02,1.826370321214199066e-02,5.021337419748306274e-02,2.781921625137329102e-02,4.954390600323677063e-02,2.784042619168758392e-02,1.269145961850881577e-02,4.726053215563297272e-03,-4.578639194369316101e-02,-7.050646934658288956e-03,1.882557407952845097e-03,1.184902619570493698e-02,6.326751410961151123e-02,-4.133156314492225647e-02,-1.895945146679878235e-02,5.283388122916221619e-02,5.046948418021202087e-02,5.658936128020286560e-02,4.914869368076324463e-02,4.128057509660720825e-03,-8.985192514955997467e-03,1.782150357030332088e-03,3.883606567978858948e-02,-4.319979343563318253e-03,-4.577054828405380249e-02,-6.512987613677978516e-02,2.838731277734041214e-03,-1.330267824232578278e-02,3.869685158133506775e-02,3.844106942415237427e-02,-1.576469838619232178e-02,-1.725047454237937927e-02,-2.465843595564365387e-02,-2.255064621567726135e-02,1.173144672065973282e-02,-3.490508766844868660e-03,-7.942754775285720825e-03,7.668983191251754761e-02,-7.868570834398269653e-02,5.171902105212211609e-02,-4.012731835246086121e-02,2.888916991651058197e-02,-3.721558675169944763e-02,-8.799650520086288452e-02,-9.552316740155220032e-03,-5.510031059384346008e-02,1.957717724144458771e-02,-8.797177672386169434e-02,-1.682956330478191376e-02,3.279575332999229431e-02,-6.279750913381576538e-02,8.596114814281463623e-03,-5.339515954256057739e-02,-5.702966079115867615e-02,-2.535518072545528412e-02,1.552120596170425415e-02,8.595704287290573120e-02,1.669595763087272644e-02,-3.817188367247581482e-02,4.583116993308067322e-02,6.362666189670562744e-02,5.539389327168464661e-02,4.969402402639389038e-02,5.323260650038719177e-02,-2.411531284451484680e-02,5.391314625740051270e-02,2.795533835887908936e-02,2.090678177773952484e-02,3.182770311832427979e-02,3.023576177656650543e-02,-2.191935433074831963e-03,-2.762638032436370850e-02,5.792862921953201294e-02,-5.362061411142349243e-02,6.167816743254661560e-02,-7.824788242578506470e-02,-2.684511803090572357e-02,-3.625002130866050720e-02,1.159375309944152832e-01,-3.772663697600364685e-02,3.129638731479644775e-02,7.234715670347213745e-02,-2.427818020805716515e-03,-3.963797912001609802e-02,5.982874706387519836e-02,-8.814271539449691772e-02,7.067890465259552002e-02,5.740301683545112610e-02,1.492107193917036057e-02,4.155019298195838928e-02,-2.477504499256610870e-02
1.442674398422241211e-01,2.783821430057287216e-03,3.033113479614257812e-02,3.972934093326330185e-03,-1.042475271970033646e-02,6.013271864503622055e-03,-4.343203734606504440e-03,-2.457081712782382965e-02,6.807569414377212524e-03,3.232464194297790527e-02,-9.024719148874282837e-02,-3.784003481268882751e-02,1.988238841295242310e-02,-1.584730343893170357e-03,-9.068664163351058960e-02,6.879062391817569733e-03,9.245719760656356812e-02,-4.532986879348754883e-02,1.412815507501363754e-02,4.425675794482231140e-02,-5.846973881125450134e-02,-5.042196065187454224e-02,-9.583913534879684448e-02,-1.428939308971166611e-02,-1.333427280187606812e-01,5.908033251762390137e-02,-4.675184190273284912e-02,2.660838142037391663e-02,5.780617520213127136e-02,-1.650301972404122353e-03,-6.612210720777511597e-02,-1.615366525948047638e-02,-3.436940163373947144e-02,-3.413010016083717346e-02,-8.578188717365264893e-03,-8.171611279249191284e-02,1.541838329285383224e-02,-3.217317536473274231e-02,-1.091707721352577209e-01,3.345647454261779785e-02,-5.047385022044181824e-02,5.943522322922945023e-03,-1.771761104464530945e-02,5.332366377115249634e-02,7.586091756820678711e-03,1.115593966096639633e-02,-1.334815472364425659e-01,-2.529473975300788879e-02,-6.692928820848464966e-02,-4.009657725691795349e-02,3.310340270400047302e-02,2.082021161913871765e-02,-7.388522475957870483e-02,1.703309128060936928e-03,-5.797725543379783630e-02,3.044783137738704681e-02,5.961628630757331848e-02,-8.957500010728836060e-02,4.800988361239433289e-03,4.590661451220512390e-02,7.779387384653091431e-02,-4.021825268864631653e-02,-2.652057213708758354e-03,-3.861304745078086853e-02,-3.655235841870307922e-02,1.603253185749053955e-02,1.036907639354467392e-02,-5.704526230692863464e-02,1.004073172807693481e-01,-2.294000796973705292e-02,4.025394096970558167e-02,1.080761179327964783e-01,7.557961344718933105e-02,6.432169582694768906e-03,-1.950490474700927734e-02,6.013431772589683533e-02,-4.256087541580200195e-02,7.506597321480512619e-03,-1.365793049335479736e-01,5.165622755885124207e-02,-3.073377721011638641e-02,-4.905896261334419250e-02,9.658797085285186768e-02,1.552473288029432297e-02,1.551468390971422195e-02,-9.384776465594768524e-03,-3.788128867745399475e-02,3.314278647303581238e-02,-9.287601278629153967e-05,5.615321919322013855e-02,2.767145074903964996e-02,3.942424431443214417e-03,-1.581666618585586548e-02,4.842253401875495911e-02,-4.182525724172592163e-02,-7.506351917982101440e-02,4.821904469281435013e-03,3.027436137199401855e-02,1.145219132304191589e-01,-7.552211731672286987e-02
-5.587584897875785828e-02,1.434966642409563065e-02,3.288169391453266144e-04,4.334747325628995895e-03,-9.210126101970672607e-02,-4.083238169550895691e-02,-1.747652143239974976e-02,-3.575757518410682678e-02,2.119616605341434479e-02,-4.735405370593070984e-02,1.721033477224409580e-03,9.014278650283813477e-03,4.589573666453361511e-02,8.340804278850555420e-02,2.680859901010990143e-02,6.399285793304443359e-02,2.862153761088848114e-02,-5.141593283042311668e-04,-6.574034690856933594e-02,-7.746834307909011841e-02,4.927207157015800476e-02,7.438381761312484741e-02,9.436085820198059082e-04,-5.188284441828727722e-02,5.943194776773452759e-02,1.049538627266883850e-01,6.294720619916915894e-02,2.181057585403323174e-03,-9.872924536466598511e-02,-5.810015369206666946e-03,-1.400958467274904251e-02,3.652795776724815369e-02,-3.130212053656578064e-02,1.878864504396915436e-02,-1.500414451584219933e-03,9.570608846843242645e-03,5.642728880047798157e-02,4.787285625934600830e-02,5.640863254666328430e-02,4.067229852080345154e-02,-3.610621020197868347e-02,-2.286309748888015747e-02,-8.974044024944305420e-02,2.479456923902034760e-02,1.736597158014774323e-02,4.772949591279029846e-02,8.880952000617980957e-02,2.201164141297340393e-02,2.617693878710269928e-02,-9.693013876676559448e-02,5.256993696093559265e-02,2.747055841609835625e-03,3.274433081969618797e-03,2.549946866929531097e-02,2.982219867408275604e-02,-5.145848914980888367e-02,2.691385522484779358e-02,4.587767645716667175e-02,-5.470400210469961166e-03,-4.758178815245628357e-02,-3.296988084912300110e-02,4.576735943555831909e-02,-4.767143353819847107e-02,-6.639820337295532227e-02,4.966969788074493408e-02,1.220673974603414536e-02,8.030518144369125366e-02,5.223354324698448181e-02,-7.994958758354187012e-02,3.731456398963928223e-02,2.936068223789334297e-03,-1.039817929267883301e-03,-9.186112135648727417e-02,-1.435707975178956985e-02,-1.196382194757461548e-02,-7.908242195844650269e-02,-6.054747849702835083e-02,-1.816927269101142883e-02,6.768905371427536011e-02,1.265287119895219803e-02,-5.475878715515136719e-02,-3.909687697887420654e-02,2.747757174074649811e-02,-8.349437266588211060e-03,1.897772960364818573e-02,2.563237585127353668e-02,-3.583562001585960388e-02,3.211226686835289001e-02,-3.507553786039352417e-02,-2.448072098195552826e-02,1.185572296380996704e-01,-2.496239729225635529e-02,-2.240201644599437714e-02,-5.978877469897270203e-02,-3.370022401213645935e-02,-3.590088710188865662e-02,2.674014866352081299e-02,4.977278411388397217e-02,7.810293883085250854e-02,-4.101109504699707031e-02
1.901952549815177917e-03,-1.996176317334175110e-02,1.078861858695745468e-02,9.206664562225341797e-02,6.920874863862991333e-02,-3.373192390426993370e-03,5.252956226468086243e-02,-2.526709437370300293e-02,-2.781478129327297211e-02,-2.849200926721096039e-02,-4.184383898973464966e-03,5.195374134927988052e-03,2.852339111268520355e-02,5.211669206619262695e-02,-4.744937643408775330e-02,3.690975531935691833e-02,1.936185359954833984e-02,4.520611464977264404e-02,3.593857958912849426e-02,8.580350130796432495e-02,-5.964929983019828796e-02,-6.685857474803924561e-02,4.820872470736503601e-02,-1.057867631316184998e-01,-2.473278157413005829e-02,-2.914786897599697113e-02,6.093729753047227859e-03,-5.550434580072760582e-04,-8.867394179105758667e-02,2.239493839442729950e-02,-1.283258665353059769e-02,-2.684186398983001709e-02,4.973308369517326355e-02,-3.783985599875450134e-02,-3.186364471912384033e-02,1.114370534196496010e-03,-6.379593163728713989e-02,-1.740683242678642273e-02,-1.837279275059700012e-02,1.739280484616756439e-02,1.090663820505142212e-01,-6.570120900869369507e-02,-1.101034879684448242e-01,-4.930654540657997131e-02,-2.461597882211208344e-02,7.800318300724029541e-03,3.938713669776916504e-02,1.614031009376049042e-02,2.847259305417537689e-02,6.028457358479499817e-02,-5.495996400713920593e-02,8.756530471146106720e-03,3.123966790735721588e-02,1.281604915857315063e-02,5.758203938603401184e-02,-6.523969024419784546e-02,4.822795465588569641e-02,-1.033610198646783829e-02,-8.473608642816543579e-03,-3.074983134865760803e-02,-6.368554662913084030e-03,3.547976538538932800e-02,3.903718665242195129e-02,5.987644195556640625e-02,-6.428634375333786011e-02,2.294398471713066101e-02,-3.180197998881340027e-02,6.463105324655771255e-03,8.230011910200119019e-03,-6.642536818981170654e-02,-6.926229596138000488e-02,-6.739143282175064087e-02,-8.368482440710067749e-02,7.453611493110656738e-02,2.844292297959327698e-02,-6.742379069328308105e-02,1.094122789800167084e-02,1.421737950295209885e-03,-6.800982635468244553e-03,-8.421178162097930908e-02,-7.017561793327331543e-02,6.240975856781005859e-02,8.456814102828502655e-03,1.792710088193416595e-02,-7.332839816808700562e-02,-1.350906770676374435e-02,-6.605510413646697998e-02,-2.033583074808120728e-02,-5.805157497525215149e-02,-3.106690943241119385e-02,5.296913534402847290e-02,5.185637623071670532e-03,-5.441042408347129822e-02,-3.574663028120994568e-02,-6.720991432666778564e-02,-4.374105855822563171e-02,-6.004558876156806946e-02,-6.707819551229476929e-02,9.845468215644359589e-03,1.133980695158243179e-02
-4.819583147764205933e-02,6.663808971643447876e-02,8.159839361906051636e-02,8.988835848867893219e-03,-6.041411682963371277e-02,-1.415349892340600491e-03,5.444925650954246521e-02,1.060254797339439392e-01,2.548755705356597900e-02,-3.332926332950592041e-02,5.627236887812614441e-02,-3.616162762045860291e-02,-5.898471549153327942e-02,-2.036151848733425140e-02,1.532952208071947098e-02,1.033975090831518173e-02,-3.653621301054954529e-02,1.545114815235137939e-02,1.150133437477052212e-03,-1.734110526740550995e-02,-1.129252091050148010e-02,1.114933267235755920e-01,6.466709822416305542e-02,-9.958584792912006378e-03,1.440769154578447342e-02,-1.741826720535755157e-02,-2.330945990979671478e-02,-3.669226542115211487e-02,3.279668465256690979e-02,-4.939489811658859253e-02,8.309625834226608276e-02,-1.630123704671859741e-02,-2.950815856456756592e-02,-1.948441751301288605e-02,1.399497874081134796e-02,-1.097431182861328125e-01,1.168946083635091782e-02,-3.344696387648582458e-02,-5.868524312973022461e-03,-6.987746804952621460e-03,5.116767808794975281e-02,-7.965591549873352051e-02,-5.809673294425010681e-02,6.600634008646011353e-02,-2.814015746116638184e-02,4.405277222394943237e-02,-5.542281270027160645e-02,3.286609426140785217e-03,3.470772504806518555e-02,-4.620813578367233276e-02,5.012539681047201157e-03,6.144290789961814880e-03,2.130362205207347870e-02,-8.940683305263519287e-02,1.147550996392965317e-02,8.934593643061816692e-04,-7.799329608678817749e-02,-6.658495217561721802e-02,6.907217204570770264e-02,6.580420583486557007e-02,-2.631676010787487030e-02,-6.166500970721244812e-03,2.815189026296138763e-02,4.748355597257614136e-02,-3.457130119204521179e-02,4.737619683146476746e-02,-6.199836265295743942e-03,-1.479193288832902908e-02,5.991051718592643738e-02,-4.698867909610271454e-03,-8.645147830247879028e-02,8.107609301805496216e-02,1.989739201962947845e-02,1.317032147198915482e-02,1.306409537792205811e-01,2.808515541255474091e-02,-6.992254406213760376e-02,-1.614813320338726044e-02,-6.656616926193237305e-02,5.120366439223289490e-02,8.135695010423660278e-03,-8.670787513256072998e-02,-1.762539893388748169e-02,9.921229444444179535e-03,-1.007579360157251358e-02,-1.222235783934593201e-01,-9.574034065008163452e-02,9.858494251966476440e-02,-7.964167743921279907e-02,2.670349180698394775e-02,-4.815655946731567383e-02,-1.289755292236804962e-02,-1.496973913162946701e-02,2.235308848321437836e-02,-5.594612285494804382e-02,-5.515141040086746216e-02,2.721193432807922363e-02,-5.418533459305763245e-03,-7.090874761343002319e-02,-2.796977199614048004e-02
-1.701522059738636017e-02,-4.776605591177940369e-02,1.746295019984245300e-02,-5.304899532347917557e-03,-3.788501024246215820e-02,1.499454118311405182e-02,1.272409595549106598e-02,-4.704136773943901062e-02,-5.113608390092849731e-02,-1.390534546226263046e-02,7.997212931513786316e-03,-6.972856819629669189e-02,-4.405366256833076477e-03,-1.687032729387283325e-02,-2.846558392047882080e-02,-2.492988109588623047e-02,4.569956660270690918e-02,-6.092417240142822266e-02,5.626865848898887634e-02,-4.073116928339004517e-02,-1.088871713727712631e-02,1.046448349952697754e-01,4.489363357424736023e-02,1.157866343855857849e-01,7.495074998587369919e-03,-6.441637128591537476e-02,6.369962543249130249e-02,-9.999780915677547455e-03,-5.832613911479711533e-03,4.310169816017150879e-02,8.266513235867023468e-03,-8.372936397790908813e-02,3.892938420176506042e-02,-1.873309351503849030e-02,1.099678501486778259e-02,-2.601703815162181854e-02,4.641256481409072876e-02,-1.312003936618566513e-02,1.182061899453401566e-02,6.590672582387924194e-02,-4.373027477413415909e-03,3.651312366127967834e-02,-4.194556176662445068e-02,2.552445232868194580e-02,-2.561347559094429016e-02,-1.179721485823392868e-02,-7.582770287990570068e-02,1.316718943417072296e-02,2.834102883934974670e-02,2.309094369411468506e-02,8.831317722797393799e-02,-1.776918582618236542e-02,-5.134464427828788757e-02,3.252161294221878052e-02,-4.856058210134506226e-02,-3.949879109859466553e-02,3.307866677641868591e-02,-1.388987619429826736e-02,-7.887172698974609375e-02,8.682598173618316650e-02,9.253219701349735260e-03,5.675008520483970642e-02,4.761377722024917603e-02,-4.977111145853996277e-02,8.458452671766281128e-02,-3.038415871560573578e-02,1.585487462580204010e-02,1.814956031739711761e-02,-6.097202375531196594e-02,1.158365141600370407e-02,-2.924087643623352051e-02,-8.998622000217437744e-02,2.886742353439331055e-02,4.824019595980644226e-02,7.147517055273056030e-02,1.866856217384338379e-02,-7.089788466691970825e-02,-5.721414089202880859e-02,2.555230632424354553e-02,5.087316781282424927e-02,-5.664351209998130798e-02,-3.656960278749465942e-02,-4.176844283938407898e-02,-9.415413253009319305e-03,1.741909794509410858e-02,4.609088972210884094e-02,-1.248200982809066772e-02,-1.852142252027988434e-02,4.478948935866355896e-02,2.589736320078372955e-02,2.091501466929912567e-02,-5.147233232855796814e-02,-5.500378087162971497e-02,2.037043869495391846e-02,3.837513178586959839e-02,4.190126433968544006e-02,-1.068050786852836609e-02,3.000402264297008514e-02,4.555778950452804565e-02,4.754778929054737091e-03
8.200993388891220093e-02,3.014539182186126709e-02,-4.582920297980308533e-02,3.765909746289253235e-02,6.772685796022415161e-02,-8.091532438993453979e-02,4.404295235872268677e-02,9.392260760068893433e-02,5.493210628628730774e-02,-2.168847434222698212e-02,8.026012778282165527e-02,-1.297663431614637375e-02,-5.496590211987495422e-02,-1.044715009629726410e-02,8.215318620204925537e-02,-1.587730832397937775e-02,2.044258825480937958e-02,-2.749763242900371552e-02,4.465026780962944031e-02,-9.586345404386520386e-02,4.799270257353782654e-02,2.442472986876964569e-02,1.061120163649320602e-02,-1.976294815540313721e-02,-4.680439457297325134e-02,-2.552138827741146088e-02,-3.168990090489387512e-02,-1.055559143424034119e-01,1.841658167541027069e-02,-8.414195850491523743e-03,2.871072851121425629e-02,-1.702977344393730164e-02,4.977878928184509277e-02,-1.970987021923065186e-02,-7.696502655744552612e-02,1.841570250689983368e-02,7.780876941978931427e-03,1.587925665080547333e-02,-1.438667159527540207e-02,-7.369871437549591064e-02,5.050215125083923340e-02,-1.074301972985267639e-01,1.664682291448116302e-02,8.487708121538162231e-02,-4.251710604876279831e-03,-7.276454567909240723e-02,6.599435210227966309e-02,-4.513760097324848175e-03,2.627490088343620300e-03,-8.431001752614974976e-02,-3.950726985931396484e-02,1.003957632929086685e-02,5.051225423812866211e-02,1.595072820782661438e-02,1.824351609684526920e-03,3.593008965253829956e-02,-8.585026860237121582e-02,2.349047549068927765e-02,-1.410873979330062866e-02,2.978164330124855042e-02,-7.793200016021728516e-02,9.010581299662590027e-03,-3.081584535539150238e-02,1.252406276762485504e-02,-8.073097467422485352e-02,-7.903748005628585815e-02,-1.829661487136036158e-04,8.870545029640197754e-02,-5.096715688705444336e-02,3.768958151340484619e-03,-1.536531466990709305e-02,-1.692438311874866486e-02,-3.709011897444725037e-02,-4.381030052900314331e-02,-1.144000422209501266e-02,9.144055843353271484e-02,2.636760240420699120e-03,1.993157528340816498e-02,2.996306121349334717e-02,-1.196972727775573730e-01,-5.947088077664375305e-02,-6.705384701490402222e-03,-9.298883378505706787e-03,-1.847236044704914093e-02,6.226868368685245514e-03,6.548445671796798706e-02,-5.190824344754219055e-02,3.027309477329254150e-02,1.095973979681730270e-02,-9.872701019048690796e-03,-1.307858992367982864e-02,-1.361955851316452026e-01,9.052358567714691162e-03,2.024769410490989685e-02,3.424873203039169312e-02,8.653602749109268188e-02,-3.187806531786918640e-02,-1.485754456371068954e-02,2.537073008716106415e-02,-6.206982210278511047e-02
4.409940168261528015e-02,-6.173260137438774109e-02,5.779401212930679321e-02,7.718650996685028076e-02,-6.161319836974143982e-02,-3.789202868938446045e-02,2.815062366425991058e-02,6.279148906469345093e-02,4.199193045496940613e-02,-1.153179164975881577e-02,-7.113035768270492554e-02,-3.052372299134731293e-02,-2.340166084468364716e-02,3.775573894381523132e-02,-6.311096996068954468e-02,-1.232028298545628786e-04,1.637417078018188477e-02,4.859085381031036377e-02,-1.327960938215255737e-02,1.473637204617261887e-02,2.967776916921138763e-02,3.326377365738153458e-03,-2.281340025365352631e-02,-6.503553595393896103e-03,2.465719357132911682e-02,2.478893101215362549e-02,3.329869732260704041e-02,-3.953484818339347839e-02,1.691457442939281464e-02,1.564972102642059326e-02,2.913054544478654861e-03,-5.418417975306510925e-02,-1.517138350754976273e-02,-9.522933512926101685e-02,5.495608970522880554e-02,7.573169656097888947e-03,4.601259715855121613e-03,6.546407938003540039e-02,-2.303690463304519653e-02,4.340578243136405945e-02,-2.370151132345199585e-02,4.937282577157020569e-02,-3.566202893853187561e-02,4.660184308886528015e-02,-4.438009858131408691e-02,6.141657382249832153e-02,-5.426032468676567078e-02,2.398079633712768555e-02,2.687123231589794159e-02,8.809775859117507935e-02,-7.743877917528152466e-02,3.301249307696707547e-05,-3.434471040964126587e-02,1.206987630575895309e-02,4.602875094860792160e-03,-2.731674909591674805e-02,3.198210522532463074e-02,-3.331095352768898010e-02,1.668830215930938721e-02,9.785095602273941040e-02,2.016608975827693939e-02,1.728386618196964264e-02,-2.993919886648654938e-02,-5.994915589690208435e-02,6.457665469497442245e-03,4.128837212920188904e-02,3.118425374850630760e-03,-5.724669620394706726e-02,8.557883650064468384e-02,2.812149189412593842e-02,1.464353222399950027e-02,5.778366327285766602e-02,9.789666160941123962e-03,-8.236254798248410225e-04,5.747484043240547180e-02,2.237875759601593018e-02,5.832059308886528015e-02,-7.323231548070907593e-02,1.444417517632246017e-02,7.130930665880441666e-03,8.495668880641460419e-03,8.496791124343872070e-02,6.414140015840530396e-02,8.105542510747909546e-02,4.542976245284080505e-02,7.120787352323532104e-02,-2.028939314186573029e-02,6.487541645765304565e-02,-2.947968803346157074e-02,6.115714088082313538e-03,-4.738949984312057495e-02,4.012073948979377747e-02,6.796758621931076050e-02,-4.487947747111320496e-02,-6.091852113604545593e-02,-5.303211137652397156e-02,-3.419592976570129395e-02,5.982511118054389954e-02,-2.683657454326748848e-03,3.459620056673884392e-03
2.795994281768798828e-02,-3.609629347920417786e-02,-6.139612197875976562e-02,-6.940042227506637573e-02,4.330569133162498474e-02,7.789903134107589722e-02,1.209321394562721252e-01,-3.182201832532882690e-02,-3.321846947073936462e-02,-9.918155521154403687e-02,-2.236695028841495514e-02,-3.890072554349899292e-02,-4.212619364261627197e-02,2.324027940630912781e-03,1.053613796830177307e-01,-6.604159623384475708e-02,-3.691473603248596191e-02,3.459451347589492798e-02,-3.483682498335838318e-02,2.931184880435466766e-02,-4.791880771517753601e-02,1.664953492581844330e-02,-3.742168471217155457e-02,3.841538727283477783e-02,4.062004387378692627e-02,1.077459678053855896e-01,-4.280338808894157410e-02,-2.747799502685666084e-03,-1.714468561112880707e-02,-1.965801930055022240e-03,4.153707996010780334e-02,-3.561408445239067078e-02,2.076077461242675781e-02,-6.000515818595886230e-02,1.171006113290786743e-01,-6.997120380401611328e-02,-3.078126348555088043e-02,-6.029397994279861450e-02,1.156616210937500000e-02,-2.257668040692806244e-02,-4.703614488244056702e-02,4.058215767145156860e-02,2.627043426036834717e-02,-1.736509613692760468e-02,-1.688720844686031342e-02,1.813971251249313354e-02,1.934917829930782318e-02,7.080990821123123169e-02,3.562094643712043762e-02,-7.355265319347381592e-02,1.036190893501043320e-02,-2.529141865670681000e-02,-2.472551912069320679e-02,-1.987705938518047333e-02,1.452212035655975342e-02,-4.276822879910469055e-02,3.566905483603477478e-02,2.277940325438976288e-02,-1.012033149600028992e-01,1.845444366335868835e-02,7.962241023778915405e-02,5.969324707984924316e-02,8.225593715906143188e-02,4.983174055814743042e-02,2.806052938103675842e-02,-1.220027264207601547e-02,-4.392109438776969910e-02,8.017891645431518555e-02,3.628636524081230164e-02,-1.010194327682256699e-02,5.686515569686889648e-02,6.063428521156311035e-02,1.771811768412590027e-02,-1.146826427429914474e-02,-3.595621511340141296e-02,-8.227998018264770508e-02,6.227177008986473083e-02,-2.051435038447380066e-02,-7.091619819402694702e-02,-8.137141913175582886e-02,6.760703865438699722e-03,5.489491391927003860e-03,-1.281526219099760056e-02,2.103843353688716888e-02,-6.977526098489761353e-02,-2.192938141524791718e-02,-6.636893749237060547e-02,-5.297943949699401855e-02,-1.779752038419246674e-02,-1.071980744600296021e-01,5.318165570497512817e-02,-2.186148427426815033e-02,5.068668723106384277e-02,-3.321356326341629028e-02,-5.620254948735237122e-02,-3.101132251322269440e-02,-6.582521647214889526e-02,8.541312068700790405e-02,8.959020674228668213e-02,5.487933382391929626e-02
1.104550883173942566e-01,-4.205311089754104614e-02,-6.013030558824539185e-02,2.163652703166007996e-02,-1.388926990330219269e-02,-2.728092670440673828e-02,-7.170372642576694489e-03,-1.345253735780715942e-02,4.914961382746696472e-02,3.399080364033579826e-03,7.161448150873184204e-02,7.224493473768234253e-02,-4.059830307960510254e-02,3.936587274074554443e-02,2.042598091065883636e-02,-4.420295357704162598e-03,4.499753937125205994e-02,7.346282247453927994e-03,6.159657239913940430e-02,5.813603755086660385e-03,4.807573277503252029e-03,8.949577808380126953e-02,6.773976236581802368e-02,-2.332285046577453613e-03,-5.378182511776685715e-03,2.584377303719520569e-02,-2.861892990767955780e-02,-1.520547736436128616e-02,-6.230741273611783981e-03,-9.674921631813049316e-03,-4.346452280879020691e-02,-2.965043857693672180e-02,-3.006217256188392639e-02,-6.885118782520294189e-03,1.523331459611654282e-02,-4.624407365918159485e-02,9.284497052431106567e-02,-1.564495824277400970e-02,-1.586936973035335541e-02,-1.343424525111913681e-02,4.077206179499626160e-02,-1.812104694545269012e-02,7.195138186216354370e-02,-4.761787876486778259e-02,3.997813165187835693e-02,2.190300961956381798e-03,1.758088171482086182e-02,2.264099195599555969e-02,8.517580479383468628e-02,4.135420545935630798e-02,-7.696691900491714478e-03,4.815975576639175415e-02,-1.569556258618831635e-02,3.178130462765693665e-02,6.665062159299850464e-02,-8.298309892416000366e-02,1.421020179986953735e-02,9.129789657890796661e-03,-1.955005340278148651e-02,1.943840645253658295e-02,-6.870989501476287842e-02,4.742230102419853210e-02,-5.183812603354454041e-02,-3.974013030529022217e-02,4.320538416504859924e-02,-1.944886706769466400e-02,-3.864995017647743225e-02,-7.819644175469875336e-03,-1.257689017802476883e-02,-5.561813339591026306e-02,-3.714936552569270134e-03,-4.029447678476572037e-03,-3.611264750361442566e-03,1.625744067132472992e-02,3.084183298051357269e-02,5.856082960963249207e-02,-3.880202770233154297e-02,2.814316749572753906e-02,1.301120501011610031e-02,4.264394566416740417e-02,-8.001881837844848633e-02,-3.029203787446022034e-02,5.908232554793357849e-02,4.777553305029869080e-02,1.010698825120925903e-01,7.411014288663864136e-02,4.134047403931617737e-02,-7.407089322805404663e-02,-5.254969000816345215e-02,8.701971732079982758e-03,6.862131413072347641e-03,9.991576522588729858e-02,3.885988518595695496e-02,2.637160383164882660e-02,-1.182022690773010254e-01,-8.104582666419446468e-04,-5.759492982178926468e-03,3.865999728441238403e-02,2.170810662209987640e-02,2.084125764667987823e-03
1.069063544273376465e-01,-2.000739984214305878e-02,7.991750538349151611e-02,-6.856943015009164810e-03,-1.708153518848121166e-03,-1.321922428905963898e-02,1.812224462628364563e-02,3.215220570564270020e-02,2.110639959573745728e-02,7.253864407539367676e-02,-5.951651558279991150e-02,-7.073283195495605469e-03,-3.805781155824661255e-02,-6.196420267224311829e-02,1.034645959734916687e-01,4.037578031420707703e-02,4.888925328850746155e-02,1.101549807935953140e-02,3.961031138896942139e-02,-9.471545368432998657e-02,-4.921703785657882690e-02,3.995929658412933350e-02,3.684074059128761292e-02,8.830802887678146362e-02,1.401304360479116440e-02,7.864388078451156616e-02,-2.165145426988601685e-02,1.389791350811719894e-02,-3.607645630836486816e-03,4.336875304579734802e-02,6.347008049488067627e-02,-1.655791513621807098e-02,-7.504996657371520996e-02,-2.701841108500957489e-02,6.988810002803802490e-02,9.012091904878616333e-02,5.621472746133804321e-02,7.123455405235290527e-02,1.815499179065227509e-02,3.426535427570343018e-02,-7.120453566312789917e-02,-9.532404690980911255e-02,4.768970236182212830e-02,7.522360980510711670e-02,1.414402108639478683e-02,-7.612755056470632553e-03,-7.884704321622848511e-02,-1.717339269816875458e-02,3.850493580102920532e-02,9.841748327016830444e-02,6.731676310300827026e-02,-2.006887830793857574e-02,7.111178338527679443e-02,-3.463969752192497253e-02,2.117855474352836609e-02,1.042655706405639648e-01,-7.132088392972946167e-02,1.551836729049682617e-02,4.827004298567771912e-02,-3.015266917645931244e-02,-4.212672635912895203e-02,2.180063910782337189e-02,-3.382460400462150574e-02,9.688355773687362671e-02,-7.658442109823226929e-02,-3.510968387126922607e-02,-2.786717377603054047e-02,-1.385130640119314194e-02,1.421949267387390137e-01,-6.584746297448873520e-03,-4.533233866095542908e-02,4.058798030018806458e-02,-2.428369410336017609e-02,4.724771156907081604e-02,-6.319402903318405151e-02,8.507152646780014038e-02,-9.171032346785068512e-03,-5.967459827661514282e-02,-1.537732221186161041e-02,-3.529041633009910583e-02,-5.504172667860984802e-02,5.269478075206279755e-03,-4.813365638256072998e-02,1.554775866679847240e-03,-8.403374254703521729e-02,-3.508019819855690002e-02,-6.223015859723091125e-02,-1.191987171769142151e-01,6.578301638364791870e-02,3.296738862991333008e-02,1.020131539553403854e-02,6.515222787857055664e-02,2.014516294002532959e-02,-4.426413029432296753e-02,-4.767814651131629944e-02,1.863653771579265594e-02,4.712640866637229919e-02,-3.435873612761497498e-02,-4.709928855299949646e-02,6.308159232139587402e-02
8.190786093473434448e-02,-3.572287783026695251e-02,-8.824113011360168457e-02,6.685107946395874023e-02,-2.419976703822612762e-02,6.292832642793655396e-02,-5.196491628885269165e-02,4.750053863972425461e-03,-2.498017856851220131e-03,6.998176872730255127e-02,3.571409033611416817e-03,3.030016459524631500e-02,9.512115269899368286e-02,6.388036906719207764e-02,1.061789020895957947e-01,2.125186286866664886e-02,9.163352660834789276e-03,-4.572086036205291748e-02,8.238886296749114990e-02,-4.616253543645143509e-03,3.134776279330253601e-02,4.766521975398063660e-02,3.252649307250976562e-02,-1.863416843116283417e-02,5.360392387956380844e-04,-6.509409099817276001e-02,2.543116221204400063e-03,-7.895669341087341309e-02,-4.077228531241416931e-02,1.025218591094017029e-01,1.072253808379173279e-01,1.839464157819747925e-02,3.217451274394989014e-02,3.445497900247573853e-02,-1.981735043227672577e-02,3.041114471852779388e-02,2.029328607022762299e-02,3.675574436783790588e-02,2.223758772015571594e-02,1.309475004673004150e-01,1.894840598106384277e-02,-4.747914522886276245e-02,4.034212604165077209e-02,5.203223973512649536e-02,-8.606541901826858521e-02,-8.295967429876327515e-02,-8.385829627513885498e-02,5.248398706316947937e-02,-5.322121456265449524e-02,-1.057394891977310181e-01,6.554982811212539673e-02,-3.304732963442802429e-02,-1.935950480401515961e-02,3.457553312182426453e-02,5.042744334787130356e-03,5.222178250551223755e-02,-4.381818696856498718e-02,7.588283717632293701e-02,5.459865927696228027e-02,-6.569580733776092529e-02,-8.855815976858139038e-02,-7.970473170280456543e-02,-3.861015662550926208e-02,-2.460070420056581497e-03,9.914408437907695770e-03,1.622240431606769562e-02,-8.234006911516189575e-02,1.523828506469726562e-02,2.155992947518825531e-02,-8.027066476643085480e-03,2.424124069511890411e-02,-6.355398148298263550e-02,6.345531344413757324e-02,-7.888372242450714111e-02,-5.096299573779106140e-03,-8.831782266497612000e-03,-4.265213012695312500e-02,-7.543977349996566772e-03,1.072745323181152344e-01,7.387413829565048218e-02,4.390477761626243591e-02,3.918807953596115112e-02,8.744213730096817017e-02,4.067210108041763306e-02,-5.430733039975166321e-02,9.851641021668910980e-03,1.812219433486461639e-02,-3.043150343000888824e-02,2.287466265261173248e-02,-3.080320917069911957e-02,5.354983359575271606e-02,4.720846563577651978e-02,6.890191137790679932e-02,-1.621268689632415771e-03,8.051425218582153320e-03,-3.806038200855255127e-02,1.372016407549381256e-02,-2.945276908576488495e-02,4.514474421739578247e-02,1.452151127159595490e-02
1.359544415026903152e-02,-2.709753811359405518e-02,-5.832958221435546875e-02,1.753780245780944824e-02,-5.116413161158561707e-02,1.114687323570251465e-01,3.202521055936813354e-02,8.587636053562164307e-02,-7.936987280845642090e-02,4.161257669329643250e-02,-6.358816474676132202e-02,4.876036196947097778e-02,2.614456228911876678e-02,-3.875796450302004814e-03,2.430486679077148438e-02,7.861159741878509521e-02,-1.002660673111677170e-02,4.379965737462043762e-02,-3.505330905318260193e-02,1.427663024514913559e-02,-2.295886725187301636e-02,5.504636839032173157e-02,4.776911437511444092e-02,2.281602099537849426e-02,3.586339205503463745e-02,6.165516003966331482e-02,2.301565371453762054e-02,5.473782308399677277e-03,-7.026680558919906616e-02,-2.704252861440181732e-02,1.090657431632280350e-02,-8.919843286275863647e-02,5.485254223458468914e-05,-1.093151122331619263e-01,-1.034203916788101196e-01,4.905371367931365967e-02,5.606777220964431763e-02,-3.276244923472404480e-02,-2.322516590356826782e-02,9.705352038145065308e-02,-2.689138427376747131e-02,-6.164200976490974426e-02,-6.057155877351760864e-02,-6.360638141632080078e-02,6.014603655785322189e-03,3.769075870513916016e-02,-8.048158138990402222e-02,-3.341718344017863274e-03,5.082492157816886902e-02,1.204234268516302109e-02,-3.355000168085098267e-02,-4.347825597506016493e-04,1.045056805014610291e-01,3.493819385766983032e-02,8.350987732410430908e-02,2.085180580615997314e-02,-3.465078771114349365e-02,2.353436686098575592e-02,-5.878509953618049622e-02,5.860868841409683228e-02,2.106632851064205170e-02,-7.035825401544570923e-02,1.848783530294895172e-02,1.668975204229354858e-01,6.304188817739486694e-02,-6.075331941246986389e-03,6.951786577701568604e-02,-9.518744051456451416e-02,1.224441900849342346e-01,-5.541300773620605469e-02,2.521323226392269135e-02,-2.900451235473155975e-02,-5.120174214243888855e-02,4.032840952277183533e-02,-5.026230961084365845e-02,-2.223252132534980774e-02,1.241729594767093658e-02,2.095484547317028046e-02,1.302874833345413208e-02,9.768329560756683350e-03,2.285281894728541374e-03,-2.321518026292324066e-02,3.492553532123565674e-02,-7.230119407176971436e-02,7.421558350324630737e-02,-5.332195758819580078e-02,-8.965321630239486694e-02,2.453876100480556488e-02,9.716968238353729248e-02,-4.821036010980606079e-02,1.282036956399679184e-02,1.775916898623108864e-03,4.908111318945884705e-02,4.676794633269309998e-02,2.538406290113925934e-03,-4.882468655705451965e-02,-3.963904455304145813e-02,-5.451799184083938599e-02,2.850405313074588776e-02,7.888936251401901245e-02
2.026731334626674652e-02,1.834642142057418823e-02,1.211563348770141602e-01,3.407568437978625298e-03,-1.151113882660865784e-01,-6.223916634917259216e-02,8.060709387063980103e-02,3.017384745180606842e-02,1.077808514237403870e-01,3.957535326480865479e-02,-2.244295738637447357e-02,1.063433382660150528e-02,6.802502274513244629e-02,2.367823198437690735e-02,3.493214026093482971e-02,3.172227367758750916e-02,-2.813376719132065773e-03,5.228928476572036743e-02,-2.834669779986143112e-03,-5.869206786155700684e-02,-1.894163154065608978e-02,-1.962087862193584442e-02,-6.558086723089218140e-02,1.341491099447011948e-02,-7.255324721336364746e-02,-5.378774926066398621e-02,7.244719564914703369e-02,-4.392895102500915527e-02,5.432319641113281250e-02,-1.067262515425682068e-01,-3.629655018448829651e-02,-1.085917577147483826e-01,-4.245276749134063721e-02,-3.499212488532066345e-02,-5.937990173697471619e-02,7.738349586725234985e-02,9.693817049264907837e-02,-1.284729107283055782e-03,9.949952363967895508e-03,5.274483188986778259e-02,-3.840727731585502625e-02,-6.488587707281112671e-02,-1.081659086048603058e-02,2.568260766565799713e-02,-3.753514261916279793e-03,-5.413499474525451660e-02,4.233298078179359436e-02,-7.622137665748596191e-03,-1.112777041271328926e-03,-4.546840488910675049e-02,3.536213561892509460e-02,-1.612631790339946747e-02,-2.526364661753177643e-02,4.606234654784202576e-02,-1.799071393907070160e-02,-1.376934349536895752e-01,-4.102447256445884705e-02,7.405896671116352081e-03,7.012067735195159912e-02,2.922342158854007721e-02,-2.873390913009643555e-02,3.261844813823699951e-02,2.101004309952259064e-02,-7.801894098520278931e-02,2.301606349647045135e-02,6.804125756025314331e-02,1.076107611879706383e-03,-6.180281564593315125e-02,-3.135576471686363220e-02,4.495237767696380615e-02,4.852876008953899145e-04,4.237791523337364197e-02,1.610593125224113464e-02,1.169816823676228523e-04,9.539812803268432617e-02,-1.100403293967247009e-01,-3.402636572718620300e-02,-1.238643657416105270e-02,8.763414621353149414e-02,-9.442058391869068146e-03,1.640679687261581421e-02,2.715725637972354889e-02,-1.301088370382785797e-02,4.441710934042930603e-02,5.644949898123741150e-02,1.986594870686531067e-02,-4.973226785659790039e-02,1.331476867198944092e-01,-4.360121116042137146e-02,3.111213259398937225e-02,6.055163685232400894e-03,5.622524023056030273e-02,-2.037183847278356552e-03,-2.105257287621498108e-02,-9.498084895312786102e-03,1.064994484186172485e-01,-1.892801374197006226e-03,2.696377411484718323e-02,3.710513934493064880e-02,7.361266016960144043e-02
2.749900892376899719e-02,3.413577005267143250e-02,-7.522110641002655029e-02,-9.675247967243194580e-02,-9.596349298954010010e-02,7.450983673334121704e-02,-7.310157269239425659e-02,-1.534950453788042068e-02,3.037764690816402435e-02,-6.700427085161209106e-02,4.483035206794738770e-02,-1.220272295176982880e-02,-6.037998199462890625e-02,-4.527376219630241394e-02,8.292248845100402832e-02,2.947565913200378418e-02,-7.938534766435623169e-02,2.266815118491649628e-02,3.683086112141609192e-02,6.532621383666992188e-02,-8.192681521177291870e-02,1.398959755897521973e-02,7.112228311598300934e-03,1.521894242614507675e-02,-6.563372444361448288e-03,7.215435151010751724e-03,4.515707865357398987e-02,-2.242259867489337921e-02,3.491525771096348763e-03,-6.440151482820510864e-02,4.690050706267356873e-02,7.693431805819272995e-03,-7.509689033031463623e-02,2.043992467224597931e-02,6.006578449159860611e-03,5.974093452095985413e-03,3.032632730901241302e-02,6.184827163815498352e-02,3.080559149384498596e-02,5.854934081435203552e-02,8.059061132371425629e-03,1.035273633897304535e-02,-1.476528029888868332e-02,3.916954249143600464e-02,1.255482286214828491e-01,-4.217476770281791687e-02,8.315023034811019897e-02,-1.501953043043613434e-02,2.357974834740161896e-02,3.029916621744632721e-02,2.784225717186927795e-02,-2.682502940297126770e-02,-2.900545252487063408e-03,4.318855330348014832e-02,-8.375201374292373657e-03,-4.194863140583038330e-02,-5.576289817690849304e-02,8.359193056821823120e-02,-3.561921045184135437e-02,2.329672453925013542e-03,9.067471325397491455e-02,-4.966498538851737976e-02,2.720311656594276428e-02,-3.903353353962302208e-03,3.321771696209907532e-02,-1.807419955730438232e-02,2.216249704360961914e-02,-3.870680183172225952e-02,4.487321525812149048e-02,2.292408794164657593e-02,4.214524757117033005e-03,-1.279657036066055298e-01,-3.836658596992492676e-02,9.171538800001144409e-02,3.859283868223428726e-03,6.546079367399215698e-02,1.374347414821386337e-02,9.466870874166488647e-02,-3.498413041234016418e-02,1.052999421954154968e-01,-4.289063438773155212e-02,6.068338640034198761e-03,4.241759330034255981e-02,9.669490903615951538e-02,9.238215535879135132e-02,-5.779115483164787292e-02,-1.340310461819171906e-02,4.288282245397567749e-02,-3.771978244185447693e-02,2.394852926954627037e-03,-7.911924272775650024e-02,-7.399549335241317749e-02,1.200471888296306133e-03,-2.724954299628734589e-02,-5.742366984486579895e-02,2.597138285636901855e-02,-5.516411736607551575e-02,6.537795811891555786e-02,7.504419237375259399e-02,2.503875456750392914e-02
6.426613032817840576e-02,1.399912964552640915e-02,2.878086268901824951e-02,7.392574846744537354e-02,2.993290126323699951e-02,-1.380138006061315536e-02,-7.394469529390335083e-02,1.521443855017423630e-02,-6.489658355712890625e-02,5.447620153427124023e-02,-2.983100153505802155e-02,9.402494877576828003e-02,5.167688056826591492e-02,-3.139895573258399963e-02,-2.847855351865291595e-02,5.675581097602844238e-02,4.157667979598045349e-02,5.221796454861760139e-04,-2.170444838702678680e-02,5.731011182069778442e-02,-6.739857792854309082e-02,6.010351702570915222e-02,-4.176067933440208435e-02,-7.126878947019577026e-02,2.896936051547527313e-02,2.329719625413417816e-02,-1.835037767887115479e-02,-5.185094196349382401e-03,5.486916378140449524e-02,8.034129440784454346e-02,2.512988820672035217e-02,-1.130246371030807495e-02,-6.330244359560310841e-04,1.187034398317337036e-01,-6.314253062009811401e-02,-4.538425430655479431e-02,8.342705667018890381e-03,-4.036958888173103333e-02,-5.413937196135520935e-02,-3.439829451963305473e-03,2.650975622236728668e-02,-3.663304075598716736e-02,-2.261021919548511505e-02,8.923363871872425079e-03,-2.449329709634184837e-03,-5.563519150018692017e-02,5.212453659623861313e-03,-2.968400530517101288e-02,1.247927284566685557e-04,-1.185861509293317795e-02,-7.381860166788101196e-03,-5.271734669804573059e-02,-9.540799260139465332e-02,9.880592674016952515e-02,-6.973737478256225586e-02,-6.654114276170730591e-02,2.255498990416526794e-02,4.387545213103294373e-02,-5.539332702755928040e-02,-1.825021766126155853e-02,4.708176478743553162e-03,-7.483183592557907104e-02,-9.643069654703140259e-02,-3.588203713297843933e-02,3.122730925679206848e-02,-7.984762638807296753e-02,1.117455512285232544e-01,-1.050550341606140137e-01,-6.537440419197082520e-02,-8.974809944629669189e-02,1.790644787251949310e-02,-6.074338778853416443e-02,-6.463730242103338242e-03,9.065947681665420532e-02,-4.585398361086845398e-02,3.285970538854598999e-02,3.367616981267929077e-02,-5.874621868133544922e-02,-1.926817558705806732e-02,-4.561509191989898682e-02,-5.600723903626203537e-03,-6.564062088727951050e-02,-2.152228169143199921e-02,6.060290336608886719e-02,1.138669624924659729e-02,-6.807555258274078369e-02,1.157710608094930649e-02,7.579138875007629395e-02,1.295727025717496872e-02,8.731433004140853882e-02,1.618946407688781619e-04,-2.448382414877414703e-02,-8.244588226079940796e-02,-5.775569751858711243e-02,4.517065361142158508e-02,-1.875914819538593292e-02,1.633588969707489014e-02,-7.466701418161392212e-02,2.300668694078922272e-02,1.368872970342636108e-01
-3.068734705448150635e-02,8.368863910436630249e-02,-6.194359157234430313e-03,3.053804673254489899e-02,2.522241510450839996e-02,-2.135731652379035950e-02,-1.474686316214501858e-03,1.004098076373338699e-02,2.039328031241893768e-02,1.636624708771705627e-02,-2.463597804307937622e-02,9.966921061277389526e-02,9.112939238548278809e-03,8.178826421499252319e-02,-7.313502579927444458e-02,3.063201718032360077e-02,5.751138553023338318e-03,-6.669751834124326706e-03,-1.106967926025390625e-01,-7.270596455782651901e-03,1.631143735721707344e-03,5.326093360781669617e-02,3.136898158118128777e-03,-2.776886895298957825e-02,-5.207374691963195801e-02,-2.816195599734783173e-02,1.249344553798437119e-02,6.146601587533950806e-02,-1.036942657083272934e-02,-2.548392117023468018e-02,-3.010358288884162903e-02,-7.569757103919982910e-02,4.199326783418655396e-02,6.469569634646177292e-03,-5.652584950439631939e-04,3.253293456509709358e-03,-3.323007375001907349e-02,-3.226558212190866470e-03,-3.062519431114196777e-02,5.247856490314006805e-03,-5.944352224469184875e-02,-9.343511611223220825e-02,7.019964605569839478e-02,1.470410823822021484e-02,-7.835393399000167847e-02,4.473203420639038086e-02,3.899746760725975037e-02,-2.809716202318668365e-02,-9.757771156728267670e-03,-2.471697889268398285e-02,-1.828967221081256866e-02,1.829701289534568787e-02,9.275639802217483521e-02,1.198637951165437698e-02,-7.872333377599716187e-02,2.188397757709026337e-02,-3.250346705317497253e-02,-3.145075216889381409e-02,8.403798192739486694e-02,-6.239769607782363892e-02,5.489417817443609238e-03,-8.860304369591176510e-04,5.369138717651367188e-02,-1.161966286599636078e-02,-5.925327539443969727e-02,3.439562860876321793e-03,3.440208360552787781e-02,1.128899771720170975e-02,-3.387013077735900879e-02,2.514902129769325256e-02,-6.596834398806095123e-03,-1.241842564195394516e-02,2.334960550069808960e-02,-2.084460482001304626e-02,-5.191234499216079712e-02,-2.045406587421894073e-02,1.826705783605575562e-01,8.870821446180343628e-02,1.738798245787620544e-02,-5.699638649821281433e-02,7.427494972944259644e-02,8.183305710554122925e-02,6.221014261245727539e-02,1.350618805736303329e-02,8.836795575916767120e-03,-7.333842106163501740e-03,7.350759208202362061e-02,-1.852384069934487343e-03,1.032582893967628479e-01,4.907939583063125610e-03,-1.064212806522846222e-02,7.262439932674169540e-03,-3.623569011688232422e-02,3.624802082777023315e-02,-3.780686110258102417e-02,2.128490805625915527e-02,-1.235377695411443710e-02,6.236384063959121704e-02,-4.116920381784439087e-02,3.477386012673377991e-02
3.313393518328666687e-02,-1.027907989919185638e-02,6.739841401576995850e-02,6.205881386995315552e-02,5.204260814934968948e-03,2.151613496243953705e-02,5.159591510891914368e-02,4.486465454101562500e-02,-8.508656173944473267e-02,1.667151972651481628e-02,-1.055578608065843582e-02,4.222125187516212463e-02,3.475647792220115662e-02,-3.837980702519416809e-02,-1.505858004093170166e-01,4.037204012274742126e-02,-2.214670740067958832e-02,-2.557270042598247528e-02,-1.426267344504594803e-02,-1.800888590514659882e-02,-4.947026818990707397e-02,5.586452037096023560e-02,2.755592577159404755e-02,1.650124229490756989e-02,-3.759283944964408875e-02,-8.134334348142147064e-03,-1.747608184814453125e-02,-8.156978338956832886e-02,-4.837940633296966553e-02,-1.009015664458274841e-01,-2.291581593453884125e-02,-9.321939945220947266e-02,8.269494771957397461e-02,3.121455386281013489e-02,-1.170037407428026199e-02,-5.062575265765190125e-02,1.225737296044826508e-02,7.512007839977741241e-03,3.340224549174308777e-02,4.480862244963645935e-02,1.087321192026138306e-01,-2.100098319351673126e-02,-5.246582254767417908e-02,-3.696106374263763428e-02,-2.032245509326457977e-02,-2.154975384473800659e-02,1.544295437633991241e-02,-7.648833841085433960e-02,7.767810951918363571e-03,-2.675795368850231171e-02,-3.390948101878166199e-02,-1.514743119478225708e-01,8.372540026903152466e-02,-1.624238304793834686e-02,-4.088157042860984802e-02,3.893258050084114075e-02,-6.575047224760055542e-02,1.208516862243413925e-02,2.408490050584077835e-03,-3.766399575397372246e-03,3.429693402722477913e-03,-3.517743200063705444e-02,-3.966322541236877441e-02,-3.631876036524772644e-02,-3.318480029702186584e-02,8.480754494667053223e-02,-2.236288599669933319e-02,-1.708137430250644684e-02,4.331248626112937927e-02,-5.269812420010566711e-02,3.050014935433864594e-02,-3.003885783255100250e-02,2.503821067512035370e-02,2.768223360180854797e-02,-1.654390071053057909e-04,6.316640973091125488e-02,1.534971594810485840e-02,-6.704413145780563354e-02,1.228615641593933105e-02,-2.636348083615303040e-02,-2.284526638686656952e-02,2.341078827157616615e-03,-3.491028025746345520e-02,-1.274556387215852737e-02,9.213186800479888916e-02,-9.227864444255828857e-03,-6.827303767204284668e-02,-5.462423712015151978e-02,1.503103994764387608e-03,-4.900303669273853302e-03,-1.199991069734096527e-02,-2.665265230461955070e-03,-8.017719537019729614e-02,-1.004663631319999695e-01,-4.052690789103507996e-02,-1.133812218904495239e-02,-1.136748399585485458e-02,-1.875560730695724487e-02,8.704958111047744751e-02,3.269184671808034182e-04
