6.352372933179140091e-03,-3.456973936408758163e-03,2.333759795874357224e-03,-2.234546244144439697e-01,3.407614538446068764e-03,-1.360872527584433556e-03,-9.757759980857372284e-03,1.304902974516153336e-02,-8.402465842664241791e-03,-2.695792727172374725e-02,-1.521029770374298096e-01,-1.089609880000352859e-02,-2.193346060812473297e-02,-8.127142190933227539e-01,-1.759718917310237885e-02,1.478443015366792679e-02,1.369800069369375706e-03,-3.017498645931482315e-03,-7.417242228984832764e-02,-2.994273789227008820e-03,-1.510306447744369507e-02,-3.360574245452880859e-01,-3.997199237346649170e-03,9.905461920425295830e-04,-1.552897319197654724e-02,-1.458022713661193848e+00,-6.574114784598350525e-03,-2.407782245427370071e-03,3.772418131120502949e-04,3.464844077825546265e-03,5.493681412190198898e-03,-1.121916808187961578e-02,2.274313271045684814e-01,1.351026073098182678e-02,1.107032969594001770e-02,1.101498678326606750e-02,7.406302727758884430e-03,-2.865500282496213913e-03,4.815542697906494141e-02,1.486484557390213013e-01,2.181343734264373779e-03,-8.260565809905529022e-03,8.061277866363525391e-01,1.679165288805961609e-02,4.719900898635387421e-03,2.434281166642904282e-03,-1.043054508045315742e-03,7.560867071151733398e-02,3.136924467980861664e-03,8.186189457774162292e-03,3.387682735919952393e-01,7.067000493407249451e-03,1.029065996408462524e-02,-7.224156521260738373e-03,1.470602393150329590e+00,1.392045337706804276e-02,-9.658141061663627625e-03,3.285923972725868225e-03,8.512169122695922852e-03,1.201623119413852692e-02
-1.261851936578750610e-01,-1.159725859761238098e-01,-7.301732897758483887e-02,-6.453187763690948486e-02,3.688773140311241150e-02,1.089020147919654846e-01,1.417458504438400269e-01,2.495475113391876221e-01,2.872724831104278564e-01,3.035044372081756592e-01,1.651683300733566284e-01,-1.145827546715736389e-01,-2.259721010923385620e-01,-3.144991099834442139e-01,-2.792995572090148926e-01,-1.104348301887512207e-01,1.766522377729415894e-01,2.621767818927764893e-01,1.516700834035873413e-01,-4.797167703509330750e-02,-2.072039842605590820e-01,-3.140309154987335205e-01,-4.343527257442474365e-01,-2.688147127628326416e-01,-1.104338765144348145e-01,1.997050344944000244e-01,2.487205713987350464e-01,3.748185336589813232e-01,3.401850163936614990e-01,2.151577621698379517e-01,1.090958490967750549e-01,1.219735667109489441e-01,7.502659410238265991e-02,1.035541594028472900e-01,-2.913067676126956940e-02,-7.035471498966217041e-02,-1.011524870991706848e-01,-2.055213153362274170e-01,-1.224383190274238586e-01,-7.925353199243545532e-02,1.600221544504165649e-01,1.614737063646316528e-01,1.978826075792312622e-01,1.906596422195434570e-01,2.894035354256629944e-02,-4.787891730666160583e-02,-1.406987756490707397e-01,-5.855037271976470947e-02,3.125785887241363525e-01,-1.148461252450942993e-01,1.500624120235443115e-01,2.880202829837799072e-01,3.007584810256958008e-01,-4.047293588519096375e-02,1.178387179970741272e-01,3.433395549654960632e-02,-1.406857520341873169e-01,4.951785877346992493e-02,-9.718254953622817993e-02,-1.585850715637207031e-01
-2.035809122025966644e-02,1.692455410957336426e-01,-1.822125017642974854e-01,1.649827137589454651e-02,1.107430644333362579e-02,9.048664011061191559e-03,-1.297975797206163406e-02,-3.728253766894340515e-02,-3.366170451045036316e-02,1.758017241954803467e-01,-1.757772713899612427e-01,-3.705484420061111450e-02,5.101445317268371582e-02,-2.234835410490632057e-03,-4.352470487356185913e-02,2.930007316172122955e-02,2.642440376803278923e-04,-2.709414996206760406e-02,6.857246905565261841e-02,-2.079797536134719849e-01,5.745561718940734863e-01,-4.884212911128997803e-01,-1.418117582798004150e-01,1.060215309262275696e-01,-4.888521879911422729e-02,-2.690984494984149933e-02,2.580697275698184967e-02,3.146526636555790901e-03,-3.119030408561229706e-02,3.164466843008995056e-02,6.708990037441253662e-02,1.045264303684234619e-01,1.036675423383712769e-01,-8.877199888229370117e-02,-2.078021690249443054e-02,-5.579258780926465988e-03,-1.365828886628150940e-02,6.665438413619995117e-02,6.972080469131469727e-02,1.296302974224090576e-01,1.613719016313552856e-01,1.048001181334257126e-02,4.130233079195022583e-03,-6.284843385219573975e-02,-8.846093714237213135e-02,-8.455041050910949707e-02,1.047019939869642258e-02,6.210640445351600647e-02,1.659663766622543335e-01,1.130940616130828857e-01,1.573242247104644775e-01,-6.914038676768541336e-03,4.685347154736518860e-02,-3.519478067755699158e-02,-1.294645364396274090e-03,-8.318059146404266357e-02,-7.915201038122177124e-02,-7.211634516716003418e-02,-7.578249275684356689e-02,-3.494729474186897278e-02
-6.261089816689491272e-03,-4.394737072288990021e-03,1.015449780970811844e-02,-6.477284710854291916e-03,-5.221644416451454163e-03,-4.051924049854278564e-01,-1.710544340312480927e-02,-1.608435273170471191e+00,1.930544269271194935e-03,1.206675078719854355e-03,3.974977298639714718e-04,-2.906597219407558441e-03,-6.824777461588382721e-03,-1.753514707088470459e-01,-1.116739353165030479e-03,-8.407836407423019409e-02,3.932932391762733459e-03,-8.360132575035095215e-03,-4.806914832442998886e-03,1.480292878113687038e-03,-1.489698737859725952e-01,-6.222273805178701878e-05,3.715596685651689768e-04,-5.414534825831651688e-04,-2.495494438335299492e-03,5.639654118567705154e-03,-6.587445270270109177e-03,-7.825331687927246094e-01,-3.573394380509853363e-03,-1.554393093101680279e-03,2.917044097557663918e-03,1.933174091391265392e-03,2.498932881280779839e-03,-3.802303690463304520e-03,4.032644033432006836e-01,-1.600579917430877686e-02,1.599820971488952637e+00,1.368366833776235580e-02,-2.104068174958229065e-03,7.916501723229885101e-03,9.402254945598542690e-04,4.327205941081047058e-03,1.672999113798141479e-01,-7.750316988676786423e-03,9.086832404136657715e-02,-8.935777586884796619e-04,1.147581450641155243e-02,-9.776090737432241440e-04,1.134943217039108276e-02,1.556050479412078857e-01,1.056730980053544044e-03,-6.953653413802385330e-03,1.489538606256246567e-02,5.449938587844371796e-03,-8.633180521428585052e-03,-3.992140758782625198e-03,7.787578105926513672e-01,-3.573951078578829765e-03,3.370973281562328339e-03,3.054015105590224266e-03
1.063224896788597107e-01,7.114338129758834839e-02,5.567448679357767105e-04,-4.071584716439247131e-02,-1.790309101343154907e-01,-1.832426637411117554e-01,-1.338683664798736572e-01,1.854673773050308228e-02,1.339635848999023438e-01,2.678711116313934326e-01,2.928382754325866699e-01,3.208376169204711914e-01,3.499799668788909912e-01,3.074420690536499023e-01,2.677730023860931396e-01,2.064333707094192505e-01,1.073977537453174591e-02,-1.645363569259643555e-01,-1.736507564783096313e-01,-1.402539461851119995e-01,-7.731834799051284790e-02,-8.147952705621719360e-02,-1.232194751501083374e-01,-1.187010407447814941e-01,-8.089966326951980591e-02,-1.609288528561592102e-02,3.443395718932151794e-02,-9.629155974835157394e-04,5.366206634789705276e-03,-1.725150458514690399e-02,6.048210710287094116e-02,8.153373003005981445e-02,3.003304265439510345e-02,9.739214181900024414e-02,9.721764177083969116e-02,-2.121927402913570404e-02,1.040672790259122849e-02,1.152285002171993256e-02,-2.357473783195018768e-02,-1.952202990651130676e-02,7.669208105653524399e-03,-5.965035408735275269e-02,-3.445499017834663391e-02,-1.027643829584121704e-01,-1.012383624911308289e-01,1.021938864141702652e-02,1.418468728661537170e-02,-2.890807809308171272e-03,8.132034540176391602e-02,1.117183342576026917e-01,1.391994953155517578e-01,9.145274013280868530e-02,1.156440377235412598e-01,1.096744015812873840e-01,7.436113804578781128e-02,3.560963645577430725e-02,7.816418260335922241e-02,5.659212544560432434e-02,-2.138741873204708099e-02,6.301128771156072617e-03
5.236949305981397629e-03,-1.605349965393543243e-02,-1.844025403261184692e-02,-1.023863330483436584e-01,-1.006846316158771515e-02,6.665525026619434357e-03,-3.206766908988356590e-03,7.388392928987741470e-03,-1.229935325682163239e-02,-6.530705839395523071e-03,-2.289636246860027313e-02,-1.701851963996887207e+00,3.130595432594418526e-03,-8.018853142857551575e-03,-1.058623939752578735e-01,-2.107787579298019409e-01,-1.695622317492961884e-02,3.652429732028394938e-04,-1.092620193958282471e-02,-4.338671267032623291e-01,6.577190477401018143e-03,-9.421978611499071121e-04,-4.828466102480888367e-03,-5.158855020999908447e-02,4.863272421061992645e-03,-8.467904262943193316e-05,1.778002083301544189e-02,-3.492848947644233704e-03,-8.957663178443908691e-01,-1.126802433282136917e-02,-1.474148686975240707e-02,2.201204001903533936e-02,1.054133772850036621e-01,1.021153386682271957e-02,-2.727870887611061335e-04,-7.301314733922481537e-03,-2.615054836496710777e-03,-9.566891938447952271e-03,-1.903253793716430664e-02,1.025486830621957779e-02,1.692097425460815430e+00,1.999811641871929169e-02,2.573100291192531586e-02,9.534598141908645630e-02,2.167019248008728027e-01,-2.177542448043823242e-02,3.280118107795715332e-03,1.375788240693509579e-03,4.380602836608886719e-01,-8.196764974854886532e-04,-4.367808345705270767e-03,2.124461717903614044e-02,5.338219180703163147e-02,-1.177179720252752304e-02,2.484038122929632664e-04,-1.486434880644083023e-02,-1.648554950952529907e-02,8.617828488349914551e-01,4.758837167173624039e-03,5.956876091659069061e-03
-4.504007752984762192e-03,-7.637370377779006958e-03,-1.290954798460006714e-01,-1.520663034170866013e-02,-3.746604081243276596e-03,1.006064005196094513e-03,-1.253473460674285889e-01,-3.427469357848167419e-02,-1.601953983306884766e+00,-7.696272805333137512e-03,-2.758852904662489891e-03,-9.849411435425281525e-03,8.952531497925519943e-04,-1.403268310241401196e-03,-1.204459276050329208e-02,-2.332160621881484985e-01,2.430076245218515396e-03,-5.027306266129016876e-03,3.388095647096633911e-03,1.079457928426563740e-03,2.651081187650561333e-03,-1.159950252622365952e-02,-2.942903339862823486e-02,-5.338759422302246094e-01,-1.973149925470352173e-02,-5.834404230117797852e-01,-3.701727837324142456e-04,-9.353207424283027649e-03,-3.071887651458382607e-03,1.172770280390977859e-03,-6.357025355100631714e-03,1.284814924001693726e-01,2.218748908489942551e-03,6.467243656516075134e-03,-1.168817933648824692e-02,1.390185505151748657e-01,1.616811752319335938e-02,1.577603816986083984e+00,2.905830740928649902e-02,-5.421332083642482758e-03,-1.333513297140598297e-03,2.223790623247623444e-03,-1.905267592519521713e-03,2.648799214512109756e-03,2.312113046646118164e-01,-6.023025140166282654e-03,-5.077893380075693130e-03,-6.026241462677717209e-03,2.072226069867610931e-02,-2.720169024541974068e-03,1.545684412121772766e-02,-3.150533419102430344e-03,5.054730176925659180e-01,-3.437510924413800240e-03,5.565310716629028320e-01,7.644898723810911179e-03,6.413431372493505478e-03,-1.074257772415876389e-02,-2.954219467937946320e-03,2.076141070574522018e-03
2.511753439903259277e-01,-6.530661582946777344e-01,5.614634752273559570e-01,-3.337339162826538086e-01,-1.539935022592544556e-01,2.925099432468414307e-01,-1.888376325368881226e-01,-9.809862077236175537e-02,4.652108624577522278e-02,1.156153343617916107e-02,-4.306685179471969604e-03,-2.952406369149684906e-02,4.706261307001113892e-02,-5.095192790031433105e-02,6.088062748312950134e-02,-5.402822420001029968e-02,5.627576727420091629e-03,2.375415153801441193e-02,-5.781637132167816162e-02,-1.524100545793771744e-02,1.248149722814559937e-01,-1.042445898056030273e-01,-1.353757549077272415e-02,6.769114732742309570e-02,-7.291298359632492065e-02,2.781268581748008728e-02,6.507364567369222641e-03,5.423597991466522217e-02,-3.032073937356472015e-02,2.751625142991542816e-02,2.699679732322692871e-01,3.099611997604370117e-01,3.106644190847873688e-02,2.061816304922103882e-01,-2.403516322374343872e-02,9.308742359280586243e-03,1.272637099027633667e-01,8.065363019704818726e-02,2.577886730432510376e-02,-2.283764444291591644e-02,-5.067374184727668762e-02,-1.286888681352138519e-02,-2.942568622529506683e-02,-6.559004634618759155e-02,-5.666781589388847351e-02,1.031509041786193848e-02,2.678771875798702240e-02,5.631529539823532104e-02,9.611339867115020752e-02,2.080338075757026672e-02,3.933756053447723389e-02,2.624330297112464905e-02,9.046275168657302856e-02,5.311259627342224121e-02,4.339919984340667725e-02,-4.695222899317741394e-02,-4.038661345839500427e-02,-8.161213994026184082e-02,-6.379278004169464111e-02,-1.369047909975051880e-02
-9.537735953927040100e-03,-9.105385281145572662e-03,6.807952653616666794e-03,-1.214447664096951485e-03,2.455055480822920799e-03,-1.207125466316938400e-02,-3.853610455989837646e-01,-1.274435082450509071e-03,-1.191179850138723850e-03,-8.315575122833251953e-01,1.958603737875819206e-03,2.193034859374165535e-03,1.262106699869036674e-03,-3.382015507668256760e-03,-1.978005021810531616e-01,7.058937568217515945e-03,3.845502855256199837e-03,-1.074065640568733215e-01,-2.101827645674347878e-03,-7.380055729299783707e-03,-1.197530981153249741e-02,-2.254819124937057495e-02,8.895592764019966125e-03,-1.929629594087600708e-02,4.298168234527111053e-03,3.667284967377781868e-03,-6.100157741457223892e-03,-8.605763316154479980e-03,-1.609829440712928772e-02,-1.671024918556213379e+00,1.917619071900844574e-02,-4.628888797014951706e-03,3.394511062651872635e-03,2.902831882238388062e-03,1.092555746436119080e-02,3.919429481029510498e-01,-7.736106053926050663e-04,5.043279379606246948e-03,8.158991336822509766e-01,1.282474957406520844e-03,2.354514086619019508e-03,-1.823496771976351738e-03,-3.888687118887901306e-03,2.042680829763412476e-01,-7.237647194415330887e-03,-5.416374187916517258e-03,1.098496913909912109e-01,-4.934262949973344803e-03,5.161090753972530365e-03,3.641584888100624084e-03,3.413283079862594604e-02,-8.164506289176642895e-04,-4.009513577329926193e-05,8.520732633769512177e-03,-1.058417465537786484e-02,5.524373613297939301e-03,1.059649884700775146e-02,-1.331657404080033302e-04,1.673511147499084473e+00,1.869991421699523926e-02
-3.613831102848052979e-01,-4.915511906147003174e-01,-3.890379965305328369e-01,-2.079154253005981445e-01,-1.288880109786987305e-01,1.218898221850395203e-02,5.179248005151748657e-02,7.074735313653945923e-02,5.924803391098976135e-02,5.117407441139221191e-02,4.308085888624191284e-02,1.017687562853097916e-02,-2.071373537182807922e-02,-1.935391873121261597e-02,-4.399652779102325439e-02,-7.039841264486312866e-02,-1.678881496191024780e-01,-2.442416548728942871e-01,-1.593954265117645264e-01,1.429640874266624451e-02,1.206932812929153442e-01,1.545591950416564941e-01,2.641949057579040527e-01,3.079062402248382568e-01,2.896006405353546143e-01,2.011288106441497803e-01,2.277580499649047852e-01,1.546319127082824707e-01,9.450294077396392822e-02,4.587713629007339478e-02,2.140386551618576050e-01,1.690725088119506836e-01,1.528999302536249161e-03,1.032617762684822083e-01,4.179690405726432800e-02,-6.358773261308670044e-02,5.969201400876045227e-02,8.276571333408355713e-02,4.227323457598686218e-02,2.100792713463306427e-02,6.276172399520874023e-02,5.518568307161331177e-02,-2.870611613616347313e-03,-2.646163338795304298e-03,2.797818370163440704e-02,5.228801071643829346e-02,7.305847853422164917e-02,1.631408557295799255e-02,-4.763177409768104553e-02,1.276616007089614868e-01,3.020756691694259644e-02,-5.280686542391777039e-03,-3.000473417341709137e-02,-1.047384180128574371e-02,2.646975044626742601e-04,-5.723951756954193115e-02,-3.002528473734855652e-02,-2.689317241311073303e-02,2.005797997117042542e-02,-1.259966753423213959e-03
8.117858087643980980e-04,-2.924700379371643066e-01,-9.259692393243312836e-03,-2.414530515670776367e-02,-1.853162884712219238e+00,-6.923410110175609589e-03,-3.934165928512811661e-03,4.329152288846671581e-04,1.954090548679232597e-03,-8.256987668573856354e-03,-1.398584097623825073e-01,8.878247812390327454e-03,3.511526621878147125e-03,5.611104425042867661e-03,-1.606217026710510254e-02,-6.504456512629985809e-03,-8.789985179901123047e-01,-7.045163307338953018e-03,-9.160595363937318325e-04,-4.486985038965940475e-03,-1.744195222854614258e-01,-1.619043061509728432e-03,-6.128312554210424423e-03,6.287721451371908188e-03,-7.687607314437627792e-03,-2.579355379566550255e-03,3.755740588530898094e-03,-4.281683862209320068e-01,-1.332494523376226425e-02,-1.010913122445344925e-02,3.182154297828674316e-01,8.817184716463088989e-03,1.578455325216054916e-03,1.848922848701477051e+00,1.738703437149524689e-02,-6.904490757733583450e-03,5.532061215490102768e-03,1.071980874985456467e-02,1.172857824712991714e-02,1.546798497438430786e-01,-6.693498580716550350e-04,-8.272931911051273346e-03,1.503106672316789627e-03,2.833392098546028137e-02,2.422054996713995934e-03,8.629702329635620117e-01,1.599189452826976776e-02,-2.432206645607948303e-03,1.483084447681903839e-02,1.753208339214324951e-01,1.879235357046127319e-02,-1.349603570997714996e-02,9.326355066150426865e-04,1.299245003610849380e-02,-2.044556662440299988e-03,-6.509377621114253998e-03,4.382074773311614990e-01,2.092389203608036041e-02,-3.650200320407748222e-03,2.253011567518115044e-03
-5.173990875482559204e-02,7.098358124494552612e-02,-3.228525444865226746e-02,-1.802178565412759781e-03,3.103268519043922424e-02,4.368160665035247803e-02,-1.705309026874601841e-03,3.944272920489311218e-02,5.125236138701438904e-02,2.777173370122909546e-02,7.444900274276733398e-02,6.306508183479309082e-02,7.064623385667800903e-02,5.614002048969268799e-02,9.049209952354431152e-02,-9.091028012335300446e-03,-2.844564057886600494e-02,-8.252739906311035156e-02,-1.169687509536743164e-02,-8.182700723409652710e-02,-9.927301853895187378e-02,-3.181622549891471863e-02,-5.607083067297935486e-02,-5.030543729662895203e-02,-9.842574596405029297e-02,-1.946918899193406105e-03,-4.498821869492530823e-02,-3.640517592430114746e-02,-2.180422469973564148e-02,-4.249336570501327515e-02,3.094238638877868652e-01,3.780367970466613770e-01,2.837685644626617432e-01,1.369497030973434448e-01,-1.427306383848190308e-01,-1.979626715183258057e-01,-2.686452269554138184e-01,-1.240122765302658081e-01,-1.273964941501617432e-01,-1.190771013498306274e-01,-1.213116347789764404e-01,-1.394653171300888062e-01,-1.319488286972045898e-01,-1.470676809549331665e-01,-1.557102799415588379e-01,-1.078375130891799927e-01,-5.585846677422523499e-02,6.387935485690832138e-03,8.836588263511657715e-02,1.058217957615852356e-01,2.080906182527542114e-01,1.738862544298171997e-01,1.431823223829269409e-01,2.478528469800949097e-01,2.499271780252456665e-01,2.602630555629730225e-01,2.787992060184478760e-01,2.442049980163574219e-01,1.759743988513946533e-01,5.104166641831398010e-02
-5.058588087558746338e-02,-3.323093522340059280e-03,5.731581524014472961e-02,1.015341132879257202e-01,1.800475716590881348e-01,2.258335649967193604e-01,8.513751626014709473e-02,-5.296760052442550659e-02,-2.917256951332092285e-01,-4.228998124599456787e-01,-3.183102905750274658e-01,-1.506564468145370483e-01,2.282011136412620544e-02,2.193293720483779907e-01,3.269003033638000488e-01,3.846038281917572021e-01,3.966174125671386719e-01,3.038651347160339355e-01,2.205239981412887573e-01,8.954223245382308960e-03,-5.724952369928359985e-02,-8.837949484586715698e-02,-3.597787767648696899e-02,-4.698655009269714355e-02,-1.477973908185958862e-02,2.932408824563026428e-03,-9.398750029504299164e-03,3.536962345242500305e-02,7.298707216978073120e-02,-1.118331868201494217e-02,4.098296537995338440e-02,5.712454393506050110e-02,5.908736959099769592e-02,4.041683673858642578e-02,-9.290998429059982300e-02,6.203985773026943207e-03,4.243345558643341064e-02,1.938710510730743408e-01,2.117243707180023193e-01,1.093154996633529663e-01,7.325243949890136719e-02,3.052300959825515747e-02,-3.036946803331375122e-02,-1.000177338719367981e-01,-1.136587485671043396e-01,-3.349595889449119568e-02,-8.236562833189964294e-03,-2.861233651638031006e-01,7.565657049417495728e-02,1.413895338773727417e-01,-3.958933800458908081e-02,9.183967858552932739e-02,9.305199235677719116e-02,3.242947533726692200e-02,7.613688707351684570e-02,1.048979088664054871e-01,6.067693233489990234e-02,3.262207144871354103e-03,6.900438666343688965e-02,7.375390082597732544e-02
1.358651667833328247e-01,2.479689717292785645e-01,3.273299932479858398e-01,3.344971537590026855e-01,3.588907718658447266e-01,3.846700191497802734e-01,3.156196773052215576e-01,1.996118128299713135e-01,1.577951461076736450e-01,9.176671504974365234e-02,8.412103354930877686e-02,5.870535224676132202e-02,-3.315147757530212402e-02,-1.084633469581604004e-01,-1.668688356876373291e-01,-1.982694417238235474e-01,-2.654562890529632568e-01,-3.653405606746673584e-01,-2.762255668640136719e-01,-1.296517848968505859e-01,-3.309467807412147522e-02,2.176840044558048248e-02,2.762378938496112823e-02,1.665161922574043274e-02,-2.456197049468755722e-03,-7.035089284181594849e-02,-9.134471416473388672e-02,-9.473197162151336670e-02,-3.143848106265068054e-02,-4.060319438576698303e-02,-2.851879596710205078e-02,-6.103719398379325867e-02,4.175642132759094238e-02,-3.366470336914062500e-02,-1.102657988667488098e-01,-7.890831679105758667e-02,-3.360716253519058228e-02,3.862647339701652527e-02,3.187824785709381104e-02,9.281971491873264313e-03,1.153586152940988541e-02,2.692265249788761139e-02,3.684989735484123230e-02,1.338232774287462234e-02,3.125790134072303772e-02,3.942706063389778137e-02,3.539273887872695923e-02,1.290015429258346558e-01,7.018469274044036865e-02,5.948543921113014221e-02,1.522587537765502930e-01,3.973770141601562500e-02,2.681865170598030090e-02,5.620747804641723633e-02,8.925918489694595337e-02,8.049204945564270020e-02,6.362315267324447632e-02,-1.215116120874881744e-02,4.260551929473876953e-02,5.623857956379652023e-03
2.239564433693885803e-03,-1.419823989272117615e-02,-6.641346029937267303e-03,-9.471477940678596497e-03,-2.967894775792956352e-03,-4.249209910631179810e-02,-1.946624368429183960e-02,-1.375136431306600571e-02,-1.127482950687408447e-02,-8.384021930396556854e-03,-2.284678220748901367e-01,-2.228280715644359589e-02,-1.245050907135009766e+00,-4.598246421664953232e-03,-1.155715733766555786e-01,-1.754312403500080109e-02,-2.932747360318899155e-03,-5.383627489209175110e-02,-4.771907627582550049e-01,-1.362894382327795029e-02,-5.671941675245761871e-03,4.940630402415990829e-03,-1.465390902012586594e-02,-3.588750660419464111e-01,-1.038474678993225098e+00,-1.088810060173273087e-02,-5.414021201431751251e-03,-8.389757014811038971e-03,-3.555075032636523247e-03,1.490154827479273081e-04,4.533720668405294418e-03,7.538828533142805099e-03,-5.554671864956617355e-03,-3.333432134240865707e-03,4.131652042269706726e-02,1.656445674598217010e-03,4.573293495923280716e-03,3.355187131091952324e-03,1.619020104408264160e-02,2.054881006479263306e-01,8.509973064064979553e-03,1.247149586677551270e+00,6.084117107093334198e-03,1.149858608841896057e-01,1.153686642646789551e-02,5.896757356822490692e-03,3.990602493286132812e-02,4.712966382503509521e-01,2.759698545560240746e-04,-2.277569612488150597e-03,6.057563587091863155e-05,-1.506490726023912430e-02,3.562154173851013184e-01,1.035778880119323730e+00,6.529201287776231766e-03,6.625091657042503357e-03,7.569456938654184341e-04,-1.091396901756525040e-02,-4.272430669516324997e-04,7.852599956095218658e-03
-3.084290958940982819e-02,-3.596337139606475830e-02,-2.109616994857788086e-02,-4.074735939502716064e-02,-2.358427084982395172e-02,-7.734547252766788006e-04,-5.899180192500352859e-03,-3.605373203754425049e-03,-1.435504853725433350e-02,-3.065685555338859558e-02,-2.018037810921669006e-02,-1.912777498364448547e-02,-2.763940207660198212e-02,3.015013784170150757e-02,1.427745968103408813e-01,1.555990427732467651e-01,3.274185359477996826e-01,-1.388513803482055664e+00,-2.203419655561447144e-01,-8.438016474246978760e-02,-8.093714714050292969e-02,-1.676570437848567963e-02,-5.003852024674415588e-02,-8.055442944169044495e-03,-1.029835175722837448e-02,2.091360278427600861e-02,-1.385909132659435272e-02,-6.067932769656181335e-02,-9.672130458056926727e-03,-5.118568893522024155e-03,3.039042931050062180e-03,7.245663553476333618e-02,9.733390063047409058e-02,9.202612936496734619e-02,2.865125425159931183e-02,1.046693045645952225e-02,3.200381621718406677e-02,9.948792308568954468e-02,5.482489243149757385e-02,4.435799643397331238e-02,1.007792949676513672e-01,1.354814469814300537e-01,1.140617430210113525e-01,3.381834179162979126e-02,-7.000276446342468262e-02,-2.529505491256713867e-01,-6.908246278762817383e-01,7.500014901161193848e-01,5.482260584831237793e-01,3.879119753837585449e-01,1.817059814929962158e-01,1.784232258796691895e-01,7.385555654764175415e-02,5.102801322937011719e-02,1.203537266701459885e-02,-6.738532334566116333e-03,4.950416460633277893e-02,6.493695080280303955e-02,4.485435783863067627e-02,-1.299250312149524689e-02
-6.051756814122200012e-02,5.682425945997238159e-02,-1.440469920635223389e-02,4.105027299374341965e-03,7.526767440140247345e-03,2.307361224666237831e-03,-1.005689240992069244e-02,-3.257880359888076782e-02,5.470463540405035019e-03,3.992160782217979431e-02,2.032091375440359116e-03,8.787242695689201355e-03,1.498169079422950745e-02,4.730734974145889282e-03,-7.313835667446255684e-04,-3.005936928093433380e-02,-3.337577357888221741e-02,2.599378116428852081e-02,3.258130252361297607e-01,4.708752036094665527e-01,5.300599932670593262e-01,-7.552928924560546875e-01,-1.633420884609222412e-01,-1.164353415369987488e-01,-9.654632955789566040e-02,-5.634570866823196411e-02,-2.464974857866764069e-02,-2.189471013844013214e-02,-6.441264599561691284e-02,-2.500456944108009338e-02,7.096734642982482910e-02,-6.685934495180845261e-03,8.468565344810485840e-02,8.429679088294506073e-03,-9.673313237726688385e-03,2.890242496505379677e-03,3.709020465612411499e-02,7.057186216115951538e-02,7.084412127733230591e-02,5.622672289609909058e-02,3.598835691809654236e-02,5.947757139801979065e-02,1.343356631696224213e-02,-1.679788576439023018e-03,-1.155758369714021683e-02,6.803418044000864029e-03,1.334072928875684738e-02,-1.693822070956230164e-02,-2.081766277551651001e-01,-5.361323356628417969e-01,-1.878507971763610840e+00,5.695992708206176758e-01,3.172475397586822510e-01,2.751356065273284912e-01,2.185489386320114136e-01,1.238109841942787170e-01,5.628880485892295837e-02,2.955057471990585327e-02,1.002715378999710083e-01,3.515695407986640930e-02
1.382911205291748047e-01,1.228147223591804504e-01,1.227491069585084915e-02,2.100527584552764893e-01,1.663058996200561523e-02,-1.473777741193771362e-01,6.975383311510086060e-02,1.425080001354217529e-01,1.826248466968536377e-01,-1.443748921155929565e-02,1.344039738178253174e-01,1.541760414838790894e-01,4.100126679986715317e-03,6.111009046435356140e-02,1.328060477972030640e-01,-1.265620142221450806e-01,-1.180895566940307617e-01,7.992833107709884644e-02,2.275535166263580322e-01,6.561804562807083130e-02,2.103521376848220825e-01,9.190940298140048981e-03,2.403219640254974365e-01,5.909191444516181946e-02,1.417727470397949219e-01,3.422299325466156006e-01,1.372236479073762894e-02,-1.420145928859710693e-01,2.827776968479156494e-01,1.911130696535110474e-01,-1.686188876628875732e-01,2.971656024456024170e-01,2.140824310481548309e-02,-1.703937649726867676e-01,1.018901690840721130e-01,1.232920959591865540e-01,-3.149450123310089111e-01,-3.344628727063536644e-03,1.792851649224758148e-02,1.585924476385116577e-01,-1.734197884798049927e-01,4.375109076499938965e-02,1.241303309798240662e-01,-2.915982715785503387e-02,-3.278191015124320984e-02,-3.311744425445795059e-03,1.152028068900108337e-01,-3.820784091949462891e-01,1.966634690761566162e-01,4.265674948692321777e-01,-2.652170956134796143e-01,1.131203677505254745e-02,6.965322792530059814e-02,1.341366767883300781e-01,-6.385972350835800171e-02,-2.541750483214855194e-02,8.971802890300750732e-02,2.548972368240356445e-01,-3.073870241641998291e-01,9.386607445776462555e-03
-7.209637761116027832e-02,2.742382138967514038e-02,-3.281173110008239746e-02,7.796907797455787659e-03,-1.243000850081443787e-02,2.367351204156875610e-02,1.307313423603773117e-02,9.934543631970882416e-04,4.260764643549919128e-02,-1.872199214994907379e-02,4.238945990800857544e-02,-3.214613068848848343e-03,-2.781219594180583954e-02,3.645247546955943108e-03,4.241464287042617798e-02,-2.799703367054462433e-02,-1.764331012964248657e-01,7.388675212860107422e-02,-1.694249063730239868e-01,1.400121394544839859e-02,-2.198891341686248779e-01,1.389869451522827148e-01,-1.987217925488948822e-02,-5.656572058796882629e-02,4.112367704510688782e-02,1.543652825057506561e-02,6.007238849997520447e-02,6.846456974744796753e-02,2.040122449398040771e-02,1.785479672253131866e-02,2.881773561239242554e-02,-3.615572303533554077e-02,-5.673291161656379700e-02,-4.469365254044532776e-02,-6.502738595008850098e-02,-6.309421360492706299e-02,-1.973419077694416046e-02,5.012879893183708191e-02,8.412869274616241455e-02,1.061087399721145630e-01,6.093872338533401489e-02,3.761301189661026001e-02,-9.295774623751640320e-03,-9.622254967689514160e-02,-9.839107096195220947e-02,3.393360599875450134e-02,2.180147767066955566e-01,4.749297499656677246e-01,4.867351055145263672e-01,4.459100961685180664e-01,5.212312340736389160e-01,2.935519814491271973e-01,8.038419485092163086e-02,1.548924576491117477e-02,-9.827523678541183472e-02,-1.630404591560363770e-01,-1.825187206268310547e-01,-2.147035896778106689e-01,-1.661464869976043701e-01,-5.399307981133460999e-02
1.541320118121802807e-03,-6.300645763985812664e-04,-1.010697931051254272e-01,-3.870633244514465332e-01,9.269647300243377686e-03,1.208163681440055370e-03,-1.755050383508205414e-02,1.723935565678402781e-04,5.464198533445596695e-03,9.842230938374996185e-03,4.496491048485040665e-03,4.071577917784452438e-03,-2.209510421380400658e-03,-1.882136985659599304e-02,-1.383233666419982910e-01,-4.171062726527452469e-03,-2.017992883920669556e-01,-1.548672281205654144e-02,1.509268302470445633e-03,3.794716205447912216e-03,-1.658609509468078613e-02,-2.279315330088138580e-02,-1.660866498947143555e+00,-8.507667109370231628e-03,-8.635281585156917572e-03,-1.312133576720952988e-02,-8.103289604187011719e-01,-6.661024875938892365e-03,7.643885328434407711e-04,-9.380319970659911633e-04,2.063772408291697502e-03,1.141292527318000793e-01,3.808238208293914795e-01,2.980737714096903801e-03,1.449816115200519562e-02,1.385494507849216461e-02,5.586804822087287903e-03,-1.974109560251235962e-02,5.129036027938127518e-03,1.921636983752250671e-03,-1.097230240702629089e-02,-1.535395253449678421e-02,2.357050962746143341e-02,1.346986889839172363e-01,-1.478317845612764359e-02,2.021119892597198486e-01,1.733110100030899048e-02,1.738017774187028408e-03,-8.641300955787301064e-04,1.762065477669239044e-02,-1.168714184314012527e-02,1.638987779617309570e+00,8.431991562247276306e-03,-4.381673876196146011e-03,3.333549713715910912e-03,8.039476871490478516e-01,1.665922813117504120e-02,1.806245651096105576e-03,-9.529561735689640045e-03,-3.804819425567984581e-03
