-3.082809448242187500e-01,8.722726702690124512e-01,5.916932225227355957e-01,1.903623715043067932e-02,-8.016583323478698730e-01,3.364571630954742432e-01,2.865469455718994141e-01,-1.577462553977966309e-01,1.318636629730463028e-02,6.343289613723754883e-01,7.279587984085083008e-01,-1.025766849517822266e+00,5.008147954940795898e-01,8.913367390632629395e-01,-6.687802076339721680e-01,-2.481861859560012817e-01,-6.496835947036743164e-01,9.496064186096191406e-01,2.213044017553329468e-01,6.343407034873962402e-01,1.084216982126235962e-01,2.121801376342773438e-01,-2.216567397117614746e-01,-8.801550865173339844e-01,9.434375166893005371e-02,-4.555850625038146973e-01,1.863175928592681885e-01,-9.796507656574249268e-02,-1.076037436723709106e-01,7.370391394942998886e-04,3.083889484405517578e-01,-7.516998052597045898e-02,3.528864085674285889e-01,2.559765577316284180e-01,-1.260126948356628418e+00,7.419746369123458862e-02,3.833215534687042236e-01,6.229347586631774902e-01,4.745952412486076355e-02,1.384216547012329102e-01,1.003691315650939941e+00,-1.229607984423637390e-01,2.979422211647033691e-01,-3.149668872356414795e-01,3.114399611949920654e-01,1.020229458808898926e+00,-4.374679327011108398e-01,5.822992324829101562e-01,2.219012081623077393e-01,8.665218353271484375e-01,4.019259810447692871e-01,4.099536240100860596e-01,1.547583937644958496e-01,-3.628356158733367920e-01,-2.379483878612518311e-01,-8.889099955558776855e-02,-2.658222056925296783e-02,-1.293525993824005127e-01,-1.282160431146621704e-01,8.786677122116088867e-01,-3.821491301059722900e-01,7.251325249671936035e-01,-2.077476829290390015e-01,-2.450520992279052734e-01,3.880372345447540283e-01,7.757971882820129395e-01,-2.010141760110855103e-01,-1.188352704048156738e-01,4.401801526546478271e-02,-8.886476606130599976e-02,-1.263350397348403931e-01,-1.720325648784637451e-02,1.551398187875747681e-01,2.449262440204620361e-01,-5.532223582267761230e-01,-5.825765803456306458e-02,2.497058957815170288e-01,2.535907626152038574e-01,4.936268031597137451e-01,8.180676400661468506e-02,-6.438616514205932617e-01,-3.440577685832977295e-01,4.969112575054168701e-01,-3.529080748558044434e-01,-3.653066456317901611e-01,1.093488931655883789e+00,-9.367179870605468750e-01,-5.069606304168701172e-01,6.656888127326965332e-01,-3.380251824855804443e-01,7.267352938652038574e-01,1.802889406681060791e-01,-2.020351886749267578e-01,-3.652288317680358887e-01,1.606591492891311646e-01,-3.127667903900146484e-01,9.597810506820678711e-01,2.925100028514862061e-01,-5.162796974182128906e-01,5.671691149473190308e-02,2.867629528045654297e-01,6.669754385948181152e-01,-4.653803110122680664e-01,-4.234018325805664062e-01,-2.151079326868057251e-01,-6.790469586849212646e-02,-3.318524360656738281e-01,1.288429796695709229e-01,-8.026352524757385254e-02,-1.900442093610763550e-01,-7.989700883626937866e-02,3.070331513881683350e-01,-1.407500058412551880e-01,-7.639224529266357422e-01,-2.082853764295578003e-01,6.848943233489990234e-02,-9.470845013856887817e-02,1.425317674875259399e-01,7.888482511043548584e-02,-1.519958139397203922e-03,-1.310888826847076416e-01,1.013996824622154236e-01,-1.855687946081161499e-01,-1.468865275382995605e-01,2.394570112228393555e-01,-6.468461453914642334e-02,-4.450599849224090576e-01,5.265877842903137207e-01,-6.009408831596374512e-01,-1.305716782808303833e-01,3.857991844415664673e-02,2.699185907840728760e-01,2.400608211755752563e-01,4.752704873681068420e-02,8.375702798366546631e-02,7.509130984544754028e-02,-5.336034893989562988e-01,1.040868908166885376e-01,-1.589010506868362427e-01,5.782112479209899902e-01,-2.995898425579071045e-01,5.633391439914703369e-02,-2.969147264957427979e-01,1.443075835704803467e-01,-1.196661591529846191e-01,-8.298004269599914551e-01,-3.664565086364746094e-01,6.628388166427612305e-01,4.994924366474151611e-02,-2.849206626415252686e-01,-4.725028574466705322e-02,2.997207045555114746e-01,-4.930171072483062744e-01,1.874008774757385254e-01,5.936205983161926270e-01,-2.906680107116699219e-01,-7.491289973258972168e-01,-1.154482841491699219e+00,3.247631490230560303e-01,4.986120462417602539e-01,-6.742710620164871216e-02,1.995240300893783569e-01,9.393779039382934570e-01,3.663189709186553955e-01,-3.211740255355834961e-01,2.648941874504089355e-01,-3.348607122898101807e-01,6.857456266880035400e-02,-1.278033375740051270e+00,3.411502242088317871e-01,1.623613983392715454e-01,4.206920415163040161e-02,-9.141003489494323730e-01,-4.743437469005584717e-01,1.385522037744522095e-01,-1.027508735656738281e+00,6.826789975166320801e-01,5.903649330139160156e-01,-3.586067259311676025e-02,2.435660213232040405e-01,2.544851899147033691e-01,-4.009690284729003906e-01,2.424406632781028748e-02,1.453155428171157837e-01,5.394778251647949219e-01,8.615886569023132324e-01,1.332548558712005615e-01,-8.156519383192062378e-02,5.870425701141357422e-01,3.203680971637368202e-03,-2.126080542802810669e-01,-1.820559054613113403e-02,5.763048529624938965e-01,-3.403941392898559570e-01,6.512296199798583984e-02,-4.284427464008331299e-01,2.263189107179641724e-01,-5.193195939064025879e-01,1.933677494525909424e-01,4.923270642757415771e-01
-8.636754751205444336e-02,-1.498999744653701782e-01,-8.397423475980758667e-02,-4.065309762954711914e-01,1.944873034954071045e-01,-2.580364048480987549e-01,-3.120840191841125488e-01,2.735278904438018799e-01,-2.075830101966857910e-01,-9.287929534912109375e-02,5.328862667083740234e-01,-2.051275372505187988e-01,3.916233479976654053e-01,-4.260994791984558105e-01,-2.321303635835647583e-02,-5.694888159632682800e-02,4.029360413551330566e-01,-8.920127898454666138e-02,2.225166857242584229e-01,-7.987749576568603516e-01,8.284799456596374512e-01,-2.817679941654205322e-01,-6.273522228002548218e-02,-4.878644645214080811e-02,-7.734602689743041992e-01,3.170392289757728577e-02,7.282270491123199463e-02,-2.783029079437255859e-01,-6.490736007690429688e-01,1.535368263721466064e-01,-2.455040626227855682e-02,3.117565065622329712e-02,-1.475832015275955200e-01,4.429314434528350830e-01,8.365427702665328979e-02,-6.692895293235778809e-01,5.997614860534667969e-01,-1.136415749788284302e-01,-1.864738613367080688e-01,2.544102370738983154e-01,-2.120614647865295410e-01,1.484386473894119263e-01,-5.877455323934555054e-02,2.556388080120086670e-01,-3.019384145736694336e-01,2.234875708818435669e-01,-6.879591196775436401e-02,1.968434639275074005e-02,-1.210530921816825867e-01,5.294786393642425537e-02,-1.360503286123275757e-01,-5.232390761375427246e-01,-4.700657725334167480e-02,2.809340953826904297e-01,-1.571010947227478027e-01,6.784190237522125244e-02,-1.847038418054580688e-01,-2.718883454799652100e-01,3.647347688674926758e-01,2.993848621845245361e-01,-1.446464806795120239e-01,3.601715564727783203e-01,5.892823338508605957e-01,-6.526096463203430176e-01,4.104773402214050293e-01,2.996817529201507568e-01,-1.109714955091476440e-01,2.092193663120269775e-01,5.731214880943298340e-01,1.601539403200149536e-01,3.122572600841522217e-01,1.228416264057159424e-01,5.048046708106994629e-01,3.231047093868255615e-01,-1.823397167026996613e-02,7.103842496871948242e-01,7.769816368818283081e-02,1.455204486846923828e-01,-8.502369523048400879e-01,5.799601674079895020e-01,-2.783089578151702881e-01,-3.539112806320190430e-01,-2.224627137184143066e-01,-1.412582695484161377e-01,2.939399778842926025e-01,-4.658788442611694336e-01,-7.124485075473785400e-02,2.395187914371490479e-01,-4.156260937452316284e-02,8.040389418601989746e-02,2.796411328017711639e-02,2.366296350955963135e-01,2.199153453111648560e-01,3.803606331348419189e-01,2.942415773868560791e-01,-7.923306822776794434e-01,1.104723941534757614e-02,7.593596577644348145e-01,-1.639484316110610962e-01,-3.004958331584930420e-01,-6.063457727432250977e-01,1.656422764062881470e-01,-3.456514701247215271e-02,-5.344998836517333984e-01,-2.307799160480499268e-01,-3.486095368862152100e-01,1.056392267346382141e-01,-4.226059913635253906e-01,-2.778673171997070312e-01,-4.750735592097043991e-03,4.567626714706420898e-01,4.503798782825469971e-01,-2.371786385774612427e-01,-2.138362377882003784e-01,1.786949336528778076e-01,-2.337228208780288696e-01,-2.063779830932617188e-01,1.047016680240631104e-01,-8.408547379076480865e-03,5.266705155372619629e-02,1.704773455858230591e-01,-2.976362705230712891e-01,2.544440031051635742e-01,-1.545113921165466309e-01,-3.621679544448852539e-01,-4.602903425693511963e-01,-1.858018040657043457e-01,1.088241562247276306e-01,-3.579632341861724854e-01,-8.921162784099578857e-02,4.283175766468048096e-01,1.916486173868179321e-01,-3.123347759246826172e-01,2.051965892314910889e-01,-2.733661234378814697e-01,1.716418862342834473e-01,2.476962953805923462e-01,5.573202297091484070e-02,4.297897517681121826e-01,-5.725720524787902832e-01,-1.557854712009429932e-01,-7.625038027763366699e-01,-3.184131532907485962e-02,1.394508928060531616e-01,-7.333891093730926514e-02,9.038637578487396240e-02,2.212655991315841675e-01,5.773728340864181519e-02,-1.059378776699304581e-02,-4.136447012424468994e-01,3.307387828826904297e-01,1.628131717443466187e-01,2.613635361194610596e-02,-2.685287036001682281e-02,3.043029308319091797e-01,1.544455140829086304e-01,3.317694962024688721e-01,-2.671831548213958740e-01,1.847156137228012085e-01,2.853480279445648193e-01,1.464070081710815430e-01,3.065780401229858398e-01,8.001050911843776703e-03,1.236194148659706116e-01,-1.257975548505783081e-01,5.377447009086608887e-01,2.930406332015991211e-01,8.500497043132781982e-02,1.224058791995048523e-01,-2.158802002668380737e-01,-7.743886113166809082e-02,9.336210042238235474e-02,1.686541587114334106e-01,2.869153022766113281e-01,2.578452974557876587e-02,1.170647330582141876e-02,3.357891440391540527e-01,2.041990607976913452e-01,3.366601169109344482e-01,-4.965950548648834229e-01,1.360481083393096924e-01,-1.112077012658119202e-01,2.408752739429473877e-01,-4.685427621006965637e-02,5.935067310929298401e-04,1.517791152000427246e-01,2.722679078578948975e-01,-2.524271011352539062e-01,8.847831189632415771e-02,2.825461700558662415e-02,5.594566464424133301e-01,3.272920548915863037e-01,2.312352657318115234e-01,7.445162534713745117e-02,9.833534248173236847e-03,3.238379061222076416e-01,-3.871591761708259583e-02,-4.771457016468048096e-01,1.200313940644264221e-01,2.635712735354900360e-04
-1.503098905086517334e-01,7.511911392211914062e-01,-9.967386722564697266e-02,-3.216035962104797363e-01,2.606933116912841797e-01,1.168324332684278488e-02,1.077056005597114563e-01,6.882101893424987793e-01,-2.989403009414672852e-01,8.362213522195816040e-02,1.915057748556137085e-01,3.723930418491363525e-01,-6.107546389102935791e-02,3.526530563831329346e-01,5.890590697526931763e-02,1.934247016906738281e-01,5.197969079017639160e-01,6.240826249122619629e-01,-3.462183177471160889e-01,-3.541516959667205811e-01,-5.495693087577819824e-01,1.051436066627502441e-01,5.005756616592407227e-01,8.646387606859207153e-02,-1.131205707788467407e-01,1.635495275259017944e-01,4.024303555488586426e-01,-1.314875781536102295e-01,-7.525907158851623535e-01,2.680100202560424805e-01,3.209053725004196167e-02,-5.177051424980163574e-01,-1.357100456953048706e-01,5.317950248718261719e-01,1.302823871374130249e-01,1.315322369337081909e-01,1.382025778293609619e-01,-1.578640639781951904e-01,5.536407828330993652e-01,5.890813469886779785e-01,-2.675073146820068359e-01,3.190816640853881836e-01,5.277055501937866211e-02,-2.212736755609512329e-01,-3.811414241790771484e-01,4.135160148143768311e-01,-5.171232298016548157e-02,-3.064365983009338379e-01,-2.316328436136245728e-01,-1.774850040674209595e-01,1.770446598529815674e-01,-4.385858476161956787e-01,-5.874667763710021973e-01,1.721386611461639404e-02,-5.122410058975219727e-01,2.999819815158843994e-02,9.673617780208587646e-02,1.853553056716918945e-01,6.067310571670532227e-01,-2.145332098007202148e-01,-3.520115911960601807e-01,-6.916708946228027344e-01,-5.121351480484008789e-01,-2.001647651195526123e-01,-2.277788072824478149e-01,-1.014363206923007965e-02,3.892311751842498779e-01,-3.696866706013679504e-02,-1.526526957750320435e-01,1.476077586412429810e-01,2.706896066665649414e-01,-7.123776078224182129e-01,-1.466841697692871094e-01,1.637283712625503540e-01,6.950239092111587524e-02,-1.728610545396804810e-01,-8.355146273970603943e-04,-3.935560584068298340e-01,3.529417514801025391e-01,2.508149445056915283e-01,1.045740544795989990e-01,3.134321570396423340e-01,-6.787282228469848633e-01,3.430387675762176514e-01,6.187660619616508484e-02,-3.688277006149291992e-01,4.331773519515991211e-01,-2.123851627111434937e-01,-3.289997875690460205e-01,-2.839597761631011963e-01,1.353861391544342041e-01,-2.566041350364685059e-01,6.784638762474060059e-01,1.349927037954330444e-01,-2.265018597245216370e-02,-2.616254091262817383e-01,-5.043906569480895996e-01,-1.803928315639495850e-01,4.228597879409790039e-01,3.992809355258941650e-01,4.184075295925140381e-01,-3.221314847469329834e-01,-7.397922873497009277e-02,5.559022426605224609e-01,1.392082720994949341e-01,9.902414679527282715e-02,3.186269700527191162e-01,-2.501462399959564209e-01,1.472219079732894897e-01,-1.451068818569183350e-01,1.823316365480422974e-01,-1.084063276648521423e-01,7.045644521713256836e-02,9.030339866876602173e-02,-3.732252120971679688e-01,-3.495146334171295166e-01,-3.856421411037445068e-01,6.203101873397827148e-01,3.028728365898132324e-01,-5.551654100418090820e-02,4.585843682289123535e-01,1.982099115848541260e-01,3.012357652187347412e-01,-5.552459359169006348e-01,-2.893656492233276367e-01,-5.796077474951744080e-02,3.733668476343154907e-02,-7.705438882112503052e-02,-6.121801137924194336e-01,1.179114058613777161e-01,-6.575155258178710938e-02,-5.631555914878845215e-01,-2.305611502379179001e-03,-3.261092603206634521e-01,-4.814021661877632141e-02,3.943200036883354187e-02,-5.910875797271728516e-01,1.662497520446777344e-01,-1.565603725612163544e-02,-1.885115653276443481e-01,-3.669799864292144775e-01,-1.199606433510780334e-01,2.409369125962257385e-02,-2.243591248989105225e-01,-1.917921602725982666e-01,-3.041532933712005615e-01,2.883455455303192139e-01,1.050895377993583679e-01,4.966973140835762024e-02,3.963312506675720215e-02,6.103288531303405762e-01,-1.515219509601593018e-01,2.821321189403533936e-01,1.767252199351787567e-02,2.814461290836334229e-01,-1.899509131908416748e-02,3.372402787208557129e-01,1.200248599052429199e-01,-1.473056972026824951e-01,2.943004667758941650e-01,-5.102719068527221680e-01,-1.169160082936286926e-01,-4.641942381858825684e-01,7.124077528715133667e-02,9.680937975645065308e-02,-7.815111428499221802e-03,-2.687106095254421234e-02,1.159621775150299072e-01,-1.959767937660217285e-01,-2.234748154878616333e-01,1.228067800402641296e-01,8.073259145021438599e-03,7.083828449249267578e-01,2.801534831523895264e-01,7.596418261528015137e-02,3.293694183230400085e-02,-2.621872127056121826e-01,-5.000144839286804199e-01,1.914938092231750488e-01,7.346483319997787476e-02,-1.170979961752891541e-01,-1.234716922044754028e-01,-9.717968106269836426e-02,-1.645850092172622681e-01,1.472319662570953369e-02,2.973197400569915771e-02,-3.109431266784667969e-01,-2.236964851617813110e-01,-4.259929060935974121e-01,-1.855649501085281372e-01,2.147162109613418579e-01,2.123437821865081787e-01,-2.969571650028228760e-01,5.067235827445983887e-01,8.395043760538101196e-02,7.654755562543869019e-02,4.890537261962890625e-01,4.184556305408477783e-01,2.455233633518218994e-01,1.882624328136444092e-01
-2.573923468589782715e-01,2.494305223226547241e-01,7.887729406356811523e-01,-5.743885040283203125e-01,1.199299395084381104e-01,-4.162584841251373291e-01,-5.131514072418212891e-01,9.636886119842529297e-01,-1.601322367787361145e-02,3.651317059993743896e-01,2.124404907226562500e-01,-4.197371304035186768e-01,-2.698502838611602783e-01,-2.403368204832077026e-01,1.473820656538009644e-01,-1.050119698047637939e-01,2.723773382604122162e-02,8.457666635513305664e-02,-7.048211693763732910e-01,1.404295414686203003e-01,5.504004359245300293e-01,1.680478900671005249e-01,5.154297351837158203e-01,-9.697892665863037109e-01,-5.794653296470642090e-01,-4.513034597039222717e-02,2.279068976640701294e-01,-1.151569604873657227e+00,-1.960544735193252563e-01,1.463082134723663330e-01,3.082423098385334015e-02,-3.451047837734222412e-01,-1.582871973514556885e-01,4.472319185733795166e-01,6.150431632995605469e-01,-2.614589214324951172e+00,7.209566235542297363e-01,5.595689415931701660e-01,2.555021643638610840e-01,1.012493014335632324e+00,1.745708137750625610e-01,1.305657625198364258e-01,5.107969641685485840e-01,9.747978448867797852e-01,1.939976662397384644e-01,-6.520064473152160645e-01,3.436920046806335449e-01,-2.095631808042526245e-01,5.336821675300598145e-01,3.935512006282806396e-01,-4.645192623138427734e-02,8.796606659889221191e-01,-1.032384395599365234e+00,-1.535091847181320190e-01,1.668882369995117188e-01,-1.161501169204711914e+00,-5.599171668291091919e-02,2.945454418659210205e-01,-2.006851434707641602e-01,4.673791229724884033e-01,-4.133488833904266357e-01,5.774741247296333313e-02,3.464692831039428711e-01,-8.185087442398071289e-01,1.183907628059387207e+00,1.958122104406356812e-01,8.180642724037170410e-01,1.474020928144454956e-01,-6.934431195259094238e-01,-6.091914176940917969e-01,2.886440753936767578e-01,-1.995378136634826660e-01,5.135483741760253906e-01,2.321670576930046082e-02,-6.406318396329879761e-02,-4.502991437911987305e-01,1.029243826866149902e+00,4.548581242561340332e-01,3.976903557777404785e-01,2.718298435211181641e-01,-5.396102070808410645e-01,-1.017794013023376465e+00,-8.984519243240356445e-01,1.002441167831420898e+00,1.068070411682128906e+00,7.655271142721176147e-02,1.019080802798271179e-01,-7.213027030229568481e-02,1.212372705340385437e-01,-1.086974382400512695e+00,1.230552885681390762e-02,-5.202589631080627441e-01,8.395107090473175049e-02,7.823738455772399902e-01,-6.063684225082397461e-01,2.668523192405700684e-01,-3.230570629239082336e-02,-8.297017216682434082e-01,-2.258465588092803955e-01,7.224000692367553711e-01,5.629475116729736328e-01,3.878868520259857178e-01,-5.988773107528686523e-01,-5.388093590736389160e-01,5.457826424390077591e-03,-5.392202734947204590e-01,-4.431563988327980042e-02,-6.055856943130493164e-01,-4.630728065967559814e-01,-9.675906598567962646e-02,4.009771645069122314e-01,-7.299715280532836914e-02,-2.553803324699401855e-01,5.270724371075630188e-02,-1.515101939439773560e-01,4.475188851356506348e-01,-1.834138631820678711e-01,-2.530962601304054260e-02,4.670659005641937256e-01,4.667377769947052002e-01,2.850632667541503906e-01,-3.251878917217254639e-01,-2.263332754373550415e-01,6.086609363555908203e-01,-3.184617161750793457e-01,2.818228900432586670e-01,7.975488901138305664e-02,-1.939556747674942017e-01,1.458456367254257202e-01,-2.003813236951828003e-01,6.947479248046875000e-01,-1.390318199992179871e-02,9.948664158582687378e-02,7.705178856849670410e-02,7.959977537393569946e-02,5.414620786905288696e-02,-3.705774247646331787e-01,-2.343816757202148438e-01,5.932257771492004395e-01,-4.803280234336853027e-01,2.764930427074432373e-01,-3.935502171516418457e-01,2.618082761764526367e-01,-5.335423350334167480e-01,-8.781280368566513062e-03,-7.337395846843719482e-02,-8.764225244522094727e-02,5.781282484531402588e-02,2.391171641647815704e-02,2.599006891250610352e-01,3.310476541519165039e-01,-3.237514197826385498e-01,-1.524849683046340942e-01,1.591297797858715057e-02,-3.631456792354583740e-01,5.132420063018798828e-01,-4.732082486152648926e-01,-1.804672479629516602e-01,-2.341315895318984985e-01,7.877925038337707520e-02,-6.670883297920227051e-01,-2.748737335205078125e-01,7.245565652847290039e-01,5.296070128679275513e-02,3.858571350574493408e-01,2.761995494365692139e-01,1.908913999795913696e-01,2.845677733421325684e-01,-3.902866244316101074e-01,1.063881665468215942e-01,-1.478121280670166016e-01,-1.919950693845748901e-01,-8.716609477996826172e-01,-2.010089159011840820e-01,-5.365462303161621094e-01,-6.483886390924453735e-02,2.492212317883968353e-02,-4.230093359947204590e-01,3.412010893225669861e-02,2.076383829116821289e-01,4.521273542195558548e-03,-1.731466948986053467e-01,2.156578004360198975e-02,-3.653261661529541016e-01,-1.189050003886222839e-01,5.422112345695495605e-01,-1.156753152608871460e-01,-3.118610084056854248e-01,-2.087828889489173889e-02,-3.497126400470733643e-01,5.002714321017265320e-02,-5.749318748712539673e-02,2.301521301269531250e-01,1.610521972179412842e-01,-5.071705207228660583e-02,4.402982443571090698e-02,-5.004455447196960449e-01,1.005182340741157532e-01,-3.726364299654960632e-02,1.686139404773712158e-01
-3.030843734741210938e-01,6.006022095680236816e-01,9.075970947742462158e-02,1.544836163520812988e-01,8.659996986389160156e-01,-1.559194456785917282e-02,1.654708087444305420e-01,3.901832699775695801e-01,3.317792415618896484e-01,-5.511100292205810547e-01,-1.071197688579559326e-01,4.748105108737945557e-01,-3.097048029303550720e-02,6.935538649559020996e-01,4.750878810882568359e-01,1.195679754018783569e-01,3.225660026073455811e-01,3.015993535518646240e-01,-7.857874035835266113e-02,1.366934627294540405e-01,-5.786154866218566895e-01,1.953533291816711426e-02,3.010850250720977783e-01,2.313000708818435669e-02,-4.526597261428833008e-01,5.332369208335876465e-01,-9.964899718761444092e-02,-5.062215924263000488e-01,-5.624901056289672852e-01,-2.114839553833007812e-01,-7.594931870698928833e-02,2.895815074443817139e-01,-6.114345788955688477e-01,2.451771944761276245e-01,-6.853196620941162109e-01,-4.483817517757415771e-01,4.920911788940429688e-01,2.942403545603156090e-03,5.591115951538085938e-01,-6.127983331680297852e-01,-3.423813879489898682e-01,-1.058024540543556213e-01,-1.303559094667434692e-01,-4.873885810375213623e-01,2.880602777004241943e-01,1.468631625175476074e-02,-2.433044761419296265e-01,-5.664005875587463379e-03,3.539824783802032471e-01,1.615334115922451019e-02,-7.057136893272399902e-01,-3.048529922962188721e-01,-1.564637124538421631e-01,-5.071609616279602051e-01,2.807474732398986816e-01,1.442153006792068481e-01,-5.462383031845092773e-01,-7.205819487571716309e-01,4.658684730529785156e-01,2.593349516391754150e-01,-2.823580503463745117e-01,-1.433786302804946899e-01,2.417465299367904663e-01,-8.417296409606933594e-01,-9.263333678245544434e-01,5.921337753534317017e-02,-2.025245875120162964e-01,-2.881965935230255127e-01,-4.448024034500122070e-01,-2.448920905590057373e-01,4.604850113391876221e-01,-2.689371407032012939e-01,8.894350528717041016e-01,-1.659907996654510498e-01,6.866029500961303711e-01,3.731722235679626465e-01,4.963065385818481445e-01,4.331346750259399414e-01,2.854687869548797607e-01,1.042564749717712402e+00,2.311019450426101685e-01,2.644141018390655518e-01,4.945003986358642578e-01,5.399326682090759277e-01,2.168675065040588379e-01,8.582519292831420898e-01,2.733254246413707733e-02,7.989184558391571045e-02,1.319293826818466187e-01,3.069775998592376709e-01,2.703812718391418457e-01,-6.786298751831054688e-01,9.940674901008605957e-01,-1.262317150831222534e-01,-1.764317005872726440e-01,-6.791146993637084961e-01,-4.352346956729888916e-01,1.508867144584655762e-01,-8.906902670860290527e-01,-6.259689331054687500e-01,-1.476561725139617920e-01,-2.359741032123565674e-01,1.902444101870059967e-02,-7.249454259872436523e-01,-8.646414279937744141e-01,-4.896209537982940674e-01,-4.705791175365447998e-02,-3.821902275085449219e-01,-2.383567392826080322e-01,-1.503414474427700043e-02,-6.319020986557006836e-01,-1.120298430323600769e-01,-7.204170823097229004e-01,5.058998067397624254e-05,-9.016893059015274048e-02,-1.066104024648666382e-01,2.545928955078125000e-01,5.641722679138183594e-01,-4.522282630205154419e-02,-2.502656877040863037e-01,2.687054276466369629e-01,-1.364453732967376709e-01,-6.520974636077880859e-01,3.009629249572753906e-01,3.112209439277648926e-01,-5.493119955062866211e-01,-1.043536424636840820e+00,5.059975981712341309e-01,-1.507704854011535645e-01,3.155807554721832275e-01,-2.905023694038391113e-01,-6.376527547836303711e-01,4.687525629997253418e-01,-2.848944962024688721e-01,-5.508329272270202637e-01,6.313276290893554688e-02,-9.567669034004211426e-02,5.229312181472778320e-01,6.418156623840332031e-01,6.307691335678100586e-01,1.454928070306777954e-01,-1.897071301937103271e-02,3.386684954166412354e-01,2.654090523719787598e-01,1.413214206695556641e-01,4.261964559555053711e-01,-1.869863271713256836e-01,5.565847158432006836e-01,-1.539447605609893799e-01,-2.180478423833847046e-01,-1.382537484169006348e-01,-5.982100963592529297e-02,-7.812185883522033691e-01,1.158355250954627991e-01,3.593445718288421631e-01,2.331909239292144775e-01,5.696914345026016235e-02,2.213892899453639984e-02,-3.146954476833343506e-01,6.172006130218505859e-01,-6.941147446632385254e-01,-1.607758700847625732e-01,-1.421514302492141724e-01,3.315294981002807617e-01,9.647357463836669922e-02,-2.070070356130599976e-01,1.005238413810729980e+00,8.290680050849914551e-01,-1.191991418600082397e-01,2.710572183132171631e-01,4.623418748378753662e-01,-4.070711135864257812e-01,1.366323977708816528e-01,3.724786639213562012e-01,-1.335951685905456543e-01,2.109762579202651978e-01,-8.147653937339782715e-02,-3.086313046514987946e-02,-3.976364433765411377e-01,-3.622287139296531677e-02,-3.432686924934387207e-01,-2.259842455387115479e-01,1.128220837563276291e-02,1.075280085206031799e-01,2.635507583618164062e-01,-7.206373661756515503e-02,4.578166082501411438e-02,-3.268558681011199951e-01,-1.790662556886672974e-01,-7.714163661003112793e-01,5.388945341110229492e-01,-2.316350191831588745e-01,-1.525944471359252930e-01,-7.048217952251434326e-02,3.110779449343681335e-02,-4.542844593524932861e-01,-1.023858487606048584e-01,5.339056625962257385e-02,3.717255294322967529e-01,1.878714747726917267e-02
-5.427013039588928223e-01,6.175022199749946594e-02,-8.680187910795211792e-02,-3.445543721318244934e-02,-3.834438323974609375e-02,-1.920999735593795776e-01,6.603874564170837402e-01,5.691701173782348633e-01,-9.053891897201538086e-02,1.039798408746719360e-01,5.058956146240234375e-01,5.731980800628662109e-01,1.242266654968261719e+00,-1.798954308032989502e-01,-2.514500170946121216e-02,-5.313302278518676758e-01,-4.875172376632690430e-01,3.342890739440917969e-01,-7.594325542449951172e-01,1.111578419804573059e-01,3.250737786293029785e-01,1.741446107625961304e-01,1.149617552757263184e+00,-3.512777984142303467e-01,-6.772449016571044922e-01,-9.312665462493896484e-01,6.376144289970397949e-01,3.797664046287536621e-01,-4.904007613658905029e-01,-2.691193222999572754e-01,1.454597711563110352e-01,-6.712878346443176270e-01,-5.147888064384460449e-01,-1.243697628378868103e-01,5.305607914924621582e-01,3.788755536079406738e-01,-2.012253552675247192e-02,1.459110155701637268e-02,2.248165756464004517e-01,5.675562024116516113e-01,8.722425997257232666e-02,-5.069043040275573730e-01,-1.726324707269668579e-01,5.298735573887825012e-02,-5.976432561874389648e-01,-1.120484471321105957e-01,-2.341039031744003296e-01,-2.736175954341888428e-01,8.891395330429077148e-01,-2.115591764450073242e-01,2.933323085308074951e-01,-6.598289608955383301e-01,-1.112059727311134338e-01,-3.714920282363891602e-01,1.998354941606521606e-01,1.681505292654037476e-01,4.120865166187286377e-01,-3.230059444904327393e-01,1.226813271641731262e-01,1.835749000310897827e-01,-3.500469028949737549e-01,4.989308491349220276e-02,-1.267026513814926147e-01,4.143396019935607910e-01,2.390960007905960083e-01,8.933632075786590576e-02,-5.988370161503553391e-03,7.664859890937805176e-01,-5.754825472831726074e-01,-3.553790748119354248e-01,-2.984478138387203217e-02,6.457012146711349487e-02,1.076252102851867676e+00,-5.478430390357971191e-01,-3.005141615867614746e-01,-9.424287080764770508e-01,3.866591453552246094e-01,-2.677449584007263184e-01,-1.836312860250473022e-01,7.993261329829692841e-03,6.807051897048950195e-01,1.661330163478851318e-01,2.109506726264953613e-01,8.967213630676269531e-01,2.205240577459335327e-01,-4.733839631080627441e-01,-9.580122828483581543e-01,-6.603966355323791504e-01,-2.951149940490722656e-01,-1.772223711013793945e-01,-8.507476001977920532e-02,-4.321447312831878662e-01,6.495385766029357910e-01,1.313286870718002319e-01,-6.243240088224411011e-02,9.464220404624938965e-01,-2.702788263559341431e-02,6.084551662206649780e-02,-9.109202623367309570e-01,1.243010386824607849e-01,-1.509358291514217854e-03,2.570308446884155273e-01,-1.175193667411804199e+00,-9.276931732892990112e-02,3.051712736487388611e-02,-1.242832373827695847e-02,-3.492270410060882568e-01,-1.673519760370254517e-01,4.257024228572845459e-01,1.144561320543289185e-01,-3.321147263050079346e-01,1.099311709403991699e-01,-1.882927566766738892e-01,-7.643698155879974365e-02,-2.065190672874450684e-01,-6.855045258998870850e-02,-5.076762437820434570e-01,-9.513962082564830780e-03,2.072438970208168030e-02,-1.213075160980224609e+00,2.604255378246307373e-01,1.036970376968383789e+00,-1.085329055786132812e+00,-1.566307693719863892e-01,-2.831759750843048096e-01,3.560818731784820557e-01,1.505709588527679443e-01,-4.830109179019927979e-01,-3.194223344326019287e-02,5.557489395141601562e-01,-5.602618455886840820e-01,-8.608618378639221191e-01,3.541896045207977295e-01,-3.964504599571228027e-01,-1.072533249855041504e+00,-3.389258980751037598e-01,-1.695649027824401855e-01,-5.173041820526123047e-01,1.033690929412841797e+00,-6.284538507461547852e-01,6.757475137710571289e-01,1.399272233247756958e-01,-2.777954638004302979e-01,5.330774188041687012e-01,-3.133471012115478516e-01,2.639931738376617432e-01,6.107555031776428223e-01,1.446637213230133057e-01,3.998747169971466064e-01,2.908343262970447540e-02,-6.989815086126327515e-02,-9.627695679664611816e-01,2.718082070350646973e-01,7.332144379615783691e-01,-5.372785329818725586e-01,-8.960458636283874512e-02,8.570110052824020386e-02,-6.761590838432312012e-01,9.077385812997817993e-02,-1.870705513283610344e-03,-2.103207856416702271e-01,6.980832219123840332e-01,-1.426816638559103012e-02,7.928663492202758789e-01,-9.878546744585037231e-02,-4.680741205811500549e-02,-3.806665241718292236e-01,8.731223344802856445e-01,1.043353229761123657e-01,-1.530662328004837036e-01,2.354389578104019165e-01,1.407417058944702148e-01,8.395310640335083008e-01,-9.651157259941101074e-02,2.055817097425460815e-01,3.758711814880371094e-01,3.181666731834411621e-01,1.940668821334838867e-01,-5.563897490501403809e-01,6.169423460960388184e-01,5.087906494736671448e-02,-9.009323716163635254e-01,1.153330802917480469e+00,-8.086305111646652222e-02,2.272342741489410400e-01,6.545749306678771973e-02,-2.998991906642913818e-01,-4.641106426715850830e-01,-2.623833715915679932e-01,7.949412800371646881e-03,-1.115621402859687805e-01,1.291582435369491577e-01,-3.119986653327941895e-01,2.565095126628875732e-01,2.342795208096504211e-02,-3.718492090702056885e-01,-1.234510779380798340e+00,-2.178812325000762939e-01,-8.243368864059448242e-01,5.203625932335853577e-02
-5.728777870535850525e-02,2.008991092443466187e-01,-7.009673863649368286e-02,3.052879273891448975e-01,2.525534629821777344e-01,-3.435584604740142822e-01,3.004413247108459473e-01,3.754886090755462646e-01,3.897113725543022156e-02,2.179473936557769775e-01,1.142283827066421509e-01,-7.157678604125976562e-01,6.051105260848999023e-01,3.239787518978118896e-01,3.750930130481719971e-01,-1.226624101400375366e-01,1.690005064010620117e-01,7.318957448005676270e-01,-7.916817069053649902e-02,2.778014540672302246e-01,2.178777158260345459e-01,3.051395118236541748e-01,2.521833181381225586e-01,1.898027956485748291e-02,-4.007344543933868408e-01,-1.482800543308258057e-01,-1.881899535655975342e-01,-2.219031453132629395e-01,-8.695866465568542480e-01,2.985435351729393005e-02,3.998240828514099121e-01,3.827457129955291748e-02,-1.227608844637870789e-01,4.037922322750091553e-01,-4.612783789634704590e-01,3.069715499877929688e-01,2.020525038242340088e-01,3.149249255657196045e-01,-8.285807073116302490e-02,6.562618017196655273e-01,5.381810665130615234e-01,-2.878119936212897301e-03,7.000502347946166992e-01,3.005670905113220215e-01,4.518810510635375977e-01,3.814197778701782227e-01,-2.224428206682205200e-01,-4.072802364826202393e-01,3.901963355019688606e-03,-7.515523582696914673e-02,5.679217353463172913e-02,8.848062902688980103e-02,-2.422222644090652466e-01,2.125838249921798706e-01,6.933708786964416504e-01,2.611739337444305420e-01,1.152564585208892822e-01,3.229664564132690430e-01,1.442923694849014282e-01,3.915416002273559570e-01,2.530988752841949463e-01,-2.848532497882843018e-01,2.934430241584777832e-01,-8.966481089591979980e-01,4.197991192340850830e-01,-4.141656458377838135e-01,1.082915738224983215e-01,-3.728550076484680176e-01,3.817207515239715576e-01,-1.296264231204986572e-01,-4.108043611049652100e-01,-1.689340546727180481e-02,2.056658267974853516e-02,2.325863391160964966e-01,7.709026932716369629e-01,9.068037271499633789e-01,2.435952983796596527e-02,-6.935982406139373779e-02,-9.511106014251708984e-01,-5.089880824089050293e-01,8.943267464637756348e-01,2.534337937831878662e-01,-1.450093537569046021e-01,-4.010063409805297852e-01,3.357067406177520752e-01,3.257533535361289978e-02,-4.169855713844299316e-01,1.081756427884101868e-01,-4.738774597644805908e-01,2.330100834369659424e-01,-1.027400493621826172e-01,-1.216211438179016113e+00,1.099773287773132324e+00,5.443050265312194824e-01,-2.842175662517547607e-01,-2.602056860923767090e-01,2.117377668619155884e-01,-1.812899485230445862e-02,-3.438473939895629883e-01,2.585267424583435059e-01,5.479933023452758789e-01,1.879748255014419556e-01,-5.061472058296203613e-01,6.842270493507385254e-01,-8.609903044998645782e-03,-2.165520340204238892e-01,-1.711412221193313599e-01,2.952896244823932648e-02,6.561124324798583984e-01,2.138164192438125610e-01,4.934405088424682617e-01,-4.987831115722656250e-01,1.511310487985610962e-01,-4.995811264961957932e-03,-3.737895488739013672e-01,-2.208823710680007935e-02,2.061488665640354156e-02,1.186060085892677307e-01,-3.886749148368835449e-01,-3.207670450210571289e-01,-5.075814723968505859e-01,-2.786039710044860840e-01,2.588451206684112549e-01,8.428357541561126709e-02,9.748548269271850586e-01,-7.136959433555603027e-01,-1.106559336185455322e-01,4.320369660854339600e-01,1.115829274058341980e-01,-9.293118119239807129e-02,-2.210214883089065552e-01,1.705584824085235596e-01,-1.586668789386749268e-01,-1.969030797481536865e-01,-4.674284160137176514e-01,-9.477747976779937744e-02,-4.405393004417419434e-01,-8.586250245571136475e-02,2.746661305427551270e-01,6.905155628919601440e-02,-2.611021399497985840e-01,3.461712002754211426e-01,2.475363947451114655e-02,5.534558296203613281e-01,1.621657311916351318e-01,-5.375154614448547363e-01,-1.205300837755203247e-01,5.996410250663757324e-01,3.651794791221618652e-01,-4.679307341575622559e-01,3.555717170238494873e-01,-4.903250634670257568e-01,-3.266756832599639893e-01,-2.880151271820068359e-01,1.915432065725326538e-01,-2.131518572568893433e-01,-3.407598435878753662e-01,-6.548635959625244141e-01,6.709144264459609985e-02,2.377000451087951660e-02,-1.568361371755599976e-01,-4.827897250652313232e-01,-5.769369602203369141e-01,-3.033836930990219116e-02,2.280069887638092041e-01,-1.276443004608154297e-01,4.131616950035095215e-01,5.906273126602172852e-01,-2.802191078662872314e-01,2.738305330276489258e-01,-6.222429871559143066e-02,1.624280065298080444e-01,-3.746970593929290771e-01,-2.442942857742309570e-01,-4.445884525775909424e-01,-1.342171877622604370e-01,6.800357699394226074e-01,3.224698007106781006e-01,-4.791312813758850098e-01,1.288962960243225098e+00,-1.338641345500946045e-01,4.038769304752349854e-01,1.417667150497436523e+00,2.895617187023162842e-01,2.640915811061859131e-01,1.441356260329484940e-02,-3.311194851994514465e-02,-3.147281706333160400e-01,7.908390462398529053e-02,3.077017366886138916e-01,-4.574828222393989563e-02,-7.166548818349838257e-02,1.955053023993968964e-02,-1.346179991960525513e-01,1.168969392776489258e+00,1.033907383680343628e-01,-2.140114605426788330e-01,-1.877381354570388794e-01,-2.466495484113693237e-01,2.817731797695159912e-01
-3.056257367134094238e-01,6.306979656219482422e-01,5.456454157829284668e-01,1.700988262891769409e-01,-1.008213236927986145e-01,6.499517709016799927e-02,3.474296629428863525e-01,6.770632863044738770e-01,-7.505177855491638184e-01,8.091689944267272949e-01,-2.914632260799407959e-01,6.754480600357055664e-01,2.987213246524333954e-02,-6.441959738731384277e-01,-5.288094654679298401e-02,-6.564027070999145508e-01,4.647176265716552734e-01,-3.660329878330230713e-01,4.883309602737426758e-01,-8.013631105422973633e-01,1.098979040980339050e-01,7.196115851402282715e-01,-2.581623196601867676e-01,-6.394537631422281265e-03,-4.845966100692749023e-01,3.190402686595916748e-01,-1.125631928443908691e+00,-9.368964433670043945e-01,-4.764024913311004639e-01,-5.033230781555175781e-01,8.324690461158752441e-01,-2.517354786396026611e-01,3.961013853549957275e-01,6.696253418922424316e-01,1.244843125343322754e+00,-2.181008756160736084e-01,-3.644151687622070312e-01,3.394673466682434082e-01,-9.012059122323989868e-02,3.920870721340179443e-01,-4.133313894271850586e-02,3.159770369529724121e-01,-4.864935204386711121e-02,2.165072262287139893e-01,4.252747073769569397e-02,8.557699620723724365e-02,-1.869509220123291016e+00,-6.064460873603820801e-01,4.851940572261810303e-01,1.009138941764831543e+00,2.118161469697952271e-01,1.113236069679260254e+00,4.072751104831695557e-02,-2.964825928211212158e-01,2.769344151020050049e-01,-1.559709012508392334e-01,-8.035543560981750488e-02,1.122881099581718445e-01,1.005945056676864624e-01,8.367080688476562500e-01,2.617096602916717529e-01,-4.475998878479003906e-01,-1.121184676885604858e-01,6.529561877250671387e-01,8.494294881820678711e-01,1.038253828883171082e-01,8.546493202447891235e-02,1.470907926559448242e-01,4.384060800075531006e-01,-4.068371653556823730e-02,2.268714606761932373e-01,-1.397065520286560059e-01,-1.339440345764160156e-01,-4.002977311611175537e-01,-2.632378041744232178e-01,-1.172267436981201172e+00,9.540823101997375488e-01,-1.176149677485227585e-02,-4.396726191043853760e-01,1.573765575885772705e-01,-7.807908058166503906e-01,-5.198708549141883850e-02,-3.162659704685211182e-01,3.328597173094749451e-02,4.424488842487335205e-01,-4.968706071376800537e-01,-7.979877293109893799e-02,-5.472999215126037598e-01,8.790658116340637207e-01,-3.398213982582092285e-01,-3.039681315422058105e-01,-2.793989777565002441e-01,4.065771400928497314e-01,-1.297555416822433472e-01,-3.068176805973052979e-01,-8.736668825149536133e-01,-3.572291135787963867e-01,2.441328316926956177e-01,-9.272610396146774292e-02,4.286175668239593506e-01,-1.713291257619857788e-01,4.383450448513031006e-01,-7.923497818410396576e-03,5.398643016815185547e-01,3.977455496788024902e-01,2.406242340803146362e-01,-1.997047662734985352e-01,-8.170371651649475098e-01,2.859995365142822266e-01,-4.659353196620941162e-02,1.532629877328872681e-01,-5.454701185226440430e-01,-1.145264133810997009e-02,-2.699325382709503174e-01,-1.282998621463775635e-01,-2.735491693019866943e-01,2.872480452060699463e-01,3.474367782473564148e-02,-2.033945024013519287e-01,7.436572909355163574e-01,3.543647751212120056e-02,6.287159919738769531e-01,2.453766297549009323e-03,-6.180285811424255371e-01,3.876210376620292664e-02,6.794551014900207520e-01,2.028564214706420898e-01,-1.914505511522293091e-01,-5.018869042396545410e-01,5.806651711463928223e-01,6.473441720008850098e-01,-3.355597853660583496e-01,3.426126241683959961e-01,2.818464934825897217e-01,5.033594369888305664e-01,6.668029427528381348e-01,6.019756793975830078e-01,-7.555620074272155762e-01,2.800888717174530029e-01,-4.922208562493324280e-02,-2.238968014717102051e-01,9.182868152856826782e-02,-1.667228639125823975e-01,-4.282663762569427490e-01,-2.374546080827713013e-01,1.048783063888549805e+00,-1.482044696807861328e+00,9.988555312156677246e-01,-4.265380799770355225e-01,-4.203195869922637939e-02,2.855776250362396240e-01,1.119190454483032227e-01,-1.463692039251327515e-01,2.273223102092742920e-01,3.460133373737335205e-01,-2.429106980562210083e-01,2.985219657421112061e-01,7.580310851335525513e-02,-1.841205656528472900e-01,1.418545722961425781e+00,1.347127407789230347e-01,-3.861771523952484131e-01,1.034501194953918457e-01,-2.988318502902984619e-01,-6.860682368278503418e-01,-1.158385798335075378e-01,-2.682304084300994873e-01,4.686134457588195801e-01,-1.315509676933288574e+00,-1.226919610053300858e-02,6.888941675424575806e-02,-1.022949337959289551e+00,3.475112020969390869e-01,-1.346152368932962418e-02,3.527497649192810059e-01,9.686794877052307129e-01,-5.191661715507507324e-01,7.688093781471252441e-01,-1.092380657792091370e-01,2.305314302444458008e+00,-3.303203284740447998e-01,6.297531723976135254e-01,3.020724356174468994e-01,-7.389072775840759277e-01,8.851267397403717041e-03,-2.548902928829193115e-01,1.217502877116203308e-01,8.021425008773803711e-01,1.128616631031036377e-01,-9.487204551696777344e-01,7.557793259620666504e-01,-5.154521786607801914e-04,1.778797507286071777e-01,7.506504654884338379e-01,4.291864931583404541e-01,-1.432108879089355469e-01,-8.063811659812927246e-01,-7.348948121070861816e-01,-5.120702385902404785e-01,-1.167480111122131348e+00
3.707492351531982422e-01,-1.594156324863433838e-01,-2.901131510734558105e-01,1.727565377950668335e-01,-9.291361272335052490e-02,4.205078482627868652e-01,-1.930520832538604736e-01,1.281205773353576660e+00,7.836223840713500977e-01,1.206587553024291992e+00,-1.998132348060607910e+00,-8.523466587066650391e-01,3.207611441612243652e-01,1.008572578430175781e+00,-9.521179795265197754e-01,2.938863337039947510e-01,4.259451031684875488e-01,1.427823156118392944e-01,1.378748565912246704e-01,-1.215379118919372559e+00,1.227161288261413574e-01,8.536610007286071777e-01,-1.736442893743515015e-01,-1.475568953901529312e-02,-1.585658550262451172e+00,-1.712572127580642700e-01,-4.062666296958923340e-01,-1.236139833927154541e-01,-2.342835903167724609e+00,-4.219389855861663818e-01,-4.546674787998199463e-01,6.415650844573974609e-01,-9.644386917352676392e-02,-6.681513190269470215e-01,3.633722364902496338e-01,-1.401225328445434570e+00,4.749748110771179199e-01,5.937105417251586914e-01,-1.112717762589454651e-01,-2.180562615394592285e-01,1.463231444358825684e-01,1.989412754774093628e-01,-1.307505071163177490e-01,1.378191947937011719e+00,5.051214098930358887e-01,-1.444900155067443848e+00,-8.341526240110397339e-02,5.760498642921447754e-01,1.239276155829429626e-01,-4.593000113964080811e-01,-7.726750969886779785e-01,-7.591303586959838867e-01,2.235365211963653564e-01,6.246955394744873047e-01,-5.482057332992553711e-01,-2.890581786632537842e-01,-5.935673713684082031e-01,8.714593648910522461e-01,8.784949779510498047e-01,1.252571642398834229e-01,8.924482762813568115e-02,-2.171858400106430054e-01,-2.860897779464721680e-01,-1.746285080909729004e+00,2.418527752161026001e-01,7.680605053901672363e-01,5.549406409263610840e-01,1.591456234455108643e-01,9.946180582046508789e-01,2.860802412033081055e-01,-2.339228838682174683e-01,-4.392916858196258545e-01,-3.407378494739532471e-01,4.566224217414855957e-01,2.481649070978164673e-01,-7.977643013000488281e-01,4.900580346584320068e-01,-4.079033136367797852e-01,2.958165705204010010e-01,3.869652748107910156e-01,-5.261640548706054688e-01,9.205315709114074707e-01,6.211286038160324097e-02,4.344051182270050049e-01,-2.120302915573120117e-01,4.487215876579284668e-01,-3.490598797798156738e-01,5.875193476676940918e-01,6.576954126358032227e-01,-7.655973434448242188e-01,9.256327897310256958e-02,-7.996376752853393555e-01,8.172880411148071289e-01,-1.163348555564880371e+00,-7.791671156883239746e-01,1.063033193349838257e-01,4.417275786399841309e-01,-9.036082029342651367e-02,9.296342730522155762e-01,9.899206161499023438e-01,-3.585733771324157715e-01,3.718938827514648438e-01,2.165474891662597656e-01,1.547645926475524902e-01,-5.854245424270629883e-01,2.846935987472534180e-01,4.833557903766632080e-01,-2.755179107189178467e-01,-4.684052988886833191e-02,1.673459708690643311e-01,3.048608005046844482e-01,4.110117256641387939e-01,-1.401741951704025269e-01,-1.955518275499343872e-01,4.734402000904083252e-01,-1.260709643363952637e+00,-3.857922554016113281e-01,-1.761490404605865479e-01,-1.219503879547119141e+00,-2.376564890146255493e-01,4.583875238895416260e-01,1.839334517717361450e-01,-1.204420626163482666e-01,-9.869815111160278320e-01,-8.383516073226928711e-01,-1.066225647926330566e+00,-9.826235175132751465e-01,-3.637442886829376221e-01,-1.676388382911682129e+00,9.378510713577270508e-01,6.597682237625122070e-01,-6.777121424674987793e-01,9.304015338420867920e-02,2.045868039131164551e-01,3.225442171096801758e-01,1.817101538181304932e-01,1.751739680767059326e-01,3.070093691349029541e-01,-7.050825357437133789e-01,-6.890884041786193848e-01,-1.100424766540527344e+00,-4.289256930351257324e-01,-1.190668120980262756e-01,-6.958826184272766113e-01,-6.018419191241264343e-02,-2.211822569370269775e-01,1.260545253753662109e+00,3.422110974788665771e-01,-3.379772305488586426e-01,2.565525472164154053e-01,9.751322865486145020e-01,1.154197081923484802e-01,-4.949371516704559326e-02,5.171907544136047363e-01,9.491345286369323730e-01,-1.781809777021408081e-01,-3.731249868869781494e-01,-2.098312228918075562e-01,-6.406762599945068359e-01,-1.955132037401199341e-01,-2.112668752670288086e-01,1.067622303962707520e+00,4.383614957332611084e-01,1.151660442352294922e+00,8.658869266510009766e-01,1.127009749412536621e+00,-3.345085382461547852e-01,5.149710774421691895e-01,1.166635155677795410e-01,3.117650048807263374e-03,-6.866016983985900879e-02,-3.045979142189025879e-01,6.505041122436523438e-01,-5.844962000846862793e-01,-9.263387918472290039e-01,2.408849149942398071e-01,-6.338608264923095703e-02,3.012685775756835938e-01,6.425160765647888184e-01,3.010094761848449707e-01,-3.494751155376434326e-01,2.858713865280151367e-01,2.122291177511215210e-01,2.739801108837127686e-01,1.849817037582397461e-01,-7.012353837490081787e-02,-8.357631042599678040e-03,-1.217291876673698425e-01,-2.982215583324432373e-01,-7.876488566398620605e-02,-6.588884592056274414e-01,-1.692605763673782349e-02,9.176342934370040894e-02,1.511740684509277344e-01,-6.925602555274963379e-01,-7.258040904998779297e-01,2.533739805221557617e-01,2.515117526054382324e-01,4.201000332832336426e-01,4.670121669769287109e-01
-5.449673533439636230e-01,9.392026066780090332e-02,8.126363158226013184e-01,2.196886837482452393e-01,3.046209812164306641e-01,2.708642780780792236e-01,-2.502212822437286377e-01,7.933759689331054688e-02,-2.184843122959136963e-01,-6.337206065654754639e-02,-4.229920208454132080e-01,1.297604739665985107e-01,6.878539323806762695e-01,2.555238008499145508e-01,-5.495532974600791931e-02,-6.779217123985290527e-01,-3.307240605354309082e-01,-2.394402772188186646e-01,-1.213088631629943848e+00,6.584217399358749390e-02,-1.813732832670211792e-01,-8.123385906219482422e-02,-2.944630682468414307e-01,1.035033941268920898e+00,-9.044192731380462646e-02,2.175444364547729492e-01,-2.570979297161102295e-01,-5.766568183898925781e-01,-1.343887746334075928e-01,5.416740179061889648e-01,-3.438807725906372070e-01,-3.208190500736236572e-01,-1.369324326515197754e+00,2.542805671691894531e-01,-7.714480161666870117e-01,-1.259304761886596680e+00,9.503039121627807617e-01,8.511835336685180664e-02,7.388608455657958984e-01,4.347449913620948792e-02,6.555328965187072754e-01,-1.072444841265678406e-01,3.221181035041809082e-02,2.919487059116363525e-01,2.855429649353027344e-01,1.059239745140075684e+00,2.704845070838928223e-01,2.288200557231903076e-01,1.862725019454956055e-01,8.882757425308227539e-01,3.809507787227630615e-01,2.053373605012893677e-01,-5.078057646751403809e-01,5.236235260963439941e-01,-3.680799603462219238e-01,2.756188809871673584e-02,-2.780345678329467773e-01,-3.428450822830200195e-01,1.301045417785644531e-01,1.216748714447021484e+00,3.297984302043914795e-01,5.169473886489868164e-01,-2.675020880997180939e-02,9.555778652429580688e-02,-5.954706668853759766e-01,6.469764709472656250e-01,3.710040152072906494e-01,-3.307439088821411133e-01,5.842189788818359375e-01,-7.073488831520080566e-01,2.842882871627807617e-01,-1.327518373727798462e-02,-8.954378962516784668e-01,-1.859369874000549316e-01,9.731544554233551025e-02,-1.212216615676879883e+00,-1.153659522533416748e-01,4.134841561317443848e-01,-2.733284533023834229e-01,-8.187235593795776367e-01,-6.481400877237319946e-02,-4.533636569976806641e-01,7.256185263395309448e-02,1.539896577596664429e-01,-3.392569124698638916e-01,8.997013568878173828e-01,4.102272391319274902e-01,-3.259567022323608398e-01,2.023777067661285400e-01,-1.081551194190979004e+00,4.417292475700378418e-01,-1.751448214054107666e-01,1.484904050827026367e+00,2.851780652999877930e-01,-2.665004730224609375e-01,-4.035763740539550781e-01,4.618292152881622314e-01,-1.077129244804382324e+00,6.343715190887451172e-01,-2.548312246799468994e-01,-1.040821909904479980e+00,4.146968945860862732e-03,1.152664184570312500e+00,5.040603280067443848e-01,-4.005901813507080078e-01,-6.659425497055053711e-01,1.372578263282775879e+00,-5.655543208122253418e-01,-5.773162841796875000e-01,1.024927616119384766e+00,-7.871460914611816406e-02,1.095599010586738586e-01,-6.808903813362121582e-01,1.240689214318990707e-02,3.850850462913513184e-01,-5.749451518058776855e-01,-3.309830725193023682e-01,6.686906218528747559e-01,-5.482216924428939819e-02,1.941560804843902588e-01,1.129349112510681152e+00,4.012113511562347412e-01,2.045964598655700684e-01,1.396032720804214478e-01,4.242472648620605469e-01,7.351179122924804688e-01,4.697040021419525146e-01,-2.861409485340118408e-01,-4.150671660900115967e-01,1.069317817687988281e+00,-2.541408836841583252e-01,3.407569229602813721e-01,5.743609070777893066e-01,-7.818144559860229492e-01,-1.547693729400634766e+00,8.611981570720672607e-02,6.724173426628112793e-01,2.058705687522888184e-01,1.525381058454513550e-01,-1.429779678583145142e-01,7.162212133407592773e-01,-1.745701551437377930e+00,1.472209393978118896e-01,-1.475949734449386597e-01,3.510906398296356201e-01,5.653291344642639160e-01,1.236671686172485352e+00,9.921277314424514771e-02,4.455802440643310547e-01,4.528996050357818604e-01,9.951354861259460449e-01,-5.029314756393432617e-01,-1.258977502584457397e-01,-3.865716755390167236e-01,-1.785504072904586792e-01,1.899805068969726562e-01,-6.046549677848815918e-01,-5.259193778038024902e-01,-2.827232182025909424e-01,1.687350422143936157e-01,-1.204958319664001465e+00,-8.430442214012145996e-01,1.238983497023582458e-01,8.689477443695068359e-01,-2.270156145095825195e-01,1.207745909690856934e+00,2.696102559566497803e-01,-4.503797590732574463e-01,-3.416974544525146484e-01,1.674386262893676758e+00,1.148346900939941406e+00,6.453586369752883911e-02,1.052490249276161194e-01,5.014398694038391113e-01,5.412936806678771973e-01,2.698868513107299805e-01,-4.906611144542694092e-01,-8.124048113822937012e-01,6.888720393180847168e-02,6.038482189178466797e-01,4.323509931564331055e-01,-1.867204308509826660e-01,1.078583240509033203e+00,8.048915266990661621e-01,2.815310060977935791e-01,5.224869251251220703e-01,-7.427538037300109863e-01,-2.931036651134490967e-01,4.498707056045532227e-01,-1.098194599151611328e+00,6.815420985221862793e-01,7.084597647190093994e-02,1.153712570667266846e-01,-1.242558956146240234e+00,7.038646936416625977e-01,-6.267519295215606689e-02,-3.867559134960174561e-01,7.708876729011535645e-01,-1.477975964546203613e+00,7.735900878906250000e-01
-3.321080803871154785e-01,-1.661483198404312134e-01,5.244704484939575195e-01,1.316984295845031738e-01,-7.051172852516174316e-02,2.620055973529815674e-01,2.115204334259033203e+00,2.307842820882797241e-01,-1.230715140700340271e-01,8.031996488571166992e-01,-4.570995569229125977e-01,5.483989715576171875e-01,9.524654150009155273e-01,-5.680406093597412109e-01,2.821641266345977783e-01,-7.019989490509033203e-01,-1.162160858511924744e-01,-3.084135949611663818e-01,5.085717439651489258e-01,-6.164807081222534180e-02,-5.818012356758117676e-01,7.587150335311889648e-01,3.133818209171295166e-01,-1.317382156848907471e-01,-4.330423474311828613e-01,2.061917781829833984e-01,-5.371497943997383118e-03,-5.286365747451782227e-02,-5.504761934280395508e-01,-1.665513038635253906e+00,6.911750435829162598e-01,6.618182659149169922e-01,-1.807089596986770630e-01,-4.002404510974884033e-01,4.749773442745208740e-01,-5.111764743924140930e-02,-2.399632483720779419e-01,6.255249381065368652e-01,6.685739755630493164e-01,-8.725719451904296875e-01,-2.885013222694396973e-01,-4.395640790462493896e-01,4.310943186283111572e-01,4.674997925758361816e-01,-2.280386537313461304e-01,-7.121523618698120117e-01,-1.285827875137329102e+00,4.611625969409942627e-01,2.121269464492797852e+00,1.443497538566589355e+00,7.751653194427490234e-01,-8.821791410446166992e-02,1.593513488769531250e-01,-8.646269440650939941e-01,3.595036566257476807e-01,-4.090270102024078369e-01,1.138998717069625854e-01,-6.544768214225769043e-01,3.667567670345306396e-01,9.561756253242492676e-01,-8.527020364999771118e-02,2.723848521709442139e-01,7.646624445915222168e-01,-2.221992164850234985e-01,3.247164487838745117e-01,-2.396095544099807739e-02,-2.494322508573532104e-01,-7.137264311313629150e-02,3.805398195981979370e-02,-4.146569371223449707e-01,5.740547925233840942e-02,-3.879617154598236084e-02,4.827570170164108276e-02,-3.655739128589630127e-01,-9.950927644968032837e-02,4.741884469985961914e-01,8.978658318519592285e-01,-4.570173621177673340e-01,6.406493186950683594e-01,7.441734671592712402e-01,2.671841382980346680e-01,-2.043348699808120728e-01,-6.737399697303771973e-01,1.896203756332397461e-01,-3.215210735797882080e-01,1.493470966815948486e-01,-8.747031688690185547e-01,-3.328864276409149170e-01,7.038335800170898438e-01,5.521392822265625000e-01,7.590152621269226074e-01,-1.061491593718528748e-01,4.590620994567871094e-01,-2.918796837329864502e-01,-7.934058308601379395e-01,4.369797408580780029e-01,-7.056366652250289917e-02,3.041546344757080078e-01,-8.493970334529876709e-02,8.687844872474670410e-01,-4.091740772128105164e-02,8.714789748191833496e-01,6.304815411567687988e-02,-4.417535662651062012e-01,-8.520837426185607910e-01,-1.210534796118736267e-01,-7.177676558494567871e-01,-1.079258441925048828e+00,4.556171596050262451e-01,-4.094205498695373535e-01,-8.136841058731079102e-01,1.294100470840930939e-02,-7.809549570083618164e-01,-7.236342132091522217e-02,1.388397067785263062e-01,-1.208801642060279846e-01,1.992169469594955444e-01,-2.694326937198638916e-01,2.197134643793106079e-01,3.401887118816375732e-01,1.161577224731445312e+00,-2.716674208641052246e-01,-7.904258370399475098e-02,1.389710009098052979e-01,9.059958457946777344e-01,-2.367662079632282257e-02,-8.000970482826232910e-01,-1.311613172292709351e-01,-3.689089417457580566e-01,4.476581215858459473e-01,-3.963508903980255127e-01,-8.133991956710815430e-01,4.751617610454559326e-01,3.127300739288330078e-01,3.880980610847473145e-01,6.499429345130920410e-01,-5.542138218879699707e-01,2.270751148462295532e-01,-5.954185128211975098e-02,-2.435640990734100342e-01,-1.194579806178808212e-02,1.738449372351169586e-02,-2.444809377193450928e-01,4.222484230995178223e-01,7.906717807054519653e-02,9.024558067321777344e-01,-6.950692534446716309e-01,-2.106352597475051880e-01,-9.000115990638732910e-01,-2.577239871025085449e-01,8.802737593650817871e-01,-2.787425518035888672e-01,-4.592322111129760742e-01,7.307892292737960815e-02,-2.723340690135955811e-01,2.894676029682159424e-01,-4.085290431976318359e-01,4.812402129173278809e-01,-6.607925146818161011e-02,2.446088194847106934e-01,5.838904976844787598e-01,-2.362494170665740967e-01,2.437779605388641357e-01,4.591763615608215332e-01,-1.018198579549789429e-01,-8.634301275014877319e-02,-6.038062572479248047e-01,5.925550684332847595e-02,3.203986883163452148e-01,-3.151063919067382812e-01,-7.078311443328857422e-01,2.125592529773712158e-02,1.864707618951797485e-01,3.261328935623168945e-01,6.646132469177246094e-01,7.446947097778320312e-01,-6.329285502433776855e-01,1.200772747397422791e-01,-4.802345335483551025e-01,6.952567696571350098e-01,3.711128234863281250e-01,1.894136965274810791e-01,5.123378634452819824e-01,4.259446561336517334e-01,2.696597389876842499e-02,2.006943970918655396e-01,-2.378428429365158081e-01,4.591699242591857910e-01,-2.937080562114715576e-01,9.246174246072769165e-02,-2.627400755882263184e-01,-2.724866271018981934e-01,-1.607544124126434326e-01,2.321297675371170044e-01,9.421036392450332642e-02,-2.719265408813953400e-02,2.555848956108093262e-01,-1.629651635885238647e-01,-1.733199954032897949e-01,-7.161729782819747925e-02
-7.590467929840087891e-01,1.266442656517028809e+00,4.452506005764007568e-01,-4.538409411907196045e-01,-3.132586181163787842e-01,1.268329322338104248e-01,1.619167566299438477e+00,1.301563739776611328e+00,-1.064469575881958008e+00,6.224998235702514648e-01,5.390524268150329590e-01,9.756405949592590332e-01,-5.392913147807121277e-02,-3.888742029666900635e-01,1.759817004203796387e-01,-6.833845376968383789e-01,1.100028213113546371e-02,-1.636027246713638306e-01,-5.349224805831909180e-01,-7.258816361427307129e-01,-7.751200795173645020e-01,8.829854726791381836e-01,6.187893077731132507e-02,-2.525625228881835938e-01,-5.023255348205566406e-01,-1.283026695251464844e+00,3.112804517149925232e-02,-1.015343591570854187e-01,-7.222977876663208008e-01,-1.118308186531066895e+00,-3.798091411590576172e-01,7.022582739591598511e-02,7.922648787498474121e-01,-9.370615482330322266e-01,-3.824161291122436523e-01,-1.216214820742607117e-01,5.193433165550231934e-01,2.814850807189941406e-01,-3.517614901065826416e-01,-1.128374695777893066e+00,5.086520221084356308e-03,7.333987355232238770e-01,-8.187040686607360840e-03,1.884456157684326172e+00,1.023401021957397461e+00,-1.923766732215881348e-01,-8.232138752937316895e-01,8.168900012969970703e-01,3.942897915840148926e-01,1.973086595535278320e-01,-8.428621888160705566e-01,-5.875641703605651855e-01,1.743548065423965454e-01,7.071362733840942383e-01,1.180230736732482910e+00,-1.285638928413391113e+00,8.885246515274047852e-01,-2.286386042833328247e-01,1.003209233283996582e+00,6.240971684455871582e-01,-1.587293505668640137e+00,-3.655413389205932617e-01,-1.444442152976989746e+00,1.025002717971801758e+00,1.531136035919189453e-01,-4.306885898113250732e-01,1.622662901878356934e+00,1.096971154212951660e+00,-8.726339340209960938e-01,-3.007655441761016846e-01,1.174788236618041992e+00,-4.504224658012390137e-01,-5.639778822660446167e-02,-9.165238738059997559e-01,2.175717353820800781e-01,-2.358024269342422485e-01,1.490357756614685059e+00,1.502050638198852539e+00,-4.761214554309844971e-01,-2.564463615417480469e-01,-3.056950867176055908e-01,-1.115592956542968750e+00,-1.642458736896514893e-01,9.249863028526306152e-01,7.686865925788879395e-01,-1.081485748291015625e+00,6.527223587036132812e-01,-1.743341088294982910e-01,-1.021820530295372009e-01,-1.175910830497741699e+00,1.486247181892395020e-01,-6.547020077705383301e-01,5.755845904350280762e-01,5.371747016906738281e-01,2.628197073936462402e-01,1.030392870306968689e-01,2.684554755687713623e-01,-1.282332420349121094e+00,-9.151912331581115723e-01,-7.794702053070068359e-01,3.738779425621032715e-01,4.091347157955169678e-01,-3.972317874431610107e-01,-4.087704233825206757e-03,-1.498546898365020752e-01,-2.788475751876831055e-01,8.285099267959594727e-01,-5.013741850852966309e-01,-4.202667474746704102e-01,-4.431949928402900696e-02,-9.998608827590942383e-01,1.978792548179626465e-01,2.705531716346740723e-01,-2.312968373298645020e-01,-5.652375817298889160e-01,4.556922614574432373e-02,-4.718072116374969482e-01,-2.240069806575775146e-01,-6.566827297210693359e-01,-4.545400142669677734e-01,5.106738209724426270e-01,-2.586983740329742432e-01,-1.506543308496475220e-01,-1.706373542547225952e-01,3.286574184894561768e-01,1.291069239377975464e-01,-4.386601224541664124e-02,3.077733516693115234e-01,-5.254991650581359863e-01,4.926153719425201416e-01,-1.097935587167739868e-01,1.187985949218273163e-02,8.221176266670227051e-02,-1.344466805458068848e-01,2.841901183128356934e-01,2.074441909790039062e-01,-2.222968041896820068e-01,2.127830870449542999e-02,1.592988520860671997e-01,9.635604619979858398e-01,1.861837655305862427e-01,-8.521116971969604492e-01,-6.607461720705032349e-02,4.034414887428283691e-01,-2.835995703935623169e-02,-2.120528519153594971e-01,-2.754082679748535156e-01,4.154849946498870850e-01,3.246816396713256836e-01,2.298037409782409668e-01,1.142283678054809570e+00,1.814486831426620483e-01,-9.280203580856323242e-01,-7.429872155189514160e-01,8.037261366844177246e-01,-3.587937355041503906e-01,-4.942270517349243164e-01,1.174895763397216797e-01,1.471182703971862793e-01,8.775739073753356934e-01,1.689923554658889771e-01,-2.846072912216186523e-01,3.243569731712341309e-01,-3.224445879459381104e-01,4.972733557224273682e-02,-5.384399741888046265e-02,-6.151565909385681152e-02,1.031913310289382935e-01,-2.560306787490844727e-01,-9.317309260368347168e-01,4.314620196819305420e-01,-2.470322549343109131e-01,4.969112575054168701e-01,2.768127322196960449e-01,-9.346576929092407227e-01,7.385827600955963135e-02,-5.767133831977844238e-01,-2.932324707508087158e-01,2.891981303691864014e-01,-2.930303812026977539e-01,-4.294176995754241943e-01,-6.495536565780639648e-01,7.279279232025146484e-01,5.534358024597167969e-01,3.182078301906585693e-01,-2.763411998748779297e-01,3.900821208953857422e-01,-2.028043419122695923e-01,-4.368114769458770752e-01,-6.712270975112915039e-01,2.606993615627288818e-01,-3.220901489257812500e-01,-3.722451329231262207e-01,8.966147899627685547e-01,1.302737593650817871e-01,-3.105571866035461426e-01,-3.358195722103118896e-01,-4.070525765419006348e-01,5.400928854942321777e-01,4.961064159870147705e-01
2.114566713571548462e-01,-2.869963645935058594e-01,9.431862086057662964e-02,1.218841433525085449e+00,1.074985116720199585e-01,8.901839852333068848e-01,-4.540880769491195679e-02,7.121120095252990723e-01,3.818874657154083252e-01,-1.989624500274658203e-01,5.182033777236938477e-01,4.432229995727539062e-01,3.731072545051574707e-01,9.130994230508804321e-02,1.162365436553955078e+00,-1.875241547822952271e-01,-7.846220135688781738e-01,-9.785048663616180420e-02,1.058123447000980377e-02,-5.900072455406188965e-01,1.751442700624465942e-01,3.816870152950286865e-01,-7.906139492988586426e-01,-2.581901848316192627e-01,-4.999769330024719238e-01,-5.943977832794189453e-01,-2.903522551059722900e-01,-9.842261075973510742e-01,-1.505051136016845703e+00,-8.332372903823852539e-01,-3.402135670185089111e-01,3.539831042289733887e-01,2.897053062915802002e-01,-3.159942924976348877e-01,-1.345907598733901978e-01,6.100523471832275391e-01,8.647253736853599548e-03,2.713736593723297119e-01,-2.019092738628387451e-01,-1.501168608665466309e-01,-5.173828601837158203e-01,3.285596147179603577e-03,2.937775477766990662e-02,1.423929929733276367e-01,1.631896615028381348e+00,-4.401440620422363281e-01,1.250928640365600586e-01,1.116541862487792969e+00,-2.338291853666305542e-01,-2.731530666351318359e-01,7.499945908784866333e-02,4.326111674308776855e-01,4.375612735748291016e-02,5.311387777328491211e-01,6.577039957046508789e-01,-1.075001120567321777e+00,1.233469843864440918e+00,1.316590785980224609e+00,1.068300604820251465e+00,-1.017984524369239807e-01,-3.396454155445098877e-01,-4.598496854305267334e-01,-3.309033811092376709e-01,2.277808427810668945e+00,-3.106791377067565918e-01,-3.157714381814002991e-02,5.237465500831604004e-01,1.128836274147033691e+00,-1.276141166687011719e+00,7.266865372657775879e-01,-2.953855693340301514e-02,-1.476002484560012817e-01,1.443214118480682373e-01,5.980324149131774902e-01,1.310999393463134766e-01,-3.454388380050659180e-01,-3.132871389389038086e-01,-4.785433113574981689e-01,5.715001225471496582e-01,-3.768197819590568542e-02,4.471068978309631348e-01,2.027832508087158203e+00,3.439654782414436340e-02,5.757774114608764648e-01,7.366844415664672852e-01,4.944869875907897949e-01,-7.351339459419250488e-01,-2.039795219898223877e-01,-2.387796640396118164e-01,3.585766255855560303e-01,-2.600250542163848877e-01,-4.918104112148284912e-01,6.036993265151977539e-01,4.918968677520751953e-02,5.770936012268066406e-01,1.272919297218322754e+00,4.612093269824981689e-01,1.570040434598922729e-01,-1.510707437992095947e-01,-1.014157056808471680e+00,6.992622017860412598e-01,6.538902968168258667e-02,1.632191240787506104e-02,2.311122417449951172e-01,-4.712132215499877930e-01,9.002150297164916992e-01,-1.031545996665954590e-01,1.013191565871238708e-01,1.546235829591751099e-01,-2.889751195907592773e-01,1.597305387258529663e-01,-3.444517552852630615e-01,-4.563050568103790283e-01,8.072519898414611816e-01,-3.369828462600708008e-01,2.050658762454986572e-01,-3.911426663398742676e-02,3.710710629820823669e-02,4.677847325801849365e-01,-3.109797835350036621e-01,-4.922277033329010010e-01,2.075650095939636230e-01,-2.446397095918655396e-01,-1.865674853324890137e+00,-1.035536602139472961e-01,-1.839528679847717285e-01,-6.044086813926696777e-01,-1.050880670547485352e+00,-1.793594121932983398e+00,8.324047327041625977e-01,-1.111372351646423340e+00,-4.061100780963897705e-01,-3.798264861106872559e-01,-8.165146708488464355e-01,-7.889729738235473633e-02,3.120754100382328033e-02,-1.298393845558166504e+00,1.399066448211669922e-01,-8.837433159351348877e-02,-5.877030491828918457e-01,7.417817413806915283e-02,2.795355916023254395e-01,-1.642948150634765625e+00,-5.295176506042480469e-01,-3.302901983261108398e-01,4.945580661296844482e-01,1.263652294874191284e-01,-3.370901644229888916e-01,-1.695515811443328857e-01,7.731961607933044434e-01,6.232211589813232422e-01,1.227970495820045471e-01,-1.060533881187438965e+00,2.947906851768493652e-01,-2.612133324146270752e-01,1.157861854881048203e-02,6.143650412559509277e-01,3.511580079793930054e-02,-6.897947192192077637e-01,4.769708216190338135e-01,1.363597214221954346e-01,1.267863988876342773e+00,-4.722906053066253662e-01,-2.125447988510131836e-01,2.085970640182495117e-01,5.706782639026641846e-02,5.731443688273429871e-02,1.047385409474372864e-01,8.472170233726501465e-01,8.585559129714965820e-01,8.126394748687744141e-01,-6.220554709434509277e-01,6.956694722175598145e-01,-6.813211441040039062e-01,-5.186365842819213867e-01,7.408998608589172363e-01,2.618972063064575195e-01,2.451143860816955566e-01,-4.013587022200226784e-04,-4.375407099723815918e-01,2.171012572944164276e-02,-2.076531201601028442e-01,6.271449327468872070e-01,-3.321245908737182617e-01,6.130974292755126953e-01,-9.093443751335144043e-01,-3.058244287967681885e-01,1.901300251483917236e-01,-8.712873458862304688e-01,1.938385814428329468e-01,-1.078877449035644531e-01,3.783712387084960938e-01,5.326306819915771484e-01,-9.767661988735198975e-02,-2.449079155921936035e-01,-2.511715590953826904e-01,-3.013554215431213379e-01,-3.800925016403198242e-01,8.529882878065109253e-03,-2.080455273389816284e-01
-1.962581276893615723e-02,4.236325323581695557e-01,8.307506889104843140e-02,-4.328443408012390137e-01,1.801209747791290283e-01,3.620128631591796875e-01,-8.108446374535560608e-03,7.340998649597167969e-01,1.883277744054794312e-01,-8.607100844383239746e-01,9.069447517395019531e-01,-1.092861443758010864e-01,-3.791388273239135742e-01,2.651406824588775635e-01,-1.342267245054244995e-01,1.799245178699493408e-01,6.384433507919311523e-01,-1.500704884529113770e-01,2.138789594173431396e-01,7.846665978431701660e-01,-9.202401041984558105e-01,1.507720202207565308e-01,5.795102119445800781e-01,3.992886245250701904e-01,-8.603638410568237305e-01,-7.032953500747680664e-01,-2.465950511395931244e-02,-6.104649305343627930e-01,-3.242785632610321045e-01,2.285695821046829224e-01,1.236192435026168823e-01,-7.280912995338439941e-01,-3.145418763160705566e-01,8.519189059734344482e-02,3.245381116867065430e-01,-3.793350756168365479e-01,6.107191443443298340e-01,1.796382069587707520e-01,3.563587963581085205e-01,1.206271946430206299e-01,1.488038152456283569e-01,6.434758305549621582e-01,1.885501444339752197e-01,3.261514306068420410e-01,-1.675446182489395142e-01,-5.104568600654602051e-01,2.395368516445159912e-01,-4.239301681518554688e-01,-4.699165523052215576e-01,-3.212939575314521790e-02,-1.522040218114852905e-01,-6.270723044872283936e-02,1.328589916229248047e+00,-6.911060959100723267e-02,2.805079817771911621e-01,-4.660035967826843262e-01,3.517357409000396729e-01,2.034495174884796143e-01,1.093396902084350586e+00,2.076276838779449463e-01,-4.542201757431030273e-01,-3.256063461303710938e-01,-2.421533912420272827e-01,-1.687866151332855225e-01,4.865327179431915283e-01,-3.471634089946746826e-01,6.393131017684936523e-01,4.146727919578552246e-02,-6.142326071858406067e-02,2.991463840007781982e-01,6.512056589126586914e-01,1.899779736995697021e-01,3.641826212406158447e-01,-6.628002971410751343e-02,-2.845760881900787354e-01,6.124259233474731445e-01,8.420418500900268555e-01,-4.529678523540496826e-01,-5.452960729598999023e-01,1.904240846633911133e-01,7.796239852905273438e-01,-6.173566728830337524e-02,7.924031019210815430e-01,-3.771972283720970154e-02,-1.093069463968276978e-02,4.839449226856231689e-01,8.942049145698547363e-01,-5.730638504028320312e-01,2.945430278778076172e-01,-5.218728184700012207e-01,2.006377577781677246e-01,-7.930416464805603027e-01,1.114953085780143738e-01,5.612980127334594727e-01,6.503530144691467285e-01,-6.289408206939697266e-01,-9.371167421340942383e-02,1.009085774421691895e-01,-1.562896668910980225e-01,4.596651494503021240e-01,-3.526484072208404541e-01,2.722507417201995850e-01,2.377560287714004517e-01,-3.957965672016143799e-01,1.780417114496231079e-01,-2.435029856860637665e-02,2.096912264823913574e-01,-1.041158437728881836e-01,5.827610567212104797e-02,2.787936665117740631e-02,4.234881326556205750e-02,-3.988226354122161865e-01,-5.707091838121414185e-02,3.150835335254669189e-01,2.309422194957733154e-01,-8.977880477905273438e-01,4.356327280402183533e-02,-3.470965921878814697e-01,6.648896634578704834e-02,2.912414968013763428e-01,1.747942119836807251e-01,-3.359571695327758789e-01,-2.563446462154388428e-01,2.439354062080383301e-01,-3.881005346775054932e-01,-4.551044404506683350e-01,-1.286753565073013306e-01,4.574806690216064453e-01,2.557605803012847900e-01,-1.962193995714187622e-01,-1.220080479979515076e-01,2.153918892145156860e-01,-5.230942368507385254e-02,-2.328378558158874512e-01,2.680698931217193604e-01,5.575519800186157227e-01,1.018699705600738525e-01,5.365108847618103027e-01,5.732700824737548828e-01,-3.430147469043731689e-02,-3.920659795403480530e-02,-2.260462790727615356e-01,1.292749047279357910e-01,-4.327841699123382568e-01,4.437082633376121521e-02,-1.765358820557594299e-02,4.087378382682800293e-01,8.327633142471313477e-02,-1.315726786851882935e-01,-1.101786941289901733e-01,2.034966498613357544e-01,-4.706368148326873779e-01,1.877169460058212280e-01,-4.836013615131378174e-01,4.755398035049438477e-01,3.772040307521820068e-01,-3.913716599345207214e-02,-5.127921104431152344e-01,-3.317329883575439453e-01,5.912107825279235840e-01,-1.567996740341186523e-01,-1.771878302097320557e-01,-4.005364328622817993e-02,-1.270266473293304443e-01,2.105646133422851562e-01,3.482826650142669678e-01,3.691258374601602554e-03,-1.631594821810722351e-02,-4.235925525426864624e-02,-3.470881879329681396e-01,-2.752674818038940430e-01,-1.720200777053833008e-01,4.740074276924133301e-01,-2.481785118579864502e-01,-1.241627484560012817e-01,4.524394571781158447e-01,1.272272616624832153e-01,-1.913355290889739990e-01,1.608689129352569580e-01,5.138361360877752304e-03,2.626160383224487305e-01,6.016300618648529053e-02,4.744402319192886353e-02,-3.611338436603546143e-01,1.466694287955760956e-02,7.835085690021514893e-02,-1.273337900638580322e-01,-3.132243752479553223e-01,-7.948119044303894043e-01,-3.570410311222076416e-01,4.336423799395561218e-02,-2.795612439513206482e-02,-7.158161699771881104e-02,-6.980498880147933960e-02,1.781868934631347656e-01,2.050783038139343262e-01,-1.526826471090316772e-01,3.174782395362854004e-01,-9.994003921747207642e-03,-1.558177638798952103e-02
-1.078415513038635254e+00,-3.932525217533111572e-02,1.249976992607116699e+00,-1.068891644477844238e+00,9.786406904458999634e-02,2.072159200906753540e-01,-2.315127998590469360e-01,4.826729595661163330e-01,-5.420585274696350098e-01,-5.478461980819702148e-01,3.545007109642028809e-01,9.316100478172302246e-01,-2.570077180862426758e-01,3.696541786193847656e-01,-2.349244505167007446e-01,-1.918316245079040527e+00,-1.231680750846862793e+00,3.218182921409606934e-01,-1.196731209754943848e+00,4.184535518288612366e-02,4.740177989006042480e-01,4.060164690017700195e-01,7.063738107681274414e-01,-2.585820257663726807e-01,-3.971165716648101807e-01,-4.346579015254974365e-01,2.642965912818908691e-01,-2.764526605606079102e-01,-1.945092678070068359e-01,4.134751558303833008e-01,2.656921148300170898e-01,8.245235309004783630e-03,-3.388702869415283203e-01,-7.077173143625259399e-02,-6.962112337350845337e-02,2.063287645578384399e-01,1.052963614463806152e+00,5.662508010864257812e-01,-1.270360350608825684e-01,-1.200915277004241943e-01,-3.233892619609832764e-01,5.733629465103149414e-01,7.327497005462646484e-01,9.421455860137939453e-01,-8.671348914504051208e-03,-4.899055957794189453e-01,2.202475219964981079e-01,1.315019428730010986e-01,1.884388178586959839e-02,1.258435726165771484e+00,-5.473272204399108887e-01,1.835594773292541504e-01,4.368117451667785645e-01,-2.594847381114959717e-01,1.533436775207519531e-02,-6.879076361656188965e-01,5.914724990725517273e-02,4.663675725460052490e-01,1.169913783669471741e-01,1.805029273033142090e+00,-3.369593024253845215e-01,-5.413177609443664551e-01,3.675263822078704834e-01,-3.253498077392578125e-01,-3.374829888343811035e-01,5.814166739583015442e-02,6.050450801849365234e-01,-4.372542798519134521e-01,5.160108208656311035e-02,-9.787321090698242188e-01,-4.646262526512145996e-02,-1.002132594585418701e-01,1.145149841904640198e-01,1.005787029862403870e-01,1.133223250508308411e-02,4.170667529106140137e-01,-3.011232912540435791e-01,-3.503398597240447998e-01,-4.148223996162414551e-01,1.105818338692188263e-02,7.930916734039783478e-03,3.169687390327453613e-01,3.256780207157135010e-01,-2.356231510639190674e-01,2.278339564800262451e-01,2.441178709268569946e-01,6.813312768936157227e-01,2.042407989501953125e-01,-8.963436633348464966e-02,2.258563488721847534e-01,-2.898442149162292480e-01,-1.360603421926498413e-01,1.460202038288116455e-01,6.495944857597351074e-01,-1.097230762243270874e-01,2.131280750036239624e-01,-3.616555929183959961e-01,-5.780751705169677734e-01,4.438640922307968140e-02,4.650845825672149658e-01,1.638213992118835449e-01,1.676294058561325073e-01,-4.905745759606361389e-02,1.028132513165473938e-01,-3.671193420886993408e-01,4.510965570807456970e-02,-4.839223623275756836e-02,-3.437782227993011475e-01,-1.235762685537338257e-01,2.301538735628128052e-01,-3.009439706802368164e-01,-1.876476593315601349e-02,-2.252132892608642578e-01,-2.018593437969684601e-02,2.945962846279144287e-01,3.787827789783477783e-01,2.567111849784851074e-01,5.085035562515258789e-01,-8.811061829328536987e-02,-4.694667756557464600e-01,-2.121002823114395142e-01,-7.483105659484863281e-01,-1.156800687313079834e-01,5.517936348915100098e-01,3.195796012878417969e-01,2.518749833106994629e-01,1.359050124883651733e-01,-6.725284457206726074e-01,9.158128499984741211e-02,1.276486814022064209e-01,2.198659032583236694e-01,-6.964619755744934082e-01,8.335438370704650879e-02,1.406369656324386597e-01,2.256612330675125122e-01,3.279124945402145386e-02,3.495321795344352722e-02,1.204182505607604980e-01,1.752761155366897583e-01,-1.664703637361526489e-01,2.534351050853729248e-01,6.278128176927566528e-02,2.387807704508304596e-02,5.730589106678962708e-02,2.505570054054260254e-01,2.975474298000335693e-01,1.520278602838516235e-01,-3.353405296802520752e-01,8.306696265935897827e-02,-5.405959486961364746e-01,-1.820498406887054443e-01,-1.289984285831451416e-01,1.983347982168197632e-01,1.468944251537322998e-01,-5.151212960481643677e-02,-5.322728678584098816e-02,7.256364077329635620e-02,-3.447734117507934570e-01,2.755814492702484131e-01,3.704161643981933594e-01,3.164235949516296387e-01,-4.734529182314872742e-02,5.887061357498168945e-02,3.593082427978515625e-01,3.192155063152313232e-01,6.006085872650146484e-01,-2.005215436220169067e-01,9.186205454170703888e-03,8.930220454931259155e-02,5.271667838096618652e-01,9.537631645798683167e-03,1.180787086486816406e-01,-1.107866317033767700e-01,6.098009943962097168e-01,-2.805323898792266846e-01,1.496545821428298950e-01,1.079484820365905762e-01,3.125876188278198242e-01,-2.940187156200408936e-01,2.231217771768569946e-01,1.577784568071365356e-01,-4.538481831550598145e-01,8.916020393371582031e-02,-9.271465986967086792e-02,3.326587080955505371e-01,1.171962693333625793e-01,-3.268197178840637207e-01,2.240803837776184082e-01,-1.224246025085449219e-01,-7.857439517974853516e-01,-9.052906930446624756e-02,-3.321214020252227783e-01,-4.396058320999145508e-01,6.546013355255126953e-01,3.991591930389404297e-01,-1.586868315935134888e-01,3.782483935356140137e-01,-8.895736932754516602e-02,9.974642843008041382e-02,1.988341957330703735e-01
7.627250999212265015e-02,-4.466809034347534180e-01,-1.380662471055984497e-01,1.805371344089508057e-01,1.750560402870178223e-01,-1.112669184803962708e-01,1.940339207649230957e+00,6.223800778388977051e-02,-2.117500603199005127e-01,7.436299324035644531e-01,9.417359828948974609e-01,-5.842822790145874023e-01,6.339133977890014648e-01,-2.766843438148498535e-01,2.761885821819305420e-01,-1.818491518497467041e-01,-8.094384074211120605e-01,-8.019568324089050293e-01,-1.279631555080413818e-01,-4.494931995868682861e-01,5.503025054931640625e-01,2.178678959608078003e-01,-3.822764754295349121e-01,2.636999487876892090e-01,2.438310161232948303e-02,-2.096270322799682617e-01,1.134558469057083130e-01,9.001561254262924194e-02,7.621022313833236694e-02,7.250028252601623535e-01,1.508641541004180908e-01,8.242182433605194092e-02,-6.632056087255477905e-02,4.146822094917297363e-01,-1.682923734188079834e-01,-6.358061730861663818e-02,2.088044434785842896e-01,2.739435732364654541e-01,-1.973295956850051880e-01,4.313625097274780273e-01,-2.053509354591369629e-01,-3.743897657841444016e-03,2.140097022056579590e-01,3.126713931560516357e-01,-6.237467527389526367e-01,9.922227263450622559e-02,-6.253213882446289062e-01,1.846193224191665649e-01,-1.050607264041900635e-01,3.425374925136566162e-01,1.723773777484893799e-01,-9.700237959623336792e-02,-3.202970027923583984e-01,1.041733622550964355e-01,1.527772545814514160e-01,-3.982887268066406250e-01,2.894506230950355530e-02,7.138061523437500000e-01,7.033265233039855957e-01,2.677073776721954346e-01,-5.575774312019348145e-01,-3.519780635833740234e-01,-1.473679989576339722e-01,-9.840453863143920898e-01,8.245071023702621460e-02,-1.997254937887191772e-01,2.332942336797714233e-01,5.322514176368713379e-01,-2.604742944240570068e-01,2.615440171211957932e-03,-1.658781021833419800e-01,-4.798906296491622925e-02,-1.505119353532791138e-01,-2.887474298477172852e-01,-3.467711806297302246e-01,-6.244328022003173828e-01,7.829355448484420776e-02,3.053677976131439209e-01,-3.904035091400146484e-01,5.096828937530517578e-01,1.520642340183258057e-01,4.764966666698455811e-02,-2.754480540752410889e-01,1.336887031793594360e-01,2.599434927105903625e-02,3.786123916506767273e-02,4.478999972343444824e-01,-9.824261069297790527e-03,-1.565078645944595337e-01,-6.105737686157226562e-01,1.639749854803085327e-01,3.392828628420829773e-02,-1.089991480112075806e-01,4.428014531731605530e-02,6.733578443527221680e-02,9.004215598106384277e-01,4.360168278217315674e-01,-9.878092259168624878e-02,3.077508807182312012e-01,6.579345464706420898e-02,3.503847494721412659e-02,1.156618893146514893e-01,-3.335574567317962646e-01,-1.245638579130172729e-01,-4.006815850734710693e-01,-7.807320356369018555e-02,2.890861034393310547e-02,-6.280396878719329834e-02,2.398819625377655029e-01,3.737914860248565674e-01,8.595751971006393433e-02,-5.739770084619522095e-02,1.535985916852951050e-01,-4.826396331191062927e-02,1.811359822750091553e-01,-5.867458414286375046e-03,-2.612884044647216797e-01,1.565845310688018799e-01,2.532286383211612701e-02,-1.960320472717285156e-01,3.842177242040634155e-02,-1.413134783506393433e-01,-3.600681722164154053e-01,-3.868870139122009277e-01,-1.010189875960350037e-01,-1.263136118650436401e-01,-2.868742048740386963e-01,7.469633594155311584e-03,-5.625277757644653320e-02,2.190649509429931641e-01,-8.423777669668197632e-02,-3.707152605056762695e-01,-1.461602151393890381e-01,2.024688124656677246e-01,1.057726368308067322e-01,7.355037610977888107e-03,-2.133911252021789551e-01,-6.884195208549499512e-01,2.160120010375976562e-02,7.932695746421813965e-02,3.438977599143981934e-01,9.231270849704742432e-02,2.963677793741226196e-02,-3.370963931083679199e-01,-1.998294591903686523e-01,-3.537048771977424622e-02,1.866866797208786011e-01,-1.180614978075027466e-01,-8.338461071252822876e-02,-8.434923291206359863e-01,-1.396591216325759888e-01,-4.341255724430084229e-01,2.316721081733703613e-01,3.253494203090667725e-01,-2.840625643730163574e-01,-1.940326690673828125e-01,5.085304379463195801e-02,2.315231859683990479e-01,4.597162827849388123e-03,-2.209596931934356689e-01,6.081946566700935364e-02,-8.252616971731185913e-03,5.236481875181198120e-02,3.718099594116210938e-01,3.153614997863769531e-01,9.610147029161453247e-02,-5.582050886005163193e-03,1.075731515884399414e-01,4.636461436748504639e-01,-1.717355698347091675e-01,3.813252151012420654e-01,1.145418658852577209e-01,2.031170725822448730e-01,-4.168128669261932373e-01,-2.239265851676464081e-02,5.046468377113342285e-01,5.297509431838989258e-01,-1.676355153322219849e-01,1.140410006046295166e-01,1.848651915788650513e-01,7.526846975088119507e-02,-1.982711553573608398e-01,-7.698452472686767578e-02,-2.546053826808929443e-01,9.781171381473541260e-02,6.899007558822631836e-01,-9.567317366600036621e-02,8.796363323926925659e-02,1.053422167897224426e-01,3.552921861410140991e-02,-1.668669432401657104e-01,6.269190460443496704e-02,-4.546742513775825500e-02,1.661042571067810059e-01,-6.360674649477005005e-02,-1.463117152452468872e-01,2.752320095896720886e-02,-2.590165734291076660e-01,-1.511414945125579834e-01,-2.097075246274471283e-02
9.540579048916697502e-05,1.010053139179944992e-02,-8.144589141011238098e-03,-3.419008851051330566e-01,2.511326670646667480e-01,4.676145315170288086e-01,4.048759937286376953e-01,2.543378770351409912e-01,3.272024095058441162e-01,1.359416604042053223e+00,-7.132588028907775879e-01,1.006792306900024414e+00,-6.183189898729324341e-02,-8.801583051681518555e-01,5.925061106681823730e-01,-4.690334200859069824e-01,6.512650102376937866e-02,9.212999939918518066e-01,-1.824424117803573608e-01,1.028555035591125488e+00,-1.837924271821975708e-01,6.453938782215118408e-02,2.425029724836349487e-01,-2.635724544525146484e-01,-4.868068695068359375e-01,-3.125956952571868896e-01,1.128079175949096680e+00,-1.078812405467033386e-01,-4.867486059665679932e-01,-4.637474715709686279e-01,-2.339420765638351440e-01,1.159726023674011230e+00,-6.242148280143737793e-01,-3.315772116184234619e-02,9.131553769111633301e-02,-2.492983579635620117e+00,4.302895963191986084e-01,3.303945660591125488e-01,6.263993382453918457e-01,-3.283157050609588623e-01,-2.162145674228668213e-01,-5.673728585243225098e-01,-2.290250658988952637e-01,5.272482037544250488e-01,-6.260039210319519043e-01,8.845598101615905762e-01,-2.231331914663314819e-01,4.052746891975402832e-01,1.293032050132751465e+00,1.225296556949615479e-01,-6.115445494651794434e-02,3.787469565868377686e-01,-9.852325916290283203e-02,1.678458899259567261e-01,-8.167645335197448730e-01,1.166288033127784729e-01,-9.769264459609985352e-01,-8.751512765884399414e-01,1.216684579849243164e+00,6.529980897903442383e-01,-1.154036283493041992e+00,-6.526796221733093262e-01,-1.390243768692016602e+00,-1.321619004011154175e-01,-3.164535760879516602e-01,1.363170593976974487e-01,1.796169131994247437e-01,-4.477887153625488281e-01,-3.734703361988067627e-02,5.980500951409339905e-02,-8.163464814424514771e-02,5.409221649169921875e-01,7.651622295379638672e-01,-7.071846723556518555e-02,8.080154657363891602e-01,1.698725223541259766e-01,9.417436122894287109e-01,1.178447246551513672e+00,1.767433434724807739e-01,5.380747914314270020e-01,-1.226298213005065918e-01,-2.095152378082275391e+00,-4.991441965103149414e-02,1.831166893243789673e-01,1.746139883995056152e+00,-6.571622490882873535e-01,3.656728267669677734e-01,2.998027503490447998e-01,-2.199502885341644287e-01,-2.066428959369659424e-01,1.536924988031387329e-01,-7.418887615203857422e-01,3.377519547939300537e-01,9.036092758178710938e-01,-6.110383868217468262e-01,-8.636378049850463867e-01,-3.952710330486297607e-01,3.126345276832580566e-01,2.880064770579338074e-02,2.184773087501525879e-01,-2.023247927427291870e-01,2.045785188674926758e-01,2.916441261768341064e-01,7.064374536275863647e-02,-3.096801340579986572e-01,-7.496759891510009766e-01,4.429524838924407959e-01,-1.983175426721572876e-02,-6.056357026100158691e-01,1.250829398632049561e-01,-1.900280267000198364e-01,4.758936911821365356e-02,-6.434240341186523438e-01,7.906643301248550415e-02,-4.799378663301467896e-02,-6.424576044082641602e-01,-5.283032655715942383e-01,1.922519877552986145e-02,-1.670995503664016724e-01,5.765910446643829346e-02,-3.671840727329254150e-01,-2.517027854919433594e-01,2.863635718822479248e-01,2.195718735456466675e-01,-4.946432411670684814e-01,1.320751756429672241e-02,-4.011287391185760498e-01,-1.611213237047195435e-01,-4.690294861793518066e-01,-1.478368490934371948e-01,-1.568955928087234497e-01,-5.035920143127441406e-01,6.443605422973632812e-01,-2.396378964185714722e-01,-2.708333730697631836e-01,5.851811170578002930e-01,-2.572038173675537109e-01,5.016859769821166992e-01,2.553001642227172852e-01,-6.094318255782127380e-02,8.392862081527709961e-01,-6.666356921195983887e-01,-7.117195725440979004e-01,-2.415131926536560059e-01,-7.286079972982406616e-02,-3.808328211307525635e-01,7.050500065088272095e-02,3.475240170955657959e-01,2.769670821726322174e-02,-4.485170245170593262e-01,2.797864377498626709e-01,-3.824445307254791260e-01,-1.108735680580139160e+00,-2.201603204011917114e-01,3.432197570800781250e-01,1.311701834201812744e-01,-2.153024449944496155e-02,8.791971206665039062e-02,-5.407715961337089539e-02,-4.498500227928161621e-01,-5.555549263954162598e-01,4.818867743015289307e-01,1.649466305971145630e-01,1.017514765262603760e-01,3.339888751506805420e-01,-5.128823518753051758e-01,5.629417300224304199e-01,4.377369582653045654e-01,4.363570734858512878e-02,-2.762512266635894775e-01,-1.675915718078613281e-01,-5.616713166236877441e-01,4.708831012248992920e-01,7.441644072532653809e-01,3.051062524318695068e-01,1.495286524295806885e-01,4.456065595149993896e-01,-4.743252396583557129e-01,5.456790924072265625e-01,2.105283290147781372e-01,3.546871989965438843e-02,1.555184721946716309e-01,-1.969913206994533539e-02,-3.320263028144836426e-01,-1.019397899508476257e-01,1.024308502674102783e-01,2.249668985605239868e-01,-6.807658672332763672e-01,4.590825177729129791e-03,-4.529007971286773682e-01,1.954462081193923950e-01,3.264738619327545166e-01,6.157727241516113281e-01,-2.602831721305847168e-01,-3.661080598831176758e-01,3.232311010360717773e-01,-3.550337255001068115e-01,-5.701552629470825195e-01,1.797647178173065186e-01,-4.341821074485778809e-01
-3.398755490779876709e-01,4.242933392524719238e-01,9.579500555992126465e-01,2.548350095748901367e-01,-6.587218493223190308e-02,-3.174836337566375732e-01,-6.977756023406982422e-01,4.800195991992950439e-01,-4.870451092720031738e-01,9.193632006645202637e-01,1.348931074142456055e+00,-5.569168925285339355e-01,3.632327020168304443e-01,-5.926389694213867188e-01,1.199327036738395691e-01,-7.960116863250732422e-02,-1.021616935729980469e+00,3.163326382637023926e-01,-5.676034688949584961e-01,-6.545273065567016602e-01,-5.614215731620788574e-01,1.190195918083190918e+00,8.030082583427429199e-01,2.047624588012695312e-01,-7.099452614784240723e-01,2.478590160608291626e-01,1.023647785186767578e+00,-3.700083494186401367e-01,-2.958396077156066895e-01,6.733610481023788452e-02,9.695869088172912598e-01,1.452799979597330093e-02,-1.458390951156616211e+00,1.989952921867370605e-01,7.120166718959808350e-02,-5.247456431388854980e-01,4.569543898105621338e-01,9.344829320907592773e-01,2.984456419944763184e-01,8.541317284107208252e-02,6.212289929389953613e-01,6.387094408273696899e-02,7.229429483413696289e-01,1.070629715919494629e+00,-6.354613304138183594e-01,-3.677317202091217041e-01,8.176524639129638672e-01,2.022297382354736328e+00,3.092373609542846680e-01,1.269346356391906738e+00,3.630276620388031006e-01,2.595555186271667480e-01,6.995097994804382324e-01,-8.854384720325469971e-02,-1.202276125550270081e-01,-7.027059793472290039e-01,5.508516430854797363e-01,-1.358176469802856445e+00,3.661400973796844482e-01,1.145750045776367188e+00,-1.967447847127914429e-01,1.916072815656661987e-01,-7.866342067718505859e-01,-6.372219324111938477e-01,-1.903315782546997070e-01,-2.881526350975036621e-01,-6.200511455535888672e-01,-2.289469391107559204e-01,-1.618451327085494995e-01,-8.442021012306213379e-01,8.587976694107055664e-01,1.743485629558563232e-01,1.181311130523681641e+00,5.715025588870048523e-02,-2.346164882183074951e-01,-4.743078947067260742e-01,9.414963722229003906e-01,7.791644334793090820e-01,-6.636842489242553711e-01,2.787376344203948975e-01,6.654288172721862793e-01,-2.932573258876800537e-01,-3.739219605922698975e-01,3.307829499244689941e-01,4.583075344562530518e-01,1.248537421226501465e+00,3.605456948280334473e-01,5.477443337440490723e-01,2.194824814796447754e-01,-1.771638393402099609e-01,2.680972218513488770e-01,-1.010663628578186035e+00,-2.167536132037639618e-02,9.407064318656921387e-01,-2.424797117710113525e-01,-1.409899830818176270e+00,8.656657934188842773e-01,-1.783732414245605469e+00,3.324476480484008789e-01,-7.691711932420730591e-02,-1.057531014084815979e-01,1.763034611940383911e-01,-1.692695170640945435e-01,-2.920764386653900146e-01,-8.447099477052688599e-02,-2.566938400268554688e-01,2.962879240512847900e-01,-7.037827372550964355e-01,-5.152025818824768066e-01,-7.778115570545196533e-02,7.709955573081970215e-01,3.080853521823883057e-01,5.320052504539489746e-01,1.201682388782501221e-01,5.920045971870422363e-01,2.909773290157318115e-01,-3.596887886524200439e-01,3.662114143371582031e-01,6.538908481597900391e-01,3.066416382789611816e-01,1.584836989641189575e-01,-1.501819342374801636e-01,8.089905977249145508e-02,5.876972675323486328e-01,-6.661450862884521484e-01,-6.874357461929321289e-01,-1.812703311443328857e-01,1.081492751836776733e-01,-3.068429790437221527e-02,-1.971576660871505737e-01,1.206658840179443359e+00,-4.062608480453491211e-01,-1.530541777610778809e-01,-1.739953905344009399e-01,6.599687337875366211e-01,-2.004638016223907471e-01,-3.942233026027679443e-01,-4.045337438583374023e-02,-1.683563292026519775e-01,4.433816373348236084e-01,2.408344149589538574e-01,-5.246115475893020630e-02,1.406699270009994507e-01,-2.008665651082992554e-01,-6.171889305114746094e-01,2.824552953243255615e-01,3.408043384552001953e-01,5.862907767295837402e-01,1.546205300837755203e-02,1.824403256177902222e-01,5.537952780723571777e-01,-7.053051590919494629e-01,-7.421297430992126465e-01,4.136118590831756592e-01,5.363031029701232910e-01,3.572730123996734619e-01,-3.096293210983276367e-01,4.568547010421752930e-01,-9.443969130516052246e-01,8.918618559837341309e-01,7.396414875984191895e-02,-3.413507044315338135e-01,3.062469065189361572e-01,1.926622004248201847e-03,3.136214911937713623e-01,2.874902784824371338e-01,6.611136794090270996e-01,2.471751123666763306e-01,-2.871193289756774902e-01,-1.287224292755126953e-01,-3.192248642444610596e-01,-4.366876780986785889e-01,6.061780825257301331e-02,5.281340479850769043e-01,2.192220538854598999e-01,-6.471563875675201416e-02,5.505631566047668457e-01,6.751459240913391113e-01,-3.054400682449340820e-01,4.129216074943542480e-02,1.588490158319473267e-01,-7.615669965744018555e-01,1.957753598690032959e-01,-7.009897828102111816e-01,-4.903105199337005615e-01,2.775341570377349854e-01,-4.290854632854461670e-01,-1.151098217815160751e-02,-2.930808961391448975e-01,-2.285329550504684448e-01,-6.360159814357757568e-02,-2.511343061923980713e-01,-4.852067530155181885e-01,-2.817680835723876953e-01,3.639021217823028564e-01,2.417883723974227905e-01,-5.551506578922271729e-02,2.984600067138671875e-01,4.563773870468139648e-01,-2.828320860862731934e-01
4.251533746719360352e-02,9.206106513738632202e-02,-3.771286010742187500e-01,2.287644743919372559e-01,5.434759259223937988e-01,1.312239319086074829e-01,3.663561642169952393e-01,1.280488520860671997e-01,-2.888603806495666504e-01,3.962018713355064392e-02,-1.026857644319534302e-01,-1.622771620750427246e-01,1.726047098636627197e-01,1.766412407159805298e-01,-1.776535995304584503e-03,-4.916363954544067383e-01,-2.962420284748077393e-01,6.131091713905334473e-01,2.323773056268692017e-01,1.877611875534057617e-01,4.414401948451995850e-02,3.654824197292327881e-02,2.707695029675960541e-02,4.874409437179565430e-01,3.454757621511816978e-03,-1.639578938484191895e-01,4.723716676235198975e-01,-4.799625575542449951e-01,-2.697300016880035400e-01,-1.014131605625152588e-01,-2.218406051397323608e-01,1.740171462297439575e-01,4.080565869808197021e-01,5.760622620582580566e-01,-3.956860303878784180e-01,1.039697900414466858e-01,-8.801189810037612915e-02,-1.105227023363113403e-01,-6.255139410495758057e-02,-4.386002123355865479e-01,-2.814559340476989746e-01,2.949156761169433594e-01,9.350330382585525513e-02,-1.404929757118225098e-01,2.760454416275024414e-01,3.235175088047981262e-02,3.783357888460159302e-02,1.715825498104095459e-01,-2.548260390758514404e-01,-5.649217590689659119e-02,-2.918078601360321045e-01,3.868096768856048584e-01,-1.230975091457366943e-01,1.914715319871902466e-01,-2.573790028691291809e-03,-1.411963254213333130e-01,6.848862022161483765e-02,3.076605796813964844e-01,-1.929393261671066284e-01,4.128906503319740295e-02,-4.888786077499389648e-01,-2.120242565870285034e-01,1.986829936504364014e-02,-1.186502128839492798e-01,1.907895356416702271e-01,1.514228433370590210e-01,-1.908220499753952026e-01,-3.435907065868377686e-01,-3.260165452957153320e-01,-3.979637622833251953e-01,6.735636591911315918e-01,-2.179003208875656128e-01,-3.115742802619934082e-01,6.083839014172554016e-02,2.164305597543716431e-01,-4.917576611042022705e-01,3.869184106588363647e-02,4.634961187839508057e-01,-1.679707020521163940e-01,-1.689476072788238525e-01,-1.257120519876480103e-01,1.237351670861244202e-01,-2.157392203807830811e-01,6.854644417762756348e-01,-9.737575426697731018e-03,-4.826657101511955261e-02,-1.528805028647184372e-02,-2.974862456321716309e-01,-1.782598644495010376e-01,-1.125857308506965637e-01,-6.316812634468078613e-01,9.803421050310134888e-02,1.143752574920654297e+00,-2.269068807363510132e-01,-1.772991716861724854e-01,-1.299845129251480103e-01,8.101436495780944824e-02,-2.540906071662902832e-01,1.826231330633163452e-01,-5.331756472587585449e-01,1.837200820446014404e-01,1.194792911410331726e-01,7.335837930440902710e-02,1.621767729520797729e-01,2.292660623788833618e-01,2.449859827756881714e-01,2.467472702264785767e-01,-2.111596465110778809e-01,-5.721597671508789062e-01,3.084635138511657715e-01,-2.686645090579986572e-01,-3.803589940071105957e-01,-3.730221465229988098e-02,2.445367127656936646e-01,1.711467951536178589e-01,7.597414404153823853e-02,-2.200225293636322021e-01,5.602299422025680542e-02,3.842606842517852783e-01,-2.703885734081268311e-01,-4.278863593935966492e-02,-2.342879176139831543e-01,4.350884556770324707e-01,6.409671157598495483e-02,-4.624209105968475342e-01,-3.519820515066385269e-03,7.192246615886688232e-02,-2.186336927115917206e-02,-1.365930676460266113e+00,-4.718448594212532043e-02,-1.221660524606704712e-01,2.082215100526809692e-01,6.522920727729797363e-01,-3.292635083198547363e-01,2.051594853401184082e-01,-1.490054875612258911e-01,-3.956197798252105713e-01,-1.373469531536102295e-01,2.979678213596343994e-01,5.813168287277221680e-01,7.540789842605590820e-01,-8.027814030647277832e-01,-3.112887442111968994e-01,2.213354781270027161e-02,-2.369743734598159790e-01,-1.649052947759628296e-01,1.230039075016975403e-01,2.463175356388092041e-01,-2.145623117685317993e-01,2.523348852992057800e-02,3.868209719657897949e-01,1.585295945405960083e-01,-1.857910007238388062e-01,2.727888822555541992e-01,-4.033603519201278687e-02,1.832350790500640869e-01,-5.443819761276245117e-01,-3.275813162326812744e-01,-2.107881382107734680e-02,-1.420000917278230190e-03,1.431550383567810059e-01,7.112220525741577148e-01,1.646239459514617920e-01,6.853564977645874023e-01,-1.504219509661197662e-02,5.399162173271179199e-01,-3.357152938842773438e-01,5.087487697601318359e-01,6.671423912048339844e-01,-3.055137991905212402e-01,-7.608611136674880981e-02,4.674098454415798187e-03,2.360358089208602905e-02,9.747976660728454590e-01,1.361643821001052856e-01,3.878269195556640625e-01,-2.167335338890552521e-02,1.946260407567024231e-02,5.988730192184448242e-01,-2.624238133430480957e-01,3.502752482891082764e-01,1.058864369988441467e-01,8.219673037528991699e-01,-6.622365713119506836e-01,3.058031797409057617e-01,-1.592847257852554321e-01,-3.235266506671905518e-01,-7.251681685447692871e-01,-9.756694734096527100e-02,-5.262727737426757812e-01,1.041842818260192871e+00,5.188409686088562012e-01,-3.661114871501922607e-01,3.849311470985412598e-01,-4.105316102504730225e-02,-1.429752111434936523e-01,-4.868902862071990967e-01,-3.505098447203636169e-02,-4.036463201045989990e-01,-7.171328067779541016e-01
