-3.068377636373043060e-02,-3.690836131572723389e-01,-3.478753268718719482e-01,9.364818036556243896e-02,-4.369650185108184814e-01,1.744787022471427917e-02,-4.593112971633672714e-03,5.679163932800292969e-01,-2.964493930339813232e-01,3.253256678581237793e-01,6.676938384771347046e-02,-7.305176556110382080e-02,5.209290385246276855e-01,-2.277464121580123901e-01,2.527000606060028076e-01,-1.312267035245895386e-01,6.712490916252136230e-01,-1.039984226226806641e+00,-4.694831743836402893e-02,-1.521953940391540527e-01,-1.103464066982269287e-01,1.619754731655120850e-01,-8.084262609481811523e-01,2.322903275489807129e-01,4.378755390644073486e-01,-9.861832261085510254e-01,-2.003111094236373901e-01,-4.755776822566986084e-01,-7.169371247291564941e-01,9.952512383460998535e-02,1.175983667373657227e+00,1.035108208656311035e+00,-1.258275508880615234e-01,2.467965632677078247e-01,9.596960246562957764e-02,4.004033803939819336e-01,2.462661713361740112e-01,-8.502974361181259155e-02,3.326863422989845276e-02,2.523156702518463135e-01
-2.871193736791610718e-02,-2.117484211921691895e-01,3.810916244983673096e-01,-5.208416581153869629e-01,-4.107915461063385010e-01,3.019332587718963623e-01,-5.759274363517761230e-01,-4.596454501152038574e-01,1.993529945611953735e-01,4.796039164066314697e-01,4.070126712322235107e-01,-6.725032925605773926e-01,1.258696336299180984e-02,5.257001519203186035e-02,-5.995245575904846191e-01,1.934069395065307617e-01,3.337106108665466309e-01,-6.947003304958343506e-02,2.488200068473815918e-01,5.561414361000061035e-01,3.367829024791717529e-01,1.737188398838043213e-01,-1.311361193656921387e-01,-5.407081842422485352e-01,-6.093821674585342407e-02,6.944089531898498535e-01,5.221014022827148438e-01,-6.944934129714965820e-01,2.085494343191385269e-03,-2.289295345544815063e-01,2.516317069530487061e-01,1.761456429958343506e-01,-3.706379234790802002e-01,-1.330729365348815918e+00,3.101167082786560059e-01,-4.423699676990509033e-01,5.890828371047973633e-01,3.902662098407745361e-01,-2.991312444210052490e-01,2.290296256542205811e-01
-3.382876515388488770e-01,2.693640887737274170e-01,-5.176314115524291992e-01,-1.723289191722869873e-01,-4.264169633388519287e-01,3.551651537418365479e-01,-2.265461832284927368e-01,-2.324671298265457153e-01,8.875478804111480713e-02,-2.626170516014099121e-01,9.074988961219787598e-01,-3.514907956123352051e-01,-8.482435941696166992e-01,7.910219579935073853e-02,-4.933333992958068848e-01,-4.613291621208190918e-01,6.764816045761108398e-01,1.064200699329376221e-01,3.136591911315917969e-01,8.929915428161621094e-01,1.120713725686073303e-01,-1.293135166168212891e+00,5.522980690002441406e-01,2.130403965711593628e-01,5.282251238822937012e-01,2.011168450117111206e-01,5.268794894218444824e-01,-5.379887819290161133e-01,-8.786729723215103149e-02,8.199218511581420898e-01,-6.126090288162231445e-01,1.053896918892860413e-01,1.638958752155303955e-01,5.849615111947059631e-02,1.057218909263610840e-01,1.244019344449043274e-01,1.710363179445266724e-01,1.930401027202606201e-01,-2.985050678253173828e-01,-3.879925012588500977e-01
4.363166540861129761e-02,5.073562860488891602e-01,-6.270582973957061768e-02,4.810177385807037354e-01,1.063034057617187500e+00,1.550499647855758667e-01,2.746259570121765137e-01,5.406556725502014160e-01,3.275142014026641846e-01,-7.532577514648437500e-01,-3.102098703384399414e-01,6.287843585014343262e-01,-2.105377763509750366e-01,1.155022233724594116e-01,7.118640542030334473e-01,2.653689496219158173e-02,3.284959197044372559e-01,-1.058323867619037628e-02,5.895480513572692871e-01,-4.329250156879425049e-01,1.122852489352226257e-01,7.117416858673095703e-01,2.935443520545959473e-01,5.450867414474487305e-01,7.706788778305053711e-01,5.009946227073669434e-01,2.648687362670898438e-01,5.579301118850708008e-01,1.736582219600677490e-01,-9.872546046972274780e-02,1.193199306726455688e-01,-5.296181440353393555e-01,8.102256059646606445e-01,3.615413606166839600e-01,-4.914261102676391602e-01,-7.530737668275833130e-02,-3.828701972961425781e-01,-4.096514582633972168e-01,-9.171425104141235352e-01,5.383722856640815735e-02
9.211087226867675781e-01,-2.301460951566696167e-01,3.381046652793884277e-01,5.862020701169967651e-02,7.298119068145751953e-01,5.558891892433166504e-01,2.654783613979816437e-02,-9.773124754428863525e-02,1.103624582290649414e+00,-8.164624869823455811e-02,4.592011272907257080e-01,8.071357756853103638e-02,-1.263490766286849976e-01,-2.595842815935611725e-02,-2.564551234245300293e-01,-6.137142181396484375e-01,9.126625061035156250e-01,-3.528904616832733154e-01,-3.575694262981414795e-01,-1.492054164409637451e-01,2.303432077169418335e-01,8.156272023916244507e-02,3.638355135917663574e-01,-2.060941308736801147e-01,8.170324563980102539e-01,-6.713025569915771484e-01,-2.246039956808090210e-01,3.379374742507934570e-02,-6.862663626670837402e-01,3.067684471607208252e-01,1.791358888149261475e-01,-1.156786084175109863e-01,-4.130991697311401367e-01,-1.259844154119491577e-01,-6.328273564577102661e-02,6.479412913322448730e-01,-9.668872356414794922e-01,9.139040857553482056e-02,-7.545754313468933105e-01,-2.433263957500457764e-01
2.210043817758560181e-01,1.486125737428665161e-01,-4.335798323154449463e-01,8.069249987602233887e-02,-3.350184261798858643e-01,2.822002582252025604e-02,8.088778257369995117e-01,-3.837350308895111084e-01,4.154784083366394043e-01,-4.509501159191131592e-02,2.633105218410491943e-01,-3.356524109840393066e-01,-3.601963818073272705e-01,-2.411348372697830200e-01,8.763094991445541382e-02,3.194208145141601562e-01,4.892235100269317627e-01,-8.395518660545349121e-01,8.724319934844970703e-01,7.079148888587951660e-01,-2.485444843769073486e-01,8.868454396724700928e-02,1.408295035362243652e-01,-1.051805853843688965e+00,-1.067184135317802429e-01,8.076785802841186523e-01,4.635562375187873840e-02,-8.903995901346206665e-02,-8.717464804649353027e-01,-3.177852928638458252e-01,6.997089385986328125e-01,3.182347416877746582e-01,5.410818383097648621e-02,8.466237783432006836e-01,4.747495651245117188e-01,-6.409035921096801758e-01,-8.537324517965316772e-02,-1.099883913993835449e-01,-1.153271645307540894e-01,8.183261752128601074e-01
4.080362915992736816e-01,-6.703358292579650879e-01,-1.117531418800354004e+00,-5.243528261780738831e-02,-8.723630309104919434e-01,-3.507693409919738770e-01,-2.712049894034862518e-02,1.497041434049606323e-01,-6.609302163124084473e-01,-6.094887852668762207e-02,1.224420294165611267e-01,-1.146863996982574463e-01,-6.436742544174194336e-01,3.415495753288269043e-01,-7.136839628219604492e-01,-6.020234227180480957e-01,-3.725349307060241699e-01,-2.649596035480499268e-01,2.763191163539886475e-01,2.042011916637420654e-01,-3.107506334781646729e-01,5.875576734542846680e-01,-7.602836191654205322e-02,2.731160819530487061e-01,-2.578314244747161865e-01,-5.092093348503112793e-02,-5.874030292034149170e-02,-7.956285029649734497e-02,-1.698943078517913818e-01,-8.240597844123840332e-01,1.183417811989784241e-01,2.525093853473663330e-01,-6.705496311187744141e-01,4.322885274887084961e-01,-1.067242957651615143e-02,-9.092988967895507812e-01,5.750926136970520020e-01,-6.261633634567260742e-01,-4.969182610511779785e-01,-6.178392842411994934e-02
3.472382724285125732e-01,-9.481002688407897949e-01,-1.628236770629882812e-01,-1.360039830207824707e+00,-4.307915642857551575e-02,-2.022661864757537842e-01,-5.083632469177246094e-01,-4.202384874224662781e-02,6.396175026893615723e-01,-2.532041072845458984e-01,5.330960154533386230e-01,-3.023431599140167236e-01,1.577994674444198608e-01,-1.011976122856140137e+00,-5.455785617232322693e-02,-3.028433024883270264e-01,6.002587080001831055e-01,-2.596747279167175293e-01,4.423657953739166260e-01,1.827122420072555542e-01,4.653622210025787354e-01,-3.373727798461914062e-01,4.189976677298545837e-02,2.557873129844665527e-01,3.181371390819549561e-01,-5.989699959754943848e-01,2.262267470359802246e-01,-2.513555884361267090e-01,-9.091216921806335449e-01,-2.875138521194458008e-01,-4.414944723248481750e-02,8.381388783454895020e-01,8.833923339843750000e-01,-5.429860353469848633e-01,-6.178091764450073242e-01,-1.035488173365592957e-01,7.271583080291748047e-01,-3.478801846504211426e-01,-8.893779516220092773e-01,3.846182525157928467e-01
6.983674317598342896e-02,1.769775450229644775e-01,-2.775522135198116302e-02,8.403358049690723419e-03,7.933977991342544556e-02,-1.357855051755905151e-01,-9.119861721992492676e-01,-4.557369053363800049e-01,-1.588615179061889648e-01,3.261788934469223022e-02,9.258595108985900879e-02,-1.798491775989532471e-01,-7.698359489440917969e-01,2.306085973978042603e-01,-6.438044309616088867e-01,9.497835487127304077e-02,3.999277949333190918e-01,-4.990299940109252930e-01,8.415789902210235596e-02,6.964837908744812012e-01,1.366662234067916870e-01,-7.578042745590209961e-01,4.163329601287841797e-01,-8.090463876724243164e-01,9.602472186088562012e-02,-7.583414018154144287e-02,-6.988711953163146973e-01,5.343791246414184570e-01,1.486037075519561768e-01,1.072972178459167480e+00,-8.187978267669677734e-01,2.198901027441024780e-02,-8.400772213935852051e-01,-2.783877551555633545e-01,1.714431196451187134e-01,-8.256255388259887695e-01,4.033365845680236816e-01,3.494842052459716797e-01,-2.801274359226226807e-01,-8.000766634941101074e-01
2.762047350406646729e-01,-7.918991148471832275e-02,-1.392811983823776245e-01,3.345302343368530273e-01,-1.457906365394592285e-01,-4.624641239643096924e-01,1.005526423454284668e+00,-3.516552448272705078e-01,-3.563525378704071045e-01,2.610656023025512695e-01,8.526008725166320801e-01,-5.535543560981750488e-01,2.932496368885040283e-01,-4.575845301151275635e-01,-2.187417447566986084e-01,-8.095638155937194824e-01,1.051863133907318115e-01,-4.565246105194091797e-01,3.875901699066162109e-01,-2.719556689262390137e-01,2.954054474830627441e-01,1.060241103172302246e+00,6.027589440345764160e-01,-3.822251856327056885e-01,-1.379305720329284668e-01,1.417971253395080566e-01,-4.933746457099914551e-01,-2.409702241420745850e-01,3.378211259841918945e-01,-1.036852002143859863e-01,1.159615278244018555e+00,2.940249443054199219e-01,-5.951318144798278809e-01,1.995967775583267212e-01,-3.494865298271179199e-01,-1.720521748065948486e-01,8.399929404258728027e-01,8.357087373733520508e-01,-3.373488485813140869e-01,-5.639039278030395508e-01
7.737759351730346680e-01,2.717011570930480957e-01,-6.075309514999389648e-01,2.153335958719253540e-01,-3.980940282344818115e-01,-3.146049976348876953e-01,-3.146506249904632568e-01,6.060580015182495117e-01,-2.578306198120117188e-01,1.599096357822418213e-01,-2.008224427700042725e-01,-5.554448366165161133e-01,-4.144724309444427490e-01,-7.935764789581298828e-01,-2.314731776714324951e-01,-3.912319242954254150e-01,5.203074812889099121e-01,-2.332928180694580078e-01,-3.730579018592834473e-01,-4.406238719820976257e-02,-3.192770779132843018e-01,-3.946094810962677002e-01,-1.651939451694488525e-01,-5.210455060005187988e-01,4.543250501155853271e-01,-2.793129980564117432e-01,-4.229393005371093750e-01,5.482898950576782227e-01,5.787778645753860474e-02,-3.919298350811004639e-01,-7.697361111640930176e-01,-1.970115005970001221e-01,6.534659117460250854e-02,-1.242701932787895203e-01,4.688719809055328369e-01,-1.457195281982421875e-01,-3.212704882025718689e-02,3.860398828983306885e-01,-3.039993047714233398e-01,-2.767511010169982910e-01
5.338245630264282227e-01,-3.306988179683685303e-01,2.858834266662597656e-01,-6.228411197662353516e-01,5.445407032966613770e-01,-6.110882759094238281e-01,-1.676928251981735229e-01,6.734408140182495117e-01,1.317678540945053101e-01,-1.075570106506347656e+00,1.034507513046264648e+00,6.183570250868797302e-03,4.953236877918243408e-01,-3.729785978794097900e-01,-7.555603981018066406e-01,-4.526168107986450195e-02,1.654000639915466309e+00,-1.197898983955383301e+00,2.442202419042587280e-01,-7.222943007946014404e-02,1.106545925140380859e+00,5.278560519218444824e-01,-1.035820096731185913e-01,-5.127693340182304382e-02,4.874757528305053711e-01,2.452299743890762329e-01,6.853472590446472168e-01,-7.297337651252746582e-01,-9.139384031295776367e-01,1.438926935195922852e+00,2.636582851409912109e-01,6.149705648422241211e-01,-4.981117844581604004e-01,-3.899661600589752197e-01,3.563827276229858398e-01,-2.597952820360660553e-02,3.576481640338897705e-01,-2.058527767658233643e-01,-5.388917326927185059e-01,1.545122116804122925e-01
8.747548460960388184e-01,-5.325550213456153870e-02,-6.126773357391357422e-01,-8.111244440078735352e-02,2.106126546859741211e-01,-9.159122705459594727e-01,1.646482199430465698e-01,2.815141677856445312e-01,-1.124696955084800720e-01,-9.083299636840820312e-01,1.905440539121627808e-01,-4.466080572456121445e-03,5.711879208683967590e-02,1.875775307416915894e-01,-1.084635704755783081e-01,1.593801826238632202e-01,3.874655812978744507e-02,-4.979472756385803223e-01,-7.220556959509849548e-03,3.223384916782379150e-02,1.666096448898315430e-01,-4.853587746620178223e-01,-1.505902707576751709e-01,-3.140365183353424072e-01,1.144124120473861694e-01,-1.329079747200012207e+00,3.985346555709838867e-01,3.223412036895751953e-01,-7.286103367805480957e-01,5.658332109451293945e-01,1.245958209037780762e-01,-3.397540152072906494e-01,-4.137286543846130371e-01,4.520401656627655029e-01,5.722355246543884277e-01,-4.982404410839080811e-01,-6.530158966779708862e-02,4.504134356975555420e-01,1.048214063048362732e-01,2.061741612851619720e-02
3.774483799934387207e-01,-6.389419436454772949e-01,4.831103086471557617e-01,-4.673168063163757324e-01,-3.856438100337982178e-01,4.922443330287933350e-01,-7.486790418624877930e-01,-3.008737787604331970e-02,-2.102783173322677612e-01,-1.449209302663803101e-01,-3.293018937110900879e-01,-4.965298771858215332e-01,5.133956670761108398e-01,7.010175585746765137e-01,-6.232086196541786194e-02,-2.161365896463394165e-01,-2.948179841041564941e-01,1.681320667266845703e-01,9.611329436302185059e-01,7.479359507560729980e-01,4.111782461404800415e-02,-1.090530753135681152e+00,2.830312550067901611e-01,-1.907076388597488403e-01,4.040535092353820801e-01,2.352382391691207886e-01,1.569218188524246216e-01,-4.489665925502777100e-01,-9.239589422941207886e-02,3.909766376018524170e-01,4.106287360191345215e-01,-6.184135675430297852e-01,-6.084781289100646973e-01,-1.077489480376243591e-01,2.453805645927786827e-03,1.459146738052368164e-01,4.068892300128936768e-01,-3.033864200115203857e-01,-1.054698824882507324e+00,-4.666568711400032043e-02
-2.377891391515731812e-01,1.901128292083740234e-01,-7.142878174781799316e-01,1.309248805046081543e-01,-1.401036530733108521e-01,-5.560539364814758301e-01,-1.427719146013259888e-01,-1.200796484947204590e+00,-3.286499157547950745e-02,8.287530392408370972e-03,4.759716093540191650e-01,-5.358293056488037109e-01,-1.552293896675109863e-01,3.879818618297576904e-01,1.033155918121337891e-01,2.677533626556396484e-01,4.554803371429443359e-01,3.215234577655792236e-01,6.564929485321044922e-01,5.875852704048156738e-02,6.027961373329162598e-01,-1.060990244150161743e-01,-1.262939572334289551e-01,-2.388324216008186340e-02,-7.504902034997940063e-02,-7.894574999809265137e-01,-8.482336252927780151e-02,-4.676231145858764648e-01,-6.225080695003271103e-03,-1.247032284736633301e-01,7.853171229362487793e-01,-4.528949856758117676e-01,6.098915338516235352e-01,-6.308043003082275391e-01,-4.227155148983001709e-01,-4.274378716945648193e-01,1.941066086292266846e-01,-3.403511643409729004e-01,6.136734411120414734e-02,-1.090510249137878418e+00
2.769016027450561523e-01,3.605583310127258301e-02,-7.680702209472656250e-01,-5.727360248565673828e-01,2.839068695902824402e-02,-1.728739887475967407e-01,1.022379994392395020e-01,3.235288336873054504e-02,6.152519583702087402e-01,2.159697413444519043e-01,9.518929123878479004e-01,4.400667548179626465e-01,-4.235936105251312256e-01,-9.611083269119262695e-01,4.351569712162017822e-01,-1.269847631454467773e+00,2.003097236156463623e-01,7.491543143987655640e-02,-4.276937544345855713e-01,8.780280351638793945e-01,-3.943537175655364990e-01,-3.909673914313316345e-02,4.615809619426727295e-01,1.422785818576812744e-01,7.121723890304565430e-01,8.185564875602722168e-01,8.909774571657180786e-02,6.768391728401184082e-01,-2.649805545806884766e-01,6.985656023025512695e-01,-8.100317120552062988e-01,-4.018881618976593018e-01,2.127260714769363403e-01,5.534356832504272461e-01,5.215708613395690918e-01,-9.361186623573303223e-01,3.115440607070922852e-01,-1.513627171516418457e-01,-6.151667237281799316e-01,2.123733907938003540e-01
-3.027335405349731445e-01,-3.182558417320251465e-01,-2.595738470554351807e-01,7.321391999721527100e-02,1.583521366119384766e-01,-3.314325213432312012e-01,-1.967540010809898376e-02,1.119002461433410645e+00,-3.896744549274444580e-02,-3.798840045928955078e-01,-2.195894904434680939e-02,-1.054190754890441895e+00,2.597151696681976318e-01,3.368233740329742432e-01,7.689749002456665039e-01,5.603361725807189941e-01,-6.944532990455627441e-01,2.863481640815734863e-01,7.980365306138992310e-02,-3.759410381317138672e-01,-3.318231403827667236e-01,-2.934273779392242432e-01,-5.106961131095886230e-01,-6.050636991858482361e-02,3.912573158740997314e-01,-5.550211071968078613e-01,5.142647027969360352e-01,-4.835737943649291992e-01,3.624872267246246338e-01,-1.466372609138488770e-01,-2.319298982620239258e-01,-3.198751509189605713e-01,2.681091427803039551e-01,-6.505952477455139160e-01,-6.440375447273254395e-01,-4.207363426685333252e-01,6.994169354438781738e-01,-1.118000864982604980e+00,-3.386299312114715576e-01,-3.763828277587890625e-01
-5.192082002758979797e-02,-3.846292495727539062e-01,8.906812071800231934e-01,-9.547979235649108887e-01,-4.003616869449615479e-01,1.140371561050415039e+00,-3.333692550659179688e-01,-2.553034722805023193e-01,7.658379673957824707e-01,-2.242489308118820190e-01,-7.312992215156555176e-01,-6.305887699127197266e-01,1.380147784948348999e-01,6.235617399215698242e-01,-1.020613312721252441e+00,-3.213115930557250977e-01,3.571575582027435303e-01,1.684003882110118866e-02,5.205648541450500488e-01,5.194433927536010742e-01,-3.099219202995300293e-01,3.151481747627258301e-01,-6.252906322479248047e-01,-6.357703357934951782e-02,-3.264904022216796875e-01,-3.439742326736450195e-02,-1.059657692909240723e+00,4.647094011306762695e-01,-1.430789232254028320e-01,2.252746522426605225e-01,3.649249970912933350e-01,3.727952837944030762e-01,7.419583797454833984e-01,4.678392708301544189e-01,4.858643114566802979e-01,-2.925551682710647583e-02,2.145047038793563843e-01,-6.337770223617553711e-01,-2.255576699972152710e-01,4.488233625888824463e-01
1.733164638280868530e-01,-6.152459383010864258e-01,3.414352238178253174e-01,2.413026243448257446e-01,-3.106950316578149796e-03,1.031702570617198944e-02,-9.840355515480041504e-01,2.119761109352111816e-01,1.857820600271224976e-01,-1.890452057123184204e-01,1.380699221044778824e-02,-8.333604335784912109e-01,-1.493877023458480835e-01,-1.544922292232513428e-01,-1.385115146636962891e+00,3.723268210887908936e-01,5.796674489974975586e-01,-1.438310295343399048e-01,2.313397079706192017e-01,-1.593166589736938477e-01,1.068539261817932129e+00,-5.898482352495193481e-02,1.842498034238815308e-01,-1.171801835298538208e-01,1.342553347349166870e-01,-6.606497168540954590e-01,1.431354731321334839e-01,2.298421561717987061e-01,-2.421967685222625732e-01,9.957832098007202148e-01,-7.026678919792175293e-01,1.310342997312545776e-01,1.220263317227363586e-01,-2.664549648761749268e-02,6.047047376632690430e-01,3.740686550736427307e-02,-5.775892138481140137e-01,1.256441324949264526e-01,-4.137833714485168457e-01,-5.260822176933288574e-01
4.113540351390838623e-01,3.492493927478790283e-01,-1.829398274421691895e-01,-4.427243769168853760e-01,-1.272281408309936523e-01,2.792065441608428955e-01,-1.447312116622924805e+00,-1.166880205273628235e-01,-5.575851798057556152e-01,-1.530987471342086792e-01,-1.375522315502166748e-01,-5.633878111839294434e-01,-6.464005708694458008e-01,-6.178719922900199890e-02,8.011218905448913574e-01,-1.214693933725357056e-01,7.833147644996643066e-01,-4.216302931308746338e-02,-3.436856865882873535e-01,3.390589952468872070e-01,-3.404094874858856201e-01,-5.105821490287780762e-01,-2.786222100257873535e-01,8.358396291732788086e-01,-2.966342866420745850e-01,-2.617313563823699951e-01,3.911105450242757797e-03,-4.292863011360168457e-01,-4.026081264019012451e-01,5.608087778091430664e-01,6.634421944618225098e-01,-1.053079068660736084e-01,1.165822148323059082e-01,1.032783508300781250e+00,1.474943608045578003e-01,5.385612845420837402e-01,1.063159182667732239e-01,8.739299178123474121e-01,-7.163071632385253906e-01,1.026708111166954041e-01
