3.199348971247673035e-02,6.239034235477447510e-02,-2.534842789173126221e-01,7.752702804282307625e-04,7.630273699760437012e-02,-4.793367907404899597e-02,-6.491705775260925293e-02,7.260651886463165283e-02,4.627827182412147522e-02,2.932972908020019531e-01,-1.681975647807121277e-02,1.454034745693206787e-01,-9.539972990751266479e-02,3.271972239017486572e-01,5.157005414366722107e-02,5.181285142898559570e-01,-3.713296055793762207e-01,3.222515583038330078e-01,-2.085373848676681519e-01,1.891464889049530029e-01
-5.411859229207038879e-02,-2.531142830848693848e-01,-7.225517183542251587e-02,-2.543447017669677734e-01,-5.323180556297302246e-02,6.374221295118331909e-02,-1.047815680503845215e-01,-1.428706496953964233e-01,2.356223315000534058e-01,5.732203647494316101e-02,-3.392772376537322998e-01,-3.693379461765289307e-02,3.466629683971405029e-01,2.122559845447540283e-01,-1.328416019678115845e-01,8.309612981975078583e-03,2.137746214866638184e-01,-3.188814520835876465e-01,-1.686508804559707642e-01,-5.425671115517616272e-02
3.427609503269195557e-01,1.976820640265941620e-02,2.920892238616943359e-01,-2.193344384431838989e-01,1.519248485565185547e-01,8.819322101771831512e-05,6.008143424987792969e-01,-1.331906467676162720e-01,1.967322975397109985e-01,-9.105049818754196167e-02,-1.252383440732955933e-01,-8.665691316127777100e-02,-2.758450508117675781e-01,-1.651242971420288086e-01,-2.564994394779205322e-01,2.827143073081970215e-01,1.353327929973602295e-01,-4.370669126510620117e-01,-9.406246989965438843e-02,2.075345218181610107e-01
-8.654542267322540283e-02,-2.380010336637496948e-01,3.772877901792526245e-02,2.496868818998336792e-01,-1.790913194417953491e-01,-3.064897358417510986e-01,6.501995958387851715e-03,3.302369713783264160e-01,-3.052189573645591736e-02,-2.311421036720275879e-01,4.964662715792655945e-02,1.478587239980697632e-01,3.029896691441535950e-02,7.311456650495529175e-02,1.311030238866806030e-01,1.984884738922119141e-01,1.814602911472320557e-01,-1.857765577733516693e-02,-3.810279071331024170e-01,-3.003325685858726501e-02
-4.010206460952758789e-01,8.306936174631118774e-02,2.276244200766086578e-02,1.849360913038253784e-01,3.023605048656463623e-01,1.731549501419067383e-01,-2.567575313150882721e-02,1.164193898439407349e-01,1.310166865587234497e-01,4.367229938507080078e-01,-2.668857276439666748e-01,7.933895289897918701e-02,3.621695041656494141e-01,-1.256022751331329346e-01,-1.190399401821196079e-03,7.236844897270202637e-01,3.352052867412567139e-01,1.694276630878448486e-01,2.061500847339630127e-01,7.052301615476608276e-02
2.953980863094329834e-01,3.322705924510955811e-01,-9.965769201517105103e-02,-1.407984793186187744e-01,-3.493101596832275391e-01,-5.692318081855773926e-01,-1.533139199018478394e-01,-2.999082505702972412e-01,-5.646915361285209656e-02,-4.964098036289215088e-01,-2.205658555030822754e-01,-3.709565699100494385e-01,2.388718873262405396e-01,8.591744303703308105e-02,2.376736402511596680e-01,8.744406513869762421e-03,-3.295103833079338074e-02,3.891330212354660034e-02,-1.390726864337921143e-01,-3.485593795776367188e-01
5.721803307533264160e-01,-1.684453040361404419e-01,-2.486954256892204285e-02,5.454721450805664062e-01,-1.203118115663528442e-01,-4.300830960273742676e-01,-1.064308546483516693e-02,-6.949979811906814575e-02,-1.197963431477546692e-01,6.100715324282646179e-02,4.263269603252410889e-01,3.399225473403930664e-01,-3.464825451374053955e-02,-1.148455366492271423e-01,-5.680909007787704468e-02,-8.007167279720306396e-02,1.509031951427459717e-01,3.907404467463493347e-02,1.437990926206111908e-02,3.689929842948913574e-02
7.016064226627349854e-02,-1.613804250955581665e-01,1.339037418365478516e-01,-5.243255943059921265e-02,-3.086055219173431396e-01,5.622182041406631470e-02,1.697394996881484985e-01,-2.765561938285827637e-01,5.594059824943542480e-01,2.134904563426971436e-01,1.063522472977638245e-01,1.233668997883796692e-01,-1.096965000033378601e-01,3.168175816535949707e-01,-3.180355131626129150e-01,-1.019203141331672668e-01,-1.165369004011154175e-01,-2.085355818271636963e-01,1.238464377820491791e-02,-2.583652734756469727e-01
-3.315797448158264160e-01,-2.178493887186050415e-01,5.658451095223426819e-02,2.110386341810226440e-01,-2.174566984176635742e-01,-1.004546061158180237e-01,1.235388070344924927e-01,3.243602067232131958e-02,-2.437505424022674561e-01,-3.270854055881500244e-01,2.145858556032180786e-01,-1.174861863255500793e-01,7.645190358161926270e-01,4.624276235699653625e-02,-3.848762214183807373e-01,-2.188643962144851685e-01,5.725347995758056641e-01,-6.121002882719039917e-02,-3.285816013813018799e-01,9.000330418348312378e-02
-9.003502875566482544e-02,3.905181288719177246e-01,-2.824826538562774658e-01,-1.393031328916549683e-02,-3.858835250139236450e-02,-1.155729964375495911e-01,2.524760961532592773e-01,-3.161111176013946533e-01,1.895804405212402344e-01,1.545397341251373291e-01,-1.440534833818674088e-02,-3.923543393611907959e-01,-2.637121081352233887e-01,1.114883050322532654e-01,-1.563773304224014282e-01,3.383011221885681152e-01,4.494619742035865784e-02,-2.262210994958877563e-01,-1.287182718515396118e-01,3.899960219860076904e-02
-4.711237549781799316e-01,-5.294414609670639038e-02,-3.269501030445098877e-02,4.295499622821807861e-01,2.632656991481781006e-01,-3.517430722713470459e-01,1.609307364560663700e-03,3.016351461410522461e-01,1.654018759727478027e-01,4.427131265401840210e-02,3.531910181045532227e-01,-8.432114496827125549e-03,6.806333065032958984e-01,-1.885947883129119873e-01,-2.821296155452728271e-01,-7.240117341279983521e-02,7.960382848978042603e-02,-2.616302808746695518e-03,4.455889761447906494e-01,3.552834391593933105e-01
3.468144685029983521e-02,-1.598748713731765747e-01,6.959884613752365112e-02,1.752026230096817017e-01,-1.567723006010055542e-01,3.194258809089660645e-01,-1.956763714551925659e-01,-7.071875035762786865e-02,-2.065282016992568970e-01,3.931862115859985352e-01,2.623395919799804688e-01,2.888448238372802734e-01,4.298408627510070801e-01,3.664264222607016563e-03,-3.914619088172912598e-01,4.768369495868682861e-01,2.681063115596771240e-01,-1.509358435869216919e-01,1.522091925144195557e-01,1.353792101144790649e-02
1.271970421075820923e-01,-2.019034512341022491e-02,-1.351103186607360840e-01,1.447725147008895874e-01,3.927347958087921143e-01,8.751463610678911209e-04,-5.584411695599555969e-02,-6.387690454721450806e-02,2.308329790830612183e-01,-3.412182927131652832e-01,-4.878245666623115540e-02,-8.065254986286163330e-02,-3.368282914161682129e-01,-3.380654752254486084e-02,-2.169023267924785614e-02,3.514339327812194824e-01,4.630916193127632141e-02,-1.741131767630577087e-03,-2.853710651397705078e-01,-1.391244083642959595e-01
2.594797313213348389e-01,-2.762634865939617157e-02,-2.234098166227340698e-01,6.705787032842636108e-02,-9.229139089584350586e-01,-1.657051891088485718e-01,-5.896046757698059082e-01,6.392934918403625488e-02,-8.300829678773880005e-02,-3.703548610210418701e-01,1.189634483307600021e-02,-1.924871355295181274e-01,-2.977571785449981689e-01,-2.483228221535682678e-02,5.192122608423233032e-02,1.770989745855331421e-01,3.038210868835449219e-01,4.884113669395446777e-01,3.304328024387359619e-01,-5.278850905597209930e-03
1.372351050376892090e-01,9.950204938650131226e-02,-7.177869230508804321e-02,-1.840436272323131561e-02,5.334740504622459412e-02,-4.593181312084197998e-01,-3.044964075088500977e-01,1.026568859815597534e-01,-3.119710385799407959e-01,-5.431173485703766346e-04,-3.931492865085601807e-01,-9.958732128143310547e-02,-1.232842579483985901e-01,-8.933197706937789917e-02,5.170109868049621582e-02,-2.735844552516937256e-01,-1.939598172903060913e-01,4.636109769344329834e-01,-2.843945622444152832e-01,-1.091418787837028503e-01
-9.732154011726379395e-02,-3.754198318347334862e-03,4.897029995918273926e-01,-2.286902666091918945e-01,-4.597569108009338379e-01,-2.972402274608612061e-01,1.834380626678466797e-01,1.553802639245986938e-01,8.489833027124404907e-02,2.360732294619083405e-02,1.454471647739410400e-01,-9.776874445378780365e-03,2.148892581462860107e-01,-2.043239027261734009e-01,-2.620541751384735107e-01,-1.354866921901702881e-01,-2.586265504360198975e-01,-1.057488918304443359e-01,-4.083748757839202881e-01,1.585642546415328979e-01
6.886905431747436523e-02,4.695540294051170349e-02,-4.308431446552276611e-01,1.967341899871826172e-01,7.063711434602737427e-02,-4.577697068452835083e-02,3.838306367397308350e-01,2.118623256683349609e-01,5.808720588684082031e-01,-3.678453266620635986e-01,2.031913399696350098e-01,1.079573184251785278e-01,-3.030973672866821289e-01,-3.377891778945922852e-01,6.511335819959640503e-02,3.832852840423583984e-02,3.190104365348815918e-01,-1.865483373403549194e-01,1.736708432435989380e-01,4.695942997932434082e-02
7.746416609734296799e-03,3.029474020004272461e-01,-2.779965698719024658e-01,4.788489341735839844e-01,3.164310380816459656e-02,1.532291993498802185e-02,1.555280834436416626e-01,-1.788072139024734497e-01,-6.167344003915786743e-02,6.271988898515701294e-02,-1.214818283915519714e-01,3.114697709679603577e-02,8.220014721155166626e-02,2.875445187091827393e-01,-4.403721690177917480e-01,-1.424672156572341919e-01,-2.994781434535980225e-01,3.037478625774383545e-01,-5.819266289472579956e-02,-8.064694702625274658e-02
1.309270691126585007e-02,6.041824221611022949e-01,-4.916925448924303055e-03,2.466447837650775909e-02,1.798665076494216919e-01,-1.224125698208808899e-01,8.384039998054504395e-02,4.695020616054534912e-02,-1.324757337570190430e-01,-5.866105109453201294e-02,-3.911194801330566406e-01,2.891372144222259521e-01,-2.152073979377746582e-01,-6.365878134965896606e-02,-1.447673439979553223e-01,-4.373690858483314514e-02,-4.263195395469665527e-01,3.151108324527740479e-02,9.788536280393600464e-02,1.169015374034643173e-02
4.109697639942169189e-01,2.098617404699325562e-01,1.222077906131744385e-01,1.501821130514144897e-01,-7.163218408823013306e-02,1.539036929607391357e-01,-3.136783540248870850e-01,1.008123680949211121e-01,2.018256187438964844e-01,5.461942553520202637e-01,-1.947690844535827637e-01,-3.342371881008148193e-01,-1.589740440249443054e-02,-1.858659386634826660e-01,1.154444515705108643e-01,3.555754721164703369e-01,1.499345302581787109e-01,2.496392279863357544e-02,-6.572050601243972778e-02,-5.571974813938140869e-02
