-2.485459111630916595e-02,9.099567309021949768e-03,2.896115649491548538e-03,1.744390232488512993e-03,-9.515955112874507904e-03,2.842491678893566132e-02,-1.729029268026351929e-01,1.759547926485538483e-02,1.093480922281742096e-02,2.355160564184188843e-02,-3.107563406229019165e-02,4.676670767366886139e-03,-1.297950558364391327e-02,4.500006791204214096e-03,3.016461385414004326e-03,-3.962023556232452393e-01,2.059233933687210083e-02,-3.573080524802207947e-02,2.115753106772899628e-02,-3.404509276151657104e-02,2.163408137857913971e-02,-4.511075094342231750e-02,-8.475320413708686829e-03,2.498425543308258057e-02,3.357965499162673950e-03,-8.190557956695556641e-01,-1.757903933525085449e+00,-5.246810242533683777e-02,6.271371617913246155e-03,1.277517993003129959e-02,1.438758708536624908e-02,-1.878236979246139526e-02,9.136731736361980438e-03,2.444409765303134918e-02,-1.280298829078674316e-02,1.965178847312927246e-01,-1.094727125018835068e-02,-4.255684092640876770e-02,-2.427379973232746124e-02,3.026876039803028107e-02,-4.213486984372138977e-02,-1.548543013632297516e-02,-3.106361441314220428e-02,-4.341664910316467285e-02,3.762581646442413330e-01,-4.730319231748580933e-02,3.568673878908157349e-02,-2.790581621229648590e-02,2.638735249638557434e-02,-5.138856545090675354e-02,4.703364148736000061e-02,-1.677545718848705292e-02,-5.629641935229301453e-02,-1.938601769506931305e-02,8.293271660804748535e-01,1.736509084701538086e+00,5.837001278996467590e-02,-4.093255382031202316e-03,-2.571364305913448334e-02,1.665581250563263893e-03
1.621598936617374420e-02,3.642046749591827393e-01,1.711594611406326294e-01,3.775919675827026367e-01,4.002280235290527344e-01,7.739986479282379150e-02,-3.642756640911102295e-01,4.990169405937194824e-01,1.913705021142959595e-01,-1.975712366402149200e-02,3.418820798397064209e-01,2.459114044904708862e-02,-8.783733099699020386e-02,-8.252715319395065308e-02,2.935140728950500488e-01,-5.713353753089904785e-01,-2.170185148715972900e-01,1.007825359702110291e-01,1.834728419780731201e-01,4.229678213596343994e-02,-9.887412190437316895e-02,-5.032312497496604919e-02,-1.619066111743450165e-02,-5.459850654006004333e-02,-8.484323620796203613e-01,-1.280333288013935089e-02,5.090232193470001221e-02,2.231359779834747314e-01,3.971536457538604736e-02,-5.279707908630371094e-01,-2.498736828565597534e-01,-1.295164972543716431e-01,3.506364524364471436e-01,-2.232552766799926758e-01,2.035726904869079590e-01,-3.959745168685913086e-01,6.274959444999694824e-02,1.912279613316059113e-02,-9.180562198162078857e-02,3.720622360706329346e-01,3.399986401200294495e-02,-7.624259591102600098e-02,-2.604995854198932648e-02,-1.947280392050743103e-02,-1.131089806556701660e+00,-9.803199768066406250e-02,6.842876225709915161e-02,2.292740195989608765e-01,-1.186977848410606384e-01,-1.022307351231575012e-01,-5.133292824029922485e-02,1.676100939512252808e-01,-3.752813935279846191e-01,-8.278444409370422363e-01,7.717747241258621216e-02,-3.096266277134418488e-02,2.304718643426895142e-01,2.589971572160720825e-02,-7.259584665298461914e-01,8.591055124998092651e-02
-3.300949186086654663e-02,1.048536524176597595e-01,9.571428410708904266e-03,5.664326623082160950e-02,1.199684441089630127e-01,-1.861706078052520752e-01,-1.401508301496505737e-01,-5.532786995172500610e-02,-9.632724523544311523e-02,-1.554223299026489258e-01,-9.443739056587219238e-01,2.588714957237243652e-01,9.389745444059371948e-02,4.832835197448730469e-01,7.442185878753662109e-01,-1.354941278696060181e-01,6.452515721321105957e-02,2.485136538743972778e-01,2.125956714153289795e-01,8.288600482046604156e-03,-8.402249775826931000e-03,-7.423271238803863525e-02,1.203825697302818298e-01,-4.508953541517257690e-02,1.321127638220787048e-02,-4.946223646402359009e-02,-6.046089157462120056e-02,-3.792043030261993408e-02,1.157980337738990784e-01,-1.028569489717483521e-01,-3.012697398662567139e-02,5.276226997375488281e-02,4.659003317356109619e-01,-8.341032266616821289e-02,-9.212344139814376831e-02,-1.436267942190170288e-01,-2.218235284090042114e-01,4.339083563536405563e-03,-1.755140423774719238e-01,-7.168313860893249512e-01,1.064938902854919434e-01,-1.526352018117904663e-01,8.462873697280883789e-01,8.899707794189453125e-01,-2.992025017738342285e-01,7.557086646556854248e-03,4.579889401793479919e-02,2.128831595182418823e-01,1.455171871930360794e-02,-2.568033039569854736e-01,2.794940583407878876e-02,2.011726982891559601e-02,-1.878358572721481323e-01,6.159390881657600403e-02,-1.613217741250991821e-01,-1.695475429296493530e-01,-1.297198832035064697e-01,-6.822296977043151855e-02,-2.504378557205200195e-01,-4.338352754712104797e-02
-4.122943151742219925e-03,-1.771605134010314941e+00,-1.102109178900718689e-01,1.344868838787078857e-01,5.526833608746528625e-02,4.120827093720436096e-02,1.269151121377944946e-01,-1.122675370424985886e-03,-2.226417697966098785e-02,2.270759195089340210e-01,-5.102933570742607117e-02,-2.592650949954986572e-01,-3.172688186168670654e-01,-1.169350221753120422e-01,-4.931174218654632568e-02,-1.653150171041488647e-01,3.070402145385742188e-02,1.775470972061157227e-01,1.665783226490020752e-01,-1.654573827981948853e-01,-4.416478425264358521e-02,-2.113472670316696167e-02,2.683896757662296295e-02,1.295559555292129517e-01,1.090161427855491638e-01,1.290132552385330200e-01,-2.421935554593801498e-03,-5.634508654475212097e-02,-1.409682631492614746e-01,-2.484158426523208618e-02,1.903118491172790527e+00,1.944873780012130737e-01,-2.652498483657836914e-01,-5.741971358656883240e-02,-7.020398974418640137e-02,-1.719151586294174194e-01,1.414868328720331192e-02,-6.938467174768447876e-02,-3.003524839878082275e-01,-4.285119939595460892e-03,4.347415268421173096e-01,4.255627691745758057e-01,3.920874372124671936e-02,7.923813909292221069e-02,1.887574046850204468e-01,-6.846594810485839844e-02,-3.552356958389282227e-01,-1.977484524250030518e-01,1.763530224561691284e-01,1.478576660156250000e-01,4.581723734736442566e-02,6.660380214452743530e-02,-1.339992731809616089e-01,-9.756947308778762817e-02,-1.587134152650833130e-01,2.709458582103252411e-02,8.537090569734573364e-02,1.779057234525680542e-01,5.102717131376266479e-02,2.899254299700260162e-02
1.016136333346366882e-01,7.762572169303894043e-02,1.482930779457092285e-01,-3.066903054714202881e-01,4.534509405493736267e-02,6.396045535802841187e-02,3.694071173667907715e-01,1.355753690004348755e-01,-1.396191120147705078e-01,-2.992846965789794922e-01,-1.129635334014892578e+00,2.736003398895263672e-01,1.065903156995773315e-01,-3.213661313056945801e-01,-3.102740645408630371e-01,2.665852308273315430e-01,9.979516267776489258e-02,8.013904839754104614e-02,1.890103369951248169e-01,4.667276144027709961e-02,-6.552359461784362793e-02,-2.261000685393810272e-02,3.960922732949256897e-02,-1.499297171831130981e-01,-1.984061300754547119e-01,1.133109927177429199e-01,-1.373514086008071899e-01,1.022014766931533813e-02,-6.535635143518447876e-02,6.652471423149108887e-02,1.543138027191162109e-01,-4.428213834762573242e-02,-4.593139886856079102e-01,-4.721484705805778503e-02,1.450081169605255127e-01,1.141917258501052856e-01,8.147832751274108887e-02,-1.646341830492019653e-01,-3.397684693336486816e-01,-2.514981508255004883e+00,1.227227449417114258e-01,6.542771589010953903e-04,-5.991079211235046387e-01,-3.186514973640441895e-01,1.603047847747802734e-01,-1.935060508549213409e-02,8.046433329582214355e-02,1.864731460809707642e-01,-4.443522170186042786e-02,-2.916063070297241211e-01,9.157646447420120239e-02,1.042797192931175232e-01,-2.292792797088623047e-01,-2.133550047874450684e-01,-5.468847695738077164e-03,2.186225354671478271e-01,-4.318559076637029648e-03,2.396722882986068726e-01,1.172430142760276794e-01,5.219377949833869934e-02
9.979889541864395142e-02,4.981741011142730713e-01,-5.284876823425292969e-01,4.334520697593688965e-01,-4.105460345745086670e-01,-9.069269150495529175e-02,8.747998625040054321e-02,-4.838573634624481201e-01,5.901831984519958496e-01,-3.945818915963172913e-02,1.647965908050537109e-01,-3.112454414367675781e-01,8.614487200975418091e-02,-1.971215307712554932e-01,1.663539931178092957e-02,8.284703642129898071e-02,2.963184118270874023e-01,2.017383091151714325e-02,-2.373631745576858521e-01,1.647422164678573608e-01,9.803648293018341064e-02,7.439282536506652832e-02,3.878939449787139893e-01,3.860706090927124023e-01,8.101361803710460663e-03,-3.494912385940551758e-01,2.338494211435317993e-01,-3.273049835115671158e-03,-3.489642217755317688e-02,-1.510674655437469482e-01,-3.480488061904907227e-01,8.626568317413330078e-01,2.349252998828887939e-01,7.755014896392822266e-01,1.746502518653869629e-01,7.224497199058532715e-02,7.039657831192016602e-01,-2.073706686496734619e-01,4.643840491771697998e-01,3.870638608932495117e-01,2.565663456916809082e-01,-1.801049150526523590e-02,1.515307128429412842e-01,5.386422872543334961e-01,3.711814433336257935e-02,-3.202530145645141602e-01,5.447174310684204102e-01,5.308296084403991699e-01,-7.686123251914978027e-03,1.122437864542007446e-01,1.241814494132995605e-01,-2.723750174045562744e-01,-3.816517293453216553e-01,4.230301082134246826e-01,8.469839692115783691e-01,-6.478422321379184723e-03,5.976385995745658875e-02,-9.086333960294723511e-02,3.502757251262664795e-01,-7.289322465658187866e-02
1.155220810323953629e-02,-9.666930139064788818e-02,4.902965202927589417e-02,-1.283230781555175781e-01,-6.929239630699157715e-02,6.097992062568664551e-01,1.813114881515502930e-01,-1.841072738170623779e-01,-2.210845798254013062e-01,-1.012869477272033691e-01,-1.150351241230964661e-01,-2.126916795969009399e-01,6.857739686965942383e-01,1.244601211510598660e-03,-1.403658464550971985e-02,-1.508514583110809326e-01,1.710941642522811890e-01,-1.669745743274688721e-01,3.183812201023101807e-01,1.474782973527908325e-01,-3.668016195297241211e-02,6.175857782363891602e-01,3.159269690513610840e-02,-6.227076426148414612e-02,3.404522538185119629e-01,1.905052661895751953e-01,-4.610696434974670410e-02,-2.772635780274868011e-02,4.282077848911285400e-01,-1.871437206864356995e-02,1.064210906624794006e-01,-6.077922508120536804e-02,6.463118642568588257e-02,3.239469602704048157e-02,-7.635936141014099121e-01,-1.158245578408241272e-01,2.460662573575973511e-01,1.390311717987060547e-01,8.451040834188461304e-02,-3.178411722183227539e-02,1.905713677406311035e-01,-9.342330694198608398e-01,-1.202746182680130005e-01,9.853203594684600830e-02,1.352566182613372803e-01,-2.115383893251419067e-01,9.690816700458526611e-02,-4.586733281612396240e-01,-1.309258490800857544e-01,-1.428270898759365082e-02,-7.147812247276306152e-01,8.447193540632724762e-03,7.317584753036499023e-02,-3.841137886047363281e-01,-1.923732012510299683e-01,-2.393419668078422546e-02,-9.984565526247024536e-02,-5.348536372184753418e-01,2.367156371474266052e-02,-3.545445855706930161e-03
1.241188682615756989e-02,-5.932829529047012329e-02,-3.790617361664772034e-02,1.784905195236206055e-01,3.227259218692779541e-02,-1.733892709016799927e-01,-1.050115451216697693e-01,-9.663077443838119507e-02,-1.666804552078247070e+00,-1.845600306987762451e-01,-3.377794846892356873e-02,2.511988878250122070e-01,-1.796263270080089569e-02,4.509060084819793701e-02,-2.713860198855400085e-02,8.043465763330459595e-02,-8.742316067218780518e-02,4.656777530908584595e-02,1.184545755386352539e-01,5.824990570545196533e-02,-1.195839699357748032e-02,-4.012895748019218445e-02,5.621614679694175720e-02,-4.615511000156402588e-02,1.250519156455993652e-01,1.137308869510889053e-02,-1.303429156541824341e-02,-3.345848619937896729e-02,4.496054723858833313e-02,-2.636499144136905670e-02,1.533161848783493042e-01,5.666060000658035278e-02,-2.283897697925567627e-01,-2.496127970516681671e-02,2.476142346858978271e-01,1.349280178546905518e-01,1.831836700439453125e-01,1.687667727470397949e+00,2.028512954711914062e-01,-2.965715713798999786e-02,-3.160593211650848389e-01,9.616228193044662476e-02,2.271095756441354752e-03,-1.390972174704074860e-02,-1.053760498762130737e-01,1.364483982324600220e-01,-6.528908759355545044e-02,-7.594710588455200195e-02,-4.282115399837493896e-02,-1.743086241185665131e-02,1.004010066390037537e-01,-1.541425008326768875e-02,1.030621677637100220e-01,-1.378701329231262207e-01,5.686887726187705994e-02,1.534818578511476517e-02,1.234308350831270218e-02,-6.824658066034317017e-02,2.477122284471988678e-02,-2.276340872049331665e-02
-5.700690671801567078e-03,4.137705266475677490e-02,1.566967926919460297e-02,-4.043995961546897888e-02,1.110572665929794312e-01,-2.879254706203937531e-02,3.327806591987609863e-01,1.651944279670715332e+00,-1.032044924795627594e-02,3.906505182385444641e-02,-4.461021721363067627e-02,-7.766458392143249512e-02,-4.017988964915275574e-02,-4.662822559475898743e-02,1.355632990598678589e-01,-1.042114384472370148e-02,1.196081638336181641e-01,2.184581011533737183e-02,-6.447017658501863480e-03,2.128484249114990234e-01,1.532732136547565460e-02,3.832546770572662354e-01,7.648114114999771118e-03,-1.282364428043365479e-01,1.193550974130630493e-01,4.592971503734588623e-02,-3.605141118168830872e-02,-6.679514795541763306e-02,-1.908878237009048462e-01,5.214337259531021118e-02,-4.276565462350845337e-02,-1.818353869020938873e-02,3.728845342993736267e-02,-7.979942858219146729e-02,6.542701274156570435e-02,-4.363899230957031250e-01,-1.677191734313964844e+00,-6.634298246353864670e-03,-1.001281887292861938e-01,8.041683584451675415e-02,2.873140759766101837e-02,1.016255542635917664e-01,1.458317274227738380e-03,-1.520370244979858398e-01,-1.535102874040603638e-01,-1.905379295349121094e-01,-7.258068025112152100e-02,-1.462874189019203186e-02,-2.266185581684112549e-01,-1.276467926800251007e-02,-4.120999574661254883e-01,5.231215804815292358e-02,1.894207596778869629e-01,-1.256547123193740845e-01,5.320820491760969162e-03,-4.787705466151237488e-02,-2.581685595214366913e-02,2.029706537723541260e-01,2.363809011876583099e-02,-4.827598575502634048e-03
-2.032008953392505646e-02,-7.782932836562395096e-03,-1.954016089439392090e-02,-2.804558351635932922e-02,-8.635115623474121094e-02,-1.901190131902694702e-01,-3.268453478813171387e-01,1.043768972158432007e-01,6.282369792461395264e-02,1.896983236074447632e-01,-2.088722400367259979e-02,2.382188290357589722e-01,1.771029382944107056e-01,2.262371592223644257e-02,1.250192672014236450e-01,5.894351378083229065e-02,2.746078372001647949e-01,2.625121176242828369e-01,-9.841140359640121460e-02,-1.520643234252929688e-01,-1.828854322433471680e+00,-8.361958712339401245e-02,4.146571829915046692e-02,4.260674864053726196e-02,-1.032224670052528381e-01,9.600757807493209839e-02,5.967574194073677063e-03,-5.740757286548614502e-02,2.692794986069202423e-02,-4.461834579706192017e-02,-7.399743050336837769e-02,1.290141721256077290e-03,7.017465680837631226e-02,1.220139935612678528e-01,3.461175262928009033e-01,4.386164247989654541e-01,-8.468993753194808960e-02,-3.937908634543418884e-02,-2.905930876731872559e-01,-4.092775285243988037e-02,-3.355768322944641113e-01,-3.020429611206054688e-01,-6.827861815690994263e-02,-9.066879749298095703e-02,-4.242217913269996643e-02,-3.617732226848602295e-01,-3.241519331932067871e-01,1.321356892585754395e-01,3.004421293735504150e-01,1.870096921920776367e+00,3.990111872553825378e-05,-1.087931729853153229e-02,-7.205019891262054443e-02,9.014548361301422119e-02,-9.730103611946105957e-02,7.640568166971206665e-02,5.738981440663337708e-02,-7.256343215703964233e-02,6.830208748579025269e-02,-1.286717876791954041e-02
2.977695316076278687e-03,2.775082178413867950e-02,7.633180916309356689e-02,-7.447879761457443237e-02,6.414020061492919922e-02,-1.047349944710731506e-01,-3.478800058364868164e-01,-1.787458658218383789e-01,1.870740503072738647e-01,4.277836978435516357e-01,-2.405241131782531738e-03,6.013386249542236328e-01,-6.585379689931869507e-02,-1.744912378489971161e-02,8.135251700878143311e-03,7.954096794128417969e-02,1.439432799816131592e-01,-9.039226919412612915e-02,6.731099486351013184e-01,1.554414071142673492e-02,3.046877682209014893e-01,5.136077404022216797e-01,5.369295924901962280e-02,-3.318440169095993042e-02,1.330110579729080200e-01,9.206274151802062988e-02,5.048343539237976074e-02,-1.424462348222732544e-01,-4.222473800182342529e-01,-1.069277971982955933e-01,-6.531108170747756958e-02,-8.460222929716110229e-02,6.448192149400711060e-02,2.746723592281341553e-02,1.270892173051834106e-01,4.314221441745758057e-01,9.636560827493667603e-02,-2.032927572727203369e-01,-5.941718816757202148e-01,-1.857203841209411621e-01,-7.504174113273620605e-01,1.278401166200637817e-01,1.635435968637466431e-02,4.087889939546585083e-02,-5.070909857749938965e-02,-1.543501764535903931e-01,3.188485652208328247e-02,-6.939306855201721191e-01,-7.475958764553070068e-02,-4.473759531974792480e-01,-6.138398647308349609e-01,-7.515471428632736206e-02,4.296674393117427826e-03,-2.131442576646804810e-01,-1.532560735940933228e-01,-7.884584367275238037e-03,-1.210235990583896637e-02,4.721307456493377686e-01,3.528105467557907104e-02,4.021868482232093811e-02
1.251732558012008667e-01,-9.803243726491928101e-02,-7.877172529697418213e-02,-6.232901290059089661e-02,-2.352648414671421051e-02,1.646714210510253906e-01,-4.187941849231719971e-01,6.490650586783885956e-03,9.467726945877075195e-02,7.575505971908569336e-02,9.626813232898712158e-02,-2.013439983129501343e-01,7.455184310674667358e-02,-1.199607029557228088e-01,4.604671522974967957e-02,-1.190434098243713379e-01,-1.154037833213806152e+00,-5.512989759445190430e-01,-3.459839522838592529e-01,6.457577943801879883e-01,-1.060112044215202332e-01,7.058453559875488281e-02,8.663140982389450073e-02,3.043503463268280029e-01,2.538566291332244873e-01,2.126353383064270020e-01,-7.083369884639978409e-03,-1.266238000243902206e-02,-4.235964715480804443e-01,7.387944310903549194e-02,1.630021631717681885e-01,-8.846107870340347290e-03,-3.278719261288642883e-02,1.832828111946582794e-02,-5.588751286268234253e-02,5.462934970855712891e-01,-2.888133563101291656e-02,-1.135283112525939941e-01,-1.113128662109375000e-01,1.059747040271759033e-01,1.556279957294464111e-01,-4.604057967662811279e-02,2.578356489539146423e-02,6.914701312780380249e-02,1.459748148918151855e-01,1.341696858406066895e+00,5.609518885612487793e-01,3.077197968959808350e-01,-4.780605733394622803e-01,1.379765272140502930e-01,-9.939280152320861816e-02,-9.621359407901763916e-02,-3.868581950664520264e-01,-3.611966073513031006e-01,-2.869280576705932617e-01,7.895646989345550537e-02,9.474344551563262939e-03,3.152348101139068604e-01,-2.013092860579490662e-02,-3.159362077713012695e-02
1.054202541708946228e-01,-1.417945604771375656e-02,1.886584013700485229e-01,3.019040524959564209e-01,2.287370264530181885e-01,2.390459626913070679e-01,2.860108204185962677e-02,-9.247120469808578491e-02,5.752890184521675110e-02,1.256858855485916138e-01,-5.026660487055778503e-02,1.599878221750259399e-01,6.899287551641464233e-02,-3.523865044116973877e-01,-1.233498901128768921e-01,9.329776279628276825e-03,2.078736722469329834e-01,3.936266526579856873e-02,-7.059627678245306015e-03,7.370994240045547485e-02,4.821088910102844238e-02,-2.442708611488342285e-01,-1.383149176836013794e-01,1.670860946178436279e-01,6.224147975444793701e-03,6.097030639648437500e-02,-1.656397730112075806e-01,-2.112970799207687378e-01,1.017585024237632751e-02,-5.506088137626647949e-01,4.950129985809326172e-01,5.949675664305686951e-02,-2.520239166915416718e-02,2.846293449401855469e-01,4.732413799501955509e-05,1.779187470674514771e-01,1.185270026326179504e-01,1.086443439126014709e-01,1.590893119573593140e-01,3.957342207431793213e-01,1.456436365842819214e-01,2.067675888538360596e-01,1.458689421415328979e-01,1.659098267555236816e-01,1.803708821535110474e-01,1.551208645105361938e-01,-6.408848613500595093e-02,4.186321049928665161e-02,2.032129317522048950e-01,9.362053126096725464e-02,2.114688903093338013e-01,2.531439065933227539e-01,2.295354604721069336e-01,1.630114763975143433e-01,3.456337153911590576e-01,2.578150331974029541e-01,5.549817159771919250e-02,2.355417311191558838e-01,-3.698979271575808525e-03,6.239409744739532471e-02
3.235852345824241638e-02,-3.287328034639358521e-02,-6.982976943254470825e-02,1.050055623054504395e-01,1.155668348073959351e-01,1.793322116136550903e-01,2.980514764785766602e-01,5.133275687694549561e-02,9.534647315740585327e-02,7.023831605911254883e-01,-3.192471712827682495e-02,6.670089364051818848e-01,4.305220544338226318e-01,-5.283128703013062477e-04,-1.869777776300907135e-02,-2.054601535201072693e-02,3.815419226884841919e-02,8.534835278987884521e-02,-7.911646962165832520e-01,-5.367740988731384277e-03,1.572078019380569458e-01,-3.718344271183013916e-01,-1.756890565156936646e-01,-1.176885291934013367e-01,4.943549335002899170e-01,1.674589961767196655e-01,-1.537628471851348877e-02,-2.785200998187065125e-02,3.209219500422477722e-02,-7.895156741142272949e-02,9.195975214242935181e-02,1.513679176568984985e-01,-6.242080405354499817e-02,-1.199078410863876343e-01,-3.310772776603698730e-01,-3.654296696186065674e-01,-7.966068387031555176e-02,-1.427395194768905640e-01,-8.717472553253173828e-01,-8.923277258872985840e-02,-7.828124761581420898e-01,-5.018266439437866211e-01,4.071435704827308655e-02,1.279416121542453766e-02,3.950902074575424194e-02,-1.598456054925918579e-01,-5.226585641503334045e-02,9.259248971939086914e-01,-7.589024305343627930e-02,-1.362355053424835205e-01,5.059773325920104980e-01,2.482166141271591187e-01,8.582062274217605591e-02,-5.689998865127563477e-01,-1.999400109052658081e-01,3.402920067310333252e-02,-4.831276019103825092e-04,-1.288916915655136108e-02,-3.280404210090637207e-02,2.692528814077377319e-02
-8.457951247692108154e-03,-6.689560413360595703e-02,-3.351657092571258545e-02,4.088425636291503906e-02,3.000213578343391418e-02,-3.014137148857116699e-01,-5.913546308875083923e-02,5.134844686836004257e-03,6.112112477421760559e-02,-1.009486019611358643e-01,4.374267067760229111e-03,3.010134957730770111e-02,-3.356003016233444214e-02,-5.185919627547264099e-02,1.913580298423767090e-02,-6.940349936485290527e-02,-7.143936306238174438e-02,-6.960056722164154053e-02,1.260037766769528389e-03,-7.380592823028564453e-02,-3.610071539878845215e-02,-1.095102448016405106e-02,-1.931293368339538574e+00,-7.932067513465881348e-01,-1.676218211650848389e-02,2.050406672060489655e-02,-2.213148400187492371e-02,5.914599448442459106e-02,1.076449528336524963e-01,-1.640473864972591400e-02,5.353144556283950806e-02,5.897971615195274353e-02,-5.214413627982139587e-02,-4.968305304646492004e-02,2.930879890918731689e-01,8.530901372432708740e-02,4.156759008765220642e-03,-7.145506888628005981e-02,1.306773722171783447e-01,1.815912313759326935e-02,-4.317366331815719604e-02,2.721254341304302216e-02,5.207637324929237366e-02,1.145202387124300003e-02,1.233215779066085815e-01,6.484998762607574463e-02,3.019069321453571320e-02,-1.748051680624485016e-02,5.554211139678955078e-02,5.129202455282211304e-02,-1.707748137414455414e-02,1.961102008819580078e+00,7.687847018241882324e-01,5.376394838094711304e-03,-2.985075116157531738e-02,-2.668785303831100464e-02,6.939538288861513138e-03,-2.066136151552200317e-01,3.503997251391410828e-02,3.992249444127082825e-02
6.836108863353729248e-02,-3.825992718338966370e-02,-7.732243835926055908e-02,-3.194538354873657227e-01,-1.714507676661014557e-02,-5.134154111146926880e-02,-2.008703304454684258e-03,1.490606218576431274e-01,1.972151398658752441e-01,2.984505891799926758e-02,6.643167883157730103e-02,2.717482671141624451e-02,-1.208026334643363953e-02,-1.733578890562057495e-01,8.257803320884704590e-01,-1.040543079376220703e+00,-2.722910642623901367e-01,-4.038042947649955750e-02,-6.274448335170745850e-02,2.137251347303390503e-01,-2.436862885951995850e-02,1.518169641494750977e-01,-1.207931637763977051e-01,3.712665438652038574e-01,5.956271886825561523e-01,2.033579945564270020e-01,9.092912077903747559e-02,5.528514459729194641e-02,-9.201522916555404663e-02,7.526782155036926270e-02,1.779070049524307251e-01,8.175520598888397217e-02,-5.065826773643493652e-01,1.300076246261596680e-01,7.787676528096199036e-03,-2.884745895862579346e-01,-1.669496744871139526e-01,-2.154915034770965576e-01,5.130960792303085327e-02,1.423183381557464600e-01,-3.567190840840339661e-02,-7.570523768663406372e-02,-1.597619056701660156e-01,6.715292930603027344e-01,-1.299919724464416504e+00,2.268468141555786133e-01,-2.373326867818832397e-01,2.352958172559738159e-01,4.203804954886436462e-02,-2.748052179813385010e-01,-2.526381909847259521e-01,1.658338755369186401e-01,9.119533747434616089e-02,1.736453324556350708e-01,-2.559372410178184509e-02,2.310818247497081757e-02,5.963702872395515442e-02,-2.475854903459548950e-01,6.959550827741622925e-02,-6.970020383596420288e-02
-5.920294299721717834e-02,3.963610157370567322e-02,-1.918993704020977020e-02,1.766998022794723511e-01,8.925078809261322021e-02,5.719249695539474487e-02,3.314091563224792480e-01,4.446679726243019104e-02,-9.746522642672061920e-03,3.381084501743316650e-01,-6.797761917114257812e-01,9.317252039909362793e-02,-2.892191335558891296e-02,1.975561827421188354e-01,-3.267530798912048340e-01,-1.785068362951278687e-01,7.638730853796005249e-02,9.329350292682647705e-02,3.821802139282226562e-02,3.760496154427528381e-02,-3.226555883884429932e-01,7.032409310340881348e-02,-6.636999547481536865e-02,1.806330829858779907e-01,-2.077438086271286011e-01,5.494833923876285553e-03,1.729481667280197144e-02,4.832484200596809387e-02,-6.586195230484008789e-01,1.145016849040985107e-01,-1.172899156808853149e-01,3.399511799216270447e-02,-1.972500979900360107e-02,-1.134124398231506348e-02,1.530649513006210327e-01,5.127491950988769531e-01,-1.415788978338241577e-01,3.178490996360778809e-01,4.121008217334747314e-01,-9.258090853691101074e-01,-1.383014470338821411e-01,-2.438633590936660767e-01,3.000517375767230988e-03,-5.460956692695617676e-01,-1.252423673868179321e-01,3.704643547534942627e-01,-2.531833387911319733e-02,-2.025127038359642029e-02,-7.940435409545898438e-02,2.771166898310184479e-02,-1.675593852996826172e-01,3.052712231874465942e-02,2.944803535938262939e-01,-3.290329277515411377e-01,6.025554984807968140e-02,1.455264538526535034e-01,-3.505358397960662842e-01,-1.382572531700134277e+00,1.339355409145355225e-01,1.149215921759605408e-02
4.189494997262954712e-03,1.095650866627693176e-01,1.558184027671813965e+00,4.326096773147583008e-01,-3.770537301898002625e-02,-1.321668922901153564e-01,1.070544347167015076e-01,-3.940268978476524353e-02,-4.266684129834175110e-02,-6.911732256412506104e-02,-1.147277802228927612e-01,-4.203385487198829651e-02,-9.004002809524536133e-02,-2.729101851582527161e-02,3.072124673053622246e-03,-5.350710079073905945e-02,1.036226749420166016e-01,-1.687093377113342285e-01,2.006274275481700897e-02,2.951039187610149384e-02,-1.997481798753142357e-03,-1.462136358022689819e-01,7.467758376151323318e-03,-4.512196779251098633e-02,-9.260356426239013672e-02,2.632398903369903564e-01,-2.129779383540153503e-02,-1.420680340379476547e-02,-7.778444141149520874e-02,1.196917053312063217e-02,-2.363366484642028809e-01,-1.686631321907043457e+00,-4.161330163478851318e-01,6.348930299282073975e-02,1.218599677085876465e-01,-9.658426791429519653e-02,6.610544770956039429e-02,8.408430963754653931e-03,4.481934383511543274e-02,1.417120546102523804e-01,8.018752932548522949e-02,1.155744418501853943e-01,6.614629644900560379e-03,-6.958378478884696960e-03,6.444386392831802368e-02,-1.540317833423614502e-01,1.806939840316772461e-01,2.581887133419513702e-02,-4.122877493500709534e-02,-5.313594266772270203e-02,1.781530082225799561e-01,4.288952052593231201e-02,3.745714202523231506e-02,5.376370996236801147e-02,-3.312364518642425537e-01,3.104337118566036224e-02,-9.199887514114379883e-03,8.701514452695846558e-02,8.771197870373725891e-03,2.898887917399406433e-02
-2.676827274262905121e-02,-2.893369197845458984e-01,-1.401720196008682251e-01,-6.545175909996032715e-01,-5.239257588982582092e-02,-2.242136895656585693e-01,8.703128248453140259e-02,6.605320144444704056e-03,-1.612446904182434082e-01,-2.739287018775939941e-01,-2.497193217277526855e-02,2.523229718208312988e-01,4.912427663803100586e-01,2.037023426964879036e-03,-5.115383863449096680e-02,1.117547973990440369e-02,5.983553081750869751e-02,-3.227337002754211426e-01,2.376729249954223633e-01,1.536175757646560669e-01,7.085229456424713135e-02,-4.216727912425994873e-01,3.660428524017333984e-02,-1.082051396369934082e-01,-5.078903436660766602e-01,-6.726942956447601318e-02,-4.229867085814476013e-02,-7.204934372566640377e-04,-3.136746287345886230e-01,8.488973230123519897e-02,4.503403902053833008e-01,3.511834442615509033e-01,6.319819688796997070e-01,6.440517306327819824e-02,2.140356600284576416e-01,-2.177573591470718384e-01,1.317988964729011059e-03,1.591246128082275391e-01,2.503938376903533936e-01,-6.316727399826049805e-02,-2.806098759174346924e-01,-7.029252052307128906e-01,-6.394747644662857056e-02,2.033088803291320801e-01,8.568177372217178345e-02,-6.175791844725608826e-02,3.934229910373687744e-01,-2.646186649799346924e-01,-2.049744129180908203e-01,-4.060859978199005127e-02,5.546565055847167969e-01,2.834344981238245964e-03,1.319724023342132568e-01,6.236611604690551758e-01,-1.094172447919845581e-01,1.959545910358428955e-02,1.196362376213073730e-01,4.445019364356994629e-01,6.392956525087356567e-02,3.172512724995613098e-02
-2.911774441599845886e-02,6.692891567945480347e-02,-5.417244508862495422e-02,-3.591921031475067139e-01,-2.071688324213027954e-02,2.749857604503631592e-01,9.901525452733039856e-03,-5.003301426768302917e-02,-2.097859233617782593e-01,-2.338975854218006134e-02,4.127439856529235840e-02,-1.763573139905929565e-01,-2.228162586688995361e-01,-5.745170637965202332e-02,9.459672868251800537e-02,1.312095969915390015e-01,-2.456935495138168335e-01,-2.276962399482727051e-01,-3.089010715484619141e-01,-1.450901985168457031e+00,-1.328565180301666260e-01,4.885312169790267944e-02,1.343640498816967010e-02,-2.672248482704162598e-01,-8.462346345186233521e-02,1.165446043014526367e-01,-1.055624429136514664e-02,-1.481727231293916702e-02,-2.268349826335906982e-01,-1.968553289771080017e-02,-1.152225583791732788e-01,-1.604126021265983582e-02,4.116593599319458008e-01,-9.086503088474273682e-02,-4.236442148685455322e-01,-3.555462136864662170e-02,1.690711639821529388e-02,2.020277231931686401e-01,-5.132232233881950378e-02,-2.726308070123195648e-02,9.482864290475845337e-02,2.321577072143554688e-01,3.665678948163986206e-02,3.579902648925781250e-02,1.964728347957134247e-02,2.906877100467681885e-01,2.568767666816711426e-01,3.431407213211059570e-01,1.469435572624206543e+00,1.096671223640441895e-01,-2.712908387184143066e-02,-4.099946841597557068e-02,2.596548199653625488e-01,7.861325144767761230e-02,-1.019673347473144531e-01,-3.565516090020537376e-03,-1.832685992121696472e-02,2.590056657791137695e-01,1.210147440433502197e-01,8.593050390481948853e-02
2.096279524266719818e-02,4.620344936847686768e-02,6.916610151529312134e-02,1.461021900177001953e-01,2.581531107425689697e-01,5.338273569941520691e-02,-2.669120430946350098e-01,1.899845600128173828e-01,1.002119779586791992e-01,4.669196903705596924e-02,-1.377209305763244629e+00,-1.295114457607269287e-01,6.578554958105087280e-02,-1.311427950859069824e-01,-4.095850288867950439e-01,-1.268564462661743164e-01,-8.251637220382690430e-02,-8.980491012334823608e-02,2.368962392210960388e-02,-1.320214271545410156e-01,1.109448373317718506e-01,1.286768466234207153e-01,-2.464513666927814484e-02,1.120542287826538086e-01,3.495335876941680908e-01,2.021440118551254272e-01,1.230150810442864895e-04,3.205851837992668152e-02,1.108983308076858521e-01,2.358001619577407837e-01,1.692916601896286011e-01,2.315154857933521271e-02,3.104441165924072266e-01,-1.772777438163757324e-01,-1.132987216114997864e-01,-4.854943752288818359e-01,-6.827583909034729004e-02,-5.315870419144630432e-02,5.918690934777259827e-02,-2.618925094604492188e+00,-1.579038053750991821e-01,-5.345556885004043579e-02,-4.578035697340965271e-02,-5.286327600479125977e-01,-3.117167353630065918e-01,-3.351469039916992188e-01,-1.008976250886917114e-01,-2.499922066926956177e-01,-8.325850591063499451e-03,2.618766427040100098e-01,2.290198206901550293e-02,9.236273914575576782e-02,8.129020780324935913e-02,1.821548789739608765e-01,-7.864461094141006470e-02,4.805593192577362061e-02,1.455040574073791504e-01,-1.258422434329986572e-01,2.048918306827545166e-01,-6.266368180513381958e-02
7.860641926527023315e-02,5.301643162965774536e-02,1.578812599182128906e-01,2.426625043153762817e-01,6.614334136247634888e-02,9.181264042854309082e-02,7.052484750747680664e-01,1.443089246749877930e-01,-7.588049769401550293e-02,-1.987720280885696411e-01,1.790935993194580078e-01,2.344542555510997772e-02,1.390774697065353394e-01,3.008052408695220947e-01,3.814630806446075439e-01,-3.713074326515197754e-01,-4.451477155089378357e-02,-8.641071617603302002e-03,-1.102072671055793762e-01,-1.179240420460700989e-01,4.856115992879495025e-05,1.795704662799835205e-01,-1.056617870926856995e-01,-1.687296330928802490e-01,8.544281870126724243e-02,1.034207642078399658e-01,-6.346895545721054077e-02,3.162954449653625488e-01,2.295634523034095764e-02,2.893498837947845459e-01,6.447194516658782959e-02,-1.840220093727111816e-01,6.129987537860870361e-02,-2.098353505134582520e-01,2.769491448998451233e-02,8.716583251953125000e-01,-2.766877412796020508e-01,-5.871673300862312317e-02,5.244936048984527588e-02,3.939303457736968994e-01,-8.839222788810729980e-02,-2.228750614449381828e-03,2.792820334434509277e-01,3.399481177330017090e-01,-4.620600640773773193e-01,-2.755199968814849854e-01,-1.554715335369110107e-01,-4.072249680757522583e-02,-2.744808793067932129e-01,3.260327577590942383e-01,-4.834572598338127136e-02,2.152544260025024414e-02,-1.018001362681388855e-01,1.441441476345062256e-01,6.188713479787111282e-03,5.644345656037330627e-02,3.225445747375488281e-02,4.043818637728691101e-02,3.663758933544158936e-01,-1.104329619556665421e-02
1.088278484530746937e-03,6.035901233553886414e-02,5.498958751559257507e-02,4.765593260526657104e-02,1.579373329877853394e-01,-6.175872683525085449e-02,6.911604851484298706e-02,6.822421401739120483e-02,-6.817638408392667770e-03,-3.302710875868797302e-02,1.962544471025466919e-01,8.053734898567199707e-02,1.991244778037071228e-02,-1.685553073883056641e+00,8.650742471218109131e-02,7.506562024354934692e-02,-2.096446044743061066e-02,6.491939723491668701e-02,5.795466527342796326e-02,7.537589967250823975e-02,1.095129083842039108e-02,3.802065923810005188e-02,4.242345318198204041e-02,-2.082476392388343811e-02,6.193196773529052734e-02,5.580898374319076538e-02,-8.035925775766372681e-02,-6.703034788370132446e-02,-6.992612779140472412e-02,-7.362899184226989746e-02,1.266024354845285416e-02,7.089561223983764648e-02,2.599309086799621582e-01,-6.079957261681556702e-02,-4.661162942647933960e-02,1.002367138862609863e-01,-2.056637704372406006e-01,6.871850788593292236e-02,8.015369623899459839e-02,1.398429721593856812e-01,4.122042283415794373e-02,-2.055684924125671387e-01,-2.691834449768066406e+00,2.526071071624755859e-01,7.557928562164306641e-02,3.643850609660148621e-02,1.033232640475034714e-02,5.093368515372276306e-02,4.576800391077995300e-02,1.543254256248474121e-01,-1.264310628175735474e-02,3.123645205050706863e-03,-5.217724293470382690e-02,1.070797964930534363e-01,-2.501569390296936035e-01,5.444975569844245911e-02,-2.001786604523658752e-02,-7.265223562717437744e-02,-4.130746424198150635e-02,-2.892184443771839142e-02
5.911414511501789093e-03,1.171100065112113953e-01,1.021180227398872375e-01,2.679337561130523682e-01,2.462087124586105347e-01,2.594701014459133148e-03,-5.546256154775619507e-02,1.293089091777801514e-01,1.250230669975280762e-01,-1.488970518112182617e-01,3.954243063926696777e-01,4.310895875096321106e-02,5.316006764769554138e-02,-6.817950401455163956e-03,-6.456574201583862305e-01,-1.416770964860916138e-01,-8.856764994561672211e-03,7.691052276641130447e-03,8.529194444417953491e-02,2.734764218330383301e-01,-2.379203140735626221e-01,-1.770542114973068237e-01,-9.894671291112899780e-02,7.460932433605194092e-02,2.180396467447280884e-01,6.595173478126525879e-02,-1.951053924858570099e-02,4.354655742645263672e-02,-1.988137373700737953e-03,7.036955356597900391e-01,-2.344875633716583252e-01,-1.584788858890533447e-01,1.957945823669433594e-01,-6.530387699604034424e-02,-5.004835128784179688e-02,-1.129754632711410522e-01,-8.834874629974365234e-02,-2.937918603420257568e-01,-2.442330718040466309e-01,3.545893728733062744e-01,-8.121947944164276123e-02,1.145351305603981018e-01,9.327539801597595215e-02,-1.001894831657409668e+00,-6.976660341024398804e-02,4.451827332377433777e-02,-3.326512500643730164e-02,4.595494642853736877e-02,-1.250973939895629883e-01,-3.748303353786468506e-01,-1.282758116722106934e-01,1.243868991732597351e-01,-2.867972943931818008e-03,1.272125542163848877e-01,8.143505454063415527e-02,-9.346761554479598999e-02,1.003421563655138016e-02,-2.164990454912185669e-01,5.418401360511779785e-01,-8.288641273975372314e-02
-4.923598375171422958e-03,4.659567028284072876e-02,4.975473508238792419e-02,-1.422426998615264893e-01,1.990702003240585327e-01,1.683780737221240997e-02,-2.449651360511779785e-01,7.585630565881729126e-02,-2.701587416231632233e-02,2.095297165215015411e-02,2.611506581306457520e-01,2.462941594421863556e-02,-4.064086079597473145e-02,3.244227543473243713e-02,5.108882784843444824e-01,3.424734473228454590e-01,-1.979284435510635376e-01,4.485629498958587646e-03,-4.410246759653091431e-02,-8.343158662319183350e-02,1.910419315099716187e-01,6.890418380498886108e-02,6.542791426181793213e-02,-3.605324774980545044e-02,-1.018337812274694443e-02,1.265464425086975098e-01,-3.937940299510955811e-02,1.421058773994445801e-01,-4.267215430736541748e-01,8.293240070343017578e-01,1.314424425363540649e-01,-6.042946875095367432e-02,1.001265645027160645e-01,-2.378296703100204468e-01,-8.046595752239227295e-02,-2.744042873382568359e-01,-1.466583609580993652e-01,-9.799022227525711060e-02,-1.476513743400573730e-01,3.488849699497222900e-01,3.784922650083899498e-03,-7.961729168891906738e-02,1.567425429821014404e-01,6.733676195144653320e-01,2.430706918239593506e-01,-6.913011427968740463e-03,1.671536266803741455e-01,-1.731681078672409058e-02,-4.839865490794181824e-03,1.313797086477279663e-01,1.733676940202713013e-01,-5.423365533351898193e-02,4.987773671746253967e-02,8.201269805431365967e-02,-5.212562903761863708e-02,-4.199591279029846191e-02,-3.796072560362517834e-04,-2.993361949920654297e-01,1.006110787391662598e+00,7.563357800245285034e-02
2.370901592075824738e-02,-1.934670954942703247e-01,5.650245547294616699e-01,-6.741502135992050171e-02,4.891732633113861084e-01,6.796597689390182495e-02,9.854924865067005157e-03,5.354061126708984375e-01,-1.925333291292190552e-01,1.053813993930816650e-01,-5.057330429553985596e-02,-9.163044393062591553e-02,1.084658801555633545e-01,2.769983112812042236e-01,9.462709724903106689e-02,6.890804320573806763e-02,7.961011677980422974e-02,-1.236710846424102783e-01,-3.427376225590705872e-02,6.456998735666275024e-02,1.108660176396369934e-01,7.944571971893310547e-02,-2.218219451606273651e-02,-4.028019681572914124e-02,-1.772236377000808716e-01,5.971547961235046387e-02,-1.375848501920700073e-01,4.703863859176635742e-01,2.595553994178771973e-01,3.612327277660369873e-01,1.261094957590103149e-01,-3.171092867851257324e-01,1.449542045593261719e-01,-3.090709447860717773e-01,3.102164268493652344e-01,2.992901504039764404e-01,-3.899662792682647705e-01,4.900963008403778076e-01,2.704348862171173096e-01,1.125453636050224304e-01,2.635279893875122070e-01,3.499233722686767578e-01,5.836839973926544189e-02,-3.123499155044555664e-01,4.008473157882690430e-01,3.857827484607696533e-01,3.072622120380401611e-01,1.503803879022598267e-01,3.891292214393615723e-01,1.994784176349639893e-01,1.914592236280441284e-01,2.033768743276596069e-01,3.931047022342681885e-01,7.765189558267593384e-02,7.881688326597213745e-02,3.914853632450103760e-01,2.786678373813629150e-01,4.104345440864562988e-01,-3.822225704789161682e-02,4.281558468937873840e-02
5.521982908248901367e-02,-1.022687032818794250e-01,9.120042920112609863e-01,-7.956044375896453857e-02,8.362838029861450195e-01,2.396051883697509766e-01,1.673430204391479492e-02,4.945591986179351807e-01,7.297187298536300659e-02,5.074455142021179199e-01,2.460576742887496948e-01,2.688052356243133545e-01,4.706962108612060547e-01,2.471071034669876099e-01,1.267659813165664673e-01,1.578335762023925781e-01,3.024553656578063965e-01,3.801080882549285889e-01,3.024872243404388428e-01,3.743870258331298828e-01,3.759649395942687988e-01,3.509912192821502686e-01,2.476284503936767578e-01,2.723647654056549072e-01,5.534382537007331848e-02,4.826710224151611328e-01,-9.103149920701980591e-02,6.432141065597534180e-01,4.506961703300476074e-01,2.494877129793167114e-01,-6.448043137788772583e-02,-7.696863412857055664e-01,2.307226210832595825e-01,-8.105028867721557617e-01,-1.936408281326293945e-01,-6.756973266601562500e-02,-4.601385891437530518e-01,2.724362909793853760e-01,-2.717476189136505127e-01,-1.490414291620254517e-01,-4.315580427646636963e-01,-1.512520015239715576e-01,-1.814974993467330933e-01,-4.997499585151672363e-01,3.262239098548889160e-01,-1.006364747881889343e-01,-2.706935107707977295e-01,-2.850054204463958740e-01,1.525092273950576782e-01,-1.392042487859725952e-01,-1.579916775226593018e-01,-9.400868415832519531e-02,-1.030093356966972351e-01,-4.872094094753265381e-01,-5.884326100349426270e-01,2.222926467657089233e-01,2.276461943984031677e-02,1.635723710060119629e-01,-3.661216199398040771e-01,1.334140002727508545e-01
6.428432464599609375e-02,3.157319501042366028e-02,7.113346830010414124e-03,1.157243996858596802e-01,1.719757676124572754e+00,1.649370640516281128e-01,-1.870611608028411865e-01,7.085663080215454102e-02,9.487797319889068604e-02,2.456845529377460480e-02,-1.263803839683532715e-01,-1.281772702932357788e-01,2.023904025554656982e-01,-8.693064749240875244e-02,8.063588291406631470e-02,1.301566660404205322e-01,4.303091391921043396e-02,3.059323132038116455e-02,2.183019816875457764e-01,-9.780801832675933838e-02,1.066835522651672363e-01,-9.053412079811096191e-02,2.689868956804275513e-02,8.336666971445083618e-02,-7.646966725587844849e-02,1.558706015348434448e-01,-6.366349756717681885e-02,-1.877818442881107330e-02,2.205896377563476562e-01,4.749327898025512695e-02,3.883215133100748062e-03,-2.982001565396785736e-02,-7.473234087228775024e-02,-1.701103687286376953e+00,-1.128485053777694702e-01,2.328016459941864014e-01,-8.639774471521377563e-02,-8.152022212743759155e-02,-4.894502833485603333e-02,8.631270378828048706e-02,1.420497894287109375e-01,-1.862048059701919556e-01,3.593420237302780151e-02,-9.744287282228469849e-02,-1.861342638731002808e-01,-1.147703230381011963e-01,-1.293325796723365784e-02,-1.788335293531417847e-01,1.002134829759597778e-01,-9.331049025058746338e-02,1.793192774057388306e-01,9.936993010342121124e-03,-8.284810185432434082e-02,1.404999643564224243e-01,-1.886723786592483521e-01,2.948430180549621582e-02,-4.137126356363296509e-02,-2.893077731132507324e-01,-2.408806793391704559e-02,-1.652514562010765076e-02
2.802351303398609161e-02,-8.582300692796707153e-02,5.012519285082817078e-02,-3.511819243431091309e-01,-1.420578062534332275e-01,2.203121185302734375e-01,-1.716886907815933228e-01,-9.566251933574676514e-02,4.053751751780509949e-02,-8.996552228927612305e-01,-2.121234834194183350e-01,6.621737033128738403e-02,-7.951018959283828735e-02,-4.810349270701408386e-02,3.007086552679538727e-02,7.636899594217538834e-03,2.775188982486724854e-01,7.199909687042236328e-01,-1.553283780813217163e-01,1.815958917140960693e-01,1.560858488082885742e-01,-1.219861134886741638e-01,-4.774137213826179504e-02,7.106324285268783569e-02,5.321775674819946289e-01,2.837509512901306152e-01,-5.535290017724037170e-02,-1.585323512554168701e-01,-4.523254036903381348e-01,-1.141254231333732605e-01,7.806815952062606812e-02,1.161075159907341003e-01,4.478726685047149658e-01,7.345286011695861816e-02,-3.184606134891510010e-01,3.788956999778747559e-01,9.400686621665954590e-02,3.463216871023178101e-02,1.092210292816162109e+00,1.980097591876983643e-01,-3.867577295750379562e-03,1.415282785892486572e-01,-5.846393480896949768e-02,4.313619283493608236e-04,-1.295056939125061035e-02,-4.085539877414703369e-01,-9.057177305221557617e-01,1.441869884729385376e-01,-1.975824385881423950e-01,-1.632242351770401001e-01,2.007432430982589722e-01,1.858947426080703735e-02,-2.115221470594406128e-01,-6.855893135070800781e-01,-3.655650019645690918e-01,3.636924549937248230e-02,-1.954627223312854767e-02,6.365572810173034668e-01,9.716027975082397461e-02,3.087758459150791168e-02
-2.035293262451887131e-03,9.813853353261947632e-02,-1.363330185413360596e-01,-8.032649755477905273e-01,-2.955565154552459717e-01,-2.720203697681427002e-01,-8.546292781829833984e-02,-8.926630951464176178e-03,-6.545518059283494949e-03,2.938213646411895752e-01,-4.541984573006629944e-02,-3.036686480045318604e-01,-5.143993496894836426e-01,-1.099600568413734436e-01,-2.101061167195439339e-03,1.034678742289543152e-01,1.461189687252044678e-01,-1.237902939319610596e-01,3.812043964862823486e-01,1.490506976842880249e-01,1.796522177755832672e-02,-4.224424660205841064e-01,3.789478540420532227e-02,8.848176151514053345e-02,4.918608963489532471e-01,1.173483207821846008e-01,-3.781393403187394142e-03,4.392356798052787781e-02,5.457348823547363281e-01,1.900922358036041260e-01,-1.047942414879798889e-01,1.244995296001434326e-01,8.608086109161376953e-01,2.567684948444366455e-01,2.689128518104553223e-01,4.908335860818624496e-03,6.456019729375839233e-02,-2.193086035549640656e-02,-4.035678505897521973e-01,7.280136644840240479e-02,4.018869400024414062e-01,6.473213434219360352e-01,7.315984368324279785e-02,5.598830804228782654e-02,-5.451831966638565063e-02,-1.671963185071945190e-01,1.685986071825027466e-01,-4.644561707973480225e-01,-1.859503984451293945e-01,-2.894518896937370300e-03,4.874182343482971191e-01,-8.323845267295837402e-02,-8.901177346706390381e-02,-5.242990255355834961e-01,-1.102637276053428650e-01,-2.219546027481555939e-02,-1.142181307077407837e-01,-5.717937350273132324e-01,-1.548837721347808838e-01,9.657644666731357574e-03
-1.129575073719024658e-01,1.577748805284500122e-01,1.936429888010025024e-01,-1.391772031784057617e-01,1.773293945007026196e-03,8.658449351787567139e-02,-7.631001621484756470e-02,-1.490967869758605957e-01,-8.774628490209579468e-02,2.079414725303649902e-01,7.781487703323364258e-01,1.118691787123680115e-01,-7.791361212730407715e-02,1.368736475706100464e-01,-1.049862742424011230e+00,-3.578588068485260010e-01,-4.194085299968719482e-02,3.054256737232208252e-01,1.876677870750427246e-01,-3.452654182910919189e-01,-1.052464097738265991e-01,-6.038337200880050659e-02,-1.110387220978736877e-02,-2.771937660872936249e-02,5.262135714292526245e-02,-1.326180156320333481e-02,2.803729660809040070e-02,1.196819096803665161e-01,1.357915699481964111e-01,-2.599425315856933594e-01,3.567193448543548584e-01,-4.030324518680572510e-02,-1.851900517940521240e-01,-3.066139481961727142e-02,-1.605480611324310303e-01,-4.135818183422088623e-01,-8.745465427637100220e-02,-3.599608689546585083e-02,3.944109678268432617e-01,1.788827180862426758e-01,1.154380962252616882e-01,1.507987268269062042e-02,-7.129464298486709595e-02,-1.673025608062744141e+00,-4.105791151523590088e-01,1.814592331647872925e-01,1.163348034024238586e-01,-7.837772369384765625e-03,-5.033800005912780762e-01,-1.432384252548217773e-01,2.733470499515533447e-01,7.889872044324874878e-02,1.734800934791564941e-01,2.896273434162139893e-01,1.234307810664176941e-01,1.039643809199333191e-01,-5.820961296558380127e-02,9.238781034946441650e-02,-2.257019728422164917e-01,6.997959315776824951e-02
1.067908555269241333e-01,5.678156856447458267e-03,-1.245994493365287781e-01,5.136194825172424316e-02,1.365220993757247925e-01,1.361093670129776001e-01,-1.010778471827507019e-01,3.269539773464202881e-02,-2.413279861211776733e-01,1.397496555000543594e-02,3.087277412414550781e-01,2.988351583480834961e-01,1.426070481538772583e-01,-3.907888010144233704e-02,8.107444643974304199e-02,3.314470127224922180e-02,-2.275859564542770386e-01,-3.356422111392021179e-02,-1.311603840440511703e-02,5.332352221012115479e-02,1.869692951440811157e-01,4.981591403484344482e-01,1.218941360712051392e-01,8.059113286435604095e-03,2.083413004875183105e-01,5.949845537543296814e-02,-8.514107763767242432e-02,-4.330518245697021484e-01,-5.061936378479003906e-01,-1.246622562408447266e+00,1.752249747514724731e-01,-1.940509378910064697e-01,-3.074606060981750488e-01,-1.438258290290832520e-01,-8.287144452333450317e-02,-2.469468414783477783e-01,-1.439511179924011230e-01,1.257691681385040283e-01,2.541291117668151855e-01,3.766075670719146729e-01,6.922125816345214844e-02,6.867537498474121094e-01,3.180005252361297607e-01,-2.431013882160186768e-01,-2.441754788160324097e-01,-2.576850354671478271e-01,-3.076006770133972168e-01,6.197939068078994751e-02,1.226393803954124451e-01,-5.407779663801193237e-02,9.153777360916137695e-02,-8.309695124626159668e-02,-8.595444262027740479e-03,-4.223678708076477051e-01,2.949063293635845184e-02,-1.784879416227340698e-01,-8.102499246597290039e-01,-6.390445828437805176e-01,-3.082190513610839844e+00,1.526874154806137085e-01
-2.912983298301696777e-02,-4.874907806515693665e-02,7.219000905752182007e-02,1.930732093751430511e-02,-7.687531411647796631e-03,5.806567668914794922e-01,1.299344003200531006e-01,2.125247269868850708e-01,2.806434631347656250e-01,-3.156556785106658936e-01,6.325624883174896240e-02,8.367724418640136719e-01,-4.589205086231231689e-01,-1.371716260910034180e-01,5.960042774677276611e-02,-1.568486094474792480e-01,-1.742699295282363892e-01,-4.318152740597724915e-02,-1.062300149351358414e-02,1.699465885758399963e-02,-1.177566777914762497e-02,1.311590522527694702e-01,1.891008764505386353e-01,1.558678150177001953e-01,-2.656563222408294678e-01,1.102981716394424438e-01,1.013251859694719315e-02,-5.477920547127723694e-02,5.195396542549133301e-01,9.243467450141906738e-02,6.768631935119628906e-02,-6.123438850045204163e-02,-1.404909696429967880e-02,-5.720242857933044434e-02,-8.088077306747436523e-01,-2.397678494453430176e-01,-2.136361747980117798e-01,-1.766702234745025635e-01,3.171502053737640381e-01,-1.225440278649330139e-01,-9.369017481803894043e-01,5.427585840225219727e-01,1.591228097677230835e-01,-8.283904753625392914e-03,1.579182446002960205e-01,1.791071742773056030e-01,5.523973703384399414e-02,4.178538545966148376e-02,4.221814498305320740e-02,2.244070358574390411e-02,-2.415831387042999268e-01,-2.196239382028579712e-01,-1.425221562385559082e-01,3.777977228164672852e-01,-2.206473201513290405e-01,-8.682859688997268677e-02,-1.235724836587905884e-01,-7.113550901412963867e-01,-3.216122686862945557e-01,2.435777522623538971e-02
3.533925861120223999e-02,6.215415196493268013e-04,-1.267056446522474289e-02,-2.463202476501464844e-01,-1.401330828666687012e-01,-9.044217467308044434e-01,-6.852924823760986328e-02,-9.947302937507629395e-02,-5.940439552068710327e-02,-6.916280090808868408e-02,-6.838203966617584229e-02,-8.056931942701339722e-02,1.014008298516273499e-01,-3.560912236571311951e-02,8.524040877819061279e-02,-1.889977604150772095e-01,-1.947137117385864258e-01,2.306050062179565430e-01,-6.366971731185913086e-01,-1.577011048793792725e-01,3.559335172176361084e-01,6.656155586242675781e-01,1.644788533449172974e-01,4.818643331527709961e-01,-4.918137192726135254e-02,2.250185608863830566e-01,-3.501286730170249939e-02,7.734035700559616089e-02,3.144898414611816406e-01,1.332948654890060425e-01,2.984851785004138947e-02,3.782458975911140442e-02,2.869868278503417969e-01,2.981786131858825684e-01,9.806315898895263672e-01,1.095502600073814392e-01,2.836322598159313202e-02,3.666463494300842285e-02,-7.319170236587524414e-02,-3.194456920027732849e-03,6.480572372674942017e-02,-1.717610359191894531e-01,2.348625659942626953e-02,1.345597058534622192e-01,1.918458938598632812e-01,1.189355552196502686e-01,-2.420549392700195312e-01,7.589669227600097656e-01,1.108801141381263733e-01,-4.849959015846252441e-01,-8.473643660545349121e-01,-2.396882623434066772e-01,-5.517144799232482910e-01,1.041843816637992859e-01,-3.563724458217620850e-01,9.998271707445383072e-05,-2.285351604223251343e-02,-4.709096550941467285e-01,-1.763395518064498901e-01,3.690117970108985901e-02
-3.735622391104698181e-02,6.601614505052566528e-02,6.380524486303329468e-02,-8.168286830186843872e-02,-6.020793691277503967e-02,2.371863275766372681e-01,-2.203001379966735840e-01,-1.811843067407608032e-01,-1.391177028417587280e-01,4.175695180892944336e-01,2.301325798034667969e-01,-1.052147895097732544e-01,-1.696872711181640625e-01,-2.923366613686084747e-02,-1.088527031242847443e-02,-9.663110598921775818e-03,1.859969832003116608e-02,6.951827406883239746e-01,-1.134196221828460693e-01,4.066163599491119385e-01,2.195671051740646362e-01,-2.166838571429252625e-02,-2.108474262058734894e-02,-5.246850252151489258e-01,-6.826838254928588867e-01,-3.551775962114334106e-02,-5.505179241299629211e-02,-9.389633685350418091e-02,2.599777467548847198e-02,-4.405999183654785156e-02,2.384372614324092865e-02,-9.559043496847152710e-02,9.401258081197738647e-02,-5.037983879446983337e-02,-3.376453816890716553e-01,4.163712263107299805e-01,1.848583817481994629e-01,6.899597495794296265e-02,-6.029226779937744141e-01,-8.276764303445816040e-02,1.854585111141204834e-01,2.515858113765716553e-01,3.409132361412048340e-02,-7.082305103540420532e-02,6.799053400754928589e-02,-3.664831072092056274e-02,-7.462404370307922363e-01,1.023359224200248718e-01,-4.279964864253997803e-01,-1.368391960859298706e-01,-5.183061957359313965e-02,9.413219988346099854e-02,6.670779585838317871e-01,7.950752973556518555e-01,1.875007152557373047e-02,4.050205647945404053e-02,1.001319736242294312e-01,-1.191054210066795349e-01,1.105560734868049622e-02,-6.543622910976409912e-02
2.770126052200794220e-02,5.142454057931900024e-02,1.303729116916656494e-01,2.915191277861595154e-02,9.171723574399948120e-02,1.122798696160316467e-01,6.697670370340347290e-02,1.657230406999588013e-01,1.281887888908386230e-01,2.528344839811325073e-02,2.445607632398605347e-02,6.769087910652160645e-02,-1.322195958346128464e-02,1.152886897325515747e-01,2.620584145188331604e-02,-4.377289488911628723e-02,4.979758337140083313e-02,5.780400335788726807e-02,7.864213734865188599e-02,1.688150502741336823e-02,7.877703756093978882e-02,2.088876068592071533e-02,7.406219840049743652e-02,-1.274843979626893997e-02,7.485505938529968262e-02,5.205136910080909729e-02,-8.000974543392658234e-03,-1.547775745391845703e+00,-8.331988006830215454e-02,-3.116098698228597641e-03,-1.810117508284747601e-03,-2.474738843739032745e-02,3.553733229637145996e-03,-5.949606746435165405e-02,-7.927349954843521118e-02,6.723803281784057617e-02,-1.203347928822040558e-02,-2.702119573950767517e-02,-7.384879887104034424e-02,4.464650899171829224e-02,-1.330740451812744141e-01,-6.537514925003051758e-02,4.674970731139183044e-02,1.240728516131639481e-02,-2.150844223797321320e-02,-6.848783791065216064e-02,1.865532249212265015e-02,-6.257282942533493042e-02,-8.907116949558258057e-02,-7.459480315446853638e-02,-4.684097692370414734e-02,3.358539938926696777e-02,-5.366073921322822571e-02,-3.210994228720664978e-02,-7.329151034355163574e-02,2.330093085765838623e-02,-2.503035783767700195e+00,1.353767812252044678e-01,-8.307154476642608643e-02,-1.860719360411167145e-02
8.946742862462997437e-03,-2.442685700953006744e-02,1.004530489444732666e-01,1.748844981193542480e-01,4.727069661021232605e-02,9.870803356170654297e-02,8.171464502811431885e-02,-3.828461095690727234e-02,5.085431039333343506e-02,-1.153017282485961914e-01,-1.022364646196365356e-01,-1.931209117174148560e-02,-2.234490402042865753e-02,1.575966365635395050e-02,-5.278794094920158386e-02,-6.146497651934623718e-02,1.261711120605468750e-01,2.945317327976226807e-01,-1.683618426322937012e-01,5.816148594021797180e-02,-5.678061768412590027e-02,-1.072122231125831604e-01,-8.685488253831863403e-02,7.402794808149337769e-02,2.889133989810943604e-01,2.896865308284759521e-01,1.093086078763008118e-01,3.210238516330718994e-01,-1.830584853887557983e-01,-1.307515978813171387e+00,1.341980099678039551e-01,5.780672654509544373e-02,1.659108102321624756e-01,1.576686203479766846e-01,-8.014369755983352661e-02,6.071938946843147278e-02,9.766280651092529297e-02,-2.223312854766845703e-01,-5.661535859107971191e-01,-6.670848280191421509e-02,-1.995342075824737549e-01,-2.038006335496902466e-01,-7.307580858469009399e-02,4.105958621948957443e-03,2.888536453247070312e-01,1.040291786193847656e-01,1.119122840464115143e-02,3.788649290800094604e-02,-2.012286782264709473e-01,3.273020684719085693e-01,-1.297708004713058472e-01,7.299883756786584854e-03,1.075177937746047974e-01,3.457977473735809326e-01,5.767058208584785461e-02,1.157385036349296570e-01,2.225712835788726807e-01,-5.710662603378295898e-01,-2.509430885314941406e+00,4.385836049914360046e-02
4.483450669795274734e-03,-3.938562422990798950e-02,-2.196722291409969330e-02,-5.217341333627700806e-02,2.042021006345748901e-01,-1.577247977256774902e-01,5.576037243008613586e-02,3.214373886585235596e-01,2.413567155599594116e-01,-1.369763314723968506e-01,2.204315215349197388e-01,3.280270695686340332e-01,-6.437579635530710220e-03,5.219902396202087402e-01,-7.777703404426574707e-01,2.802063710987567902e-02,-2.703904211521148682e-01,4.436546936631202698e-02,1.009295284748077393e-01,4.420116543769836426e-01,1.905406564474105835e-01,9.330272674560546875e-02,1.302524209022521973e-01,-1.342943310737609863e-01,1.150449141860008240e-01,-5.299182236194610596e-02,-2.173905670642852783e-01,1.796095520257949829e-01,-1.319795101881027222e-01,-3.668084740638732910e-01,3.427816331386566162e-01,-1.556374225765466690e-02,-1.639518588781356812e-01,-1.483426839113235474e-01,-2.090884149074554443e-01,2.375502139329910278e-01,2.840330079197883606e-02,5.270808935165405273e-02,-3.641845285892486572e-01,3.552919924259185791e-01,-3.023966401815414429e-02,-2.223383188247680664e-01,7.887508869171142578e-01,-1.210315227508544922e+00,3.298601806163787842e-01,-1.561125218868255615e-01,-2.429181039333343506e-01,3.121155798435211182e-01,1.722065210342407227e-01,2.523394227027893066e-01,-7.179046422243118286e-02,2.088567428290843964e-02,-3.285559713840484619e-01,2.793609797954559326e-01,-3.243362903594970703e-01,4.085423424839973450e-02,3.805686533451080322e-01,-2.840595543384552002e-01,-5.223801732063293457e-01,-9.068752825260162354e-02
-2.385633811354637146e-02,1.490228176116943359e-01,1.589965522289276123e-01,-1.232498437166213989e-01,1.081439852714538574e-01,-3.349344432353973389e-02,-3.130667284131050110e-02,1.994320452213287354e-01,1.778007000684738159e-01,1.487135738134384155e-01,2.694096416234970093e-02,-1.737726666033267975e-02,-1.012680232524871826e-01,1.205446422100067139e-01,6.857187151908874512e-01,8.033328056335449219e-01,-4.219263792037963867e-02,-1.413621604442596436e-01,4.187326133251190186e-02,-1.703764051198959351e-01,-3.799118399620056152e-01,-1.461366415023803711e-01,-1.601619124412536621e-01,-2.648174576461315155e-02,2.144831717014312744e-01,4.131899774074554443e-02,-8.831980079412460327e-02,1.160292550921440125e-01,9.058492630720138550e-02,-5.304989218711853027e-01,-4.139063879847526550e-02,-1.979828029870986938e-01,-5.404971539974212646e-02,-5.555419996380805969e-02,9.708387404680252075e-02,-6.755473464727401733e-02,1.650330610573291779e-02,-4.404978454113006592e-02,2.045857757329940796e-01,1.546291112899780273e-01,-1.706085056066513062e-01,7.742660585790872574e-03,2.614652216434478760e-01,8.829066753387451172e-01,7.763643860816955566e-01,-9.293606132268905640e-02,-1.597523689270019531e-01,1.965000480413436890e-02,-1.930946558713912964e-01,-4.311388731002807617e-01,5.978389084339141846e-02,1.902012825012207031e-01,6.063396483659744263e-02,2.325885295867919922e-01,1.474954839795827866e-02,8.924411237239837646e-02,2.235011607408523560e-01,-4.006347060203552246e-02,-4.362730085849761963e-01,-5.368044227361679077e-02
-7.719567418098449707e-02,3.104070425033569336e-01,1.269926279783248901e-01,7.742969784885644913e-03,3.413681685924530029e-02,-1.437532808631658554e-02,3.238383233547210693e-01,1.371114701032638550e-01,2.186463447287678719e-03,1.501360833644866943e-01,2.384896203875541687e-02,1.301612555980682373e-01,3.073712587356567383e-01,6.640461739152669907e-03,2.014469122514128685e-03,-2.606898844242095947e-01,-7.241141796112060547e-01,6.605300307273864746e-01,7.660121321678161621e-01,-2.306437492370605469e-01,-1.086295247077941895e-01,-1.537524610757827759e-01,-9.725807607173919678e-02,1.901860833168029785e-01,1.697244793176651001e-01,2.561265369877219200e-03,5.044509842991828918e-02,-1.236221939325332642e-02,-8.639567345380783081e-02,5.027463287115097046e-02,-4.091661572456359863e-01,-1.668997108936309814e-01,2.988317608833312988e-02,-3.186135739088058472e-02,-7.525854557752609253e-02,-4.757215380668640137e-01,-1.621073931455612183e-01,-5.107615888118743896e-02,-1.771906912326812744e-01,-5.970733985304832458e-02,-2.156625092029571533e-01,-4.276571869850158691e-01,-1.718507707118988037e-02,2.181958593428134918e-02,2.643455862998962402e-01,8.181822299957275391e-01,-9.098837971687316895e-01,-7.261676788330078125e-01,2.182537913322448730e-01,6.213009357452392578e-02,2.220073491334915161e-01,3.656645119190216064e-02,-2.435200512409210205e-01,-2.263778597116470337e-01,2.113481983542442322e-03,-4.475169815123081207e-03,4.396519437432289124e-02,1.473928522318601608e-02,-1.184372380375862122e-01,2.862777002155780792e-02
