-6.195939183235168457e-01,2.209710031747817993e-01,1.770342439413070679e-01,2.717449702322483063e-02,-4.706897586584091187e-02,3.094954788684844971e-01,-8.150529861450195312e-01,-4.689688608050346375e-02,-1.049585789442062378e-01,8.747005462646484375e-01
-5.440774559974670410e-01,-5.946024060249328613e-01,9.246674925088882446e-02,-4.753364920616149902e-01,-8.723723292350769043e-01,-2.366192340850830078e-01,1.415158808231353760e-01,-5.560227036476135254e-01,-2.726895213127136230e-01,-9.172278642654418945e-01
-6.855136752128601074e-01,6.595241427421569824e-01,1.876195222139358521e-01,6.497421264648437500e-01,3.977557420730590820e-01,5.064491629600524902e-01,-4.611706733703613281e-01,2.946540117263793945e-01,2.293583452701568604e-01,-3.495202660560607910e-01
2.489209622144699097e-01,6.017412990331649780e-02,-6.956020593643188477e-01,4.203808605670928955e-01,-2.415439337491989136e-01,-8.139482140541076660e-02,-5.040508508682250977e-01,3.779608905315399170e-01,2.496993541717529297e-01,-5.727979540824890137e-01
-1.767824441194534302e-01,-6.152418851852416992e-01,-1.589239686727523804e-01,7.377537488937377930e-01,9.428289532661437988e-01,-6.369953975081443787e-03,4.742308855056762695e-01,-1.964911222457885742e-01,3.910022974014282227e-02,1.230483725666999817e-01
