7.747370004653930664e-02,3.012106418609619141e-01,-4.501540064811706543e-01,-3.138328790664672852e-01,4.490717649459838867e-01,5.946208238601684570e-01,5.509507656097412109e-01,-4.541555047035217285e-01,1.397950053215026855e-01,-6.309886574745178223e-01,-5.809428691864013672e-01,6.523711085319519043e-01,-3.416344523429870605e-01,-6.149386167526245117e-01,4.495039582252502441e-01,-5.610244274139404297e-01,5.121370553970336914e-01,5.565823316574096680e-01,4.493286311626434326e-01,-2.316089272499084473e-01,1.385615319013595581e-01,-1.982856094837188721e-01,3.830653131008148193e-01,-4.488978087902069092e-01,-1.311936825513839722e-01,1.677975356578826904e-01,-7.355240583419799805e-01,4.882590770721435547e-01,-8.139870762825012207e-01,-5.828471183776855469e-01,-4.857766926288604736e-01,-1.720613092184066772e-01,3.120931088924407959e-01,-7.629260420799255371e-01,-5.980224814265966415e-03,-5.808596312999725342e-02,2.666006684303283691e-01,5.250700190663337708e-02,7.925730943679809570e-01,7.918382436037063599e-02,-4.640995562076568604e-01,-7.025755047798156738e-01,6.245504617691040039e-01,6.064363121986389160e-01,-1.553143382072448730e+00,6.076428294181823730e-01,-1.164232730865478516e+00,1.721890419721603394e-01,-6.338673233985900879e-01,5.169395804405212402e-01,1.071675419807434082e+00,9.087220430374145508e-01,-1.285066008567810059e+00,-4.696166813373565674e-01,-1.082614898681640625e+00,-9.810171276330947876e-02,-7.402440160512924194e-02,-7.202288508415222168e-02,-1.184641242027282715e+00,1.558839440345764160e+00,9.750749468803405762e-01,-6.098731756210327148e-01,-1.571319341659545898e+00,1.255842924118041992e+00,-2.002904653549194336e+00,2.393863797187805176e-01,-9.623565673828125000e-01,-1.552394747734069824e+00,6.373691558837890625e-01,-1.629226505756378174e-01,1.054365992546081543e+00,-6.840371489524841309e-01,-1.782686561346054077e-01,1.098022222518920898e+00,-5.267808437347412109e-01,-5.071038007736206055e-01,-1.173377707600593567e-01,-1.560938239097595215e+00,-7.740669846534729004e-01,-3.287189900875091553e-01
-3.333398401737213135e-01,1.324633479118347168e+00,2.067376673221588135e-02,-9.029307961463928223e-02,8.345746994018554688e-02,2.422674000263214111e-01,-3.053412139415740967e-01,5.619494915008544922e-01,-2.535076998174190521e-02,1.651219278573989868e-01,-3.589421510696411133e-01,3.695233166217803955e-01,5.938091278076171875e-01,3.657053411006927490e-01,3.013027608394622803e-01,-2.115156352519989014e-01,2.962775528430938721e-01,7.988183498382568359e-01,6.583784222602844238e-01,2.815952003002166748e-01,-2.642167806625366211e-01,5.395145621150732040e-03,4.609513562172651291e-03,5.102787017822265625e-01,-1.073561608791351318e-01,3.451376855373382568e-01,1.266892105340957642e-01,-5.577318668365478516e-01,1.040506839752197266e+00,3.887180089950561523e-01,-1.631696224212646484e-01,-1.269010454416275024e-01,4.802665412425994873e-01,1.140797883272171021e-01,1.263626813888549805e-01,1.935301423072814941e-01,-8.249031305313110352e-01,-2.455254048109054565e-01,2.586899101734161377e-01,-3.069160282611846924e-01,-2.020066836848855019e-03,-6.466425657272338867e-01,-2.815670669078826904e-01,7.020683288574218750e-01,2.595598995685577393e-01,-8.614124059677124023e-01,1.277776956558227539e+00,4.656058847904205322e-01,2.351794242858886719e-01,2.549840211868286133e-01,1.028263926506042480e+00,6.952711343765258789e-01,5.260630846023559570e-01,5.349345207214355469e-01,-1.677828431129455566e-01,1.543383747339248657e-01,7.735652327537536621e-01,-3.297498226165771484e-01,-8.892396688461303711e-01,1.474646627902984619e-01,-6.852611154317855835e-02,-7.259546965360641479e-02,-2.409346997737884521e-01,3.310993015766143799e-01,2.432647645473480225e-01,2.221816452220082283e-03,1.112803146243095398e-01,-3.294159770011901855e-01,4.038878381252288818e-01,7.607312202453613281e-01,6.463824510574340820e-01,2.917370200157165527e-01,-1.942137777805328369e-01,6.845743656158447266e-01,-4.961787760257720947e-01,2.199575603008270264e-01,5.040593743324279785e-01,4.784605205059051514e-01,-3.272692859172821045e-01,1.032320261001586914e+00
5.297656655311584473e-01,-1.481371819972991943e-01,8.336705565452575684e-01,-4.317434728145599365e-01,-1.401285648345947266e+00,2.680287659168243408e-01,-1.798675209283828735e-01,1.213081181049346924e-01,5.298019200563430786e-02,-1.886739432811737061e-01,6.126091480255126953e-01,1.439176499843597412e-01,6.386169791221618652e-01,4.142983853816986084e-01,-6.254471540451049805e-01,5.537928938865661621e-01,-2.002362489700317383e+00,-5.860320925712585449e-01,1.764905303716659546e-01,-2.366362959146499634e-01,-9.618324041366577148e-01,7.239792346954345703e-01,3.018786609172821045e-01,2.248871624469757080e-01,-9.688140749931335449e-01,1.571568399667739868e-01,7.512616366147994995e-02,-9.417566061019897461e-01,-1.983349770307540894e-01,-1.243018433451652527e-01,-1.556960582733154297e+00,6.520075201988220215e-01,1.655422598123550415e-01,-4.268649220466613770e-01,2.053830921649932861e-01,-1.137244820594787598e+00,8.006638288497924805e-01,6.855602264404296875e-01,-6.216797232627868652e-01,-7.828943729400634766e-01,-1.043051242828369141e+00,2.137914299964904785e-01,3.206676542758941650e-01,1.798196732997894287e-01,-9.471879005432128906e-01,3.966536819934844971e-01,8.756357431411743164e-01,8.719226717948913574e-02,1.087860241532325745e-01,2.637731283903121948e-02,8.881484158337116241e-03,-1.074421048164367676e+00,-1.578196696937084198e-02,1.016734719276428223e+00,-4.232679009437561035e-01,-1.092975139617919922e+00,-7.654631137847900391e-01,-6.312822699546813965e-01,-4.665590226650238037e-01,4.227144420146942139e-01,-4.940170645713806152e-01,-1.283124089241027832e-01,-1.277342438697814941e-01,-2.646141313016414642e-02,-7.700129151344299316e-01,-5.243830755352973938e-02,6.298751384019851685e-02,-2.898323237895965576e-01,-2.224160671234130859e+00,-3.764582574367523193e-01,-1.690165400505065918e+00,-1.174969553947448730e+00,-5.346522331237792969e-01,-5.060276985168457031e-01,-1.859398782253265381e-01,-5.823881179094314575e-02,8.299538493156433105e-02,-9.306741356849670410e-01,-1.588299870491027832e-01,-4.451630413532257080e-01
-4.003704190254211426e-01,2.255426645278930664e-01,5.495762228965759277e-01,4.153454005718231201e-01,-2.432171553373336792e-01,-9.501148760318756104e-02,-2.665637135505676270e-01,3.845952451229095459e-01,-2.658603191375732422e-01,-8.101020753383636475e-02,5.593148469924926758e-01,1.473276466131210327e-01,4.701313078403472900e-01,4.661432206630706787e-01,-3.982293009757995605e-01,5.354430675506591797e-01,-2.178115397691726685e-01,-4.470112323760986328e-01,-3.729521930217742920e-01,4.142235815525054932e-01,-6.540607661008834839e-02,-3.621253967285156250e-01,-3.367072343826293945e-01,6.534076333045959473e-01,-3.152231574058532715e-01,2.130035907030105591e-01,-2.098941802978515625e-01,-3.569966256618499756e-01,5.089713931083679199e-01,2.996035814285278320e-01,4.451113939285278320e-01,-2.948410511016845703e-01,4.700752794742584229e-01,4.824226200580596924e-01,-1.662000417709350586e-01,-9.067055583000183105e-02,4.903303384780883789e-01,-3.517154753208160400e-01,-2.190564572811126709e-01,-2.981853485107421875e-01,2.270246982574462891e+00,-3.081115782260894775e-01,-3.263041257858276367e+00,-4.487974166870117188e+00,2.029520034790039062e+00,6.763778924942016602e-01,2.319128751754760742e+00,-2.733135461807250977e+00,1.621248006820678711e+00,8.771295100450515747e-02,-4.000417232513427734e+00,-3.929029703140258789e-01,-3.311341762542724609e+00,-2.736552000045776367e+00,2.903632402420043945e+00,-3.257653713226318359e+00,2.019130468368530273e+00,1.806886792182922363e+00,2.651010036468505859e+00,-3.627522230148315430e+00,2.966209053993225098e-01,2.441334486007690430e+00,3.131073236465454102e+00,-3.181307554244995117e+00,2.212208509445190430e+00,5.894327908754348755e-02,1.544501781463623047e+00,1.654253125190734863e+00,-3.407065868377685547e+00,-2.256217241287231445e+00,-2.220213651657104492e+00,2.156347274780273438e+00,-2.786028146743774414e+00,-2.368776559829711914e+00,1.464122414588928223e+00,2.257758140563964844e+00,-2.732815980911254883e+00,1.799155235290527344e+00,1.134344458580017090e+00,2.551087141036987305e+00
3.616346418857574463e-02,6.594895720481872559e-01,-4.658391326665878296e-02,-5.615572333335876465e-01,1.555976271629333496e-01,4.761338829994201660e-01,7.735019177198410034e-02,-1.181186735630035400e-01,6.575664877891540527e-02,-3.061676621437072754e-01,-4.328362941741943359e-01,4.587171971797943115e-01,1.919544190168380737e-01,-1.609925776720046997e-01,9.393596090376377106e-03,6.676789373159408569e-02,5.991266369819641113e-01,3.359315991401672363e-01,1.283876299858093262e-01,-1.776983290910720825e-01,-3.806407749652862549e-02,1.301030963659286499e-01,5.680312216281890869e-02,-4.163089394569396973e-02,3.911786153912544250e-02,2.641379535198211670e-01,-8.128552138805389404e-02,6.198847666382789612e-02,-6.428837031126022339e-02,1.744238734245300293e-01,3.543995022773742676e-01,4.681397080421447754e-01,2.164714932441711426e-01,-3.014766275882720947e-01,4.026343226432800293e-01,9.157963097095489502e-02,-5.169261693954467773e-01,-6.433648616075515747e-02,5.565345287322998047e-01,1.996881142258644104e-02,-7.624156028032302856e-02,-2.941105365753173828e-01,1.207670331001281738e+00,-5.174149274826049805e-01,8.250449784100055695e-03,2.921487092971801758e-01,-6.435046792030334473e-01,-2.988378703594207764e-02,6.847921609878540039e-01,7.090766727924346924e-02,-1.106096625328063965e+00,-9.026149511337280273e-01,-1.186226844787597656e+00,-3.575586974620819092e-01,1.977440714836120605e-02,-2.800417244434356689e-01,-5.018896460533142090e-01,-1.974850594997406006e-01,5.203124284744262695e-01,-2.746839821338653564e-01,4.894265159964561462e-02,2.950484156608581543e-01,-3.191438913345336914e-01,-4.306055903434753418e-01,-5.608726292848587036e-02,-7.933841943740844727e-01,6.297433972358703613e-01,1.003098845481872559e+00,1.072467684745788574e+00,-3.396535515785217285e-01,7.273273542523384094e-03,-6.660815561190247536e-04,-3.504227995872497559e-01,-1.959009170532226562e-01,-3.083994686603546143e-01,-1.642753630876541138e-01,-3.163473904132843018e-01,-9.359045028686523438e-01,3.509411513805389404e-01,2.788566350936889648e-01
-2.479732483625411987e-01,1.335421651601791382e-01,-2.277126014232635498e-01,3.180208504199981689e-01,4.408395290374755859e-02,5.558385848999023438e-01,4.571143090724945068e-01,-3.210303783416748047e-01,2.924927473068237305e-01,-2.828961238265037537e-02,-6.612054258584976196e-02,3.749313652515411377e-01,-1.188445985317230225e-01,-4.996223840862512589e-03,5.738862752914428711e-01,-1.693573892116546631e-01,5.510096251964569092e-02,-1.463850401341915131e-02,2.413993179798126221e-01,-1.523105055093765259e-02,1.632631272077560425e-01,1.674306094646453857e-01,2.644577622413635254e-01,-2.219033837318420410e-01,2.612989544868469238e-01,4.197970628738403320e-01,1.653722077608108521e-01,-1.935701444745063782e-02,-1.551013141870498657e-01,-2.320381999015808105e-01,2.661487758159637451e-01,2.271589189767837524e-01,-2.635826170444488525e-01,-1.626146733760833740e-01,2.313562333583831787e-01,3.136565983295440674e-01,-2.121630758047103882e-01,-1.410151571035385132e-01,-9.666757658123970032e-03,-6.676274538040161133e-02,7.692829370498657227e-01,-1.041190385818481445e+00,-4.696748554706573486e-01,-4.075402259826660156e+00,-7.650765776634216309e-01,1.073911786079406738e-01,-1.034758210182189941e+00,-1.212600946426391602e+00,-1.540643215179443359e+00,-1.361498594284057617e+00,-8.570844531059265137e-01,-1.153741955757141113e+00,-8.406100273132324219e-01,-2.316501140594482422e+00,-1.372722864151000977e+00,-1.525824069976806641e+00,-5.377924442291259766e-01,-2.018633037805557251e-01,-1.086109399795532227e+00,-1.144674301147460938e+00,1.002050936222076416e-01,-6.491494774818420410e-01,-3.808694183826446533e-01,-4.793257713317871094e-01,-1.273737668991088867e+00,-9.162769466638565063e-02,-1.857483744621276855e+00,-8.089929223060607910e-01,-1.074706435203552246e+00,-2.505796253681182861e-01,-4.322452843189239502e-01,-1.013278365135192871e+00,3.114463090896606445e-01,-1.468583583831787109e+00,-2.820506989955902100e-01,5.492000579833984375e-01,-8.350752592086791992e-01,-7.169749587774276733e-02,7.082734107971191406e-01,2.595456540584564209e-01
8.194214105606079102e-01,3.993526995182037354e-01,-7.124783992767333984e-01,-6.577294468879699707e-01,6.127187609672546387e-01,3.443308472633361816e-01,6.054695844650268555e-01,-7.502110600471496582e-01,-2.249780297279357910e-01,-2.937032878398895264e-01,-3.693023622035980225e-01,5.944921374320983887e-01,-2.448644787073135376e-01,-4.828438162803649902e-02,3.080811202526092529e-01,-3.759802281856536865e-01,-1.054840628057718277e-02,-1.286640018224716187e-01,5.095700621604919434e-01,-9.180175065994262695e-01,-6.737292557954788208e-02,3.961386382579803467e-01,7.453400641679763794e-02,-5.130410790443420410e-01,4.790910482406616211e-01,-2.152918279170989990e-01,-2.121211029589176178e-02,1.365182846784591675e-01,-7.183994650840759277e-01,-2.184062153100967407e-01,-4.494573175907135010e-01,1.735444068908691406e-01,-4.506335854530334473e-01,-2.580174505710601807e-01,-2.760003507137298584e-01,5.008627772331237793e-01,-6.716287732124328613e-01,-4.158039391040802002e-02,1.980347335338592529e-01,2.203518450260162354e-01,1.750979870557785034e-01,-4.717229604721069336e-01,3.075736016035079956e-02,-8.726668953895568848e-01,7.278373241424560547e-01,-1.492055356502532959e-01,-5.477176308631896973e-01,-7.811689376831054688e-01,5.046449899673461914e-01,-1.785466670989990234e-01,-7.298457026481628418e-01,4.159621298313140869e-01,2.440003305673599243e-01,-8.482040166854858398e-01,1.888705641031265259e-01,-9.376065135002136230e-01,9.940926432609558105e-01,1.137720942497253418e+00,2.842809855937957764e-01,-2.656269669532775879e-01,1.099198907613754272e-01,7.898035049438476562e-01,-7.557828724384307861e-02,-8.836277723312377930e-01,3.585602045059204102e-01,1.116124838590621948e-01,-9.341133832931518555e-01,-9.499247372150421143e-02,-4.692161679267883301e-01,-6.030485630035400391e-01,1.247449368238449097e-01,7.082127332687377930e-01,-3.550214171409606934e-01,-1.208961084485054016e-01,2.244250327348709106e-01,2.558767199516296387e-01,-3.372179865837097168e-01,1.120563268661499023e+00,4.917074739933013916e-01,1.902669787406921387e+00
-3.853274285793304443e-01,3.081412315368652344e-01,-2.290259897708892822e-01,2.356811314821243286e-01,4.977137967944145203e-02,2.643175125122070312e-01,2.641181051731109619e-01,1.070377305150032043e-01,-6.356488913297653198e-02,2.916328608989715576e-01,1.792974621057510376e-01,4.624584019184112549e-01,1.634531468152999878e-01,5.606517195701599121e-02,1.369909644126892090e-01,1.147846579551696777e-01,-1.576616466045379639e-01,-9.094550460577011108e-02,1.155911833047866821e-01,2.095411717891693115e-01,2.530264668166637421e-03,-1.449251621961593628e-01,-1.035875901579856873e-01,3.968953490257263184e-01,3.143889904022216797e-01,1.090369895100593567e-01,5.149130150675773621e-02,1.068270206451416016e-01,3.553503155708312988e-01,-1.479590386152267456e-01,2.355062812566757202e-01,-8.462994359433650970e-03,2.369057387113571167e-02,2.367486506700515747e-01,-7.245288789272308350e-02,-4.280362278223037720e-02,-1.050587147474288940e-01,-2.171370685100555420e-01,-2.758281826972961426e-01,-2.598366141319274902e-01,1.529598832130432129e+00,7.097234129905700684e-01,-1.628512978553771973e+00,-1.834352612495422363e+00,1.948631048202514648e+00,1.335903167724609375e+00,1.459758758544921875e+00,-2.516660213470458984e+00,1.771543860435485840e+00,-2.099190801382064819e-01,-1.862076401710510254e+00,-3.098052442073822021e-01,-8.767902851104736328e-01,-1.126832842826843262e+00,1.482916951179504395e+00,-2.310066461563110352e+00,1.629181981086730957e+00,1.000579237937927246e+00,9.720205068588256836e-01,-1.381821155548095703e+00,1.327537775039672852e+00,1.507192254066467285e+00,1.176080703735351562e+00,-1.913638591766357422e+00,2.063199758529663086e+00,5.858317613601684570e-01,3.861699402332305908e-01,1.281179189682006836e+00,-9.714742302894592285e-01,-8.269476294517517090e-01,-6.511720418930053711e-01,1.399839162826538086e+00,-2.426921129226684570e+00,-2.319105386734008789e+00,1.466075062751770020e+00,-2.721883058547973633e-01,-9.692414999008178711e-01,7.157768011093139648e-01,8.619937896728515625e-01,6.825101375579833984e-01
7.240664213895797729e-02,-1.312106549739837646e-01,4.770865142345428467e-01,2.669062018394470215e-01,-2.376605123281478882e-01,3.733933269977569580e-01,-1.961643248796463013e-01,7.806953787803649902e-01,-2.141947150230407715e-01,-1.279465556144714355e-01,5.355591773986816406e-01,2.155597060918807983e-01,3.763163387775421143e-01,5.315445065498352051e-01,-3.723324537277221680e-01,6.832043528556823730e-01,-2.535579204559326172e-01,-1.841336786746978760e-01,-4.999208822846412659e-02,6.675967574119567871e-01,-2.498114407062530518e-01,-1.605908125638961792e-01,-2.521912157535552979e-01,6.547148227691650391e-01,-1.175392493605613708e-01,-1.175575256347656250e-01,2.325263246893882751e-02,9.499250352382659912e-02,5.529323816299438477e-01,3.682393133640289307e-01,1.773727983236312866e-01,-1.074906662106513977e-01,6.476649045944213867e-01,4.895795583724975586e-01,-2.173063308000564575e-01,-3.617375791072845459e-01,3.218634724617004395e-01,-1.348158419132232666e-01,-5.525855813175439835e-03,-2.388972193002700806e-01,4.341570138931274414e-01,-4.441833794116973877e-01,-1.239787101745605469e+00,-7.033537030220031738e-01,1.429511070251464844e+00,-2.113605439662933350e-01,1.794687032699584961e+00,-1.923059940338134766e+00,4.642734229564666748e-01,8.939952254295349121e-01,-1.350891947746276855e+00,-1.217491477727890015e-01,-6.688788533210754395e-01,-1.688255906105041504e+00,3.099833965301513672e+00,-2.275782585144042969e+00,1.270422220230102539e+00,1.207274794578552246e+00,1.044007658958435059e+00,-2.105373382568359375e+00,1.537528157234191895e+00,9.055777192115783691e-01,1.090026140213012695e+00,-1.925786972045898438e+00,2.236700534820556641e+00,-5.316924676299095154e-02,5.321185588836669922e-01,8.983017206192016602e-01,-1.042294621467590332e+00,-2.329737901687622070e+00,-6.280970573425292969e-01,1.068064332008361816e+00,-2.090764760971069336e+00,-1.601644754409790039e+00,1.331042885780334473e+00,1.749716520309448242e+00,-4.934292137622833252e-01,2.693107426166534424e-01,1.996262818574905396e-01,9.422375559806823730e-01
7.375634908676147461e-01,-2.832844555377960205e-01,-3.139704465866088867e-03,-2.120311111211776733e-01,4.194271266460418701e-01,-2.707681655883789062e-01,2.539159059524536133e-01,5.158060789108276367e-01,1.029056869447231293e-02,-8.165335655212402344e-01,4.917688071727752686e-01,-5.754707455635070801e-01,2.667650282382965088e-01,-5.344838500022888184e-01,6.326484680175781250e-01,-4.448427259922027588e-01,-6.581718921661376953e-01,-1.190372943878173828e+00,5.729119777679443359e-01,1.884191036224365234e-01,-2.362612932920455933e-01,-5.982010364532470703e-01,9.614197611808776855e-01,-3.049739897251129150e-01,2.289297431707382202e-01,1.188482642173767090e-01,-6.547428369522094727e-01,-3.395669758319854736e-01,4.626839980483055115e-02,-2.237317264080047607e-01,-7.922208905220031738e-01,1.036154180765151978e-01,-1.215781211853027344e+00,3.360047340393066406e-01,2.116738855838775635e-01,6.535547375679016113e-01,9.281980395317077637e-01,6.397354602813720703e-01,3.838706761598587036e-02,-7.928571105003356934e-01,-8.066433668136596680e-02,9.535748511552810669e-02,-3.723801299929618835e-02,5.550948381423950195e-01,-8.810297586023807526e-03,3.320455849170684814e-01,-6.702522635459899902e-01,3.812232054769992828e-03,-6.557309031486511230e-01,-6.071622297167778015e-02,-6.612608432769775391e-01,-6.598432064056396484e-01,1.282590329647064209e-01,-1.120957508683204651e-01,2.606159150600433350e-01,-8.611183762550354004e-01,-1.250187903642654419e-01,4.114290475845336914e-01,-1.300501346588134766e+00,-2.916833385825157166e-03,5.516926646232604980e-01,6.703233122825622559e-01,-1.339424401521682739e-01,-1.987101912498474121e+00,-1.728761315345764160e+00,-2.750732302665710449e-01,7.802102565765380859e-01,2.929494082927703857e-01,-1.191694855690002441e+00,-3.440312147140502930e-01,-4.416007548570632935e-02,2.630141079425811768e-01,1.135121703147888184e+00,-9.540457129478454590e-01,-1.038738250732421875e+00,-4.881758987903594971e-02,-2.568217515945434570e-01,-2.221678197383880615e-01,-1.242324352264404297e+00,3.106758892536163330e-01
1.286524236202239990e-01,-9.748280979692935944e-03,3.482642173767089844e-01,-1.140573062002658844e-02,1.546525359153747559e-01,3.322806656360626221e-01,4.748024940490722656e-01,-4.487582296133041382e-02,-1.631298363208770752e-01,3.195046782493591309e-01,2.783610522747039795e-01,-1.187643595039844513e-02,3.939789831638336182e-01,4.543661773204803467e-01,-8.999934196472167969e-01,9.206625074148178101e-02,-2.220588475465774536e-01,2.323420941829681396e-01,-3.638412654399871826e-01,3.155957758426666260e-01,-1.872683688998222351e-02,-6.445134878158569336e-01,-3.810827434062957764e-01,6.121211051940917969e-01,4.547198116779327393e-01,6.718160510063171387e-01,4.689190089702606201e-01,2.209909819066524506e-02,5.766137838363647461e-01,-5.226427912712097168e-01,5.152385234832763672e-01,-6.133236885070800781e-01,-6.816950440406799316e-02,3.968509733676910400e-01,-3.743878304958343506e-01,1.041654199361801147e-01,2.133758813142776489e-01,1.027668118476867676e-01,-3.176356256008148193e-01,-7.273407578468322754e-01,-3.804037868976593018e-01,-3.400526568293571472e-02,-1.644322127103805542e-01,-1.195775046944618225e-01,9.582198858261108398e-01,-5.269793868064880371e-01,4.945730268955230713e-01,5.503921210765838623e-02,5.144937038421630859e-01,7.874667048454284668e-01,-1.873998939990997314e-01,9.658400416374206543e-01,2.254261970520019531e-01,3.380306661128997803e-01,-5.937724113464355469e-01,4.814593791961669922e-01,2.081082314252853394e-01,6.279242634773254395e-01,-3.077182732522487640e-02,2.448817789554595947e-01,1.075619459152221680e+00,6.616666316986083984e-01,9.675325751304626465e-01,-1.566427797079086304e-01,2.173417091369628906e+00,7.446027360856533051e-03,-3.639976307749748230e-02,1.806194037199020386e-01,4.244280755519866943e-01,-8.884339928627014160e-01,-1.005923151969909668e+00,1.086319446563720703e+00,-1.714207231998443604e-01,-2.740709781646728516e-01,7.157138586044311523e-01,8.072234988212585449e-01,-9.676382541656494141e-01,2.666126489639282227e-01,-7.380104064941406250e-02,4.598267674446105957e-01
4.629781246185302734e-01,2.069481760263442993e-01,-3.116807639598846436e-01,-5.612515807151794434e-01,2.445088922977447510e-01,-2.077318131923675537e-01,5.727329254150390625e-01,-7.674502730369567871e-01,5.239837169647216797e-01,1.940830349922180176e-01,-4.467654228210449219e-01,6.961527466773986816e-01,-1.498206108808517456e-01,-4.448497593402862549e-01,-6.910609081387519836e-04,-7.137601375579833984e-01,2.115179598331451416e-01,8.558233380317687988e-01,1.566337347030639648e-01,-6.999924182891845703e-01,2.550764568150043488e-02,4.447380602359771729e-01,2.954567968845367432e-01,-3.182264864444732666e-01,2.078243643045425415e-01,-3.364254161715507507e-02,-7.148531824350357056e-02,-3.085704147815704346e-01,-7.989507913589477539e-02,1.756623983383178711e-01,-4.795861542224884033e-01,2.774141356348991394e-02,-5.345675945281982422e-01,-1.472930312156677246e-01,-1.401708722114562988e-01,7.605533003807067871e-01,-8.388217687606811523e-01,3.154540359973907471e-01,2.704963088035583496e-01,1.937184780836105347e-01,3.004977703094482422e-01,6.619449853897094727e-01,-3.897340893745422363e-01,-6.759914159774780273e-01,5.281721949577331543e-01,4.171986877918243408e-01,-6.109266877174377441e-01,-3.768266439437866211e-01,8.630809783935546875e-01,-2.123891375958919525e-02,-1.544104516506195068e-01,-1.109181523323059082e+00,-6.179074645042419434e-01,4.977210760116577148e-01,8.832578659057617188e-01,1.991427391767501831e-01,-7.986982166767120361e-02,-1.021132916212081909e-01,3.059936761856079102e-01,7.480229251086711884e-03,6.079165339469909668e-01,-1.951689124107360840e-01,-3.186385929584503174e-01,3.858889937400817871e-01,-2.050095945596694946e-01,1.075683593750000000e+00,-2.989728450775146484e-01,1.006957054138183594e+00,-3.559412360191345215e-01,-3.233260810375213623e-01,-9.387358278036117554e-02,4.937344193458557129e-01,8.285254836082458496e-01,-1.479186117649078369e-01,2.500194013118743896e-01,-2.985301613807678223e-01,-7.284587621688842773e-01,2.135646492242813110e-01,-1.933979243040084839e-01,-5.182986706495285034e-02
1.155528306961059570e+00,2.289971858263015747e-01,-7.948487401008605957e-01,-7.974909543991088867e-01,6.283905506134033203e-01,-6.712769865989685059e-01,-4.777540862560272217e-01,-1.373367071151733398e+00,2.716028988361358643e-01,-1.096760153770446777e+00,1.572568416595458984e-01,9.041442871093750000e-01,-4.709047675132751465e-01,-1.753074675798416138e-01,-1.416088193655014038e-01,3.814596831798553467e-01,8.178893923759460449e-01,-1.403956413269042969e+00,-6.567493081092834473e-01,-9.224031120538711548e-02,9.808908700942993164e-01,1.493489980697631836e+00,4.594494104385375977e-01,-5.317288637161254883e-01,8.209852576255798340e-01,-5.112025737762451172e-01,-1.196877807378768921e-01,6.496456265449523926e-01,-6.001451015472412109e-01,6.058875322341918945e-01,-1.742618232965469360e-01,9.439958333969116211e-01,-5.121222734451293945e-01,3.836112618446350098e-01,1.648501120507717133e-02,-3.481550514698028564e-01,2.203832417726516724e-01,-6.257984638214111328e-01,3.291759192943572998e-01,-1.689145863056182861e-01,3.842321336269378662e-01,-9.057546257972717285e-01,-9.393327236175537109e-01,-1.257936835289001465e+00,-6.087243556976318359e-02,1.013958901166915894e-01,2.739085629582405090e-02,-1.683562040328979492e+00,7.097171545028686523e-01,3.331850171089172363e-01,-5.763483047485351562e-01,-9.949731826782226562e-02,-1.679639220237731934e-01,4.125129282474517822e-01,1.523682117462158203e+00,1.758112944662570953e-02,4.750710427761077881e-01,-8.383260965347290039e-01,1.748341470956802368e-01,3.148820400238037109e-01,4.566014707088470459e-01,-1.808666288852691650e-01,8.239485025405883789e-01,5.329889655113220215e-01,2.864252328872680664e-01,4.368479251861572266e-01,3.596779704093933105e-01,-7.419116795063018799e-02,-2.476481944322586060e-01,8.226796388626098633e-01,5.588912367820739746e-01,2.006389200687408447e-03,-2.394107431173324585e-01,-1.825971454381942749e-01,-1.424813508987426758e+00,-8.714883923530578613e-01,9.887591600418090820e-01,-2.473624609410762787e-02,5.390375852584838867e-01,8.961135149002075195e-01
8.903046697378158569e-02,3.097533285617828369e-01,-5.638945698738098145e-01,-4.274194538593292236e-01,-6.235353350639343262e-01,-4.055772721767425537e-01,-3.784894943237304688e-01,-6.307582557201385498e-02,-5.983012542128562927e-02,4.645567387342453003e-02,6.282792687416076660e-01,-3.679592534899711609e-02,-5.100466609001159668e-01,-8.321429789066314697e-02,4.254627525806427002e-01,-4.554551541805267334e-01,-7.913916110992431641e-01,-6.916969418525695801e-01,-2.771035730838775635e-01,7.369354963302612305e-01,4.048973023891448975e-01,4.712181091308593750e-01,7.815422117710113525e-02,1.046678066253662109e+00,-1.635567396879196167e-01,-4.728271067142486572e-01,-5.906912311911582947e-02,-5.147963762283325195e-01,-6.330097317695617676e-01,8.436809778213500977e-01,1.426082011312246323e-02,1.031103014945983887e+00,7.108426094055175781e-01,8.195743560791015625e-01,6.122752428054809570e-01,-5.653095245361328125e-01,-2.471170276403427124e-01,3.348290324211120605e-01,1.036597728729248047e+00,3.603014945983886719e-01,-3.191380202770233154e-01,-9.958683848381042480e-01,3.106737136840820312e-02,4.055531024932861328e-01,-6.029453873634338379e-01,-1.451911777257919312e-02,-1.338634252548217773e+00,-7.793313860893249512e-01,-7.461190819740295410e-01,-1.960547208786010742e+00,1.434819102287292480e-01,-1.002300143241882324e+00,-1.248029947280883789e+00,-3.399536311626434326e-01,2.321080863475799561e-01,-7.133821249008178711e-01,-9.805719554424285889e-02,-5.144760012626647949e-01,-2.586443424224853516e-01,7.679464668035507202e-02,3.155606091022491455e-01,3.242886364459991455e-01,-1.861988455057144165e-01,-5.324080586433410645e-01,5.364480614662170410e-01,-7.945227026939392090e-01,-7.781103253364562988e-01,-6.488063931465148926e-02,7.691739201545715332e-01,-5.157176256179809570e-01,4.999899566173553467e-01,-2.203087694942951202e-02,-1.289196372032165527e+00,-8.045715689659118652e-01,-6.277609467506408691e-01,-1.086514472961425781e+00,-3.480804711580276489e-02,-1.322057992219924927e-01,-4.966995418071746826e-01,3.474110960960388184e-01
6.614226102828979492e-01,9.813882410526275635e-02,-4.315342009067535400e-01,-7.627006154507398605e-03,1.294250935316085815e-01,-5.383777022361755371e-01,2.132285684347152710e-01,-4.171802103519439697e-01,-2.459291666746139526e-01,3.696257770061492920e-01,-2.822186984121799469e-02,6.346582770347595215e-01,8.644793629646301270e-01,9.205034971237182617e-01,-1.175233274698257446e-01,3.405269980430603027e-02,3.844028711318969727e-01,4.677939713001251221e-01,-5.198469758033752441e-01,-4.696253836154937744e-01,5.836939215660095215e-01,-4.042239487171173096e-02,-2.246161699295043945e-01,3.521772623062133789e-01,-8.972413539886474609e-01,-3.890173733234405518e-01,-1.204382851719856262e-01,-3.429814577102661133e-01,1.607025265693664551e-01,-8.223026394844055176e-01,1.855813264846801758e-01,5.681648850440979004e-01,-4.315429925918579102e-01,5.091070532798767090e-01,2.753306739032268524e-02,1.413216441869735718e-01,1.694436371326446533e-01,-8.994585275650024414e-02,4.205375537276268005e-02,2.697281539440155029e-01,-9.805139899253845215e-01,-4.292632918804883957e-03,5.942614674568176270e-01,4.563299417495727539e-01,-6.152970790863037109e-01,4.813869297504425049e-01,-1.051045298576354980e+00,3.243272602558135986e-01,-9.610663056373596191e-01,-9.216614961624145508e-01,9.296167492866516113e-01,-3.885648250579833984e-01,4.937458634376525879e-01,2.062401026487350464e-01,-9.120634794235229492e-01,1.580753087997436523e+00,-1.565164208412170410e+00,1.501874029636383057e-01,3.363365530967712402e-01,2.747014760971069336e-01,-2.932362258434295654e-01,-1.539423614740371704e-01,-7.981725335121154785e-01,3.859844207763671875e-01,-3.571328520774841309e-01,-8.666080236434936523e-01,1.689283102750778198e-01,1.613212227821350098e-01,-2.304387241601943970e-01,6.263760328292846680e-01,8.173003792762756348e-01,-3.258338570594787598e-02,1.024145483970642090e+00,2.527281045913696289e-01,-1.636578321456909180e+00,8.229218423366546631e-02,2.888218462467193604e-01,3.253449499607086182e-01,-9.711156040430068970e-02,-7.594234943389892578e-01
2.806825637817382812e-01,7.676583528518676758e-01,4.333585798740386963e-01,-5.731665492057800293e-01,2.134557440876960754e-02,6.400048732757568359e-01,3.531191647052764893e-01,3.978934884071350098e-01,1.415359377861022949e-01,-3.400878980755805969e-02,2.923636734485626221e-01,-5.840556025505065918e-01,-4.556694626808166504e-01,-6.133812069892883301e-01,4.059860408306121826e-01,-3.181024789810180664e-01,4.681294038891792297e-02,-1.677889078855514526e-01,-4.651989638805389404e-01,1.103015661239624023e+00,-5.189130902290344238e-01,-3.834835886955261230e-01,-1.008466109633445740e-01,8.057893514633178711e-01,3.403517603874206543e-01,-8.846185803413391113e-01,2.603600025177001953e-01,-2.466896176338195801e-01,-3.028280138969421387e-01,3.949449062347412109e-01,-1.009405493736267090e+00,-6.377384662628173828e-01,1.373672187328338623e-01,1.555935144424438477e-01,4.938861131668090820e-01,-7.029618024826049805e-01,-1.335442513227462769e-01,-6.721501350402832031e-01,-5.553365945816040039e-01,1.087627634406089783e-01,4.875582754611968994e-01,3.215058147907257080e-01,4.838137328624725342e-01,-4.638182520866394043e-01,-9.443550556898117065e-02,5.327332019805908203e-01,-1.173198148608207703e-01,-4.732227623462677002e-01,-7.262669801712036133e-01,-3.588450253009796143e-01,-5.346316099166870117e-01,-2.699895799160003662e-01,1.370326131582260132e-01,-7.921981066465377808e-02,1.269964426755905151e-01,2.899658977985382080e-01,8.632381558418273926e-01,1.649596452713012695e+00,-2.798511832952499390e-02,3.166525391861796379e-03,1.338202357292175293e-01,2.921159863471984863e-01,-1.279195547103881836e-01,-7.046564817428588867e-01,3.488132357597351074e-01,1.763404607772827148e-01,5.870071649551391602e-01,7.025893926620483398e-01,9.071227908134460449e-02,-3.585833609104156494e-01,-5.974879264831542969e-01,2.134380936622619629e-01,7.840218394994735718e-02,-6.650903224945068359e-01,1.172789096832275391e+00,8.253840357065200806e-02,-5.530539751052856445e-01,-1.780134737491607666e-01,4.092164635658264160e-01,1.782145053148269653e-01
-6.999931931495666504e-01,-1.351342797279357910e-01,-6.863787025213241577e-02,-2.782035768032073975e-01,-1.523338258266448975e-02,6.114362552762031555e-02,4.781083166599273682e-01,-8.072207123041152954e-02,2.062630951404571533e-01,1.797557622194290161e-01,-5.522156357765197754e-01,2.788024842739105225e-01,1.111195206642150879e+00,4.107162058353424072e-01,2.751555740833282471e-01,-6.393024325370788574e-01,3.363135755062103271e-01,-2.503786385059356689e-01,2.197213917970657349e-01,-6.432046294212341309e-01,-8.758787810802459717e-02,-4.375250637531280518e-01,2.636943459510803223e-01,3.115830197930335999e-02,-7.943530380725860596e-02,5.121454969048500061e-02,8.716311305761337280e-02,-1.379770636558532715e-01,9.562088847160339355e-01,1.872496306896209717e-01,-7.159134745597839355e-01,7.198672294616699219e-01,-3.019996285438537598e-01,3.134067952632904053e-01,-2.302969545125961304e-01,-2.590479850769042969e-01,1.078938126564025879e+00,4.197585284709930420e-01,-7.801209688186645508e-01,4.973507020622491837e-03,-3.348164856433868408e-01,-6.005774810910224915e-02,1.659016013145446777e+00,-1.021149396896362305e+00,1.062167167663574219e+00,3.124904632568359375e-01,1.093416363000869751e-01,-2.925283312797546387e-01,9.592375755310058594e-01,-1.307063579559326172e+00,-6.342119574546813965e-01,-1.684702396392822266e+00,-7.274413853883743286e-02,-5.071209669113159180e-01,2.117283821105957031e+00,-2.493073046207427979e-01,5.048500895500183105e-01,-1.100016385316848755e-01,9.482306241989135742e-01,-1.413318216800689697e-01,-3.439058959484100342e-01,-8.998534679412841797e-01,1.308072924613952637e+00,-1.260599374771118164e+00,-2.421352565288543701e-01,-1.945667564868927002e-01,-7.508334517478942871e-01,6.256524920463562012e-01,-1.095631793141365051e-01,-4.131982028484344482e-01,-1.041399955749511719e+00,3.220459222793579102e-01,-2.701896131038665771e-01,-2.112685739994049072e-01,8.351213932037353516e-01,-2.598571479320526123e-01,9.912054985761642456e-02,3.240780234336853027e-01,-9.366672635078430176e-01,3.951663374900817871e-01
-4.772084951400756836e-02,5.861898064613342285e-01,-1.475552618503570557e-01,-6.469656229019165039e-01,5.091117024421691895e-01,3.364722728729248047e-01,-2.696917653083801270e-01,-4.537981748580932617e-01,1.845939606428146362e-01,-1.907933801412582397e-01,-2.890210151672363281e-01,-3.370105326175689697e-01,-1.348190456628799438e-01,-1.916784793138504028e-01,3.231771290302276611e-01,-8.344076573848724365e-02,-1.387029624311253428e-04,8.823580294847488403e-02,4.297074675559997559e-01,-6.071122288703918457e-01,5.933227539062500000e-01,5.620876550674438477e-01,5.884658694267272949e-01,2.184083871543407440e-02,6.639029383659362793e-01,8.861778378486633301e-01,5.056251883506774902e-01,2.018442600965499878e-01,9.998338669538497925e-02,-4.925338029861450195e-01,-4.235292226076126099e-02,4.215293526649475098e-01,-2.883402705192565918e-01,3.804058209061622620e-02,3.554465770721435547e-01,2.834830284118652344e-01,-7.253899425268173218e-02,1.891158968210220337e-01,7.492031902074813843e-02,4.880224168300628662e-01,-2.298645079135894775e-01,1.927966922521591187e-01,1.072737812995910645e+00,-7.029668092727661133e-01,-1.508530855178833008e+00,1.512464284896850586e+00,-2.681368887424468994e-01,7.181212902069091797e-01,-1.239142045378684998e-01,-7.360604405403137207e-01,8.344873785972595215e-01,3.552752360701560974e-02,1.154473781585693359e+00,5.940369367599487305e-01,-1.798149943351745605e-01,1.167939543724060059e+00,2.647324204444885254e-01,3.604017198085784912e-01,7.264699041843414307e-02,5.578826069831848145e-01,-8.585807085037231445e-01,-1.545380234718322754e+00,-4.619001746177673340e-01,4.370304346084594727e-01,-1.326696515083312988e+00,6.008446812629699707e-01,6.731317639350891113e-01,-5.047901272773742676e-01,6.806865930557250977e-01,2.000621259212493896e-01,1.869676343630999327e-04,4.522123336791992188e-01,-3.022654056549072266e-01,7.738269567489624023e-01,-2.302601933479309082e-01,-2.010179013013839722e-01,6.872615814208984375e-01,-3.298209905624389648e-01,-1.615038514137268066e+00,-1.535274147987365723e+00
-2.189327925443649292e-01,-3.310737013816833496e-01,-3.066679537296295166e-01,-1.350165437906980515e-02,-4.594789147377014160e-01,-5.980082154273986816e-01,2.447035610675811768e-01,3.938847780227661133e-01,-6.930912733078002930e-01,-8.055039495229721069e-02,3.481286391615867615e-02,3.683902323246002197e-01,-8.171486109495162964e-02,-2.486132271587848663e-02,-2.307669818401336670e-01,4.330330789089202881e-01,-6.871815770864486694e-02,6.209195256233215332e-01,4.834654331207275391e-01,2.741885483264923096e-01,-1.461880803108215332e-01,7.794362902641296387e-01,-2.202105373144149780e-01,-2.729977667331695557e-01,1.810104772448539734e-02,-5.317904353141784668e-01,-3.180779218673706055e-01,1.352193474769592285e+00,-3.013180196285247803e-02,-3.726603090763092041e-02,-3.658843338489532471e-01,3.684912323951721191e-01,-2.449018508195877075e-01,5.749633163213729858e-02,-5.785562992095947266e-01,4.769274592399597168e-01,-2.533541023731231689e-01,-4.798452556133270264e-01,4.977975785732269287e-01,5.728169530630111694e-02,-4.503031075000762939e-01,-2.875962257385253906e-01,2.080207765102386475e-01,-3.538745045661926270e-01,-6.680734157562255859e-01,-1.769490391016006470e-01,7.823013663291931152e-01,5.021180510520935059e-01,3.336367383599281311e-02,-6.765294075012207031e-01,-9.846630096435546875e-01,-3.553267717361450195e-01,-3.031169772148132324e-01,-1.008639574050903320e+00,-6.894777417182922363e-01,9.673469513654708862e-02,5.061310902237892151e-02,4.604470729827880859e-01,-9.015665650367736816e-01,1.829241663217544556e-01,4.345183670520782471e-01,-1.955592930316925049e-01,-8.853803277015686035e-01,-1.130589842796325684e+00,-1.277039766311645508e+00,2.571878135204315186e-01,4.812754988670349121e-01,2.039534747600555420e-01,1.021511316299438477e+00,1.399489641189575195e+00,1.632004141807556152e+00,3.831610828638076782e-02,-9.464373588562011719e-01,6.082518100738525391e-01,-1.097694505006074905e-02,-4.118987917900085449e-01,-9.025663733482360840e-01,-5.500178933143615723e-01,-4.262592792510986328e-01,-1.202707529067993164e+00
5.924427136778831482e-02,2.766501009464263916e-01,3.851770237088203430e-02,-5.526306629180908203e-01,-3.111796379089355469e-01,-1.105841279029846191e+00,-2.076930552721023560e-01,-3.493445217609405518e-01,5.038586854934692383e-01,-3.670578300952911377e-01,-2.704927623271942139e-01,3.181467056274414062e-01,-8.702436834573745728e-02,-2.299305610358715057e-02,6.865814328193664551e-01,4.328020811080932617e-01,4.675081074237823486e-01,3.135297298431396484e-01,-3.639215826988220215e-01,5.242328643798828125e-01,6.055280566215515137e-01,9.700114279985427856e-02,2.010486721992492676e-01,-6.170393899083137512e-02,-3.691687583923339844e-01,4.681061506271362305e-01,-9.362616539001464844e-01,-2.803111076354980469e-01,-7.516900300979614258e-01,-6.106172204017639160e-01,1.477139294147491455e-01,1.431058645248413086e-01,-1.782640069723129272e-01,-1.690737307071685791e-01,-4.892648458480834961e-01,9.455043822526931763e-02,5.209416747093200684e-01,2.187009155750274658e-01,-1.951600015163421631e-01,-2.104358673095703125e-01,2.954171039164066315e-02,9.209275245666503906e-01,-1.658234596252441406e+00,-9.294262528419494629e-01,1.235328674316406250e+00,2.925768792629241943e-01,1.296138882637023926e+00,-2.263910531997680664e+00,-1.162143111228942871e+00,1.066983699798583984e+00,-2.161975383758544922e+00,-4.492500424385070801e-01,-8.816602826118469238e-01,2.608984708786010742e-01,2.198552131652832031e+00,-1.028100371360778809e+00,1.503254413604736328e+00,1.487591505050659180e+00,1.602634549140930176e+00,-1.739040970802307129e+00,1.569288492202758789e+00,4.040321707725524902e-01,7.786111533641815186e-02,1.774523258209228516e-01,1.827518343925476074e-01,-2.308282405138015747e-01,8.251649886369705200e-02,-2.202171087265014648e-02,2.761022150516510010e-01,6.556175649166107178e-02,-3.405024707317352295e-01,5.869174599647521973e-01,-1.134235143661499023e+00,2.093746364116668701e-01,5.970437526702880859e-01,9.787890315055847168e-01,-8.775974512100219727e-01,1.425884068012237549e-01,7.172296047210693359e-01,5.780552029609680176e-01
-1.018301025032997131e-01,-1.005682468414306641e+00,2.050999552011489868e-01,5.190172791481018066e-01,2.527287304401397705e-01,-1.074401736259460449e+00,-5.008616447448730469e-01,4.463086426258087158e-01,-5.060957670211791992e-01,-1.838578134775161743e-01,3.145378232002258301e-01,-4.365850389003753662e-01,1.651208102703094482e-01,-4.177616164088249207e-02,-1.348447985947132111e-02,6.735597550868988037e-02,1.351376622915267944e-01,1.276123672723770142e-01,-3.905406594276428223e-01,1.820231527090072632e-01,-4.470426440238952637e-01,1.020164266228675842e-01,-6.821480393409729004e-01,8.058840781450271606e-02,-1.276419013738632202e-01,-9.229947924613952637e-01,-8.328778743743896484e-01,-1.704922914505004883e-01,9.049423784017562866e-02,2.797714993357658386e-02,-1.191428955644369125e-02,4.325382411479949951e-01,-1.438954174518585205e-01,1.673590093851089478e-01,-4.002768546342849731e-02,-5.370486378669738770e-01,7.922078371047973633e-01,-1.091626733541488647e-01,1.696845293045043945e-01,-4.322852492332458496e-01,6.046180725097656250e-01,1.100219935178756714e-01,1.077167034149169922e+00,2.298203229904174805e+00,7.147945761680603027e-01,-1.641755998134613037e-01,-1.779485940933227539e-01,2.078871250152587891e+00,-4.244147334247827530e-03,6.933628916740417480e-01,-3.039516508579254150e-01,-8.671335577964782715e-01,3.953025043010711670e-01,1.920335531234741211e+00,2.418412119150161743e-01,1.194006800651550293e+00,-1.015342354774475098e+00,9.634117484092712402e-01,-2.743587493896484375e-01,6.436444520950317383e-01,-4.821674525737762451e-01,-6.486688256263732910e-01,1.225922226905822754e+00,5.048277378082275391e-01,-4.436190128326416016e-01,-2.538250088691711426e-01,1.161594867706298828e+00,-3.423835039138793945e-01,1.714864850044250488e+00,1.205123782157897949e+00,6.147751808166503906e-01,-7.781959176063537598e-01,3.625636994838714600e-01,2.171333789825439453e+00,-2.965295873582363129e-02,1.820687651634216309e-01,8.576940298080444336e-01,7.614420056343078613e-01,7.469063997268676758e-01,7.817181348800659180e-01
1.064904257655143738e-01,-3.921825811266899109e-02,4.523442685604095459e-02,1.289063394069671631e-01,2.094040513038635254e-01,-1.061093285679817200e-01,3.781245350837707520e-01,1.815484613180160522e-01,3.822033852338790894e-02,4.656891524791717529e-01,2.667944431304931641e-01,-5.776153132319450378e-02,-7.458821684122085571e-02,-3.564824163913726807e-01,1.682227253913879395e-01,-2.905468344688415527e-01,-5.577385425567626953e-01,1.135194972157478333e-01,2.246959656476974487e-01,4.538753926753997803e-01,1.736726164817810059e-01,-2.802355289459228516e-01,4.622432589530944824e-01,-1.381077021360397339e-01,6.142715215682983398e-01,-5.729719400405883789e-01,-9.936252832412719727e-01,8.487055301666259766e-01,-6.952517032623291016e-01,-8.083032965660095215e-01,-3.125825524330139160e-01,-2.263916097581386566e-02,4.069437384605407715e-01,-1.626635640859603882e-01,6.619377136230468750e-01,-2.044622749090194702e-01,2.433826625347137451e-01,-2.037380635738372803e-01,3.139264583587646484e-01,4.943383932113647461e-01,-5.339328199625015259e-03,1.001537322998046875e+00,-1.709304898977279663e-01,-2.010115146636962891e+00,-6.892012357711791992e-01,-3.479349613189697266e-01,6.937528252601623535e-01,-3.708879649639129639e-01,5.645226836204528809e-01,9.050560593605041504e-01,-6.631144881248474121e-01,6.993925571441650391e-02,-1.462134480476379395e+00,-5.050830841064453125e-01,-1.747534871101379395e-01,3.949923515319824219e-01,1.504865288734436035e-01,1.978105306625366211e-01,-8.540468215942382812e-01,-2.662959694862365723e-01,-8.377022296190261841e-02,-8.544916510581970215e-01,-1.079024910926818848e+00,2.695003151893615723e-01,-3.189358413219451904e-01,5.777676105499267578e-01,-1.652738451957702637e+00,4.856108427047729492e-01,3.754866123199462891e-01,5.986642241477966309e-01,3.627991974353790283e-01,3.304640948772430420e-01,-8.114294409751892090e-01,-8.356760740280151367e-01,8.374438881874084473e-01,-6.744279861450195312e-01,-1.390888094902038574e+00,3.150250911712646484e-01,-6.550364196300506592e-02,1.994781792163848877e-01
-1.865731626749038696e-01,-1.352214455604553223e+00,4.918077588081359863e-01,-9.275230765342712402e-02,-4.792755246162414551e-01,-6.975585129112005234e-04,-9.106290340423583984e-02,5.657876133918762207e-01,3.761440813541412354e-01,-9.006515741348266602e-01,-8.054248243570327759e-02,-8.019569516181945801e-01,3.706171810626983643e-01,-1.377230584621429443e-01,-1.635911762714385986e-01,6.855279803276062012e-01,-2.233290076255798340e-01,-8.412740379571914673e-02,-3.818565607070922852e-01,-3.492458164691925049e-02,1.108902320265769958e-01,-3.058550953865051270e-01,-1.301630735397338867e-01,4.882463067770004272e-02,-5.187597274780273438e-01,-2.482964545488357544e-01,-2.365651577711105347e-01,-2.246171981096267700e-01,1.452920436859130859e-01,3.911934047937393188e-02,5.556934326887130737e-02,-6.661474704742431641e-01,5.498723387718200684e-01,8.193816244602203369e-02,-3.580224812030792236e-01,-3.979779407382011414e-02,2.445668131113052368e-01,6.723478436470031738e-02,2.546755969524383545e-01,-1.914432272315025330e-02,-4.873931407928466797e-01,7.872753739356994629e-01,2.334452152252197266e+00,3.711926221847534180e+00,-8.101042360067367554e-02,-1.806551098823547363e+00,-1.165878653526306152e+00,1.851508021354675293e+00,-3.807083964347839355e-01,6.538952887058258057e-02,3.295686006546020508e+00,4.114378616213798523e-02,2.005770921707153320e+00,2.056822538375854492e+00,-2.529102861881256104e-01,1.995861291885375977e+00,-1.272105932235717773e+00,-9.455411881208419800e-02,2.492285966873168945e-01,2.141812086105346680e+00,-2.250612378120422363e-01,-1.440264098346233368e-02,1.480471014976501465e+00,1.918734669685363770e+00,-5.074609443545341492e-02,-2.461986392736434937e-01,-9.206202030181884766e-01,-5.621232390403747559e-01,1.350355029106140137e+00,1.912346601486206055e+00,9.157276153564453125e-01,4.454315006732940674e-01,1.456555008888244629e+00,1.698350906372070312e+00,3.027731478214263916e-01,-2.111675143241882324e-01,2.895792722702026367e+00,-3.152016401290893555e-01,-5.144051313400268555e-01,4.025564491748809814e-01
-6.113898754119873047e-01,-1.040603742003440857e-01,6.581378728151321411e-02,3.525628149509429932e-01,-9.361875802278518677e-02,-1.397118717432022095e-01,-1.328010708093643188e-01,-7.736583054065704346e-02,-5.433822870254516602e-01,-4.384089708328247070e-01,4.173360299319028854e-03,1.043672084808349609e+00,5.790693312883377075e-02,-8.370146900415420532e-02,-5.832809805870056152e-01,3.676830232143402100e-02,-5.873168706893920898e-01,-2.713997066020965576e-01,-5.566450953483581543e-01,-8.984506130218505859e-03,1.597261875867843628e-01,-3.233084380626678467e-01,-1.535106748342514038e-01,3.511535227298736572e-01,7.087740302085876465e-02,7.260435074567794800e-02,-1.277803033590316772e-01,-2.212272137403488159e-01,1.104393452405929565e-01,7.699890136718750000e-01,6.050133705139160156e-01,1.225938722491264343e-01,-2.293930500745773315e-01,5.832913517951965332e-01,1.970756351947784424e-01,-2.738417983055114746e-01,5.333821177482604980e-01,-6.321250647306442261e-02,-9.425486624240875244e-02,-9.700123965740203857e-02,9.749861061573028564e-02,-1.417203098535537720e-01,-4.244680404663085938e-01,-2.027595043182373047e+00,4.966465532779693604e-01,-3.081182241439819336e-01,7.635675072669982910e-01,-6.434919834136962891e-01,1.027107715606689453e+00,-5.412019416689872742e-02,-1.863011121749877930e+00,-1.501395463943481445e+00,-1.857080817222595215e+00,-1.409025549888610840e+00,5.607627034187316895e-01,-9.376579523086547852e-01,2.479639530181884766e+00,2.122808456420898438e+00,1.371276021003723145e+00,-1.348940372467041016e+00,1.812663912773132324e+00,6.289269328117370605e-01,-2.373972088098526001e-01,-1.141030669212341309e+00,9.415031671524047852e-01,-1.855826735496520996e+00,1.288744211196899414e+00,9.272782802581787109e-01,-1.610020995140075684e+00,-7.758992314338684082e-01,-2.069175720214843750e+00,1.163785308599472046e-01,-1.104897499084472656e+00,-1.557172179222106934e+00,2.440387487411499023e+00,5.064327716827392578e-01,-1.641988873481750488e+00,1.515803098678588867e+00,2.189708948135375977e+00,2.565202713012695312e+00
1.115713939070701599e-01,-4.945384860038757324e-01,-2.617543637752532959e-01,4.777491986751556396e-01,-5.617788434028625488e-02,1.304623931646347046e-01,4.020237177610397339e-02,-1.637243628501892090e-01,9.937804937362670898e-02,1.522897124290466309e+00,-1.688121110200881958e-01,-3.397889733314514160e-01,-2.193080484867095947e-01,2.896150946617126465e-02,1.841761916875839233e-01,-1.680168323218822479e-02,-1.433467268943786621e-01,9.491580724716186523e-02,-1.390918642282485962e-01,-1.478304564952850342e-01,4.302131757140159607e-02,8.682606369256973267e-02,4.861076828092336655e-03,-1.810447722673416138e-01,-2.724483609199523926e-01,7.091394066810607910e-01,2.215077728033065796e-01,-3.625410050153732300e-02,8.419410139322280884e-02,3.803409039974212646e-01,3.340016007423400879e-01,-2.210779041051864624e-01,-2.929988801479339600e-01,1.676954478025436401e-01,5.691767334938049316e-01,-3.905177116394042969e-02,8.965287357568740845e-02,-8.019404858350753784e-02,3.593588769435882568e-01,9.442313760519027710e-02,8.295076489448547363e-01,9.455183893442153931e-02,-4.048112034797668457e-02,7.701396197080612183e-02,-1.114622116088867188e+00,-1.623648554086685181e-01,-1.200811743736267090e+00,-7.506529688835144043e-01,-9.912489652633666992e-01,-1.076595306396484375e+00,1.174100041389465332e+00,-5.205386877059936523e-01,-5.533897876739501953e-01,-3.242199718952178955e-01,-1.056296110153198242e+00,-8.939393162727355957e-01,-1.186564117670059204e-01,-4.098935723304748535e-01,-1.550468683242797852e+00,-6.224194765090942383e-01,6.728202700614929199e-01,-8.326495289802551270e-01,-4.890164136886596680e-01,3.751836419105529785e-01,1.994897574186325073e-01,-7.934709787368774414e-01,-1.999304592609405518e-01,-6.070086359977722168e-01,-1.089589595794677734e+00,2.016726732254028320e+00,1.523653388023376465e+00,4.945399761199951172e-01,-8.980168700218200684e-01,2.441030442714691162e-01,2.551734820008277893e-02,-1.241080909967422485e-01,4.158246815204620361e-01,1.945542842149734497e-01,-3.485151529312133789e-01,3.867307305335998535e-01
-3.637389838695526123e-01,1.362346112728118896e-01,4.553718268871307373e-01,6.515948772430419922e-01,-2.402041852474212646e-01,3.036590218544006348e-01,-2.196118086576461792e-01,5.240753889083862305e-01,-4.650619626045227051e-01,1.687820255756378174e-01,3.216422796249389648e-01,-4.100546538829803467e-01,4.485358297824859619e-01,2.207441776990890503e-01,-2.983813881874084473e-01,2.968779504299163818e-01,-1.914258599281311035e-01,-4.441446959972381592e-01,-4.845792353153228760e-01,2.165282964706420898e-01,-4.051839709281921387e-01,-4.434602260589599609e-01,-2.884209454059600830e-01,1.198057457804679871e-01,-4.137219190597534180e-01,-3.010089099407196045e-01,-1.933948695659637451e-01,-3.190931081771850586e-01,3.199324607849121094e-01,8.169781416654586792e-02,2.520384788513183594e-01,-3.852445781230926514e-01,3.658204972743988037e-01,4.461787939071655273e-01,-2.249631136655807495e-01,-4.360557496547698975e-01,6.532348692417144775e-02,-3.480163514614105225e-01,-2.661475539207458496e-01,-2.436774522066116333e-01,2.046271800994873047e+00,4.317985475063323975e-01,-2.536292791366577148e+00,-4.026021003723144531e+00,1.747879981994628906e+00,5.012035965919494629e-01,1.885820031166076660e+00,-2.196032285690307617e+00,1.600451588630676270e+00,-1.033565998077392578e+00,-1.765292882919311523e+00,-3.151841759681701660e-01,-3.062598228454589844e+00,-1.583520054817199707e+00,1.736724257469177246e+00,-2.261789560317993164e+00,1.286520004272460938e+00,1.992102503776550293e+00,1.952831387519836426e+00,-2.025649309158325195e+00,2.315209627151489258e+00,2.160742521286010742e+00,2.220958232879638672e+00,-1.216633439064025879e+00,2.129152536392211914e+00,7.226451039314270020e-01,8.484945297241210938e-01,1.812203526496887207e+00,-2.681515932083129883e+00,-1.175753235816955566e+00,-1.366508126258850098e+00,2.215777635574340820e+00,-1.836532235145568848e+00,-2.673054933547973633e+00,1.661074876785278320e+00,1.320133924484252930e+00,-2.043079376220703125e+00,1.394857645034790039e+00,2.288275241851806641e+00,8.889026641845703125e-01
1.867432594299316406e-01,-3.940269649028778076e-01,-9.522329270839691162e-02,3.231792151927947998e-01,2.327727824449539185e-01,-1.828657627105712891e+00,2.526255846023559570e-01,1.341465115547180176e-01,4.835167229175567627e-01,4.512533545494079590e-01,1.782459765672683716e-01,1.685865074396133423e-01,-2.330839782953262329e-01,-1.282238066196441650e-01,3.504190742969512939e-01,-6.618767045438289642e-03,6.426253914833068848e-02,6.244629621505737305e-02,-1.256425529718399048e-01,-1.158376857638359070e-01,2.231944352388381958e-01,1.998357027769088745e-01,1.269795447587966919e-01,2.476852014660835266e-02,-3.481939807534217834e-02,-7.502862215042114258e-01,1.984795331954956055e-01,4.879147559404373169e-02,1.656385362148284912e-01,5.275807976722717285e-01,-7.694528251886367798e-02,1.483458653092384338e-02,-1.143743097782135010e-01,3.431727290153503418e-01,5.225645750761032104e-02,4.288799166679382324e-01,5.340810492634773254e-02,2.447964102029800415e-01,2.557373642921447754e-01,-8.789794892072677612e-02,-8.367947340011596680e-01,1.476749312132596970e-02,3.964252769947052002e-01,3.736157715320587158e-01,-7.368256449699401855e-01,-1.627590417861938477e+00,-8.788633942604064941e-01,-1.947991847991943359e+00,-8.212773203849792480e-01,-6.920278072357177734e-01,7.272284030914306641e-01,-1.094259619712829590e+00,-4.275295883417129517e-02,1.462526470422744751e-01,-3.019994497299194336e-01,-6.896977126598358154e-02,-4.342863261699676514e-01,-2.244438529014587402e-01,-1.348288208246231079e-01,8.330534100532531738e-01,-5.473214387893676758e-01,-9.419386982917785645e-01,-1.062596797943115234e+00,2.324219606816768646e-02,4.348941743373870850e-01,-5.563581585884094238e-01,4.391384720802307129e-01,-7.727077007293701172e-01,-9.619606286287307739e-02,1.023959994316101074e+00,2.383732199668884277e-01,5.669292993843555450e-03,-7.538852691650390625e-01,2.300705164670944214e-01,-3.604029715061187744e-01,-5.894522070884704590e-01,-1.406406164169311523e-01,-3.898735642433166504e-01,-3.762844204902648926e-01,2.736880779266357422e-01
1.839625090360641479e-01,-8.383077569305896759e-03,-4.447253346443176270e-01,-2.184123694896697998e-01,-1.265856176614761353e-01,-3.159377872943878174e-01,-7.199351191520690918e-01,5.444012880325317383e-01,-4.808191955089569092e-02,1.270216405391693115e-01,-4.212158918380737305e-01,2.482321262359619141e-01,1.761603653430938721e-01,1.416585445404052734e-01,-4.840553924441337585e-02,-2.211975604295730591e-01,-1.174100413918495178e-01,5.797231793403625488e-01,2.020580321550369263e-01,2.490849196910858154e-01,7.160054985433816910e-03,1.978562474250793457e-01,-2.912629395723342896e-02,-3.966335952281951904e-02,-5.951986312866210938e-01,-7.315955758094787598e-01,7.456830739974975586e-01,-5.857993364334106445e-01,6.331977844238281250e-01,2.156887799501419067e-01,-9.506232291460037231e-02,3.205066919326782227e-01,2.164031565189361572e-01,-4.187349379062652588e-01,-1.311225444078445435e-01,-1.659434288740158081e-01,-3.842803463339805603e-02,1.565544158220291138e-01,2.653058767318725586e-01,-1.798505932092666626e-01,3.625747561454772949e-01,4.138447344303131104e-03,1.384259611368179321e-01,-7.021542191505432129e-01,-7.700783014297485352e-01,-9.622567147016525269e-02,1.067157149314880371e+00,-1.128967523574829102e+00,6.526316404342651367e-01,2.703048288822174072e-01,-6.589090228080749512e-01,-1.695332378149032593e-01,-8.117222785949707031e-01,-6.169425249099731445e-01,1.166224598884582520e+00,-1.912664175033569336e-01,2.172538787126541138e-01,1.140562966465950012e-01,1.043828248977661133e+00,-6.561744809150695801e-01,-6.058361008763313293e-02,3.362529724836349487e-02,7.158854603767395020e-01,-1.308926343917846680e-01,8.429790735244750977e-01,2.395465821027755737e-01,2.921115458011627197e-01,-2.949117682874202728e-02,-2.000794261693954468e-01,2.507321238517761230e-01,-1.589436382055282593e-01,3.866707682609558105e-01,-1.751758717000484467e-02,-1.127910688519477844e-01,8.994420766830444336e-01,9.440861940383911133e-01,-1.191324353218078613e+00,-5.507452040910720825e-02,1.510926932096481323e-01,1.088886976242065430e+00
4.265557974576950073e-02,-4.528102874755859375e-01,-1.296147823333740234e+00,-1.261051837354898453e-02,5.416198447346687317e-02,-1.427409052848815918e-01,-3.119333982467651367e-01,1.463122516870498657e-01,1.185778006911277771e-01,5.441853404045104980e-01,5.102135539054870605e-01,1.514508575201034546e-01,1.864573210477828979e-01,-2.820319868624210358e-02,3.698024898767471313e-02,-7.820064425468444824e-01,1.766613312065601349e-02,-1.518024355173110962e-01,-9.623079746961593628e-02,-9.676513075828552246e-02,-2.336568236351013184e-01,-2.751410305500030518e-01,3.735116720199584961e-01,9.728447347879409790e-02,-7.295632362365722656e-01,-1.155175268650054932e-01,1.050819680094718933e-01,1.236583385616540909e-02,3.443050384521484375e-01,-4.465534538030624390e-02,-2.681819796562194824e-01,-5.117227435111999512e-01,1.093984022736549377e-01,-7.724359631538391113e-01,1.206816554069519043e+00,-2.977665364742279053e-01,1.327331811189651489e-01,-2.548240721225738525e-01,-1.148553252220153809e+00,1.374703794717788696e-01,-1.617468334734439850e-02,-5.102943181991577148e-01,-1.708800315856933594e+00,-2.468139410018920898e+00,7.100294828414916992e-01,5.872477293014526367e-01,1.296421289443969727e+00,-1.880823969841003418e-01,1.148612499237060547e+00,-1.409842669963836670e-01,-2.211514115333557129e-01,-1.070095777511596680e+00,-2.821154519915580750e-02,-1.032155990600585938e+00,4.179893732070922852e-01,-4.471548199653625488e-01,-1.365665942430496216e-01,3.266820013523101807e-01,-1.238754764199256897e-01,-1.644732236862182617e+00,2.276057153940200806e-01,-2.122870683670043945e+00,1.097994521260261536e-01,3.788643181324005127e-01,-1.588953018188476562e+00,-1.103543043136596680e-01,-1.060337480157613754e-02,1.033467650413513184e+00,-1.679389715194702148e+00,-1.517512559890747070e+00,2.600370645523071289e-01,-5.278022289276123047e-01,-1.583744406700134277e+00,-1.207959532737731934e+00,9.883547574281692505e-02,-9.771705865859985352e-01,-1.877548992633819580e-01,-5.793121457099914551e-02,-1.536960005760192871e-01,-4.163067340850830078e-01
-9.182244539260864258e-02,1.794561296701431274e-01,-6.369086503982543945e-01,1.044902130961418152e-01,1.064253002405166626e-01,-6.184239313006401062e-02,-1.705081462860107422e-01,8.757510036230087280e-02,-5.534248426556587219e-03,-3.464651703834533691e-01,2.837744951248168945e-01,3.034752905368804932e-01,2.022339776158332825e-02,2.034617960453033447e-01,9.459251165390014648e-01,2.733201980590820312e-01,5.836104508489370346e-03,-5.516636371612548828e-01,2.193221598863601685e-01,-1.039642989635467529e-01,-4.285661280155181885e-01,9.324926137924194336e-02,1.601606309413909912e-01,-4.121597409248352051e-01,-1.132886484265327454e-01,-1.469712257385253906e-01,-3.986358046531677246e-01,-1.891724579036235809e-02,1.467068586498498917e-02,4.168803095817565918e-01,9.419360756874084473e-01,-1.184774562716484070e-01,7.163814306259155273e-01,8.217456191778182983e-02,-1.546355485916137695e-01,-2.461328804492950439e-01,5.009847283363342285e-01,-6.854555606842041016e-01,-2.972424030303955078e-01,-1.374132335186004639e-01,1.152891755104064941e+00,-5.990279316902160645e-01,2.793164253234863281e-01,-1.224472094327211380e-02,1.671308875083923340e+00,-5.588047504425048828e-01,1.188609242439270020e+00,7.411612570285797119e-02,1.488482117652893066e+00,-2.475116103887557983e-01,-3.227568566799163818e-01,-3.882373571395874023e-01,-1.423770785331726074e-01,-4.563229680061340332e-01,-4.383150488138198853e-02,-9.627088159322738647e-02,9.527109265327453613e-01,2.261288166046142578e+00,9.160701632499694824e-01,-2.024810761213302612e-01,1.242191910743713379e+00,1.654562592506408691e+00,7.838523983955383301e-01,-1.181148067116737366e-01,8.959190845489501953e-01,2.719577252864837646e-01,5.946007966995239258e-01,1.843794584274291992e-01,9.932787716388702393e-02,-5.036305785179138184e-01,-8.550209403038024902e-01,3.185487985610961914e-01,-2.479828596115112305e+00,-1.199725419282913208e-01,1.866667389869689941e+00,-8.624683618545532227e-01,-2.527348756790161133e+00,1.851990461349487305e+00,1.496016502380371094e+00,7.510681152343750000e-01
2.499475777149200439e-01,-1.202273517847061157e-01,-1.584638506174087524e-01,-4.380096793174743652e-01,3.351978957653045654e-01,-9.125769734382629395e-01,-1.400016665458679199e+00,-2.972394227981567383e-01,-7.377595305442810059e-01,-4.083099663257598877e-01,-3.268899321556091309e-01,-7.254171371459960938e-01,-4.701049998402595520e-03,-5.980961918830871582e-01,6.313468217849731445e-01,-1.835917681455612183e-01,4.498924612998962402e-01,-6.480609774589538574e-01,1.878407895565032959e-01,8.521306514739990234e-01,-6.910428404808044434e-01,7.439221739768981934e-01,-5.601333379745483398e-01,4.173034727573394775e-01,4.163741469383239746e-01,-5.305663943290710449e-01,-5.527385473251342773e-01,1.125966832041740417e-01,-1.265298277139663696e-01,2.105916440486907959e-01,6.036404371261596680e-01,-1.951927202753722668e-03,-2.120641767978668213e-01,-8.738588690757751465e-01,9.792682528495788574e-01,-1.103579282760620117e+00,5.033985972404479980e-01,7.133585214614868164e-01,6.043637990951538086e-01,6.740393042564392090e-01,-3.007929027080535889e-01,-5.848785042762756348e-01,9.594079107046127319e-02,-3.849529922008514404e-01,-4.375742971897125244e-01,3.938872218132019043e-01,3.557062745094299316e-01,2.566401958465576172e-01,-3.532102704048156738e-01,-2.413708716630935669e-01,4.109273552894592285e-01,-5.784319639205932617e-01,-7.273195981979370117e-01,-7.343199849128723145e-01,7.396734505891799927e-02,-1.880646646022796631e-01,1.918120086193084717e-01,1.535810947418212891e+00,3.447231948375701904e-01,-2.630375027656555176e-01,-8.558656573295593262e-01,-3.533174097537994385e-02,5.145102739334106445e-01,-2.596071362495422363e-01,-1.086903095245361328e+00,-9.388914704322814941e-01,9.381011724472045898e-01,-5.370077490806579590e-01,9.565029740333557129e-01,4.973244965076446533e-01,1.086618065834045410e+00,-3.320344984531402588e-01,-5.183507204055786133e-01,3.517583608627319336e-01,-1.628397822380065918e+00,-7.652385830879211426e-01,-1.977623850107192993e-01,2.335154265165328979e-01,-7.020823955535888672e-01,-8.435090780258178711e-01
1.345652043819427490e-01,-6.984336972236633301e-01,-2.066872827708721161e-02,4.103659465909004211e-02,-3.053090162575244904e-02,-8.067483454942703247e-02,2.289772331714630127e-01,-2.332105785608291626e-01,-4.050147160887718201e-02,-2.341452538967132568e-01,6.155091896653175354e-02,7.995472550392150879e-01,7.036682963371276855e-02,-2.485809475183486938e-01,3.934733569622039795e-01,3.637371584773063660e-02,2.814386785030364990e-01,1.493829637765884399e-01,-2.440756559371948242e-01,-3.373866975307464600e-01,-4.987042844295501709e-01,-5.445674061775207520e-02,-1.944911479949951172e-01,1.509255468845367432e-01,-1.029916778206825256e-01,-7.753966841846704483e-03,-2.066853642463684082e-01,9.735565185546875000e-01,-4.009748399257659912e-01,5.056276172399520874e-02,5.260943174362182617e-01,-1.436307933181524277e-02,2.475116699934005737e-01,1.047192886471748352e-01,-2.041831314563751221e-01,-6.751437187194824219e-01,-3.959496915340423584e-01,-1.860324591398239136e-01,-6.306961178779602051e-01,1.688748449087142944e-01,5.588392615318298340e-01,-2.181243300437927246e-01,-7.326508164405822754e-01,-6.909567713737487793e-01,-1.154957175254821777e+00,1.505691409111022949e-01,3.478554487228393555e-01,-1.310217261314392090e+00,-4.748378992080688477e-01,3.487151116132736206e-02,5.577310323715209961e-01,6.846203804016113281e-01,9.831311702728271484e-01,2.606474459171295166e-01,-1.143774271011352539e+00,-1.135113000869750977e+00,-1.039542317390441895e+00,-1.141313910484313965e+00,-4.139690995216369629e-01,4.934400916099548340e-01,-1.124628305435180664e+00,-3.893341422080993652e-01,-1.004239559173583984e+00,-1.338840246200561523e+00,-9.717133641242980957e-01,1.544173806905746460e-01,-8.164301514625549316e-02,-4.079595506191253662e-01,1.022097945213317871e+00,2.724263429641723633e+00,2.036976814270019531e+00,-8.174749016761779785e-01,1.268334984779357910e+00,4.795295596122741699e-01,-4.994644820690155029e-01,-5.523982644081115723e-01,8.730660676956176758e-01,-1.260156273841857910e+00,-1.188701540231704712e-01,-1.741866946220397949e+00
-7.784436941146850586e-01,3.029646873474121094e-01,-7.418196201324462891e-01,1.359332799911499023e-01,-2.857420742511749268e-01,-3.069404959678649902e-01,-4.010534584522247314e-01,-2.028153687715530396e-01,-1.163356751203536987e-01,-7.485148310661315918e-01,-6.085894107818603516e-01,1.111601114273071289e+00,-4.491559788584709167e-02,1.890773922204971313e-01,-1.325073480606079102e+00,4.867956936359405518e-01,-4.771190285682678223e-01,4.097579121589660645e-01,1.276206731796264648e+00,1.573362946510314941e-01,-3.059731721878051758e-01,-6.249793171882629395e-01,-4.809926748275756836e-01,5.613938346505165100e-02,4.394583702087402344e-01,-7.825646400451660156e-01,3.190958201885223389e-01,-9.315959215164184570e-01,-1.805577874183654785e-01,1.009434461593627930e-01,1.246694326400756836e-01,-6.523658633232116699e-01,-3.676597774028778076e-01,6.268206238746643066e-02,-1.105672270059585571e-01,8.356509208679199219e-01,-5.066649913787841797e-01,2.896822988986968994e-01,-1.009363979101181030e-01,-8.405554890632629395e-01,-6.909340620040893555e-02,-5.569576025009155273e-01,-2.414499282836914062e+00,-4.628542959690093994e-01,-3.291388452053070068e-01,-1.483957529067993164e+00,-8.870694041252136230e-01,9.491507709026336670e-02,8.611490577459335327e-02,-2.564373612403869629e-02,-2.702979564666748047e+00,5.645760893821716309e-01,2.234039455652236938e-01,1.425908356904983521e-01,1.329388260841369629e+00,1.254372835159301758e+00,-2.200663089752197266e-01,-1.082944393157958984e+00,4.280005991458892822e-01,-2.967593073844909668e-01,3.567898571491241455e-01,-2.696841955184936523e-01,-1.412485599517822266e+00,-3.187534213066101074e-01,5.793269276618957520e-01,1.558571010828018188e-01,9.976648539304733276e-02,-8.788423985242843628e-02,1.260953664779663086e+00,9.296852946281433105e-01,5.073679685592651367e-01,2.825624346733093262e-01,5.732584595680236816e-01,-8.521986007690429688e-01,-3.474557995796203613e-01,-4.295454621315002441e-01,-2.126753807067871094e+00,-2.037436468526721001e-03,-2.177952975034713745e-01,1.589438676834106445e+00
5.231756344437599182e-02,-5.769746303558349609e-01,4.505464136600494385e-01,2.664165757596492767e-02,1.327957212924957275e-01,5.012716650962829590e-01,-9.681417346000671387e-01,2.243981957435607910e-01,1.436480730772018433e-01,-8.369283378124237061e-02,8.591639399528503418e-01,-8.741527050733566284e-02,7.771601080894470215e-01,-1.928849965333938599e-01,1.779402494430541992e-01,1.300779432058334351e-01,-1.465570926666259766e-01,-6.469274759292602539e-01,-7.291486021131277084e-03,-4.041213989257812500e-01,-6.205636262893676758e-01,-6.095935106277465820e-01,1.121953725814819336e+00,6.500070095062255859e-01,3.178319334983825684e-01,-1.216013669967651367e+00,-1.485761761665344238e+00,6.521711349487304688e-01,-4.556896686553955078e-01,-4.360997974872589111e-01,-5.923754572868347168e-01,-2.410196810960769653e-01,-5.252752900123596191e-01,1.034563332796096802e-01,2.020068615674972534e-01,2.040038406848907471e-01,-4.894037842750549316e-01,5.347349643707275391e-01,1.711084395647048950e-01,-3.207755982875823975e-01,-4.483949244022369385e-01,9.032693505287170410e-01,6.817476749420166016e-01,-9.294002056121826172e-01,8.062442541122436523e-01,-8.478444814682006836e-01,-2.105780839920043945e-01,-2.280363887548446655e-01,-3.454929292201995850e-01,-6.410913467407226562e-01,2.893890440464019775e-01,-7.321401685476303101e-02,-4.839201271533966064e-01,-6.978407502174377441e-01,1.871576756238937378e-01,1.006886363029479980e+00,-4.392580986022949219e-01,5.890021920204162598e-01,5.882607698440551758e-01,-1.069076657295227051e+00,-1.267420411109924316e+00,-2.815468609333038330e-01,3.285736441612243652e-01,5.209860950708389282e-02,-5.095833539962768555e-01,-2.140861749649047852e-01,-6.704402565956115723e-01,-7.520441710948944092e-02,-6.801554560661315918e-02,2.860884666442871094e-01,6.755159497261047363e-01,-4.076840281486511230e-01,2.884689867496490479e-01,3.999355137348175049e-01,1.464468091726303101e-01,2.118779122829437256e-01,3.948617279529571533e-01,-1.121027827262878418e+00,1.423356413841247559e+00,-4.835377633571624756e-01
3.378079533576965332e-01,-3.395638465881347656e-01,-8.672837615013122559e-01,-7.672856450080871582e-01,4.646545052528381348e-01,4.422973692417144775e-01,-5.672661066055297852e-01,7.818641662597656250e-01,5.121464729309082031e-01,7.172144204378128052e-02,6.749068200588226318e-02,-3.799532353878021240e-01,-1.014462947845458984e+00,-3.186386823654174805e-01,-5.811574310064315796e-02,-1.918635666370391846e-01,-3.386985659599304199e-01,-5.059546791017055511e-03,1.394753456115722656e-01,-7.100949883460998535e-01,-7.851099371910095215e-01,4.636815562844276428e-02,3.364477753639221191e-01,2.663508355617523193e-01,-1.940254587680101395e-03,-6.803595423698425293e-01,6.119918823242187500e-01,-9.793092608451843262e-01,7.368767857551574707e-01,3.707503080368041992e-01,-3.501282632350921631e-01,-5.394280552864074707e-01,-5.833778530359268188e-02,-8.102737069129943848e-01,2.807458639144897461e-01,-6.654930710792541504e-01,-2.923747301101684570e-01,1.930138617753982544e-01,6.418669819831848145e-01,5.811237543821334839e-02,-3.468520194292068481e-02,4.574481546878814697e-01,-5.780884027481079102e-01,-1.962789148092269897e-01,-1.268970012664794922e+00,4.795137643814086914e-01,-7.987644076347351074e-01,-2.831036746501922607e-01,-2.149067968130111694e-01,-3.804979324340820312e-01,1.248263239860534668e+00,-3.650953173637390137e-01,5.216928124427795410e-01,-4.143768548965454102e-01,-3.293080627918243408e-01,-6.063501238822937012e-01,1.039696216583251953e+00,-1.284901201725006104e-01,-8.475874364376068115e-02,-3.022086322307586670e-01,2.759021222591400146e-01,2.000819146633148193e-01,7.750554680824279785e-01,-6.688246130943298340e-02,-1.257367610931396484e+00,-6.998548507690429688e-01,1.195264905691146851e-01,-6.577599048614501953e-01,-6.813263297080993652e-01,-1.190843284130096436e-01,3.099973201751708984e-01,-3.449687659740447998e-01,1.213675975799560547e+00,1.160837360657751560e-03,3.765831291675567627e-01,7.434813976287841797e-01,2.224862575531005859e-01,8.008661866188049316e-01,-7.962617874145507812e-01,7.692135870456695557e-02
5.314016714692115784e-02,3.042372465133666992e-01,4.735611677169799805e-01,-8.273177742958068848e-01,-5.163799524307250977e-01,3.346895575523376465e-01,-4.323046505451202393e-01,4.861767590045928955e-02,-8.572726696729660034e-02,4.846682548522949219e-01,-8.325561136007308960e-02,-2.585547864437103271e-01,4.657198786735534668e-01,-7.465667128562927246e-01,1.546841263771057129e-01,-3.924887776374816895e-01,-7.189370691776275635e-02,1.890590190887451172e-01,4.179493710398674011e-02,2.078331410884857178e-01,5.417514443397521973e-01,4.397684335708618164e-01,3.299976289272308350e-01,-1.020007207989692688e-02,2.441588342189788818e-01,-4.554207026958465576e-01,-5.226812958717346191e-01,-6.435198783874511719e-01,-4.915592074394226074e-01,-1.454160660505294800e-01,-9.993709325790405273e-01,-6.807187572121620178e-03,5.585322976112365723e-01,4.069260358810424805e-01,-5.068233013153076172e-01,9.870974421501159668e-01,-1.951080203056335449e+00,8.864394426345825195e-01,-1.207051947712898254e-01,-3.893743082880973816e-02,-1.664338469505310059e+00,2.284768596291542053e-02,-3.456905484199523926e-01,-9.345164895057678223e-02,1.567417681217193604e-01,-1.311416149139404297e+00,7.372307181358337402e-01,2.460549324750900269e-01,-1.904008686542510986e-01,-3.608380258083343506e-02,8.213259577751159668e-01,-3.349047601222991943e-01,5.403842926025390625e-01,1.019215106964111328e+00,6.961809396743774414e-01,5.721609573811292648e-03,-7.828069329261779785e-01,-5.873359441757202148e-01,-4.997082054615020752e-01,-2.618244886398315430e-01,-5.379740595817565918e-01,-1.547835916280746460e-01,-5.073436349630355835e-02,4.501065015792846680e-01,3.238498866558074951e-01,-1.776992678642272949e-01,1.872620582580566406e-01,-5.830563306808471680e-01,-6.955538392066955566e-01,-7.770366668701171875e-01,-7.373885065317153931e-02,-1.761171072721481323e-01,-1.273894459009170532e-01,1.107109189033508301e-01,-9.299707412719726562e-01,1.433677319437265396e-02,-4.450047612190246582e-01,3.901896774768829346e-01,1.020623147487640381e-01,1.014620304107666016e+00
3.279356285929679871e-02,-8.157662153244018555e-01,6.797955185174942017e-02,4.682954847812652588e-01,-1.584473490715026855e+00,4.016550779342651367e-01,4.243422448635101318e-01,-8.218329548835754395e-01,1.108755588531494141e+00,3.355700969696044922e-01,2.736848033964633942e-02,-6.451447606086730957e-01,4.315997660160064697e-02,-1.364786922931671143e-01,-6.922946572303771973e-01,-9.695651531219482422e-01,-7.563280463218688965e-01,-7.390001416206359863e-01,-1.440251171588897705e-01,-1.375700116157531738e+00,7.097955346107482910e-01,3.269562125205993652e-01,-1.432260721921920776e-01,-6.330005526542663574e-01,-5.828148722648620605e-01,4.002791270613670349e-02,5.152093172073364258e-01,2.639293074607849121e-01,5.946254730224609375e-01,-7.751828432083129883e-02,-2.339668422937393188e-01,8.730506300926208496e-01,1.387937068939208984e-01,-6.843345165252685547e-01,9.705855697393417358e-02,-4.181288927793502808e-02,-5.911249518394470215e-01,2.587716877460479736e-01,-1.552468687295913696e-01,8.436804413795471191e-01,4.419023990631103516e-01,-1.055535748600959778e-01,-4.172008931636810303e-01,1.585807561874389648e+00,-3.352658152580261230e-01,-7.907367944717407227e-01,-8.730700016021728516e-01,-6.660425662994384766e-01,9.303137660026550293e-01,8.212234973907470703e-01,4.027605801820755005e-02,-1.302677989006042480e+00,4.047960638999938965e-01,-2.477624118328094482e-01,-8.712183833122253418e-01,-8.649293780326843262e-01,1.338475108146667480e+00,5.446317419409751892e-02,-1.585488468408584595e-01,-2.845119953155517578e+00,-6.976332664489746094e-01,-1.138105392456054688e+00,1.820565760135650635e-01,2.538148164749145508e-01,-1.390061616897583008e+00,1.065582130104303360e-02,5.607099533081054688e-01,4.619619846343994141e-01,-2.395015209913253784e-01,1.180392280220985413e-01,-1.786303967237472534e-01,6.449487209320068359e-01,1.298480629920959473e-01,-3.441496193408966064e-02,1.206643730401992798e-01,6.925296783447265625e-02,-9.476145505905151367e-01,-2.270291745662689209e-01,-1.266640871763229370e-01,-4.063573479652404785e-01
2.379818707704544067e-01,2.126912921667098999e-01,-2.109369188547134399e-01,-4.762821197509765625e-01,2.087254077196121216e-02,-2.186658531427383423e-01,-1.649902015924453735e-02,-3.787959814071655273e-01,-6.128794327378273010e-02,-2.432860136032104492e-01,-3.663957118988037109e-01,-6.198512911796569824e-01,-1.204163581132888794e-01,-3.659520745277404785e-01,4.258570671081542969e-01,-1.985960304737091064e-01,7.773598432540893555e-01,3.985799849033355713e-01,1.656312346458435059e-01,-5.062240958213806152e-01,3.353914618492126465e-01,-3.488982021808624268e-01,3.612810373306274414e-01,-2.117127478122711182e-01,4.468925297260284424e-01,1.032745480537414551e+00,5.869932174682617188e-01,9.225172996520996094e-01,-7.475149631500244141e-02,-9.981803297996520996e-01,-2.458452433347702026e-02,2.416334748268127441e-01,1.300553828477859497e-01,-5.465768575668334961e-01,6.534699201583862305e-01,2.837774455547332764e-01,-4.820749163627624512e-01,7.195022702217102051e-01,-1.976004540920257568e-01,2.664015889167785645e-01,3.369863927364349365e-01,-2.767469584941864014e-01,-7.869397103786468506e-02,-1.507295370101928711e+00,-1.545222163200378418e+00,-5.436841249465942383e-01,-7.549806833267211914e-01,4.640327095985412598e-01,-3.012336976826190948e-02,-1.525183916091918945e+00,-2.025882482528686523e+00,-7.621201276779174805e-01,-6.155844926834106445e-01,4.473018646240234375e-01,2.948006801307201385e-02,-6.800719499588012695e-01,-6.433254480361938477e-01,-8.365907073020935059e-01,-1.735338330268859863e+00,-8.908973336219787598e-01,-4.613527357578277588e-01,3.280057609081268311e-01,-1.276748776435852051e+00,-1.445299029350280762e+00,-9.070123434066772461e-01,-1.474673002958297729e-01,-1.170913457870483398e+00,-2.679971456527709961e-01,-7.127734133973717690e-04,9.953027963638305664e-01,6.548139452934265137e-01,-2.693473696708679199e-01,7.087354660034179688e-01,-5.489951968193054199e-01,3.982436954975128174e-01,-1.397833973169326782e-01,3.495726287364959717e-01,-8.195671439170837402e-01,-1.427941918373107910e-01,-5.554327368736267090e-01
1.742319017648696899e-02,-3.770769536495208740e-01,1.443021297454833984e-01,4.962913691997528076e-01,-1.223916709423065186e-01,-1.817682981491088867e+00,-7.961054146289825439e-02,4.033107161521911621e-01,1.812626719474792480e-01,4.435008764266967773e-01,3.412016332149505615e-01,-1.632827520370483398e-01,1.422265321016311646e-01,1.561297178268432617e-01,-2.254427671432495117e-01,1.848413497209548950e-01,-2.364189773797988892e-01,-1.026735380291938782e-01,-3.552236258983612061e-01,4.848291724920272827e-02,-4.894251376390457153e-02,-3.120423555374145508e-01,-1.334324330091476440e-01,1.364884078502655029e-01,-2.588358819484710693e-01,-1.368123054504394531e+00,-1.257332321256399155e-02,-3.834291994571685791e-01,2.732190787792205811e-01,5.921667218208312988e-01,-1.281889826059341431e-01,-6.229076534509658813e-02,5.806414410471916199e-02,1.476585119962692261e-01,-2.933802902698516846e-01,7.474508881568908691e-02,2.581276595592498779e-01,5.167095921933650970e-03,-1.649231910705566406e-01,-2.969639301300048828e-01,-5.522107481956481934e-01,-1.748450517654418945e+00,1.180583983659744263e-01,-1.014292478561401367e+00,8.053712248802185059e-01,-1.978478908538818359e+00,1.884064227342605591e-01,-1.173181056976318359e+00,7.966489195823669434e-01,-7.034734487533569336e-01,-6.442164182662963867e-01,-5.290685296058654785e-01,-1.001049160957336426e+00,-5.652598142623901367e-01,7.007366418838500977e-01,-8.431341052055358887e-01,1.634735316038131714e-01,-1.655204892158508301e-01,-4.223370458930730820e-03,-2.158172279596328735e-01,-1.207046136260032654e-01,1.935100913047790527e+00,6.184232234954833984e-01,-6.535376310348510742e-01,7.995689511299133301e-01,5.940665006637573242e-01,1.897057592868804932e-01,1.175919413566589355e+00,-1.112659335136413574e+00,-5.159500837326049805e-01,-7.182520031929016113e-01,6.808928847312927246e-01,-1.337243914604187012e+00,1.076134964823722839e-01,1.043241739273071289e+00,5.998152494430541992e-02,-2.022751122713088989e-01,3.316177427768707275e-01,4.368202984333038330e-01,-2.865724451839923859e-02
-1.985598206520080566e-01,5.516875386238098145e-01,-2.271964997053146362e-01,2.227246947586536407e-02,-1.442910134792327881e-01,-6.722064018249511719e-01,2.374998182058334351e-01,-2.998449504375457764e-01,5.630991458892822266e-01,-1.093365158885717392e-02,1.118605375289916992e+00,-5.667247176170349121e-01,-2.514271140098571777e-01,-1.040024399757385254e+00,-9.259214401245117188e-01,2.129399031400680542e-01,-3.595825135707855225e-01,3.433529734611511230e-01,2.093045711517333984e-01,-4.737719297409057617e-01,7.596132159233093262e-01,-1.392468065023422241e-01,-3.811545372009277344e-01,-9.672140479087829590e-01,1.526094377040863037e-01,1.422696560621261597e-01,6.295432448387145996e-01,-4.759100675582885742e-01,3.129209876060485840e-01,-3.587493300437927246e-01,-8.891168236732482910e-01,1.033766567707061768e-01,2.120791375637054443e-01,2.627700269222259521e-01,-1.707259893417358398e+00,4.316791296005249023e-01,1.646144539117813110e-01,-2.544545233249664307e-01,-5.036738887429237366e-02,-3.745138943195343018e-01,-5.426448583602905273e-02,-7.970090508460998535e-01,-6.634095311164855957e-01,1.015568971633911133e+00,-2.215635031461715698e-01,-2.191497385501861572e-01,5.985165238380432129e-01,1.131843030452728271e-02,3.967847228050231934e-01,2.557894885540008545e-01,-4.326264560222625732e-01,3.694218397140502930e-01,-7.191509604454040527e-01,4.153614938259124756e-01,-7.792683839797973633e-01,3.550027310848236084e-01,6.924715638160705566e-01,-2.213600575923919678e-01,-1.888992041349411011e-01,-1.038463786244392395e-01,2.762298882007598877e-01,-5.859028100967407227e-01,1.324839472770690918e+00,5.261859893798828125e-01,-1.230860829353332520e+00,7.631893157958984375e-01,1.049165129661560059e+00,-2.233683913946151733e-01,5.967338681221008301e-01,3.842220827937126160e-02,2.872177958488464355e-01,1.929694712162017822e-01,-1.176463842391967773e+00,5.246782898902893066e-01,-4.121853709220886230e-01,-1.123719930648803711e+00,4.239552617073059082e-01,-7.800490260124206543e-01,-2.746969759464263916e-01,5.973762273788452148e-01
