-4.235531091690063477e-01,1.153647601604461670e-01,-2.848997116088867188e-01,-2.025433182716369629e-01,-2.543291151523590088e-01,-5.727310180664062500e-01,1.777557879686355591e-01,-2.543421387672424316e-01,5.934671759605407715e-01,-1.737018674612045288e-01,3.245300427079200745e-02,-5.552558898925781250e-01,2.767904996871948242e-01,6.103067100048065186e-02,9.144524484872817993e-02,-2.674176990985870361e-01,-9.806994348764419556e-03,2.420556098222732544e-01,3.187630325555801392e-02,-6.615182012319564819e-02,-3.592862486839294434e-01,7.377933710813522339e-02,3.424857556819915771e-01,-2.298530787229537964e-01,1.767100095748901367e-01,-1.224370822310447693e-01,-4.119195938110351562e-01,3.158088028430938721e-01,2.783052437007427216e-02,-2.046588622033596039e-02,5.138948559761047363e-02,-8.198272436857223511e-02,-7.639251649379730225e-02,1.706622242927551270e-01,1.015534922480583191e-01,3.744879961013793945e-01,-2.990416884422302246e-01,4.808397293090820312e-01,-2.239607870578765869e-01,-3.044769465923309326e-01,5.520870164036750793e-02,-1.652433425188064575e-01,2.854321300983428955e-01,3.815266489982604980e-01,3.208039104938507080e-01,-4.560585618019104004e-01,8.921056240797042847e-02,3.152613341808319092e-01,-1.625680029392242432e-01,5.521324276924133301e-02,-1.091250702738761902e-01,2.524783015251159668e-01,2.221858650445938110e-01,6.539490073919296265e-02,5.110170841217041016e-01,-4.639073908329010010e-01,2.515685260295867920e-01,1.735257799737155437e-03,7.278740406036376953e-01,4.763136208057403564e-01,-1.700847595930099487e-01,-3.339100778102874756e-01,7.642722129821777344e-02,-2.180846184492111206e-01,-4.732001572847366333e-02,1.815616190433502197e-01,-6.871030479669570923e-02,3.998314738273620605e-01,2.632152438163757324e-01,-4.297264665365219116e-02,1.509085893630981445e-01,-7.675904035568237305e-02,-4.068046510219573975e-01,-2.086884975433349609e-01,-2.304772380739450455e-03,9.568348526954650879e-03,-1.644338220357894897e-01,3.166386187076568604e-01,2.708680927753448486e-01,2.696684598922729492e-01
1.431075930595397949e-01,-2.639829814434051514e-01,1.819430142641067505e-01,-7.566859126091003418e-01,-6.683722138404846191e-02,-1.961494833230972290e-01,-2.064393460750579834e-01,1.668371446430683136e-02,1.612439453601837158e-01,-6.307002156972885132e-03,-2.750785052776336670e-01,1.575100719928741455e-01,-2.772405743598937988e-01,2.887579798698425293e-01,8.736905455589294434e-02,-3.333471417427062988e-01,4.319043457508087158e-02,-2.779478430747985840e-01,-4.289453327655792236e-01,-7.999628037214279175e-02,-2.216862887144088745e-01,7.740759849548339844e-02,-2.983390353620052338e-02,9.690083563327789307e-02,-1.244332417845726013e-01,1.214009597897529602e-01,-3.852991461753845215e-01,1.677756309509277344e-01,3.450037240982055664e-01,-2.220395207405090332e-02,-6.349252909421920776e-02,7.547741383314132690e-02,5.271948408335447311e-03,-5.664588809013366699e-01,-2.640712857246398926e-01,-2.432736158370971680e-01,-1.871449649333953857e-01,1.568781882524490356e-01,1.237511038780212402e-01,-5.584552139043807983e-02,1.791354119777679443e-01,-2.527652978897094727e-01,-3.684782981872558594e-01,5.530991554260253906e-01,8.294476568698883057e-02,3.248269557952880859e-01,-1.690873056650161743e-01,1.655689328908920288e-01,2.065288126468658447e-01,6.469562649726867676e-02,2.227650582790374756e-01,-2.118417173624038696e-01,-1.534942388534545898e-01,3.443869948387145996e-01,-6.990348547697067261e-02,-2.055246233940124512e-01,-3.759910464286804199e-01,4.269537515938282013e-03,1.403882652521133423e-01,-2.278256043791770935e-02,2.711608111858367920e-01,2.007088959217071533e-01,-9.313669800758361816e-02,1.790262758731842041e-01,1.629050225019454956e-01,-2.313809245824813843e-01,2.681911289691925049e-01,4.076477289199829102e-01,1.164819151163101196e-01,-3.417948186397552490e-01,-1.543154008686542511e-02,-1.046573445200920105e-01,1.112915575504302979e-02,4.046379029750823975e-01,-1.383883357048034668e-01,-1.233118698000907898e-01,5.389366745948791504e-01,-3.864682018756866455e-01,-3.231426775455474854e-01,-2.326102852821350098e-01
-5.116923898458480835e-02,-4.524059128016233444e-03,3.732789158821105957e-01,6.195912510156631470e-02,-1.330899633467197418e-02,-3.601721301674842834e-02,-2.653943300247192383e-01,-1.306323558092117310e-01,4.772036336362361908e-04,-5.374897271394729614e-02,-2.996836416423320770e-02,3.231430947780609131e-01,1.424700617790222168e-01,1.432224661111831665e-01,-1.174701675772666931e-01,-7.428192347288131714e-02,-1.512862592935562134e-01,2.946903407573699951e-01,-1.588230133056640625e-01,-1.120503842830657959e-01,2.209998667240142822e-03,-1.316260993480682373e-01,6.188996136188507080e-02,3.217968344688415527e-01,6.756083667278289795e-02,3.267862647771835327e-02,-6.192952767014503479e-02,-8.263742178678512573e-02,2.200317233800888062e-01,-4.127749502658843994e-01,1.774731874465942383e-01,2.462083101272583008e-02,-2.091119885444641113e-01,1.588022857904434204e-01,-5.395030230283737183e-02,-3.052467405796051025e-01,-1.764815002679824829e-01,1.240313146263360977e-02,-2.312779426574707031e-01,-2.054904960095882416e-02,-3.214753270149230957e-01,-5.939117446541786194e-02,3.023334145545959473e-01,-1.349494010210037231e-01,8.974045515060424805e-03,-1.278516650199890137e-01,4.239781945943832397e-02,2.436901032924652100e-01,-8.062239736318588257e-02,4.597219228744506836e-01,-1.372108012437820435e-01,-3.202494233846664429e-02,-3.031804263591766357e-01,5.971400812268257141e-02,-2.142020165920257568e-01,-4.889388382434844971e-02,1.570657826960086823e-02,2.147441506385803223e-01,2.448702454566955566e-01,-9.589838981628417969e-02,1.197554469108581543e-01,4.431558027863502502e-02,-2.423620373010635376e-01,-1.243837997317314148e-01,1.543891280889511108e-01,-2.849064171314239502e-01,-3.801420703530311584e-02,4.142192900180816650e-01,1.981911212205886841e-01,4.502765834331512451e-02,-1.268342286348342896e-01,-1.408106237649917603e-01,5.658378601074218750e-01,7.514484226703643799e-02,-1.902514547109603882e-01,8.654902130365371704e-02,-3.757893741130828857e-01,-1.534515023231506348e-01,-1.601697355508804321e-01,5.304752588272094727e-01
-2.647138833999633789e-01,-4.072673320770263672e-01,1.191348358988761902e-01,2.896046340465545654e-01,-1.813117414712905884e-01,-7.186785340309143066e-02,7.765606790781021118e-02,-4.819570481777191162e-01,4.241784214973449707e-01,4.246215522289276123e-01,-2.680955529212951660e-01,9.175981581211090088e-02,-2.119975239038467407e-01,-6.330019235610961914e-02,6.967654079198837280e-02,1.535850693471729755e-03,1.228343322873115540e-01,-1.700417250394821167e-01,4.250900819897651672e-02,-1.030352935194969177e-01,-9.172873198986053467e-02,2.754313945770263672e-01,-1.186323761940002441e-01,-1.062043607234954834e-01,2.369244694709777832e-01,8.074959367513656616e-02,-4.304641857743263245e-02,1.442326791584491730e-02,-1.945373117923736572e-01,2.725420519709587097e-02,-4.899559915065765381e-01,-4.505572617053985596e-01,1.619226634502410889e-01,2.709873616695404053e-01,-5.396861955523490906e-02,2.989370003342628479e-02,-1.842762827873229980e-01,-2.059383392333984375e-01,3.469811379909515381e-01,-1.466785073280334473e-01,1.549168825149536133e-01,5.312594771385192871e-01,2.804921381175518036e-02,-6.409681439399719238e-01,-5.746517777442932129e-01,-2.389308623969554901e-02,-1.645048856735229492e-01,1.723245531320571899e-01,-1.254901383072137833e-02,1.689978875219821930e-02,-7.364437729120254517e-02,1.107089072465896606e-01,1.951765082776546478e-02,1.754459440708160400e-01,-2.229467034339904785e-01,3.404755890369415283e-01,3.260939717292785645e-01,1.768714636564254761e-01,-4.780864119529724121e-01,4.611429944634437561e-02,2.132051736116409302e-01,-6.622470915317535400e-02,7.775514572858810425e-02,-3.699663877487182617e-01,-2.570236623287200928e-01,-2.332561910152435303e-01,2.066881805658340454e-01,-2.988872351124882698e-03,3.513726294040679932e-01,6.808783113956451416e-02,-2.526570856571197510e-01,3.408400416374206543e-01,-1.109198629856109619e-01,5.812518000602722168e-01,2.184059172868728638e-01,1.682361587882041931e-02,-5.862306058406829834e-02,-2.002043873071670532e-01,-1.958964616060256958e-01,3.431604802608489990e-01
2.847010493278503418e-01,4.326105117797851562e-02,-9.817600995302200317e-02,5.114721655845642090e-01,-2.708884477615356445e-01,1.678429916501045227e-02,3.409470617771148682e-01,-7.003813982009887695e-02,-7.604341953992843628e-02,-4.732504114508628845e-02,-3.427535891532897949e-01,-2.771216072142124176e-02,-1.175334379076957703e-01,4.385558366775512695e-01,-3.913187086582183838e-01,-1.297972053289413452e-01,-1.972012668848037720e-01,6.798261776566505432e-03,3.778722584247589111e-01,-4.817402362823486328e-02,-3.327654898166656494e-01,6.532876193523406982e-02,1.666048467159271240e-01,-5.202438831329345703e-01,7.303316146135330200e-02,-2.829926460981369019e-02,1.895575039088726044e-02,1.224599555134773254e-01,-5.108763277530670166e-02,-1.776228309608995914e-03,6.795782595872879028e-02,-2.045675963163375854e-01,-2.448945939540863037e-01,-1.167687028646469116e-01,-2.210460603237152100e-01,8.304575830698013306e-02,8.541651815176010132e-02,-3.078337907791137695e-01,-3.031733445823192596e-02,-4.514608681201934814e-01,1.801064051687717438e-02,-3.081865310668945312e-01,-2.007343471050262451e-01,6.030251085758209229e-02,-3.971335291862487793e-02,1.548670679330825806e-01,2.529229521751403809e-01,-4.539542496204376221e-01,6.646943688392639160e-01,5.848104599863290787e-03,-2.193646430969238281e-01,-4.159319773316383362e-02,1.417775452136993408e-01,-4.992754384875297546e-02,6.165960337966680527e-03,5.258544087409973145e-01,2.867308259010314941e-01,1.273645758628845215e-01,-3.507459461688995361e-01,2.066255956888198853e-01,7.766709476709365845e-02,-2.859375439584255219e-02,1.147677376866340637e-01,-7.006232142448425293e-01,1.175402998924255371e-01,-1.768625676631927490e-01,1.540956795215606689e-01,1.759522855281829834e-01,-2.507206499576568604e-01,-3.808696568012237549e-01,-8.533180505037307739e-02,-7.912368327379226685e-02,1.043252348899841309e-01,-1.787829399108886719e-01,4.885789453983306885e-01,5.641549825668334961e-02,5.590215697884559631e-02,6.177730485796928406e-02,4.105184972286224365e-01,-3.058308660984039307e-01
-3.753179907798767090e-01,1.165728792548179626e-01,-1.131380945444107056e-01,-3.467879071831703186e-02,1.538176238536834717e-01,-4.297381341457366943e-01,-2.826119363307952881e-01,-4.579685330390930176e-01,-3.602466583251953125e-01,-1.435250137001276016e-02,-2.103652991354465485e-02,-1.451000869274139404e-01,-2.375410944223403931e-01,-5.208878964185714722e-02,-7.088177651166915894e-02,1.786574870347976685e-01,-6.114596128463745117e-02,-3.225987404584884644e-02,-2.531820908188819885e-02,-5.580320954322814941e-01,-1.369777321815490723e-01,1.613481193780899048e-01,1.817833185195922852e-01,-3.089022934436798096e-01,1.486038863658905029e-01,-2.010644823312759399e-01,-1.848886758089065552e-01,4.454263448715209961e-01,-2.957653105258941650e-01,-2.808854281902313232e-01,8.265285193920135498e-02,-4.178361594676971436e-01,1.730060577392578125e-01,-3.049386739730834961e-01,-3.864734768867492676e-01,2.496946007013320923e-01,-2.681150436401367188e-01,-9.980860352516174316e-02,4.031715393066406250e-01,9.084486216306686401e-02,3.192332684993743896e-01,-2.220850735902786255e-01,-9.163834154605865479e-02,-3.514474332332611084e-01,-4.602849483489990234e-01,-5.278339982032775879e-02,3.605652153491973877e-01,1.782281696796417236e-01,4.842717945575714111e-02,2.179580628871917725e-01,3.832493424415588379e-01,-1.837909370660781860e-01,2.655393779277801514e-01,-7.634542137384414673e-02,-2.638355791568756104e-01,1.347087621688842773e-01,1.672271490097045898e-01,-8.395522087812423706e-02,2.943544983863830566e-01,1.258760690689086914e-01,-2.041034586727619171e-02,-2.165578603744506836e-01,-1.864545345306396484e-01,-3.527044057846069336e-01,-7.203747034072875977e-01,-1.097033694386482239e-01,-4.832632374018430710e-03,-7.182681560516357422e-02,-6.126147881150245667e-02,-3.409367427229881287e-02,1.086803525686264038e-01,-1.683187335729598999e-01,-1.060269176959991455e-01,-2.017729878425598145e-01,2.137964218854904175e-02,-5.995568633079528809e-01,4.004854336380958557e-02,-3.423602879047393799e-01,1.171229258179664612e-01,6.864059716463088989e-02
4.625396057963371277e-02,-5.275313258171081543e-01,-5.118053555488586426e-01,2.401733398437500000e-01,2.462983876466751099e-01,1.060924455523490906e-01,1.830275803804397583e-01,-1.259397417306900024e-01,3.176656365394592285e-01,3.212575986981391907e-02,9.121793508529663086e-02,-2.592198848724365234e-01,1.892307251691818237e-01,-3.277139067649841309e-01,-1.385770142078399658e-01,1.941841281950473785e-02,-1.602086424827575684e-01,6.297144107520580292e-03,2.995260953903198242e-01,-3.093138039112091064e-01,2.401826977729797363e-01,2.669219076633453369e-01,-6.385082006454467773e-01,-2.943044006824493408e-01,4.220646321773529053e-01,7.082635909318923950e-02,1.250944435596466064e-01,-1.321813464164733887e-01,4.030922353267669678e-01,-8.477580547332763672e-02,4.808932840824127197e-01,-4.161576628684997559e-01,9.368062019348144531e-02,3.919934332370758057e-01,1.917639672756195068e-01,-2.840407192707061768e-01,2.460152208805084229e-01,-3.219794929027557373e-01,1.369930356740951538e-01,1.279692947864532471e-01,1.013478450477123260e-02,-2.835743874311447144e-02,-2.461034990847110748e-02,-1.082423552870750427e-01,-1.031832247972488403e-01,1.081934124231338501e-01,-3.432489633560180664e-01,-2.080837190151214600e-01,7.553581148386001587e-02,-3.010620176792144775e-01,1.605551838874816895e-01,2.886479794979095459e-01,-1.939970441162586212e-02,-3.336451649665832520e-01,4.550206661224365234e-02,-2.590965032577514648e-01,4.033575206995010376e-02,-2.473341226577758789e-01,-1.072711050510406494e-01,2.933312440291047096e-03,-2.154054343700408936e-01,-2.319136634469032288e-02,2.498243749141693115e-01,2.523399293422698975e-01,1.159757375717163086e-02,-1.023330837488174438e-01,-7.710327953100204468e-02,3.979735448956489563e-02,1.778544336557388306e-01,8.534133434295654297e-02,1.873802095651626587e-01,-1.231787800788879395e-01,-2.707245759665966034e-02,2.286175340414047241e-01,1.520171910524368286e-01,5.843110084533691406e-01,1.471711248159408569e-01,1.231635063886642456e-01,-5.247822999954223633e-01,3.816340863704681396e-01
1.023807376623153687e-01,1.235948503017425537e-01,4.960600659251213074e-02,2.294664829969406128e-01,4.078739881515502930e-01,-3.127588331699371338e-02,-5.876874923706054688e-01,1.127096116542816162e-01,9.345395863056182861e-02,-3.723445832729339600e-01,-9.602253884077072144e-02,3.410385549068450928e-01,9.362618625164031982e-02,-1.428664326667785645e-01,-3.437877595424652100e-01,2.915921211242675781e-01,-2.427814751863479614e-01,-4.288492500782012939e-01,-2.474270164966583252e-01,5.227115377783775330e-02,2.218064963817596436e-01,1.761601418256759644e-01,-5.309258028864860535e-02,2.473751008510589600e-01,1.919966377317905426e-02,-7.864396274089813232e-02,-5.422709882259368896e-02,-2.259419411420822144e-01,-1.498485654592514038e-01,-3.971284329891204834e-01,-1.892286390066146851e-01,-2.736199498176574707e-01,-1.932604983448982239e-02,-1.784120500087738037e-02,-2.488801926374435425e-01,2.851473540067672729e-02,4.383675754070281982e-02,-1.212201565504074097e-01,2.402774691581726074e-01,3.980344235897064209e-01,-2.681041695177555084e-02,-1.833308041095733643e-01,3.081996142864227295e-01,-1.214448362588882446e-01,2.258584946393966675e-01,-3.112736642360687256e-01,8.016659319400787354e-02,2.814788138493895531e-03,-2.282803803682327271e-01,-2.158237695693969727e-01,-1.156091764569282532e-01,-2.124252468347549438e-01,-2.424787878990173340e-01,1.522390916943550110e-02,-4.926480818539857864e-03,2.228401601314544678e-01,-2.734463894739747047e-03,1.804233044385910034e-01,-1.679173558950424194e-01,1.931266188621520996e-01,5.742841958999633789e-01,-1.412103623151779175e-01,-1.279670447111129761e-01,2.252261489629745483e-01,4.699101299047470093e-02,-2.626018822193145752e-01,-1.120374128222465515e-01,-3.076974153518676758e-01,2.705645933747291565e-02,-3.986187279224395752e-01,-2.631344646215438843e-02,-3.424915373325347900e-01,5.773121118545532227e-02,-4.612179994583129883e-01,-8.377172797918319702e-02,-1.879533827304840088e-01,-3.019796907901763916e-01,-1.532620042562484741e-01,4.252042248845100403e-02,1.613099724054336548e-01
-1.194439306855201721e-01,1.481676381081342697e-02,-1.135462298989295959e-01,2.032143324613571167e-01,-3.681676089763641357e-02,-1.658368557691574097e-01,-2.254487574100494385e-01,3.051128983497619629e-01,-3.554388880729675293e-01,2.912739813327789307e-01,3.039199113845825195e-01,1.775503333192318678e-04,3.494272530078887939e-01,-4.051224887371063232e-01,3.649363517761230469e-01,1.879355311393737793e-01,-4.150484204292297363e-01,3.188394382596015930e-02,-8.160112798213958740e-02,-8.980925381183624268e-02,2.512192539870738983e-02,-3.002779185771942139e-01,5.088757872581481934e-01,-3.665509521961212158e-01,-7.842965424060821533e-03,-7.904157787561416626e-02,6.394344568252563477e-01,3.014218807220458984e-01,-6.189134344458580017e-02,2.263898104429244995e-01,3.525884449481964111e-01,2.368007302284240723e-01,-4.566521346569061279e-01,2.159781455993652344e-01,-3.634533584117889404e-01,-1.361077129840850830e-01,5.282417684793472290e-02,4.173874855041503906e-01,3.007107377052307129e-01,3.319694995880126953e-01,-2.612899839878082275e-01,-3.057779371738433838e-01,6.905888915061950684e-01,2.174503803253173828e-01,2.211877256631851196e-01,-4.086325466632843018e-01,1.287870556116104126e-01,-9.261205792427062988e-02,4.659526515752077103e-03,7.185035198926925659e-02,-2.172457128763198853e-01,-1.301410887390375137e-02,1.349728703498840332e-01,2.227972494438290596e-03,-5.741194821894168854e-03,-9.248961508274078369e-02,1.328675150871276855e-01,2.914628386497497559e-01,1.255075335502624512e-01,1.308082044124603271e-01,2.067352384328842163e-01,-4.700173437595367432e-02,-5.109727382659912109e-02,6.658398360013961792e-02,1.881821453571319580e-02,3.114130720496177673e-02,-1.157884821295738220e-01,2.625382877886295319e-02,-2.888352274894714355e-01,2.161181867122650146e-01,-8.430286496877670288e-02,1.845172196626663208e-01,-1.802814751863479614e-02,2.009684592485427856e-01,-2.012449353933334351e-01,-4.481832496821880341e-03,-1.827937811613082886e-01,-8.592163771390914917e-02,9.580953419208526611e-02,-3.234573081135749817e-02
-6.406675279140472412e-02,-1.785901933908462524e-01,6.609101593494415283e-02,2.861718535423278809e-01,2.429127320647239685e-02,3.535796701908111572e-01,-2.097484022378921509e-01,-4.847736284136772156e-02,5.674576014280319214e-02,1.207231283187866211e-01,-1.773410886526107788e-01,-1.219328120350837708e-01,3.115249574184417725e-01,3.276469111442565918e-01,-1.283840537071228027e-01,-1.894642263650894165e-01,1.302476525306701660e-01,4.748165234923362732e-02,-9.348481148481369019e-02,-1.899285316467285156e-01,-1.194588392972946167e-01,6.584640741348266602e-01,4.148116409778594971e-01,1.044911891222000122e-01,1.136794537305831909e-01,3.148446977138519287e-02,5.240647122263908386e-02,-3.765113651752471924e-01,1.386228352785110474e-01,-1.567872762680053711e-01,5.513772368431091309e-01,-5.418307846412062645e-04,1.867802739143371582e-01,-1.274998188018798828e-01,-8.714768290519714355e-02,-2.071108967065811157e-01,2.463909536600112915e-01,1.162850111722946167e-01,-3.605692684650421143e-01,1.214416176080703735e-01,2.610785327851772308e-02,-9.314148128032684326e-02,-7.100048940628767014e-03,3.198666572570800781e-01,5.283474549651145935e-02,-8.806414902210235596e-02,1.193838715553283691e-01,-5.030443426221609116e-03,9.880926460027694702e-02,-1.565282344818115234e-01,-3.304485678672790527e-01,-5.239947140216827393e-02,1.417986676096916199e-02,2.651194334030151367e-01,3.876864016056060791e-01,-5.008602738380432129e-01,-4.419189319014549255e-02,-1.862246841192245483e-01,3.686786592006683350e-01,3.829088807106018066e-01,1.933816224336624146e-01,-3.810143768787384033e-01,-3.924307525157928467e-01,-3.921775519847869873e-01,1.176469922065734863e-01,1.405566465109586716e-03,-7.765692472457885742e-02,4.660886526107788086e-02,-3.078156113624572754e-01,1.760285720229148865e-02,1.071887239813804626e-01,-1.909087002277374268e-01,-8.277284502983093262e-01,2.522950172424316406e-01,-5.401306748390197754e-01,4.230326116085052490e-01,7.685886323451995850e-02,-1.716331243515014648e-01,6.751012057065963745e-02,-8.295343816280364990e-02
2.032660543918609619e-01,1.235355958342552185e-01,-5.300499498844146729e-02,-2.882126569747924805e-01,-1.760158985853195190e-01,1.786887496709823608e-01,2.218383401632308960e-01,1.183181926608085632e-01,-6.564122438430786133e-02,-2.036914080381393433e-01,-7.036157697439193726e-02,-3.782894611358642578e-01,-1.052048355340957642e-01,1.495808269828557968e-02,2.479137033224105835e-01,4.137891232967376709e-01,-8.747930824756622314e-02,3.117299079895019531e-01,-1.987612992525100708e-01,1.745693683624267578e-01,-1.743544265627861023e-02,-1.064147427678108215e-01,-2.210770361125469208e-02,-1.762148141860961914e-01,1.654710918664932251e-01,9.507250785827636719e-02,-2.905280292034149170e-01,1.255198568105697632e-01,-2.954776585102081299e-01,3.679026067256927490e-01,-4.783007875084877014e-02,-3.448417782783508301e-02,3.085345029830932617e-01,-1.758091896772384644e-01,-2.248039841651916504e-01,-8.995246887207031250e-02,-1.565402001142501831e-01,-9.337354451417922974e-02,-6.829903125762939453e-01,2.898077368736267090e-01,1.979926228523254395e-01,-2.349163638427853584e-03,9.600991010665893555e-02,-3.343302309513092041e-01,-1.233910955488681793e-02,-4.532003775238990784e-02,-9.643047302961349487e-02,-3.616417348384857178e-01,-4.820899069309234619e-01,-1.268642991781234741e-01,-2.850630581378936768e-01,-1.415752768516540527e-01,-6.723445653915405273e-02,3.441986143589019775e-01,2.676369845867156982e-01,-1.113243997097015381e-01,9.634788334369659424e-02,1.056925803422927856e-01,-2.678399085998535156e-01,-3.607735037803649902e-02,-1.732485294342041016e-01,3.313439786434173584e-01,1.537370234727859497e-01,-3.370455503463745117e-01,1.844312697649002075e-01,2.495128428563475609e-03,-2.534841597080230713e-01,8.293015956878662109e-01,-2.131433635950088501e-01,-1.031989604234695435e-01,-2.935685217380523682e-02,-2.780720293521881104e-01,4.703413695096969604e-02,1.437270641326904297e-01,9.801779687404632568e-02,-2.722756564617156982e-01,4.317001104354858398e-01,-6.901040673255920410e-02,-4.203434288501739502e-02,-5.947358906269073486e-02
2.359846085309982300e-01,-4.840460717678070068e-01,2.149014919996261597e-01,-3.912399709224700928e-02,-4.374620616436004639e-01,1.010605320334434509e-01,1.435202956199645996e-01,2.732772529125213623e-01,-6.786780059337615967e-02,-1.379402130842208862e-01,-3.045770823955535889e-01,1.592379361391067505e-01,1.856281235814094543e-02,-1.850701421499252319e-01,-1.758872717618942261e-01,1.336231082677841187e-01,2.059540003538131714e-01,1.664686948060989380e-01,1.710688322782516479e-01,-1.576839834451675415e-01,1.118315458297729492e-01,-2.868895530700683594e-01,-2.233684435486793518e-02,4.841071069240570068e-01,-3.195722401142120361e-02,7.740826904773712158e-02,1.731106638908386230e-01,-9.918318688869476318e-02,-3.318684697151184082e-01,2.192613780498504639e-01,-6.564593315124511719e-02,-7.455249875783920288e-02,3.508365899324417114e-02,-7.528165727853775024e-02,-1.492349505424499512e-01,-1.231788173317909241e-01,-3.413841873407363892e-02,-2.865348570048809052e-02,-8.599775284528732300e-02,2.209825813770294189e-01,-5.513845384120941162e-02,1.611747778952121735e-02,3.466675058007240295e-02,3.051663637161254883e-01,1.407042741775512695e-01,2.360907196998596191e-01,-6.349298357963562012e-02,-2.609973214566707611e-02,3.794424980878829956e-02,1.950413286685943604e-01,-3.215834870934486389e-02,-5.230419710278511047e-02,9.512283653020858765e-02,-1.763386726379394531e-01,1.372906416654586792e-01,-2.876721620559692383e-01,3.430318236351013184e-01,-8.324954658746719360e-02,2.272434234619140625e-01,3.648533225059509277e-01,3.699170947074890137e-01,-1.568185091018676758e-01,2.735255360603332520e-01,-1.038132831454277039e-01,-1.444577127695083618e-01,-3.842410445213317871e-01,-4.492856264114379883e-01,-2.601812481880187988e-01,1.393512040376663208e-01,-2.060825824737548828e-01,-2.696926593780517578e-01,7.117530703544616699e-02,-2.213332951068878174e-01,-1.213466674089431763e-01,-2.767722308635711670e-01,7.293500006198883057e-02,-2.038650512695312500e-01,-2.946960031986236572e-01,1.080658510327339172e-01,-1.357466261833906174e-02
-4.544593691825866699e-01,4.584709927439689636e-02,-1.256684213876724243e-01,1.709810346364974976e-01,-2.465123981237411499e-01,-8.993953466415405273e-02,-2.391488552093505859e-01,-2.018265128135681152e-01,3.520238101482391357e-01,1.348856836557388306e-01,1.356888413429260254e-01,-1.836913265287876129e-02,-2.936240732669830322e-01,3.964873850345611572e-01,2.348809689283370972e-01,5.966631174087524414e-01,-3.084016740322113037e-01,-2.595949172973632812e-01,1.326055526733398438e-01,2.514804899692535400e-01,-7.447993010282516479e-02,1.677991300821304321e-01,-7.668711245059967041e-03,-1.423398405313491821e-01,-4.116667211055755615e-01,-8.894406259059906006e-02,-4.852603375911712646e-02,-2.140411734580993652e-01,-6.071711704134941101e-02,-2.947032451629638672e-01,9.273238480091094971e-02,-8.614304661750793457e-02,-1.384419351816177368e-01,-2.690674364566802979e-01,-5.490556731820106506e-02,3.466079831123352051e-01,4.460782557725906372e-02,1.660151928663253784e-01,9.932322800159454346e-02,-2.108723372220993042e-01,3.769972920417785645e-01,-5.613346099853515625e-01,-1.944280713796615601e-01,-4.027483165264129639e-01,-4.070870280265808105e-01,3.522975742816925049e-01,-9.256480634212493896e-02,-1.645756214857101440e-01,1.807823032140731812e-02,-2.003819346427917480e-01,-8.566778898239135742e-02,2.097321897745132446e-01,2.199370414018630981e-01,-1.304852664470672607e-01,-4.501775205135345459e-01,1.751798987388610840e-01,-5.857009068131446838e-02,-7.383318245410919189e-02,-3.495089709758758545e-01,2.564069330692291260e-01,2.484377622604370117e-01,-5.457967519760131836e-02,1.185604855418205261e-01,2.570220232009887695e-01,-2.953138351440429688e-01,2.626901865005493164e-01,-2.455218136310577393e-01,-3.471446782350540161e-02,2.330405414104461670e-01,1.683729737997055054e-01,-9.878077358007431030e-02,4.658189043402671814e-02,-6.857714802026748657e-02,7.186677306890487671e-02,4.864820241928100586e-01,-4.575912654399871826e-01,1.239019781351089478e-01,-1.098637804388999939e-01,-3.475055992603302002e-01,-2.713757455348968506e-01
-6.629727780818939209e-03,6.974940001964569092e-02,-1.385916024446487427e-01,3.398807020857930183e-04,2.953028380870819092e-01,-2.313065975904464722e-01,-1.148164570331573486e-01,2.447728216648101807e-01,-3.747209906578063965e-01,3.547909557819366455e-01,-2.947492599487304688e-01,-9.803698398172855377e-03,-4.902876913547515869e-01,-2.383925020694732666e-01,-3.220700323581695557e-01,2.158628106117248535e-01,-3.277826309204101562e-01,-7.810696959495544434e-01,-3.408809006214141846e-01,3.413302823901176453e-02,-3.405390977859497070e-01,4.452922046184539795e-01,2.488122433423995972e-01,-1.197490617632865906e-01,9.564892202615737915e-02,9.485228359699249268e-02,2.065164446830749512e-01,2.610324323177337646e-01,6.083351746201515198e-02,-5.105099827051162720e-02,1.026721484959125519e-02,5.752651765942573547e-02,-1.448073685169219971e-01,-5.169361233711242676e-01,-2.639367245137691498e-02,-2.287413477897644043e-01,1.351568996906280518e-01,-2.827981114387512207e-02,-2.080500125885009766e-01,1.672192364931106567e-01,-3.697858452796936035e-01,2.923799306154251099e-02,-1.527717709541320801e-01,-1.732196658849716187e-01,7.423148956149816513e-03,1.686907410621643066e-01,1.189903169870376587e-01,-2.745772600173950195e-01,2.891448140144348145e-01,-1.490237265825271606e-01,-1.245344728231430054e-01,-1.783126741647720337e-01,2.438168674707412720e-01,4.433064535260200500e-02,5.170547217130661011e-02,9.524428844451904297e-02,-3.836795687675476074e-01,-3.949351143091917038e-03,2.090400606393814087e-01,-3.887027800083160400e-01,-2.431515157222747803e-01,-1.631222665309906006e-01,3.111577033996582031e-01,3.382400572299957275e-01,-8.360658586025238037e-02,2.712244093418121338e-01,-3.933723084628582001e-03,2.795571684837341309e-01,3.445453047752380371e-01,2.117173187434673309e-02,-3.167361486703157425e-03,2.177650183439254761e-01,-1.997326910495758057e-01,1.036558970808982849e-01,-2.997683584690093994e-01,-5.607877969741821289e-01,1.092771664261817932e-01,-1.731023192405700684e-01,2.614302337169647217e-01,1.492284834384918213e-01
1.701517850160598755e-01,3.257273733615875244e-01,1.274377703666687012e-01,9.349610656499862671e-03,-1.898959577083587646e-01,-4.496959224343299866e-02,-3.406860232353210449e-01,-5.318213999271392822e-02,-1.663333475589752197e-01,2.368337363004684448e-01,5.278854966163635254e-01,2.017251849174499512e-01,1.409257948398590088e-01,-4.386762380599975586e-01,-2.715561985969543457e-01,2.100814878940582275e-01,-3.813062906265258789e-01,-3.982413113117218018e-01,-1.786143779754638672e-01,-2.458155602216720581e-01,1.160327941179275513e-01,1.558852195739746094e-01,9.670323133468627930e-02,-1.081743612885475159e-01,-1.545552071183919907e-02,-1.496827304363250732e-01,3.080950491130352020e-02,1.095914393663406372e-01,-5.108943954110145569e-02,-4.183613061904907227e-01,-1.664017438888549805e-01,-4.627569578588008881e-03,-7.608759216964244843e-03,-1.147102750837802887e-02,-3.954865038394927979e-01,-8.960525505244731903e-03,8.066789805889129639e-02,3.242308795452117920e-01,1.809320896863937378e-01,-5.042326450347900391e-01,7.401804625988006592e-02,-4.253516346216201782e-02,7.151078432798385620e-02,-1.627619564533233643e-01,-2.826264202594757080e-01,-2.846464514732360840e-01,1.143378838896751404e-01,-3.501355648040771484e-01,-3.865413069725036621e-01,3.066580593585968018e-01,5.132528543472290039e-01,1.054479628801345825e-01,-4.503680020570755005e-02,1.764684100635349751e-03,-5.225074291229248047e-01,4.643545746803283691e-01,1.696359068155288696e-01,-3.963446021080017090e-01,-3.462463617324829102e-01,-3.062135279178619385e-01,1.913073062896728516e-01,7.384904474020004272e-02,2.734534442424774170e-01,5.271356105804443359e-01,-7.987520657479763031e-03,-2.557842433452606201e-01,1.558336466550827026e-01,-5.999174434691667557e-03,3.427980542182922363e-01,4.655623137950897217e-01,-2.732901275157928467e-01,-5.019085854291915894e-02,-1.215365678071975708e-01,-1.920338571071624756e-01,-2.555031180381774902e-01,-1.605569273233413696e-01,3.763601481914520264e-01,4.084778726100921631e-01,1.897414028644561768e-01,-1.003852114081382751e-01
2.368810176849365234e-01,-2.726980447769165039e-01,-4.753207266330718994e-01,-2.912362217903137207e-01,-2.193763405084609985e-01,1.420753076672554016e-02,-2.362047731876373291e-01,7.969447970390319824e-02,-2.980381846427917480e-01,8.822149783372879028e-02,-2.138258703052997589e-02,-1.375003904104232788e-01,-1.780755221843719482e-01,-1.983849108219146729e-01,-8.087881840765476227e-03,-3.556514680385589600e-01,-2.170610576868057251e-01,-9.684229642152786255e-02,-1.581360995769500732e-01,2.184269875288009644e-01,-9.964990615844726562e-02,1.393008828163146973e-01,-1.053775921463966370e-01,-3.053658455610275269e-02,2.492340952157974243e-01,-5.898689385503530502e-03,-2.702088356018066406e-01,-2.662659063935279846e-02,-1.718597859144210815e-01,3.737480342388153076e-01,-2.807580828666687012e-01,2.926181852817535400e-01,6.844871491193771362e-02,-1.536567211151123047e-01,2.334090173244476318e-01,-7.454868555068969727e-01,-1.745167225599288940e-01,1.921309828758239746e-01,2.573790214955806732e-02,-3.275170689448714256e-03,3.678232058882713318e-02,-1.394095122814178467e-01,-2.235680446028709412e-02,8.304749429225921631e-02,-7.668767869472503662e-02,-3.087473511695861816e-01,5.250451564788818359e-01,-4.464788734912872314e-01,3.410390615463256836e-01,2.590202689170837402e-01,4.455871284008026123e-01,-3.983170092105865479e-01,-1.587827503681182861e-01,3.103384077548980713e-01,-1.904233731329441071e-02,4.359329491853713989e-02,-6.216882169246673584e-02,-3.681432604789733887e-01,1.770420968532562256e-01,1.738451234996318817e-02,1.400721967220306396e-01,7.298092544078826904e-02,1.337009817361831665e-01,-3.323743045330047607e-01,-4.142469912767410278e-02,-3.546566367149353027e-01,1.922832280397415161e-01,-3.920075893402099609e-01,3.501271903514862061e-01,2.003577351570129395e-01,3.889889717102050781e-01,-9.013271331787109375e-02,-8.816795423626899719e-03,-5.377493053674697876e-02,-1.557990461587905884e-01,-6.134507656097412109e-01,-1.394148766994476318e-01,-2.670224569737911224e-02,-2.436263859272003174e-01,1.270818263292312622e-01
-1.145114600658416748e-01,4.192998707294464111e-01,2.346283346414566040e-01,1.749541051685810089e-02,-4.738669693470001221e-01,6.699573248624801636e-02,-1.055567637085914612e-01,-5.288784503936767578e-01,-2.343926765024662018e-02,5.785371735692024231e-02,-1.541449576616287231e-01,3.253960311412811279e-01,-2.759491205215454102e-01,4.791235178709030151e-02,-1.149199679493904114e-01,-1.423131525516510010e-01,-7.595247030258178711e-02,1.790952384471893311e-01,-1.012426838278770447e-01,1.585350632667541504e-01,1.335597783327102661e-01,-2.845475673675537109e-01,4.832320660352706909e-02,-9.665248543024063110e-02,2.156566269695758820e-02,-3.776227831840515137e-01,-5.215672850608825684e-01,6.673560012131929398e-03,-4.590834081172943115e-01,-4.490182548761367798e-02,-2.276327759027481079e-01,-1.995372921228408813e-01,2.933097817003726959e-02,2.939467728137969971e-01,-3.496737182140350342e-01,1.689841747283935547e-01,-5.428757667541503906e-01,1.432313621044158936e-01,1.249015107750892639e-01,4.919538795948028564e-01,1.037991344928741455e-01,2.460923194885253906e-01,-5.049068927764892578e-01,4.158064424991607666e-01,2.797725200653076172e-01,-5.591754615306854248e-02,-2.573484778404235840e-01,-6.066426038742065430e-01,4.479945003986358643e-01,1.590658724308013916e-02,5.643559694290161133e-01,2.351706475019454956e-01,-2.172053903341293335e-01,4.154688492417335510e-02,-2.981893904507160187e-02,-1.419346928596496582e-01,-8.260821551084518433e-02,-2.457401007413864136e-01,4.604551568627357483e-02,-4.213277623057365417e-02,-1.126811727881431580e-01,-1.211356818675994873e-01,-3.343203663825988770e-02,3.235006034374237061e-01,5.569223314523696899e-02,-5.375830531120300293e-01,-3.165211975574493408e-01,3.047504425048828125e-01,9.676069021224975586e-02,3.577068820595741272e-02,-3.326622769236564636e-02,3.696521818637847900e-01,3.463420569896697998e-01,-4.298562109470367432e-01,-1.445453613996505737e-01,2.416619211435317993e-01,-2.648768424987792969e-01,5.664614960551261902e-02,-1.205759271979331970e-01,-9.449963457882404327e-03
1.003738585859537125e-02,-1.762285381555557251e-01,1.593081951141357422e-01,-4.936942830681800842e-02,-2.518988959491252899e-02,-4.824609309434890747e-02,-9.477801620960235596e-02,3.994638100266456604e-03,-2.738876938819885254e-01,2.672778964042663574e-01,3.745918571949005127e-01,2.121140062808990479e-01,1.633245944976806641e-01,-1.784756183624267578e-01,-1.344592683017253876e-02,6.469860672950744629e-02,-3.165931701660156250e-01,1.666783392429351807e-01,-4.656262695789337158e-01,4.896110594272613525e-01,1.171297281980514526e-01,-3.602234125137329102e-01,5.600764229893684387e-02,-3.167692422866821289e-01,1.147082149982452393e-01,-1.633339524269104004e-01,-1.212232708930969238e-01,-1.783585101366043091e-01,9.893034398555755615e-02,-3.079433552920818329e-02,-9.833844006061553955e-02,-2.082802504301071167e-01,1.052907295525074005e-02,-5.600796639919281006e-02,1.136353909969329834e-01,2.115099877119064331e-02,1.859004944562911987e-01,7.623416781425476074e-01,-1.220728158950805664e-01,-2.100630551576614380e-01,4.042999148368835449e-01,-1.434063017368316650e-01,1.985334903001785278e-01,2.295801639556884766e-01,3.948656376451253891e-03,-5.969958752393722534e-02,1.307764649391174316e-01,-2.249145507812500000e-01,6.592854261398315430e-01,1.593510657548904419e-01,2.588003873825073242e-01,-4.065450746566057205e-03,-2.546725571155548096e-01,4.560653492808341980e-02,2.094959467649459839e-01,1.839814335107803345e-01,-4.101878106594085693e-01,5.220234394073486328e-01,1.100937351584434509e-01,4.654714092612266541e-02,-1.518940329551696777e-01,-3.298006057739257812e-01,-1.910451799631118774e-01,-1.455749571323394775e-01,2.632156312465667725e-01,1.610907465219497681e-01,-1.230503171682357788e-01,4.744682088494300842e-02,8.959678560495376587e-02,2.305802106857299805e-01,2.630859017372131348e-01,3.770724236965179443e-01,-7.334279417991638184e-01,8.856426924467086792e-02,-3.740004599094390869e-01,9.156601503491401672e-03,-6.845083236694335938e-01,-1.620785892009735107e-01,4.296986460685729980e-01,-1.674854159355163574e-01
4.748243987560272217e-01,2.502034008502960205e-01,5.824290513992309570e-01,-7.956752553582191467e-03,1.984875798225402832e-01,-2.230524122714996338e-01,-3.396266698837280273e-01,1.134331747889518738e-01,2.665075361728668213e-01,3.840841352939605713e-02,-2.689945399761199951e-01,-2.802592329680919647e-02,2.215673923492431641e-01,-4.810193181037902832e-01,-3.733730614185333252e-01,1.235132515430450439e-01,-4.263123273849487305e-01,7.698158919811248779e-02,-2.916570380330085754e-02,3.271734416484832764e-01,1.756202727556228638e-01,-9.928653389215469360e-02,2.631246447563171387e-01,-5.694967135787010193e-02,-3.175445795059204102e-01,-3.286044597625732422e-01,1.632863283157348633e-01,8.227161318063735962e-02,-5.664592236280441284e-02,-3.294549584388732910e-01,8.742175251245498657e-02,5.452169477939605713e-02,5.379904434084892273e-02,3.487710654735565186e-02,-2.117314189672470093e-02,-1.117712482810020447e-01,-3.280726373195648193e-01,-2.825736068189144135e-02,-1.838802546262741089e-01,-4.734434187412261963e-02,-1.385342627763748169e-01,-4.077262282371520996e-01,1.495218724012374878e-01,3.165343776345252991e-02,4.907441139221191406e-01,5.536035075783729553e-02,-2.145667523145675659e-01,4.895758330821990967e-01,-9.357772767543792725e-03,3.981333673000335693e-01,-3.674133419990539551e-01,6.427901238203048706e-02,3.187220990657806396e-01,7.670430094003677368e-02,6.370145361870527267e-03,1.559773087501525879e-01,1.627407521009445190e-01,9.777268022298812866e-02,1.805661618709564209e-01,1.600455641746520996e-01,9.438330680131912231e-02,5.112977623939514160e-01,-1.672729849815368652e-01,-2.553696045652031898e-03,-5.489237308502197266e-01,5.987674742937088013e-02,-2.820818424224853516e-01,5.781651139259338379e-01,4.786744713783264160e-02,-4.356472492218017578e-01,9.986194968223571777e-02,-4.617919623851776123e-01,-1.900706738233566284e-01,1.700350791215896606e-01,-3.475480675697326660e-01,-6.278982758522033691e-02,5.993593111634254456e-02,-1.235656887292861938e-01,-1.783402562141418457e-01,1.067170314490795135e-02
6.683471798896789551e-02,-2.488145045936107635e-02,3.761972188949584961e-01,-1.314863413572311401e-01,1.720308512449264526e-01,8.358453959226608276e-02,-1.618449985980987549e-01,2.963013947010040283e-01,-3.720280155539512634e-02,-1.809058152139186859e-02,-3.430820107460021973e-01,1.353753614239394665e-03,1.071931719779968262e-01,-1.038695350289344788e-01,1.836327314376831055e-01,-1.675983816385269165e-01,-8.688727021217346191e-02,9.536689519882202148e-02,-6.082461774349212646e-02,-4.659119546413421631e-01,-4.960148409008979797e-02,-7.743567228317260742e-02,7.550669908523559570e-01,-1.133541986346244812e-01,4.622487425804138184e-01,2.990024983882904053e-01,5.619680508971214294e-02,-7.973188185133039951e-04,-1.633575707674026489e-01,-6.812069565057754517e-02,4.346982017159461975e-02,-2.582113146781921387e-01,-4.712049663066864014e-01,-2.415869198739528656e-02,2.871264517307281494e-01,-1.912420690059661865e-01,-2.050725370645523071e-01,2.080278545618057251e-01,-4.071361720561981201e-01,9.873584657907485962e-02,-5.149919167160987854e-02,1.147979572415351868e-01,3.051546402275562286e-02,3.260810673236846924e-01,-3.574456274509429932e-01,-1.301041692495346069e-01,5.884795188903808594e-01,-2.144706696271896362e-01,4.528187513351440430e-01,-2.029718905687332153e-01,-4.965841770172119141e-02,9.057635813951492310e-02,-8.484692126512527466e-02,2.207325696945190430e-01,3.927697241306304932e-01,-2.379760593175888062e-01,4.795942902565002441e-01,-2.405768632888793945e-01,2.034308314323425293e-01,1.779768019914627075e-01,-4.429080337285995483e-02,-1.091917455196380615e-01,-3.129711747169494629e-01,-1.210429295897483826e-01,3.300763294100761414e-02,4.488896429538726807e-01,1.411579102277755737e-01,8.925119787454605103e-02,-1.084558144211769104e-01,9.142806380987167358e-02,-1.939601153135299683e-01,2.079136855900287628e-02,2.350235432386398315e-01,-8.253227174282073975e-02,-5.074208136647939682e-03,1.413763314485549927e-01,-5.762245059013366699e-01,5.726606771349906921e-02,1.032619401812553406e-01,2.408455312252044678e-01
2.774690091609954834e-01,5.813372787088155746e-03,1.298757921904325485e-02,1.081402450799942017e-01,-1.008120849728584290e-01,1.925825327634811401e-01,-1.296847760677337646e-01,4.761990010738372803e-01,-2.011855244636535645e-01,-3.279525339603424072e-01,5.516058206558227539e-01,-2.244396656751632690e-01,1.972312182188034058e-01,-2.512356042861938477e-01,5.635048449039459229e-02,5.128237009048461914e-01,4.278779625892639160e-01,1.871227920055389404e-01,-2.953099906444549561e-01,-5.294795632362365723e-01,-1.642248779535293579e-01,6.926421541720628738e-03,2.951893508434295654e-01,-2.263384461402893066e-01,-6.747089624404907227e-01,7.869530469179153442e-02,-1.251691132783889771e-01,2.766914851963520050e-02,3.337972760200500488e-01,-3.330184891819953918e-02,-1.009060218930244446e-01,3.211984634399414062e-01,6.434528622776269913e-03,1.222316846251487732e-01,2.194555550813674927e-01,5.097081065177917480e-01,-2.433676868677139282e-01,-1.298019140958786011e-01,3.012216766364872456e-04,-1.695485860109329224e-01,-1.119397729635238647e-01,-2.331693023443222046e-01,-1.624404639005661011e-01,-1.843638718128204346e-01,-1.945418417453765869e-01,3.386011719703674316e-01,2.294051349163055420e-01,-1.844381392002105713e-01,1.111118048429489136e-01,1.711811311542987823e-02,2.171984165906906128e-01,-1.759102642536163330e-01,-2.046036571264266968e-01,-1.586163341999053955e-01,3.797790408134460449e-01,-2.707186639308929443e-01,-6.703019142150878906e-02,7.415316253900527954e-02,4.504883885383605957e-01,3.635909557342529297e-01,-1.439599245786666870e-01,1.387480944395065308e-01,-1.758344322443008423e-01,8.508156239986419678e-02,6.623173505067825317e-02,-1.079645678400993347e-01,-2.145744711160659790e-01,-1.195320487022399902e-01,3.611099123954772949e-01,2.126638405025005341e-02,4.240843057632446289e-01,-1.165433749556541443e-01,-4.918975532054901123e-01,-8.445836603641510010e-02,-1.247757300734519958e-01,3.199405074119567871e-01,1.166274696588516235e-01,-1.487603485584259033e-01,1.216242313385009766e-01,4.427519738674163818e-01
1.772409677505493164e-01,1.647085547447204590e-01,-9.165675044059753418e-01,-3.243050277233123779e-01,1.089929118752479553e-01,2.125724405050277710e-01,-6.458080559968948364e-02,-1.190947219729423523e-01,-5.132570004207082093e-05,-1.837815344333648682e-01,-7.942483574151992798e-02,-2.066771090030670166e-01,-8.926182240247726440e-02,1.408121138811111450e-01,-4.121092855930328369e-01,-3.129919990897178650e-02,-3.263373374938964844e-01,1.663360595703125000e-01,-7.420405000448226929e-02,2.526032924652099609e-01,-8.759991079568862915e-02,-5.318911001086235046e-02,4.621615409851074219e-01,1.193818598985671997e-01,-4.155968427658081055e-01,-2.016261518001556396e-01,-8.155358582735061646e-02,3.009291291236877441e-01,2.486631125211715698e-01,1.505657434463500977e-01,-1.101423203945159912e-01,-2.255211621522903442e-01,6.013395786285400391e-01,-1.843722611665725708e-01,1.180995702743530273e-01,1.667155474424362183e-01,1.041738912463188171e-01,2.387423068284988403e-01,-5.699622035026550293e-01,-5.297940969467163086e-02,-1.936373114585876465e-01,-3.116592764854431152e-01,-1.642183214426040649e-01,3.467119336128234863e-01,-4.883534461259841919e-02,4.462081473320722580e-03,-2.407090067863464355e-01,-7.741651684045791626e-02,-3.108726441860198975e-02,-2.168587222695350647e-02,-1.169892549514770508e-01,-3.787815943360328674e-02,1.550470590591430664e-01,2.873504757881164551e-01,4.282019436359405518e-01,-4.035143181681632996e-02,4.673961102962493896e-01,2.569907307624816895e-01,1.570924744009971619e-02,-4.252708256244659424e-01,-2.509629726409912109e-01,1.049473062157630920e-01,3.239767551422119141e-01,2.019285559654235840e-01,-2.257955223321914673e-01,-2.535923421382904053e-01,-5.597156882286071777e-01,2.105823904275894165e-01,-7.653021812438964844e-02,1.588869690895080566e-01,-5.829642713069915771e-02,1.773422211408615112e-01,-2.557922005653381348e-01,2.362783700227737427e-01,5.838921070098876953e-01,-1.786358505487442017e-01,-4.878694564104080200e-02,3.310934305191040039e-01,-2.704615145921707153e-02,1.292604357004165649e-01
-5.921183228492736816e-01,-4.090535938739776611e-01,3.745183646678924561e-01,-2.159655094146728516e-01,-3.746298551559448242e-01,2.938390672206878662e-01,1.911877095699310303e-01,3.852513432502746582e-01,7.034806907176971436e-02,-2.538591623306274414e-01,-1.760223805904388428e-01,1.575073897838592529e-01,2.030056156218051910e-02,-3.646283447742462158e-01,1.693474948406219482e-01,-3.107560873031616211e-01,1.297804862260818481e-01,1.181600317358970642e-01,1.550943553447723389e-01,1.480126231908798218e-01,-1.008832454681396484e-01,1.419488489627838135e-01,1.673731952905654907e-01,-1.313314288854598999e-01,-1.201130896806716919e-01,3.225965425372123718e-02,4.393535554409027100e-01,-9.493111819028854370e-02,-2.237512916326522827e-01,-4.978207126259803772e-02,-1.288764774799346924e-01,-2.249924987554550171e-01,-1.340528726577758789e-01,4.645824730396270752e-01,1.686922758817672729e-01,4.311315715312957764e-01,-1.222892180085182190e-01,4.333036243915557861e-01,-2.716113626956939697e-01,7.315753400325775146e-02,1.059032678604125977e-01,3.897018730640411377e-01,9.649257361888885498e-02,2.335759252309799194e-01,-5.106032490730285645e-01,5.008147284388542175e-02,-8.423418551683425903e-02,3.969587981700897217e-01,-4.492459446191787720e-02,-3.223553299903869629e-01,4.830873608589172363e-01,1.280545592308044434e-01,2.181645631790161133e-01,2.915292382240295410e-01,-3.336901664733886719e-01,-1.279380768537521362e-01,3.567823171615600586e-01,-4.384251832962036133e-01,1.313512027263641357e-01,-5.889789387583732605e-02,-2.634808421134948730e-02,-6.293341517448425293e-02,-6.096836328506469727e-01,-1.694455891847610474e-01,1.115598827600479126e-01,3.750318661332130432e-02,4.402781426906585693e-01,4.555512964725494385e-01,-7.532698102295398712e-03,3.691923916339874268e-01,-1.563242226839065552e-01,1.121023222804069519e-01,1.504064798355102539e-01,-2.502955794334411621e-01,3.623960614204406738e-01,7.757702469825744629e-02,-1.472481191158294678e-01,2.307024002075195312e-01,-2.183656394481658936e-01,-1.158402413129806519e-01
-4.639261662960052490e-01,2.826509438455104828e-02,7.680471520870923996e-03,-5.538311597774736583e-05,2.822147309780120850e-01,-4.097059965133666992e-01,3.881894052028656006e-01,-1.439754068851470947e-01,-1.399502456188201904e-01,-2.434368990361690521e-02,7.115626335144042969e-02,6.521419435739517212e-02,1.462571769952774048e-01,7.934337109327316284e-02,4.445380568504333496e-01,1.680215001106262207e-01,-1.125256344676017761e-01,-1.279332190752029419e-01,1.279457658529281616e-01,-1.349416971206665039e-01,-6.688334792852401733e-02,6.016269922256469727e-01,3.075833022594451904e-01,2.525689899921417236e-01,-8.206300437450408936e-02,2.753520384430885315e-02,4.549944400787353516e-01,-7.597494870424270630e-02,-8.744814246892929077e-02,8.539605140686035156e-02,3.592502325773239136e-02,-2.090209871530532837e-01,3.279718011617660522e-02,-8.208310604095458984e-02,-3.349306527525186539e-03,-1.438018828630447388e-01,-1.119948253035545349e-01,1.491976082324981689e-01,-6.004912257194519043e-01,3.146102428436279297e-01,-4.357415139675140381e-01,1.280011832714080811e-01,3.108678758144378662e-01,-1.667816191911697388e-01,1.573603972792625427e-02,1.449067592620849609e-01,3.255346417427062988e-01,-1.380503922700881958e-01,-1.563543379306793213e-01,1.474885363131761551e-02,3.610646426677703857e-01,2.225068509578704834e-01,2.959826216101646423e-02,-4.599212482571601868e-02,3.605795204639434814e-01,-3.070369660854339600e-01,-7.914925366640090942e-02,-2.388858199119567871e-01,1.651020050048828125e-01,1.807305514812469482e-01,-1.666790992021560669e-01,1.582984179258346558e-01,4.419683665037155151e-02,-4.446945488452911377e-01,8.602055162191390991e-02,2.054590582847595215e-01,1.149442419409751892e-01,3.701921552419662476e-02,3.491508960723876953e-01,-2.471326142549514771e-01,1.673646271228790283e-01,-9.468426555395126343e-02,-4.353410378098487854e-02,3.784970641136169434e-01,3.478951752185821533e-01,6.370131373405456543e-01,-3.262405395507812500e-01,-3.292239457368850708e-02,2.569652795791625977e-01,-2.951197028160095215e-01
-5.379549786448478699e-02,2.666394710540771484e-01,1.497967094182968140e-01,1.443253308534622192e-01,-1.804844737052917480e-01,3.163668513298034668e-01,-2.445179820060729980e-01,2.047837823629379272e-01,8.927835524082183838e-02,3.489772677421569824e-01,-6.399612128734588623e-02,-1.408834755420684814e-01,-9.116649627685546875e-02,3.235958218574523926e-01,3.790662288665771484e-01,-5.389571655541658401e-03,2.728029787540435791e-01,-1.963200792670249939e-02,-4.262885153293609619e-01,-3.357472419738769531e-01,2.440879195928573608e-01,-4.124323427677154541e-01,-4.607307016849517822e-01,-4.120057523250579834e-01,1.939548552036285400e-01,-2.559488713741302490e-01,-1.563799828290939331e-01,8.246779441833496094e-02,9.006386995315551758e-02,1.657982766628265381e-01,-3.459622263908386230e-01,-3.208006918430328369e-01,-1.219086125493049622e-01,3.123380541801452637e-01,1.126777902245521545e-01,2.627144455909729004e-01,-1.834273487329483032e-01,3.593938052654266357e-01,6.532117724418640137e-02,7.527453452348709106e-02,-1.885140538215637207e-01,-7.998670637607574463e-02,2.344999313354492188e-01,9.960239380598068237e-02,4.287696629762649536e-02,-3.351658582687377930e-01,-2.899212241172790527e-01,4.965337216854095459e-01,2.372822016477584839e-01,-2.545226514339447021e-01,1.306366175413131714e-01,1.033233925700187683e-01,-1.657724380493164062e-01,-2.272334545850753784e-01,3.149672597646713257e-02,-1.365837007761001587e-01,-1.044216845184564590e-02,-6.209873557090759277e-01,-8.368693292140960693e-02,-3.069344758987426758e-01,-1.693008281290531158e-02,-4.108678996562957764e-01,-2.254369854927062988e-01,-2.864256799221038818e-01,-6.761197745800018311e-02,-2.753220796585083008e-01,8.975113928318023682e-02,8.334211260080337524e-02,5.492492578923702240e-03,4.622086510062217712e-02,-1.856522411108016968e-01,2.789655141532421112e-02,4.049812257289886475e-02,-2.445699274539947510e-01,2.638003528118133545e-01,-3.822503611445426941e-02,-4.028309881687164307e-01,1.551814973354339600e-01,-5.792142748832702637e-01,-5.874081254005432129e-01
1.407731473445892334e-01,-1.289419233798980713e-01,-3.863804787397384644e-02,1.675600558519363403e-02,1.780087798833847046e-01,2.027988433837890625e-01,3.167565166950225830e-01,-1.410405933856964111e-01,-2.065648511052131653e-02,-5.428901687264442444e-02,-1.789119541645050049e-01,1.180531457066535950e-02,-1.803802251815795898e-01,3.567524999380111694e-02,2.401620745658874512e-01,-3.159277439117431641e-01,1.144260913133621216e-01,-2.041242122650146484e-01,2.384556680917739868e-01,-4.941126704216003418e-02,-1.880258023738861084e-01,2.245659381151199341e-01,1.294975876808166504e-01,-1.057156175374984741e-01,-6.525725126266479492e-02,-2.095801569521427155e-02,2.664079666137695312e-01,-2.849590480327606201e-01,-5.282546579837799072e-02,-1.494757831096649170e-01,-3.772383928298950195e-01,-5.259841084480285645e-01,-1.797909289598464966e-01,-2.243221998214721680e-01,-3.584533333778381348e-01,6.159608364105224609e-01,2.477978914976119995e-01,2.405905276536941528e-01,4.574964940547943115e-02,4.866734743118286133e-01,-2.028698027133941650e-01,6.715743541717529297e-01,-9.004453569650650024e-02,1.069844216108322144e-01,1.327378153800964355e-01,3.392929211258888245e-03,-3.267562389373779297e-01,-8.118737488985061646e-02,1.433445066213607788e-01,-2.159555852413177490e-01,-6.537351757287979126e-02,-1.857046037912368774e-01,3.637194633483886719e-01,-4.626066610217094421e-02,-1.153170242905616760e-01,1.394833922386169434e-01,-1.502746948972344398e-03,1.697898209095001221e-01,-5.796466767787933350e-02,3.817713586613535881e-03,8.190738409757614136e-02,-2.132552862167358398e-02,1.268325001001358032e-01,6.700225174427032471e-02,1.397871673107147217e-01,7.922828942537307739e-02,-1.982565969228744507e-02,1.565683782100677490e-01,-1.141316220164299011e-01,3.234308958053588867e-02,1.145724207162857056e-01,8.499877154827117920e-02,-7.946783304214477539e-02,-3.237468004226684570e-01,2.213749587535858154e-01,-2.536761164665222168e-01,8.330911397933959961e-02,-4.926460236310958862e-02,-1.556171327829360962e-01,-4.039077758789062500e-01
-2.264302372932434082e-01,-2.905812263488769531e-01,2.538879513740539551e-01,-1.186017766594886780e-01,-1.759926676750183105e-01,-3.065308928489685059e-01,-1.877403110265731812e-01,-5.883145332336425781e-02,-4.044871330261230469e-01,2.502511441707611084e-01,4.361064359545707703e-02,4.183275699615478516e-01,1.087173596024513245e-01,-1.025480031967163086e-01,4.671675264835357666e-01,1.441781520843505859e-01,-7.731046527624130249e-02,-1.311596184968948364e-01,-1.816042810678482056e-01,-9.280468523502349854e-02,-3.518407940864562988e-01,1.649207919836044312e-01,1.011546999216079712e-01,1.824495494365692139e-01,2.686922848224639893e-01,-2.327027320861816406e-01,-1.655590683221817017e-01,-5.513811111450195312e-01,-8.745429664850234985e-02,-5.412879213690757751e-02,-2.172056138515472412e-01,-3.281419575214385986e-01,1.023407950997352600e-01,1.199492141604423523e-01,1.354122161865234375e-01,1.633809953927993774e-01,2.673251926898956299e-01,2.014984637498855591e-01,3.074992001056671143e-01,-2.715095281600952148e-01,-3.102086186408996582e-01,5.725763440132141113e-01,1.680198162794113159e-01,4.304749667644500732e-01,-1.620226949453353882e-01,-2.214181125164031982e-01,3.047888278961181641e-01,1.155835539102554321e-01,-2.430832982063293457e-01,-2.930420450866222382e-02,3.245268762111663818e-02,-2.096687108278274536e-01,9.242372959852218628e-02,5.424068570137023926e-01,1.349457446485757828e-02,2.710592448711395264e-01,1.327797919511795044e-01,-2.559246420860290527e-01,-1.680507808923721313e-01,2.246721833944320679e-01,-7.341656088829040527e-02,-2.987435758113861084e-01,2.507104873657226562e-01,2.770790159702301025e-01,2.364753782749176025e-01,6.749490648508071899e-02,2.674756050109863281e-01,2.414335608482360840e-01,1.888898164033889771e-01,2.369602322578430176e-01,-2.605703175067901611e-01,-2.818678319454193115e-01,2.056728750467300415e-01,7.088408805429935455e-03,-5.484567955136299133e-02,-2.036865055561065674e-01,-2.235399559140205383e-02,-6.755827367305755615e-02,1.239339187741279602e-01,-1.401687134057283401e-02
1.850059181451797485e-01,-1.534013450145721436e-01,-3.160026669502258301e-01,-4.615807160735130310e-02,-9.769284725189208984e-02,3.925783634185791016e-01,-2.313975840806961060e-01,4.825375378131866455e-01,-8.639646321535110474e-02,1.407182663679122925e-01,-5.392838716506958008e-01,1.420053541660308838e-01,7.755053043365478516e-02,3.768787980079650879e-01,4.289520904421806335e-02,-4.076511859893798828e-01,-1.500115543603897095e-02,-3.874169588088989258e-01,4.167771637439727783e-01,-1.067048404365777969e-02,1.032611057162284851e-01,-3.309239447116851807e-01,-2.223568502813577652e-03,-2.266107797622680664e-01,-1.286841928958892822e-02,7.511013001203536987e-02,1.801874674856662750e-02,-2.900569736957550049e-01,-3.536135256290435791e-01,-8.083366602659225464e-02,-6.675690878182649612e-03,-1.720486432313919067e-01,3.810559213161468506e-01,3.285810947418212891e-01,-3.862527199089527130e-03,-4.343170821666717529e-01,-1.874883770942687988e-01,6.539158523082733154e-02,4.102693200111389160e-01,-3.563034534454345703e-01,-4.207670688629150391e-02,4.769834876060485840e-02,-1.097930669784545898e-01,-3.768746852874755859e-01,1.624300181865692139e-01,-4.367996007204055786e-03,-2.228438854217529297e-01,-3.576719462871551514e-01,-1.521303802728652954e-01,2.510488033294677734e-01,-2.518191039562225342e-01,-2.044430971145629883e-01,-1.455463618040084839e-01,3.651710227131843567e-02,2.737910151481628418e-01,-1.235677897930145264e-01,7.466746866703033447e-02,1.921455748379230499e-02,-4.012855514883995056e-02,4.366860687732696533e-01,1.214774791151285172e-02,-8.793124556541442871e-02,3.653285503387451172e-01,6.244186684489250183e-02,-8.520573377609252930e-02,6.717550009489059448e-02,4.338791966438293457e-01,-6.358954310417175293e-02,2.508704364299774170e-02,-2.874316573143005371e-01,4.289259761571884155e-02,-2.413936406373977661e-01,-2.287378162145614624e-01,-3.645926713943481445e-01,-4.408964216709136963e-01,2.766441702842712402e-01,5.148709565401077271e-02,3.717351472005248070e-03,-2.893540263175964355e-01,3.424844443798065186e-01
-4.733964800834655762e-02,1.082016453146934509e-01,-1.548072695732116699e-01,-9.396713972091674805e-02,-4.171251952648162842e-01,2.262575328350067139e-01,8.992312359623610973e-04,-2.139246612787246704e-01,-1.307090073823928833e-01,-1.982598453760147095e-01,-1.723931282758712769e-01,-3.527880609035491943e-01,3.457473516464233398e-01,7.867889851331710815e-02,2.255459576845169067e-01,-1.259445096366107464e-03,3.629022045060992241e-03,2.243617326021194458e-01,2.188217937946319580e-01,3.097663633525371552e-02,-4.845234751701354980e-01,-7.357933372259140015e-02,-4.412409290671348572e-02,5.067139491438865662e-02,-1.421380788087844849e-01,-5.720204710960388184e-01,2.105949372053146362e-01,-2.558423280715942383e-01,1.384707391262054443e-01,-5.859287083148956299e-02,-2.175219357013702393e-01,4.815036058425903320e-01,7.992980629205703735e-02,5.465747714042663574e-01,-4.103884100914001465e-01,-2.885803282260894775e-01,-5.908175185322761536e-02,-2.571682929992675781e-01,2.260652780532836914e-01,-2.193338423967361450e-01,1.450490951538085938e-01,2.676557302474975586e-01,-7.192060351371765137e-03,-2.911593317985534668e-01,4.448064267635345459e-01,1.095404289662837982e-02,2.040245085954666138e-01,3.250066936016082764e-01,1.407676041126251221e-01,-2.048211246728897095e-01,3.591879010200500488e-01,-2.999400794506072998e-01,9.528339654207229614e-02,-7.915031164884567261e-02,-1.364864856004714966e-01,-1.725080758333206177e-01,2.789966166019439697e-01,-3.698008656501770020e-01,1.717418879270553589e-01,-1.175293028354644775e-01,-4.809907823801040649e-02,1.810413599014282227e-01,-5.872085690498352051e-02,-1.855270117521286011e-01,2.684709802269935608e-02,9.706781059503555298e-02,5.092145204544067383e-01,1.837265193462371826e-01,-1.921541690826416016e-01,1.573950201272964478e-01,-2.080163061618804932e-01,-4.917355626821517944e-02,-1.329420953989028931e-01,-2.396668680012226105e-02,3.406303748488426208e-02,-3.480768501758575439e-01,-2.627363204956054688e-01,1.008700653910636902e-01,8.996357023715972900e-02,-1.000058092176914215e-02
1.989093422889709473e-01,4.712379723787307739e-02,1.870915591716766357e-01,-2.165702171623706818e-02,1.832815110683441162e-01,3.409538567066192627e-01,2.515899240970611572e-01,-2.616817653179168701e-01,2.006593048572540283e-01,1.083473339676856995e-01,4.696057140827178955e-01,5.806779861450195312e-02,1.204884573817253113e-01,3.137843906879425049e-01,2.136659175157546997e-01,1.698942929506301880e-01,-1.825278997421264648e-01,5.087523534893989563e-02,-8.258298970758914948e-03,4.315213859081268311e-01,1.277940571308135986e-01,6.722643971443176270e-02,1.020288541913032532e-01,-3.946057558059692383e-01,-1.576074808835983276e-01,7.077986374497413635e-04,1.784801632165908813e-01,4.368055611848831177e-03,-1.012703776359558105e-01,8.792711794376373291e-02,2.720299661159515381e-01,2.744375467300415039e-01,1.073593795299530029e-01,2.140944153070449829e-01,-2.740832976996898651e-03,8.745692670345306396e-02,-6.244510784745216370e-02,1.557572931051254272e-01,2.590199410915374756e-01,-2.946093976497650146e-01,-9.572422504425048828e-02,3.976983726024627686e-01,1.327518522739410400e-01,-4.433997571468353271e-01,9.501967579126358032e-02,8.154181391000747681e-02,1.233946382999420166e-01,-1.994931399822235107e-01,3.789231553673744202e-02,1.837781667709350586e-01,-2.332175374031066895e-01,-1.852435767650604248e-01,4.315636754035949707e-01,-3.038418591022491455e-01,6.849860399961471558e-02,1.202354282140731812e-01,-6.248430907726287842e-02,-8.200147002935409546e-02,4.046520590782165527e-01,-5.260550230741500854e-02,3.838664889335632324e-01,-1.344485729932785034e-01,-2.061880528926849365e-01,2.272063344717025757e-01,-2.821652293205261230e-01,9.723509848117828369e-02,-9.981215000152587891e-02,-3.810702860355377197e-01,9.183891862630844116e-02,-3.680363297462463379e-01,1.111718341708183289e-01,-2.504345774650573730e-01,-3.163041919469833374e-02,2.949892282485961914e-01,-3.513907194137573242e-01,-3.158136606216430664e-01,-1.577830463647842407e-01,3.278774023056030273e-01,1.170725822448730469e-01,-1.905651837587356567e-01
2.887910008430480957e-01,-3.273401260375976562e-01,2.385909110307693481e-01,-1.031538322567939758e-01,-1.448580771684646606e-01,3.635829091072082520e-01,-1.573581099510192871e-01,1.712840199470520020e-01,-1.796484291553497314e-01,-2.467339634895324707e-01,1.696060746908187866e-01,1.929701268672943115e-01,-3.840616345405578613e-02,3.523346185684204102e-01,6.150432676076889038e-02,1.512138247489929199e-01,3.843617066740989685e-02,-8.834587782621383667e-02,1.865144371986389160e-01,-4.893593490123748779e-01,3.413182497024536133e-01,-4.614115357398986816e-01,-5.074016377329826355e-02,-4.895895719528198242e-02,-3.404201269149780273e-01,-7.293560542166233063e-03,-7.581026107072830200e-02,1.743169426918029785e-01,1.669126152992248535e-01,-9.701067581772804260e-03,3.221496194601058960e-02,-8.926800638437271118e-02,1.143886297941207886e-01,-5.158843994140625000e-01,-2.010921686887741089e-01,-6.332225352525711060e-02,-4.951498936861753464e-03,5.463805794715881348e-01,1.415500342845916748e-01,-4.057933986186981201e-01,1.530163139104843140e-01,4.152651727199554443e-01,9.330631792545318604e-02,-3.271749243140220642e-02,9.251488000154495239e-02,2.514454349875450134e-02,-2.795787341892719269e-02,1.456298232078552246e-01,2.078037522733211517e-02,3.491583466529846191e-01,-1.396276638843119144e-03,3.996641337871551514e-01,-3.739299774169921875e-01,-1.391239911317825317e-01,-5.318230390548706055e-01,3.346146941184997559e-01,1.777578443288803101e-01,-2.212572991847991943e-01,-5.408350825309753418e-01,7.477807998657226562e-02,-5.865350738167762756e-02,1.769342273473739624e-01,1.593706756830215454e-01,1.874436587095260620e-01,1.001632586121559143e-01,1.727813296020030975e-02,2.941425889730453491e-02,1.986998468637466431e-01,2.362053394317626953e-01,8.559363777749240398e-04,1.753653436899185181e-01,-1.288220137357711792e-01,-2.813348360359668732e-02,-3.256930708885192871e-01,3.677785694599151611e-01,-1.275473553687334061e-02,4.670165851712226868e-02,-1.914096772670745850e-01,-3.008974492549896240e-01,-1.777084358036518097e-02
3.656882618088275194e-04,7.201976329088211060e-02,1.325804591178894043e-01,2.760808765888214111e-01,4.685524106025695801e-01,-2.797020673751831055e-01,-7.102485746145248413e-02,-3.537563979625701904e-01,-1.937253586947917938e-02,2.345476448535919189e-01,2.308573424816131592e-01,8.019834011793136597e-02,1.304305507801473141e-03,1.750609278678894043e-01,3.594529032707214355e-01,-1.476059108972549438e-01,6.439869850873947144e-02,3.579225242137908936e-01,3.245527148246765137e-01,8.681350946426391602e-02,1.442186385393142700e-01,-1.826151087880134583e-02,1.101990640163421631e-01,-2.234785407781600952e-01,4.822837412357330322e-01,-1.813454180955886841e-01,-6.261848807334899902e-01,2.062172591686248779e-01,-5.398742482066154480e-02,-4.255579710006713867e-01,-8.825092762708663940e-02,-3.289756774902343750e-01,1.690254807472229004e-01,4.473783820867538452e-02,1.143994033336639404e-01,2.444026023149490356e-01,5.342781543731689453e-03,1.163863390684127808e-01,-6.491147726774215698e-02,2.861520349979400635e-01,-1.879025101661682129e-01,1.020681187510490417e-01,2.274513989686965942e-01,3.353523612022399902e-01,3.619157969951629639e-01,-2.587103247642517090e-01,-2.311709672212600708e-01,-3.466279506683349609e-01,-3.710720241069793701e-01,-2.394471317529678345e-01,-1.827855706214904785e-01,-1.162272095680236816e-01,-4.337325096130371094e-01,4.191216528415679932e-01,-1.735189706087112427e-01,-2.387802153825759888e-01,-7.708662003278732300e-02,-7.063553482294082642e-02,3.795564174652099609e-02,5.719628185033798218e-02,-1.753135621547698975e-01,-3.975806757807731628e-02,-2.963469326496124268e-01,2.080134898424148560e-01,6.107878684997558594e-01,-2.119515091180801392e-01,1.685250699520111084e-01,5.621075630187988281e-01,-1.959332078695297241e-01,-1.626259088516235352e-01,1.317325532436370850e-01,-8.759663254022598267e-02,1.318175625056028366e-02,2.577917184680700302e-03,8.971215784549713135e-02,8.837012201547622681e-02,1.240927726030349731e-01,-1.320246607065200806e-01,-1.065980419516563416e-01,-4.609888046979904175e-02
-9.829470515251159668e-02,-1.306735873222351074e-01,1.940608955919742584e-02,5.460976622998714447e-03,-1.962135136127471924e-01,5.017649009823799133e-02,3.049409389495849609e-01,1.148594468832015991e-01,1.859871298074722290e-01,-2.134736068546772003e-02,1.267187446355819702e-01,-3.655469045042991638e-02,1.170188412070274353e-01,1.826597154140472412e-01,-3.682819306850433350e-01,-4.137076437473297119e-01,-9.209651499986648560e-02,7.007040977478027344e-01,-1.416277736425399780e-01,-2.320442348718643188e-01,-2.392877042293548584e-01,-3.230960667133331299e-01,-2.617701292037963867e-01,2.072932422161102295e-01,1.464930325746536255e-01,-3.902030885219573975e-01,-3.896231651306152344e-01,-1.714723408222198486e-01,-1.024694666266441345e-01,-3.963701799511909485e-02,-3.760316371917724609e-01,-8.178266137838363647e-02,3.615016117691993713e-02,5.366115272045135498e-02,-2.914423644542694092e-01,-2.753382921218872070e-01,1.353158522397279739e-02,-1.310586929321289062e-01,-2.230919338762760162e-02,1.943939924240112305e-01,-9.279437363147735596e-02,-5.400496721267700195e-01,1.161778420209884644e-01,-1.657872647047042847e-01,-1.794373393058776855e-01,1.393244117498397827e-01,2.454114705324172974e-01,4.159172773361206055e-01,-9.965989738702774048e-02,1.856804639101028442e-01,-4.642930626869201660e-01,1.182156130671501160e-01,-1.081688143312931061e-02,1.594092547893524170e-01,1.668604761362075806e-01,-2.512307763099670410e-01,-2.859232723712921143e-01,3.062200844287872314e-01,-2.882888615131378174e-01,-9.544683992862701416e-02,-2.568902671337127686e-01,-5.489042401313781738e-01,-3.672799468040466309e-01,-3.527224361896514893e-01,-5.571092292666435242e-02,-5.064302682876586914e-01,-2.333548367023468018e-01,2.541658282279968262e-01,-1.793496124446392059e-02,3.720574378967285156e-01,-1.871654950082302094e-02,-1.127074584364891052e-01,-8.353753387928009033e-02,-3.154040873050689697e-02,-1.997172683477401733e-01,-1.629508435726165771e-01,-8.106606453657150269e-02,1.431713700294494629e-01,2.659775316715240479e-01,2.542022764682769775e-01
-1.076303943991661072e-01,3.953341543674468994e-01,7.853335142135620117e-02,2.138863354921340942e-01,3.548559844493865967e-01,3.190684020519256592e-01,2.082343399524688721e-01,-2.482831180095672607e-01,2.390269786119461060e-01,-1.508277207612991333e-01,9.151403605937957764e-02,2.569915652275085449e-01,-1.830778270959854126e-01,-1.295948773622512817e-01,-1.409187316894531250e-01,9.534161537885665894e-02,2.339167743921279907e-01,-3.428098931908607483e-02,-3.446795642375946045e-01,4.489804431796073914e-02,-2.694494128227233887e-01,3.481920361518859863e-01,-1.755164563655853271e-01,-7.906645536422729492e-02,5.868849530816078186e-02,-1.382375061511993408e-01,-2.524071373045444489e-02,3.459411486983299255e-02,1.225361973047256470e-01,-1.760128587484359741e-01,-4.169026315212249756e-01,6.878297775983810425e-02,6.043701898306608200e-03,3.023917973041534424e-02,-1.027361527085304260e-01,3.787426948547363281e-01,-2.203471511602401733e-01,-1.692835986614227295e-01,-6.422234326601028442e-02,6.083777919411659241e-02,9.474739432334899902e-02,-5.297484993934631348e-02,1.929804533720016479e-01,-1.942368298768997192e-01,9.861502796411514282e-02,2.181166112422943115e-01,2.701592743396759033e-01,-2.224206179380416870e-01,-1.382605433464050293e-01,-8.878010511398315430e-02,-2.164675891399383545e-01,1.352665871381759644e-01,-1.447109431028366089e-01,3.679044842720031738e-01,-3.452776670455932617e-01,1.625468134880065918e-01,2.274817042052745819e-02,-2.423557937145233154e-01,2.404567599296569824e-01,-4.396060109138488770e-01,3.548727631568908691e-01,-2.079685628414154053e-01,-8.910724520683288574e-02,1.686291694641113281e-01,-1.691972315311431885e-01,4.358467180281877518e-03,2.857104539871215820e-01,3.344161212444305420e-01,5.310022458434104919e-02,-2.326370775699615479e-01,4.591144025325775146e-01,-3.896519243717193604e-01,5.708638951182365417e-02,-8.686547726392745972e-02,-3.133623301982879639e-01,1.582008451223373413e-01,3.688154518604278564e-01,7.093534804880619049e-03,1.317384988069534302e-01,2.700797617435455322e-01
8.909349143505096436e-02,4.090638458728790283e-01,1.961434260010719299e-02,3.175876438617706299e-01,-1.726301759481430054e-01,-1.840933971107006073e-02,1.096859499812126160e-01,-1.816230565309524536e-01,-2.004172503948211670e-01,2.704069018363952637e-01,5.342200398445129395e-01,-4.947899654507637024e-02,-2.376846373081207275e-01,4.220901429653167725e-01,1.769891530275344849e-01,4.273122549057006836e-01,-1.772628426551818848e-01,2.718893587589263916e-01,4.929580986499786377e-01,-1.915725767612457275e-01,-1.983537226915359497e-01,-7.123695686459541321e-03,2.439842224121093750e-01,3.777887523174285889e-01,9.090835601091384888e-02,-2.402105927467346191e-02,1.354629695415496826e-01,3.808873593807220459e-01,1.286257654428482056e-01,-2.645944058895111084e-02,-4.528320729732513428e-01,5.198913440108299255e-02,-3.306464850902557373e-01,1.942577362060546875e-01,-9.679812192916870117e-02,1.965239048004150391e-01,1.559610515832901001e-01,3.933001160621643066e-01,-2.819513082504272461e-01,5.108697414398193359e-01,-3.931815624237060547e-01,-4.062805771827697754e-01,-5.317551493644714355e-01,-4.241367578506469727e-01,-5.574130415916442871e-01,-2.987016737461090088e-02,8.905143477022647858e-03,-8.497717976570129395e-02,-2.561124265193939209e-01,1.075087040662765503e-01,8.259662240743637085e-02,3.650938272476196289e-01,4.012006521224975586e-01,4.827031791210174561e-01,-3.024160861968994141e-01,1.314898282289505005e-01,-3.629475533962249756e-01,2.494637072086334229e-01,3.461179137229919434e-01,-1.099866405129432678e-01,3.928251191973686218e-02,2.716703414916992188e-01,3.856071084737777710e-02,3.760307729244232178e-01,3.422280251979827881e-01,-5.059726238250732422e-01,-4.064953327178955078e-01,-4.265751838684082031e-01,-1.836907118558883667e-02,-5.856589674949645996e-01,-3.069949150085449219e-01,-2.792407870292663574e-01,2.638676762580871582e-01,-3.317883610725402832e-01,-6.479612737894058228e-02,2.283130884170532227e-01,-5.449552834033966064e-02,-2.123492956161499023e-01,-2.827897071838378906e-01,-3.020599782466888428e-01
4.267114773392677307e-02,3.640406131744384766e-01,-1.730683892965316772e-01,-2.364851832389831543e-01,-9.861316531896591187e-02,3.270866870880126953e-01,2.244187742471694946e-01,-5.035607516765594482e-02,-1.187122985720634460e-01,1.847201138734817505e-01,-3.232117891311645508e-01,2.316283285617828369e-01,-1.643407642841339111e-01,-3.268445283174514771e-02,2.967441082000732422e-01,3.180302083492279053e-01,4.280662834644317627e-01,1.087808161973953247e-01,3.209888637065887451e-01,-2.107758671045303345e-01,1.737301647663116455e-01,-9.716876596212387085e-02,8.964712917804718018e-02,7.855433225631713867e-02,-1.892882585525512695e-01,-2.048309743404388428e-01,1.594912707805633545e-01,1.909046471118927002e-01,2.672587037086486816e-01,-5.402189493179321289e-02,4.582949578762054443e-01,4.065329730510711670e-01,2.715618908405303955e-01,6.179435253143310547e-01,2.147711217403411865e-01,-2.692402005195617676e-01,-5.320910364389419556e-03,1.641949862241744995e-01,-1.193896010518074036e-01,1.398278772830963135e-01,-1.936551183462142944e-01,9.957844763994216919e-02,-2.112702280282974243e-02,1.277511268854141235e-01,-1.168432906270027161e-01,-1.467675268650054932e-01,-3.260801732540130615e-02,6.879372149705886841e-02,-7.700429111719131470e-02,-3.691442310810089111e-01,4.546798169612884521e-01,-6.682181358337402344e-02,-2.920148074626922607e-01,7.597804069519042969e-02,-3.576455712318420410e-01,-7.576568424701690674e-02,1.339694261550903320e-01,-1.349389180541038513e-02,-5.137058347463607788e-02,-4.001901149749755859e-01,1.684276759624481201e-01,-2.607560753822326660e-01,-1.647413372993469238e-01,-3.376818299293518066e-01,6.429023146629333496e-01,-1.467421744018793106e-02,-6.200958788394927979e-02,-1.051279082894325256e-01,-1.045738384127616882e-01,5.543518066406250000e-02,-5.760075524449348450e-02,-3.701370581984519958e-02,2.218714207410812378e-01,-1.971659250557422638e-03,-1.088262572884559631e-01,5.548473596572875977e-01,-1.819647103548049927e-01,-1.394034828990697861e-02,5.753598734736442566e-02,-3.172139227390289307e-01
1.556575000286102295e-01,-2.235816419124603271e-01,1.092289239168167114e-01,-1.612686365842819214e-01,-9.739752113819122314e-02,1.449168622493743896e-01,2.283996790647506714e-01,-5.201660096645355225e-02,-4.944527149200439453e-02,4.449115097522735596e-01,1.736991703510284424e-01,-1.752130985260009766e-01,-6.697497516870498657e-02,-2.563875317573547363e-01,-1.190912276506423950e-01,-6.643363088369369507e-02,-4.738329648971557617e-01,4.427677486091852188e-03,7.196118682622909546e-02,-2.271288186311721802e-01,-1.643773913383483887e-02,4.082466661930084229e-01,-2.713089585304260254e-01,-2.751017510890960693e-01,4.203683733940124512e-01,1.496101468801498413e-01,-1.858832538127899170e-01,5.574523210525512695e-01,2.764897048473358154e-01,-2.353321164846420288e-01,-3.027051091194152832e-01,9.239812940359115601e-02,-2.047323137521743774e-01,3.573583662509918213e-01,-1.255959570407867432e-01,3.420615568757057190e-02,2.990846335887908936e-01,-5.808851718902587891e-01,1.834638863801956177e-01,6.475268006324768066e-01,-3.438028395175933838e-01,-1.842394769191741943e-01,-1.077055707573890686e-01,2.979680197313427925e-03,-2.738839983940124512e-01,-6.418722867965698242e-01,4.963553696870803833e-02,9.941466152667999268e-02,-2.386244833469390869e-01,-2.743334472179412842e-01,-8.380791544914245605e-02,3.567303419113159180e-01,-1.921229511499404907e-01,-2.813144028186798096e-02,1.643249988555908203e-01,3.220791816711425781e-01,4.848778545856475830e-01,-2.079284191131591797e-02,2.519596219062805176e-01,-1.289407759904861450e-01,4.523956775665283203e-01,-4.592092335224151611e-02,-2.374234795570373535e-01,2.415952831506729126e-01,-1.437283456325531006e-01,3.601972460746765137e-01,-3.583808243274688721e-01,2.554683089256286621e-01,-2.055589482188224792e-02,2.169190794229507446e-01,2.563649713993072510e-01,-2.400375753641128540e-01,1.304628793150186539e-02,1.710665524005889893e-01,1.717775464057922363e-01,-1.442471146583557129e-01,-5.333752632141113281e-01,1.144474595785140991e-01,-1.106125488877296448e-01,8.078651130199432373e-02
1.640695035457611084e-01,-9.470597654581069946e-02,-1.636102497577667236e-01,2.733334153890609741e-02,3.812289237976074219e-01,-7.288040220737457275e-02,6.891388446092605591e-02,-2.207322791218757629e-02,-1.322572678327560425e-01,5.184442549943923950e-02,-2.270118594169616699e-01,5.019064992666244507e-02,-1.200366392731666565e-01,-1.681335568428039551e-01,-3.768811002373695374e-02,2.583414614200592041e-01,3.499658405780792236e-02,1.226997673511505127e-01,4.740432649850845337e-02,-1.935428082942962646e-01,2.448986619710922241e-01,2.778094112873077393e-01,6.252862811088562012e-01,6.982275843620300293e-02,-4.228043854236602783e-01,-2.111236751079559326e-01,-2.978928387165069580e-01,2.547737360000610352e-01,1.539296358823776245e-01,2.371851354837417603e-01,2.911990880966186523e-01,5.278069376945495605e-01,3.000622987747192383e-01,-1.553544700145721436e-01,-2.021645456552505493e-01,3.194347023963928223e-01,-1.161884292960166931e-01,-2.348069995641708374e-01,1.699919551610946655e-01,-4.961190223693847656e-01,-2.130875289440155029e-01,1.618700623512268066e-01,-1.449939757585525513e-01,6.592322885990142822e-02,3.867417946457862854e-02,4.568579047918319702e-02,3.260051906108856201e-01,1.184001285582780838e-02,-4.072824027389287949e-03,-6.172866746783256531e-02,1.580320894718170166e-01,-1.017940714955329895e-01,-1.399956047534942627e-01,1.921514123678207397e-01,3.092242181301116943e-01,-3.480255901813507080e-01,3.280143812298774719e-02,4.619777202606201172e-02,1.727120429277420044e-01,-1.778987199068069458e-01,-2.866227626800537109e-01,1.866546571254730225e-01,-1.009918078780174255e-01,-3.729949891567230225e-02,3.992276489734649658e-01,1.347433924674987793e-01,1.531772166490554810e-01,-1.277183089405298233e-02,-3.843897283077239990e-01,3.135718703269958496e-01,3.876326680183410645e-01,-2.221137434244155884e-01,1.799518167972564697e-01,7.793422937393188477e-01,-2.834879159927368164e-01,3.807787001132965088e-01,7.510092109441757202e-02,-2.940162122249603271e-01,-3.942521661520004272e-02,-3.556208014488220215e-01
2.641856968402862549e-01,-2.457767426967620850e-01,-1.031917408108711243e-01,6.804064512252807617e-01,3.290345370769500732e-01,-4.231797754764556885e-01,1.244363281875848770e-02,2.418756633996963501e-01,-3.063706457614898682e-01,1.405449062585830688e-01,-6.424180269241333008e-01,-1.910553574562072754e-01,2.051778286695480347e-01,-5.474897027015686035e-01,1.379360258579254150e-01,2.282830476760864258e-01,-1.132628396153450012e-01,-2.518839836120605469e-01,-2.851835787296295166e-01,-4.792923927307128906e-01,9.874211996793746948e-02,3.002180755138397217e-01,9.644470363855361938e-02,-1.105137392878532410e-01,-5.302904844284057617e-01,-3.461783379316329956e-02,-1.573123186826705933e-01,1.089636683464050293e-01,-7.422638684511184692e-02,1.883021183311939240e-02,1.603240370750427246e-01,3.093374073505401611e-01,-2.765976488590240479e-01,2.741149067878723145e-01,-4.176031947135925293e-01,1.635043472051620483e-01,-3.719397485256195068e-01,3.695128262042999268e-01,7.409071177244186401e-02,-1.793805509805679321e-01,-1.648828089237213135e-01,-4.192166030406951904e-01,-2.049222886562347412e-01,1.725419797003269196e-02,-2.434237152338027954e-01,-5.031687617301940918e-01,3.339953422546386719e-01,-1.473563462495803833e-01,1.486103087663650513e-01,4.529519006609916687e-02,-3.589733541011810303e-01,1.659832745790481567e-01,2.417858541011810303e-01,1.890950277447700500e-02,-3.249148651957511902e-02,4.432590305805206299e-01,-7.189220190048217773e-02,3.562453091144561768e-01,-4.817416965961456299e-01,-3.970457240939140320e-02,1.078220754861831665e-01,6.216565370559692383e-01,1.644528121687471867e-03,-3.034221231937408447e-01,-3.004144430160522461e-01,-1.153829991817474365e-01,-1.760436445474624634e-01,2.510996460914611816e-01,4.814881086349487305e-01,8.360185474157333374e-02,-4.496454596519470215e-01,-2.966540157794952393e-01,1.200511604547500610e-01,-8.968580514192581177e-02,-1.161184236407279968e-01,1.395342797040939331e-01,2.423649132251739502e-01,-2.072110474109649658e-01,6.447500735521316528e-02,3.819545805454254150e-01
-6.968787312507629395e-02,-3.538052737712860107e-02,3.651011362671852112e-02,-3.035698644816875458e-02,5.205184221267700195e-02,6.337665766477584839e-02,3.231704533100128174e-01,-2.340059578418731689e-01,2.298024296760559082e-02,1.619281023740768433e-01,6.642629206180572510e-02,7.235553860664367676e-02,1.915000975131988525e-01,-1.977120526134967804e-02,-1.417820304632186890e-01,-3.816764056682586670e-01,-1.726392209529876709e-01,-7.351595908403396606e-02,-2.180162370204925537e-01,4.876789823174476624e-02,-5.705362558364868164e-01,1.866146177053451538e-01,-2.503874003887176514e-01,1.015381813049316406e-01,-1.581766754388809204e-01,1.030608788132667542e-01,-3.466802090406417847e-02,-3.326823413372039795e-01,9.146547317504882812e-02,-2.353798747062683105e-01,-5.133708938956260681e-02,-1.087732389569282532e-01,2.017639577388763428e-01,-1.031069904565811157e-01,5.050566419959068298e-02,3.352770507335662842e-01,-3.569381237030029297e-01,5.586195737123489380e-02,-1.835229098796844482e-01,4.304906129837036133e-01,-2.067839056253433228e-01,-4.458494782447814941e-01,-2.719905376434326172e-01,1.994691938161849976e-01,-6.347912549972534180e-02,6.581248342990875244e-02,-2.007688730955123901e-01,-1.221303567290306091e-01,-2.584559284150600433e-02,-1.459039896726608276e-01,2.751353979110717773e-01,9.399092942476272583e-02,-1.452630907297134399e-01,-2.028635293245315552e-01,-1.904996484518051147e-02,-6.043147295713424683e-02,2.924654446542263031e-02,-1.159569993615150452e-01,-4.753046482801437378e-02,-3.475854992866516113e-01,2.233749255537986755e-02,6.808881461620330811e-02,-4.044831693172454834e-01,1.814339905977249146e-01,-1.149855554103851318e-01,6.328894495964050293e-01,-1.122120618820190430e-01,-1.408036351203918457e-01,6.112024188041687012e-01,1.714607477188110352e-01,-3.498911261558532715e-01,-2.691901922225952148e-01,1.513454020023345947e-01,2.575054466724395752e-01,-1.290698349475860596e-01,1.458787769079208374e-01,-2.421030402183532715e-01,-1.952930837869644165e-01,2.575808763504028320e-01,-2.492709606885910034e-01
