2.479979693889617920e-01,6.247181296348571777e-01,4.249494671821594238e-01,-1.698044061660766602e+00,1.678661815822124481e-02,-1.212740167975425720e-01,-2.373398989439010620e-01,-1.558470726013183594e-01,-2.435687780380249023e-01,-2.140933275222778320e-01,-2.892308950424194336e+00,2.767251133918762207e-01,6.736015677452087402e-01,1.310393773019313812e-02,4.397602006793022156e-02,1.066875681281089783e-01
-1.578229367733001709e-01,-1.736919134855270386e-01,5.139425396919250488e-01,6.308295726776123047e-01,1.097407102584838867e+00,7.874596118927001953e-01,2.704435586929321289e-01,-3.756758524104952812e-03,1.544619649648666382e-01,4.618111252784729004e-01,2.315805852413177490e-01,1.577324122190475464e-01,-5.009621977806091309e-01,-9.346508383750915527e-01,-5.288941264152526855e-01,8.057132363319396973e-03
-1.045709662139415741e-02,4.752780795097351074e-01,5.087543129920959473e-01,1.051710247993469238e-01,1.185495927929878235e-01,4.384494721889495850e-01,1.422448754310607910e-01,6.082854270935058594e-01,2.809778600931167603e-02,-3.608663380146026611e-01,-4.520354866981506348e-01,-9.767920523881912231e-02,1.396894156932830811e-01,-3.442383408546447754e-01,9.928343445062637329e-02,-5.530616641044616699e-01
3.291569054126739502e-01,1.022575944662094116e-01,-1.300777554512023926e+00,-2.037783712148666382e-01,1.461447328329086304e-01,4.025457203388214111e-01,1.286978870630264282e-01,-2.656986936926841736e-02,-3.156116604804992676e-01,-3.324501514434814453e-01,1.739720404148101807e-01,1.243165731430053711e+00,8.313388377428054810e-02,-2.130982577800750732e-01,-3.289769291877746582e-01,-2.750803483650088310e-03
-4.223454371094703674e-02,-4.348294064402580261e-02,-4.872035384178161621e-01,-9.514012336730957031e-01,4.241560399532318115e-02,1.106924712657928467e-01,-3.456214964389801025e-01,-1.733491420745849609e-01,5.093292146921157837e-02,3.987917304039001465e-01,9.552209824323654175e-02,1.542564272880554199e+00,7.066644430160522461e-01,-9.594106674194335938e-02,7.699449360370635986e-02,1.771856248378753662e-01
