-1.094995617866516113e+00,7.887094020843505859e-01,-7.381076812744140625e-01,-1.096230447292327881e-01,5.869904160499572754e-01,-4.855370819568634033e-01,-2.330612093210220337e-01,-6.712234616279602051e-01,5.995152592658996582e-01,-7.072851806879043579e-02
-1.576015353202819824e-01,5.729756951332092285e-01,-9.830905199050903320e-01,-2.859758138656616211e-01,-1.929745078086853027e-01,8.177435994148254395e-01,7.890855520963668823e-02,-4.780028760433197021e-01,8.266273736953735352e-01,-5.417888760566711426e-01
-1.436209976673126221e-01,4.025390148162841797e-01,-2.923373579978942871e-01,8.509899377822875977e-01,1.498595476150512695e-01,-6.877014040946960449e-01,-1.973636448383331299e-02,-4.084577560424804688e-01,-2.924196124076843262e-01,3.221741318702697754e-01
6.170955896377563477e-01,8.739442229270935059e-01,-1.599978953599929810e-01,-2.511571645736694336e-01,7.295228540897369385e-02,-4.547033309936523438e-01,-1.255023479461669922e+00,-2.088325470685958862e-01,-5.860895514488220215e-01,-1.257115840911865234e+00
3.103287816047668457e-01,8.258375525474548340e-01,-6.123296618461608887e-01,7.354874610900878906e-01,8.219886422157287598e-01,-1.053307652473449707e+00,-4.249840974807739258e-01,-5.252733230590820312e-01,1.966806501150131226e-01,-5.841425061225891113e-01
