-5.303496960550546646e-03,1.059793710708618164e+00,2.910240292549133301e-01,5.499038100242614746e-01,-4.198003709316253662e-01,1.097577530890703201e-02,-4.690811038017272949e-01,6.426177173852920532e-02,-4.795579314231872559e-01,3.967643380165100098e-01
4.581432417035102844e-02,2.333794534206390381e-01,4.715888798236846924e-01,3.591180965304374695e-02,-4.638227224349975586e-01,5.139650106430053711e-01,-1.065011024475097656e+00,-3.969766795635223389e-01,-6.980130672454833984e-01,-3.028765022754669189e-01
-1.273705214262008667e-01,-3.643372654914855957e-01,-5.324202030897140503e-02,-5.667395591735839844e-01,1.412748098373413086e-01,5.033746361732482910e-01,1.887161731719970703e-01,-2.776478826999664307e-01,6.638977527618408203e-01,-3.019460439682006836e-01
4.930509626865386963e-01,2.364674210548400879e-01,-4.291200339794158936e-01,3.143711090087890625e-01,6.201091408729553223e-01,1.448481716215610504e-02,7.952889800071716309e-01,8.894428610801696777e-02,-9.753090143203735352e-01,4.163404405117034912e-01
-3.862296789884567261e-02,3.274424076080322266e-01,-7.265235185623168945e-01,-3.214193880558013916e-01,-2.725572288036346436e-01,4.575649201869964600e-01,-5.261303186416625977e-01,2.820626795291900635e-01,-6.912384629249572754e-01,-6.822062730789184570e-01
