1.966216862201690674e-01,-3.665954470634460449e-01,6.238001585006713867e-01,1.654495671391487122e-02,-1.850438490509986877e-02,8.350470662117004395e-01,2.946779429912567139e-01,4.596903324127197266e-01,6.553327441215515137e-01,6.990652680397033691e-01,-2.742843143641948700e-02,-6.071967482566833496e-01,1.089529767632484436e-01,-9.065138101577758789e-01,-9.761533141136169434e-02,2.035821676254272461e-01,-1.529512852430343628e-01,1.227184310555458069e-01,6.468058824539184570e-01,7.989641278982162476e-02,-3.066212870180606842e-02,4.195535480976104736e-01,-1.228561878204345703e+00,5.235899090766906738e-01,-8.025136590003967285e-01,1.020002722740173340e+00,-1.971804201602935791e-01,-4.256318509578704834e-01,4.472159743309020996e-01,5.763359069824218750e-01,-4.919603839516639709e-02,3.876757025718688965e-01,3.175569474697113037e-01,2.672441676259040833e-02,-5.450994968414306641e-01,-1.523527204990386963e-01,7.042089104652404785e-01,1.560124605894088745e-01,3.346548676490783691e-01,7.017786055803298950e-02
-2.765330485999584198e-02,2.969129681587219238e-01,1.788756489753723145e+00,-2.269183695316314697e-01,1.930368095636367798e-01,-2.190852537751197815e-02,6.388548016548156738e-01,-3.219683468341827393e-01,8.917236924171447754e-01,7.243836522102355957e-01,-2.712255120277404785e-01,-1.156572252511978149e-01,4.681110084056854248e-01,-2.218090295791625977e-01,1.799540407955646515e-02,7.358597517013549805e-01,-2.039031833410263062e-01,2.461174428462982178e-01,-6.177399754524230957e-01,7.223843336105346680e-01,-6.182269454002380371e-01,-4.861753582954406738e-01,-1.177051663398742676e-01,-3.917487859725952148e-01,1.493892818689346313e-01,8.183470964431762695e-01,-1.345646847039461136e-02,-9.232059866189956665e-02,-8.801044821739196777e-01,3.625047504901885986e-01,2.743858695030212402e-01,6.142076849937438965e-01,-8.528783917427062988e-02,1.060803413391113281e+00,-4.717851579189300537e-01,4.041843116283416748e-02,-2.144102007150650024e-01,-6.731743216514587402e-01,-5.455794930458068848e-01,1.308671087026596069e-01
2.321981787681579590e-01,-2.954925894737243652e-01,-9.828939437866210938e-01,3.904191851615905762e-01,-1.638496518135070801e-01,-9.052152633666992188e-01,3.648536205291748047e-01,-1.679809391498565674e-01,6.146435067057609558e-02,2.596335671842098236e-02,-3.618354499340057373e-01,4.947409033775329590e-01,-3.250439167022705078e-01,-1.035952925682067871e+00,-4.192805886268615723e-01,-3.190846145153045654e-01,-2.037881165742874146e-01,2.632332742214202881e-01,2.982254624366760254e-01,-1.084683656692504883e+00,6.472630053758621216e-02,-7.441743612289428711e-01,-3.352344781160354614e-02,3.797652721405029297e-01,5.011512041091918945e-01,6.360625028610229492e-01,-6.464285850524902344e-01,5.848275423049926758e-01,-5.303406715393066406e-01,-9.425821900367736816e-02,6.094681024551391602e-01,-5.767697095870971680e-01,6.346589326858520508e-01,-2.279091328382492065e-01,-1.928904205560684204e-01,8.150313049554824829e-02,-9.151851385831832886e-02,-3.394724130630493164e-01,-2.556862682104110718e-02,-2.117792963981628418e-01
-2.520403265953063965e-01,-2.043264918029308319e-02,-1.013310849666595459e-01,4.127296209335327148e-01,1.587305217981338501e-01,-2.353054434061050415e-01,5.867258906364440918e-01,-1.824491471052169800e-01,3.006168603897094727e-01,-6.038368493318557739e-02,-5.316199064254760742e-01,3.069287836551666260e-01,-7.083565592765808105e-01,6.815205514430999756e-02,-4.352293536067008972e-02,-5.055080056190490723e-01,9.177668690681457520e-01,3.592794537544250488e-01,1.581081598997116089e-01,-1.028370380401611328e+00,-1.366559118032455444e-01,4.670649766921997070e-01,-1.096102595329284668e-01,3.698028326034545898e-01,2.520565092563629150e-01,7.552594542503356934e-01,2.277132868766784668e-01,-1.070310831069946289e+00,-9.133757650852203369e-02,-9.347367286682128906e-01,-8.947001099586486816e-01,2.346219420433044434e-01,-2.074225693941116333e-01,-1.174880266189575195e-01,-2.857206463813781738e-01,-2.763516902923583984e-01,-1.213952302932739258e+00,5.195592641830444336e-01,1.269942820072174072e-01,-4.139250814914703369e-01
-9.319821000099182129e-02,-4.732406735420227051e-01,3.051466047763824463e-01,2.398136816918849945e-02,-3.032490909099578857e-01,-6.187399029731750488e-01,3.821319937705993652e-01,4.639133214950561523e-01,5.727689713239669800e-02,9.644549489021301270e-01,-2.093637138605117798e-01,-9.635455161333084106e-02,-1.273277401924133301e-01,-4.874183833599090576e-01,3.293137624859809875e-02,9.004921317100524902e-01,-4.177876114845275879e-01,-6.021495461463928223e-01,-6.243306994438171387e-01,8.433553576469421387e-02,8.035876601934432983e-02,1.493838727474212646e-01,-2.126746252179145813e-02,-7.594452500343322754e-01,-2.462130039930343628e-02,-2.586510181427001953e-01,4.814282655715942383e-01,1.336586028337478638e-01,-2.976137399673461914e-01,-9.848546981811523438e-02,9.953487664461135864e-02,-6.597024202346801758e-01,8.718767762184143066e-01,2.356789112091064453e-01,6.336241960525512695e-01,4.581131339073181152e-01,-1.606023013591766357e-01,-9.090082049369812012e-01,-2.012686580419540405e-01,5.417147874832153320e-01
1.443985700607299805e-01,-3.023269176483154297e-01,2.115270048379898071e-01,-9.150453805923461914e-01,-1.491279453039169312e-01,9.427733719348907471e-02,6.300997734069824219e-01,1.400085687637329102e-01,8.499034047126770020e-01,1.862969398498535156e-01,1.401913464069366455e-01,8.254023194313049316e-01,2.041500359773635864e-01,8.223073482513427734e-01,5.390145778656005859e-01,5.854694247245788574e-01,-1.676192730665206909e-01,4.060212373733520508e-01,8.356857299804687500e-02,-3.044168232008814812e-03,2.856361567974090576e-01,2.657843828201293945e-01,-2.962737083435058594e-01,-6.833146512508392334e-02,-5.571200251579284668e-01,4.384742081165313721e-01,1.202730983495712280e-01,-6.025257706642150879e-01,-1.086086630821228027e+00,-4.807152971625328064e-02,6.338149905204772949e-01,4.286441020667552948e-03,7.178930640220642090e-01,-3.993529975414276123e-01,-2.622494399547576904e-01,3.773404285311698914e-02,3.496951460838317871e-01,-1.036968469619750977e+00,-7.613468766212463379e-01,5.053244233131408691e-01
-8.881047964096069336e-01,5.884957313537597656e-01,7.040981650352478027e-01,-1.038895994424819946e-01,-1.160496711730957031e+00,4.155876338481903076e-01,-2.014907747507095337e-01,-3.717284798622131348e-01,4.823489785194396973e-01,-7.601605653762817383e-01,-6.749892830848693848e-01,-3.200730979442596436e-01,-3.295434713363647461e-01,-1.048705801367759705e-01,9.668206572532653809e-01,3.571272194385528564e-01,4.009347558021545410e-01,-7.106217145919799805e-01,5.772802233695983887e-01,-2.599474601447582245e-02,1.611341238021850586e-01,-3.715544342994689941e-01,-4.003988802433013916e-01,1.019508361816406250e+00,9.124650955200195312e-01,-6.795119643211364746e-01,-9.236941933631896973e-01,-5.479820966720581055e-01,-3.056679293513298035e-02,6.299985051155090332e-01,3.480848371982574463e-01,5.447084307670593262e-01,2.455631643533706665e-02,-7.752205431461334229e-02,7.207349538803100586e-01,3.345238268375396729e-01,-5.219176411628723145e-01,-1.980284415185451508e-02,6.477372646331787109e-01,3.167332410812377930e-01
-1.948526501655578613e-01,-2.906927280128002167e-02,1.113901138305664062e+00,-9.061936140060424805e-01,-4.298323392868041992e-01,-7.082350850105285645e-01,6.382660567760467529e-02,5.591822266578674316e-01,2.977097630500793457e-01,-1.319120377302169800e-01,-6.063147187232971191e-01,4.584918320178985596e-01,3.356351256370544434e-01,8.511699438095092773e-01,7.358292341232299805e-01,-5.044125318527221680e-01,-4.696092307567596436e-01,2.609269320964813232e-01,7.956302911043167114e-02,-4.388298392295837402e-01,-4.005965590476989746e-01,-1.551157981157302856e-01,7.896464467048645020e-01,-8.958171010017395020e-01,3.053405880928039551e-01,-2.013931982219219208e-02,-3.486800789833068848e-01,1.031151339411735535e-01,2.504798173904418945e-01,-8.950185030698776245e-02,-2.052329331636428833e-01,1.781953126192092896e-01,-2.728897035121917725e-01,-6.258293390274047852e-01,-4.410254359245300293e-01,-6.434738636016845703e-01,2.643976509571075439e-01,-4.691855609416961670e-01,3.093047142028808594e-01,-4.729663133621215820e-01
-3.718526959419250488e-01,7.963917404413223267e-02,-3.395936787128448486e-01,8.120360225439071655e-02,-1.055029407143592834e-01,5.597306489944458008e-01,8.497993350028991699e-01,-8.276834152638912201e-03,-5.838686227798461914e-01,-1.127576082944869995e-01,-1.365474611520767212e-01,4.961910843849182129e-01,3.163658976554870605e-01,2.025729268789291382e-01,-5.058676600456237793e-01,-3.555772826075553894e-02,-7.165895402431488037e-02,-6.969421505928039551e-01,6.841534972190856934e-01,-6.458095312118530273e-01,-2.502038478851318359e-01,-5.974579453468322754e-01,8.127449750900268555e-01,2.858002781867980957e-01,3.673344254493713379e-01,8.001411557197570801e-01,4.337624013423919678e-01,-1.179606467485427856e-01,-4.402064085006713867e-01,5.297499299049377441e-01,-1.263159364461898804e-01,-8.000684380531311035e-01,4.772564023733139038e-02,-2.898268997669219971e-01,-1.984607428312301636e-01,1.997593091800808907e-03,3.279335498809814453e-01,-1.128225564956665039e+00,6.793648600578308105e-01,-5.594368577003479004e-01
5.451297760009765625e-01,6.323131322860717773e-01,3.094577193260192871e-01,-2.845481336116790771e-01,-2.152979969978332520e-01,-7.048966288566589355e-01,-4.320956468582153320e-01,4.454895555973052979e-01,-5.130971074104309082e-01,6.795838475227355957e-02,1.095143407583236694e-01,-2.442384511232376099e-01,1.027072548866271973e+00,-5.989162325859069824e-01,-2.052673548460006714e-01,-1.242605820298194885e-01,-1.100705638527870178e-01,-2.872131168842315674e-01,-9.845965355634689331e-02,-2.245715558528900146e-01,-1.071142673492431641e+00,-6.585139632225036621e-01,-3.010467886924743652e-01,3.356463611125946045e-01,-6.884691119194030762e-01,7.335057854652404785e-01,2.030927836894989014e-01,-2.225871980190277100e-01,2.183779180049896240e-01,7.128070592880249023e-01,2.896219789981842041e-01,6.247056648135185242e-03,-7.569863647222518921e-02,-9.783242344856262207e-01,2.482050657272338867e-01,2.716465890407562256e-01,-3.416630625724792480e-01,1.290274262428283691e-01,-1.416801959276199341e-01,-5.950407981872558594e-01
-3.705912530422210693e-01,2.474462240934371948e-01,4.098152220249176025e-01,1.245783090591430664e+00,6.233186125755310059e-01,-4.764556288719177246e-01,2.989211380481719971e-01,6.469397544860839844e-01,-3.538366258144378662e-01,2.652848064899444580e-01,-4.536642730236053467e-01,-2.498299628496170044e-01,5.120519399642944336e-01,3.594664335250854492e-01,-1.151454225182533264e-01,2.931992709636688232e-01,-7.025265693664550781e-02,2.964582145214080811e-01,-4.717012122273445129e-02,7.780256867408752441e-01,7.741243392229080200e-02,-1.931046247482299805e-01,2.676215767860412598e-01,1.227439120411872864e-01,-8.417392373085021973e-01,-6.431223154067993164e-01,2.109206467866897583e-02,-3.501147925853729248e-01,-1.246490955352783203e+00,-2.329149246215820312e-01,9.730108380317687988e-01,6.869868636131286621e-01,1.449668556451797485e-01,-9.815317392349243164e-02,3.044233024120330811e-01,-8.450454473495483398e-02,1.072772860527038574e+00,3.329778611660003662e-01,1.545218825340270996e-01,-3.596284687519073486e-01
3.693909943103790283e-01,5.023058652877807617e-01,2.639491558074951172e-01,-1.512183547019958496e-01,2.896698117256164551e-01,-1.128439545631408691e+00,-1.936464160680770874e-01,-2.307712435722351074e-01,1.049508333206176758e+00,-1.705402880907058716e-01,-5.347166582942008972e-02,6.703499555587768555e-01,2.899256944656372070e-01,-3.521278202533721924e-01,1.590385437011718750e-01,-2.239821553230285645e-01,-1.137272492051124573e-01,-4.439089298248291016e-01,9.714354872703552246e-01,-4.334000349044799805e-01,4.415194094181060791e-01,-3.855228722095489502e-01,1.704791910015046597e-03,1.341383457183837891e-01,-3.187779486179351807e-01,6.245675086975097656e-01,4.054711461067199707e-01,-1.336363852024078369e-01,3.204828798770904541e-01,1.926895678043365479e-01,2.383420467376708984e-01,9.364952445030212402e-01,-1.001441031694412231e-01,-3.565124571323394775e-01,3.171887099742889404e-01,-2.071849852800369263e-01,1.404089689254760742e+00,3.628469109535217285e-01,2.071100324392318726e-01,9.428017139434814453e-01
5.740873515605926514e-02,1.976996362209320068e-01,4.219820350408554077e-02,1.741478890180587769e-01,-8.447367697954177856e-02,5.952648520469665527e-01,1.931733191013336182e-01,-1.426457166671752930e-01,-6.964654922485351562e-01,8.026771545410156250e-01,-2.921943664550781250e-01,3.283898532390594482e-01,-3.445767164230346680e-01,7.705144882202148438e-01,-9.392551332712173462e-02,7.668693363666534424e-02,-5.383720993995666504e-01,1.612709403038024902e+00,-9.729854464530944824e-01,-5.843000411987304688e-01,-3.088565766811370850e-01,-6.252223253250122070e-01,-2.712441980838775635e-01,-3.523539304733276367e-01,-4.604757204651832581e-02,4.122454226016998291e-01,2.153404951095581055e-01,9.389372169971466064e-02,9.387231548316776752e-04,-1.088445186614990234e-01,3.799782395362854004e-01,-1.951958417892456055e+00,-2.459272742271423340e-02,1.835428774356842041e-01,4.270809590816497803e-01,5.111664533615112305e-02,-3.496075570583343506e-01,7.689828872680664062e-01,4.716815650463104248e-01,-3.162306249141693115e-01
4.087248444557189941e-01,1.201000928878784180e+00,-1.586178183555603027e+00,-1.909232437610626221e-01,1.731899939477443695e-02,-4.094157516956329346e-01,1.816569268703460693e-01,-3.694041371345520020e-01,3.548001945018768311e-01,1.243436783552169800e-01,-3.152114748954772949e-01,5.454856157302856445e-01,6.714298129081726074e-01,8.198084831237792969e-01,8.695209026336669922e-02,-9.793550372123718262e-01,4.740217924118041992e-01,1.764478087425231934e-01,4.086022078990936279e-01,8.808358758687973022e-02,2.732031047344207764e-01,4.691717028617858887e-02,-7.756336033344268799e-02,3.782630562782287598e-01,6.920457351952791214e-03,-2.558769881725311279e-01,8.441053628921508789e-01,-5.215680599212646484e-01,1.744797378778457642e-01,-1.075614571571350098e+00,-6.090866923332214355e-01,3.892727196216583252e-01,4.187336862087249756e-01,8.252120614051818848e-01,1.792226582765579224e-01,9.730817079544067383e-01,-5.457234382629394531e-01,9.574285894632339478e-02,-3.003850281238555908e-01,3.845358788967132568e-01
-1.796796768903732300e-01,-6.419495344161987305e-01,-7.616591453552246094e-01,6.670343875885009766e-01,-9.168242216110229492e-01,3.495636582374572754e-01,8.575966358184814453e-01,3.078221380710601807e-01,-6.201331019401550293e-01,7.139271497726440430e-01,1.115977168083190918e-01,4.273758232593536377e-01,-2.327322512865066528e-01,1.969831883907318115e-01,6.960552334785461426e-01,-5.754935145378112793e-01,3.828205913305282593e-02,-1.847836226224899292e-01,-1.124870404601097107e-01,7.518299221992492676e-01,2.466216236352920532e-01,8.599527478218078613e-01,-8.945738673210144043e-01,-3.757790625095367432e-01,-6.855688691139221191e-01,7.498151063919067383e-02,-2.496111989021301270e-01,-2.417913675308227539e-01,-5.789319276809692383e-01,2.011117190122604370e-01,-3.164510130882263184e-01,1.490481346845626831e-01,-1.075320318341255188e-02,-4.506824314594268799e-01,-7.758035063743591309e-01,3.450399041175842285e-01,-3.059740178287029266e-02,-6.950523257255554199e-01,-5.829958915710449219e-01,-9.185796976089477539e-02
2.721755579113960266e-02,1.682486832141876221e-01,-2.118768841028213501e-01,1.600959748029708862e-01,-1.655404418706893921e-01,1.756404042243957520e-01,3.750590384006500244e-01,-1.885055154561996460e-01,2.432036548852920532e-01,9.529692530632019043e-01,6.645534932613372803e-02,3.900663256645202637e-01,-2.524302108213305473e-04,7.621063590049743652e-01,5.821166038513183594e-01,7.023363113403320312e-01,9.705266356468200684e-02,-5.844511985778808594e-01,9.016222506761550903e-02,-1.171915754675865173e-01,3.614082634449005127e-01,3.433952629566192627e-01,-1.030488729476928711e+00,-1.010331586003303528e-01,5.594668388366699219e-01,3.759635686874389648e-01,3.199520707130432129e-01,-3.315828740596771240e-02,4.745247066020965576e-01,4.531218111515045166e-01,-9.653156995773315430e-02,-2.702156305313110352e-01,7.871420979499816895e-01,-3.015736341476440430e-01,-1.270269155502319336e-01,3.522526323795318604e-01,-5.606955885887145996e-01,4.437771439552307129e-01,-1.093239057809114456e-02,-2.026287019252777100e-01
2.377308011054992676e-01,6.898833513259887695e-01,4.542413949966430664e-01,2.103355228900909424e-01,3.077414333820343018e-01,1.024343818426132202e-01,2.848353981971740723e-01,2.311253845691680908e-01,2.581315040588378906e-01,7.606717348098754883e-01,-8.530893921852111816e-01,2.614613771438598633e-01,-3.992044329643249512e-01,-1.631297320127487183e-01,6.782770752906799316e-01,2.988651096820831299e-01,-1.732132881879806519e-01,3.853171765804290771e-01,-7.378322482109069824e-01,-2.754879891872406006e-01,-7.118995189666748047e-01,-2.019761055707931519e-01,-8.719284534454345703e-01,-2.709355950355529785e-01,-2.401616126298904419e-01,-1.038052327930927277e-02,-1.858609765768051147e-01,9.303102493286132812e-01,3.771282732486724854e-01,-1.085535213351249695e-01,-5.970693891867995262e-04,-2.199563980102539062e-01,-5.867490172386169434e-01,4.256741106510162354e-01,-2.551728487014770508e-01,5.519164204597473145e-01,-2.119174450635910034e-01,1.046389698982238770e+00,3.304525017738342285e-01,-4.548695087432861328e-01
1.716847181320190430e+00,6.927343010902404785e-01,-5.828013420104980469e-01,-2.987081408500671387e-01,1.827237308025360107e-01,-7.782341837882995605e-01,-7.495097070932388306e-02,6.012795567512512207e-01,-2.043040692806243896e-01,1.911353617906570435e-01,-3.175722062587738037e-01,3.609872758388519287e-01,-4.697785973548889160e-01,1.859576553106307983e-01,2.811145186424255371e-01,-1.169193267822265625e+00,-4.942413866519927979e-01,-1.900362074375152588e-01,-3.004115633666515350e-02,4.244117438793182373e-01,-1.646235227584838867e+00,-1.654795557260513306e-01,2.325493991374969482e-01,-1.480536162853240967e-01,-4.042584896087646484e-01,-1.676018834114074707e-01,1.634196043014526367e-01,1.753191500902175903e-01,1.012464836239814758e-01,-8.394696712493896484e-01,-3.145575523376464844e-02,-2.555878460407257080e-01,-2.859840095043182373e-01,-2.967714667320251465e-01,5.917759537696838379e-01,-5.672151967883110046e-02,4.707406759262084961e-01,-8.274669647216796875e-01,9.263755381107330322e-02,3.145893337205052376e-03
2.944383621215820312e-01,4.266270101070404053e-01,-4.922438859939575195e-01,-8.182887434959411621e-01,3.450957834720611572e-01,2.885117530822753906e-01,-4.444931745529174805e-01,5.083765983581542969e-01,-9.650356173515319824e-01,7.604908198118209839e-02,-4.187912046909332275e-01,6.850823760032653809e-01,3.326626121997833252e-01,6.060404777526855469e-01,7.457059025764465332e-01,2.633413076400756836e-01,7.519065588712692261e-02,7.928619533777236938e-02,-7.481222599744796753e-02,9.844245016574859619e-02,-8.807528614997863770e-01,1.016073226928710938e+00,-1.234969571232795715e-01,-1.215768679976463318e-01,1.297160267829895020e+00,-6.812564730644226074e-01,-7.333959937095642090e-01,-3.803101181983947754e-01,-4.014217257499694824e-01,2.742486894130706787e-01,4.541565477848052979e-01,-4.193910956382751465e-01,-7.357497215270996094e-01,7.100571691989898682e-02,1.008396625518798828e+00,4.202795326709747314e-01,-6.231633424758911133e-01,-1.326026469469070435e-01,3.192514413967728615e-03,-1.643618494272232056e-01
-1.211468815803527832e+00,-3.488406538963317871e-01,2.472796440124511719e-01,1.286780927330255508e-02,2.312260270118713379e-01,-8.178336024284362793e-01,-6.798570752143859863e-01,1.402899064123630524e-02,-5.957362055778503418e-01,-2.486839592456817627e-01,2.418478019535541534e-02,8.142152428627014160e-02,-7.713683247566223145e-01,-2.094275504350662231e-02,-6.129611656069755554e-02,3.186174929141998291e-01,-1.307933032512664795e-01,-8.223804235458374023e-01,-9.353737235069274902e-01,5.231488347053527832e-01,-1.029391363263130188e-01,2.285780906677246094e-01,2.230853587388992310e-01,-5.456085801124572754e-01,-6.941592693328857422e-01,-1.099145412445068359e-01,6.421977877616882324e-01,2.146783471107482910e-01,-7.790695428848266602e-01,-1.206004619598388672e-01,-2.340970337390899658e-01,4.848920404911041260e-01,-2.878534197807312012e-01,6.815323233604431152e-01,7.465775310993194580e-02,-4.395196139812469482e-01,-5.388196706771850586e-01,-1.198202610015869141e+00,3.347470164299011230e-01,9.654527306556701660e-01
