4.512967914342880249e-02,5.401265993714332581e-02,1.196004673838615417e-01,9.054858237504959106e-02,-3.731438517570495605e-02,-2.117591910064220428e-02,-3.648692741990089417e-02,-3.520898520946502686e-02,-1.241671442985534668e-01,-3.138381540775299072e-01,-1.946090161800384521e-01,-9.972277283668518066e-02,-4.573265835642814636e-02,8.750439435243606567e-02,1.478212922811508179e-01,2.503708600997924805e-01,3.726076483726501465e-01,4.954428076744079590e-01,5.032099485397338867e-01,2.930897176265716553e-01,2.128421664237976074e-01,-1.526181586086750031e-02,-7.636558264493942261e-03,-3.620515391230583191e-02,-9.095916897058486938e-02,-1.229662541300058365e-02,-3.235657513141632080e-02,-1.065160185098648071e-01,-1.931542716920375824e-02,-7.528346776962280273e-02,8.069854229688644409e-02,-5.806520953774452209e-02,3.054930362850427628e-03,1.936489902436733246e-02,6.446091085672378540e-02,4.420038685202598572e-02,2.899458631873130798e-02,1.101917400956153870e-01,3.140316903591156006e-01,1.671434044837951660e-01,1.547136902809143066e-01,1.437871009111404419e-01,-1.176255643367767334e-01,-4.799816012382507324e-02,-9.784929454326629639e-02,-1.743084341287612915e-01,-2.439904659986495972e-01,-4.047967791557312012e-01,-1.478961408138275146e-01,-1.411518603563308716e-01,4.408498108386993408e-02,-1.918611675500869751e-01,1.711073145270347595e-02,3.445252403616905212e-02,-5.807181820273399353e-02,-1.941807419061660767e-01,1.229003146290779114e-01,4.117517173290252686e-02,9.413260221481323242e-02,4.958607256412506104e-02
-1.448129117488861084e-01,-1.055803894996643066e-01,-4.874607175588607788e-02,-5.930238962173461914e-02,-9.142349660396575928e-02,-3.113352954387664795e-01,1.697277873754501343e-01,3.358877897262573242e-01,-1.009593486785888672e+00,2.246609926223754883e-01,2.838263809680938721e-01,1.294025629758834839e-01,-2.294076681137084961e-01,2.345095127820968628e-01,1.640042476356029510e-02,4.207545518875122070e-02,9.141093492507934570e-02,-6.302856653928756714e-02,1.200797259807586670e-01,9.357015043497085571e-02,-1.638718880712985992e-02,4.383330047130584717e-02,3.553465902805328369e-01,3.151814341545104980e-01,-7.510357499122619629e-01,3.047460913658142090e-01,2.490339726209640503e-01,-2.033798992633819580e-01,-5.022515356540679932e-02,2.310675531625747681e-01,2.582494318485260010e-01,-1.690740436315536499e-01,-1.962422393262386322e-02,3.646018356084823608e-02,1.032557561993598938e-01,7.503475248813629150e-02,-4.938962161540985107e-01,8.604232668876647949e-01,3.809752762317657471e-01,-5.606217980384826660e-01,-2.126757055521011353e-01,1.388763636350631714e-01,1.465536952018737793e-01,-1.642700582742691040e-01,2.452776953577995300e-02,-5.725881084799766541e-02,1.188237145543098450e-01,-1.680479198694229126e-01,-4.288196936249732971e-02,-9.107428789138793945e-02,-1.650406718254089355e-01,-3.110996484756469727e-01,-3.113631308078765869e-01,4.515818655490875244e-01,4.920839369297027588e-01,-4.962368011474609375e-01,1.162660419940948486e-01,1.567406803369522095e-01,-1.026117354631423950e-01,-1.962088942527770996e-01
-2.244620397686958313e-02,-3.931776285171508789e-01,-2.828816417604684830e-03,-2.957051247358322144e-02,3.588602645322680473e-03,2.264234609901905060e-02,7.791455369442701340e-03,-1.519922614097595215e-01,1.512942835688591003e-02,-2.616314031183719635e-02,1.426510163582861423e-03,-4.256320185959339142e-03,-1.492665335536003113e-02,-1.875739842653274536e-01,-6.004825606942176819e-02,-2.091953516006469727e+00,2.690140344202518463e-02,-4.139121156185865402e-04,-6.570792198181152344e-02,1.450365874916315079e-02,-2.758120559155941010e-02,-2.572576999664306641e-01,-1.084109861403703690e-02,-2.334941923618316650e-02,-9.476421475410461426e-01,-3.252099081873893738e-02,3.499608719721436501e-03,-9.790792129933834076e-03,-2.375512011349201202e-02,-3.271817229688167572e-03,3.818424642086029053e-01,-1.805542595684528351e-02,1.041298452764749527e-02,-2.869138121604919434e-02,4.436207003891468048e-03,1.796680875122547150e-02,1.672556102275848389e-01,-2.644037595018744469e-03,2.424835599958896637e-02,2.476475128787569702e-05,4.552353173494338989e-03,7.705480791628360748e-03,1.817145347595214844e-01,7.775350939482450485e-03,2.074060201644897461e+00,2.155247516930103302e-02,-1.455466728657484055e-02,9.942026436328887939e-02,-9.408537298440933228e-03,2.901410870254039764e-02,2.793360352516174316e-01,2.092796564102172852e-02,-3.778678830713033676e-03,9.278752803802490234e-01,-7.558786775916814804e-03,-1.129211857914924622e-02,-9.895025752484798431e-03,6.229085847735404968e-03,3.477327153086662292e-02,-5.752667319029569626e-03
2.498467862606048584e-01,-2.209622412919998169e-01,9.641632437705993652e-02,-4.303980991244316101e-02,-9.125952422618865967e-02,-1.681009083986282349e-01,5.233442038297653198e-02,7.736852020025253296e-02,-3.479493409395217896e-02,-1.977269202470779419e-01,1.905419677495956421e-01,-1.685260385274887085e-01,-4.531022906303405762e-02,2.844282388687133789e-01,-1.249303668737411499e-02,-1.492729932069778442e-01,4.979969002306461334e-03,1.323168128728866577e-01,8.906483650207519531e-02,-1.011615693569183350e-01,1.013922020792961121e-01,4.323269426822662354e-01,-2.173712551593780518e-01,-8.969736099243164062e-02,1.931344270706176758e-01,-1.277386210858821869e-02,1.060803085565567017e-01,7.336965203285217285e-02,-3.672660142183303833e-02,1.771856099367141724e-01,-2.526273727416992188e-01,-2.656285166740417480e-01,-9.894771873950958252e-02,1.092639118432998657e-01,2.564180791378021240e-01,1.506012082099914551e-01,3.450191915035247803e-01,3.545833230018615723e-01,3.191973567008972168e-01,-4.213014151901006699e-03,-1.513830721378326416e-01,-6.454654783010482788e-02,-2.852277457714080811e-02,-1.440785974264144897e-01,2.140398472547531128e-01,1.885288953781127930e-01,2.528355456888675690e-02,-1.224428638815879822e-01,-1.948802769184112549e-01,-2.193827182054519653e-01,-3.685836493968963623e-01,-4.610607624053955078e-01,-8.424707502126693726e-02,3.029544092714786530e-02,3.451231867074966431e-02,1.053230371326208115e-02,1.263258904218673706e-01,-5.418433248996734619e-02,-6.454677879810333252e-02,-6.166542321443557739e-02
2.650129981338977814e-02,-2.910593450069427490e-01,2.064138054847717285e-01,2.155472636222839355e-01,-4.853622987866401672e-02,3.645732700824737549e-01,3.593005836009979248e-01,-3.162518739700317383e-01,-6.147627159953117371e-02,-1.800119280815124512e-01,1.091704517602920532e-01,-1.562061309814453125e-01,2.913413569331169128e-02,-1.981460303068161011e-01,-5.734487995505332947e-02,1.999438703060150146e-01,-1.807239353656768799e-01,2.649191394448280334e-02,5.615528225898742676e-01,-2.105374932289123535e-01,-4.568008705973625183e-02,-1.094755381345748901e-01,-4.258922338485717773e-01,1.064591109752655029e-01,-6.989841908216476440e-02,-9.460702538490295410e-02,1.653703749179840088e-01,-3.898277282714843750e-01,-4.666377902030944824e-01,8.296357840299606323e-02,3.560770750045776367e-01,-1.143901720643043518e-01,-1.151353344321250916e-01,9.684811346232891083e-03,-4.526714608073234558e-02,-3.384746313095092773e-01,2.826938629150390625e-01,3.405602276325225830e-01,2.090817391872406006e-01,1.463457643985748291e-01,4.154362902045249939e-02,7.199953496456146240e-02,2.379743158817291260e-01,1.196474507451057434e-01,-1.328525692224502563e-01,3.274911940097808838e-01,2.098466455936431885e-01,-5.927525162696838379e-01,-6.764538586139678955e-02,2.428133040666580200e-01,1.718798428773880005e-01,3.922329843044281006e-01,3.558750823140144348e-02,2.107352018356323242e-03,-1.504933368414640427e-02,-2.885938063263893127e-02,2.378782629966735840e-01,5.727099776268005371e-01,-8.777760714292526245e-02,-2.970100566744804382e-02
-8.536079525947570801e-02,-1.564299941062927246e+00,3.962903916835784912e-01,-1.523147940635681152e+00,2.699676752090454102e-01,3.801884353160858154e-01,-3.223562836647033691e-01,-1.936778873205184937e-01,2.216143347322940826e-02,-1.619135886430740356e-01,-2.728963196277618408e-01,-2.044157534837722778e-01,1.437384784221649170e-01,2.315538972616195679e-01,3.487483263015747070e-01,-6.208307147026062012e-01,-7.323861867189407349e-02,-7.937461137771606445e-02,1.074275970458984375e-01,4.169471561908721924e-01,-7.070164680480957031e-01,4.430593252182006836e-01,-2.160909473896026611e-01,-4.850758016109466553e-01,-1.627862900495529175e-01,-3.456605374813079834e-01,2.951568961143493652e-01,-4.246341288089752197e-01,-3.448876366019248962e-02,-5.099214911460876465e-01,5.077078938484191895e-01,-9.930378794670104980e-01,1.113738119602203369e-01,-2.164309471845626831e-01,-5.411013364791870117e-01,-5.319619774818420410e-01,8.325278013944625854e-02,-4.615380167961120605e-01,-2.940188646316528320e-01,-4.935534596443176270e-01,1.336448490619659424e-01,5.518296360969543457e-02,-5.436944961547851562e-01,-6.775395274162292480e-01,2.625904977321624756e-01,1.807322353124618530e-01,7.561749219894409180e-02,-1.608678817749023438e+00,-4.795119166374206543e-01,-1.502343297004699707e+00,3.664783239364624023e-01,-6.309179663658142090e-01,3.421140909194946289e-01,7.751508802175521851e-02,-1.838276982307434082e-01,1.895434409379959106e-01,-3.612079918384552002e-01,2.587834000587463379e-01,1.796399950981140137e-01,2.504253685474395752e-01
-7.087895274162292480e-01,-2.516206353902816772e-03,-3.571704402565956116e-02,-8.236575126647949219e-02,8.097741752862930298e-02,-5.158774554729461670e-03,-1.234111264348030090e-01,-2.400043979287147522e-02,-4.098791480064392090e-01,-3.951268494129180908e-01,-8.497154712677001953e-02,3.285149037837982178e-01,3.361148536205291748e-01,5.109402537345886230e-02,2.966305799782276154e-02,-4.723951593041419983e-02,1.956861168146133423e-01,1.723001152276992798e-01,5.835847184062004089e-02,-2.572567760944366455e-01,4.393424838781356812e-02,-4.129629731178283691e-01,-1.785820871591567993e-01,2.349509112536907196e-02,-1.222207546234130859e-01,9.909148514270782471e-02,2.689557708799839020e-02,1.732859611511230469e-01,3.140864521265029907e-02,-9.845791757106781006e-02,5.134617686271667480e-01,4.254323840141296387e-01,4.410663992166519165e-02,9.738987684249877930e-02,2.218145690858364105e-02,2.061893790960311890e-01,1.048789843916893005e-01,-1.427792459726333618e-01,3.088407516479492188e-01,5.657332539558410645e-01,1.951823085546493530e-01,1.546182204037904739e-02,-5.063909292221069336e-01,-2.525400519371032715e-01,8.982424624264240265e-03,3.390209078788757324e-01,-2.320716390386223793e-03,-1.281029731035232544e-01,-3.669306039810180664e-01,-2.771379351615905762e-01,1.465331763029098511e-03,2.283492237329483032e-01,3.372270762920379639e-01,2.109014391899108887e-01,1.395330876111984253e-01,1.553856283426284790e-01,2.745030261576175690e-02,-7.814496755599975586e-02,-1.740108877420425415e-01,6.144298240542411804e-02
2.977959513664245605e-01,-4.529953300952911377e-01,6.822738796472549438e-02,3.424181044101715088e-01,-2.937650680541992188e-01,-1.542555838823318481e-01,-5.704384446144104004e-01,1.327248066663742065e-01,1.333086658269166946e-02,3.485121130943298340e-01,-1.138469576835632324e+00,1.888976059854030609e-02,1.958038657903671265e-01,1.251076464541256428e-03,1.328909695148468018e-01,1.982759684324264526e-02,-1.123769953846931458e-01,-3.292872011661529541e-02,-8.434150367975234985e-02,-3.920743241906166077e-02,-6.930687278509140015e-02,-1.995487213134765625e-01,-6.086466461420059204e-02,1.588770002126693726e-02,-1.690615415573120117e-01,2.460758835077285767e-01,1.009039804339408875e-01,-2.435228973627090454e-01,1.876473426818847656e-03,3.133671283721923828e-01,4.293967187404632568e-01,2.350759655237197876e-01,-2.316569387912750244e-01,2.407099157571792603e-01,3.922787606716156006e-01,5.424764752388000488e-01,2.614092081785202026e-03,-3.377538919448852539e-01,-2.741577923297882080e-01,1.163654208183288574e+00,5.183093547821044922e-01,-3.250989615917205811e-01,-5.765985846519470215e-01,-2.254173904657363892e-01,-1.512115448713302612e-01,-1.155316364020109177e-02,3.208395501133054495e-04,1.774548888206481934e-01,2.225000038743019104e-02,-6.729764491319656372e-02,1.534631550312042236e-01,-2.799314819276332855e-02,-2.091103196144104004e-01,-3.913065791130065918e-01,-6.094048023223876953e-01,-1.885287761688232422e-01,2.505043745040893555e-01,-8.886329829692840576e-02,-2.367248982191085815e-01,-1.840385943651199341e-01
1.452816301025450230e-03,-6.041580811142921448e-03,5.078269750811159611e-04,-9.896618314087390900e-03,-4.932819902896881104e-01,-1.309078885242342949e-03,2.691362751647830009e-03,5.448663141578435898e-03,-6.542576476931571960e-03,-4.540503770112991333e-02,-5.364718846976757050e-03,-9.353961795568466187e-03,-9.371011853218078613e-01,-2.301347441971302032e-02,9.209542185999453068e-04,-1.903883181512355804e-02,-4.403019323945045471e-02,-2.094626903533935547e+00,-5.634080152958631516e-04,1.861418969929218292e-02,1.300926133990287781e-02,-7.110545877367258072e-03,-1.412873156368732452e-03,-1.260594557970762253e-02,1.032919809222221375e-02,-1.443896628916263580e-02,-1.846990436315536499e-01,-2.640153467655181885e-01,-2.014608308672904968e-02,1.687057316303253174e-02,-1.161016710102558136e-02,-1.059773936867713928e-02,1.447165943682193756e-02,4.832544922828674316e-01,2.779770269989967346e-02,8.582161739468574524e-03,1.776004396378993988e-02,4.549974983092397451e-04,5.639223754405975342e-02,7.977120578289031982e-03,-5.925753619521856308e-03,9.330801367759704590e-01,5.203577876091003418e-02,-1.294706109911203384e-02,-1.011990383267402649e-02,1.294271741062402725e-02,2.093056917190551758e+00,3.433123603463172913e-02,-1.266640983521938324e-02,-1.299251336604356766e-02,-1.294897962361574173e-02,-1.855384930968284607e-02,1.536091603338718414e-02,-1.261559128761291504e-02,-1.567719387821853161e-03,2.014005035161972046e-01,2.837164700031280518e-01,1.043615210801362991e-02,6.859045941382646561e-03,-8.528343401849269867e-03
1.794648170471191406e-01,4.809131622314453125e-01,9.464779496192932129e-02,-4.903969466686248779e-01,-6.533996462821960449e-01,-1.574813723564147949e-01,1.530265808105468750e-01,2.884494662284851074e-01,2.256036736071109772e-02,-2.400954663753509521e-01,4.770347848534584045e-02,-5.748656764626502991e-02,-7.296891510486602783e-02,2.978528738021850586e-01,1.938595622777938843e-01,-1.580027639865875244e-01,-8.742785081267356873e-03,1.528168767690658569e-01,2.689003646373748779e-01,-9.108758531510829926e-03,1.741045415401458740e-01,-3.084760345518589020e-02,-2.528792917728424072e-01,-4.479063749313354492e-01,-1.657269001007080078e-01,1.792797148227691650e-01,-6.174818277359008789e-01,2.472383528947830200e-02,1.944396942853927612e-01,-3.190535679459571838e-02,-7.200964689254760742e-01,-1.632623374462127686e-01,6.813157796859741211e-01,7.108690142631530762e-01,5.428825691342353821e-02,-3.270530328154563904e-02,-4.626381695270538330e-01,-2.196305692195892334e-01,3.636033833026885986e-01,1.443823724985122681e-01,2.045452147722244263e-01,1.661092936992645264e-01,-2.156425565481185913e-01,-3.386659026145935059e-01,2.354893833398818970e-02,2.615630030632019043e-01,-2.552879229187965393e-02,-2.340201139450073242e-01,-6.095363944768905640e-02,1.259502172470092773e-01,-1.415203362703323364e-01,2.318055927753448486e-01,4.495151042938232422e-01,2.101098597049713135e-01,-4.994506537914276123e-01,2.300779968500137329e-01,5.667123794555664062e-01,-3.536102771759033203e-01,7.052439730614423752e-03,7.435491681098937988e-02
1.158523187041282654e-02,-2.200087532401084900e-02,-6.813350319862365723e-02,-1.126206815242767334e-01,-1.487902253866195679e-01,-8.851771801710128784e-02,-4.918229579925537109e-02,-2.285618036985397339e-01,-3.821361958980560303e-01,-3.620338141918182373e-01,8.315810700878500938e-04,3.111369907855987549e-01,4.372957646846771240e-01,3.677998781204223633e-01,2.768507897853851318e-01,1.003083735704421997e-01,-5.583361536264419556e-02,-2.512237429618835449e-01,-2.641304433345794678e-01,-1.117205917835235596e-01,2.387668564915657043e-02,2.690760046243667603e-02,1.629434823989868164e-01,7.699286192655563354e-02,2.451620548963546753e-01,3.380130529403686523e-01,3.143821060657501221e-01,1.646346002817153931e-01,8.571940660476684570e-02,-2.828124538064002991e-02,5.166361480951309204e-02,7.235877960920333862e-02,1.023306995630264282e-01,1.684046834707260132e-01,8.733566850423812866e-02,5.198504775762557983e-02,8.817203342914581299e-02,1.217184513807296753e-01,3.094671070575714111e-01,-1.803060621023178101e-01,-1.217228174209594727e-01,-8.451440185308456421e-02,2.258693240582942963e-02,-1.459572464227676392e-01,8.614259772002696991e-03,1.393588334321975708e-01,1.169415190815925598e-01,3.592621535062789917e-02,-1.113056614995002747e-01,-3.871268779039382935e-02,-4.021186754107475281e-02,-1.384347826242446899e-01,3.188225626945495605e-02,-5.159679334610700607e-03,9.554006904363632202e-02,-4.342735186219215393e-02,-6.523407250642776489e-02,2.596928365528583527e-02,-6.785011850297451019e-03,1.072964295744895935e-01
-9.739921079017221928e-04,-1.928139925003051758e-01,6.867400370538234711e-03,-9.627126157283782959e-03,2.017880417406558990e-02,-1.592768914997577667e-02,-4.441123604774475098e-01,-4.397626593708992004e-02,5.920198280364274979e-03,7.586162537336349487e-04,-1.141460263170301914e-03,1.335270237177610397e-02,-1.902501657605171204e-02,-1.002508681267499924e-02,-2.158084325492382050e-02,-5.054121837019920349e-02,-2.153470516204833984e+00,-1.094664633274078369e-02,-1.367548829875886440e-03,-1.432439778000116348e-02,8.522602729499340057e-03,-1.567860017530620098e-03,2.035802789032459259e-02,3.989756572991609573e-03,-3.177435137331485748e-03,-1.957992464303970337e-02,-2.494294047355651855e-01,-1.109487842768430710e-02,6.666999775916337967e-03,-1.036661624908447266e+00,1.848639994859695435e-01,2.751080691814422607e-02,5.679451860487461090e-03,-4.225273057818412781e-02,-9.824410080909729004e-03,4.690935909748077393e-01,8.747922629117965698e-02,4.822860006242990494e-03,-7.674668449908494949e-03,1.449256297200918198e-02,5.181049928069114685e-03,3.418000787496566772e-02,1.481598522514104843e-02,-1.697375997900962830e-02,1.738847233355045319e-02,2.143192052841186523e+00,2.775807492434978485e-02,-1.603513397276401520e-02,4.152186214923858643e-03,4.978486802428960800e-03,-1.215493679046630859e-02,-6.984439678490161896e-03,-6.041494663804769516e-03,-3.106240928173065186e-02,-2.782064862549304962e-02,2.500998079776763916e-01,3.200356289744377136e-02,-1.874976977705955505e-02,1.006303071975708008e+00,3.415831550955772400e-02
-6.020265631377696991e-03,5.855325143784284592e-03,1.199162844568490982e-02,-1.194677129387855530e-02,-4.984122887253761292e-02,-8.318030275404453278e-03,-3.925028443336486816e-02,1.169663853943347931e-02,1.547820866107940674e-02,-1.811863854527473450e-02,-8.291221410036087036e-02,3.606127947568893433e-02,1.055816560983657837e-01,-3.665426373481750488e-02,3.488921374082565308e-02,5.420926213264465332e-02,-1.414890028536319733e-02,8.569816499948501587e-02,-1.024057939648628235e-01,-7.012967765331268311e-02,9.884433448314666748e-02,1.516224145889282227e-01,8.475804701447486877e-03,-5.096060037612915039e-02,-1.842705011367797852e-01,6.048642843961715698e-02,-3.892719000577926636e-02,-1.200242638587951660e-01,5.291016027331352234e-02,-8.015114814043045044e-02,9.060226380825042725e-03,-1.875776946544647217e-01,-1.625771820545196533e-01,-2.827224135398864746e-01,-1.302880793809890747e-01,-7.058919966220855713e-02,2.686361037194728851e-02,4.251146316528320312e-01,5.171885490417480469e-01,1.943492889404296875e-01,2.751503586769104004e-01,-4.895230289548635483e-03,-1.302928924560546875e-01,2.799738943576812744e-02,-8.592543751001358032e-02,7.154672592878341675e-02,3.224780037999153137e-02,9.152887761592864990e-02,1.768366843461990356e-01,-6.358328461647033691e-02,-1.189591363072395325e-01,-6.435452401638031006e-02,-1.341574639081954956e-01,-8.865632861852645874e-02,5.579746514558792114e-02,2.772313356399536133e-01,3.844309151172637939e-01,4.294500052928924561e-01,2.365608364343643188e-01,1.593422889709472656e-01
2.144163846969604492e-01,2.100380808115005493e-01,1.648496687412261963e-01,-6.870640814304351807e-02,-1.738174408674240112e-01,-3.965961933135986328e-01,-4.825951755046844482e-01,-3.311192095279693604e-01,-3.192153573036193848e-02,1.576195359230041504e-01,1.262916624546051025e-01,1.436812281608581543e-01,1.573557257652282715e-01,-7.155139744281768799e-02,6.948526948690414429e-02,8.183489739894866943e-02,4.226692393422126770e-02,6.677389144897460938e-02,9.291411936283111572e-02,1.558054685592651367e-01,7.513163983821868896e-02,1.179787963628768921e-01,-1.745968312025070190e-02,-1.301543414592742920e-01,-1.996519565582275391e-01,-2.644976675510406494e-01,-5.171052366495132446e-02,1.305624991655349731e-01,1.705887466669082642e-01,6.960335373878479004e-02,1.346022449433803558e-02,-1.046907994896173477e-02,1.306704245507717133e-02,-9.559400379657745361e-03,2.449610382318496704e-01,1.686817407608032227e-01,2.470335811376571655e-01,-2.748759686946868896e-01,1.492643058300018311e-01,5.645079910755157471e-02,8.434004336595535278e-02,-1.875794306397438049e-02,2.937234379351139069e-02,5.629130825400352478e-02,-3.254514932632446289e-02,9.503544867038726807e-02,4.881903156638145447e-02,4.463294520974159241e-03,7.090571522712707520e-02,1.000227220356464386e-02,5.173275619745254517e-02,-7.121234200894832611e-03,2.032448947429656982e-01,9.215839207172393799e-02,-1.978938430547714233e-01,1.429920345544815063e-01,-6.674826145172119141e-02,3.783281147480010986e-02,1.293779909610748291e-01,-6.793925911188125610e-02
1.768386922776699066e-02,2.828357927501201630e-02,-7.829672098159790039e-02,-6.194379925727844238e-01,2.890986017882823944e-02,-5.282532423734664917e-02,-1.576624155044555664e+00,6.150179076939821243e-03,3.225577250123023987e-02,1.491100713610649109e-02,5.168876051902770996e-02,2.846031263470649719e-02,4.048313573002815247e-02,2.513801120221614838e-02,1.630093529820442200e-02,4.236272349953651428e-02,-1.108384225517511368e-02,-3.070211270824074745e-03,-3.520856052637100220e-02,5.671153590083122253e-02,3.205841407179832458e-02,3.839618712663650513e-02,-4.665322229266166687e-02,-2.242576703429222107e-02,7.056051399558782578e-03,1.593002863228321075e-02,-8.995206095278263092e-03,-2.109456360340118408e-01,-1.127354621887207031e+00,-1.538957282900810242e-02,-1.307506114244461060e-02,6.521197408437728882e-02,6.069867610931396484e-01,6.133027374744415283e-03,3.280494734644889832e-02,1.530041098594665527e+00,5.049873888492584229e-02,-6.441884487867355347e-02,2.275144495069980621e-02,-6.047795340418815613e-02,1.253067515790462494e-02,-9.313662350177764893e-02,-3.468220680952072144e-02,-4.266278073191642761e-02,-2.692771516740322113e-02,2.212313376367092133e-02,-7.463667541742324829e-03,5.275484919548034668e-02,-2.610238501802086830e-03,-5.404763296246528625e-02,-3.170255199074745178e-02,1.626155897974967957e-02,2.979933284223079681e-02,-1.154205203056335449e-02,-2.325956523418426514e-02,-1.032675150781869888e-02,2.142314165830612183e-01,1.110862612724304199e+00,8.602389693260192871e-02,-3.919564187526702881e-02
-1.864530891180038452e-02,-4.239535331726074219e-02,-1.267847977578639984e-02,-3.995514810085296631e-01,-9.236368536949157715e-02,-1.133494265377521515e-02,5.741087719798088074e-02,-2.494575269520282745e-02,-2.883428707718849182e-02,3.608163073658943176e-02,5.489097442477941513e-03,2.422278048470616341e-03,8.199304342269897461e-03,1.675137667916715145e-03,3.398013114929199219e-02,1.868872344493865967e-02,3.177673742175102234e-02,-1.016360428184270859e-02,-6.189626455307006836e-02,-1.855275630950927734e+00,-2.442662790417671204e-02,-3.860092163085937500e-02,-3.617768734693527222e-02,2.939623082056641579e-03,1.795385032892227173e-02,4.098320007324218750e-02,4.682568833231925964e-02,1.574107259511947632e-02,-9.843879938125610352e-02,-8.623990416526794434e-01,3.341002389788627625e-02,-1.333522610366344452e-03,4.134397506713867188e-01,1.392628103494644165e-01,1.331535913050174713e-02,-3.625421226024627686e-02,9.177118539810180664e-03,1.813442632555961609e-02,-1.021384354680776596e-02,-4.848297685384750366e-02,-6.144004408270120621e-03,-4.252368211746215820e-02,-2.186855301260948181e-02,2.364091761410236359e-02,4.563768394291400909e-03,-5.487691611051559448e-02,1.829130947589874268e-02,-2.487103641033172607e-02,1.804810285568237305e+00,7.651833444833755493e-02,4.488344490528106689e-02,5.322452634572982788e-02,-1.679686084389686584e-02,-3.406851366162300110e-02,-8.927534520626068115e-02,-5.028827860951423645e-02,-3.431150689721107483e-02,1.149790734052658081e-01,8.905020952224731445e-01,1.278845500200986862e-02
-8.614175952970981598e-03,-6.135216355323791504e-02,-2.030421495437622070e+00,3.051453968510031700e-03,-8.449099957942962646e-03,-1.706842216663062572e-03,5.737511441111564636e-03,-9.853013753890991211e-01,-4.915111139416694641e-02,-5.219937488436698914e-02,-4.381918013095855713e-01,2.049497142434120178e-02,-1.328752841800451279e-02,-3.488426795229315758e-03,-8.071155752986669540e-04,4.504295531660318375e-03,-2.787877339869737625e-03,2.365491911768913269e-02,-1.205794364213943481e-01,-7.425229251384735107e-02,2.930904738605022430e-03,6.265404634177684784e-03,-1.560377180576324463e-01,1.363142766058444977e-02,-6.355509907007217407e-02,6.853423081338405609e-03,-2.874764427542686462e-02,-1.683921739459037781e-02,-4.426579549908638000e-02,-1.654709316790103912e-02,2.623149752616882324e-02,2.041468381881713867e+00,-3.984183445572853088e-02,1.796412840485572815e-02,1.307122036814689636e-02,-1.649674959480762482e-02,9.752820134162902832e-01,8.549650758504867554e-02,3.881401568651199341e-02,4.508005976676940918e-01,3.399063646793365479e-02,-1.704376190900802612e-02,-9.829127229750156403e-03,-1.941570453345775604e-02,1.854188740253448486e-02,-1.345637906342744827e-02,4.814561922103166580e-03,1.558544039726257324e-01,1.029224619269371033e-01,-1.764060184359550476e-02,-7.484668400138616562e-03,1.533587574958801270e-01,-2.801708877086639404e-02,6.488739699125289917e-02,-2.629377320408821106e-02,4.740228131413459778e-02,3.328129276633262634e-02,4.106443375349044800e-02,-4.048721864819526672e-03,-6.783824879676103592e-03
5.217077955603599548e-02,-1.600293815135955811e-02,-2.477146126329898834e-02,-1.794614270329475403e-02,-9.215661138296127319e-02,-9.769625216722488403e-02,-3.434317186474800110e-02,-1.026936769485473633e-01,-5.052278563380241394e-02,-5.896866694092750549e-02,-4.090097174048423767e-02,-1.473291590809822083e-02,4.681366682052612305e-02,-3.260311856865882874e-02,1.326084020547568798e-03,2.416245266795158386e-02,2.103747986257076263e-02,-2.183031104505062103e-02,6.015813350677490234e-02,1.657938584685325623e-02,7.268741261214017868e-03,2.666381560266017914e-02,5.948801711201667786e-02,1.815650239586830139e-02,-1.394446589983999729e-03,8.935666829347610474e-02,-6.528676301240921021e-02,-6.128962710499763489e-02,1.436173729598522186e-02,-8.898432366549968719e-03,5.158091783523559570e-01,4.024023711681365967e-01,3.781965076923370361e-01,3.787368237972259521e-01,2.293960005044937134e-01,1.699989140033721924e-01,1.322645395994186401e-01,2.351323962211608887e-01,1.862958371639251709e-01,1.043242663145065308e-01,6.736723333597183228e-02,1.236688941717147827e-01,5.769039317965507507e-02,1.051926985383033752e-01,4.598867520689964294e-02,1.496495679020881653e-02,-3.160303458571434021e-02,-1.858345717191696167e-01,-1.156138405203819275e-01,-1.328600943088531494e-01,-1.175879091024398804e-01,-2.125099897384643555e-01,-1.892040073871612549e-01,-2.362490594387054443e-01,-1.842904239892959595e-01,-9.722933918237686157e-02,-1.206973120570182800e-01,-4.175894707441329956e-02,2.798983268439769745e-02,4.279084503650665283e-02
-8.179952204227447510e-02,-8.303848654031753540e-02,-9.151335805654525757e-02,-1.676396094262599945e-02,-4.143810831010341644e-03,-4.476188719272613525e-01,-1.370204687118530273e-01,4.587876200675964355e-01,-3.992829918861389160e-01,-2.565813362598419189e-01,-1.313676238059997559e-01,7.374042272567749023e-02,8.083474636077880859e-02,-5.736034736037254333e-02,-7.145536690950393677e-02,-1.520355045795440674e-01,-3.589099645614624023e-01,-4.423178732395172119e-01,-2.384140342473983765e-02,3.641355782747268677e-02,1.137385964393615723e-01,-2.200646102428436279e-01,-1.193846836686134338e-01,-6.859667599201202393e-02,8.451484888792037964e-02,-1.786672919988632202e-01,1.912781596183776855e-01,8.979478850960731506e-03,-1.306155472993850708e-01,5.562712624669075012e-02,4.354226216673851013e-02,9.712969884276390076e-03,9.843120723962783813e-02,1.431176960468292236e-01,6.385829299688339233e-02,5.471608638763427734e-01,3.383176624774932861e-01,-5.261535644531250000e-01,4.344835504889488220e-02,3.867127299308776855e-01,3.380773961544036865e-01,2.877283096313476562e-01,2.202265197411179543e-03,-1.155772805213928223e-01,-5.075503885746002197e-02,1.187906712293624878e-01,2.952312827110290527e-01,6.181846261024475098e-01,4.119341671466827393e-01,5.394711717963218689e-02,-2.687382698059082031e-01,2.167397886514663696e-01,8.519896864891052246e-02,1.997776180505752563e-01,-1.231053173542022705e-01,3.150037229061126709e-01,1.298006772994995117e-01,-8.281309157609939575e-02,8.953444659709930420e-02,-2.461811006069183350e-01
-1.787083595991134644e-02,-1.667952388525009155e-01,-1.958564110100269318e-02,-9.077769517898559570e-01,1.211950555443763733e-03,-1.760377781465649605e-03,-6.345628760755062103e-03,1.360924728214740753e-02,3.886731108650565147e-03,-7.250911556184291840e-03,-5.288022160530090332e-01,1.098739728331565857e-02,-1.971924491226673126e-02,-3.305407240986824036e-02,-2.093081951141357422e+00,-9.371326304972171783e-03,-7.612664252519607544e-03,-1.247383421286940575e-03,1.853954046964645386e-02,1.102571375668048859e-02,-1.292392611503601074e-02,5.876120645552873611e-03,4.780150484293699265e-03,7.375919725745916367e-03,5.376831395551562309e-04,3.116153180599212646e-03,-6.775062996894121170e-03,-2.995774447917938232e-01,2.118524163961410522e-02,-1.165909320116043091e-02,1.748042553663253784e-01,1.612304709851741791e-02,9.368264079093933105e-01,1.161941559985280037e-03,1.171938492916524410e-03,7.515055127441883087e-03,-6.056023761630058289e-03,-5.004524718970060349e-03,-3.716392209753394127e-03,5.432662367820739746e-01,3.269051387906074524e-02,3.506531193852424622e-02,-1.318965689279139042e-03,2.131274223327636719e+00,5.388669297099113464e-02,1.371985394507646561e-02,-3.042756579816341400e-03,-1.133409142494201660e-02,1.019568648189306259e-02,-9.162367321550846100e-03,-2.234540646895766258e-03,2.045377530157566071e-02,8.263709023594856262e-03,1.468855701386928558e-02,-2.008805051445960999e-02,1.495367381721735001e-02,2.951659560203552246e-01,-4.829090088605880737e-03,2.198657020926475525e-02,-4.127473104745149612e-03
4.834482073783874512e-02,1.073845922946929932e-01,-1.016557663679122925e-01,-6.467420607805252075e-02,1.807683333754539490e-02,8.881955407559871674e-03,-2.753912471234798431e-02,-4.206390306353569031e-02,-5.890280753374099731e-02,-7.489498704671859741e-02,3.252854198217391968e-02,6.299376487731933594e-02,9.871610999107360840e-02,-1.765206083655357361e-02,-2.716304967179894447e-03,5.826665461063385010e-02,-3.830829635262489319e-03,-4.496461246162652969e-03,8.256050758063793182e-03,1.887907274067401886e-06,1.123201176524162292e-01,3.269725292921066284e-02,-3.891859576106071472e-02,1.864688843488693237e-02,-1.367387920618057251e-01,-3.796391934156417847e-02,-1.015594378113746643e-01,3.628315925598144531e-01,5.279091000556945801e-01,-3.701230138540267944e-02,-1.499594748020172119e-01,6.669278442859649658e-02,3.652615100145339966e-02,2.061041630804538727e-02,5.479052662849426270e-02,-2.899236045777797699e-02,-7.185522932559251785e-03,8.399610966444015503e-02,8.021678775548934937e-03,-3.307532891631126404e-02,-3.177359700202941895e-02,-4.588351026177406311e-02,1.757138669490814209e-01,-1.844932138919830322e-02,9.224539995193481445e-02,1.573599688708782196e-02,-2.646566554903984070e-02,7.626048475503921509e-02,3.029919788241386414e-02,-7.864382117986679077e-02,9.721754491329193115e-02,4.256596416234970093e-02,1.858012937009334564e-02,2.390356361865997314e-01,2.265943139791488647e-01,-3.651611506938934326e-01,9.890327453613281250e-01,-8.632780909538269043e-01,7.663197815418243408e-02,-5.778998881578445435e-02
4.134697094559669495e-02,1.449887752532958984e-01,1.219571754336357117e-01,1.723246276378631592e-01,2.145798653364181519e-01,2.192209661006927490e-01,1.480762213468551636e-01,1.674870401620864868e-01,8.866960555315017700e-02,-1.683734916150569916e-02,-1.175383776426315308e-01,6.206462904810905457e-02,1.758977957069873810e-02,6.551060080528259277e-02,4.792268946766853333e-02,9.770872443914413452e-02,1.967246979475021362e-01,9.480368345975875854e-02,6.089261174201965332e-02,4.744705930352210999e-02,7.771708071231842041e-02,2.479626983404159546e-02,4.309066385030746460e-02,2.238317877054214478e-01,1.729086190462112427e-01,5.218036239966750145e-04,4.544254019856452942e-02,8.303412795066833496e-02,8.588217198848724365e-02,3.133421763777732849e-02,-1.681953296065330505e-02,1.288048923015594482e-01,1.062460914254188538e-01,6.363729387521743774e-02,-6.056550424546003342e-03,2.988948859274387360e-02,7.897630333900451660e-02,8.457712829113006592e-02,-1.363641619682312012e-01,2.245228886604309082e-01,-1.049173176288604736e-01,3.657981008291244507e-02,7.949747145175933838e-02,-1.182442456483840942e-01,-2.495574764907360077e-02,1.278215553611516953e-02,9.153198450803756714e-03,4.959087818861007690e-02,1.095111295580863953e-01,5.638992413878440857e-02,9.800212830305099487e-02,2.142542451620101929e-01,-6.639011949300765991e-02,8.825565129518508911e-02,-1.379800215363502502e-02,2.109521776437759399e-01,-1.401453614234924316e-01,1.216491013765335083e-01,3.549508750438690186e-02,-1.140135712921619415e-02
-2.192891389131546021e-01,-2.386590540409088135e-01,-5.157832521945238113e-03,5.717306584119796753e-02,7.125867158174514771e-02,8.402699977159500122e-02,1.797719486057758331e-02,-9.736537188291549683e-02,2.966574206948280334e-02,7.003392279148101807e-02,-1.143426373600959778e-01,-1.724729686975479126e-01,1.871534995734691620e-02,8.916790783405303955e-02,-1.199503522366285324e-02,-6.613174080848693848e-02,6.936193257570266724e-02,3.261691331863403320e-02,1.294943541288375854e-01,2.035205662250518799e-01,1.166973635554313660e-01,-6.128127872943878174e-02,-1.362681388854980469e-01,8.607604354619979858e-02,3.136244416236877441e-01,1.124576330184936523e-01,2.124587744474411011e-01,-1.451017707586288452e-01,-1.686169803142547607e-01,8.395268023014068604e-02,4.325193762779235840e-01,-1.907720416784286499e-01,1.445131003856658936e-01,1.974907070398330688e-01,1.216544508934020996e-01,-1.618334352970123291e-01,1.404288262128829956e-01,-8.311551064252853394e-03,-1.310415416955947876e-01,1.407855283468961716e-02,6.856663525104522705e-02,9.164581447839736938e-02,4.432526975870132446e-02,1.853137165307998657e-01,2.955747544765472412e-01,1.690966263413429260e-02,2.271854691207408905e-02,1.714112907648086548e-01,-1.621371954679489136e-01,1.893969625234603882e-01,2.230175286531448364e-01,-1.801609545946121216e-01,3.389129340648651123e-01,-1.723644137382507324e-01,3.127542436122894287e-01,-2.402049303054809570e-02,-9.642486460506916046e-03,1.865938603878021240e-01,1.846357062458992004e-02,-1.388536486774682999e-02
-1.583990873768925667e-03,-2.382647097110748291e-01,-1.983813196420669556e-01,-9.247021377086639404e-02,-1.041129902005195618e-01,1.328087747097015381e-01,1.309397518634796143e-01,-2.831508815288543701e-01,6.655548512935638428e-02,2.772521674633026123e-01,4.786551296710968018e-01,3.062921166419982910e-01,-2.884820997714996338e-01,-1.205153539776802063e-01,1.762881409376859665e-03,-2.714165747165679932e-01,-1.971394717693328857e-01,-2.616931200027465820e-01,-4.700071513652801514e-01,-3.640189766883850098e-03,1.876845806837081909e-01,3.437306582927703857e-01,-7.389282435178756714e-02,-2.005112357437610626e-02,-1.911889761686325073e-01,-1.559164822101593018e-01,-3.125125914812088013e-02,-9.953156858682632446e-02,-7.259967178106307983e-02,1.749233454465866089e-01,3.226912319660186768e-01,4.022718667984008789e-01,2.191963195800781250e-01,2.935276366770267487e-02,-2.435455769300460815e-01,-7.761967927217483521e-02,2.531763315200805664e-01,1.017217114567756653e-01,-3.325197100639343262e-01,-3.878430128097534180e-01,-9.460692107677459717e-02,4.151518046855926514e-01,4.413784742355346680e-01,2.862076163291931152e-01,2.652778923511505127e-01,3.319152295589447021e-01,4.536785930395126343e-02,6.505532264709472656e-01,-4.247538745403289795e-01,-2.616134583950042725e-01,-3.542723953723907471e-01,-2.512358361855149269e-03,4.859879314899444580e-01,1.114727854728698730e-01,6.709232181310653687e-02,1.485058069229125977e-01,1.327631324529647827e-01,1.678318977355957031e-01,-2.406465709209442139e-01,-1.566824615001678467e-01
-9.303887188434600830e-02,-1.041916534304618835e-01,-1.301282495260238647e-01,-1.270324736833572388e-01,-2.135617434978485107e-01,-1.426089107990264893e-01,3.469203785061836243e-02,-2.623027563095092773e-01,-3.231383860111236572e-02,4.007647931575775146e-02,-2.454522252082824707e-02,3.337782621383666992e-02,6.789802014827728271e-02,-5.148435384035110474e-02,-1.455363184213638306e-01,-3.866855800151824951e-02,-1.002715900540351868e-01,4.661148041486740112e-02,1.923924311995506287e-02,-2.259695678949356079e-01,-6.327809393405914307e-02,2.073004841804504395e-01,8.754274994134902954e-02,2.189667671918869019e-01,-5.979529023170471191e-02,-1.213369369506835938e+00,-5.218309536576271057e-02,2.344280928373336792e-01,1.774441301822662354e-01,-1.900201439857482910e-01,5.015217512845993042e-02,1.976085454225540161e-01,1.066499128937721252e-01,-1.669618673622608185e-02,3.035321235656738281e-01,2.078900784254074097e-01,1.017822176218032837e-01,1.542432755231857300e-01,1.006283089518547058e-01,8.472687005996704102e-02,1.552445739507675171e-01,6.431252509355545044e-02,6.437767297029495239e-03,5.668606981635093689e-02,2.042141705751419067e-01,2.443975210189819336e-01,1.332837790250778198e-01,2.587907016277313232e-02,4.932798445224761963e-02,1.709863096475601196e-01,1.234771832823753357e-01,1.590974815189838409e-02,-6.100084260106086731e-02,-1.941026002168655396e-01,-7.285599112510681152e-01,8.634111285209655762e-01,7.257435917854309082e-01,-3.335185348987579346e-02,-1.065026596188545227e-01,-5.715252365916967392e-03
-4.196129273623228073e-03,1.526489704847335815e-01,8.095423877239227295e-02,7.302910834550857544e-02,-4.412816464900970459e-02,-3.015845715999603271e-01,-1.240770369768142700e-01,-3.362622484564781189e-02,3.179805725812911987e-02,-1.081032454967498779e-01,-4.702112972736358643e-01,-3.208603858947753906e-01,-1.371391892433166504e+00,4.833741113543510437e-02,8.447521179914474487e-02,1.306581683456897736e-02,1.660505426116287708e-03,3.183751925826072693e-02,-1.516301184892654419e-01,-1.844842731952667236e-01,-9.495971351861953735e-02,4.065526276826858521e-02,1.348682790994644165e-01,-4.169711470603942871e-02,3.752936841920018196e-03,-2.187643051147460938e-01,2.974656820297241211e-01,-3.386545181274414062e-02,-1.979236602783203125e-01,-1.821210607886314392e-02,-1.612658947706222534e-01,-2.260205447673797607e-01,-4.339549317955970764e-02,-6.377350538969039917e-02,2.400571852922439575e-01,2.211482226848602295e-01,7.019908726215362549e-02,-1.789679527282714844e-01,1.770110279321670532e-01,5.771425366401672363e-01,2.623646855354309082e-01,1.603259921073913574e+00,-1.848694682121276855e-01,-1.847808510065078735e-01,-1.945810392498970032e-02,-3.859973978251218796e-03,1.460918188095092773e-01,1.372510343790054321e-01,1.740924865007400513e-01,8.709099143743515015e-02,-5.025810003280639648e-02,-1.081610694527626038e-01,-3.840334340929985046e-02,1.049171909689903259e-01,1.713397055864334106e-01,-1.926634162664413452e-01,-2.322814986109733582e-02,2.760312557220458984e-01,1.114318743348121643e-01,-2.987522631883621216e-02
7.913718372583389282e-02,2.157068252563476562e-01,1.816143840551376343e-01,-2.186792194843292236e-01,1.746391654014587402e-01,-2.678762376308441162e-02,-4.521507322788238525e-01,4.777038097381591797e-01,1.419382840394973755e-01,1.223850101232528687e-01,2.732921577990055084e-02,9.735129028558731079e-02,-2.132070809602737427e-01,-1.011729985475540161e-01,-2.584883570671081543e-01,-3.060050681233406067e-02,4.004656672477722168e-01,-2.454614732414484024e-04,2.544495277106761932e-02,-1.089447587728500366e-01,3.968926966190338135e-01,-3.438026010990142822e-01,2.283201664686203003e-01,4.447963237762451172e-01,1.967191845178604126e-01,-2.923706471920013428e-01,-5.934149622917175293e-01,-5.659168958663940430e-01,-2.896622419357299805e-01,-8.851315826177597046e-02,-7.747460901737213135e-02,-4.960022866725921631e-01,-1.713754259981215000e-03,-3.991710254922509193e-04,1.269254684448242188e-01,9.246125072240829468e-02,3.199456334114074707e-01,9.144794940948486328e-02,-3.021296560764312744e-01,-4.063674211502075195e-01,8.341186493635177612e-02,-1.807521283626556396e-01,1.837938278913497925e-01,1.327096372842788696e-01,2.749999165534973145e-01,2.513971924781799316e-01,-3.195592164993286133e-01,1.311305630952119827e-02,-9.108071774244308472e-02,-1.532322168350219727e-01,-2.679691612720489502e-01,1.426580697298049927e-01,-1.196191906929016113e-01,-2.061660289764404297e-01,-5.632817745208740234e-01,-4.554266035556793213e-01,1.160150319337844849e-01,6.814516782760620117e-01,7.188658118247985840e-01,3.157199025154113770e-01
-1.126957684755325317e-02,2.006478793919086456e-02,2.219068445265293121e-02,2.321583218872547150e-03,-1.927442699670791626e-01,3.146055620163679123e-03,-1.973795518279075623e-02,1.059010624885559082e-02,2.655958011746406555e-02,5.949582438915967941e-03,-3.482274711132049561e-02,-1.972470760345458984e+00,2.244074270129203796e-02,1.434056926518678665e-02,-3.202583640813827515e-02,3.299957513809204102e-02,-2.106510102748870850e-02,-2.050417847931385040e-02,-1.019201278686523438e+00,-3.170969709753990173e-02,-9.697047993540763855e-03,5.768612399697303772e-02,-1.105908025056123734e-02,1.261616684496402740e-02,-4.547390341758728027e-01,-3.111002966761589050e-02,5.231956392526626587e-02,3.090515173971652985e-02,1.859980868175625801e-03,-1.055527944117784500e-02,-3.995723649859428406e-02,-5.190181359648704529e-02,-2.842466533184051514e-02,2.230524122714996338e-01,4.707648605108261108e-02,3.687821328639984131e-02,-1.448560133576393127e-02,-2.427302859723567963e-02,1.896128803491592407e-02,1.366731617599725723e-02,1.936101913452148438e+00,7.126797735691070557e-02,-1.786406617611646652e-03,5.751445889472961426e-02,-7.059849333018064499e-03,8.855949155986309052e-03,1.217714976519346237e-02,9.803768396377563477e-01,5.551771074533462524e-02,2.147278189659118652e-02,-3.945447131991386414e-02,-1.955210044980049133e-02,4.663814976811408997e-02,4.715928733348846436e-01,2.300162427127361298e-02,-3.401868790388107300e-02,-7.316898554563522339e-02,-1.248709857463836670e-02,-9.330125525593757629e-03,2.188877388834953308e-02
1.243085693567991257e-02,2.061913255602121353e-03,-9.214186668395996094e-02,-1.043755039572715759e-01,-8.512993156909942627e-02,1.617821305990219116e-02,1.765089333057403564e-01,1.942483186721801758e-01,2.109641134738922119e-01,1.576913595199584961e-01,1.914625614881515503e-01,2.518863677978515625e-01,1.692506819963455200e-01,1.358479857444763184e-01,6.734056770801544189e-02,-1.628630911000072956e-03,-3.634754568338394165e-02,-3.340116515755653381e-02,-3.987400978803634644e-02,5.772381275892257690e-02,1.145935505628585815e-01,2.920435070991516113e-01,2.066739648580551147e-01,7.592964917421340942e-02,-1.876803040504455566e-01,-3.106075823307037354e-01,-2.944437563419342041e-01,-2.438220977783203125e-01,-1.662483364343643188e-01,-1.142426505684852600e-01,-4.138602875173091888e-03,1.285621672868728638e-01,9.704391658306121826e-02,4.865054413676261902e-02,-2.609588671475648880e-03,-7.547781616449356079e-02,3.826882690191268921e-02,9.820934385061264038e-02,-1.733955461531877518e-03,1.319046318531036377e-02,-5.086990073323249817e-02,-6.784802768379449844e-03,1.203903257846832275e-01,1.149930339306592941e-02,1.189497113227844238e-01,1.572336703538894653e-01,9.022978693246841431e-02,7.518406212329864502e-02,-7.646441459655761719e-03,1.559119950979948044e-02,-1.006794050335884094e-01,-1.353485435247421265e-01,1.236070021986961365e-01,1.083384305238723755e-01,8.693958818912506104e-02,-7.001689821481704712e-02,1.697057634592056274e-01,1.809495389461517334e-01,-3.780807554721832275e-02,-6.552536040544509888e-02
-3.794359862804412842e-01,-3.628632128238677979e-01,1.816383451223373413e-01,1.669162362813949585e-01,-8.027409762144088745e-02,-3.210030496120452881e-01,-3.610701858997344971e-01,2.612126059830188751e-02,6.326827406883239746e-02,1.179375424981117249e-01,3.023200035095214844e-01,1.146356295794248581e-02,6.863775849342346191e-02,-5.405225977301597595e-02,6.579542160034179688e-02,8.311842381954193115e-02,1.400450319051742554e-01,5.605651065707206726e-02,-1.846529692411422729e-01,-1.638157367706298828e-01,1.458131987601518631e-02,5.690229684114456177e-02,1.596172526478767395e-02,1.548691242933273315e-01,2.687176689505577087e-02,-1.206387355923652649e-01,-1.286540762521326542e-03,-2.268547751009464264e-02,1.650243103504180908e-01,6.366275995969772339e-02,6.202617287635803223e-01,-3.987570703029632568e-01,3.429155424237251282e-02,9.077268093824386597e-02,2.566563785076141357e-01,3.569935560226440430e-01,-2.894186377525329590e-01,6.031202673912048340e-01,-1.586198210716247559e-01,-2.476349323987960815e-01,2.839658558368682861e-01,2.217422425746917725e-01,-1.116145551204681396e-01,5.742533504962921143e-02,-8.116859942674636841e-02,3.939305618405342102e-02,8.878974616527557373e-02,1.812442541122436523e-01,3.247177898883819580e-01,-2.575127966701984406e-02,-1.584678441286087036e-01,1.181254908442497253e-01,-1.213346570730209351e-01,-2.704458311200141907e-04,-3.820883855223655701e-02,-1.444134395569562912e-02,3.970916196703910828e-02,-5.440585315227508545e-02,2.399345040321350098e-01,-1.875833608210086823e-02
8.527149446308612823e-03,-4.754848312586545944e-03,-2.913515642285346985e-02,1.499213464558124542e-02,1.137876696884632111e-02,-5.564808379858732224e-03,-1.349231135100126266e-02,-3.320937603712081909e-02,-4.591709971427917480e-01,1.456665992736816406e-02,1.189793739467859268e-02,2.085517626255750656e-03,-3.128407895565032959e-02,-9.302572607994079590e-01,5.048492457717657089e-03,-1.895792037248611450e-02,-2.714574523270130157e-02,-7.421530783176422119e-03,1.564715057611465454e-03,-2.035624720156192780e-02,1.346909627318382263e-02,-2.072246000170707703e-02,-5.927738919854164124e-02,-1.958734035491943359e+00,-1.722682639956474304e-02,-2.151707708835601807e-01,-2.076733671128749847e-02,-1.586001133546233177e-03,-2.632900141179561615e-02,1.504996884614229202e-02,1.136254286393523216e-03,3.297464177012443542e-02,2.260000631213188171e-02,-2.479395642876625061e-02,3.398805111646652222e-02,-6.393204908818006516e-03,1.749524474143981934e-02,4.560324549674987793e-01,1.188847050070762634e-02,1.041439920663833618e-02,3.500800579786300659e-02,-5.076135508716106415e-03,9.528416395187377930e-01,8.879823144525289536e-04,3.005855903029441833e-02,2.585226483643054962e-02,-4.334578989073634148e-05,3.458053106442093849e-03,2.867301926016807556e-02,2.406045794486999512e-02,2.461448311805725098e-02,-1.121609192341566086e-02,1.984055161476135254e+00,3.982600197196006775e-02,2.275005578994750977e-01,3.887239098548889160e-02,-1.473387354053556919e-03,1.226436533033847809e-02,3.192479955032467842e-03,-9.110691957175731659e-03
2.352158874273300171e-01,-8.744873404502868652e-01,2.573569416999816895e-01,3.462677001953125000e-01,-9.147959202527999878e-02,-5.714735984802246094e-01,-4.428927004337310791e-01,-5.761249065399169922e-01,-3.227773308753967285e-01,5.249157547950744629e-02,1.698871143162250519e-02,3.501933515071868896e-01,-7.824528962373733521e-02,-6.143283843994140625e-02,3.378942906856536865e-01,-2.860728204250335693e-01,1.349289715290069580e-01,-4.151691123843193054e-02,-2.079989388585090637e-02,-1.303378790616989136e-01,1.843259036540985107e-01,-1.669827699661254883e-01,-4.869816899299621582e-01,-1.726801693439483643e-01,-1.111778616905212402e-01,4.184098243713378906e-01,7.449769973754882812e-01,-2.502061426639556885e-02,4.816397652029991150e-02,-1.844916343688964844e-01,-4.391332864761352539e-01,-5.187750458717346191e-01,2.952248454093933105e-01,-7.998385429382324219e-01,6.054867804050445557e-02,-3.979648649692535400e-01,-7.568289339542388916e-02,6.554115414619445801e-01,-5.471506118774414062e-01,6.932334899902343750e-01,-1.201388716697692871e+00,-5.605874061584472656e-01,3.792512118816375732e-01,9.926299750804901123e-02,7.244491577148437500e-02,3.778370320796966553e-01,2.748622298240661621e-01,-5.390044450759887695e-01,2.174307405948638916e-01,-1.896192282438278198e-01,6.517452746629714966e-02,-1.704860329627990723e-01,2.333209812641143799e-01,-9.632883220911026001e-02,4.539065435528755188e-02,-4.329037666320800781e-01,-2.697669863700866699e-01,-1.235709935426712036e-01,1.223443299531936646e-01,-2.669009268283843994e-01
-9.897429496049880981e-03,1.593023724853992462e-02,-1.680912822484970093e-01,-1.473377794027328491e-01,1.046950966119766235e-01,2.345075756311416626e-01,4.137183427810668945e-01,1.835390180349349976e-01,-6.462468504905700684e-01,-1.159854829311370850e-01,-1.895543634891510010e-01,-9.529183059930801392e-02,3.620138857513666153e-03,-1.025080531835556030e-01,-1.121420636773109436e-01,2.605173271149396896e-03,-1.299884021282196045e-01,-4.939327482134103775e-03,7.070736493915319443e-03,-7.012203335762023926e-02,-3.310391306877136230e-02,-1.550342291593551636e-01,1.397538185119628906e-02,6.793284416198730469e-02,4.081375896930694580e-02,1.204771846532821655e-01,-1.031584963202476501e-01,-2.919309735298156738e-01,1.317930873483419418e-02,2.945058979094028473e-02,-8.101726323366165161e-02,8.787801116704940796e-02,8.358938992023468018e-02,2.395469695329666138e-01,1.565122604370117188e-01,-4.632142931222915649e-02,-4.917805492877960205e-01,-1.403533101081848145e+00,4.787027835845947266e-01,4.956376254558563232e-01,3.846677243709564209e-01,-3.797491639852523804e-02,3.218091651797294617e-02,4.949543625116348267e-02,1.548658162355422974e-01,1.403373330831527710e-01,1.281259506940841675e-01,1.337072253227233887e-02,2.175818979740142822e-01,-7.873541861772537231e-02,1.816453486680984497e-01,1.281732916831970215e-01,2.254799157381057739e-01,-7.729592919349670410e-02,-1.307368427515029907e-01,-2.630950212478637695e-01,-3.005822002887725830e-01,2.636372447013854980e-01,1.626204550266265869e-01,-5.155108124017715454e-02
-7.229438982903957367e-03,5.109432712197303772e-02,3.125258162617683411e-02,-2.519877254962921143e-02,-8.750625848770141602e-01,4.262639675289392471e-03,-3.184272721409797668e-02,-9.087697253562510014e-04,-1.653053611516952515e-01,-6.532495375722646713e-03,-7.138915359973907471e-03,1.332353986799716949e-02,-3.217902779579162598e-02,-1.505897380411624908e-03,-5.111129209399223328e-02,4.638830944895744324e-02,1.358774304389953613e-02,1.008090004324913025e-02,-2.182455360889434814e-02,-2.227701060473918915e-02,-8.012201637029647827e-02,-1.946911573410034180e+00,-2.106696069240570068e-01,-9.938464500010013580e-03,-1.533610094338655472e-02,-3.815252780914306641e-01,-4.130058363080024719e-02,2.310950495302677155e-02,1.417668908834457397e-02,-3.605447011068463326e-03,-4.226995632052421570e-02,8.766559883952140808e-03,-9.923657402396202087e-03,9.091426730155944824e-01,5.758469179272651672e-02,8.370181918144226074e-02,2.337403222918510437e-02,1.828332394361495972e-01,8.205304853618144989e-03,3.348950669169425964e-02,2.010133303701877594e-02,3.579149395227432251e-02,2.266523614525794983e-02,1.129773911088705063e-02,-3.973825648427009583e-02,-1.155312918126583099e-02,-1.793086342513561249e-02,5.285786092281341553e-02,3.105544485151767731e-02,-1.452421187423169613e-03,1.917974591255187988e+00,2.691633999347686768e-01,6.457423791289329529e-03,-5.314863752573728561e-03,3.682007491588592529e-01,6.598486006259918213e-02,-6.985482573509216309e-02,-1.732803299091756344e-03,1.807483471930027008e-02,3.478096099570393562e-03
2.457796335220336914e-01,1.676946133375167847e-01,1.776727437973022461e-01,7.196436822414398193e-02,7.921063899993896484e-02,-5.623602867126464844e-02,-2.335091354325413704e-03,-5.330394208431243896e-02,-7.055836915969848633e-02,-8.872447162866592407e-02,-1.315503269433975220e-01,-1.224602237343788147e-01,-1.935861408710479736e-01,-2.323873043060302734e-01,-1.158629581332206726e-01,-2.345461398363113403e-01,-1.760129481554031372e-01,-1.768593192100524902e-01,-3.800117596983909607e-02,9.360181540250778198e-02,1.639060676097869873e-01,3.390818536281585693e-01,2.911466658115386963e-01,3.843846917152404785e-01,3.391921222209930420e-01,4.048138856887817383e-01,3.596232235431671143e-01,1.495688408613204956e-01,7.965444028377532959e-02,-1.353723276406526566e-02,-1.139400750398635864e-01,-1.261884421110153198e-01,1.449054665863513947e-02,2.487214282155036926e-02,1.278123110532760620e-01,8.434373140335083008e-02,3.699932247400283813e-02,8.791065216064453125e-02,1.864473521709442139e-01,1.083342079073190689e-02,1.598100215196609497e-01,1.465383768081665039e-01,1.825986355543136597e-01,2.590470910072326660e-01,1.665930449962615967e-01,2.629052102565765381e-01,1.532907783985137939e-01,1.314045041799545288e-01,-6.726720929145812988e-02,-6.015068665146827698e-02,-1.459825634956359863e-01,-1.903374344110488892e-01,-1.821694970130920410e-01,-2.147008329629898071e-01,-2.733873128890991211e-01,-2.498003691434860229e-01,3.707495331764221191e-02,-2.446679770946502686e-01,-1.037183403968811035e-02,-9.901575744152069092e-03
2.266495227813720703e-01,3.005845248699188232e-01,1.342725157737731934e-01,4.118472635746002197e-01,6.333950161933898926e-01,8.383326977491378784e-02,3.803917905315756798e-03,-1.901903450489044189e-01,-2.915888428688049316e-01,-1.768694669008255005e-01,3.539097905158996582e-01,2.043530344963073730e-02,3.017118666321039200e-03,1.387609839439392090e-01,-1.509225815534591675e-01,-1.709887571632862091e-02,-3.339129313826560974e-02,3.169953078031539917e-02,-1.294880956411361694e-01,1.540722101926803589e-01,-1.527253836393356323e-01,1.710204482078552246e-01,3.201690614223480225e-01,1.141994073987007141e-01,2.414045482873916626e-01,-2.915785834193229675e-02,-5.843648910522460938e-01,-3.058884143829345703e-01,-1.398261040449142456e-01,-1.474338322877883911e-01,-1.380887925624847412e-01,2.181070446968078613e-01,1.183097586035728455e-01,-2.489200234413146973e-01,1.558132618665695190e-01,2.711185812950134277e-01,1.403854042291641235e-01,-3.045315295457839966e-02,3.659295737743377686e-01,-3.336124718189239502e-01,-2.462387531995773315e-01,-1.422562729567289352e-02,-2.614041268825531006e-01,1.954345703125000000e-01,1.003101691603660583e-01,-9.690436720848083496e-02,1.012862548232078552e-01,-3.072145394980907440e-02,1.327871233224868774e-01,-4.914091154932975769e-02,1.289460510015487671e-01,-3.517506718635559082e-01,5.032035708427429199e-02,-9.649625420570373535e-02,-1.621393561363220215e-01,1.615573912858963013e-01,6.263480782508850098e-01,-3.896101713180541992e-01,1.162122189998626709e-01,-5.802691355347633362e-02
1.932107657194137573e-01,-2.691114842891693115e-01,-4.139114916324615479e-02,1.636556535959243774e-01,-3.136984705924987793e-01,6.033181026577949524e-02,-4.006726667284965515e-02,4.074338078498840332e-01,5.318053364753723145e-01,-1.370900034904479980e+00,9.050945937633514404e-02,2.430919408798217773e-01,-1.911044418811798096e-01,-3.983574360609054565e-02,-2.454853989183902740e-02,-3.571734949946403503e-02,1.308524608612060547e-01,1.419828832149505615e-01,-1.307229325175285339e-02,6.362780183553695679e-02,1.744573861360549927e-01,6.944707781076431274e-02,-3.285040380433201790e-03,-1.219088733196258545e-01,-2.219478487968444824e-01,1.663375347852706909e-01,3.270741999149322510e-01,5.795646458864212036e-02,-2.006569411605596542e-03,-1.171517595648765564e-01,3.036009669303894043e-01,3.691201806068420410e-01,-3.392321169376373291e-01,-1.363631635904312134e-01,1.288034915924072266e-01,-1.443591862916946411e-01,-6.008355021476745605e-01,-6.039326786994934082e-01,1.089479565620422363e+00,8.848680257797241211e-01,-4.960606992244720459e-01,-1.222968474030494690e-01,7.051432877779006958e-02,-2.388955354690551758e-01,-6.515198945999145508e-02,-1.967895925045013428e-01,-3.692430853843688965e-01,-1.183191463351249695e-01,-1.695671118795871735e-02,-1.428749561309814453e-01,-2.065962404012680054e-01,-1.514555662870407104e-01,-3.841816633939743042e-02,1.539743244647979736e-01,-1.209971085190773010e-01,-5.157004594802856445e-01,-3.186295926570892334e-01,1.623259484767913818e-01,8.057083934545516968e-02,-1.524602877907454967e-03
-4.290146529674530029e-01,-3.588704466819763184e-01,-1.562637090682983398e-01,7.974085956811904907e-02,3.625952005386352539e-01,3.158528804779052734e-01,2.710080146789550781e-01,2.463125996291637421e-02,-3.484720587730407715e-01,-3.237486481666564941e-01,-1.686675697565078735e-01,-7.734756916761398315e-02,-1.383642107248306274e-01,-7.954729720950126648e-03,5.355822294950485229e-02,6.092897430062294006e-02,-1.029954627156257629e-01,-4.087526351213455200e-02,-1.261236965656280518e-01,-7.488432526588439941e-02,1.484884023666381836e-01,1.759018301963806152e-01,4.891043901443481445e-02,-2.802681922912597656e-01,-3.108146786689758301e-01,-4.420354068279266357e-01,-1.036667972803115845e-01,4.590597152709960938e-01,4.287522137165069580e-01,7.927836477756500244e-02,4.395811259746551514e-01,9.028068929910659790e-02,-6.186628714203834534e-02,-5.138546228408813477e-01,1.477357000112533569e-01,-1.899139434099197388e-01,-1.057264059782028198e-01,2.971734404563903809e-01,4.947615861892700195e-01,2.086499333381652832e-02,1.210633441805839539e-01,1.218684688210487366e-01,-9.171589277684688568e-03,9.894095361232757568e-02,3.137408941984176636e-02,3.301666378974914551e-01,3.715343475341796875e-01,-5.488298088312149048e-02,2.172234207391738892e-01,-3.507957980036735535e-02,1.138479039072990417e-01,-1.297637075185775757e-01,1.589548587799072266e-01,2.875869274139404297e-01,-4.679289832711219788e-02,3.261390030384063721e-01,-3.994745314121246338e-01,4.380128160119056702e-02,-9.278281033039093018e-02,1.068685296922922134e-02
-7.919250056147575378e-03,-1.098994165658950806e-01,-2.570952521637082100e-03,-1.104369945824146271e-02,-1.581084169447422028e-02,-1.032927073538303375e-02,-1.124096475541591644e-02,8.221806958317756653e-03,-2.464272454380989075e-02,-9.555574655532836914e-01,6.822062190622091293e-03,-1.619016006588935852e-02,1.140568777918815613e-02,-4.091367125511169434e-03,4.580872133374214172e-03,5.541970953345298767e-03,-2.759855799376964569e-02,3.162987064570188522e-03,8.859409135766327381e-04,-2.993845008313655853e-02,-2.043953418731689453e+00,-2.383103780448436737e-02,3.065620735287666321e-02,1.940081478096544743e-03,-5.104234814643859863e-02,-4.845927655696868896e-01,-2.003887668251991272e-02,9.989658370614051819e-03,-2.477133274078369141e-01,-5.562476348131895065e-03,1.327064782381057739e-01,1.616613194346427917e-02,2.435875125229358673e-02,7.887735031545162201e-03,1.413231808692216873e-02,-6.184834055602550507e-03,-9.429597295820713043e-03,-3.096049092710018158e-02,9.619820713996887207e-01,9.058467112481594086e-03,1.066705305129289627e-02,-1.328059658408164978e-02,-5.476969294250011444e-03,-7.426998112350702286e-03,-1.168404519557952881e-02,3.933298960328102112e-02,1.650845631957054138e-02,5.800563842058181763e-03,-8.841462433338165283e-03,2.045684337615966797e+00,4.647314175963401794e-02,1.129882410168647766e-02,1.635069027543067932e-02,4.571925476193428040e-02,4.869402945041656494e-01,6.919283885508775711e-03,-7.885610684752464294e-03,2.469752728939056396e-01,-2.618197351694107056e-03,1.075172424316406250e-02
4.247056320309638977e-03,2.734899520874023438e-03,-2.556612249463796616e-03,-4.739225655794143677e-02,-4.742991179227828979e-02,-2.049086570739746094e+00,-3.085584938526153564e-02,2.364035136997699738e-02,5.982749164104461670e-03,-1.987961307168006897e-02,-1.869654208421707153e-01,1.185826770961284637e-02,-1.720190746709704399e-03,-4.741091430187225342e-01,5.095804575830698013e-03,-5.338957067579030991e-03,1.933691650629043579e-02,-3.070413134992122650e-02,-5.486307293176651001e-02,1.277748495340347290e-02,2.850843966007232666e-02,-2.587879449129104614e-02,-1.069595098495483398e+00,1.420304179191589355e-02,2.719345316290855408e-02,-3.712104633450508118e-02,-1.707772016525268555e-01,-2.551352977752685547e-02,2.340600453317165375e-02,1.009458955377340317e-02,-1.556052919477224350e-02,1.062272116541862488e-02,6.963271647691726685e-02,-1.365608535706996918e-02,2.051042556762695312e+00,5.986807867884635925e-02,-3.389434190467000008e-03,9.410341270267963409e-03,-1.068114489316940308e-02,1.816422492265701294e-01,8.429064415395259857e-03,-3.430218994617462158e-02,4.690317511558532715e-01,1.681092754006385803e-02,-1.389517914503812790e-02,-2.720407210290431976e-02,2.032767236232757568e-02,6.907519698143005371e-02,-2.774108015000820160e-02,-1.448446605354547501e-02,1.872681453824043274e-02,1.044073700904846191e+00,1.880036666989326477e-02,-1.970090903341770172e-03,3.395766764879226685e-02,1.481216400861740112e-01,4.904406517744064331e-02,-4.966273903846740723e-02,-1.483938191086053848e-02,1.855297386646270752e-02
