1.774442568421363831e-02,-5.261192098259925842e-02,-4.767591655254364014e-01,-5.790311843156814575e-03,3.837056159973144531e-01,6.140400767326354980e-01,-8.207806944847106934e-01,2.519629597663879395e-01,1.999730318784713745e-01,-8.912138342857360840e-01,5.877224802970886230e-01,6.653943657875061035e-01,1.627501994371414185e-01,-1.328655332326889038e-01,-4.911825656890869141e-01,-2.477858401834964752e-02,2.226391285657882690e-01,-4.432242810726165771e-01,-3.288731575012207031e-01,1.446331851184368134e-02,2.496494054794311523e-01,7.670644670724868774e-02,-4.293571412563323975e-01,8.279580622911453247e-02,-2.444125562906265259e-01,-1.207548618316650391e+00,-5.055022239685058594e-01,-2.634623050689697266e-01,-1.099705934524536133e+00,1.068882346153259277e+00,2.562249898910522461e-01,-6.488075256347656250e-01,-1.318728923797607422e-01,4.764971137046813965e-01,-4.803025126457214355e-01,-1.925983875989913940e-01,3.660817146301269531e-01,3.353568315505981445e-01,4.283953905105590820e-01,-1.981269940733909607e-02
-1.422882676124572754e+00,-1.780985146760940552e-01,8.656574487686157227e-01,-8.518562912940979004e-01,2.895610779523849487e-02,-1.174420863389968872e-02,1.293151229619979858e-01,8.262392133474349976e-02,5.005286931991577148e-01,-1.800384931266307831e-02,2.358851879835128784e-01,-9.525363147258758545e-02,-3.283466398715972900e-01,-5.900162458419799805e-01,-6.210244894027709961e-01,-5.997647047042846680e-01,-1.871248036623001099e-01,2.934185415506362915e-02,4.014027416706085205e-01,2.140925079584121704e-01,2.499497681856155396e-02,1.163651227951049805e+00,3.312883079051971436e-01,-7.131052613258361816e-01,-3.502539992332458496e-01,8.221933245658874512e-02,-2.006163746118545532e-01,-3.471592366695404053e-01,-2.169445753097534180e-01,3.256200850009918213e-01,2.519416511058807373e-01,4.186641275882720947e-01,6.518564820289611816e-01,3.283989382907748222e-03,-7.402386050671339035e-03,2.632654085755348206e-02,-2.908589243888854980e-01,5.870842933654785156e-01,-3.596359193325042725e-01,3.008451163768768311e-01
2.189112901687622070e-01,5.463859811425209045e-02,-1.197826623916625977e+00,2.401216924190521240e-01,2.000791728496551514e-01,-4.386953711509704590e-01,2.107285559177398682e-01,1.439171195030212402e+00,-4.780749678611755371e-01,6.807243227958679199e-01,2.670310437679290771e-01,-4.462530910968780518e-01,3.083548843860626221e-01,2.755118012428283691e-01,-5.534381270408630371e-01,7.076262831687927246e-01,-8.428429961204528809e-01,3.834534883499145508e-01,-9.515706300735473633e-01,1.967665702104568481e-01,1.999884657561779022e-02,1.376297771930694580e-01,3.646898269653320312e-01,-3.030611574649810791e-01,-3.956960737705230713e-01,7.462908327579498291e-02,-2.706605195999145508e-01,3.493077754974365234e-01,3.563700616359710693e-01,-1.756646856665611267e-02,-5.097280740737915039e-01,7.962942719459533691e-01,-4.168492928147315979e-02,9.728443622589111328e-02,-5.330803990364074707e-01,-3.937371373176574707e-01,-7.053514122962951660e-01,-1.354874372482299805e+00,-4.312606453895568848e-01,-8.175888061523437500e-01
1.274634003639221191e-01,-9.983322024345397949e-01,3.307433426380157471e-01,8.190461993217468262e-01,6.159819960594177246e-01,-6.247766017913818359e-01,3.361863493919372559e-01,-3.627810999751091003e-02,8.036914467811584473e-01,-2.700382173061370850e-01,3.858693540096282959e-01,-1.038788914680480957e+00,6.204167008399963379e-01,2.949441969394683838e-01,-5.932940915226936340e-02,1.281474679708480835e-01,1.785931587219238281e-01,8.674634099006652832e-01,3.759638965129852295e-01,1.040074706077575684e+00,-6.512192487716674805e-01,-9.915130734443664551e-01,-8.985280990600585938e-02,-3.985071182250976562e-01,9.661086797714233398e-01,4.296040907502174377e-02,-7.620217204093933105e-01,1.542941778898239136e-01,-4.951868951320648193e-01,3.620609268546104431e-02,-2.501201629638671875e-01,-2.343215607106685638e-02,1.051220417022705078e+00,-1.086299270391464233e-01,-1.502644568681716919e-01,1.578644514083862305e-01,-2.187928259372711182e-01,1.648353189229965210e-01,5.393602252006530762e-01,4.883974492549896240e-01
1.777420490980148315e-01,1.221573911607265472e-02,6.109886765480041504e-01,-4.746803045272827148e-01,3.414376974105834961e-01,-8.361742496490478516e-01,9.146066009998321533e-02,4.290719926357269287e-01,-4.445476531982421875e-01,5.180467665195465088e-02,1.595734991133213043e-02,4.989741444587707520e-01,2.231288403272628784e-01,-4.579876363277435303e-01,4.344420507550239563e-02,4.361228644847869873e-01,2.952233552932739258e-01,7.170563936233520508e-01,1.138304322957992554e-01,2.023855298757553101e-01,5.684188604354858398e-01,-4.055629372596740723e-01,7.876811623573303223e-01,2.409139424562454224e-01,-2.812370657920837402e-02,-6.373724937438964844e-01,7.674308121204376221e-02,1.618397682905197144e-01,4.015874266624450684e-01,-1.196777969598770142e-01,2.468370944261550903e-01,-3.673499822616577148e-02,1.729276031255722046e-01,-1.208321377635002136e-01,-4.778534173965454102e-01,-5.293536782264709473e-01,-1.529098767787218094e-02,1.879264116287231445e-01,6.255267858505249023e-01,-1.885298043489456177e-01
3.525010049343109131e-01,1.391896456480026245e-01,-8.856547474861145020e-01,3.006833493709564209e-01,-2.823142707347869873e-01,2.872912585735321045e-01,9.431411623954772949e-01,3.072393536567687988e-01,-8.142034411430358887e-01,1.006318092346191406e+00,-1.052430048584938049e-01,-3.627539873123168945e-01,5.502995252609252930e-01,4.823309481143951416e-01,1.025602340698242188e+00,9.897636175155639648e-01,2.636263370513916016e-01,2.060745805501937866e-01,-7.632354497909545898e-01,3.741752803325653076e-01,2.362339943647384644e-01,-3.980615735054016113e-01,2.436246275901794434e-01,1.284645497798919678e-01,-3.041373789310455322e-01,4.291529059410095215e-01,-3.454235941171646118e-02,-3.254477977752685547e-01,-1.634938836097717285e+00,-3.069062232971191406e-01,5.757972970604896545e-02,5.558843016624450684e-01,-1.012480705976486206e-01,-4.968203306198120117e-01,-7.678909897804260254e-01,1.045630097389221191e+00,2.260911613702774048e-01,-1.268053203821182251e-01,5.302521586418151855e-01,-5.765919685363769531e-01
3.494603186845779419e-02,-7.377924919128417969e-01,8.777976036071777344e-02,-1.216794133186340332e+00,4.469260573387145996e-01,9.365270733833312988e-01,1.755921989679336548e-01,-1.289335787296295166e-01,4.968620836734771729e-01,2.609705924987792969e-01,-1.025681719183921814e-01,9.044457674026489258e-01,-1.886236816644668579e-01,-2.532199323177337646e-01,9.602125287055969238e-01,4.246935844421386719e-01,3.040096461772918701e-01,3.245777487754821777e-01,-4.837048798799514771e-02,2.931375801563262939e-01,8.875712007284164429e-02,9.684737771749496460e-02,-9.579893350601196289e-01,2.254679650068283081e-01,8.176041841506958008e-01,4.884679019451141357e-01,-2.182289510965347290e-01,-6.792198866605758667e-02,7.081431150436401367e-02,-4.384171590209007263e-02,2.603968381881713867e-01,-3.530738353729248047e-01,-8.816613256931304932e-02,-5.121256113052368164e-01,9.654178619384765625e-01,6.555448174476623535e-01,-6.541517972946166992e-01,6.523079425096511841e-02,-4.236715137958526611e-01,-9.312303364276885986e-02
-6.771462559700012207e-01,3.364735543727874756e-01,-3.432358503341674805e-01,9.041361808776855469e-01,8.314796686172485352e-01,-7.736023515462875366e-02,2.050727456808090210e-01,1.336117237806320190e-01,2.373410761356353760e-01,-1.619453281164169312e-01,1.485364162363111973e-03,-4.160119593143463135e-01,8.572895824909210205e-02,-2.061861306428909302e-01,2.834311425685882568e-01,-1.459202170372009277e-01,6.801101565361022949e-01,4.318649470806121826e-01,-4.638696610927581787e-01,-1.025578856468200684e+00,2.858837693929672241e-02,3.277688324451446533e-01,-5.449890494346618652e-01,7.651324272155761719e-01,4.121266007423400879e-01,-2.792817056179046631e-01,-1.288740932941436768e-01,1.077655851840972900e-01,-6.314016133546829224e-02,-7.816064953804016113e-01,5.008926987648010254e-01,4.928397238254547119e-01,-1.674228906631469727e-01,2.766272723674774170e-01,-7.378653287887573242e-01,-5.078696012496948242e-01,4.482349157333374023e-01,-2.195970863103866577e-01,-3.489516675472259521e-01,-1.449280828237533569e-01
5.835996866226196289e-01,1.519697997719049454e-02,7.095949649810791016e-01,-1.472423374652862549e-01,8.051440715789794922e-01,8.601190447807312012e-01,5.601888988167047501e-03,-1.176873564720153809e+00,-6.241420507431030273e-01,-2.550667226314544678e-01,1.297618895769119263e-01,2.446817159652709961e-01,2.287249714136123657e-01,-7.758899778127670288e-02,-4.862477257847785950e-02,4.743999540805816650e-01,-7.191537618637084961e-01,-1.997908949851989746e-01,-1.858610510826110840e-01,1.434556487947702408e-02,3.036017715930938721e-01,8.202348351478576660e-01,-4.661307334899902344e-01,-4.586765170097351074e-01,5.172740221023559570e-01,3.565504252910614014e-01,-1.463709957897663116e-02,2.985523343086242676e-01,-2.616596519947052002e-01,-4.241039156913757324e-01,-5.390664339065551758e-01,-2.725936844944953918e-02,-7.106753438711166382e-02,9.847623705863952637e-01,3.698020428419113159e-02,-1.854851394891738892e-01,7.950258851051330566e-01,-1.530685722827911377e-01,-1.146648824214935303e-01,1.331808418035507202e-01
6.045151948928833008e-01,-4.573097229003906250e-01,-1.603249460458755493e-01,8.804692029953002930e-01,2.152782380580902100e-01,-2.667137086391448975e-01,-2.846668101847171783e-02,2.746509388089179993e-02,-8.030074834823608398e-01,3.830867111682891846e-01,4.835683703422546387e-01,3.916015923023223877e-01,-4.955735802650451660e-01,6.117357611656188965e-01,2.251464277505874634e-01,5.188688039779663086e-01,-1.030979529023170471e-01,8.137366771697998047e-01,3.692711591720581055e-01,-8.108861446380615234e-01,-5.383776426315307617e-01,-3.437865972518920898e-01,-2.428075969219207764e-01,-2.296189069747924805e-01,-7.601519227027893066e-01,-1.264163702726364136e-01,-4.308968782424926758e-02,-2.995983958244323730e-01,3.212160468101501465e-01,8.520455360412597656e-01,7.936316132545471191e-01,-2.330168187618255615e-01,6.003403067588806152e-01,6.865353584289550781e-01,3.107820749282836914e-01,-6.359639763832092285e-01,-5.522286295890808105e-01,6.252878904342651367e-01,-4.427894949913024902e-01,-1.366390287876129150e-01
8.282128572463989258e-01,-1.620993614196777344e-01,3.278138116002082825e-02,-1.875436864793300629e-02,3.308319151401519775e-01,-5.338465571403503418e-01,4.192930087447166443e-02,-1.426966190338134766e-01,1.220273852348327637e+00,-2.321420162916183472e-01,3.413521945476531982e-01,-6.462193727493286133e-01,-9.033759683370590210e-02,1.105094999074935913e-01,8.597187995910644531e-01,1.190579831600189209e-01,-4.087066948413848877e-01,-5.481652021408081055e-01,-2.891003489494323730e-01,4.723359346389770508e-01,-1.183020830154418945e+00,-4.545131027698516846e-01,1.094022914767265320e-01,-1.464408189058303833e-01,-1.355308592319488525e-01,3.631890937685966492e-02,-7.798126339912414551e-01,-4.377005696296691895e-01,1.049399375915527344e+00,2.996948175132274628e-02,-1.569331274367868900e-03,-1.088988900184631348e+00,-1.336611211299896240e-01,9.644614160060882568e-02,6.344816088676452637e-02,1.811706423759460449e-01,-1.312718093395233154e-01,1.220420375466346741e-01,2.361434549093246460e-01,-5.386028289794921875e-01
-9.884987771511077881e-02,3.938192874193191528e-02,6.393445134162902832e-01,5.374607071280479431e-02,4.433268308639526367e-01,-9.288477897644042969e-02,7.945483922958374023e-02,-9.362619370222091675e-03,5.364406108856201172e-01,-1.376562714576721191e+00,-4.360467493534088135e-01,9.295140206813812256e-02,-1.096471428871154785e+00,-2.944357991218566895e-01,1.774998009204864502e-01,-1.052063584327697754e+00,4.079270064830780029e-01,1.485671401023864746e-01,1.376998722553253174e-01,-5.947115421295166016e-01,4.558845460414886475e-01,3.651441931724548340e-01,-2.514589577913284302e-02,3.308735191822052002e-01,7.325614094734191895e-01,-2.815569043159484863e-01,-1.733627021312713623e-01,4.881148934364318848e-01,4.254902303218841553e-01,-2.910912036895751953e-01,-2.817644774913787842e-01,-4.188584089279174805e-01,7.669612169265747070e-01,-2.169742882251739502e-01,-8.503926992416381836e-01,4.446406662464141846e-01,-5.973083376884460449e-01,5.067727565765380859e-01,-1.460033804178237915e-01,-9.456588029861450195e-01
-2.840879261493682861e-01,-6.865788698196411133e-01,5.681823492050170898e-01,5.635727941989898682e-02,7.231192290782928467e-02,3.377671167254447937e-02,-8.700017333030700684e-01,-4.676707088947296143e-01,-1.045491456985473633e+00,-5.373089909553527832e-01,1.109131693840026855e+00,3.039458096027374268e-01,6.374803930521011353e-02,1.821384765207767487e-02,-1.646400392055511475e-01,2.884701788425445557e-01,-1.090088561177253723e-01,3.497029095888137817e-02,5.764669179916381836e-01,1.171093508601188660e-01,-1.316695690155029297e+00,-1.713311076164245605e-01,-1.571653187274932861e-01,1.151944875717163086e+00,-6.131007671356201172e-01,3.887020647525787354e-01,2.774020731449127197e-01,-4.408263862133026123e-01,-9.173617362976074219e-01,9.387312084436416626e-02,-7.919406890869140625e-01,2.647609710693359375e-01,-6.117581725120544434e-01,5.211959481239318848e-01,2.605836465954780579e-02,5.552848577499389648e-01,7.522217929363250732e-02,-6.055130362510681152e-01,3.838881850242614746e-01,-2.886582314968109131e-01
7.629571557044982910e-01,5.759662985801696777e-01,8.133159577846527100e-02,2.869436442852020264e-01,7.702434659004211426e-01,4.280418753623962402e-01,-4.306308329105377197e-01,5.332464575767517090e-01,5.860327556729316711e-02,-8.604700118303298950e-02,-4.888503849506378174e-01,-4.783018827438354492e-01,6.610208153724670410e-01,7.418103516101837158e-03,-7.836476564407348633e-01,-3.936829864978790283e-01,-4.605874419212341309e-01,-4.872493147850036621e-01,-1.257020235061645508e+00,-1.611625701189041138e-01,1.509250164031982422e+00,4.381726309657096863e-02,2.241339301690459251e-03,-3.940993174910545349e-02,1.410183161497116089e-01,3.175279498100280762e-01,1.584791541099548340e-01,2.370166778564453125e-01,1.865002810955047607e-01,-1.986878924071788788e-02,-6.667299568653106689e-02,-6.501284241676330566e-01,-3.178535401821136475e-01,-7.034728527069091797e-01,3.255250155925750732e-01,-4.864155650138854980e-01,1.116591170430183411e-01,3.618855476379394531e-01,2.821482717990875244e-01,-2.795448899269104004e-01
4.709582328796386719e-01,-4.740855991840362549e-01,5.961195826530456543e-01,2.029312700033187866e-01,-4.280168116092681885e-01,-3.903761208057403564e-01,1.104093194007873535e+00,-6.347201019525527954e-02,-5.221324563026428223e-01,-2.730083465576171875e-01,1.859748244285583496e+00,-1.274599321186542511e-02,-1.649696379899978638e-01,4.018617272377014160e-01,-6.149670481681823730e-01,-2.931301295757293701e-01,1.844763606786727905e-01,-4.145734906196594238e-01,-2.297790497541427612e-01,-1.076253410428762436e-02,3.416148126125335693e-01,-8.263694047927856445e-01,5.476693511009216309e-01,5.735956430435180664e-01,9.606963396072387695e-01,-4.685212075710296631e-01,-2.786536514759063721e-01,1.462238729000091553e-01,5.340687036514282227e-01,-5.408017635345458984e-01,3.581252098083496094e-01,1.628659516572952271e-01,-3.577797710895538330e-01,3.901686966419219971e-01,3.161420673131942749e-02,8.795914053916931152e-01,-1.341217607259750366e-01,-1.368279606103897095e-01,-3.295101523399353027e-01,8.207640051841735840e-01
-3.793059289455413818e-01,-1.025108397006988525e-01,6.522227525711059570e-01,8.358281105756759644e-02,-1.675788685679435730e-02,-1.658844016492366791e-02,-9.769949316978454590e-01,8.107203990221023560e-02,-5.799203515052795410e-01,-2.072989046573638916e-01,1.190063804388046265e-01,2.779324054718017578e-01,4.815028905868530273e-01,-5.304687619209289551e-01,-2.233100980520248413e-01,-1.039389848709106445e+00,1.088133931159973145e+00,9.042593091726303101e-02,1.077604442834854126e-01,-2.113910317420959473e-01,-9.006284177303314209e-02,-5.484939813613891602e-01,8.297164440155029297e-01,-6.011188030242919922e-01,-1.585015356540679932e-01,1.721673905849456787e-01,-2.658054530620574951e-01,1.686309576034545898e-01,-5.608400702476501465e-01,2.643744647502899170e-01,-1.147153973579406738e+00,-2.958806417882442474e-02,6.521008014678955078e-01,3.542179763317108154e-01,3.273992538452148438e-01,-2.396705150604248047e-01,3.585929870605468750e-01,-1.081303954124450684e-01,5.744370073080062866e-02,-2.464633733034133911e-01
-1.162419080734252930e+00,-1.415296941995620728e-01,1.397511661052703857e-01,1.119649857282638550e-01,2.682015895843505859e-01,4.137049242854118347e-02,-1.087980046868324280e-01,2.975171506404876709e-01,-3.316225111484527588e-01,-3.736085891723632812e-01,-1.207645177841186523e+00,-3.874000608921051025e-01,4.502339959144592285e-01,-1.157869815826416016e+00,-4.051706194877624512e-01,8.120885491371154785e-02,1.792929023504257202e-01,-4.105737805366516113e-01,6.081479787826538086e-01,9.393784403800964355e-02,8.442318439483642578e-01,1.984042078256607056e-01,1.834938079118728638e-01,-2.890039980411529541e-02,9.519933909177780151e-02,5.932804942131042480e-01,7.326709628105163574e-01,-4.332309961318969727e-01,1.408731937408447266e-01,5.482374429702758789e-01,-3.472431898117065430e-01,-6.167504787445068359e-01,9.962415695190429688e-01,1.416539847850799561e-01,6.863766908645629883e-01,4.504427015781402588e-01,1.618418693542480469e-01,3.714244365692138672e-01,6.219993829727172852e-01,9.438711404800415039e-02
-1.527943611145019531e-01,1.012782454490661621e+00,3.239197283983230591e-02,2.715362049639225006e-02,-6.617005467414855957e-01,-3.015901148319244385e-01,5.612500905990600586e-01,2.825322151184082031e-01,6.657524108886718750e-01,-2.030510008335113525e-01,-7.591940760612487793e-01,5.277452245354652405e-02,-5.431006550788879395e-01,2.829689681529998779e-01,-6.311573982238769531e-01,-1.026738524436950684e+00,3.295766562223434448e-02,-3.418654799461364746e-01,-7.578397989273071289e-01,-3.046495020389556885e-01,6.270524859428405762e-01,-1.012316823005676270e+00,-3.648406267166137695e-01,7.147853821516036987e-02,5.396150946617126465e-01,6.259239315986633301e-01,4.437956213951110840e-02,7.211221456527709961e-01,-4.823749959468841553e-01,1.251382231712341309e-01,4.783558845520019531e-01,3.424744904041290283e-01,5.654776468873023987e-02,-1.319034099578857422e-01,1.127159714698791504e+00,3.684551119804382324e-01,1.330339908599853516e+00,3.690805435180664062e-01,-3.462041616439819336e-01,1.383365988731384277e-01
-5.604950785636901855e-01,-2.403331398963928223e-01,7.415087521076202393e-02,-6.778014302253723145e-01,4.770959317684173584e-01,9.336175024509429932e-02,5.302578210830688477e-02,1.016103506088256836e+00,4.067060649394989014e-01,7.929151058197021484e-01,-4.001253247261047363e-01,2.321601361036300659e-01,-4.084737300872802734e-01,3.711635768413543701e-01,7.153959274291992188e-01,-1.217475607991218567e-01,-3.022693097591400146e-01,-1.406592875719070435e-01,-3.449538350105285645e-01,1.600694805383682251e-01,3.281297385692596436e-01,1.651672720909118652e-01,-3.723329007625579834e-01,-3.651981353759765625e-01,3.731459379196166992e-01,2.390512824058532715e-01,-6.183904409408569336e-01,1.673008501529693604e-02,5.095929503440856934e-01,-1.431225091218948364e-01,9.371373653411865234e-01,1.507380139082670212e-02,-2.738901786506175995e-02,-2.962360084056854248e-01,6.671749353408813477e-01,-1.238646984100341797e+00,-3.547048941254615784e-02,2.627042531967163086e-01,-1.180682778358459473e+00,7.498434185981750488e-02
3.784534037113189697e-01,3.057785928249359131e-01,-3.611909449100494385e-01,-9.132685065269470215e-01,3.501490950584411621e-01,6.005607545375823975e-02,-6.479139328002929688e-01,-2.967434227466583252e-01,-1.497498303651809692e-01,9.784309267997741699e-01,3.190099298954010010e-01,6.935601681470870972e-02,9.207984060049057007e-02,2.047663927078247070e-02,-3.868768364191055298e-02,-7.341035455465316772e-02,-1.647223383188247681e-01,-2.255235612392425537e-01,-6.359878182411193848e-02,-2.729031741619110107e-01,-4.506836235523223877e-01,-4.252307116985321045e-01,1.117494329810142517e-01,2.929715812206268311e-01,-2.043686360120773315e-01,3.669990599155426025e-01,-2.566954195499420166e-01,9.228280931711196899e-02,6.218823790550231934e-02,-2.278772741556167603e-02,9.336113929748535156e-02,-3.976645469665527344e-01,-8.228828758001327515e-02,3.917324244976043701e-01,8.404572308063507080e-02,4.942045807838439941e-01,7.816007733345031738e-01,-2.345685213804244995e-01,-1.577399671077728271e-01,-1.852156817913055420e-01
