-4.817576408386230469e-01,4.908448755741119385e-01,-1.388562750071287155e-02,-5.703186988830566406e-01,-2.504331827163696289e+00,-1.043328568339347839e-01,-4.780087172985076904e-01,-3.094162642955780029e-01,-1.210359096527099609e+00,-5.183054804801940918e-01,-6.321554183959960938e-01,3.292186856269836426e-01,2.212498188018798828e-01,1.892006695270538330e-01,-2.728659629821777344e+00,-1.601277470588684082e+00,3.760928213596343994e-01,-6.059408187866210938e-01,-1.764066219329833984e+00,1.539605557918548584e-01,-3.807343244552612305e-01,2.976892590522766113e-01,2.129145562648773193e-01,-5.507419109344482422e-01,-1.579013839364051819e-02,-4.076488018035888672e-01,-2.190927974879741669e-02,-2.288666486740112305e+00,2.488352060317993164e-01,1.742592602968215942e-01,5.853310227394104004e-02,-1.841280758380889893e-01,-6.259531378746032715e-01,-2.292334586381912231e-01,-3.860242962837219238e-01,-1.272441267967224121e+00,8.322711288928985596e-02,2.669963836669921875e-01,3.161017000675201416e-01,3.245843946933746338e-01
2.992904186248779297e-01,1.063436791300773621e-01,2.553081512451171875e-01,1.312846243381500244e-01,-3.371482849121093750e+00,3.304348587989807129e-01,-3.303214013576507568e-01,-1.097782626748085022e-01,-2.349720716476440430e+00,-4.685326516628265381e-01,-4.974609315395355225e-01,1.505830734968185425e-01,2.912409007549285889e-01,1.164495423436164856e-01,-1.682869672775268555e+00,-6.554747819900512695e-01,2.981015145778656006e-01,-5.295318365097045898e-01,-1.484652757644653320e+00,2.089181840419769287e-01,-2.801367938518524170e-01,2.037182003259658813e-01,5.288615822792053223e-01,-3.027788996696472168e-01,-2.248406708240509033e-01,-2.179771810770034790e-01,3.611610531806945801e-01,-2.773534774780273438e+00,6.629258394241333008e-02,2.787432968616485596e-01,1.808619499206542969e-01,-2.828989624977111816e-01,-4.869381487369537354e-01,-1.727644950151443481e-01,-3.418286144733428955e-01,-1.158576726913452148e+00,3.838427737355232239e-02,7.547935098409652710e-02,3.288045227527618408e-01,1.941817253828048706e-01
-2.624776912853121758e-03,1.292193979024887085e-01,2.578005492687225342e-01,1.026464626193046570e-01,-2.611170053482055664e+00,-6.127296090126037598e-01,-3.229298889636993408e-01,-2.023016214370727539e-01,-2.499589443206787109e+00,-6.118599772453308105e-01,-8.147356510162353516e-01,7.704359889030456543e-01,4.839290678501129150e-01,1.044654175639152527e-01,-1.287382364273071289e+00,-9.579309225082397461e-01,1.713510453701019287e-01,-3.992009162902832031e-01,-9.468769431114196777e-01,3.557237386703491211e-01,-3.576898872852325439e-01,-2.450907602906227112e-02,-2.440465390682220459e-01,-6.472921371459960938e-01,-1.558714807033538818e-01,-7.046725153923034668e-01,-6.137341260910034180e-01,-8.931787014007568359e-01,-6.338734030723571777e-01,-7.997477054595947266e-01,-1.121421903371810913e-01,-3.426536321640014648e-01,-5.199738740921020508e-01,-4.820707440376281738e-02,-1.370733976364135742e-01,-9.332118630409240723e-01,3.969074785709381104e-01,4.151583909988403320e-01,-9.272740781307220459e-02,-6.715896725654602051e-01
-8.212856017053127289e-03,1.322252899408340454e-01,1.170728653669357300e-01,-1.232075877487659454e-02,-1.176294088363647461e+00,-2.244035452604293823e-01,7.804489880800247192e-02,-8.316499739885330200e-02,-3.846487998962402344e-01,-3.203372061252593994e-01,-4.229500591754913330e-01,2.624352276325225830e-02,-1.237660050392150879e+00,6.243072748184204102e-01,-3.053546905517578125e+00,-6.688944697380065918e-01,4.277054965496063232e-01,-4.763657450675964355e-01,-7.133691906929016113e-01,-1.026572138071060181e-01,-4.149691462516784668e-01,1.186633482575416565e-01,1.963201910257339478e-01,1.236086487770080566e-01,-1.029486417770385742e+00,-3.657843768596649170e-01,2.781507372856140137e-01,-8.402259349822998047e-01,2.933504581451416016e-01,-2.144262343645095825e-01,2.907216846942901611e-01,-4.550487399101257324e-01,-9.304795265197753906e-01,-1.116832122206687927e-01,-5.411489009857177734e-01,-2.598590135574340820e+00,-2.348202764987945557e-01,-2.634350657463073730e-01,5.956770777702331543e-01,4.170634150505065918e-01
3.144007921218872070e-01,1.525075584650039673e-01,-2.029083110392093658e-02,-2.441673912107944489e-02,5.386058241128921509e-02,4.629851877689361572e-01,-5.891171842813491821e-02,1.364836245775222778e-01,-2.545126378536224365e-01,-1.945389807224273682e-02,-6.152429152280092239e-03,-4.124637693166732788e-02,2.344267666339874268e-01,3.674717247486114502e-01,5.189492180943489075e-02,1.157561466097831726e-01,1.724479794502258301e-01,2.311941385269165039e-01,-2.424462586641311646e-01,-3.825210034847259521e-02,-2.690320014953613281e-01,-9.873510152101516724e-02,-6.684091687202453613e-02,1.025841087102890015e-01,7.778891175985336304e-02,-1.284855455160140991e-01,3.174092471599578857e-01,8.332956582307815552e-02,2.127579301595687866e-01,2.724133133888244629e-01,-1.639532297849655151e-01,-2.229102551937103271e-01,1.586231738328933716e-01,5.458467826247215271e-02,1.798286139965057373e-01,1.281555555760860443e-02,-3.247423470020294189e-02,-1.812413185834884644e-01,1.382819861173629761e-01,-3.794662654399871826e-02
6.354756951332092285e-01,-6.958491355180740356e-02,-2.508527338504791260e-01,6.503238528966903687e-02,-1.840406894683837891e+00,-7.002132385969161987e-02,-4.241639077663421631e-01,-1.120231896638870239e-01,-9.417641758918762207e-01,-2.488529831171035767e-01,-8.828953504562377930e-01,-4.945048093795776367e-01,-3.426784873008728027e-01,1.785622686147689819e-01,-1.075827360153198242e+00,-1.357773780822753906e+00,2.793330550193786621e-01,-4.473502635955810547e-01,-2.255826950073242188e+00,-1.960155367851257324e-01,-1.921971887350082397e-01,5.384469032287597656e-02,3.722422719001770020e-01,-5.129356384277343750e-01,1.330469921231269836e-02,-2.767370343208312988e-01,-1.754292994737625122e-01,-1.692227363586425781e+00,1.034572273492813110e-01,-1.062553748488426208e-02,8.518537878990173340e-02,-1.019407808780670166e-01,-9.979336857795715332e-01,-3.767769932746887207e-01,-3.681124448776245117e-01,-1.076990485191345215e+00,-1.171632036566734314e-01,-3.662534058094024658e-02,9.920945018529891968e-02,-1.677089929580688477e-01
-5.323940515518188477e-01,1.277350783348083496e-01,-3.828747197985649109e-02,-8.992854505777359009e-02,-1.221332907676696777e+00,2.060135155916213989e-01,-6.950764060020446777e-01,-3.969593346118927002e-01,-2.232921600341796875e+00,-4.837184548377990723e-01,-3.730345666408538818e-01,2.017685323953628540e-01,5.430131033062934875e-02,-2.640577554702758789e-01,-1.908210992813110352e+00,-3.790556788444519043e-01,4.168336987495422363e-01,-6.421616077423095703e-01,-1.433078050613403320e+00,2.925326526165008545e-01,-1.864808350801467896e-01,1.317026615142822266e-01,2.639377256855368614e-03,-8.219494223594665527e-01,-1.319418102502822876e-01,-1.979197859764099121e-01,5.569847673177719116e-02,-1.888384938240051270e+00,3.056459724903106689e-01,-4.917985200881958008e-01,2.730416059494018555e-01,-2.404633164405822754e-01,-1.232104301452636719e+00,-6.963934898376464844e-01,-1.794216036796569824e-01,-1.302913665771484375e+00,1.213737111538648605e-02,3.157829642295837402e-01,2.732343077659606934e-01,2.763232290744781494e-01
-9.060568176209926605e-03,-9.012573957443237305e-02,-5.013298392295837402e-01,-1.669307798147201538e-01,-3.945408761501312256e-01,-1.894289851188659668e-01,-3.197933137416839600e-01,1.007314920425415039e-01,-5.038189291954040527e-01,-9.407561272382736206e-02,-2.889615595340728760e-01,-1.768744140863418579e-01,-3.206605017185211182e-01,-3.489404618740081787e-01,1.272585391998291016e-01,4.604695364832878113e-02,-5.438171625137329102e-01,8.486766368150711060e-02,7.551651448011398315e-02,-1.097759976983070374e-01,-1.621782034635543823e-01,2.047599405050277710e-01,-2.064576447010040283e-01,-2.786214053630828857e-01,-2.539557516574859619e-01,1.500985920429229736e-01,-2.006709128618240356e-01,-1.197136864066123962e-01,-4.519434571266174316e-01,-1.247324571013450623e-01,-1.451557874679565430e-01,-1.291867792606353760e-01,-3.347758948802947998e-01,7.115029543638229370e-02,2.088425457477569580e-01,3.911778330802917480e-02,-3.464346528053283691e-01,-1.036944463849067688e-01,-3.374157547950744629e-01,1.900208443403244019e-01
-1.281673014163970947e-01,2.742388546466827393e-01,2.463059574365615845e-01,-3.822661936283111572e-01,-1.449229240417480469e+00,9.165025502443313599e-02,-2.871356308460235596e-01,-1.602178812026977539e-01,-1.067302823066711426e+00,-3.921199142932891846e-01,-4.407016038894653320e-01,5.282096192240715027e-02,1.928881257772445679e-01,5.792656540870666504e-02,-1.047322630882263184e+00,-7.205896973609924316e-01,2.585935890674591064e-01,-1.805685609579086304e-01,-1.245955228805541992e+00,-8.052933961153030396e-02,-1.817993074655532837e-01,2.728475332260131836e-01,1.030613109469413757e-01,-4.732260406017303467e-01,9.872541762888431549e-03,-1.171126142144203186e-01,-1.757910102605819702e-01,-8.843931555747985840e-01,2.584058642387390137e-01,7.331246137619018555e-02,-2.722123265266418457e-01,-3.624983429908752441e-01,-6.682730913162231445e-01,-1.477917935699224472e-02,2.925884537398815155e-02,-6.909000277519226074e-01,-3.959771990776062012e-01,1.947056055068969727e-01,6.216362863779067993e-02,5.516790598630905151e-02
1.462594233453273773e-02,3.188641965389251709e-01,-1.331938058137893677e-01,-1.790203303098678589e-01,-3.141980245709419250e-02,-1.667355895042419434e-01,1.791679412126541138e-01,-2.479887157678604126e-01,-2.928893566131591797e-01,-1.255371421575546265e-01,9.391606599092483521e-02,-1.033384948968887329e-01,1.289104074239730835e-01,-9.690272063016891479e-02,-2.149084210395812988e-01,-2.386708408594131470e-01,-3.446897268295288086e-01,-9.405227378010749817e-03,-5.426643043756484985e-02,3.510592877864837646e-01,-1.679969280958175659e-01,8.300673961639404297e-02,1.897583752870559692e-01,-3.053602576255798340e-01,-6.479436755180358887e-01,-3.425660729408264160e-01,6.588699668645858765e-02,2.951402068138122559e-01,2.995809316635131836e-01,-1.769585162401199341e-01,1.745102703571319580e-01,-5.185892805457115173e-02,-8.978851139545440674e-02,-4.495356976985931396e-01,-8.376743644475936890e-03,1.086455062031745911e-01,-5.794034600257873535e-01,-3.620467483997344971e-01,-3.615621328353881836e-01,-4.005221724510192871e-01
2.701714038848876953e-01,2.624118924140930176e-01,2.699618339538574219e-01,7.022442296147346497e-04,-3.404926061630249023e+00,1.889272481203079224e-01,-3.519963920116424561e-01,-2.495477944612503052e-01,-1.274188637733459473e+00,-4.765591323375701904e-01,-6.333034634590148926e-01,2.358470410108566284e-01,2.364734858274459839e-01,2.319543361663818359e-01,-1.316689610481262207e+00,-1.193077445030212402e+00,3.565437793731689453e-01,-4.700820744037628174e-01,-1.968214035034179688e+00,1.459086388349533081e-01,-3.781772255897521973e-01,3.854966163635253906e-01,3.250618875026702881e-01,-3.149035274982452393e-01,-2.944162115454673767e-03,-3.255578279495239258e-01,1.068508252501487732e-01,-2.416174888610839844e+00,2.507000565528869629e-01,1.737877577543258667e-01,2.737884521484375000e-01,-3.134060204029083252e-01,-9.206002950668334961e-01,-1.835661232471466064e-01,-3.129406869411468506e-01,-1.144888877868652344e+00,2.691687643527984619e-01,2.188018709421157837e-01,-5.609880387783050537e-02,2.928063273429870605e-01
2.116077244281768799e-01,1.604618728160858154e-01,1.219745539128780365e-02,-7.910568267107009888e-02,-3.404923915863037109e+00,8.934190124273300171e-02,-3.281660974025726318e-01,-5.773209035396575928e-02,-3.524328231811523438e+00,-3.669912219047546387e-01,-7.914066314697265625e-01,3.578399717807769775e-01,-8.271395564079284668e-01,2.262561023235321045e-01,-8.692423701286315918e-01,-6.613841056823730469e-01,1.683301627635955811e-01,-6.902794837951660156e-01,-1.895557403564453125e+00,2.227619737386703491e-01,-4.027356803417205811e-01,1.778016239404678345e-01,6.410490870475769043e-01,-3.599953651428222656e-01,-1.648114919662475586e-01,-3.071929514408111572e-01,-2.377632409334182739e-01,-8.421415686607360840e-01,-1.053009927272796631e-01,-3.023661673069000244e-01,2.006100304424762726e-02,-1.517365276813507080e-01,-4.693745672702789307e-01,-2.908512353897094727e-01,-2.727617979049682617e+00,-3.316736221313476562e+00,1.695973426103591919e-01,-2.191815376281738281e-01,3.325358927249908447e-01,1.592496931552886963e-01
3.640144690871238708e-02,-3.023159801959991455e-01,8.400928229093551636e-02,-4.675282537937164307e-01,-2.187266498804092407e-01,-1.094652712345123291e-01,-2.004857957363128662e-01,1.621719300746917725e-01,8.219185471534729004e-02,7.358621060848236084e-02,-1.404677033424377441e-01,-1.607156246900558472e-01,-4.160954654216766357e-01,-4.377302899956703186e-02,-9.460703469812870026e-03,1.015784144401550293e-01,-8.622277379035949707e-01,1.070260256528854370e-01,-1.725811511278152466e-01,-1.916979067027568817e-02,-2.491476535797119141e-01,1.097921580076217651e-01,4.526429250836372375e-02,5.877902358770370483e-02,-7.219185829162597656e-01,-4.923146963119506836e-01,-2.987386584281921387e-01,-1.058719158172607422e-01,-8.390400558710098267e-02,-2.534056305885314941e-01,3.107952773571014404e-01,-1.724781841039657593e-01,5.991464108228683472e-02,2.483188658952713013e-01,3.564057052135467529e-01,-5.416119471192359924e-02,1.130344048142433167e-01,-2.882222235202789307e-01,-2.129137068986892700e-01,2.042005397379398346e-02
7.548329830169677734e-01,2.169149369001388550e-01,3.151040673255920410e-01,-1.868694424629211426e-01,-1.556543231010437012e+00,5.860305428504943848e-01,-8.231478184461593628e-02,-2.389857470989227295e-01,-1.996694803237915039e+00,-2.830932140350341797e-01,-4.375483691692352295e-01,3.183060288429260254e-01,2.913920879364013672e-01,-3.166085779666900635e-01,-2.369245529174804688e+00,-9.890517592430114746e-01,-1.383958384394645691e-02,-4.453901648521423340e-01,-1.903408050537109375e+00,-4.592744112014770508e-01,-1.488072127103805542e-01,5.344129204750061035e-01,2.829205691814422607e-01,-2.596697211265563965e-01,-4.179248511791229248e-01,-2.889766693115234375e-01,4.176582992076873779e-01,-8.546597957611083984e-01,1.869120746850967407e-01,-2.005074173212051392e-01,7.806324362754821777e-01,-2.179492563009262085e-01,-2.280950099229812622e-01,-2.817121446132659912e-01,-2.650328874588012695e-01,-1.206538915634155273e+00,9.846051037311553955e-02,-2.693997621536254883e-01,-1.127716004848480225e-01,-2.732500433921813965e-01
-1.668877452611923218e-01,2.990052700042724609e-01,-4.532612562179565430e-01,-5.215714573860168457e-01,-1.195576190948486328e+00,1.509779393672943115e-01,-7.037947177886962891e-01,-2.607702612876892090e-01,-1.381338000297546387e+00,-1.495621055364608765e-01,-1.017774581909179688e+00,8.521833457052707672e-03,-3.709472417831420898e-01,-4.648430645465850830e-01,-4.742341935634613037e-01,-1.163474693894386292e-01,1.915834546089172363e-01,-1.862391829490661621e-01,-1.113824367523193359e+00,1.572569608688354492e-01,-4.172472655773162842e-02,4.111952483654022217e-01,4.124205186963081360e-02,-1.501504927873611450e-01,-3.930559456348419189e-01,-3.541530966758728027e-01,6.421981453895568848e-01,-1.264803767204284668e+00,-7.732571363449096680e-01,6.044445633888244629e-01,6.472393870353698730e-02,-2.604795992374420166e-01,-9.135425686836242676e-01,-3.014422580599784851e-02,-6.776802986860275269e-02,-1.166470646858215332e-01,-3.091637492179870605e-01,1.928384602069854736e-01,2.004295438528060913e-01,4.913713634014129639e-01
3.953444659709930420e-01,3.300905823707580566e-01,3.980887532234191895e-01,2.403843402862548828e-01,-4.158761501312255859e+00,3.692086040973663330e-01,-6.095632910728454590e-01,-5.454065203666687012e-01,-1.948591709136962891e+00,-8.703595399856567383e-01,-8.760508894920349121e-01,2.434847503900527954e-01,3.870460689067840576e-01,3.196070492267608643e-01,-2.990062952041625977e+00,-2.858441829681396484e+00,5.938552618026733398e-01,-7.226943969726562500e-01,-3.352456569671630859e+00,3.205956220626831055e-01,-6.946859955787658691e-01,2.870137989521026611e-01,6.532759070396423340e-01,-4.961380660533905029e-01,-6.840174552053213120e-03,-5.881231427192687988e-01,2.494168281555175781e-01,-3.128119945526123047e+00,3.387645781040191650e-01,4.093067646026611328e-01,3.693271875381469727e-01,-4.878116548061370850e-01,-8.766374588012695312e-01,-4.060162603855133057e-01,-5.680553913116455078e-01,-1.724554896354675293e+00,4.325191378593444824e-01,3.946164548397064209e-01,6.263053417205810547e-01,3.278227746486663818e-01
2.558487057685852051e-01,-5.763874650001525879e-01,-8.428934216499328613e-02,-6.370111703872680664e-01,-1.155069828033447266e+00,-2.628008723258972168e-01,-3.516455590724945068e-01,2.591632008552551270e-01,-1.897285223007202148e+00,-5.212032794952392578e-01,-1.656404286623001099e-01,4.667613804340362549e-01,4.237272441387176514e-01,3.242884278297424316e-01,-1.845834255218505859e+00,-1.904731988906860352e-01,2.671120762825012207e-01,-3.083528280258178711e-01,-1.646485328674316406e+00,3.058958053588867188e-01,-1.591001898050308228e-01,3.017875850200653076e-01,-3.817136213183403015e-02,-3.142997324466705322e-01,-4.055651426315307617e-01,-2.483133673667907715e-01,8.503106236457824707e-02,-1.329026699066162109e+00,5.314223766326904297e-01,6.479270011186599731e-02,1.901860684156417847e-01,-3.209206163883209229e-01,-8.963633775711059570e-01,-2.295589447021484375e-01,-4.611004292964935303e-01,-2.274952411651611328e+00,-2.744145393371582031e-01,1.861938685178756714e-01,8.656481653451919556e-02,6.490525603294372559e-01
4.826505202800035477e-03,-2.058657407760620117e-01,3.270609676837921143e-01,2.037033736705780029e-01,-7.055482268333435059e-01,2.923291921615600586e-01,-3.144526183605194092e-01,-1.054448604583740234e+00,-1.045468568801879883e+00,-2.515356838703155518e-01,-3.613620400428771973e-01,-5.355473235249519348e-02,2.968510687351226807e-01,-6.024756431579589844e-01,-2.413273572921752930e+00,-8.104749321937561035e-01,-4.043475091457366943e-01,-2.067623376846313477e+00,-2.421634197235107422e+00,-2.995316497981548309e-02,-1.935045868158340454e-01,-1.325374841690063477e-01,5.178043842315673828e-01,-2.641730010509490967e-01,-7.673235535621643066e-01,-6.431312561035156250e-01,-5.592489615082740784e-03,-1.311811804771423340e+00,5.023667216300964355e-01,3.917333185672760010e-01,-2.516722202301025391e+00,1.665882319211959839e-01,-1.045258641242980957e+00,-1.544163227081298828e-01,-1.851313561201095581e-01,-7.192717790603637695e-01,3.835726678371429443e-01,1.385869681835174561e-01,4.429535269737243652e-01,-4.915995299816131592e-01
2.777014970779418945e-01,-1.531966775655746460e-01,2.116242647171020508e-01,6.652950774878263474e-03,-4.344268798828125000e+00,7.863590493798255920e-03,-3.196534812450408936e-01,-4.023736119270324707e-01,-1.917372703552246094e+00,-3.557135164737701416e-01,-9.453487992286682129e-01,2.921912074089050293e-01,-2.450540363788604736e-01,1.299215257167816162e-01,-2.274148941040039062e+00,-4.944288432598114014e-01,1.630265563726425171e-01,-6.170651912689208984e-01,-3.248299598693847656e+00,-1.326312124729156494e-01,-4.207686185836791992e-01,-2.842186450958251953e+00,4.024331569671630859e-01,-1.749320983886718750e+00,-1.809388250112533569e-01,-8.172341436147689819e-02,4.077944457530975342e-01,-6.624934077262878418e-01,4.013379812240600586e-01,2.622332572937011719e-01,-1.439548283815383911e-01,-1.581465005874633789e-01,-5.474332571029663086e-01,-3.640775009989738464e-02,-4.540730416774749756e-01,-7.698585391044616699e-01,2.646110653877258301e-01,4.126143455505371094e-01,2.740634083747863770e-01,2.030340284109115601e-01
9.570468962192535400e-02,-2.733035385608673096e-01,-9.996920078992843628e-02,-2.229456007480621338e-01,-2.381377220153808594e-01,-1.263985633850097656e-01,-3.842126429080963135e-01,-2.659214735031127930e-01,-1.320696324110031128e-01,-2.129557579755783081e-01,-9.883774816989898682e-02,-1.002081930637359619e-01,2.860544249415397644e-03,2.967872843146324158e-02,-4.107800778001546860e-03,-2.775099873542785645e-01,-4.519527554512023926e-01,1.627593636512756348e-01,-1.019330602139234543e-02,-1.639774441719055176e-01,-3.308780491352081299e-02,2.363062947988510132e-01,-2.515600919723510742e-01,-1.492517739534378052e-01,-3.963192403316497803e-01,-1.442129760980606079e-01,-1.222754716873168945e-01,2.340314686298370361e-01,-2.540996670722961426e-01,-4.440852627158164978e-02,-2.106578350067138672e-01,-2.909477055072784424e-01,-1.458484679460525513e-01,4.264281690120697021e-02,9.355461597442626953e-02,-1.676642000675201416e-01,-4.534816369414329529e-02,3.355314955115318298e-02,4.459915310144424438e-02,-4.115481674671173096e-02
-4.269093647599220276e-02,-1.176799535751342773e-01,3.076934814453125000e-01,-3.140957355499267578e-01,4.175024479627609253e-02,-1.065653841942548752e-02,4.185394346714019775e-01,5.985875800251960754e-02,8.076527714729309082e-02,9.127231687307357788e-02,-1.436230242252349854e-01,-1.990899443626403809e-01,5.597064271569252014e-02,3.645265474915504456e-03,2.597691714763641357e-01,2.916818298399448395e-02,1.050371304154396057e-01,-7.852289825677871704e-02,2.031971961259841919e-01,-3.481761366128921509e-02,2.100261449813842773e-01,2.337171696126461029e-02,-2.798754274845123291e-01,3.865078790113329887e-03,2.813919484615325928e-01,-1.192879900336265564e-01,1.081735081970691681e-02,-8.432104438543319702e-02,1.230660080909729004e-02,5.563362315297126770e-02,6.793587468564510345e-03,1.454447954893112183e-01,-1.293995529413223267e-01,3.143696486949920654e-01,1.980475783348083496e-01,-3.670420497655868530e-02,-3.552795201539993286e-02,3.685320913791656494e-02,1.573688723146915436e-02,-5.905656516551971436e-02
2.608071565628051758e-01,4.427660107612609863e-01,-4.543764889240264893e-02,3.534789383411407471e-01,-3.352367162704467773e+00,3.479276299476623535e-01,-2.471229434013366699e-01,-2.317444533109664917e-01,-1.816035389900207520e+00,-4.252797067165374756e-01,-4.163258075714111328e-01,8.933282643556594849e-02,3.506156206130981445e-01,2.358234077692031860e-01,-1.742679476737976074e+00,-9.069373607635498047e-01,2.886739075183868408e-01,-5.329110622406005859e-01,-2.085111379623413086e+00,1.481120735406875610e-01,-3.598125576972961426e-01,-1.907846778631210327e-01,1.059653088450431824e-01,-2.140598446130752563e-01,-2.062050849199295044e-01,-1.811003535985946655e-01,-2.947268187999725342e-01,-3.983797073364257812e+00,8.805606514215469360e-02,-1.127894744277000427e-01,2.213363796472549438e-01,-3.622783422470092773e-01,-7.612043619155883789e-01,-1.081903129816055298e-01,-2.697200477123260498e-01,-7.385034561157226562e-01,3.040414452552795410e-01,1.914235055446624756e-01,-4.370118379592895508e-01,1.773196645081043243e-02
2.120556086301803589e-01,2.193487584590911865e-01,-2.111155306920409203e-03,1.127065867185592651e-01,-2.243158340454101562e+00,1.816461086273193359e-01,-2.608129978179931641e-01,-1.828668117523193359e-01,-1.505414605140686035e+00,-6.873179674148559570e-01,-8.607748746871948242e-01,1.367218196392059326e-01,-2.680370956659317017e-02,1.714005768299102783e-01,-2.285179138183593750e+00,-1.204306483268737793e+00,2.825330793857574463e-01,-1.056468963623046875e+00,-1.982844471931457520e+00,1.735401302576065063e-01,-2.827774584293365479e-01,2.607056200504302979e-01,3.154023587703704834e-01,-2.946772873401641846e-01,-1.580325365066528320e-01,-1.119864657521247864e-01,2.505628168582916260e-01,-1.301453351974487305e+00,2.195277065038681030e-01,3.008095324039459229e-01,-2.900820374488830566e-01,-2.362305670976638794e-01,-7.185280919075012207e-01,-4.286453425884246826e-01,-3.695285022258758545e-01,-1.081863403320312500e+00,3.260937333106994629e-02,1.637558043003082275e-01,2.170343399047851562e-01,1.401588767766952515e-01
1.341950744390487671e-01,4.033681452274322510e-01,5.798600316047668457e-01,1.565047800540924072e-01,-2.017575502395629883e+00,-7.783690690994262695e-01,-2.188587486743927002e-01,-9.267653822898864746e-01,-1.596309781074523926e+00,-7.582751512527465820e-01,-6.721566319465637207e-01,1.053076162934303284e-01,-2.409873008728027344e-01,-2.325221598148345947e-01,-3.526089906692504883e+00,-1.683544516563415527e+00,2.914843559265136719e-01,-1.097550153732299805e+00,-5.405290126800537109e-01,2.579109072685241699e-01,-1.730595827102661133e-01,-4.160107374191284180e-01,-5.270690917968750000e-01,-3.283753097057342529e-01,-2.212650626897811890e-01,-6.051709055900573730e-01,-1.290496736764907837e-01,-1.081130623817443848e+00,9.661881625652313232e-02,-1.242382168769836426e+00,4.923346266150474548e-02,-1.091789007186889648e-01,-2.556141018867492676e-01,-2.889276742935180664e-01,-2.572065293788909912e-01,-7.109799981117248535e-01,-1.173964738845825195e-01,4.156996011734008789e-01,4.890095293521881104e-01,4.415042102336883545e-01
-3.038162589073181152e-01,-1.197666898369789124e-01,-5.449456349015235901e-02,-4.719974845647811890e-02,-1.339743435382843018e-01,-5.003557540476322174e-03,3.024511225521564484e-02,1.785688251256942749e-01,-3.717616498470306396e-01,-3.177149593830108643e-01,1.007117778062820435e-01,1.072289273142814636e-01,2.435092329978942871e-01,-8.575445972383022308e-03,-3.265337944030761719e-01,-2.326113283634185791e-01,-3.862940967082977295e-01,-3.996705412864685059e-01,-7.109016180038452148e-02,-6.703902035951614380e-02,-1.336617916822433472e-01,6.229568645358085632e-02,-1.434507071971893311e-01,-4.841408517677336931e-04,-4.298031628131866455e-01,-1.488489955663681030e-01,1.918003894388675690e-02,-3.213066458702087402e-01,1.562851816415786743e-01,-1.411718726158142090e-01,-2.703365385532379150e-01,-7.215978205204010010e-02,1.759705990552902222e-01,1.522281914949417114e-01,-2.189945876598358154e-01,-5.061336755752563477e-01,-3.638134896755218506e-01,-4.795050919055938721e-01,-1.176926717162132263e-01,-2.279780060052871704e-01
2.359977066516876221e-01,2.172653079032897949e-01,1.984866857528686523e-01,2.197384275496006012e-02,-1.864196538925170898e+00,6.694877892732620239e-02,-2.764909863471984863e-01,-2.806776463985443115e-01,-1.579014062881469727e+00,-4.941522777080535889e-01,-1.028356671333312988e+00,8.559993654489517212e-02,-9.903925657272338867e-02,1.115548089146614075e-01,-2.376168012619018555e+00,-9.178174138069152832e-01,3.421800136566162109e-01,-3.809947073459625244e-01,-2.006422281265258789e+00,1.667327582836151123e-01,-4.546155929565429688e-01,3.015960752964019775e-01,3.634526729583740234e-01,-5.484095215797424316e-01,-1.171614602208137512e-01,-5.335341095924377441e-01,-1.061051618307828903e-03,-1.275842189788818359e+00,8.165613561868667603e-02,1.007873937487602234e-01,2.554267831146717072e-02,-4.679843783378601074e-01,-9.198751449584960938e-01,-1.556823402643203735e-01,-3.359713554382324219e-01,-6.530826091766357422e-01,4.921313375234603882e-02,1.566388905048370361e-01,3.560753464698791504e-01,2.650367915630340576e-01
4.054079949855804443e-01,2.753982841968536377e-01,2.471761405467987061e-01,-6.215424090623855591e-02,-1.688852548599243164e+00,1.611483097076416016e-01,-4.523302018642425537e-01,-3.055797815322875977e-01,-1.160709619522094727e+00,-4.490571618080139160e-01,-1.047702431678771973e+00,3.495398759841918945e-01,2.883795201778411865e-01,-1.112646833062171936e-01,-1.401571869850158691e+00,-8.664680719375610352e-01,3.020874857902526855e-01,-8.457886576652526855e-01,-1.332249999046325684e+00,2.032189816236495972e-01,-2.647369801998138428e-01,2.184865325689315796e-01,3.073198795318603516e-01,-2.228772640228271484e-01,-3.404605090618133545e-01,-3.678977191448211670e-01,2.685300707817077637e-01,-1.461681723594665527e+00,1.723061800003051758e-01,1.527749001979827881e-01,1.880007535219192505e-01,-3.489564955234527588e-01,-4.250295758247375488e-01,-4.662556648254394531e-01,-2.128395587205886841e-01,-2.025794982910156250e+00,3.195906281471252441e-01,2.678933441638946533e-01,9.450256079435348511e-02,2.094449847936630249e-01
3.148943185806274414e-01,2.812582254409790039e-01,1.572453230619430542e-01,1.176025494933128357e-01,-2.163219928741455078e+00,2.712540030479431152e-01,-2.329758256673812866e-01,-6.577894836664199829e-02,-2.270380973815917969e+00,-4.609524607658386230e-01,-5.903908610343933105e-01,-2.678425908088684082e-01,-9.050509929656982422e-01,9.931388497352600098e-02,-2.544736623764038086e+00,-9.649336934089660645e-01,3.152421712875366211e-01,-3.010830879211425781e-01,-2.149970531463623047e+00,1.694830209016799927e-01,-4.386861622333526611e-01,2.340865582227706909e-01,-5.704010128974914551e-01,-2.570720613002777100e-01,-4.316844642162322998e-01,-3.520146310329437256e-01,3.820483386516571045e-01,-1.425364136695861816e+00,1.777850687503814697e-01,3.252783715724945068e-01,1.781426370143890381e-01,-4.745993614196777344e-01,-8.626387715339660645e-01,-2.906168997287750244e-01,-7.107728719711303711e-01,-1.112434148788452148e+00,-5.912768244743347168e-01,1.688907295465469360e-01,2.550897002220153809e-01,3.449235260486602783e-01
-1.216718405485153198e-01,4.691708087921142578e-01,3.853524923324584961e-01,-2.952739596366882324e-01,-2.503763437271118164e+00,2.498193383216857910e-01,-2.675361037254333496e-01,-3.193891942501068115e-01,-1.120513200759887695e+00,-4.714678525924682617e-01,-7.774491310119628906e-01,2.094105631113052368e-01,2.250276654958724976e-01,1.457671374082565308e-01,-2.711224555969238281e+00,-2.041511774063110352e+00,4.187925755977630615e-01,-5.392130613327026367e-01,-1.968577861785888672e+00,9.676914662122726440e-02,-3.484195768833160400e-01,3.697608709335327148e-01,2.458197176456451416e-01,-2.500707805156707764e-01,-1.929172128438949585e-01,-4.713803827762603760e-01,2.658541202545166016e-01,-2.970480442047119141e+00,2.754469215869903564e-01,1.878887563943862915e-01,1.759122163057327271e-01,-4.185967445373535156e-01,-8.323850631713867188e-01,-1.576598435640335083e-01,-1.061369329690933228e-01,-9.082478284835815430e-01,2.221613824367523193e-01,3.949209749698638916e-01,4.308195412158966064e-01,9.837731719017028809e-03
-1.822809576988220215e-01,7.020526379346847534e-02,-1.452553123235702515e-01,3.997527360916137695e-01,-2.162943594157695770e-02,2.839217483997344971e-01,-3.885580226778984070e-02,1.985131204128265381e-02,2.928971648216247559e-01,-1.401166170835494995e-01,1.921023875474929810e-01,1.312463134527206421e-01,1.846488565206527710e-02,2.196651995182037354e-01,5.026717483997344971e-02,-1.058952659368515015e-01,1.688038855791091919e-01,-5.351786315441131592e-02,-1.764367222785949707e-01,1.069624722003936768e-01,-3.184794262051582336e-02,-3.847040235996246338e-02,-1.577662229537963867e-01,1.501632016152143478e-02,4.622958898544311523e-01,2.387264668941497803e-01,-9.511119127273559570e-02,1.537606269121170044e-01,8.458349108695983887e-02,8.465472608804702759e-02,-9.202191233634948730e-02,-3.550568819046020508e-01,-2.161933630704879761e-01,2.106088679283857346e-03,-3.640733659267425537e-01,9.167250245809555054e-02,-2.042039781808853149e-01,1.185046285390853882e-01,4.808175936341285706e-02,1.123017817735671997e-01
1.013227775692939758e-01,-3.047153055667877197e-01,8.240168541669845581e-02,1.176117733120918274e-01,-2.346697002649307251e-01,2.287763804197311401e-01,-1.652127802371978760e-01,-1.376736760139465332e-01,-1.311586350202560425e-01,3.416822478175163269e-02,-2.171577215194702148e-01,1.707016825675964355e-01,-3.172829747200012207e-01,1.807450801134109497e-01,2.956435456871986389e-02,-1.553038060665130615e-01,1.701843589544296265e-01,-1.789173185825347900e-01,-3.212320804595947266e-01,-1.607247591018676758e-01,-4.056932777166366577e-02,1.597955971956253052e-01,7.454323023557662964e-02,-3.718482702970504761e-02,5.227313637733459473e-01,-2.671826481819152832e-01,-1.371242105960845947e-01,3.098172545433044434e-01,-2.076351046562194824e-01,-3.251187801361083984e-01,-2.610361874103546143e-01,-2.933566570281982422e-01,4.713460505008697510e-01,-4.650442302227020264e-02,-1.570266187191009521e-01,-7.260883599519729614e-02,-5.505036711692810059e-01,1.510513722896575928e-01,4.211246073246002197e-01,-3.128483146429061890e-02
4.020601511001586914e-01,-1.455088704824447632e-01,2.799281775951385498e-01,2.007786035537719727e-01,-3.904742717742919922e+00,1.956912577152252197e-01,-1.964302510023117065e-01,-3.581836521625518799e-01,-9.427986145019531250e-01,-8.695742487907409668e-01,-4.787418544292449951e-01,2.657039165496826172e-01,2.585024237632751465e-01,1.462372690439224243e-01,-1.698157787322998047e+00,-6.878342032432556152e-01,5.080463886260986328e-01,-5.277068614959716797e-01,-5.481745004653930664e-01,2.801263332366943359e-01,-2.856805324554443359e-01,4.344462454319000244e-01,5.792041420936584473e-01,-1.964231431484222412e-01,-4.644599258899688721e-01,-2.492078989744186401e-01,1.971898227930068970e-01,-1.896483659744262695e+00,1.182343438267707825e-01,-1.950714439153671265e-01,1.986339986324310303e-01,-8.499759435653686523e-02,-5.260962247848510742e-01,-3.903605043888092041e-01,-1.408895999193191528e-01,-1.928969025611877441e+00,6.831632554531097412e-02,1.994893848896026611e-01,2.117859870195388794e-01,2.451724261045455933e-01
1.493402123451232910e-01,-2.665583789348602295e-01,8.435422927141189575e-02,-3.718980550765991211e-01,-1.068979501724243164e+00,3.562524020671844482e-01,-3.589720427989959717e-01,2.982505857944488525e-01,-6.863034367561340332e-01,4.264371842145919800e-02,-4.477754235267639160e-01,-2.257110029458999634e-01,7.028568536043167114e-02,-3.304894864559173584e-01,-1.004106760025024414e+00,-2.689147293567657471e-01,1.610549241304397583e-01,-5.170212984085083008e-01,-7.208362817764282227e-01,9.770479053258895874e-02,-1.051207780838012695e-01,2.875860035419464111e-01,1.827304065227508545e-01,-3.099744953215122223e-02,-7.133524119853973389e-02,1.055752020329236984e-02,-1.744298785924911499e-01,-9.394908547401428223e-01,1.537831593304872513e-02,-1.442313641309738159e-01,-1.486390382051467896e-01,-1.034527719020843506e-01,-5.870672687888145447e-02,3.426322713494300842e-02,-4.427667558193206787e-01,-5.526781678199768066e-01,-3.313888013362884521e-01,6.003032252192497253e-02,-1.036445125937461853e-01,-2.149538099765777588e-01
-1.371962577104568481e-01,1.509239338338375092e-02,1.570135354995727539e-01,-2.019958347082138062e-01,-3.638154864311218262e-01,-7.329796254634857178e-02,-4.079981148242950439e-02,-1.567567288875579834e-01,-3.747892379760742188e-01,5.605421960353851318e-02,5.387526005506515503e-02,-1.596663892269134521e-02,-1.270676106214523315e-01,-5.690647959709167480e-01,-2.337599918246269226e-02,-3.305021673440933228e-02,-7.964799404144287109e-01,1.875664144754409790e-01,-2.011596262454986572e-01,-1.219755411148071289e-01,-3.438385128974914551e-01,4.191197920590639114e-03,-3.532994687557220459e-01,-4.031886160373687744e-01,-4.261080026626586914e-01,4.871597141027450562e-02,1.607837826013565063e-01,3.241118788719177246e-01,1.414023898541927338e-02,-2.330460995435714722e-01,-6.942705810070037842e-02,-3.599678874015808105e-01,1.172605007886886597e-01,-7.416394539177417755e-03,1.729882657527923584e-01,-2.805387675762176514e-01,1.516926288604736328e-01,-2.071078866720199585e-01,-1.878119856119155884e-01,-2.357635498046875000e-01
3.210427705198526382e-03,1.014996320009231567e-01,-1.693253964185714722e-01,-5.334527418017387390e-02,-2.015507780015468597e-03,4.022402465343475342e-01,-2.307317405939102173e-01,3.314616382122039795e-01,8.042831718921661377e-02,-2.669704854488372803e-01,-3.974325489252805710e-03,3.767982721328735352e-01,1.774128973484039307e-01,1.329629421234130859e-01,-5.341264884918928146e-03,-1.282509267330169678e-01,1.862356364727020264e-01,9.496365487575531006e-02,5.261120572686195374e-02,3.438217192888259888e-02,4.146062731742858887e-01,3.589463531970977783e-01,3.254863321781158447e-01,2.050987258553504944e-02,2.198107242584228516e-01,8.409265428781509399e-02,-1.878280043601989746e-01,4.188414290547370911e-02,3.927536904811859131e-01,6.707631051540374756e-02,2.302849479019641876e-02,-1.974990814924240112e-01,-1.154669374227523804e-01,-4.257999733090400696e-02,-7.844497263431549072e-02,1.896563917398452759e-01,2.127448469400405884e-01,2.402159720659255981e-01,5.315040424466133118e-02,2.102497220039367676e-01
2.273662015795707703e-02,1.726480871438980103e-01,-9.506326913833618164e-02,-2.792452275753021240e-01,-1.052269458770751953e+00,3.607794642448425293e-01,-3.425167202949523926e-01,-1.797104924917221069e-01,-5.055642127990722656e-01,-3.126472830772399902e-01,-9.445218443870544434e-01,1.781843304634094238e-01,1.461580991744995117e-01,2.165952324867248535e-01,-2.511795997619628906e+00,-1.204704880714416504e+00,3.533624485135078430e-02,-1.572597503662109375e+00,-2.812077760696411133e+00,2.283781319856643677e-01,-1.445071399211883545e-01,5.366528630256652832e-01,2.937078475952148438e-01,-4.144575595855712891e-01,-3.853000998497009277e-01,-3.339338302612304688e-01,4.330381453037261963e-01,-1.915133833885192871e+00,-5.140165686607360840e-01,4.587450027465820312e-01,2.913562357425689697e-01,-1.381975114345550537e-01,-2.871284782886505127e-01,-1.055506393313407898e-01,-6.072918176651000977e-01,-2.320457696914672852e+00,1.857142597436904907e-01,4.676295071840286255e-02,7.730715721845626831e-02,7.270042598247528076e-02
7.869268208742141724e-02,-3.102844953536987305e-01,4.362299740314483643e-01,-3.800205886363983154e-01,-4.993285238742828369e-01,-1.998531818389892578e-02,-1.326343566179275513e-01,1.761139631271362305e-01,-2.292430847883224487e-01,-1.166928187012672424e-01,3.670076653361320496e-02,-9.505830705165863037e-02,-1.442168951034545898e-01,-5.215967297554016113e-01,-4.707441329956054688e-01,-2.116869948804378510e-02,-5.803349018096923828e-01,-1.540736556053161621e-01,-4.761124774813652039e-02,-2.889030575752258301e-01,-1.427851915359497070e-01,-3.264223039150238037e-01,1.355729401111602783e-01,-1.610207855701446533e-01,-3.630595803260803223e-01,-1.263470351696014404e-01,-4.026978909969329834e-01,-2.695710659027099609e-01,4.924057051539421082e-03,1.615005135536193848e-01,3.036874234676361084e-01,3.738817945122718811e-02,-3.670188188552856445e-01,-1.382556557655334473e-01,-2.528677321970462799e-02,2.024962753057479858e-01,1.378930057398974895e-03,2.103387713432312012e-01,-3.593658506870269775e-01,-1.234914511442184448e-01
4.079363346099853516e-01,3.281357288360595703e-01,2.711193561553955078e-01,1.921062469482421875e-01,-3.349575042724609375e+00,3.392281532287597656e-01,-3.093209266662597656e-01,-2.944685220718383789e-01,-1.223728179931640625e+00,-7.165427207946777344e-01,-5.693434476852416992e-01,2.573811411857604980e-01,2.648879289627075195e-01,2.821273803710937500e-01,-1.769381165504455566e+00,-8.910509943962097168e-01,4.711885452270507812e-01,-5.051241517066955566e-01,-2.814527988433837891e+00,2.492325752973556519e-01,-5.316269397735595703e-01,2.902671098709106445e-01,6.299360990524291992e-01,-2.230308651924133301e-01,-3.110143244266510010e-01,-3.930733203887939453e-01,4.111097157001495361e-01,-1.986198186874389648e+00,3.089455962181091309e-01,3.204599022865295410e-01,3.388323485851287842e-01,-3.834949433803558350e-01,-4.945629537105560303e-01,-3.349311351776123047e-01,-3.624674379825592041e-01,-1.258788824081420898e+00,4.062084257602691650e-01,2.278816103935241699e-01,6.110860705375671387e-01,3.615629374980926514e-01
-1.523030042648315430e+00,1.769643872976303101e-01,5.542090535163879395e-01,-5.992675200104713440e-02,-1.400093674659729004e+00,2.650921046733856201e-01,-5.254086852073669434e-01,1.085491627454757690e-01,-1.553406476974487305e+00,-4.797643721103668213e-01,-1.853385418653488159e-01,-5.574953556060791016e-01,4.299690425395965576e-01,-2.527402937412261963e-01,-3.940419852733612061e-01,-3.691594302654266357e-01,1.321208849549293518e-02,-3.372473716735839844e-01,-1.321121215820312500e+00,-1.210697293281555176e-01,-5.071676373481750488e-01,2.604146488010883331e-02,-3.715982437133789062e-01,-6.793863177299499512e-01,-6.020389199256896973e-01,-4.188846349716186523e-01,6.704749464988708496e-01,-2.239960908889770508e+00,5.355121493339538574e-01,-6.462318301200866699e-01,1.546938568353652954e-01,-5.074717402458190918e-01,-8.807606697082519531e-01,-1.711814552545547485e-01,1.143192779272794724e-02,-5.504629611968994141e-01,-7.484025508165359497e-02,2.251840084791183472e-01,1.593453735113143921e-01,2.317008674144744873e-01
-1.451067030429840088e-01,1.101302132010459900e-01,-2.286211103200912476e-01,3.868907690048217773e-01,-2.749678492546081543e-02,3.971685469150543213e-01,-1.742631345987319946e-01,1.166063174605369568e-01,2.652735710144042969e-01,-2.248396277427673340e-01,1.893697977066040039e-01,2.651929855346679688e-01,6.847587227821350098e-02,2.497085928916931152e-01,6.438801065087318420e-03,-1.392566263675689697e-01,2.002630829811096191e-01,-3.486623521894216537e-03,-1.827770620584487915e-01,1.108798757195472717e-01,5.946088209748268127e-02,6.829831004142761230e-02,1.721430569887161255e-03,2.138702571392059326e-02,4.491111934185028076e-01,2.464985549449920654e-01,-1.415640860795974731e-01,1.688606292009353638e-01,2.015463709831237793e-01,8.890084177255630493e-02,-7.957819849252700806e-02,-4.159521758556365967e-01,-1.992561072111129761e-01,-6.312043964862823486e-02,-3.809732496738433838e-01,1.451872289180755615e-01,-1.174778491258621216e-01,1.673548370599746704e-01,6.426586210727691650e-02,1.745823323726654053e-01
