-7.208681106567382812e-02,2.925968766212463379e-01,1.592916063964366913e-02,8.221062831580638885e-03,-4.415927454829216003e-02,1.625704914331436157e-01,2.228328883647918701e-01,3.588770981878042221e-03,-2.225093394517898560e-01,-1.828101426362991333e-01,8.351123332977294922e-02,-1.423548161983489990e-02,8.478539437055587769e-02,6.599557120352983475e-03,3.650022745132446289e-01,-1.306341290473937988e-01,-1.242043897509574890e-01,-3.460107445716857910e-01,5.199924111366271973e-01,1.110883876681327820e-01
2.701569497585296631e-01,-9.952728450298309326e-02,-2.256115823984146118e-01,3.951302170753479004e-02,-1.969374157488346100e-02,-2.205418050289154053e-01,-9.624560177326202393e-02,-8.514910936355590820e-02,-3.824340999126434326e-01,3.020609319210052490e-01,4.814745485782623291e-01,2.159118652343750000e-01,3.577803075313568115e-02,1.093558222055435181e-01,-1.403497755527496338e-01,1.860224157571792603e-01,1.508098989725112915e-01,1.935311704874038696e-01,1.827883124351501465e-01,-4.160643368959426880e-02
6.058906316757202148e-01,-1.348035439150407910e-04,-4.237497746944427490e-01,3.058882988989353180e-02,-3.013626635074615479e-01,-4.433893263339996338e-01,-1.168000847101211548e-01,1.131025850772857666e-01,-6.066222861409187317e-02,-5.874376893043518066e-01,3.614093065261840820e-01,-6.961121410131454468e-02,3.315607309341430664e-01,-5.024371743202209473e-01,1.313273012638092041e-01,9.389229118824005127e-02,-3.036244511604309082e-01,-5.538511648774147034e-02,6.316239237785339355e-01,3.437865376472473145e-01
-1.115338355302810669e-01,4.444460570812225342e-01,-2.159370779991149902e-01,-1.436514407396316528e-01,-2.158144414424896240e-01,-3.712410628795623779e-01,4.059568643569946289e-01,-4.452338516712188721e-01,1.531664375215768814e-02,1.680391132831573486e-01,2.185707986354827881e-01,2.093393057584762573e-01,3.199798762798309326e-01,1.413670331239700317e-01,-4.101578593254089355e-01,1.862884610891342163e-01,-1.336291134357452393e-01,-1.743524372577667236e-01,3.553650379180908203e-01,2.603233158588409424e-01
2.940793931484222412e-01,1.951494999229907990e-02,-7.753523439168930054e-02,3.659257590770721436e-01,2.615338563919067383e-01,2.281348407268524170e-01,-3.642323315143585205e-01,7.210014015436172485e-02,-3.989229500293731689e-01,-7.443504035472869873e-02,-1.136227250099182129e-01,2.447667717933654785e-01,-3.832960873842239380e-02,-7.090282440185546875e-02,-2.610586583614349365e-01,1.616035848855972290e-01,4.119589626789093018e-01,3.164060646668076515e-03,-2.375804930925369263e-01,-3.186897933483123779e-01
5.662965402007102966e-02,-6.808189153671264648e-01,1.385608501732349396e-02,3.313854932785034180e-01,-1.740003824234008789e-01,2.474136501550674438e-01,-2.088714092969894409e-01,-1.895287036895751953e-01,6.746744364500045776e-02,-1.959049701690673828e-01,2.017876952886581421e-01,-1.436407119035720825e-01,-4.467197060585021973e-01,-8.013182878494262695e-02,4.697627574205398560e-02,5.986765623092651367e-01,8.736482262611389160e-02,2.577201724052429199e-01,-1.612119227647781372e-01,2.910036146640777588e-01
6.209862604737281799e-02,2.769462466239929199e-01,1.263692080974578857e-01,-2.409107685089111328e-01,-2.584767937660217285e-01,-9.814776480197906494e-02,1.981734782457351685e-01,6.733281165361404419e-02,4.303779602050781250e-01,4.571689367294311523e-01,4.174490272998809814e-02,2.369566261768341064e-01,-4.737200140953063965e-01,4.157009348273277283e-02,4.383083805441856384e-02,2.446699887514114380e-01,-1.190214604139328003e-01,-5.952395871281623840e-02,4.106143489480018616e-02,2.055982500314712524e-01
2.686553299427032471e-01,2.617764770984649658e-01,1.330542415380477905e-01,2.010336965322494507e-01,-9.730476886034011841e-02,3.470390737056732178e-01,-9.092409908771514893e-02,-1.439367886632680893e-02,1.880511492490768433e-01,2.166604064404964447e-02,-5.376494675874710083e-02,-2.569948434829711914e-01,5.597802996635437012e-02,-9.562992304563522339e-02,4.146090447902679443e-01,-5.849317312240600586e-01,2.597062289714813232e-01,3.258737176656723022e-02,3.094458878040313721e-01,-2.387597411870956421e-01
-1.135404855012893677e-01,-3.489431440830230713e-01,-7.991198450326919556e-03,1.231273356825113297e-02,-1.444858312606811523e-01,-1.820048093795776367e-01,-4.260822385549545288e-02,2.343659661710262299e-02,1.036203578114509583e-01,9.478808939456939697e-02,-9.937097132205963135e-02,-9.557793289422988892e-02,3.536991477012634277e-01,2.010755687952041626e-01,-1.911403797566890717e-02,-1.705713719129562378e-01,1.341350525617599487e-01,2.947462797164916992e-01,3.936722502112388611e-02,5.182725787162780762e-01
-2.280559390783309937e-01,1.259775310754776001e-01,1.943865567445755005e-01,2.851338386535644531e-01,-1.317187100648880005e-01,1.917842328548431396e-01,-6.919101625680923462e-02,-3.321653902530670166e-01,2.575752437114715576e-01,-3.629011334851384163e-03,-1.166631132364273071e-01,-5.034232884645462036e-02,-3.810199797153472900e-01,-5.421996116638183594e-02,2.327982038259506226e-01,-4.007167518138885498e-01,-4.563387855887413025e-02,2.523105740547180176e-01,-3.257060945034027100e-01,-9.974623471498489380e-02
4.490716159343719482e-01,-6.516211479902267456e-02,-3.424395322799682617e-01,2.432669401168823242e-01,2.415162026882171631e-01,-2.101299911737442017e-02,-1.260353177785873413e-01,-7.727592438459396362e-02,-3.870519995689392090e-02,8.648811280727386475e-02,-1.798510923981666565e-02,-7.433909922838211060e-02,-1.513385586440563202e-02,4.813868105411529541e-01,2.581697404384613037e-01,-1.941260099411010742e-01,1.194603294134140015e-01,2.590386569499969482e-02,-2.268863618373870850e-01,4.365249574184417725e-01
2.281543612480163574e-01,-6.677869707345962524e-02,-5.726985260844230652e-02,-3.134662508964538574e-01,1.699442863464355469e-01,3.143728971481323242e-01,1.361643224954605103e-01,-6.128088012337684631e-02,-8.040384948253631592e-02,2.180424779653549194e-01,9.067874401807785034e-02,-5.364280939102172852e-01,-2.101270705461502075e-01,2.478749901056289673e-01,6.368644833564758301e-01,-3.224478662014007568e-01,3.031598329544067383e-01,4.518117383122444153e-02,-1.687421463429927826e-02,-2.368323802947998047e-01
2.777829468250274658e-01,-4.390026256442070007e-02,8.126848936080932617e-02,-4.383650422096252441e-02,1.046461760997772217e-01,-1.225445121526718140e-01,-1.783267706632614136e-01,6.619507074356079102e-02,-1.442226767539978027e-01,-3.635205030441284180e-01,-3.917797207832336426e-01,8.435328304767608643e-02,3.047951869666576385e-02,-7.460175454616546631e-02,-8.612565696239471436e-03,-3.401222229003906250e-01,4.332821965217590332e-01,3.223768770694732666e-01,2.055002003908157349e-01,1.554946601390838623e-01
1.226372942328453064e-01,3.632249832153320312e-01,-1.913446784019470215e-01,-3.570153713226318359e-01,7.858498394489288330e-02,-2.842554450035095215e-01,-1.872535943984985352e-01,-9.292140603065490723e-02,-1.137476563453674316e-01,-4.467267394065856934e-01,-2.293510437011718750e-01,5.844051241874694824e-01,2.869465202093124390e-02,-3.807704150676727295e-02,-4.083533585071563721e-01,-1.396066397428512573e-01,4.609515517950057983e-02,-2.103082835674285889e-01,4.139781296253204346e-01,2.501022219657897949e-01
-1.095487773418426514e-01,-6.160030364990234375e-01,1.124351993203163147e-01,1.737979501485824585e-01,-2.214785292744636536e-02,-2.063772231340408325e-01,-2.858476340770721436e-01,-1.925761103630065918e-01,2.044626772403717041e-01,-5.809921026229858398e-02,1.526003330945968628e-02,-3.157283365726470947e-02,2.617686390876770020e-01,-1.612643897533416748e-01,5.099330842494964600e-02,-3.516739606857299805e-01,2.769701741635799408e-02,-4.918363988399505615e-01,-1.033180877566337585e-01,4.291963577270507812e-02
-3.237207233905792236e-01,8.962375670671463013e-02,-1.454764902591705322e-01,-2.591994404792785645e-01,2.401353865861892700e-01,7.267618179321289062e-02,1.760528981685638428e-01,3.711308911442756653e-02,-8.585848659276962280e-02,-8.381870388984680176e-02,-7.565789669752120972e-02,5.494002699851989746e-01,3.794582188129425049e-01,-6.564930677413940430e-01,5.169822834432125092e-03,-5.991901159286499023e-01,2.341946810483932495e-01,-3.223478198051452637e-01,1.661318987607955933e-01,1.159438863396644592e-01
-8.700143545866012573e-03,-3.573051095008850098e-01,-2.020166814327239990e-01,6.393783539533615112e-02,2.252391725778579712e-01,-4.500861093401908875e-02,4.105958640575408936e-01,-9.875138103961944580e-02,4.055441543459892273e-02,-2.740306258201599121e-01,8.368361741304397583e-02,-7.979428395628929138e-03,-1.611839234828948975e-01,9.147665649652481079e-02,-2.192803323268890381e-01,1.598738282918930054e-01,1.934112459421157837e-01,-3.186644017696380615e-01,9.325683861970901489e-02,2.556173205375671387e-01
-4.060449823737144470e-02,2.658276557922363281e-01,-1.931326985359191895e-01,2.168130576610565186e-01,1.238053962588310242e-01,3.465613350272178650e-02,-1.522774398326873779e-01,-2.653722763061523438e-01,-3.416731357574462891e-01,-1.324595808982849121e-01,5.101094245910644531e-01,-3.029703199863433838e-01,1.102220192551612854e-01,-1.140772402286529541e-01,-6.491489708423614502e-02,9.546785056591033936e-02,5.265451967716217041e-02,2.699711918830871582e-01,-4.488927423954010010e-01,-4.543622583150863647e-02
-5.531934089958667755e-03,2.641038894653320312e-01,-9.289524704217910767e-02,4.049690365791320801e-01,-4.626851677894592285e-01,1.090512424707412720e-01,-2.151817455887794495e-02,1.442817896604537964e-01,-7.409139722585678101e-02,1.758830100297927856e-01,2.303749471902847290e-01,-1.796511709690093994e-01,-1.486211717128753662e-01,-6.637802347540855408e-03,1.610298007726669312e-01,-1.330568790435791016e-01,-6.582976877689361572e-02,4.084173589944839478e-02,-2.452633529901504517e-01,5.932975560426712036e-02
2.054705023765563965e-01,1.718333573080599308e-03,2.278578728437423706e-01,1.793936491012573242e-01,1.415528208017349243e-01,4.510730877518653870e-02,-9.573150426149368286e-02,5.282645300030708313e-02,8.923198282718658447e-02,1.445652395486831665e-01,-3.468143939971923828e-02,-4.133906215429306030e-02,2.416156530380249023e-01,-2.049789205193519592e-02,-5.348376035690307617e-01,-2.859874665737152100e-01,-1.406963318586349487e-01,-7.966148853302001953e-02,3.663214743137359619e-01,1.885669231414794922e-01
