-3.079398870468139648e-01,5.763174295425415039e-01,-5.223257541656494141e-01,-1.506300419569015503e-01,-6.156555190682411194e-02,-3.420718193054199219e+00,-5.496472120285034180e-02,2.185641288757324219e+00,-6.086695194244384766e-02,1.295738816261291504e+00,-1.646617799997329712e-01,7.218474745750427246e-01,1.425647288560867310e-01,3.522048950195312500e+00,-3.212716877460479736e-01,1.034465953707695007e-01,8.293439168483018875e-04,-8.826700598001480103e-02,4.093653559684753418e-01,-3.312617838382720947e-01,2.079393148422241211e+00,1.828034371137619019e-01,2.856279909610748291e-01,5.628824830055236816e-01,1.369176506996154785e-01,3.825136423110961914e+00,-1.150746345520019531e-01,-2.632784247398376465e-01,-1.741332054138183594e+00,2.860733866691589355e-01,-1.565830260515213013e-01,-4.705390632152557373e-01,5.076945781707763672e+00,9.745042771100997925e-02,1.739963412284851074e+00,3.793478310108184814e-01,-6.761902570724487305e-02,1.111752241849899292e-01,2.084208428859710693e-01,-4.366919398307800293e-01
