-8.154939860105514526e-02,-2.730550467967987061e-01,-5.256029963493347168e-01,-1.088798403739929199e+00,3.370449244976043701e-01,4.468436241149902344e-01,-1.064444109797477722e-01,-4.318770766258239746e-02,-2.960877418518066406e-01,-4.423214197158813477e-01,1.156587973237037659e-01,2.439901381731033325e-01,8.578655123710632324e-01,8.959912657737731934e-01,-6.804588437080383301e-01,-7.706671953201293945e-02,1.156186014413833618e-01,1.539584398269653320e-01,4.782147109508514404e-01,3.550719618797302246e-01
2.263495326042175293e-02,5.520594120025634766e-02,2.475414425134658813e-01,3.333238959312438965e-01,-6.294395774602890015e-02,3.479292690753936768e-01,5.456718206405639648e-01,1.828003674745559692e-01,5.708702802658081055e-01,-6.112422943115234375e-01,1.407935619354248047e-01,2.252456992864608765e-01,6.238707154989242554e-02,1.081426590681076050e-01,4.914309978485107422e-01,4.231343269348144531e-01,2.771888971328735352e-01,2.473799586296081543e-01,-8.559949696063995361e-02,6.701020598411560059e-01
1.588126271963119507e-01,1.992713212966918945e-01,1.311910599470138550e-01,4.851589724421501160e-02,7.084671258926391602e-01,6.173070669174194336e-01,1.018801331520080566e-01,3.424391150474548340e-01,-2.707635760307312012e-01,7.958764433860778809e-01,1.906674541532993317e-02,7.226421684026718140e-02,2.297791391611099243e-01,1.277852505445480347e-01,4.053838551044464111e-01,4.967573881149291992e-01,3.732545375823974609e-01,2.944364249706268311e-01,2.612304389476776123e-01,-1.952785104513168335e-01
9.324990957975387573e-02,-1.025927960872650146e-01,3.260114192962646484e-01,4.837322533130645752e-01,-7.879254817962646484e-01,1.936327517032623291e-01,3.783349096775054932e-01,-2.952949404716491699e-01,-1.290628314018249512e-01,-2.782024145126342773e-01,-9.568913280963897705e-02,3.018622398376464844e-01,-5.927807092666625977e-01,5.580736696720123291e-02,1.085933327674865723e+00,-6.577607989311218262e-01,2.647155821323394775e-01,1.851074993610382080e-01,3.626142442226409912e-01,1.206236258149147034e-01
