5.495673418045043945e-01,2.860315144062042236e-01,6.353495121002197266e-01,-8.528013229370117188e-01,6.511827707290649414e-01,-6.432285308837890625e-01,1.721514612436294556e-01,6.317458152770996094e-01,-2.032322287559509277e-01,-4.527489244937896729e-01
-4.165576398372650146e-01,1.916488856077194214e-01,2.177357673645019531e-02,5.689787864685058594e-01,-6.068366765975952148e-01,-3.113748133182525635e-02,-1.088128209114074707e+00,-7.201416790485382080e-02,6.619762778282165527e-01,1.020692065358161926e-01
2.966636717319488525e-01,-5.351811274886131287e-02,-8.094171285629272461e-01,9.241602569818496704e-02,3.813787177205085754e-02,-4.398472011089324951e-01,4.762658476829528809e-01,-6.755371093750000000e-01,-4.545128941535949707e-01,3.668913841247558594e-01
-2.823048271238803864e-02,1.649636626243591309e-01,-6.915331482887268066e-01,-4.216759204864501953e-01,-3.673905432224273682e-01,-3.523226827383041382e-02,6.065316200256347656e-01,4.035782217979431152e-01,2.309867739677429199e-01,7.325822114944458008e-01
7.731980830430984497e-02,5.514642596244812012e-01,3.908630907535552979e-01,-1.594169139862060547e-01,-4.765110611915588379e-01,-8.688546419143676758e-01,7.796335816383361816e-01,2.736018002033233643e-01,-2.745810747146606445e-01,-1.458244677633047104e-02
